{"layers":[{"out_depth":2,"out_sx":7,"out_sy":6,"layer_type":"input"},{"sx":4,"sy":4,"stride":1,"in_depth":2,"out_depth":32,"out_sx":8,"out_sy":7,"layer_type":"conv","l1_decay_mul":0,"l2_decay_mul":1,"pad":2,"filters":[{"sx":4,"sy":4,"depth":2,"w":{"0":-0.038236985384951384,"1":1.1006323052178832,"2":-0.010693414954215372,"3":0.04797526716595172,"4":-0.7204571598646242,"5":0.3272022747584749,"6":0.22150346535903584,"7":0.235990129953752,"8":-0.41142696307396065,"9":0.07757604003473949,"10":-0.24637708240252143,"11":0.1736792261263342,"12":-0.07807954150372722,"13":0.05021578786558597,"14":-0.3536544200512098,"15":0.3650975711877061,"16":0.22949123011578565,"17":-0.24437837629225126,"18":0.3008251890290889,"19":0.07785117463366277,"20":0.2910230988639601,"21":-0.3237601099595613,"22":-0.32120494264363686,"23":-0.35008028605538216,"24":-1.056393725170426,"25":0.01701504979221694,"26":0.21445556279636885,"27":0.9994623224940317,"28":0.48204337589830665,"29":-0.03772712807660654,"30":-0.20305736579209,"31":-0.28242544516721224}},{"sx":4,"sy":4,"depth":2,"w":{"0":-0.17451623183367462,"1":0.3620440977194267,"2":0.5473646089350928,"3":-0.21949716540519082,"4":-0.10833108103096764,"5":-0.1745236779538082,"6":-0.12259741899777837,"7":-0.11073026912411678,"8":-0.23409411790994636,"9":0.596190580410116,"10":0.3170226134176781,"11":-0.036170110902175284,"12":0.11483057582604168,"13":0.7432712521294336,"14":0.3891150975980633,"15":-0.16884020542336356,"16":0.6233277892430025,"17":0.07632495023598049,"18":-0.05180015873832047,"19":-0.10422692881067998,"20":-0.07813096722583468,"21":0.31060604562157046,"22":-0.4408281475182419,"23":0.5696737013956801,"24":0.39596648805443774,"25":-0.6743504867075795,"26":-0.13458398693097695,"27":-0.08870525823044487,"28":-0.2141303790467901,"29":0.4317958158934893,"30":0.30040527100021924,"31":0.8306939358790975}},{"sx":4,"sy":4,"depth":2,"w":{"0":0.21761347123023966,"1":-0.1086162467082395,"2":0.07501596504093724,"3":-0.16599836360685408,"4":0.3441316107186257,"5":-0.09982048879567915,"6":0.2648122254553595,"7":-0.180628609303322,"8":-0.4655424557343824,"9":-0.8145033288223231,"10":-0.42867801037164593,"11":0.054182355049319314,"12":0.22183416364176442,"13":-0.2535678282805215,"14":0.4416496297966321,"15":0.014032883608755964,"16":-0.12028139077689592,"17":0.5779561145327559,"18":-0.16090377009319384,"19":1.1247242185550743,"20":-0.5906879538483777,"21":0.130186906500782,"22":0.14981519818770578,"23":0.46582037657869224,"24":0.0724912989669151,"25":0.2714752450480599,"26":0.5372673933561606,"27":0.616163208552809,"28":0.13228276045135245,"29":0.17725455476162874,"30":-0.16742642768604152,"31":-0.2411186475847852}},{"sx":4,"sy":4,"depth":2,"w":{"0":-0.19919940944188136,"1":0.279732458277774,"2":0.2764052355106298,"3":-0.2942559719770572,"4":-0.22250561959002688,"5":-0.03133412058059649,"6":0.1582682571903123,"7":0.09444069797112302,"8":-0.3128816064788813,"9":0.07575197864544493,"10":-0.21329458171385562,"11":0.7335965340549399,"12":-0.2143540293889811,"13":-0.3160268657754056,"14":-0.29360574975154424,"15":-0.009970175332376364,"16":-0.09320688640081222,"17":-0.16530129287281825,"18":0.17580912680769947,"19":-0.02914412027952928,"20":-0.03029282986494762,"21":0.3020934410157062,"22":-0.7464582016743376,"23":-0.21678189079365506,"24":-0.44148767964159574,"25":1.0806436724461312,"26":-0.06789561406925214,"27":-0.591773627047481,"28":0.3108866391372345,"29":-0.028533365603571732,"30":-0.03839710509232922,"31":-0.27855174502737995}},{"sx":4,"sy":4,"depth":2,"w":{"0":0.3114686006848592,"1":0.2473028389445294,"2":-0.57573769806979,"3":0.2633080625938895,"4":0.39379809039685054,"5":0.24356852577216925,"6":0.06164729589769935,"7":0.22366497700094967,"8":-0.5428896293592624,"9":0.13985972360764587,"10":0.2021541486900466,"11":0.15922879637346812,"12":-0.19841687396372368,"13":0.06622550362229301,"14":-0.7886067801135337,"15":-0.04005100393600501,"16":0.25801111296565654,"17":1.243556809785143,"18":-0.1276861068859759,"19":0.110069690227085,"20":0.16272601762934621,"21":-0.03183661774850182,"22":0.3959476579782769,"23":0.19974867399736118,"24":0.6275483273139724,"25":0.6350406089444787,"26":0.22778732760824597,"27":0.24605541716778612,"28":-0.3111397570236419,"29":-0.23459966751029782,"30":0.13680402121472002,"31":0.7383343505280173}},{"sx":4,"sy":4,"depth":2,"w":{"0":1.1441489828455287,"1":0.8508131819106796,"2":0.5155848223871995,"3":0.10024075773028214,"4":-0.06996198842058461,"5":-0.2764285286680344,"6":0.23191467789035197,"7":-0.060974444921230934,"8":0.2540698269989236,"9":-0.3226992919544117,"10":-0.26558625419000303,"11":-0.01668372904538935,"12":-0.21589231001158055,"13":0.3406776899612935,"14":-0.33166476544341666,"15":-0.25357964577965164,"16":-0.7304380916924,"17":0.3964922775849241,"18":0.3807407046872259,"19":0.28643798272927207,"20":-0.7023203397829185,"21":0.030577441810089832,"22":0.3691111030484433,"23":0.13171641242757742,"24":-0.07515610422655467,"25":0.7858649788988791,"26":0.7459863259693259,"27":0.21544717528949214,"28":-0.4983264785904375,"29":-0.8966614369611242,"30":-0.8436216100277348,"31":-0.6246177457393767}},{"sx":4,"sy":4,"depth":2,"w":{"0":0.28571603203330986,"1":-0.5218940188936934,"2":-0.38321082981738297,"3":0.2040233054550204,"4":0.21882175275021343,"5":-0.02486845704712842,"6":-0.14703659900356605,"7":0.13732565099240238,"8":-0.005880960600044264,"9":0.34731249573562467,"10":-0.6733099294756205,"11":0.019270662115621312,"12":-0.06688851153726429,"13":-0.08183676477940591,"14":-0.07898420871920837,"15":-0.08255568505407591,"16":-0.27787529386193,"17":0.09250880458717585,"18":-0.1695607543536195,"19":-0.42675852067312103,"20":1.0659252144160194,"21":1.1557252327785164,"22":-0.7882939852951035,"23":-0.4953995666846355,"24":0.8213195303716041,"25":-0.38934572948788587,"26":-0.5345968190155536,"27":-0.26362907456094486,"28":-0.5557296750464968,"29":-0.4503308272008042,"30":-0.5146899905311226,"31":0.8163492129333088}},{"sx":4,"sy":4,"depth":2,"w":{"0":-0.17757235955961556,"1":0.7139602465920575,"2":0.10635788974052808,"3":-0.23503814790762012,"4":-0.2810867709360103,"5":-0.3883305095929407,"6":-0.36302764438209084,"7":0.3327861142162787,"8":0.2960872488569726,"9":-0.3905527644452592,"10":0.2245322860330198,"11":0.4508549767360332,"12":0.05909958048228257,"13":-0.5578587277351065,"14":0.6598036583946788,"15":0.49095203325657244,"16":-0.0171965498487207,"17":-0.7715094417971443,"18":0.16681538599513968,"19":-0.13043845003283255,"20":-0.009572982708808098,"21":-0.3751641177418833,"22":0.08571352171175949,"23":-0.025201758104949037,"24":0.4729675688436601,"25":-0.6526105929838785,"26":0.18869881325065657,"27":0.3651396646456824,"28":-0.3401345492271441,"29":0.6223005713250034,"30":-0.23601706936707917,"31":-0.2597473389535678}},{"sx":4,"sy":4,"depth":2,"w":{"0":0.11351682064969476,"1":-0.0914942205772925,"2":-0.11813506367129742,"3":0.07442909512324122,"4":0.04405169833264515,"5":0.23196251919318223,"6":0.03968502408681846,"7":-0.1580407997624922,"8":-0.20935189588563158,"9":0.8162120192190155,"10":-0.2285050479541827,"11":-0.5893480240047001,"12":-0.332170049191264,"13":0.797421877912916,"14":-0.055451325942413726,"15":-0.03684565851765764,"16":0.11438279635323617,"17":0.07550994700650929,"18":-0.018581840733322225,"19":-0.11239866280112187,"20":0.44749844030152847,"21":0.6225334852227586,"22":-0.309480607832338,"23":-1.0213231484361742,"24":0.45119394659621886,"25":-0.226668334741014,"26":0.9427596779089519,"27":-0.23223367966109293,"28":0.1919613596902803,"29":0.04369796708620217,"30":-0.04364213912693534,"31":-0.29040888280971267}},{"sx":4,"sy":4,"depth":2,"w":{"0":0.4166344563188148,"1":-0.02171602818269207,"2":0.29835254006487993,"3":0.008595974806288355,"4":0.24785212701706394,"5":-0.033832349681052185,"6":0.43402611400472074,"7":0.1944561726221992,"8":0.9744823414270173,"9":0.7260410732159958,"10":0.011219206965608783,"11":-0.04579336864235954,"12":0.033673646097408215,"13":-1.2360200086602895,"14":0.1661323839031186,"15":1.3449662899553299,"16":-1.295294488072222,"17":0.29917673897024866,"18":1.4990052109212038,"19":0.07600204235504487,"20":-0.29249570364831234,"21":-0.06384197769187766,"22":0.09848825887935082,"23":-1.120544688396537,"24":0.4102025337814603,"25":0.6806127833512299,"26":-0.5718342132777313,"27":0.5972544644526221,"28":0.4705391720007682,"29":0.3357115794570826,"30":-0.3962235084577889,"31":0.13089176459668284}},{"sx":4,"sy":4,"depth":2,"w":{"0":0.1593207635838177,"1":-0.10790244470436285,"2":-0.2557775080413179,"3":0.09399036420274486,"4":-0.07338932932292977,"5":0.04859602384825857,"6":0.05539330928476502,"7":-0.24780238257012996,"8":0.7814670633914019,"9":-0.023132766857927138,"10":-0.2495921111927691,"11":0.02955536454936082,"12":0.3601132312230021,"13":-0.700588770779271,"14":0.3972551669197614,"15":-0.8910627071355234,"16":-0.6496683720156387,"17":0.5311176597697945,"18":0.6257041137889641,"19":-0.060659349052594645,"20":0.2588813931725581,"21":-0.2466677191983111,"22":0.3402053001117595,"23":-0.41999903172831443,"24":0.010744612597409229,"25":-0.0006063356148346268,"26":-0.3190277635148847,"27":0.04949892015959058,"28":0.4631000886086945,"29":0.3639760577772895,"30":-0.9905615106306022,"31":0.3795322681414386}},{"sx":4,"sy":4,"depth":2,"w":{"0":0.24961665344752895,"1":-0.28510420487321275,"2":-0.4053683284930618,"3":0.10605753843858595,"4":0.578359688228511,"5":-0.42592489587257315,"6":-0.15999061122979602,"7":-0.15783789751789593,"8":-0.005732845112905251,"9":-0.008177627376145427,"10":-0.3173459594477708,"11":0.017137825039232883,"12":0.1363137989623457,"13":-0.10489985523606514,"14":-0.2116417048802699,"15":0.09703036738555457,"16":0.31399172076241605,"17":-0.5193168933926499,"18":0.03626380208858003,"19":0.35936645371514264,"20":0.1279577244872143,"21":0.9167040656043413,"22":0.0732964103282427,"23":-0.29997014753197243,"24":-1.0842375803402113,"25":-0.20126685846791212,"26":0.4227956457930879,"27":0.4569566807507186,"28":-0.3699627925144086,"29":-0.29481092005555243,"30":-0.38096382098011167,"31":0.5116225720647564}},{"sx":4,"sy":4,"depth":2,"w":{"0":-0.3641773214756485,"1":-0.5952298328047526,"2":0.019638217282792397,"3":0.06328647396811968,"4":0.8338291624096228,"5":0.2716442639386048,"6":0.0724495990427165,"7":-0.51365264742592,"8":0.061424837265321684,"9":0.18054589701251722,"10":-0.36012367707168325,"11":0.3515234448710529,"12":0.22102973976831558,"13":-0.06971287979887002,"14":-1.0037650710786943,"15":-0.12209322716355642,"16":0.2402416339488405,"17":1.4936995672610234,"18":-0.5919499225157373,"19":0.6045384522272275,"20":0.02839386030081796,"21":0.7718653405230426,"22":-0.4095783579599527,"23":-0.1382076955175102,"24":0.21828754438397363,"25":-0.6111855226807907,"26":-0.3247475562015816,"27":0.4065429438866511,"28":-0.338429007974716,"29":0.31997253414631593,"30":0.8194970328289736,"31":0.37059302575104724}},{"sx":4,"sy":4,"depth":2,"w":{"0":0.02866227097337136,"1":0.1665698442883153,"2":-0.9192626381545914,"3":0.4552554205539205,"4":0.2827257151610159,"5":0.2749685948514479,"6":-0.3831519550874263,"7":0.37121292704448894,"8":-0.43407718921741734,"9":0.46146369120558056,"10":-0.20949712832225464,"11":-0.032924126792500286,"12":0.5161889063538353,"13":-0.5707027814682101,"14":0.3600477223101119,"15":0.09458837801730542,"16":0.5914920727066236,"17":-0.5448903253297033,"18":0.7487013113932309,"19":-0.324841599119939,"20":-0.3606603729792957,"21":-0.30895475576103154,"22":0.7529611202481132,"23":0.17837276610969027,"24":-0.5039986382412102,"25":0.5382796119413894,"26":-0.640628769507143,"27":0.5641149547248105,"28":-0.009604430929955563,"29":0.4284247265218034,"30":-0.6158726150345685,"31":-0.16412076951951302}},{"sx":4,"sy":4,"depth":2,"w":{"0":-0.1858215675979168,"1":0.565950785458722,"2":0.014892902962898304,"3":-0.0856721505485419,"4":0.02774757423594383,"5":-0.07450771683868683,"6":-0.03497417341057889,"7":0.140471752435334,"8":0.28789889969590504,"9":-0.14398196290016352,"10":0.13859751273657017,"11":0.2880436511125357,"12":-0.024880975205150827,"13":0.621686356989643,"14":-0.09266329915802275,"15":-0.439951720562597,"16":0.7070424679552557,"17":-0.21415967168549047,"18":0.22506141735162793,"19":0.40150677666257556,"20":0.6167394965128951,"21":-0.07764582443713532,"22":-0.12476182385834675,"23":0.006882448487882481,"24":-0.5150433875413728,"25":-0.4412664932152719,"26":-0.4400766432011051,"27":0.05819869441944606,"28":0.8090584049219893,"29":0.9321558968713838,"30":1.1485819029446784,"31":0.45814837133220115}},{"sx":4,"sy":4,"depth":2,"w":{"0":0.16834951616637653,"1":-0.4315327443069065,"2":0.2735717478867367,"3":-0.04718582099268978,"4":0.2022135777279913,"5":-0.20734261923865188,"6":0.031979060782140495,"7":0.11138703826912924,"8":0.1942220045799459,"9":0.3946276625439506,"10":0.17184984331362768,"11":-0.7256097237333767,"12":0.7071892594037755,"13":0.36995560826451845,"14":-0.06639603656485471,"15":-0.04532592170904438,"16":0.11858107609036049,"17":0.4001676185500862,"18":-0.2710842058974903,"19":0.028288442091190084,"20":0.08381176406478555,"21":-0.2987101268681167,"22":-0.31179907941026247,"23":0.8676489016359962,"24":-0.07985752089187417,"25":1.0314256059650393,"26":0.3568435115364232,"27":0.029822377043465423,"28":-0.09112969737665631,"29":-0.40921078872093364,"30":-0.06822297327952834,"31":-0.04297933304526873}},{"sx":4,"sy":4,"depth":2,"w":{"0":0.4302381620644352,"1":-0.05272103901917058,"2":-0.08923737556949377,"3":0.32976551103319773,"4":0.05479101988996814,"5":0.24382827664541695,"6":-1.06527256979351,"7":1.1785882435744035,"8":0.3228950169005394,"9":-1.389228960421721,"10":0.811003733366324,"11":0.2915284034050168,"12":0.09944175351682968,"13":-0.14418581067574787,"14":-0.009133067460476065,"15":0.03027564320837204,"16":0.36437088058829076,"17":0.44856156261701247,"18":0.399989742941845,"19":-0.3970136313745282,"20":0.5979374553285838,"21":0.7034767890018633,"22":0.18985718573743424,"23":0.08572084108341661,"24":0.2935220796723395,"25":0.10378144971281214,"26":0.3507619051837202,"27":0.2163185893622463,"28":-0.010906742341527437,"29":0.36288921622005815,"30":-0.4378323826452623,"31":-0.15415928317160643}},{"sx":4,"sy":4,"depth":2,"w":{"0":0.32193524824081177,"1":-0.32445690256003645,"2":-1.0262132821967933,"3":-0.20873253148739698,"4":-0.00931307807743649,"5":-0.033280770251213745,"6":-0.00983634890672604,"7":0.16115041914083622,"8":-0.03650121000559602,"9":0.19482312897645884,"10":-0.030944815206415382,"11":0.25104149147985094,"12":1.3102406795687864,"13":0.13844373914079375,"14":0.10086555584882582,"15":0.6272123972885449,"16":-0.5428424122350528,"17":-0.3616630764830084,"18":-0.6681256426325498,"19":-0.1928920051449714,"20":-0.02690664851330465,"21":-0.07134161532812118,"22":1.0297643278420667,"23":0.08016581192035627,"24":-0.6207847298494593,"25":1.100268441259432,"26":0.020238027268912342,"27":-0.1500620576360448,"28":0.3976551649584061,"29":-0.019483125101983054,"30":-0.03331389265347194,"31":0.006535391692269615}},{"sx":4,"sy":4,"depth":2,"w":{"0":-0.060320520476148144,"1":0.058191696787837664,"2":-0.09370250578199717,"3":-0.0015281655352954704,"4":-0.0502803486839586,"5":2.0438508691917106,"6":-0.22916419367961652,"7":-0.05931157557539931,"8":-2.168999904391824,"9":-0.06357385784021981,"10":-0.0504001944721878,"11":-0.0703858415694321,"12":-0.08945357719750542,"13":-0.06871791830798292,"14":-0.18318249477691903,"15":0.25740407110551755,"16":-0.4914038460430034,"17":0.6978306634467958,"18":1.6720289358241684,"19":-0.35504983569079945,"20":-0.3807994458175294,"21":0.289533771825154,"22":-0.018995683555212726,"23":-0.05777853459187112,"24":-0.12945654034702858,"25":0.16392226476985255,"26":-0.28337508839013925,"27":-0.005005382619199867,"28":0.013307211623374995,"29":-0.6122453715336788,"30":0.4342653480592107,"31":0.04240088225887328}},{"sx":4,"sy":4,"depth":2,"w":{"0":0.5233666976213046,"1":0.2577312591628902,"2":0.08532150046861911,"3":-0.03389770487443374,"4":-0.27499866961742475,"5":0.6486655699174172,"6":0.2852979315928635,"7":0.06431894348844937,"8":1.0558196698775832,"9":-0.1592879746917865,"10":-0.01642122133324648,"11":-0.5185062948061149,"12":0.1279461356831017,"13":0.21253538174131553,"14":0.1819317355662653,"15":1.1214149759488088,"16":-0.08375445549148115,"17":-0.7397409200073196,"18":0.8189104333404325,"19":0.3051336432046118,"20":-0.04002393116771412,"21":-0.8145238271805928,"22":-0.23733857309442757,"23":-0.0839191939654399,"24":-0.7139362415797039,"25":0.13164057806254376,"26":0.07423389575416973,"27":-0.634420847959038,"28":0.4579727847573955,"29":0.5115402110659686,"30":0.3882707375639921,"31":-0.5649133495111287}},{"sx":4,"sy":4,"depth":2,"w":{"0":0.04015945200541884,"1":0.3086499521101419,"2":0.18224869992352322,"3":0.1354184205415408,"4":-0.22311140428381826,"5":0.16276013427012123,"6":0.11631796922000794,"7":-0.029226498499598658,"8":-0.19050169758904809,"9":-0.18407840093583752,"10":-0.14013690946270752,"11":-0.5180797954691585,"12":-0.3383868860593756,"13":0.5535738598023296,"14":-0.4106352236012007,"15":-0.22613017972185218,"16":-0.8258007405301779,"17":-0.7611910246361477,"18":0.5125512800468273,"19":0.48569813953567614,"20":0.4819259207859213,"21":-0.8635651509917445,"22":0.6090456073195122,"23":0.230267148238701,"24":-0.2845598082653619,"25":0.13782340775086596,"26":0.6441521679355723,"27":-0.09459841220133834,"28":0.2197935663869143,"29":0.18763936576698265,"30":0.39128381001913537,"31":-0.35536701434978396}},{"sx":4,"sy":4,"depth":2,"w":{"0":-0.27467204367284326,"1":0.1703402161137282,"2":-0.0763800057879286,"3":-0.17488734302236084,"4":0.37059545520794246,"5":0.20658477836039127,"6":-0.30790783406621275,"7":0.03593492940273619,"8":0.6062561482545301,"9":0.11941744934207049,"10":0.03428046930133564,"11":-0.08690230919423024,"12":-0.7506601113813678,"13":-0.27841227963641824,"14":-0.3723911382895884,"15":0.29706639797043377,"16":-0.10500563861876702,"17":0.6901265896929758,"18":0.674669469507143,"19":0.5045139521725972,"20":0.842541123870663,"21":-0.07437097544684751,"22":-0.6305843979746372,"23":0.420436465241964,"24":-0.25190799986556617,"25":-0.5648704853974094,"26":-0.10177054629707975,"27":0.3961795084689895,"28":0.32606271900765554,"29":-0.09313914528852912,"30":0.09755798415872029,"31":0.20726963753990887}},{"sx":4,"sy":4,"depth":2,"w":{"0":-0.01548518412599554,"1":-0.06358810126999137,"2":0.6438734760456145,"3":-0.022116969433342116,"4":-0.7261679019936746,"5":0.22514831099394617,"6":0.2503251523695713,"7":0.15070971106009173,"8":-0.4296007647840721,"9":-0.48826895867104564,"10":0.3632192386063653,"11":0.25229458317331743,"12":0.20131949125418586,"13":0.008473209911176081,"14":-1.5393314866274268,"15":-0.36162127043269027,"16":0.5160894170482423,"17":-1.3639642765476008,"18":1.0602844182080733,"19":0.217889123770768,"20":0.252240982558052,"21":0.28103019039771693,"22":0.1596546381692633,"23":0.18747706111627288,"24":0.09179124825906797,"25":0.19067953953458439,"26":0.30312116321115107,"27":-0.44377008616059405,"28":0.45499324264269864,"29":0.22971846236989496,"30":0.12587786296578407,"31":0.43586629307130187}},{"sx":4,"sy":4,"depth":2,"w":{"0":1.1200790331739883,"1":0.1730688973583457,"2":0.11600810347359265,"3":-0.5822595350801549,"4":0.13060504217731023,"5":-0.21649988961832897,"6":-0.3087712620730071,"7":1.12069002910586,"8":-0.33544493781457296,"9":0.028665064021473525,"10":0.13077167741088438,"11":-0.31306181475342193,"12":-0.3544379437040693,"13":0.18127940602339848,"14":0.0888299440818802,"15":-0.39644341143010453,"16":-0.7352530855081713,"17":-0.04340023773314244,"18":0.6505334667590688,"19":0.09120366648909439,"20":-0.371337499252605,"21":-0.5092558589393448,"22":-0.01913661530218015,"23":0.7568942839477444,"24":0.6110504183429561,"25":-0.5027248505618263,"26":-0.20905287956692084,"27":-0.07739294213448294,"28":0.5012943872018224,"29":-0.15601053668981207,"30":-0.820277480465315,"31":-0.19059671763102826}},{"sx":4,"sy":4,"depth":2,"w":{"0":0.553834217000263,"1":-0.4274386311554629,"2":0.19452755174199848,"3":0.28546481148041425,"4":0.3102327607109702,"5":-0.05915071485052965,"6":0.008185982112948418,"7":0.012904856154331325,"8":0.08443389536652918,"9":-0.000004377915058871605,"10":-0.3624368026665765,"11":0.13322115470829682,"12":0.3800783609463932,"13":0.10322791961399831,"14":-0.5886779192774064,"15":0.49197798031398376,"16":0.031661722540173826,"17":-1.1324901533238165,"18":1.2795103492410242,"19":-0.01919235067567499,"20":0.513713725237545,"21":0.06043982962720312,"22":0.02237499181068331,"23":0.14139010780280703,"24":-0.07113810033737025,"25":0.6585568032760518,"26":0.6214980098331061,"27":-0.38100052117417677,"28":-0.09814963674174516,"29":-0.08086261963028042,"30":1.050794267815414,"31":-0.7861647542314713}},{"sx":4,"sy":4,"depth":2,"w":{"0":-0.3982988729135084,"1":-0.005655786345756013,"2":0.33579768796040815,"3":0.0029278802886864757,"4":-0.14536556298151668,"5":0.5221377419611715,"6":-0.20663017135273687,"7":-0.36167182447589535,"8":0.4175021577459107,"9":0.7121926389119486,"10":-0.6959641997682492,"11":0.03164168429637689,"12":0.17733782092818512,"13":0.2351756354371869,"14":-0.28394185912953823,"15":-0.22566310112952093,"16":-0.40978233098754324,"17":-0.11121519002898952,"18":0.06635486080422826,"19":0.3484997216879371,"20":-0.5982423564519087,"21":1.0056346109117669,"22":-0.03801999767024109,"23":0.4849585454038894,"24":0.9520803651930769,"25":0.46118198172600583,"26":0.053263660398398145,"27":-0.4228516397576023,"28":-0.3298220518498551,"29":0.1265559845922603,"30":-0.5543216054074335,"31":1.042270292935288}},{"sx":4,"sy":4,"depth":2,"w":{"0":-0.24360617565305226,"1":-0.3009838850986137,"2":0.38379775471717265,"3":-0.02837165574208805,"4":-0.15330921958873409,"5":0.09767515632636078,"6":-0.03583545359312669,"7":-0.27011669041980507,"8":-0.04867821106215219,"9":-0.1270864913311963,"10":-0.2451079325464802,"11":-0.37604351426017635,"12":-0.16550395606211077,"13":-0.09917475266248556,"14":-0.3834770522030166,"15":-0.19061207294783614,"16":0.1433886555539185,"17":0.5538824605134745,"18":-1.1724499869982998,"19":0.6241105121999735,"20":0.5729132671790514,"21":0.4426439812753,"22":-0.8310286161112325,"23":-0.2108195216882992,"24":0.42061193251284507,"25":-0.26755197421107557,"26":0.4723042523946779,"27":-0.05934987847446431,"28":-0.18542298506216556,"29":-0.427049786696396,"30":0.6572719128127361,"31":-0.44975378830935125}},{"sx":4,"sy":4,"depth":2,"w":{"0":0.12671326806595942,"1":0.05942481819364296,"2":0.22938424018019035,"3":-0.20182299752123495,"4":-0.013151975037546159,"5":-0.00670545580666181,"6":-0.5850572098973597,"7":-0.27689765800544436,"8":0.07842789827805363,"9":-0.19436721155956752,"10":0.2261363132475118,"11":0.41454536515044466,"12":0.8104198661914532,"13":0.17498823615279985,"14":0.1283224323490986,"15":-0.23681742674253414,"16":-0.5355877961743511,"17":-0.5159816456992542,"18":-0.19956729354780697,"19":0.2678254002025581,"20":0.45482233644136827,"21":0.9573227967637092,"22":0.7088515751954767,"23":0.36306306855079284,"24":0.368182131693946,"25":0.1656225866873904,"26":0.11364163625533914,"27":0.4464406571989623,"28":-0.22270337781891447,"29":0.5258856347915581,"30":0.06242878218937672,"31":0.1723319816861315}},{"sx":4,"sy":4,"depth":2,"w":{"0":-0.08629062197167583,"1":0.0644068486099943,"2":-0.04711041204723458,"3":0.5405833360411554,"4":0.3919983265017268,"5":-2.0084846520183905,"6":0.4900974418580768,"7":0.10791936496479712,"8":-1.650993562109954,"9":0.7824540778434339,"10":-0.17909079376348022,"11":-0.049972504696643376,"12":0.13378982517128327,"13":0.5415348190604099,"14":0.6262938731202703,"15":-1.9012708420447113,"16":0.44127168092547625,"17":0.5233069026881119,"18":-1.210539832855917,"19":0.43354777679873335,"20":0.1798587641423474,"21":0.5118779823118412,"22":0.6448510073746713,"23":0.28262431870099125,"24":-0.14178422432848123,"25":0.3186650991929335,"26":0.09746804430848419,"27":0.17104049332508722,"28":-0.3312530078025944,"29":0.04455550000872226,"30":-0.19162462990953033,"31":0.34437481611045284}},{"sx":4,"sy":4,"depth":2,"w":{"0":-0.2856676412196583,"1":-0.9661376636922333,"2":1.2405547693147978,"3":0.05929103109539238,"4":0.017339242851684988,"5":0.09208219649399889,"6":0.022774075796191104,"7":0.15865276325061417,"8":0.45295142511298553,"9":-0.22240820401510886,"10":-0.1587563384315577,"11":-0.4950609608084584,"12":-0.11359405133937729,"13":-0.33951550582817064,"14":0.11992833605944037,"15":0.5785208462561844,"16":0.44984534127643533,"17":0.05982700848304629,"18":0.3110473087221726,"19":-0.02887125196939347,"20":-0.2820431286338575,"21":1.2038183029789764,"22":-1.1497574055315591,"23":-0.09989217608046531,"24":1.3062295692414436,"25":-1.3539648357145424,"26":0.029511962371792724,"27":0.01352390830524369,"28":0.3485259595563535,"29":0.3480834205890194,"30":-0.027888790309049005,"31":0.5145269405626824}},{"sx":4,"sy":4,"depth":2,"w":{"0":0.053604303129112574,"1":-0.5591910152489891,"2":-0.05732725167335856,"3":0.8579473995895196,"4":-0.3252861651260728,"5":0.09042023748211946,"6":-0.25007909417983054,"7":0.013091130084079217,"8":-0.30323906081744667,"9":0.5143268297470146,"10":-0.13160446021608013,"11":-0.024862572983248312,"12":-0.11107689238333253,"13":0.13251209270985054,"14":0.1586549341859805,"15":-0.10399337883340742,"16":0.28004068467865384,"17":-0.6460243529281408,"18":0.3030765878943752,"19":-0.17198436075561488,"20":1.1129137952623007,"21":-0.9763779175867153,"22":-0.3627684510035366,"23":-0.2432536693675711,"24":-0.39231336200972805,"25":0.513768926815633,"26":-0.36340802694291785,"27":-0.04613898984496419,"28":0.03939036995325176,"29":0.03459096342269292,"30":-0.1324409265994114,"31":1.3061270240608234}},{"sx":4,"sy":4,"depth":2,"w":{"0":0.100548502627301,"1":-0.13538128655518947,"2":-0.06062023135075244,"3":0.15547807791017126,"4":-0.36308553762208295,"5":0.11580672925552202,"6":-0.4452525452398456,"7":-0.0408519940675432,"8":0.099682741744654,"9":-0.5168002266066918,"10":-0.11883351083970554,"11":-0.12003401495584194,"12":0.03633262638904929,"13":0.6040983954215129,"14":1.3487648265248413,"15":-0.12229119707650558,"16":-0.06285417250862406,"17":1.5867817849610162,"18":-0.31257686112526706,"19":-0.4806846098482015,"20":-0.10290297148075182,"21":-0.36994778187187966,"22":-0.2775474767545147,"23":-0.3811562729635442,"24":-0.014006528293102661,"25":-0.5032064342799366,"26":0.08426654999347012,"27":0.43895411209972723,"28":0.3164436636993238,"29":1.1835002501865504,"30":0.38635413431250387,"31":0.053968908310394616}}],"biases":{"sx":1,"sy":1,"depth":32,"w":{"0":0.006922454400885053,"1":-0.6088879914542399,"2":-0.23030072471509333,"3":0.30900524332863416,"4":-0.4690641326235112,"5":0.03337773760688623,"6":0.1999010091492964,"7":0.007915960474479912,"8":0.004071343134060442,"9":-0.405673321665063,"10":0.184719086345108,"11":0.21070571289880957,"12":-0.12699346018533547,"13":0.12368016825764597,"14":-0.6056834821876422,"15":-0.2405044349153376,"16":-0.6714499665730093,"17":-0.05740978708157699,"18":0.11922736681937611,"19":-0.3033014703334001,"20":-0.198963858026859,"21":-0.11588633679963246,"22":-0.12945215410604569,"23":0.1327361164916986,"24":-0.0820097076389206,"25":-0.5627699290446444,"26":-0.0009704707908852863,"27":-0.6157711966234054,"28":0.7297366115517769,"29":0.03361263830761097,"30":0.0599157821679328,"31":-0.501478301507499}}},{"out_depth":32,"out_sx":8,"out_sy":7,"layer_type":"relu"},{"out_depth":60,"out_sx":1,"out_sy":1,"layer_type":"fc","num_inputs":1792,"l1_decay_mul":0,"l2_decay_mul":1,"filters":[{"sx":1,"sy":1,"depth":1792,"w":{"0":-0.006599607206365157,"1":0.05628503326143172,"2":0.012382426316980942,"3":0.04205394093490507,"4":0.0019013323881054527,"5":0.006953578787591426,"6":0.011086748212609217,"7":0.00652917001249963,"8":0.005317888870860323,"9":0.014841737559279266,"10":-0.07167324927637515,"11":0.0033814316888819383,"12":0.02273452694470056,"13":-0.06236867924164892,"14":0.027142128762177104,"15":-0.006604546908544662,"16":0.042100314723993705,"17":-0.04375436187666954,"18":0.02231022493527317,"19":0.011390567297184948,"20":0.0012555336777262758,"21":0.007650627837302804,"22":-0.049413689197030444,"23":-0.01977682099473057,"24":-0.010116133789566254,"25":0.006518946216871829,"26":0.0015640718186852045,"27":-0.04187376848278055,"28":-0.04559473503882302,"29":-0.01079219128779981,"30":0.046576085941673236,"31":0.029205824819189454,"32":0.02525719694160787,"33":-0.033331269773903514,"34":0.04443415924130337,"35":-0.003928911431982872,"36":0.046127162236776625,"37":0.05621825358884019,"38":-0.1167578481697901,"39":0.042882392436814305,"40":-0.06850951508492933,"41":0.066223877952132,"42":0.058181912607284295,"43":-0.034417195490400204,"44":0.11185639894938558,"45":0.05459596623841857,"46":-0.04017134476802579,"47":0.015600144138673321,"48":0.0002895146985985481,"49":0.0315559878713551,"50":0.11706623763024762,"51":-0.014344563154345647,"52":-0.09396709379315289,"53":-0.01295258309185993,"54":0.04155369149329049,"55":-0.010358867730613848,"56":0.06280763822385009,"57":0.0786322679628775,"58":-0.01665864930855892,"59":0.021808307069296533,"60":-0.07473661786498419,"61":0.053619011570558026,"62":-0.08028161777806074,"63":-0.019387888649424378,"64":-0.008443990892383416,"65":0.045345256127853555,"66":-0.030496644667651084,"67":0.05386785372127167,"68":0.028721541353661607,"69":-0.014640616733380038,"70":-0.028802581423241033,"71":0.04578388016157121,"72":0.05947755720863255,"73":-0.13121249666190626,"74":-0.04358114485936233,"75":-0.031422569610874654,"76":0.020255909766706767,"77":-0.033153370970982594,"78":-0.007048185767405166,"79":0.013907577279661777,"80":-0.0021029513153377525,"81":0.06431595722784914,"82":-0.1317993119489081,"83":-0.06095461113905207,"84":-0.025053088551528414,"85":-0.012174753701389434,"86":-0.08802491116826593,"87":0.0375463272232604,"88":-0.13170439088518,"89":0.0019456066149908147,"90":0.01298374835556025,"91":0.0639828059782739,"92":-0.034301651366685504,"93":0.0221947413051635,"94":-0.007752516654451448,"95":0.08840883967962403,"96":-0.00920219646471968,"97":-0.0716221550914331,"98":0.05820572466480237,"99":0.0017024890296244222,"100":-0.03257575569752853,"101":0.09091594166357699,"102":-0.012371329732914707,"103":-0.023439783244344987,"104":-0.07644082283354445,"105":0.19575936764638477,"106":0.017234402561729298,"107":-0.03504523575308749,"108":-0.030801080354721132,"109":-0.030486174988374016,"110":-0.022803849697165708,"111":0.056247752641043744,"112":-0.09530790774670764,"113":-0.008431759634631867,"114":0.0280885509063647,"115":-0.04710811634417469,"116":0.00850982973058982,"117":0.045442100160112686,"118":-0.0423060554926092,"119":0.01604716749497999,"120":-0.007876031057716225,"121":0.002817826798737651,"122":0.02425499475269345,"123":0.018704396310154008,"124":0.0009819734802448965,"125":-0.11374119438298401,"126":0.02012639183173057,"127":-0.11143136737007261,"128":-0.004258952575746792,"129":0.044237135750241595,"130":0.003413582229286419,"131":0.0532335860830531,"132":0.0001580356110427265,"133":-0.005443037086825617,"134":0.21681705159840062,"135":-0.042715530516396885,"136":-0.012632314758775246,"137":-0.03622929254566854,"138":-0.01092786617031357,"139":-0.07170972663833669,"140":-0.05109477354639931,"141":-0.07767937137658448,"142":-0.007145161364070005,"143":0.09398195448423258,"144":-0.024600388634577686,"145":-0.010681326229195966,"146":0.004207153656507152,"147":0.1054251083153018,"148":0.06035164074577806,"149":-0.05484735731812334,"150":-0.03236950077167289,"151":-0.010972631606986877,"152":0.016742453041653112,"153":0.2916466159753901,"154":-0.11340639748382354,"155":0.04549676525176713,"156":-0.0015970758324082403,"157":0.21628332180964477,"158":-0.015299621733161453,"159":0.02852958891049738,"160":-0.023288121319455905,"161":0.03514268370087077,"162":0.026389606530424204,"163":-0.1194503857592702,"164":-0.039790730363886216,"165":-0.045091303302161365,"166":-0.11151684273525775,"167":0.08646700969095615,"168":-0.021823223593753657,"169":-0.0364346764530145,"170":0.03412821887625965,"171":-0.04834609578109204,"172":-0.04164610054647332,"173":-0.009062093780451641,"174":0.0721255382161701,"175":-0.009975231691996446,"176":-0.02491196259993191,"177":-0.011338566324340434,"178":-0.02839943972103872,"179":0.03319373382464788,"180":0.0400232726094037,"181":0.005746221851698819,"182":-0.022843265621423293,"183":-0.015081140104848605,"184":-0.03754652273486982,"185":-0.007794286540160133,"186":-0.12205627530962784,"187":-0.05377101617137762,"188":0.0002441878818943522,"189":-0.02738201569652997,"190":-0.04225289085844667,"191":-0.014726992907655143,"192":0.007467392145444193,"193":0.07275581643931356,"194":-0.0018068466490514543,"195":-0.008985290026259292,"196":0.03157796457445824,"197":0.08565087379667267,"198":-0.03508126733355254,"199":-0.009783848510818023,"200":-0.002662391529546322,"201":-0.10767334014814504,"202":0.03784599272073406,"203":0.004678687345619082,"204":0.11260828703118557,"205":-0.03780235833728943,"206":0.007787349451535696,"207":0.011602937674315873,"208":0.011380244128634968,"209":0.021651876923973776,"210":-0.04888600646023034,"211":-0.019309656446404477,"212":0.02476867097365512,"213":0.012397614351045791,"214":-0.004185804677077828,"215":-0.027184997384003914,"216":0.06806544927097286,"217":0.010510607948430516,"218":0.030737016263509737,"219":0.0004882888011130995,"220":0.06463643879946414,"221":-0.028440825840639238,"222":-0.04057790742960658,"223":0.09647094313462719,"224":-0.028623937835152168,"225":0.008954112053178592,"226":-0.04098418817769746,"227":0.08582108209345717,"228":-0.07589285096402974,"229":0.0435801207421705,"230":-0.06764276559873833,"231":-0.031126743462179383,"232":0.03103337151446617,"233":0.011287937164812056,"234":-0.03500614840226699,"235":-0.0744953890212735,"236":0.01072280069865114,"237":-0.010958642544144255,"238":-0.01718749381511087,"239":0.045955119406447656,"240":0.030058225061742255,"241":0.03999024945454193,"242":-0.02317557308024482,"243":-0.037736439824312636,"244":0.007055518278775437,"245":0.03520688461138639,"246":-0.032966032167805165,"247":-0.029334605664071957,"248":0.09928684088721854,"249":-0.02510100540120398,"250":-0.04035211026574619,"251":0.04838519576001228,"252":-0.08289125431870102,"253":0.025494619174498568,"254":0.013990603994631269,"255":0.02026498845000767,"256":-0.05535451628890458,"257":-0.06779039936245643,"258":-0.04364629994128387,"259":0.03139311097360065,"260":0.004822686844772778,"261":0.02470368512447578,"262":0.07519977448019548,"263":-0.08317008982298786,"264":0.020133698930208516,"265":-0.009279060834002425,"266":-0.08730746624457257,"267":0.04112729801936955,"268":-0.022789313022751292,"269":-0.02158080199601855,"270":0.012961020119993517,"271":0.00827149088231501,"272":0.03024789109630218,"273":0.023737521052548276,"274":-0.029341162219313915,"275":0.03312003155825332,"276":0.09043617202233664,"277":0.011814165405583171,"278":0.036169820692613146,"279":-0.0639097232613298,"280":0.01843418852963342,"281":0.0020965442299774807,"282":-0.022116846017042224,"283":-0.11223699273605695,"284":-0.040291782961778065,"285":-0.0045710963137952565,"286":-0.04167230470447757,"287":-0.013437113409184206,"288":-0.005732997413275664,"289":0.20076200482237921,"290":-0.04063326032438604,"291":-0.0061240516919037384,"292":0.07721669343137402,"293":0.03310643463045765,"294":-0.012798686700343353,"295":0.010117555116670602,"296":0.09420131226043943,"297":-0.06925171263300779,"298":-0.02439310324524875,"299":-0.0500213051488988,"300":0.07430497129433107,"301":-0.029513904974730297,"302":0.0039031277704576687,"303":-0.05142117576131904,"304":0.05241882352833562,"305":-0.1332242465604764,"306":0.060433259683333705,"307":-0.04162034830613457,"308":-0.05537859244548472,"309":0.058980433711579364,"310":-0.06685967046518991,"311":-0.023247733169226112,"312":-0.07043699257139235,"313":0.032010868175461074,"314":-0.0021083764510628124,"315":-0.05159486002580116,"316":0.06231276489434621,"317":0.07208386681243545,"318":0.005777745117400555,"319":-0.016011125459138856,"320":0.06271679006767865,"321":-0.026834064956575844,"322":0.06293685483951521,"323":-0.0458431859019032,"324":0.008990853505571779,"325":0.06337096158020773,"326":-0.28477442763841293,"327":-0.07904069884632609,"328":0.02881077033322797,"329":0.07528020665586009,"330":-0.01161101489597935,"331":0.007191413935332381,"332":0.06854635742385225,"333":-0.045283156060157086,"334":0.21809784214028244,"335":0.0034362049371260673,"336":-0.035268677141314354,"337":-0.12333512381607885,"338":-0.09147393561690842,"339":-0.15908874819741542,"340":-0.14859205691620467,"341":0.10426326637045238,"342":0.05908554685466926,"343":-0.06640246834632746,"344":0.14250042968325694,"345":0.06234683612396281,"346":-0.005115654300391082,"347":0.029032702631631695,"348":0.04890078466245579,"349":-0.048487454974311936,"350":0.10041463498995572,"351":-0.01242322078643451,"352":0.06535046649738942,"353":0.08943750529186219,"354":0.12931045743205125,"355":0.0390004393299788,"356":-0.022984160718203903,"357":-0.0851322802920421,"358":0.008822082550408903,"359":-0.05249862107196107,"360":-0.0005370013811921143,"361":0.13822893568524847,"362":-0.10488648213769952,"363":0.02855192888968,"364":0.20195194189807628,"365":-0.08160393729844471,"366":0.0926034970278727,"367":-0.06388140245641134,"368":-0.011510349266450694,"369":-0.05621920801812046,"370":-0.010722198309517412,"371":-0.14043524557631126,"372":-0.048754304512939106,"373":-0.036030241635525005,"374":-0.020274949551491953,"375":0.1000008108648536,"376":-0.0869959651546819,"377":-0.11444002149050801,"378":0.015593846187109765,"379":0.032203291938383054,"380":0.14223681660137413,"381":0.018531000870300386,"382":0.04773390320928694,"383":0.22701000579962646,"384":0.008942296530390595,"385":0.06389074970927495,"386":0.15396935906676404,"387":-0.15218488822147658,"388":0.1518335883322534,"389":-0.06809568564991975,"390":0.06144602416113418,"391":0.051571251656213526,"392":-0.3290244475573166,"393":0.5693389872447414,"394":0.08846320554384747,"395":-0.09387446499202073,"396":-0.1291255502282165,"397":-0.17387209110387242,"398":0.015624553443663276,"399":0.1669749083650508,"400":-0.029514522424358324,"401":0.0012380816788341354,"402":0.1558764970728259,"403":-0.07385355134712379,"404":-0.09684191329153298,"405":-0.11052463390525577,"406":-0.12781044888956886,"407":-0.07499546346421147,"408":-0.10921779857756712,"409":-0.04875237635865403,"410":-0.05896380796615596,"411":-0.023001114926609622,"412":0.013535522942754454,"413":-0.16308491646851575,"414":0.004665751981898003,"415":-0.08206609829050579,"416":0.0008945108271635751,"417":-0.0028563215146101147,"418":-0.00026703060542836155,"419":-0.0040063775699133095,"420":-0.01567852491060341,"421":0.09418578749729338,"422":0.23725669838455798,"423":-0.07701023044375264,"424":0.042283437103321796,"425":-0.013118189965347849,"426":-0.01734715488828527,"427":-0.16885302532650767,"428":0.2196584916969589,"429":0.032605368364139874,"430":0.06615630120238984,"431":0.0789474460573618,"432":0.051797352636199265,"433":-0.056341212362676044,"434":0.03350831799566152,"435":0.09794706193852147,"436":0.09714886633918038,"437":-0.008497814022741704,"438":-0.0031421820761273985,"439":-0.08714214029174044,"440":0.04918559107148585,"441":0.1445213945659359,"442":0.09852629677769344,"443":0.07665670120479684,"444":-0.07447474032234082,"445":0.2284155033032363,"446":0.010478291000605523,"447":0.0410382381969699,"448":0.008809432520414539,"449":-0.008089129396274979,"450":0.004174815056091075,"451":-0.011552601307579069,"452":-0.013101686613014857,"453":-0.04102372992360439,"454":-0.029105890672379574,"455":-0.02173320784565062,"456":-0.004571768548854532,"457":0.025991170095220825,"458":-0.009450708168280936,"459":0.11427610009747458,"460":-0.012825734288034027,"461":-0.018248562471048804,"462":-0.007630616786153566,"463":-0.029940518186033157,"464":0.10913709950718728,"465":-0.03880100881241025,"466":0.03807504185156257,"467":-0.04656141844163576,"468":-0.029105324799020213,"469":-0.027654840340016352,"470":-0.040697220737729314,"471":-0.06481182471544639,"472":-0.11082321199547017,"473":0.03858335196966069,"474":0.04812830315097244,"475":-0.03496293218945836,"476":0.14054688268555704,"477":-0.056250103716078026,"478":-0.03351019508276405,"479":-0.012900820734125885,"480":0.017821216491199523,"481":0.013603164563531247,"482":-0.018504856760035694,"483":0.0030787442365111644,"484":-0.03428230162851098,"485":-0.019997987769589328,"486":0.040110500497303185,"487":-0.02747795503783349,"488":-0.023101373113264802,"489":-0.11266620590926214,"490":-0.0426721261450556,"491":-0.03311867394342636,"492":0.15403726528836983,"493":-0.02872998399471986,"494":-0.014016892682307897,"495":-0.0010245499397666337,"496":-0.010485705831824376,"497":0.020998657527026253,"498":0.07853399464673405,"499":-0.045950108962356934,"500":0.011423002822294723,"501":0.07030318072345271,"502":-0.005226685821994518,"503":0.023265326657565623,"504":0.08416395593836865,"505":-0.02193916114927898,"506":0.09709487188558968,"507":0.06344046639391081,"508":-0.04014506032843211,"509":-0.04369169019878528,"510":0.07228153669569586,"511":0.14370956322402473,"512":-0.029061081341022785,"513":0.034198017748912575,"514":-0.04448495844952846,"515":-0.06380185051855453,"516":-0.03105542440749387,"517":0.003990110022574375,"518":-0.034946203516711793,"519":-0.010245581250006795,"520":0.04109061940296262,"521":0.01992619811405782,"522":-0.19003942133602944,"523":0.002536166446129237,"524":-0.05479649649042414,"525":-0.04421739929377139,"526":0.12422416511281119,"527":0.014767274387868654,"528":0.09760291626093207,"529":-0.0076842198874290625,"530":0.010509664357097534,"531":-0.06701055392327725,"532":-0.06758397217365612,"533":-0.013222301272568076,"534":-0.014221707929352715,"535":-0.039045156090347574,"536":-0.2369071767627541,"537":-0.047091473096434286,"538":-0.04438328129537212,"539":0.01206943377910589,"540":-0.12859061607589567,"541":-0.08379619769380897,"542":-0.1229850083747309,"543":0.06746692463181356,"544":0.030276307996669766,"545":-0.008169851935235296,"546":-0.04175307720128897,"547":-0.12171943766875117,"548":0.09252237480071149,"549":-0.06594505446177416,"550":0.027270232271408408,"551":-0.18434288745379712,"552":0.017289962789570415,"553":-0.2089285439873113,"554":-0.04669278170464915,"555":-0.03872888783705482,"556":-0.025186081842402015,"557":-0.18272134559621334,"558":0.06344002293075358,"559":-0.05714562551721552,"560":-0.12499696006042815,"561":0.07518046180887934,"562":-0.06687159436793945,"563":0.11723646238608909,"564":0.13348242984005518,"565":-0.04335718333022223,"566":0.0457375069575236,"567":-0.1054091223543961,"568":-0.005345000103215172,"569":0.02427636588848915,"570":-0.1470960851653882,"571":-0.06050434432903196,"572":-0.15602453866365132,"573":-0.005186093518085879,"574":0.03731242245060776,"575":0.26516770124923034,"576":0.00830831445640132,"577":-0.021815952723708332,"578":-0.044277436674973136,"579":-0.27448726802036455,"580":0.13929754519521248,"581":0.11665467272598642,"582":-0.010740641330011883,"583":0.050512001552649,"584":0.19922946776187508,"585":-0.1537610786891879,"586":-0.05445493474004199,"587":-0.1786935435086148,"588":-0.04211472593697907,"589":0.1400209662323272,"590":0.06046183663081322,"591":-0.2692033107714117,"592":0.10289407492990511,"593":0.3091508777046932,"594":-0.029424300620320854,"595":-0.009888805570082291,"596":-0.057397908353986955,"597":0.1967940454998041,"598":-0.014955254322854446,"599":-0.1869643276272692,"600":-0.13826762327973924,"601":0.026653357491316913,"602":0.05109395821437081,"603":0.16851506106207936,"604":0.06659615841955766,"605":0.2536659479782572,"606":-0.09773141366225199,"607":0.05356684174978016,"608":0.07968688725102169,"609":-0.05411845508623071,"610":0.052430474964643745,"611":0.03509292776108079,"612":-0.010339478244293142,"613":0.07846572058058177,"614":-0.1128672158927451,"615":0.03163062430237175,"616":0.0027984283157585057,"617":0.07079957921648268,"618":0.012194887837300225,"619":0.08639026300764842,"620":-0.09255629359912981,"621":0.00752476572170552,"622":0.008684901446941397,"623":-0.020026960265871592,"624":-0.18901661328274114,"625":-0.009760291015159215,"626":-0.025447867311282672,"627":-0.07003885203102632,"628":-0.10955114901025037,"629":0.13967319160636218,"630":0.017651050284238374,"631":-0.045264221788621016,"632":-0.09064600886165508,"633":0.23116824819778448,"634":-0.11238195458709876,"635":-0.0119875324014023,"636":0.0199699871495661,"637":-0.14040499711922694,"638":-0.10087767589689046,"639":-0.01884347510994982,"640":0.023918733356221297,"641":0.1169246502583195,"642":-0.04462292222546935,"643":-0.04026372782376335,"644":0.11938315502816042,"645":-0.05665837586631247,"646":0.09044598596033461,"647":0.18483202995972695,"648":-0.03595802176000781,"649":0.23496324182322223,"650":-0.0970617408215957,"651":0.010193566836356575,"652":0.17032727467917,"653":0.047201453580116376,"654":-0.05596598817910005,"655":0.12254410507230028,"656":-0.22972975454681632,"657":-0.09989490923997547,"658":-0.45323654064096996,"659":0.4560448560359258,"660":-0.16291785468187941,"661":0.18353159927429025,"662":-0.24385518826859803,"663":-0.06950881658050329,"664":0.03531745603585016,"665":0.03995131149559471,"666":0.11643778172980296,"667":0.008093875127428738,"668":0.5947114942218968,"669":0.11467765283383845,"670":-0.16703651698252825,"671":-0.13703050700076153,"672":-0.044477511090137166,"673":0.11544350630816598,"674":0.06796440631972724,"675":0.025366756598950053,"676":-0.01637328809613073,"677":-0.06284286743344161,"678":0.08712130947794143,"679":-0.00023645078935464136,"680":0.02358864548114555,"681":0.2709499852598933,"682":0.14815061765401707,"683":-0.012567824074060728,"684":-0.04218643285221558,"685":-0.17574260876149536,"686":0.15753614215873327,"687":-0.06881943548038691,"688":-0.046742361995134735,"689":0.024323552783675432,"690":0.07476415341127043,"691":0.00977063389067982,"692":-0.16810529611769567,"693":-0.0639003496943433,"694":-0.0891371542095579,"695":-0.05034485269394098,"696":-0.1632617699844724,"697":-0.06918261500889773,"698":-0.1505608801934984,"699":0.02358959361050938,"700":0.09971600794873038,"701":-0.009384180859683403,"702":0.06134265567882479,"703":-0.01747218078217065,"704":0.04778032642853987,"705":-0.014908036223634553,"706":0.01608506212765997,"707":0.06861952023584203,"708":-0.0625599222578196,"709":-0.03845467735045481,"710":-0.06363295893786564,"711":0.07432535995109292,"712":0.00027784636806441385,"713":-0.00876803368489326,"714":-0.012499460514780575,"715":0.010467516046911618,"716":-0.014764065391897242,"717":-0.05020580947653552,"718":-0.02480762449033294,"719":0.05233982153154597,"720":-0.034428803855413206,"721":0.032538322095859565,"722":0.01793897766949926,"723":0.02060263352167671,"724":-0.020341780963653883,"725":0.04343258990715962,"726":0.03267697015102759,"727":-0.063790335957572,"728":0.028002335555059512,"729":-0.07568752556084068,"730":-0.020299062807590997,"731":-0.01885154087900745,"732":-0.0013951791342872095,"733":0.0010816706100470058,"734":-0.03482790466544532,"735":0.0007704130204341519,"736":-0.00661374387938904,"737":-0.008855414874575663,"738":0.044221619171666844,"739":0.01717304680753693,"740":-0.034014498610209984,"741":0.005688183277268989,"742":0.0493598967977467,"743":-0.008358922871658372,"744":0.08617067621428177,"745":0.0653360218018488,"746":-0.052720976775957634,"747":-0.06521612131278386,"748":0.06434586749855799,"749":0.07767080388298117,"750":0.02935122268220938,"751":-0.018947712566151367,"752":0.0030395209760736897,"753":-0.009534261616116353,"754":-0.022946872667961735,"755":0.04066727734213438,"756":-0.011261548929857864,"757":-0.026173490550453545,"758":-0.027116735473602632,"759":-0.07016910560463015,"760":0.011990854545782921,"761":-0.03205901558168528,"762":0.05560114095494008,"763":-0.02714316140639251,"764":0.018201643284360525,"765":0.03813075305893594,"766":0.07083749069394539,"767":0.09578129796557697,"768":0.01348792010335181,"769":-0.06929082897844077,"770":-0.09587861651179165,"771":0.02821440734893576,"772":-0.032433937760814546,"773":-0.057180804056777654,"774":-0.21612146807351243,"775":-0.028401014181357515,"776":-0.10641704297514835,"777":0.019111716506565506,"778":0.020730296605212296,"779":-0.12599585249505799,"780":-0.08648843315337351,"781":-0.06300983751326873,"782":0.022349289995097256,"783":-0.0016907982227240795,"784":-0.03527602564090736,"785":-0.04427626482012597,"786":-0.03885006492808492,"787":0.009679753563593492,"788":0.1746976379358909,"789":-0.08205737002573112,"790":0.0017009627070062932,"791":0.09509754763511334,"792":0.042329180107320466,"793":-0.10274239477233171,"794":-0.0648350544460169,"795":0.08430534463444281,"796":-0.01011197807565867,"797":-0.04881590648326158,"798":-0.14573158484980606,"799":0.03912816146678094,"800":0.03146882723293504,"801":-0.05084696862013162,"802":0.020933634470819657,"803":-0.021016401891907528,"804":0.0731568197469172,"805":-0.011676380239982721,"806":0.001491916289966562,"807":0.056148356730249725,"808":0.11206014977565223,"809":-0.02804419980379765,"810":-0.0643208111144767,"811":-0.010154752600006315,"812":-0.04232714811311836,"813":-0.06671615067564653,"814":-0.13396164787663453,"815":-0.01256274558176393,"816":0.14726237072313844,"817":0.15245994530775078,"818":0.11855118424028462,"819":-0.0414837371890797,"820":-0.07297267590360917,"821":-0.030718945574879197,"822":0.02145070726773486,"823":-0.056329757514175696,"824":0.04069276786569586,"825":-0.022486855379945447,"826":-0.08060036734368867,"827":0.03263280119727462,"828":-0.11075048236973419,"829":-0.009754641564275439,"830":-0.017101105220041216,"831":-0.040841750805121556,"832":0.08152550951003093,"833":-0.019778942249504442,"834":0.04285543796746712,"835":0.0761433596164672,"836":-0.23999761701993638,"837":-0.18003533546072276,"838":0.03893641496509876,"839":-0.19605948051642236,"840":-0.00564995468493601,"841":-0.2507441633493159,"842":0.05462138579443928,"843":0.13680013826390683,"844":-0.32115677381555296,"845":0.012924990873474726,"846":0.051297698400373744,"847":-0.0012565914941614776,"848":-0.1437115520012819,"849":0.16062624458316666,"850":-0.04333713409443607,"851":0.08168735788739424,"852":0.13581381895239328,"853":-0.1391524712284147,"854":0.26404805038915835,"855":-0.019836030696695955,"856":0.18681180104692025,"857":-0.021075782035511973,"858":-0.08385280026819418,"859":-0.05327094376518712,"860":-0.3311369745808595,"861":0.003692739714814867,"862":-0.06529930073425266,"863":0.24333406216131265,"864":-0.024445681508695225,"865":0.1567884131196066,"866":-0.041352410175595974,"867":-0.22728135668137764,"868":0.09626683287842515,"869":-0.048186209140251984,"870":-0.03644361839068692,"871":-0.1574533710258661,"872":-0.06465715057043406,"873":-0.08034555751539833,"874":0.027024481408768734,"875":0.05043503939116083,"876":-0.06728174717986399,"877":-0.09545592322836254,"878":0.09275419434217613,"879":-0.1908532192289288,"880":0.05007474725797678,"881":-0.08347627710196265,"882":0.02054856351575264,"883":0.08056659932299076,"884":-0.09053306011223289,"885":0.0811549569910693,"886":-0.017307634007475453,"887":-0.07018368563560969,"888":-0.14457081713565909,"889":-0.026487114874485043,"890":-0.03883455406224132,"891":0.04588926835853445,"892":-0.04719847492867087,"893":0.36546595579106683,"894":-0.050602427868884706,"895":0.034156653316824034,"896":0.0520681452194278,"897":0.011472934833396554,"898":-0.04733428551100876,"899":-0.0004593318380858331,"900":-0.01954899698810246,"901":0.025292712098177846,"902":-0.16787560511490107,"903":-0.008450549105101634,"904":-0.12687710921718084,"905":0.11239093417705728,"906":0.05262137028351276,"907":-0.07260542624141728,"908":0.083523979949913,"909":0.040519440298428716,"910":-0.2255779172033562,"911":-0.14517493564104378,"912":0.2754858346994837,"913":0.03268274064299343,"914":0.06840166165788765,"915":-0.055942782937024656,"916":-0.029536671148824006,"917":-0.047112023679126876,"918":0.09513952158964152,"919":0.41720875737634083,"920":-0.1595345390439115,"921":-0.009970529374193514,"922":0.010344965552522026,"923":-0.025142341240610554,"924":-0.0933656414398843,"925":-0.02376454745962771,"926":-0.12974409946050303,"927":-0.10879293776586088,"928":-0.23697834731574854,"929":0.013307675564162772,"930":-0.0023702622585151188,"931":-0.04895889741177816,"932":0.012450719007660722,"933":-0.0015559353699471283,"934":-0.025534076467364084,"935":-0.014193306885038566,"936":-0.053137203486605625,"937":-0.15798835213126786,"938":-0.06746057393901869,"939":-0.01643475410753853,"940":0.0847916808571485,"941":-0.16714037187963646,"942":-0.14795642534151762,"943":0.03884413127437997,"944":0.043929014525564546,"945":-0.07869619691769732,"946":-0.5735444029547422,"947":-0.09926045673731405,"948":-0.10639140297285905,"949":0.007415158376581498,"950":-0.1747769723244149,"951":0.007597648133233266,"952":-0.10914487009773721,"953":0.13589786258447667,"954":0.05673226469188383,"955":0.04978801583862901,"956":0.28189675022252875,"957":0.0006468302364015262,"958":-0.09466619654694028,"959":-0.07631652956290043,"960":-0.07613091048338963,"961":0.00004739602467598822,"962":-0.02133649046515476,"963":0.01890243534523388,"964":-0.035282220793471805,"965":-0.07198790460277589,"966":0.1358219133517257,"967":-0.04564962994375007,"968":-0.09277763677448746,"969":0.21293247608849913,"970":0.041631578437154086,"971":-0.030361670143761843,"972":0.07526118434492825,"973":0.06031277524354827,"974":-0.02641431584079559,"975":-0.02794023344040032,"976":-0.12799083619149457,"977":-0.00798309133017935,"978":0.01662246657785687,"979":-0.032670038514751185,"980":-0.05512637908439675,"981":-0.00827079799822981,"982":-0.05870580017959483,"983":-0.06954227656543294,"984":-0.161752049192693,"985":0.0016379061935832063,"986":-0.022594125360547505,"987":0.06277133696454024,"988":-0.05323173313675868,"989":-0.08328012162569985,"990":0.11289415576539055,"991":-0.02918115304004137,"992":0.24214252100864259,"993":-0.05479304139548273,"994":-0.007912177770219688,"995":0.007392814155172521,"996":-0.0851712264481655,"997":0.13310971122840193,"998":-0.11459047134834534,"999":-0.01480180613572455,"1000":0.05337281467365497,"1001":-0.04915007461254898,"1002":-0.09713247212915924,"1003":-0.0375513204490468,"1004":-0.07003736348131744,"1005":0.14724929690414582,"1006":0.05502579115814933,"1007":0.03588616180591299,"1008":-0.00649657772052241,"1009":0.016578770280057303,"1010":-0.009985424218261233,"1011":0.03626742134658647,"1012":0.029649999221174377,"1013":0.010582425296756352,"1014":-0.03420673503835846,"1015":-0.1695431380164241,"1016":0.039156829722239335,"1017":-0.15279207284095542,"1018":-0.007714512659551001,"1019":-0.02047626769701338,"1020":0.09853994007183803,"1021":-0.060780538150181314,"1022":0.032805402788320046,"1023":0.02148376134585793,"1024":-0.03998003300173587,"1025":0.026190244121738027,"1026":0.03806059547643429,"1027":0.07947124734591832,"1028":0.035961884947130464,"1029":-0.05466362121990841,"1030":-0.014551001507285607,"1031":0.0071837287554205416,"1032":0.024440451665932363,"1033":0.055185117771702916,"1034":-0.05658631705748183,"1035":-0.02441534226836604,"1036":0.001425280163923572,"1037":-0.004048561677281779,"1038":0.01334478968230806,"1039":-0.07904982267678795,"1040":0.03310401759529884,"1041":0.11595287176495825,"1042":-0.032711321444916855,"1043":0.04136380073520035,"1044":-0.015590790761573561,"1045":0.0037783855859403297,"1046":-0.045445750684348696,"1047":-0.09650875260232751,"1048":-0.07143248576376891,"1049":-0.021030730727925818,"1050":0.017846777990549564,"1051":-0.00922009513297405,"1052":-0.016245557574991104,"1053":-0.010953608404960727,"1054":0.018419108134084386,"1055":0.049987985615368186,"1056":0.011105244393466582,"1057":0.027239358110884855,"1058":-0.021169811337866995,"1059":-0.04111774938170362,"1060":-0.1037215215328758,"1061":0.03891191413945419,"1062":-0.09530307999090097,"1063":0.04035741591429332,"1064":-0.10138949505849082,"1065":0.006287798614361186,"1066":0.021587679619727566,"1067":-0.05355825165121798,"1068":-0.15771419758814137,"1069":-0.018906612789623464,"1070":-0.009752748843199419,"1071":0.04224316065107828,"1072":-0.14147130215509543,"1073":0.05792075998650799,"1074":0.0008785345055375752,"1075":0.15383974119608262,"1076":0.09266790765320976,"1077":0.049009348997589894,"1078":-0.04849754568799555,"1079":-0.04722351693290284,"1080":0.034121943561444136,"1081":0.02365123078537146,"1082":-0.05179790016732479,"1083":0.056298070613470176,"1084":-0.022770202613489887,"1085":-0.026726018837235188,"1086":-0.013242977019932078,"1087":0.05026100150112559,"1088":-0.010610373503814286,"1089":-0.08525287660020463,"1090":-0.04497090512112831,"1091":0.039392587392989405,"1092":0.06615064777703142,"1093":0.11495498642614492,"1094":-0.04159906432389149,"1095":0.08143350596422681,"1096":-0.029356995483147116,"1097":0.021478346791486348,"1098":0.00810742868491443,"1099":0.010093581677517165,"1100":-0.12423827366579811,"1101":0.024377356295466248,"1102":-0.1244863883668608,"1103":-0.04010801420349076,"1104":0.22187913733306225,"1105":0.04111006183511948,"1106":0.050193713847207756,"1107":-0.13688782126689733,"1108":-0.08238638359696006,"1109":0.05491363810572447,"1110":-0.09297250473993103,"1111":-0.10460051902564167,"1112":-0.12100574323771449,"1113":-0.061341227873117604,"1114":-0.05961682714381263,"1115":0.14171049764677685,"1116":0.061853529283285316,"1117":-0.006658618515575118,"1118":-0.07208148878090229,"1119":0.07529308438588192,"1120":0.06650918564602513,"1121":-0.023988835219959346,"1122":-0.09147844000190258,"1123":0.014145036434918021,"1124":-0.1117297236240971,"1125":-0.07598047218010538,"1126":0.04511793536865843,"1127":-0.0008249505993148298,"1128":0.1143486516245557,"1129":-0.18160500584329942,"1130":-0.12598981566624465,"1131":0.03335512154136458,"1132":-0.17298193306885742,"1133":-0.1437325338315708,"1134":-0.054393648268459854,"1135":0.010231959561258098,"1136":-0.12422825574834766,"1137":-0.1118334841944577,"1138":-0.2051891825308875,"1139":0.03332410786714289,"1140":0.09630499723020622,"1141":-0.12959436185561102,"1142":0.03906968780321134,"1143":-0.05193409875393025,"1144":0.2063357378498545,"1145":0.05958628146385411,"1146":-0.0026075280455555463,"1147":-0.04822020538519279,"1148":-0.1277605711603974,"1149":-0.07324427283414636,"1150":-0.0049133252738264455,"1151":-0.09952473040979674,"1152":-0.052361761864676,"1153":0.21693820824477192,"1154":-0.06101061398527059,"1155":0.0005163263441899678,"1156":-0.00023452777210978843,"1157":0.02460221560012942,"1158":-0.0007650441652851983,"1159":0.05244930002577844,"1160":0.020119374309100022,"1161":-0.09687742906934936,"1162":0.018957894406002228,"1163":-0.15456208818231826,"1164":0.15124311078809635,"1165":0.02368890635718972,"1166":0.11983343391487981,"1167":-0.22401669499625207,"1168":0.026229717621641804,"1169":-0.02201273457169891,"1170":0.03145040150558967,"1171":0.016515197051851158,"1172":-0.09825359216817384,"1173":0.16589568774383517,"1174":0.049845087598669464,"1175":-0.18654245224992907,"1176":-0.042228922126019496,"1177":-0.08498958244029327,"1178":0.13926538771694416,"1179":-0.061952003988071096,"1180":-0.12123778888891105,"1181":0.2716035897935594,"1182":0.0016342154670169837,"1183":-0.041137257346049914,"1184":-0.06656682187456749,"1185":-0.025751666393074055,"1186":0.10879826115706391,"1187":-0.01084652072615754,"1188":-0.04294398747968407,"1189":0.29006329148251014,"1190":-0.2499394144642242,"1191":-0.08273805030424244,"1192":-0.11150391509590071,"1193":0.027501050652057338,"1194":-0.018483014157800102,"1195":0.09992267961834493,"1196":0.04920057125087352,"1197":0.01141494419221643,"1198":-0.1163128951046536,"1199":-0.07100419151933315,"1200":-0.1521201406311714,"1201":-0.01849992255379919,"1202":0.024667725449763474,"1203":-0.03845170937963066,"1204":-0.09154070826220756,"1205":-0.05032921002352335,"1206":0.042446686165534764,"1207":0.03259445037102772,"1208":-0.04410910330042278,"1209":0.004147596265746088,"1210":-0.09426933616474889,"1211":-0.08169125533404706,"1212":-0.009743541158060061,"1213":-0.05701557716590994,"1214":-0.09587418658178594,"1215":0.09273803972939638,"1216":0.011875284111155196,"1217":0.05561812107837401,"1218":0.04383280590296923,"1219":-0.01693047328137543,"1220":0.06428169639679684,"1221":-0.02186041749542777,"1222":-0.045267387591321165,"1223":0.05342890052160942,"1224":0.0035405445382695913,"1225":-0.1841003805594055,"1226":-0.0903604103486326,"1227":0.07238176684046604,"1228":0.10257018287109386,"1229":-0.11571218707307958,"1230":-0.01258465956649903,"1231":0.06750990335785509,"1232":-0.116211025373163,"1233":-0.030940651095579145,"1234":-0.1951668879830141,"1235":-0.022539179237239804,"1236":-0.05230512830395077,"1237":-0.02868954161319927,"1238":-0.19297310812303625,"1239":-0.019812168787292403,"1240":-0.19629049470797147,"1241":-0.11143891482150906,"1242":0.1383436851673793,"1243":-0.0060379759678061895,"1244":0.1410377094694537,"1245":-0.09090104038275285,"1246":-0.06644203133219792,"1247":-0.04158858479499068,"1248":-0.04483123218295665,"1249":-0.021707431507749335,"1250":0.1311401990454918,"1251":0.03601968894322386,"1252":-0.004921134862583273,"1253":0.16949340081371309,"1254":-0.04436107471359575,"1255":0.03960263132275335,"1256":-0.0881594876600999,"1257":0.13628902271582022,"1258":0.05759199431021867,"1259":0.04677273179357427,"1260":-0.07624968144997904,"1261":-0.017142310208325146,"1262":0.012527476497698187,"1263":0.06750095225365843,"1264":0.026425288071752037,"1265":-0.029523741304034026,"1266":0.04471977409669998,"1267":0.01869648114785514,"1268":-0.017422613883352357,"1269":-0.04890181125411379,"1270":-0.030881930672495426,"1271":0.06577115110650084,"1272":-0.08877184488754626,"1273":0.08969386185511026,"1274":0.0007114725954168912,"1275":0.016193660113627696,"1276":-0.11403867531679907,"1277":-0.08983309767203877,"1278":-0.07464111907770878,"1279":-0.06068700537550668,"1280":-0.12537748741692023,"1281":0.06224843622061663,"1282":0.03748921249258184,"1283":-0.028900725991439585,"1284":0.04583160887470129,"1285":-0.026262462629047478,"1286":0.028524087114907913,"1287":-0.1285787309270039,"1288":0.06764402840591156,"1289":-0.05502502155169296,"1290":0.04046381827101539,"1291":0.024419101443591332,"1292":0.058686122904564555,"1293":-0.06810060094994706,"1294":0.2563332602351951,"1295":0.006284005508979582,"1296":0.07751980099190445,"1297":-0.05546430772996726,"1298":-0.11911314849258559,"1299":-0.06835613372685043,"1300":-0.04865494048820038,"1301":-0.13042264903900475,"1302":0.08035852544236739,"1303":0.0056380786863695085,"1304":-0.05659511601901817,"1305":0.011078412366358655,"1306":0.03827563091357942,"1307":0.10328525903242684,"1308":0.15270146889496852,"1309":0.005891229818773244,"1310":0.05405702605010507,"1311":0.10005537716691502,"1312":0.03129794687400796,"1313":-0.14466458946745103,"1314":0.11333567062997389,"1315":-0.02915724368418469,"1316":0.0167651007464039,"1317":0.03222826244498985,"1318":0.014204777218088785,"1319":0.0862191060744499,"1320":-0.07962316841775345,"1321":0.2597620622525767,"1322":0.12768612634168613,"1323":-0.12295975791864176,"1324":0.10374486621299739,"1325":-0.03726699355684737,"1326":0.010012288580693545,"1327":-0.02925039698318049,"1328":-0.06261963137948351,"1329":0.012119865790012582,"1330":0.038760101006618024,"1331":-0.043855159384722404,"1332":-0.0711579747587758,"1333":0.0037650637715796152,"1334":-0.05735344572510221,"1335":0.043049045938336396,"1336":-0.03805856138735411,"1337":-0.042429857257703714,"1338":-0.024578825166716743,"1339":-0.05144406820981323,"1340":-0.239180626262624,"1341":0.03989312666606442,"1342":0.1020000897243994,"1343":-0.011360639036592285,"1344":0.0252318126442449,"1345":-0.0797203218547799,"1346":-0.0020833903755551795,"1347":-0.0694629295565366,"1348":-0.10211400962433279,"1349":0.2839357173356773,"1350":-0.14300252949687378,"1351":-0.11196522647098983,"1352":-0.040250540143620096,"1353":0.06847599391914691,"1354":-0.04066326942415033,"1355":-0.22605053167911104,"1356":0.02391663241189788,"1357":-0.07444252086030591,"1358":0.007058948959712704,"1359":0.12767255425951451,"1360":0.04787553216640705,"1361":-0.12257873315339829,"1362":-0.05273613046727314,"1363":0.17770984612854498,"1364":0.17162895770591804,"1365":-0.10538201768612723,"1366":-0.10104780642715125,"1367":-0.07923365609342993,"1368":0.16819415333026602,"1369":-0.1644790592696523,"1370":-0.05181783190134426,"1371":-0.15167685416382454,"1372":-0.020791697465200685,"1373":-0.17873690793546612,"1374":-0.18268557500733285,"1375":0.14561737423817983,"1376":-0.019592732048671943,"1377":-0.05783263618020627,"1378":-0.11730161555087437,"1379":-0.033162882063811114,"1380":0.02803084473496081,"1381":0.0792134304515282,"1382":0.0037103706964981163,"1383":-0.0759398640285014,"1384":-0.04849011094235346,"1385":-0.1202884625304887,"1386":-0.13266945076052247,"1387":-0.054826543072857815,"1388":-0.024692590599211223,"1389":-0.15668471463088146,"1390":0.1225392586484282,"1391":-0.020404013346206618,"1392":0.12641666592076473,"1393":-0.019447141094196898,"1394":0.05704840788815142,"1395":-0.1576439118870226,"1396":-0.023793803674540124,"1397":0.034571205424306736,"1398":-0.026815674700550025,"1399":0.021560349288773394,"1400":-0.002522064123537796,"1401":-0.12775376975406125,"1402":-0.12404762621307153,"1403":-0.035629685426601665,"1404":-0.1560829923787971,"1405":-0.0015861312104493315,"1406":-0.019975911972181404,"1407":0.11275636817403628,"1408":0.25063352379299075,"1409":-0.02980075093169133,"1410":-0.11078970727200568,"1411":0.08946689798758346,"1412":0.027287032987412765,"1413":0.020381622964790857,"1414":0.04342973399107478,"1415":-0.06009256459843138,"1416":0.047887172023648596,"1417":-0.1894401585909388,"1418":-0.046433772506540974,"1419":-0.033804493509750635,"1420":-0.033017058387396575,"1421":-0.1699976148912074,"1422":0.15783874393297534,"1423":0.09129684837839283,"1424":-0.07006987566486694,"1425":0.2178224405570762,"1426":-0.07567684408318527,"1427":-0.06353742576826106,"1428":0.1631277293166987,"1429":-0.049475944823686245,"1430":0.4005140134502674,"1431":-0.07406803193671217,"1432":0.11874547034790646,"1433":0.028565679443334876,"1434":-0.14091308972800576,"1435":-0.010125713294116158,"1436":-0.2912203545520794,"1437":-0.06798078944894131,"1438":-0.03278998781698097,"1439":0.017745993583385952,"1440":0.08227596430753197,"1441":-0.0673030115816614,"1442":-0.027005362216779533,"1443":-0.1935020858459968,"1444":0.18653176914271954,"1445":0.17184161127744255,"1446":0.0409931555882883,"1447":0.10940780551486877,"1448":0.2590116279577656,"1449":-0.1668685953229791,"1450":-0.06814430213698444,"1451":-0.07360097090412264,"1452":-0.17021345958840578,"1453":-0.04571775303576256,"1454":0.061212707630697256,"1455":-0.1852058596503257,"1456":0.14365873492501066,"1457":-0.1441383784758532,"1458":-0.046333267648606534,"1459":-0.03981811494787089,"1460":0.030929715103472928,"1461":0.1344460869748459,"1462":-0.11955788025557515,"1463":-0.05979349043890524,"1464":-0.14451212628490692,"1465":0.07158729037018453,"1466":0.0442423278653989,"1467":0.004335700362270547,"1468":-0.06768913120009554,"1469":0.05108435501118624,"1470":-0.05003391418756336,"1471":0.022316055600863652,"1472":0.100863468941995,"1473":0.05292643916166139,"1474":0.13033812429341826,"1475":-0.013964773717857475,"1476":0.026980116618215613,"1477":0.10016906102137066,"1478":-0.008235215049827587,"1479":-0.05232950520484092,"1480":0.015270867654771075,"1481":0.015162067227301729,"1482":0.058543487874522654,"1483":0.08736934468578357,"1484":0.05982908671426136,"1485":0.05658050758114927,"1486":-0.004522721056100587,"1487":0.04023671201893198,"1488":-0.10184221894103039,"1489":-0.10135472389411584,"1490":0.0029947031690346717,"1491":0.05060562357603613,"1492":0.08139739193531774,"1493":0.01259346451304516,"1494":-0.04096421416478054,"1495":-0.11226642626735603,"1496":0.05081820059052289,"1497":0.1265127261246533,"1498":0.0911726809437696,"1499":-0.0731018202842248,"1500":-0.05813438404683296,"1501":0.010258823874450462,"1502":-0.014387751954016422,"1503":-0.04758002936924987,"1504":0.023564716131650888,"1505":0.02348491622144032,"1506":-0.03910266334877226,"1507":0.06097943801347135,"1508":0.17087827906876338,"1509":-0.1057338261916057,"1510":-0.0012158396774077733,"1511":0.006865649432465847,"1512":0.052008014262110054,"1513":-0.003957897113923028,"1514":-0.21742756957229128,"1515":-0.10536731723200009,"1516":0.045866475657689844,"1517":0.006283219031224718,"1518":0.021945897422851118,"1519":0.05665410921808788,"1520":-0.01777246932201197,"1521":0.04076268285541026,"1522":0.03642171220858553,"1523":-0.039046382760772574,"1524":0.003946503787192824,"1525":-0.013981052047663086,"1526":-0.009861118520638354,"1527":0.009726188172681964,"1528":0.06068933957388605,"1529":-0.09694917463243678,"1530":0.05506727945276553,"1531":0.008871648157383586,"1532":0.13329643673346073,"1533":-0.030123773413449226,"1534":0.008341364358021611,"1535":-0.011223735215954093,"1536":0.015933619396881468,"1537":0.017059084692285148,"1538":0.08350085598358109,"1539":-0.0839406860986209,"1540":0.05481587348900601,"1541":0.005404394710625718,"1542":-0.05580426165374603,"1543":-0.038531147194189666,"1544":0.030606578775745897,"1545":0.0383299801261333,"1546":-0.033995108722075985,"1547":0.01134549820704279,"1548":0.10676115771182028,"1549":-0.04389325759809525,"1550":-0.025611134259360076,"1551":-0.009886974616210185,"1552":0.010177336512128652,"1553":0.012365986617701365,"1554":0.013553464840863252,"1555":-0.029509853032993714,"1556":-0.04366199275192473,"1557":-0.07331117942160136,"1558":0.039096525359632914,"1559":-0.05920116074707798,"1560":0.02819089037641626,"1561":0.14761958035527464,"1562":0.000572642042577352,"1563":0.18628723490041935,"1564":0.030768178353298505,"1565":0.05091640904983613,"1566":-0.20180055441808448,"1567":0.028024027765029373,"1568":-0.029695587647927835,"1569":0.033531805921285684,"1570":0.015152948925159426,"1571":-0.0061130563936295035,"1572":0.006961001350434208,"1573":0.03762357313013702,"1574":0.08990836144844433,"1575":-0.003002187481765022,"1576":-0.023111940523674702,"1577":0.11775303342445463,"1578":-0.01374217642038687,"1579":0.11688521560754106,"1580":0.08995381040299945,"1581":-0.02523846139477559,"1582":0.10561509253691778,"1583":0.07561362558867075,"1584":-0.15111257437524742,"1585":-0.08556854033214306,"1586":-0.36191399342304825,"1587":0.0251550082185538,"1588":-0.07617872160639882,"1589":0.07254017842794201,"1590":-0.08521942927070963,"1591":0.00669420995983975,"1592":-0.024871926622663618,"1593":-0.062168562033708866,"1594":0.10661280580148161,"1595":0.046938401946466576,"1596":0.3782892234473323,"1597":0.00809381895636152,"1598":-0.06548627982344837,"1599":-0.007835801311648892,"1600":-0.030723798625269447,"1601":-0.05555383319418844,"1602":0.00785953074869921,"1603":0.0009382434370611369,"1604":0.18759838793575392,"1605":0.016343201779346665,"1606":0.03788248344365526,"1607":0.053136584111034155,"1608":0.05368529132055567,"1609":0.1496425330762059,"1610":0.1172385667183557,"1611":0.01606327499263873,"1612":0.09475442597289506,"1613":-0.15264842003786705,"1614":-0.015511420057857545,"1615":-0.040993943663446705,"1616":-0.07012952706039545,"1617":0.06262690629717686,"1618":0.08763559874383428,"1619":-0.027546241772863456,"1620":-0.09306517250683916,"1621":0.178019451338125,"1622":-0.22605905722188638,"1623":-0.02359967342594898,"1624":-0.18279126986159464,"1625":0.0026696332160929736,"1626":0.02953000162718562,"1627":-0.014779499532384667,"1628":-0.14380946193948135,"1629":-0.09698220546651436,"1630":0.02234825054013562,"1631":-0.08421845917144488,"1632":-0.12396479009174019,"1633":-0.06859922872531152,"1634":-0.06720460032550427,"1635":-0.022240167574283556,"1636":0.05509472366084785,"1637":-0.06779674757000899,"1638":-0.15211747202153222,"1639":-0.06949164406821523,"1640":-0.1895364350696842,"1641":-0.055309067547913114,"1642":-0.04062893093727142,"1643":-0.06516907992765948,"1644":0.01424171004119953,"1645":0.02884501812073865,"1646":-0.02750241767792555,"1647":0.06369863153918118,"1648":-0.04716196661777744,"1649":-0.020616388500567472,"1650":-0.03732813171336974,"1651":0.0009977887236274627,"1652":0.10791232314727672,"1653":-0.013314709393713963,"1654":-0.010183220513175873,"1655":0.07014881260207574,"1656":0.1177236254514496,"1657":-0.060784501149568175,"1658":0.03397300428914157,"1659":0.10231127389909879,"1660":-0.05132161364169209,"1661":-0.0625574230236885,"1662":-0.03394226436594409,"1663":0.02412222463148127,"1664":0.00214098929066373,"1665":-0.010842255163258142,"1666":-0.12632915827479937,"1667":-0.04665344813504001,"1668":-0.036792708541203,"1669":-0.07870117825893884,"1670":0.1226932792199978,"1671":0.10689281710529061,"1672":0.09064730730539562,"1673":-0.12298915471694397,"1674":-0.05443199598791557,"1675":0.15703612765472375,"1676":-0.12176376718186728,"1677":-0.006443167684591237,"1678":0.05292849825979364,"1679":-0.04151374585625994,"1680":0.3807594720833187,"1681":0.0011214046086886324,"1682":0.065208640199326,"1683":-0.0848630580529359,"1684":-0.11007504308668255,"1685":0.204183861818623,"1686":-0.0033350289110333103,"1687":-0.05502066520575017,"1688":-0.0793013109846048,"1689":0.029545706019868744,"1690":-0.14513896483704553,"1691":0.23492127324931356,"1692":-0.12097575815100332,"1693":0.06132700388868139,"1694":-0.11101661658203267,"1695":0.06575385820118161,"1696":0.14228577339394563,"1697":0.06475194277204911,"1698":-0.03975136292675217,"1699":0.03929219613537127,"1700":-0.13662880337986494,"1701":-0.06402068006538546,"1702":-0.03863648113822031,"1703":0.025713572711574987,"1704":0.01166489515214509,"1705":-0.03466125420956536,"1706":-0.04231199268160667,"1707":0.008584700587387264,"1708":-0.29109574481665035,"1709":-0.044164481423882455,"1710":0.09077549471617292,"1711":-0.021277342758912073,"1712":-0.030837014714194286,"1713":0.06838823284721805,"1714":-0.021392470157629413,"1715":-0.03408151003907128,"1716":0.09172367041650656,"1717":-0.0022594049987621225,"1718":0.10288384681459156,"1719":0.00251709430618426,"1720":-0.010095886253488865,"1721":0.019391889542387863,"1722":-0.05586423683489902,"1723":0.09213239066295642,"1724":-0.21483874116948296,"1725":0.017450973029542717,"1726":0.05157870863214591,"1727":-0.13608981883655297,"1728":0.008098788289556225,"1729":-0.05959124308826592,"1730":0.013652879253776354,"1731":-0.1256046652372059,"1732":0.16424871790621182,"1733":0.03607009252847823,"1734":-0.06023225526092632,"1735":-0.029140940327385005,"1736":0.05345077280137818,"1737":-0.08899403455794223,"1738":-0.001979279943799373,"1739":0.0320120316600368,"1740":0.02027803200215924,"1741":0.10595153936222669,"1742":-0.06315553905109472,"1743":-0.016952756525025175,"1744":0.11464504694065075,"1745":-0.03037751948636924,"1746":0.021321303411589432,"1747":-0.0924325709560248,"1748":-0.0347260882189619,"1749":0.0407489670125151,"1750":-0.11974476236298091,"1751":-0.042999130719368076,"1752":-0.0388626738776459,"1753":-0.07866107877228089,"1754":-0.07950314006801792,"1755":-0.009213035269390862,"1756":0.10815175756022849,"1757":-0.0592597091212664,"1758":-0.10548332409464549,"1759":0.09262843357245296,"1760":0.0638241106731919,"1761":0.09805920981838871,"1762":-0.054777016313128514,"1763":-0.04320489606965468,"1764":0.015915454624317968,"1765":-0.11075293261260973,"1766":-0.08052264817981158,"1767":-0.06507183128486628,"1768":0.027586059110017592,"1769":0.02365391626120519,"1770":-0.04714218497336079,"1771":-0.07986535220162906,"1772":0.07739772286451839,"1773":0.020396951131696796,"1774":-0.06961297544037534,"1775":-0.022457137665176305,"1776":-0.022913761538512215,"1777":-0.0367568643628836,"1778":0.014035117342448694,"1779":-0.12124991562904763,"1780":0.010303274586921539,"1781":0.17890555484835544,"1782":0.03331394645574832,"1783":-0.13342112880480747,"1784":-0.1378265000934827,"1785":0.10388846840514812,"1786":0.025423425719699196,"1787":-0.03143536074001233,"1788":0.02474835634739315,"1789":0.040891521206526664,"1790":-0.03618750672268522,"1791":0.0528757148393173}},{"sx":1,"sy":1,"depth":1792,"w":{"0":0.018925599091726752,"1":-0.00953835724930324,"2":-0.04074241512803232,"3":0.009380735689506323,"4":0.02144819683455149,"5":-0.003419168599262986,"6":0.017339862527149728,"7":0.009189371438897703,"8":0.021366384336931953,"9":0.04507856973004186,"10":-0.02478730453990819,"11":0.01733281841561269,"12":0.039720501809021785,"13":-0.04253808620894293,"14":0.0262428303955676,"15":-0.012018749313676785,"16":-0.0012328586430965097,"17":-0.01766545734156499,"18":0.022798988717056257,"19":-0.01101405698289494,"20":0.014456316896711223,"21":0.01788172800323384,"22":0.0026161850589604607,"23":-0.007525181018319388,"24":0.029949602428307485,"25":-0.05286651513216754,"26":0.025487372378098467,"27":-0.00043869023123749404,"28":-0.018054450437593756,"29":0.012434948617216309,"30":0.0739070496486933,"31":-0.01174943696935462,"32":0.0027107401246376454,"33":-0.031324089960018155,"34":-0.013687750788668634,"35":0.007145041801722976,"36":-0.011787358232228592,"37":-0.005825074783352204,"38":-0.044759057113529094,"39":-0.003616596033753372,"40":-0.022940515379644234,"41":0.004676488744730179,"42":0.0009839120107045657,"43":0.00552128988735413,"44":0.010128738823832271,"45":-0.00540250631527262,"46":-0.05605876423305543,"47":-0.009294835317940672,"48":0.028437542271267588,"49":0.0027629587755929955,"50":0.04368926015143576,"51":0.008553435088712086,"52":0.04678171059801401,"53":-0.05786151817235814,"54":0.026435173323511665,"55":-0.024792833954916774,"56":-0.010098868818758593,"57":0.05510358636501802,"58":-0.010376130231305415,"59":0.009590303333969957,"60":-0.05450164387264328,"61":0.019789097476679385,"62":-0.015703280026375502,"63":-0.035673999028370165,"64":-0.027472696901763842,"65":-0.005338681095014885,"66":0.018957244368448374,"67":-0.017880004623756916,"68":0.019511081805711688,"69":0.019310681877412052,"70":0.041367000913756294,"71":-0.061547786978625826,"72":0.0065804699389254775,"73":-0.05898692204818962,"74":-0.0042709824276666595,"75":-0.020062196946597798,"76":0.059454815519928574,"77":-0.05206297777518364,"78":-0.006720819073528397,"79":-0.026819057314268147,"80":0.051275619435573114,"81":-0.02208269204081656,"82":-0.018613038105404614,"83":-0.06147215409366834,"84":-0.030491349405483145,"85":0.019567863466342216,"86":-0.05843128079906051,"87":-0.01613854758800046,"88":-0.06561259476094973,"89":-0.005708725843141238,"90":0.020141977014831672,"91":-0.019775055366507317,"92":0.04549478521267991,"93":0.005840048499762711,"94":-0.030348090934961436,"95":0.0430605414882972,"96":0.032419768252864606,"97":-0.06931118736613709,"98":0.017954426523997268,"99":0.042192946891808546,"100":-0.058936898927734335,"101":0.015098680936543317,"102":0.010334644033623903,"103":0.021971672336664538,"104":-0.03689820430908849,"105":0.10183783641134246,"106":0.0016532014428807954,"107":0.023688466146093157,"108":-0.0371813731537921,"109":-0.0145288888884572,"110":-0.028717585673674887,"111":0.03837903204287013,"112":-0.030236769640394585,"113":-0.04018229302981041,"114":0.012138509563714175,"115":-0.007883271648826512,"116":-0.0027696683230808137,"117":0.025997158666700902,"118":-0.023380884932259077,"119":0.01586452944335888,"120":-0.07210294843809403,"121":-0.03308450714997764,"122":0.02090675254085576,"123":-0.00966606324449383,"124":-0.07722169114437484,"125":-0.07889510074110341,"126":-0.026875258009616987,"127":-0.014486660011671601,"128":0.012316492412362955,"129":0.02065020975230741,"130":0.012576507779980716,"131":-0.02027666897309794,"132":-0.006058883359273475,"133":0.0420288255802947,"134":0.07287761006903937,"135":-0.02986363800046854,"136":-0.01616629985328668,"137":-0.033265884063367314,"138":-0.002390452349925446,"139":-0.01931783500893679,"140":0.0040706820970052475,"141":-0.03597920312452531,"142":-0.012711652288599147,"143":0.016849140990118704,"144":0.015161605792073372,"145":0.04259698340426115,"146":0.005929000416451991,"147":0.05308881376710628,"148":0.04460381228486899,"149":0.022479389431877047,"150":-0.002846824541709901,"151":-0.027051830247523265,"152":-0.04107273721307708,"153":0.05027292240942707,"154":-0.06933576487808372,"155":-0.06378630937621863,"156":0.0033238389177774053,"157":-0.0027275619489567074,"158":0.03512677984523148,"159":-0.001105416775577295,"160":0.025905757065659788,"161":-0.04040161304029904,"162":-0.019899671249692864,"163":-0.053608625248571545,"164":0.0056013159089326504,"165":-0.05517083196738673,"166":-0.019082941565414555,"167":0.02332953003018671,"168":0.013922651517630504,"169":-0.008428041937496,"170":0.02381829579024325,"171":0.04333095142609842,"172":-0.030016952890925926,"173":0.039414646788405505,"174":-0.013213663815549597,"175":-0.05226219867653035,"176":0.018738811781188625,"177":-0.011209339782890418,"178":-0.020982874285325626,"179":0.03204773924853794,"180":-0.0006686620102519376,"181":0.010404794809586485,"182":-0.023651721688540867,"183":-0.020386016557787212,"184":-0.019574943976277664,"185":0.012957028266875156,"186":-0.07687892707887066,"187":-0.009379796932442053,"188":-0.05276875874762837,"189":-0.04398926824738901,"190":0.01751578173927058,"191":0.023699200395522407,"192":0.017069304365406775,"193":0.010048655907432627,"194":-0.003896193063171755,"195":0.014222550781215391,"196":-0.012723073633733473,"197":0.05238350675035044,"198":-0.04764396746515004,"199":-0.006615072123856676,"200":-0.04763974541928436,"201":0.0018665221749325446,"202":0.002699389114075369,"203":0.007023793385649809,"204":0.023488472464526906,"205":0.011495202129371334,"206":0.011419186911100762,"207":0.012749628660272664,"208":-0.009794627452108297,"209":-0.04347555026283414,"210":-0.021244335474067403,"211":-0.015358888180053638,"212":0.03501121246564571,"213":-0.009222939297494022,"214":0.05665717853680859,"215":-0.0023624028624849103,"216":0.04414920803278855,"217":-0.004110437007798949,"218":-0.033001286530765186,"219":-0.009189530002446405,"220":0.036362351228953975,"221":-0.02446286572165725,"222":0.028234168839688156,"223":-0.01965662735516701,"224":0.0009340337770745258,"225":0.01062759375877247,"226":0.020831973098445453,"227":0.03703301816551748,"228":-0.011595241818139075,"229":0.03711031352100417,"230":-0.029833007593547966,"231":-0.01701281195676045,"232":0.013783486311708844,"233":-0.01629616852577506,"234":-0.05412106385025452,"235":-0.0002785135189490089,"236":0.0024419879474652175,"237":-0.0003947446334534958,"238":-0.012409067709690044,"239":-0.00796938337866842,"240":0.012312518845264717,"241":0.021317058517103468,"242":0.040288131272629604,"243":0.000491347146844158,"244":0.013777055842019978,"245":0.0017676277085552747,"246":-0.011221564371097285,"247":-0.044494139784356526,"248":0.054323395722605264,"249":0.0017093223978147673,"250":0.025800767127652294,"251":-0.002109324583411066,"252":-0.015609796759412658,"253":0.015366357606020219,"254":0.015000635382208688,"255":0.03727380184007552,"256":-0.02285810659482787,"257":0.026689742460060208,"258":-0.019904387248997978,"259":-0.0007367528244542798,"260":-0.01470568480889677,"261":0.003489781122023524,"262":0.038004527870668624,"263":-0.04527298540730652,"264":-0.0006523031629531602,"265":0.0002716866313154311,"266":-0.03946983870505423,"267":0.0005650543897090841,"268":-0.0854555443790666,"269":-0.01893927016852588,"270":0.06206971487040317,"271":-0.007294192990541042,"272":0.03405725417631669,"273":-0.0475981412799596,"274":-0.007001321346982783,"275":0.026528181863202674,"276":0.062489145689527334,"277":0.02025959862226225,"278":0.05140595688906713,"279":0.04339257440889298,"280":-0.008303897637432544,"281":0.037509785866680946,"282":-0.05377929787384099,"283":-0.016321792396362524,"284":-0.021353537900982454,"285":-0.03135305337456893,"286":-0.015249560736609054,"287":0.038436451947712474,"288":-0.0051622321511974245,"289":0.05747591179942936,"290":-0.009236681462594083,"291":-0.01894122909267433,"292":0.004820737090165661,"293":-0.016963383523853622,"294":0.003976805313971679,"295":0.014040575253902208,"296":0.03250323118176757,"297":-0.0012485422137346273,"298":-0.026284291028354938,"299":0.009633395336797254,"300":-0.01665910723713856,"301":-0.013631736653267551,"302":-0.0679175484173746,"303":0.0038298030810347025,"304":0.0308512901901947,"305":-0.06580798486693608,"306":0.02413651098098342,"307":-0.020275363418824417,"308":-0.047154795217986295,"309":0.05175996793772254,"310":-0.016594429258370673,"311":-0.012700330805779345,"312":0.025299484225573463,"313":0.038523715602420405,"314":0.04592120423471076,"315":-0.025522832314395474,"316":-0.002637361841197407,"317":0.03490882893796162,"318":-0.007259942644327115,"319":-0.01965203731810919,"320":-0.007378212241589453,"321":-0.04879136503589071,"322":0.03913984644012264,"323":-0.05261789127407492,"324":-0.04223537359901968,"325":0.02607976272667768,"326":-0.09923352200531536,"327":-0.06597512424301967,"328":-0.05378978732999291,"329":0.006427343486063063,"330":-0.04682679896395251,"331":0.02076525378760469,"332":0.06657722942620478,"333":0.017151890368450072,"334":0.0906541970857028,"335":0.004694088210963571,"336":-0.021765635401517613,"337":-0.020154623487411243,"338":-0.016512393926522557,"339":-0.06676892277358268,"340":-0.06848184213135967,"341":0.046499908713902166,"342":-0.0018250437160830706,"343":0.0020836160996750342,"344":0.060245982426926956,"345":0.0930323331662,"346":0.020630366074696968,"347":0.021206925313022706,"348":-0.03674969837174117,"349":-0.015171837718909122,"350":0.006921301623630991,"351":-0.02255523760607142,"352":0.01627900506437456,"353":0.02870908843319302,"354":-0.012507141504202667,"355":-0.0127156934539752,"356":-0.01938013742089789,"357":-0.00040001569958515455,"358":-0.005831810906324659,"359":-0.047879259297134824,"360":0.049136480272771975,"361":-0.025967266701211474,"362":-0.0379889558457276,"363":0.006843498402709361,"364":0.08151597043135464,"365":-0.018665646059686146,"366":0.0751114481442033,"367":-0.03620845851566908,"368":-0.009171192352702667,"369":-0.03911046887466096,"370":-0.06691005413022576,"371":-0.07187556192286518,"372":-0.045083437612718776,"373":-0.0054719303419482656,"374":0.006924142563385977,"375":0.08132504867426822,"376":-0.04216905123985208,"377":-0.04655448867433329,"378":0.04910159868065571,"379":-0.03913450246661403,"380":0.10975506276823872,"381":0.0010707632380215649,"382":0.0012480035617435322,"383":0.11225988460683003,"384":0.014427865810736962,"385":-0.03816128521644161,"386":0.0826661967395501,"387":-0.0121964532759727,"388":0.029129492811421832,"389":-0.026206282779720484,"390":-0.0007951815762517236,"391":0.02941607783366313,"392":-0.10155334799873073,"393":0.2090288254834441,"394":0.03927654618997888,"395":-0.007100885513855192,"396":-0.05334876128672969,"397":-0.06712836214063063,"398":-0.036315781251353964,"399":0.07339885029628368,"400":-0.01836726835436156,"401":-0.025744639742663975,"402":0.048655595185907126,"403":-0.026629540499231677,"404":-0.08713980350858547,"405":-0.07915588061401711,"406":-0.0593773652940277,"407":-0.029462986910715274,"408":0.01318005632608096,"409":-0.032858057531572595,"410":-0.050458119484284684,"411":-0.055388530204165634,"412":0.04340144928910959,"413":-0.0712376387023022,"414":-0.01663405906555912,"415":-0.04538030445559758,"416":-0.01954885491445642,"417":0.04718363344907079,"418":-0.00997294066268588,"419":-0.07468866815984608,"420":0.06146817705884217,"421":-0.006919612283978045,"422":0.08962715378886625,"423":-0.03070970321671675,"424":0.01460329968106265,"425":-0.02668097791897528,"426":-0.03423909115706276,"427":-0.15034986113106216,"428":0.04065463126574119,"429":-0.0313622463760358,"430":-0.03222504803436407,"431":-0.013436992818676136,"432":0.039668024586873324,"433":-0.03445111380982571,"434":-0.03509534031751329,"435":0.03195618545365886,"436":0.019583474301093716,"437":-0.02664542374008369,"438":0.03665895695027872,"439":-0.04928392557111182,"440":-0.05186796528348132,"441":0.10522446775984287,"442":0.05827984590277991,"443":0.03440164841298889,"444":-0.052758807217969314,"445":0.15504463507416896,"446":0.003809618716574312,"447":0.047513040991095705,"448":0.012176544734306599,"449":-0.0488204413308533,"450":-0.08870745178282587,"451":-0.03825566713089092,"452":-0.06041928662021508,"453":0.008916355468162596,"454":0.001280869436497274,"455":0.024228126019034405,"456":-0.04799114614933419,"457":-0.055835487196423006,"458":0.053841030431446335,"459":0.022378495497561185,"460":-0.03438029318068615,"461":-0.03344437566790191,"462":-0.009175832466351754,"463":0.015059086413152819,"464":0.014839003146248822,"465":-0.005282409516161185,"466":0.06555862390866246,"467":-0.034688875344475234,"468":-0.008549116195808807,"469":-0.030095175677354005,"470":-0.05399630013327534,"471":-0.014766253274728544,"472":0.006074367845034623,"473":0.01831309700279011,"474":0.029428407972784214,"475":0.00761301514688683,"476":-0.01974863614875634,"477":-0.05822857010868715,"478":-0.05347727998964394,"479":0.02636831677611124,"480":-0.0028596255047220096,"481":0.03887067509382278,"482":0.0017380495229000145,"483":0.026026635151611178,"484":0.016602582103333065,"485":-0.0020578036968687406,"486":-0.013867759811384097,"487":-0.02824219473461759,"488":-0.011473739713709439,"489":-0.036938799083529136,"490":-0.009161378397273719,"491":-0.05710700261913922,"492":0.012502891618155237,"493":0.0037801903672873526,"494":-0.020360949681457536,"495":-0.012521451159308332,"496":-0.018102404778725097,"497":-0.013312606259941562,"498":0.023145577679551756,"499":-0.013808939173780753,"500":0.020623107295070633,"501":0.03138187456171898,"502":0.021472216576043562,"503":0.02995779136666412,"504":-0.00038238438413995605,"505":0.006522784122492947,"506":0.04054873613241013,"507":-0.011938869271854231,"508":-0.0757908559078198,"509":-0.05363664761854259,"510":0.006298754102141783,"511":0.10451105367551738,"512":-0.04307700799897691,"513":0.015494443070350562,"514":0.020643895006068207,"515":-0.001058751991490305,"516":0.043063815459210196,"517":-0.0006483737738107506,"518":-0.013967941075428281,"519":-0.005102207536129166,"520":0.002042097566704211,"521":0.017497181482513082,"522":-0.06868522359692619,"523":-0.007532108236411979,"524":0.02767116329550564,"525":0.022782891131344334,"526":0.019612691057513724,"527":0.05336371466357573,"528":0.003402401570190096,"529":0.006249125983413915,"530":-0.012211419295954332,"531":0.007383692988786711,"532":-0.025819977986522014,"533":-0.05123912057580771,"534":-0.043333478232120214,"535":-0.046720033436291185,"536":-0.1093099361989424,"537":0.003755471782451409,"538":0.019448763039712047,"539":0.03540568343140079,"540":-0.09591022280522472,"541":-0.04329884616080857,"542":-0.024302099348316463,"543":0.02251118715495487,"544":0.045105335017071105,"545":0.02716165974673017,"546":-0.10529744291477426,"547":-0.010176920440759308,"548":-0.021704888075144178,"549":-0.00036966580138760296,"550":0.0076406697016974815,"551":-0.08472586833557702,"552":0.027382005501250067,"553":-0.06432622008961698,"554":-0.09221283426924873,"555":0.09218097687537517,"556":-0.011512023803676294,"557":-0.041899911594898726,"558":0.05318353782306029,"559":0.03766524138775994,"560":-0.03835332332353444,"561":-0.005033207455080605,"562":0.05449076241423231,"563":0.03321389922247322,"564":0.08660434641423222,"565":0.004612195657260556,"566":0.07173718161176937,"567":-0.1274814752175036,"568":0.04481982398319329,"569":0.035000678844678466,"570":-0.05113712356957343,"571":-0.037187246171640015,"572":-0.09693776834586028,"573":-0.01747662761738557,"574":0.019622764292827034,"575":0.05529235628730678,"576":0.056142033551673604,"577":0.0020859825434135565,"578":-0.016471257507368026,"579":-0.07253104473552115,"580":0.03870057125552083,"581":0.03776440774215572,"582":0.02724406513769678,"583":0.06426818981576957,"584":0.05227358640018762,"585":-0.08132745011113417,"586":-0.06891225746345925,"587":-0.04999019657996279,"588":-0.03304982916552424,"589":0.015231157109254817,"590":0.03454883750931941,"591":-0.14816486562669617,"592":0.005331714129796708,"593":0.08591177226912576,"594":0.024997647461694274,"595":-0.03439523238727562,"596":-0.08257611736019733,"597":0.014327884828963395,"598":-0.0899909707370316,"599":-0.0624023222545728,"600":-0.06846274894378929,"601":-0.001187102288819275,"602":0.014241775635332389,"603":-0.01560565879645194,"604":0.02278606698916023,"605":0.1136493838313921,"606":-0.02123694427184875,"607":0.03460014987699338,"608":0.004910095915545695,"609":-0.03986802083065089,"610":0.005125798154052931,"611":0.02663078681940144,"612":-0.004555546869482302,"613":0.01829231702215942,"614":-0.018870360432753402,"615":-0.009562358073618389,"616":0.004118723372262854,"617":0.02758707579523693,"618":0.03616357617341836,"619":-0.0013500608704911765,"620":-0.009561766115198884,"621":0.017307879878950404,"622":-0.003976403464177962,"623":0.037351091498289135,"624":-0.1255908987161655,"625":-0.017329816122013144,"626":0.026954168223237582,"627":-0.012548394463694268,"628":0.052056275353785715,"629":0.06678486505268433,"630":0.06705028763459155,"631":-0.019329703437635543,"632":0.03873296376092896,"633":0.10636342855984131,"634":-0.02199257525333513,"635":-0.0541118177860963,"636":-0.07796162672729075,"637":-0.0691436014298931,"638":0.0283977571837202,"639":0.04180724033912194,"640":0.0012794257439246795,"641":0.04377043673433085,"642":-0.05582138760453981,"643":-0.03517972613070457,"644":0.058108662839515615,"645":-0.0013369178434729052,"646":0.015411542283168725,"647":0.033326435449042735,"648":0.021958946646671865,"649":0.06449452196761139,"650":-0.08965400046832794,"651":0.010613682151423831,"652":0.03909433829314401,"653":0.029185372007522838,"654":-0.037463408209344004,"655":-0.009304398051383864,"656":-0.06918367940516654,"657":-0.07014119956377533,"658":-0.14600783456085398,"659":0.1768773268843527,"660":-0.09130024071358961,"661":0.14775571331853604,"662":-0.06706961914085992,"663":0.006932425417384194,"664":0.002549178065828517,"665":-0.010427734714480665,"666":0.037806056941756504,"667":0.0628082669184897,"668":0.24685500225233453,"669":0.012924885957529369,"670":-0.06262011751929235,"671":-0.15284772166064853,"672":0.029653073602645044,"673":0.06216031746900761,"674":0.07418585250008096,"675":0.042258235705886805,"676":-0.05506756373930427,"677":0.0056369566552014975,"678":-0.02817963704518839,"679":0.003613454901514267,"680":-0.0011182598557820322,"681":0.06685829672208994,"682":0.013805238874430133,"683":0.010310607902021734,"684":0.007283676723613312,"685":-0.01975669365469377,"686":0.09620618144164514,"687":-0.04598689871619095,"688":-0.07905071192199481,"689":0.01959470884231924,"690":0.0336115278725713,"691":-0.014755753699397939,"692":-0.06366976170452902,"693":-0.01544703104098542,"694":-0.033153008580178236,"695":-0.016768776233984335,"696":-0.09545744617411463,"697":-0.015547901203246305,"698":-0.006723855094872631,"699":-0.03283890466163591,"700":-0.007868848042786623,"701":-0.08388054432361605,"702":-0.008395252049257337,"703":-0.014498443567457733,"704":0.01246728916759649,"705":0.01761098615838835,"706":0.028723621942022846,"707":0.0429720260444033,"708":-0.011812297591040653,"709":-0.05291959776025567,"710":-0.009599518117751001,"711":0.018315132797038808,"712":0.0020309326069974454,"713":-0.034734334695794976,"714":-0.03142404177829001,"715":-0.007144012355403204,"716":-0.020464733177978495,"717":-0.020429998771187154,"718":-0.04612854982642651,"719":0.03377747560669321,"720":-0.009625920726406315,"721":-0.016694550215921256,"722":-0.03806491665798829,"723":0.00443365973775005,"724":-0.005132793593143663,"725":-0.03230199038763346,"726":0.015742145065875453,"727":0.03027680696839368,"728":0.04244555598195835,"729":0.007054900170236907,"730":0.011641045794017764,"731":-0.024218063326307958,"732":0.05607423869345602,"733":0.0007108322058865037,"734":0.005641354610199848,"735":0.054636423385327926,"736":0.014658241079608902,"737":-0.006210538725821323,"738":0.020715284186654213,"739":-0.01602098586990548,"740":0.0028357380878657958,"741":0.01383823718384833,"742":0.0033047155716707773,"743":0.03562776410789063,"744":0.009597488456194953,"745":-0.008422766320585624,"746":-0.038135631420835855,"747":-0.07976224727375861,"748":-0.02939146300442351,"749":0.02494297481474852,"750":-0.0021396875332932936,"751":-0.03984292281837781,"752":0.013578597313116786,"753":-0.006602815131439613,"754":0.017961759315224788,"755":0.0007058142429092833,"756":-0.005076350079788964,"757":-0.020439108894550684,"758":-0.010469945782555685,"759":0.02773844377402903,"760":0.023916036912310933,"761":0.020283645601937208,"762":0.03609410703486003,"763":0.024749651980262105,"764":0.027675284700268792,"765":-0.008328103816151953,"766":0.04486423866628062,"767":0.05514066571587492,"768":0.0021720304887262207,"769":-0.042066177420832206,"770":-0.011743061606612006,"771":0.07681730232448782,"772":-0.031826857448179424,"773":0.00592258561867294,"774":-0.021103702834376313,"775":-0.020168969436437242,"776":-0.016965359682166288,"777":-0.01090575815291639,"778":0.024903169123680347,"779":-0.034953622437525006,"780":0.022275826684068228,"781":-0.018813938235254707,"782":0.02497361132158191,"783":0.028876167527183753,"784":-0.017934675064229823,"785":-0.03946613034482976,"786":-0.04741351207552335,"787":0.005550851099995575,"788":0.02832538833791716,"789":-0.0024983017196359477,"790":0.0011149379737438398,"791":0.06776401344404455,"792":0.019843432648498693,"793":-0.05802107608263358,"794":0.032903640277985646,"795":0.009750550823440693,"796":0.04273151579693301,"797":0.018662035287765746,"798":-0.04864736500473443,"799":0.010434643151180313,"800":-0.010001972051213913,"801":0.017307503585968127,"802":0.02462812777244528,"803":-0.025041494715890966,"804":0.02797892368958232,"805":-0.01383224077851307,"806":-0.015251040911652088,"807":0.06878516696005346,"808":0.03332388226811278,"809":-0.016224318582072725,"810":-0.005330746671313955,"811":-0.043229613477896334,"812":-0.02149641713510675,"813":-0.03796708271568651,"814":-0.011349760759669245,"815":-0.0010454195226036955,"816":0.11294244542244171,"817":0.0027057094474929235,"818":0.04934264224257734,"819":0.00037015384748663183,"820":-0.009090076335755601,"821":-0.06321642147791795,"822":0.0012561714187770273,"823":0.01995761953002994,"824":0.007909793774219092,"825":-0.006448487085397964,"826":-0.015005832690013349,"827":0.08411142153472326,"828":-0.05193460799368479,"829":-0.004353464636089593,"830":-0.020049584523677052,"831":0.01744393192111025,"832":0.02474668471546559,"833":-0.04864479265350901,"834":0.020382731247511478,"835":-0.005775559325147028,"836":-0.14266328757239996,"837":-0.050452352604604164,"838":-0.029517065308375064,"839":-0.07278373526573434,"840":-0.02723787717863769,"841":-0.04360160417863299,"842":0.0978554538335499,"843":0.015052262705154551,"844":-0.1977236911099447,"845":-0.02065550252107047,"846":0.060445774107835026,"847":-0.03093690724670626,"848":-0.0878050932228634,"849":-0.01021903856199457,"850":-0.06437926776754448,"851":0.07668025064598107,"852":0.10563448857892883,"853":-0.040575597423326705,"854":0.1588760523573606,"855":0.04170472520012023,"856":0.07422475049593391,"857":0.015552992975219478,"858":-0.024300252740767855,"859":-0.018830558485911836,"860":-0.0826731019462999,"861":-0.01986008805758741,"862":-0.02312756532845421,"863":0.12137697580295963,"864":-0.027389340893787296,"865":0.070956562267619,"866":-0.0300050325305031,"867":-0.04224895812958804,"868":0.08424808987668088,"869":-0.0263287080091806,"870":-0.05469582171718531,"871":-0.05295163313853465,"872":0.027862917867223197,"873":-0.06319518574074026,"874":0.03359725341506688,"875":-0.0042038819554881994,"876":0.03597698976215598,