{"layers":[{"out_depth":2,"out_sx":7,"out_sy":6,"layer_type":"input"},{"sx":4,"sy":4,"stride":1,"in_depth":2,"out_depth":64,"out_sx":4,"out_sy":3,"layer_type":"conv","l1_decay_mul":0,"l2_decay_mul":1,"pad":0,"filters":[{"sx":4,"sy":4,"depth":2,"w":{"0":-0.9936498442137598,"1":0.6593333300775334,"2":-0.4448018957541224,"3":0.22660540257963696,"4":1.1003071818206647,"5":1.0782740325430697,"6":-1.529343455806165,"7":0.7680974830726123,"8":-0.3103649767020553,"9":-1.768904977882231,"10":0.23528232539657307,"11":-0.2890892134181788,"12":-0.29776799505761586,"13":0.03605917231679871,"14":-0.6179497226076214,"15":0.12087354980274292,"16":1.535122046595808,"17":2.2384152325894324,"18":0.972417326870535,"19":-0.6096884389254786,"20":-0.031551549665455675,"21":-0.15414107336286462,"22":-0.13292209758207577,"23":0.6333220830165897,"24":0.03543040869987186,"25":0.001550830734356572,"26":-0.039801979075945924,"27":-0.09942567415320103,"28":0.7907997556425453,"29":0.6218639921618963,"30":0.37514846519614653,"31":-0.31235432119148604}},{"sx":4,"sy":4,"depth":2,"w":{"0":0.3095469097788658,"1":5.813035007270232,"2":-0.3626710684841856,"3":-0.4476969934269119,"4":-0.4110252158580563,"5":-0.42242898294775644,"6":0.04270832470416294,"7":-0.4832659425691938,"8":-0.14359583885172383,"9":0.034041336738338444,"10":-0.055580434229907584,"11":2.5113323461091484,"12":0.12420631694489438,"13":0.10891988377359244,"14":0.2379042074043725,"15":-0.25445042837607146,"16":-0.2155136047023005,"17":0.42660502178315024,"18":-0.07970727194274387,"19":0.27355026141056005,"20":0.3266046042619852,"21":-2.252971949261226,"22":0.19871854499387617,"23":0.42489629337068957,"24":-5.676694107453222,"25":0.403647621308355,"26":0.457095120098594,"27":0.2489588718516195,"28":0.14489595315071765,"29":0.4234425945940385,"30":0.6098385285752326,"31":-0.7383540439730941}},{"sx":4,"sy":4,"depth":2,"w":{"0":-0.9845990503466443,"1":-0.4612347445941941,"2":-0.050899641755315694,"3":0.032913261416836065,"4":0.033084243928873165,"5":-0.5857408040886728,"6":-1.4385030289044922,"7":-0.22367051877194757,"8":-2.1619823259125694,"9":0.23803636728474065,"10":-0.1442800023717053,"11":-0.4734755282770252,"12":-0.829676682016321,"13":-0.08308698524922371,"14":-0.08074794349274705,"15":-1.752881854499722,"16":-0.540462981685023,"17":0.4170589751002228,"18":-2.210542557633457,"19":0.5535363163246567,"20":0.08760401132494813,"21":-0.2370890004526857,"22":0.008040279965586069,"23":-0.25295478353038975,"24":-0.27174119605101044,"25":-2.0982094199966337,"26":-0.33802839463113116,"27":0.21091722177964714,"28":0.9836151565882921,"29":-1.8230706312690974,"30":-1.4433284418875252,"31":-0.08317932451765012}},{"sx":4,"sy":4,"depth":2,"w":{"0":-0.4721587606512184,"1":3.023079550497521,"2":-0.229348285622111,"3":0.17389638935025692,"4":-0.5127201156815262,"5":0.13415525893545982,"6":-0.43971507024545964,"7":0.4886836165203793,"8":-0.1778645811871239,"9":0.9120861794909131,"10":0.7748929659518915,"11":-0.345177885507887,"12":-0.09493359095632534,"13":0.3846697354426115,"14":0.13577248879688028,"15":1.5100425280496141,"16":0.12054766954014905,"17":-1.2447490383327997,"18":0.24871747418710305,"19":-0.032210224007223405,"20":0.14729271654881904,"21":0.2650542477040337,"22":0.26110476335564514,"23":1.2180744105371633,"24":0.07436759154513567,"25":0.7608924742615367,"26":-0.17939683083076666,"27":0.0363270432020985,"28":-0.029701636371088726,"29":0.33526791847074333,"30":-0.06080547120308768,"31":0.33081363587928436}},{"sx":4,"sy":4,"depth":2,"w":{"0":0.22325230802546062,"1":0.331882514256346,"2":0.10121308468007413,"3":-0.06756268069645203,"4":-0.1731111128824911,"5":-0.5524261433339626,"6":-0.45726325911269083,"7":-0.5480628639639565,"8":-1.1541111351818834,"9":0.20698748578192727,"10":-0.05127773727413551,"11":-0.2364058939407108,"12":-1.244757992263991,"13":-0.34832204429629626,"14":-0.28677181969430177,"15":-0.05031215329940068,"16":1.688372169481835,"17":-0.947539233942529,"18":-0.9128771333185963,"19":-0.10604312620110488,"20":-0.5837710610451546,"21":0.19419082411083236,"22":0.15497336998468536,"23":-0.29415450611747634,"24":-0.21749828599851767,"25":-0.1812441619188694,"26":0.022290879390346227,"27":0.2882706940617387,"28":-0.8981698224839123,"29":0.18465507728389624,"30":1.9371489893732086,"31":0.34547156848415855}},{"sx":4,"sy":4,"depth":2,"w":{"0":0.03641820679183095,"1":-0.004098158259459366,"2":0.1512139272237492,"3":-0.19973163218375364,"4":-0.11829934313426418,"5":-0.11458514809048403,"6":-0.13453866507764609,"7":-0.07540661443741448,"8":0.03112785465850932,"9":-0.06557963410336176,"10":-0.20163570502001849,"11":-0.16657727578081813,"12":-0.013622561992693445,"13":-0.38543663527709077,"14":0.10397216917901149,"15":0.13017629704798428,"16":-0.33655668265367517,"17":-0.12264261751647877,"18":-0.02151906314086685,"19":0.055827327677045714,"20":-0.2739948999618536,"21":-0.0828541658667923,"22":-0.2342957614668007,"23":-0.2967540278974222,"24":-0.16750036282456046,"25":-0.2010182462855704,"26":-0.29863668343362937,"27":-0.3011298397914232,"28":-0.23893897481106643,"29":-0.07905283180454534,"30":0.4491918515611803,"31":-0.13670937705803918}},{"sx":4,"sy":4,"depth":2,"w":{"0":0.08210130048445428,"1":-0.17576966235313102,"2":-0.48775321941926103,"3":0.5301620104411463,"4":0.09214502320188057,"5":-0.19649631979886772,"6":0.3632914629335357,"7":-0.18633469128673613,"8":-0.15175068498890845,"9":0.18230624495824038,"10":-0.0835363692985074,"11":0.21796681942834045,"12":-0.04161120535691228,"13":-1.3344230313450687,"14":-0.5600687716841514,"15":0.21258451548660523,"16":-2.2958193453963176,"17":-0.34323739409678294,"18":-0.09823714920325452,"19":0.09437327589456126,"20":-0.22751883874515288,"21":-0.5537322140792955,"22":-1.167751379611829,"23":-2.7928246473231417,"24":1.0103577674820927,"25":3.0866394987757007,"26":-1.2908990807858227,"27":1.1169976625224105,"28":0.614499453061288,"29":-0.1028377335187236,"30":0.7335875557435186,"31":0.47061990005083465}},{"sx":4,"sy":4,"depth":2,"w":{"0":-0.28936710664340637,"1":-0.27207066668256225,"2":-0.7158737466044534,"3":-0.37978241330335677,"4":-0.1422039179949276,"5":-0.3233543075878185,"6":-0.27407042826168465,"7":-0.05160898444844521,"8":-0.30392444861957774,"9":0.057893580052130536,"10":0.02353561237558422,"11":-0.1189045262927361,"12":-1.398570026521294,"13":-0.36199690813302376,"14":-0.8314249369663755,"15":-0.3059825523332964,"16":2.0525917303710277,"17":1.0842177252894882,"18":0.5162823347700398,"19":-0.49203542461753197,"20":-0.17580528643190022,"21":0.14840685319097058,"22":-0.30308207816197913,"23":0.19794306392720867,"24":-0.8179086804093351,"25":0.41483293486970624,"26":0.7033390481929291,"27":-0.20613802478624998,"28":0.5727523516105636,"29":0.48075785498397466,"30":-0.004637269291778366,"31":0.13663651142597372}},{"sx":4,"sy":4,"depth":2,"w":{"0":-0.7420623445267449,"1":-2.223643823366396,"2":-0.04322335208395244,"3":-0.2723841285265541,"4":0.5396167149241606,"5":-0.8147246820962929,"6":-1.4532906503992404,"7":1.1384604891565124,"8":-0.48679798591561696,"9":2.383599894118701,"10":0.48163094970047543,"11":-1.6389574411046772,"12":0.07448105427451773,"13":-0.35281022731574857,"14":-0.3116233997738413,"15":1.1764976834043106,"16":-0.2493617477626237,"17":0.308927521313844,"18":-0.09365817518794357,"19":-1.0925848088376584,"20":-0.3419534481607332,"21":-0.6462540176558252,"22":0.8614835908780775,"23":0.9751721733455746,"24":-0.01974309500989025,"25":-0.4277685932695467,"26":0.0986967510677523,"27":0.1859582494937114,"28":0.009069837321258389,"29":-0.19237660783217042,"30":-0.02900807800586933,"31":-0.9479965908050222}},{"sx":4,"sy":4,"depth":2,"w":{"0":0.41362356833669484,"1":-0.4365405434964324,"2":0.7734142693794062,"3":0.0010088170732015119,"4":-0.4828707451184489,"5":-0.13993726760496383,"6":-0.1795078866940494,"7":0.25489571172162523,"8":-0.1826483487451301,"9":-0.6396649813572584,"10":-0.0913695054865688,"11":0.6068923740831812,"12":1.3421758685528509,"13":-1.0292783975767137,"14":0.6982597906672067,"15":0.023625245263527644,"16":0.3359660478377117,"17":-0.8637631095497119,"18":0.14470880754583282,"19":0.20255203737699334,"20":0.41670872253583424,"21":0.26859696549434686,"22":-0.6660824137743352,"23":-0.19930997312164253,"24":0.07342828335555228,"25":-1.3220958351807728,"26":0.47209323089003224,"27":0.12983723391183233,"28":-0.1267396993239717,"29":0.19370450738317765,"30":0.4210339208795369,"31":0.8058481839514232}},{"sx":4,"sy":4,"depth":2,"w":{"0":0.06385076054594128,"1":-0.5076669750633217,"2":0.9878924958975245,"3":-0.7938828466254528,"4":1.8000366393409244,"5":-0.11728519731917311,"6":-0.15822706863024188,"7":-0.20498778978967633,"8":-0.8597933950547336,"9":-0.19366039498229595,"10":-0.7637223715064309,"11":0.2135042392035695,"12":0.809291583464149,"13":0.8769853369157794,"14":1.5021005039047546,"15":0.11193002691975186,"16":-0.2265067189977615,"17":-1.1310249270087789,"18":0.14964099452346483,"19":-0.39712188855708574,"20":-0.5344752027865538,"21":-0.35835274377415255,"22":0.975288284173294,"23":0.4246554399257425,"24":0.9838388199972978,"25":-0.04853416744700352,"26":0.38016992836495733,"27":-1.2663560553331512,"28":-0.5186036217119242,"29":0.0225627111978289,"30":-0.03327614816902435,"31":-0.18385179630460227}},{"sx":4,"sy":4,"depth":2,"w":{"0":-0.5085059551026901,"1":0.37795075731555955,"2":4.269121100910673,"3":0.012375781586457898,"4":0.010221480807645109,"5":-0.24526430474037403,"6":0.386736203101607,"7":0.4216496452998408,"8":-0.1620903246815768,"9":0.033829455038797945,"10":-0.47355029806789534,"11":-0.3697010414470897,"12":3.1900984787359987,"13":-0.3871794009613371,"14":-0.2570880785103786,"15":0.04719993133627973,"16":0.3701081082586879,"17":0.18922268476122853,"18":-0.126707334264408,"19":-0.04162346267403658,"20":0.18125152972403696,"21":-0.09233133563473889,"22":-1.5711004766195211,"23":0.23146543562890246,"24":0.560634843900837,"25":-5.002513962892409,"26":-0.18230943284053372,"27":0.04955138132389979,"28":0.12161785244630534,"29":-0.058231855154871226,"30":0.10731439094041698,"31":-0.11028270196191221}},{"sx":4,"sy":4,"depth":2,"w":{"0":0.16770039877077272,"1":0.10305470962576231,"2":-0.13958520980770928,"3":-0.05909039864852868,"4":-0.7576336101244749,"5":0.1949633551521245,"6":-0.5008077737061181,"7":-0.8370161103257869,"8":0.22015786127112627,"9":-0.6664930438470497,"10":0.7842886474718638,"11":-0.528385619911678,"12":0.5981405999230467,"13":-1.1219267645808075,"14":1.0679811149238634,"15":-0.379326966918135,"16":0.029203437416311446,"17":1.7594935530346116,"18":-0.42978540497385015,"19":-0.5299079939419293,"20":-0.28035894610682355,"21":0.8921098167044145,"22":0.36071528785423124,"23":-0.8411802014789536,"24":0.07442636298522681,"25":0.23925522127287166,"26":-0.4567480138703477,"27":-0.36080594177591907,"28":-0.4282706073332057,"29":0.31884442018839315,"30":1.107707819506542,"31":0.5091364758875551}},{"sx":4,"sy":4,"depth":2,"w":{"0":-0.8545769843819141,"1":-0.1678989758983984,"2":0.04395059017082583,"3":-0.3849734939555541,"4":-0.5998686979823785,"5":-1.0454041078996474,"6":-1.18729400209476,"7":-1.0738525137284567,"8":0.6243812882313382,"9":2.4524471042940537,"10":1.2511003817141844,"11":0.38150408209679615,"12":0.04753403256516905,"13":-0.7429485197654794,"14":0.01810917547370197,"15":-0.15907772275126664,"16":-0.23043159196121277,"17":0.22078449015876486,"18":0.16637605258734423,"19":-0.443381707171742,"20":-0.5603444269995561,"21":0.3678672206967119,"22":-0.12187479625619313,"23":0.835830502546638,"24":0.26280442883568006,"25":0.5463791073261803,"26":0.2582016721854492,"27":0.16178754219967023,"28":0.0662806858509216,"29":1.5057717085141311,"30":0.31854148534651167,"31":-0.1329594785171054}},{"sx":4,"sy":4,"depth":2,"w":{"0":-1.815081659053527,"1":0.17128816727737797,"2":-0.1783897497155304,"3":-0.0395325742103361,"4":-0.6206958350253603,"5":-0.6724890763130297,"6":-0.22561755635543354,"7":-1.4041889685744646,"8":1.290051288849867,"9":2.0074065072493306,"10":-1.1884992501928227,"11":0.569160759644737,"12":0.05736031398803673,"13":-0.12232458273047007,"14":-0.3343568524371631,"15":-0.13854719739132051,"16":0.9851715918388692,"17":0.2648462090691066,"18":-0.7131240700279228,"19":-0.25652122625638224,"20":-0.21271995183692743,"21":-0.46666324266365317,"22":0.24585958528115792,"23":-0.6133113866966988,"24":0.9551407533300197,"25":0.8453727890058567,"26":0.434971185334912,"27":0.8493598033883385,"28":-0.016615331668151566,"29":0.1516188330006839,"30":-0.9433085590573187,"31":-0.29432010741320747}},{"sx":4,"sy":4,"depth":2,"w":{"0":-0.0869657968877102,"1":0.22772822439322776,"2":0.2374319460334577,"3":-0.4175695926798409,"4":0.45141023565509364,"5":0.24880219420964844,"6":-0.2021126592237441,"7":-0.4356131829364407,"8":0.619563076658307,"9":-0.37958649521930515,"10":0.47546215490729765,"11":-0.44786116351414856,"12":-0.7582412703816108,"13":-0.8776849872477738,"14":-0.29375392196673406,"15":-0.7465389173422925,"16":-0.6829537485441146,"17":-0.16665961532392617,"18":0.014083184120149583,"19":0.019742581039813203,"20":-0.22405053655804244,"21":-0.9998719398989042,"22":0.29090219139961854,"23":-0.704305066613851,"24":-1.800907039944285,"25":1.2981417556534807,"26":1.725113289517777,"27":1.1655773062816024,"28":-1.146196004381115,"29":0.6656715073908875,"30":-0.24355235707777648,"31":0.2948039851558753}},{"sx":4,"sy":4,"depth":2,"w":{"0":0.19537802587136585,"1":-0.24760160095072054,"2":0.827099606091427,"3":-0.31328651765885634,"4":-0.3302423303531913,"5":-0.35392544582644536,"6":0.7721690587783775,"7":-0.9204056206978045,"8":-2.3784807403025217,"9":-1.26708810423686,"10":0.05632640517835127,"11":0.09795731309698591,"12":0.3946829189372392,"13":0.44220326878881194,"14":-2.1010393760943797,"15":1.29807377141282,"16":-0.4400667042692887,"17":0.017146502033705033,"18":0.5982026822199316,"19":-0.10065543170187458,"20":-0.07060205419728921,"21":0.5358413719134202,"22":0.12956723793630645,"23":0.06402056780085105,"24":-0.1976858861529395,"25":-1.2869255081894408,"26":-0.4054762231275638,"27":-0.39047550740732284,"28":0.4714936638948031,"29":0.6445178655301537,"30":-0.15548893210957196,"31":0.6384585275892469}},{"sx":4,"sy":4,"depth":2,"w":{"0":-0.13642343078114416,"1":-0.371090752523808,"2":-0.722506777771679,"3":0.6977534334705636,"4":-0.4718240572611741,"5":-0.1600789875398214,"6":0.06928327177071925,"7":-0.05342739070341703,"8":-0.6291416515384465,"9":0.10499860972074111,"10":-0.2525097018053218,"11":-0.6063301996734388,"12":0.007539787148005005,"13":-0.7354732999390838,"14":-0.2991313265675426,"15":-0.2750093172036789,"16":-0.9801392186784438,"17":-0.1788176791261685,"18":-0.07188515947908317,"19":-0.5001011855664085,"20":-0.6719071175834016,"21":-0.1439417893974134,"22":-1.908431363385054,"23":-0.3931971723747745,"24":1.812394152685563,"25":-2.4505966428352517,"26":1.2979670043346108,"27":-0.6613101100148675,"28":-0.6517305735649451,"29":-0.7584259325022656,"30":0.19877879455166586,"31":-0.5976225945418449}},{"sx":4,"sy":4,"depth":2,"w":{"0":-0.337136506735433,"1":0.6863092703777779,"2":-0.907129279991461,"3":-1.8622757641722827,"4":-0.5278049370113895,"5":0.029739225734117587,"6":0.256438935927568,"7":0.6743861077822769,"8":0.12417756682642633,"9":0.4702373363137004,"10":-0.26282645484502626,"11":-0.014805704188092107,"12":-0.07791624245649653,"13":0.5926909219774334,"14":-0.7266178030160259,"15":-0.0678048787721095,"16":-1.6412190202543575,"17":-0.4030914083233015,"18":-0.26445977693438966,"19":-0.3226514748132928,"20":-0.47753031982860217,"21":-0.33738416421714523,"22":-0.6545143976325044,"23":0.1611471591635084,"24":-0.7043451819303738,"25":-1.7860854777637023,"26":4.441898319046879,"27":-0.29978939475457206,"28":-0.2241696383861488,"29":-0.045531055320396446,"30":-0.2811960787643655,"31":-0.4034889462953968}},{"sx":4,"sy":4,"depth":2,"w":{"0":-1.1567206340155327,"1":-0.18648842778531804,"2":-0.49381411060018215,"3":-0.2797401460318106,"4":-0.07040282449939106,"5":0.2718124915828664,"6":1.720602768901155,"7":0.23133637687685568,"8":-0.3319908031481892,"9":-1.4349540244993395,"10":2.539383261827082,"11":-0.9041076676662715,"12":-0.28213737215412577,"13":-0.7575001771848802,"14":0.3114089455854649,"15":-0.16571041826985808,"16":0.04415934587142007,"17":0.003268374570924747,"18":-0.11014515619108242,"19":0.06580192409882325,"20":0.02094736336978604,"21":-0.1274722362826048,"22":0.1117178856438434,"23":-0.5884152034351428,"24":-0.0755204172685925,"25":0.29402717871372375,"26":-0.009426891180638447,"27":0.42692855063087914,"28":-0.42081768263792846,"29":-0.07447468035240777,"30":-0.9835035382912859,"31":-0.3962715958484102}},{"sx":4,"sy":4,"depth":2,"w":{"0":1.2090356811752943,"1":-0.9984461455410805,"2":2.839200588255114,"3":2.140571475647603,"4":1.048516250241782,"5":-0.18174209158101348,"6":0.07781486798877899,"7":-1.0210813740690017,"8":-0.20266505618713893,"9":-0.2062748385433804,"10":0.43676528187962776,"11":0.22117597367459815,"12":-0.8834630362623387,"13":0.13336937326855752,"14":0.07821742269011726,"15":0.9958775050751988,"16":-0.1452267757963982,"17":1.015368120300122,"18":-0.2613801185185958,"19":0.5241974397515685,"20":-0.09035590031102485,"21":-0.8794213809710743,"22":0.2519331114316463,"23":1.345112579573707,"24":-1.0103792851629112,"25":-0.2529494961731428,"26":-0.35223250614900375,"27":-0.07841105976441172,"28":-0.09484845965836795,"29":-1.0021268726865018,"30":-0.3967447289568899,"31":-3.4436359330736126}},{"sx":4,"sy":4,"depth":2,"w":{"0":0.12075177664408043,"1":-0.09364198846475089,"2":0.15729071838164088,"3":-0.08453271570350568,"4":-0.015447140761346522,"5":-0.020911870064530495,"6":-3.292857639935137,"7":-0.09398159433817163,"8":-0.084744758572799,"9":-2.841299316680487,"10":-0.3684680533795763,"11":-0.21533040985264737,"12":0.22257247118404558,"13":0.064452035777479,"14":0.0665350578361386,"15":0.07687512926998268,"16":0.2684911717203953,"17":0.6300937132048725,"18":-0.07276548532507665,"19":-1.4172274571492645,"20":-0.41753302266229103,"21":0.016875576474307975,"22":-0.15233439252799594,"23":-0.11703209136630888,"24":-0.070176931981483,"25":0.2700328562151472,"26":-0.04356070444559023,"27":-0.2987810725987561,"28":-0.04735821608766953,"29":3.9827434979102248,"30":-0.10201615532968702,"31":0.04952895680475239}},{"sx":4,"sy":4,"depth":2,"w":{"0":-0.6680409513895279,"1":-0.23410925769361537,"2":-0.5907089955938989,"3":-0.04984878657170163,"4":-0.292782593396357,"5":1.8181642710397397,"6":0.42935586129665726,"7":0.06705292717961102,"8":-0.7002646403142121,"9":0.4544836206768082,"10":-0.3851712433982845,"11":-0.13552409841434168,"12":-0.07360758875468994,"13":-0.633560262414029,"14":0.32837122525354256,"15":-0.273308746865746,"16":-0.002389689995725395,"17":0.04881872052963754,"18":0.481747603300531,"19":0.2754932690017874,"20":0.506662033357649,"21":-0.4253346877585487,"22":-0.19469984789585135,"23":-0.6330653211676803,"24":0.6507076279653312,"25":-0.3247362822465634,"26":0.01796607679639,"27":-0.39204315486056307,"28":0.6663973048371773,"29":-0.0314887734629986,"30":1.706890426209496,"31":0.9310580599807284}},{"sx":4,"sy":4,"depth":2,"w":{"0":0.06114642383632211,"1":1.8860309869363905,"2":0.05149558307900916,"3":0.18174371062718842,"4":0.10410423386632553,"5":0.08168252792365863,"6":0.5159814845929137,"7":0.01499454767887678,"8":0.2978674348062466,"9":-0.48335865380800896,"10":-0.03386789725345428,"11":0.37189194366144795,"12":-0.1700932181483872,"13":0.04781741979568814,"14":0.14961097616043886,"15":-0.4784680814799022,"16":-0.04390055439348922,"17":-0.02831384627153384,"18":0.23314729192579922,"19":-0.09951754463341306,"20":-0.7546620866563338,"21":-0.7022519130798776,"22":-0.2974422414048751,"23":-0.5931927504300992,"24":2.8903366504458092,"25":1.287940581345384,"26":1.1046967751468266,"27":-0.09580917497216387,"28":-0.8164613510863633,"29":-0.28118528728405257,"30":-0.3541616931927689,"31":-0.27455338593544404}},{"sx":4,"sy":4,"depth":2,"w":{"0":1.7538584309164962,"1":-3.0591717232564664,"2":0.7700193515981465,"3":0.3190737355295345,"4":0.3747835472960542,"5":0.3658675933400553,"6":0.721245648403294,"7":1.1756234399698011,"8":0.2485274620384879,"9":0.6388502474024619,"10":0.21715644205862789,"11":0.7539187505385946,"12":0.5669236602737537,"13":-0.048125325932013,"14":0.22444035505171403,"15":0.43348821015093214,"16":0.12335195582933114,"17":-0.13038869525794936,"18":0.06390056210054869,"19":0.05693271427626316,"20":0.0775938790457019,"21":-0.6552416549685567,"22":0.1270234838475676,"23":0.28427394059937217,"24":-0.32645278607766376,"25":1.3732240383814434,"26":-0.12348590575142701,"27":0.020392690609392923,"28":0.10460142072532058,"29":0.19261804223614717,"30":0.6537693768776713,"31":-3.454594450369293}},{"sx":4,"sy":4,"depth":2,"w":{"0":-0.3319777221483347,"1":1.08619146987436,"2":0.2767449399781576,"3":0.10930704110378103,"4":0.04749606403104895,"5":0.08796051153637557,"6":-0.6979600797533158,"7":0.47968769367522346,"8":0.5709793788930078,"9":-1.700715819032249,"10":-0.15426506477985322,"11":0.01535677202584121,"12":0.3110503020712103,"13":-0.6194800748542761,"14":-0.16804516399980376,"15":-0.3117067969353874,"16":-1.0302106194026674,"17":-0.6750766474999367,"18":0.4061496846312078,"19":-1.3326355965049896,"20":1.3623250940817977,"21":2.0375108393327137,"22":1.2082791051465098,"23":-1.4014187653258963,"24":-0.04200870207488116,"25":0.3528953234581866,"26":0.5781783891588018,"27":0.02032641961662005,"28":0.056035285271444864,"29":0.8295590980730522,"30":1.2966243792423502,"31":-0.3699635113988648}},{"sx":4,"sy":4,"depth":2,"w":{"0":0.13891997152410243,"1":-1.6295386925462956,"2":0.027237390091346615,"3":-0.326752122800926,"4":0.058975784159638556,"5":-0.05496939962491019,"6":-0.2596878795636105,"7":-1.7521741540838995,"8":-3.1681401445740507,"9":0.7147996796249716,"10":0.45230992085955957,"11":0.6586647609570302,"12":-2.7688255014799315,"13":0.07628430197726137,"14":-0.08714247916619079,"15":-0.07302907404211811,"16":-0.43729332167686286,"17":-1.0049217470093104,"18":-0.7822199738286776,"19":-0.8557536834909804,"20":-0.8484706424593128,"21":0.2539777538367273,"22":0.31380774564766,"23":-0.06945149064262368,"24":-1.3320963720415668,"25":-0.36804128831560723,"26":-0.23777547284595685,"27":-0.8083070632231744,"28":-0.33223338233588884,"29":0.03075411366965778,"30":-0.9386026479027021,"31":0.6016530689576762}},{"sx":4,"sy":4,"depth":2,"w":{"0":-0.26918939913206313,"1":-0.640049101750196,"2":0.37760053342427957,"3":0.5806124828133113,"4":-0.5162273482977158,"5":2.678195801472787,"6":0.08182790415979833,"7":-0.18781023611116432,"8":-0.5061266276137192,"9":1.985806061564735,"10":-0.08662090581328857,"11":0.06898995420233,"12":-0.29134043342385973,"13":-0.57990265875914,"14":-2.076053922602182,"15":-0.7173237449155049,"16":1.0738502468942712,"17":0.4095571370620239,"18":0.6972377536275649,"19":0.2054829898917312,"20":-0.11954924479765816,"21":-0.14385662016674183,"22":0.9149803995885244,"23":-1.7941058877249811,"24":0.6644283225647994,"25":0.43457700381673436,"26":1.7117317194731778,"27":-2.190513542074616,"28":0.1265525963520388,"29":0.1063712006070675,"30":-0.2582780032699797,"31":-0.09689791289165733}},{"sx":4,"sy":4,"depth":2,"w":{"0":-0.34008951873927173,"1":0.3469303479730461,"2":0.20532070147071052,"3":-0.11912288353700203,"4":-0.71558232475666,"5":0.9215573183825959,"6":-1.9243333922228572,"7":0.5262386455483243,"8":-2.8739947826318106,"9":-0.9483458273864196,"10":-0.00031436236971285,"11":-0.23441686805204814,"12":-0.223279760206264,"13":-0.31129423353629115,"14":0.7153060161134644,"15":2.082158864824754,"16":0.3196675656275327,"17":0.4577614907206303,"18":1.1783234755092045,"19":0.07366114208275813,"20":-0.32786623572244517,"21":0.1708747294457879,"22":0.2948527050962928,"23":0.49536494172871237,"24":-0.18786776466964636,"25":0.5108297712802854,"26":0.3643167094234288,"27":-0.3583084090054528,"28":-0.3515892138340787,"29":0.11547280163331154,"30":0.11070342684725366,"31":-0.054411245838162696}},{"sx":4,"sy":4,"depth":2,"w":{"0":-0.29514450143600784,"1":0.04921519100753083,"2":0.3927202680560861,"3":0.9155552180415688,"4":-0.23050902176076993,"5":-0.6978730844146613,"6":-0.26427530814222316,"7":0.7621256332559208,"8":-0.21815901335249194,"9":-0.22837846641772827,"10":0.4710336483887679,"11":-0.16967284454664522,"12":1.2420576426507104,"13":-0.2451210150002726,"14":-0.03744024858696935,"15":-0.221413739547917,"16":1.530323938215523,"17":0.6880524714651151,"18":-0.28474512935525714,"19":0.1889205261596196,"20":-1.2316633769234766,"21":-0.4335872076792478,"22":-0.43509048533362027,"23":-1.3076389124543324,"24":0.7119106325224915,"25":1.7555385464815976,"26":1.0020450158105532,"27":-0.08752547407041035,"28":0.2220461458793668,"29":-0.07338268881090393,"30":-1.6849226363133054,"31":0.2940332726166847}},{"sx":4,"sy":4,"depth":2,"w":{"0":-2.9117061628936973,"1":1.1309270131856388,"2":-0.0599993082991185,"3":-0.42557788159338006,"4":0.3504738449203654,"5":1.282234729049496,"6":-0.14193660770815897,"7":-2.5383038205859503,"8":0.3297322416336194,"9":3.7929210458463145,"10":-0.037340125578877836,"11":-0.17814286419678246,"12":-0.13908120862753698,"13":0.07992134413227343,"14":-0.08721130520900525,"15":1.0709492017132554,"16":-0.24268766613962509,"17":0.5466045142370975,"18":-0.5121065819711542,"19":-0.17893479591586206,"20":0.4909232574511244,"21":1.740547617305009,"22":-0.3939911038724797,"23":0.035240056555966556,"24":-0.503264332210101,"25":1.4252828405176563,"26":0.01079905655470977,"27":-0.1090919010248927,"28":0.09553718618663065,"29":1.1109944310050623,"30":-2.0395238544563195,"31":-0.23515977173701}},{"sx":4,"sy":4,"depth":2,"w":{"0":-0.4027611385684423,"1":-0.4141212799337481,"2":0.18418933496555856,"3":-0.5159174123038112,"4":-0.17818756259738674,"5":0.3339008571046468,"6":0.19114082354312203,"7":0.964170626857624,"8":-0.6359842661624316,"9":-1.2088406839320243,"10":-0.6341981909177289,"11":0.9029914789943434,"12":-0.08645701893720245,"13":-0.06322233335352652,"14":-0.48852727309383454,"15":0.049709875859829514,"16":0.7099581564017694,"17":-0.21220834888354215,"18":-0.47462091989667543,"19":0.08817453886807207,"20":-0.15433692730676252,"21":-0.04037852939747621,"22":-0.13356101578128032,"23":-0.8133509466231171,"24":-0.8908253081232458,"25":-0.3125270418268428,"26":-0.2007422369785888,"27":0.045472580956573486,"28":-0.021843178896515398,"29":-0.12849355833151346,"30":-0.8071130323660167,"31":2.6172102090530553}},{"sx":4,"sy":4,"depth":2,"w":{"0":0.09190974530970328,"1":0.2506675495840115,"2":-0.021055740941968465,"3":-1.3868116215046715,"4":-0.5697345030023682,"5":0.2999908473874002,"6":-0.19703803173499704,"7":-1.1282529261034586,"8":-2.5036495696477914,"9":-2.6637395233699093,"10":0.4302848697300007,"11":0.5325456210199645,"12":-0.02872950294860783,"13":-2.6839192614993577,"14":0.5154744400771729,"15":0.9556181934266059,"16":-0.601241438595505,"17":-1.2683498149492296,"18":-0.27687005372715295,"19":-0.11401160146838486,"20":-0.1275088681061091,"21":-0.8839258673619386,"22":-0.7674133709999623,"23":-0.594277211332681,"24":-0.11762757699268898,"25":-0.7660479713378844,"26":-0.233468491706166,"27":0.2753335433056647,"28":-1.119301792779737,"29":-0.5687716511104604,"30":0.428771978103677,"31":-0.3109337275795961}},{"sx":4,"sy":4,"depth":2,"w":{"0":0.4031956083786725,"1":-0.27526900484489,"2":0.08943854628251005,"3":-0.03168573947099307,"4":-0.7065327985219185,"5":1.1693508455260533,"6":0.5114939431017513,"7":-0.6260786461249342,"8":1.671097318901495,"9":-0.9247127312138074,"10":0.3918610541233997,"11":-0.265521561029381,"12":0.08102056232697716,"13":0.8003118275204361,"14":-0.17661278155960142,"15":0.20735402576073889,"16":0.07545579314925628,"17":0.8702922728344945,"18":0.26975716358515567,"19":-0.45629992618484205,"20":0.4783993079978898,"21":-0.5430626809422091,"22":-0.04972815120455809,"23":0.5579821138192429,"24":-0.5794173709509193,"25":-0.5839387870065339,"26":0.6177094422097954,"27":-0.37224817502815133,"28":-0.9032910133365005,"29":-0.0044061459894782695,"30":-0.7232800926998596,"31":0.45722749269301494}},{"sx":4,"sy":4,"depth":2,"w":{"0":0.03951167593038788,"1":-0.6609391770377846,"2":1.347029205253148,"3":-0.6095532606969052,"4":-1.190101143444806,"5":-0.8471088724124044,"6":0.4263671243023713,"7":0.24852449249415773,"8":0.35152563691232014,"9":0.19100038679873169,"10":-0.6267009036531682,"11":0.25344354336952246,"12":-1.1138974892944207,"13":-0.9355467331902767,"14":-0.2473405149154527,"15":-1.7685403938574007,"16":0.45729899091886844,"17":-2.056718462190077,"18":0.5419237468556615,"19":-0.3289260853134161,"20":0.8406724149905831,"21":-1.0918957538077052,"22":-0.02952218320262802,"23":-0.09150003952431024,"24":-0.07708935181860065,"25":-0.08790221024651527,"26":-1.191629339052432,"27":-1.02957745311757,"28":-0.9382453467139678,"29":-0.43474531096333774,"30":0.04685594117922437,"31":-0.9636592042393889}},{"sx":4,"sy":4,"depth":2,"w":{"0":1.8049186117793232,"1":-0.20248980027573235,"2":0.3259575129053471,"3":-0.21469017097928525,"4":-0.819282955278439,"5":-0.013852219737990489,"6":-0.9081659869375195,"7":0.21350426679412066,"8":-0.4379827385569511,"9":-1.7355361204584558,"10":0.08036187047069818,"11":-0.20431849552764178,"12":0.010860077376214364,"13":-0.26405491367508127,"14":-0.1508535138855826,"15":-0.8067093918000868,"16":1.0860834797919139,"17":1.7168570438829636,"18":1.7720183435511987,"19":-0.18482476071264328,"20":1.077561705624209,"21":0.45371571326892934,"22":-0.20522645712520282,"23":0.339023074101997,"24":-0.23588856589280482,"25":0.4990864478832403,"26":0.11889596558704214,"27":0.3432669839622419,"28":-0.4922003945481674,"29":0.16489840526556462,"30":-0.23052567801178075,"31":0.2230775264099714}},{"sx":4,"sy":4,"depth":2,"w":{"0":-1.2902214985574758,"1":0.45141281621020496,"2":-0.07567337658517431,"3":-0.12212556818374909,"4":-0.05470985313494962,"5":-1.003399044054499,"6":-1.0981198905333782,"7":-1.7623451315013172,"8":-1.2673993605430665,"9":2.671118999099,"10":0.24554594981391512,"11":-0.006900433846424123,"12":0.28804320222864394,"13":-0.09781180382500329,"14":-0.34048328782993065,"15":1.0545756273786542,"16":0.27639256316674554,"17":1.2321327656164658,"18":0.18198926237721488,"19":-0.8594784489308049,"20":0.38619434994564006,"21":1.0446413519388202,"22":-0.47637935921561925,"23":-0.2684064533812511,"24":0.13354906934480437,"25":0.27807861665967476,"26":-0.24676557398972435,"27":-0.4723253482326553,"28":0.2360433678626799,"29":-0.14533411044266736,"30":0.06365906947411204,"31":-0.22755780164781647}},{"sx":4,"sy":4,"depth":2,"w":{"0":-0.1851414386405704,"1":-0.3220430572691898,"2":-0.1361787003312442,"3":-3.7747229082895157,"4":-0.8079421977518401,"5":-0.02997479335073666,"6":-0.445560039352644,"7":-0.24848186682963458,"8":-0.378257907224813,"9":0.020256031773938116,"10":-0.25204617303644655,"11":-0.3719285696077514,"12":0.009037013462060848,"13":3.9169497308267047,"14":0.009484996214463979,"15":-0.08640373995255475,"16":-3.8447576957132856,"17":0.1404485315842355,"18":0.3274962051690166,"19":0.03685581965479669,"20":-0.09518911778529052,"21":0.3516496171253669,"22":0.15287276391357374,"23":-0.12187275386218759,"24":0.1685126527119232,"25":0.16589046523759657,"26":-2.421985114665048,"27":-0.05809751717222156,"28":0.050752263387579384,"29":-0.21237315805144671,"30":-0.3517221959621325,"31":-0.5565447092182964}},{"sx":4,"sy":4,"depth":2,"w":{"0":0.11458646653982847,"1":0.5585601716404267,"2":-0.7127468294442194,"3":0.4148943995319812,"4":1.0835844677839712,"5":-0.08839008333811608,"6":-0.11572006031128575,"7":-0.28138642164584177,"8":0.6238794340198949,"9":-0.1271408167547851,"10":-0.019420332572492833,"11":0.32567404162501523,"12":-0.23870079394097746,"13":0.411582904499896,"14":0.09252941878582052,"15":0.24337922144151625,"16":-0.5375566453318104,"17":0.18539726791961253,"18":-0.20346599114540484,"19":-0.08447839586114028,"20":-0.4401482507411261,"21":-0.5435754093243302,"22":-0.2786522017167952,"23":0.0005333895205346294,"24":-1.1104830674795516,"25":3.5216520610279844,"26":-0.32385772981335054,"27":-0.14187695003202644,"28":0.13113072139081902,"29":-0.0073556306762630605,"30":0.04730138973287581,"31":-0.15901130414242326}},{"sx":4,"sy":4,"depth":2,"w":{"0":0.031988513356191135,"1":0.2594239447962425,"2":-0.37414855565088484,"3":0.01656649504716387,"4":0.15763689219844942,"5":-0.3705197187473624,"6":3.4096635243620446,"7":-0.6407307125494044,"8":-0.12886974488541406,"9":2.3236055452455338,"10":0.17783161971753358,"11":-0.222834127599973,"12":0.2420767095766465,"13":-0.36881414814239244,"14":0.20377693303890468,"15":-0.35814934428948303,"16":-0.37094958222892604,"17":0.016118282709802083,"18":-0.3446969606173281,"19":-2.324928200827411,"20":0.06507495760619846,"21":-0.3826043845504037,"22":0.07633417992992209,"23":0.007360080303244617,"24":-0.022421174690780563,"25":-0.15082871654960792,"26":-0.22793748390906432,"27":-0.2937055614238893,"28":0.3912414166167447,"29":-2.261365913805299,"30":-0.22608722648941,"31":-0.6571577248435022}},{"sx":4,"sy":4,"depth":2,"w":{"0":0.16396000435381158,"1":-0.3372156568670968,"2":0.5269301165889398,"3":0.2554680649619147,"4":1.5973638832654502,"5":0.21315436249920364,"6":-1.8011435745140314,"7":-0.05047362581888712,"8":3.5426421044263847,"9":-0.001922343618552854,"10":0.4598701349107696,"11":0.3359746877439783,"12":0.27259265552946843,"13":-0.4683404136143384,"14":0.42105452604375315,"15":-0.45849908303372433,"16":0.5279286328549977,"17":-0.3655590838619504,"18":-0.033166394631383614,"19":0.40521669336780797,"20":1.7574759094366732,"21":-0.5575470221063142,"22":-0.638799932211199,"23":-0.043158797077944434,"24":1.5371164489696754,"25":-0.13217911724082906,"26":-0.5922415259270798,"27":0.14799864828841458,"28":-0.5789923461235537,"29":0.024862690406637963,"30":0.07751836577700455,"31":-0.19041737034581924}},{"sx":4,"sy":4,"depth":2,"w":{"0":-0.21323373465186105,"1":-0.5973189188475547,"2":0.12634032728736566,"3":-0.0063105169401748325,"4":-0.16437786449447572,"5":-0.04669433415606178,"6":-1.9666670031606646,"7":0.14409045620332478,"8":0.028687530173013228,"9":-0.19218195692563228,"10":-0.4625973861314719,"11":0.11628255104220298,"12":-0.1268070464338871,"13":0.263693613327362,"14":0.28756765605191487,"15":-0.7569305590229659,"16":-0.6904612194885325,"17":-1.1812440656081513,"18":0.32372395153886396,"19":0.6757462388944311,"20":0.12072039798818951,"21":-0.6842691922126963,"22":-0.3396112276477426,"23":-0.9918411501887778,"24":-0.19088467572996798,"25":-1.5807097085887716,"26":-0.11856982873984365,"27":-0.11728805163053173,"28":-0.057911024088841453,"29":3.677446715804571,"30":-0.030667286161221333,"31":-0.7559570783968441}},{"sx":4,"sy":4,"depth":2,"w":{"0":-0.5017701838069695,"1":0.009607773899735886,"2":-0.517705079707642,"3":-0.22598767288168922,"4":-0.142559473721672,"5":3.3360116666423214,"6":-0.8303475244612951,"7":-1.2295452817738295,"8":-0.8617837841073135,"9":0.3340361944897324,"10":0.14162156290803013,"11":-0.6460807405798333,"12":-0.08159516387893105,"13":1.021196374491829,"14":-0.15647494035435106,"15":-0.7007569193461647,"16":-0.461765032426065,"17":-0.43584455317839,"18":1.0741981613672775,"19":0.1185807023077689,"20":0.4424108745578381,"21":0.7706540696680544,"22":0.6353931783994244,"23":-0.01904735348294009,"24":0.1589402156798726,"25":-0.3338508798231829,"26":-0.007150293232025856,"27":-0.2142469555208614,"28":0.7693648487837728,"29":-1.385024573907985,"30":-0.003843110071411334,"31":-0.6933176293187092}},{"sx":4,"sy":4,"depth":2,"w":{"0":-0.4545733786831172,"1":0.015394398295895496,"2":-0.12073452966405972,"3":0.190055488978205,"4":-0.3921417234733052,"5":-0.010823131005658645,"6":4.064370012281065,"7":-0.30358789060624725,"8":0.013536766421597202,"9":4.074802426356897,"10":0.0111078942997346,"11":-0.015823347116823212,"12":0.09874397598990704,"13":0.02842027969121335,"14":0.054591269545999355,"15":-0.2795755465062019,"16":-0.22906021522665018,"17":-0.07466709083418785,"18":-0.5011411889906383,"19":-2.978511693085669,"20":0.1527899281916498,"21":0.021865649615421617,"22":-0.22027893525418427,"23":0.3330312566986244,"24":-0.2511895197609069,"25":0.19735068443448137,"26":-0.2175822072596313,"27":0.22258510362861356,"28":0.0032284073754780124,"29":-3.7430189935359444,"30":-0.12428668687754046,"31":0.04081476809103662}},{"sx":4,"sy":4,"depth":2,"w":{"0":0.06417689892990427,"1":-0.16703670965386877,"2":-0.469022862768631,"3":-1.9154020989087803,"4":0.17110878394699722,"5":-0.471642347636104,"6":-0.24603630885200203,"7":-0.38244215101970097,"8":-0.17567620668253373,"9":-0.02624564392109052,"10":-0.3114983994411666,"11":-0.23545196844833335,"12":-0.050400743609764355,"13":-2.5150879390995717,"14":-0.7855153403270912,"15":-0.6810290839107758,"16":-2.4814689530547054,"17":3.010519876057175,"18":3.042673722383475,"19":1.7342926904942795,"20":-2.2825040238001475,"21":-0.38617551954622753,"22":-0.13358744047990498,"23":0.1524905296402209,"24":-0.13614458774851754,"25":0.5378075008149906,"26":-0.9156813373290836,"27":-0.07053482090201585,"28":0.43435132768676793,"29":0.09597642791197948,"30":-0.022825768667246126,"31":-0.025571727783669673}},{"sx":4,"sy":4,"depth":2,"w":{"0":1.2656846815829648,"1":0.5123317578459539,"2":0.0864433086182116,"3":0.12753184434140594,"4":0.9090798993880486,"5":-3.0805179130869367,"6":1.372276163603038,"7":0.1672075695420361,"8":-3.856336202615739,"9":0.22909825032113104,"10":-0.3069576348138413,"11":-0.26452167457146897,"12":0.1574470998677193,"13":0.18197116467686703,"14":0.9400425194061599,"15":-1.154570942334106,"16":1.6433324532356046,"17":1.2666723956943853,"18":-0.12347242583705885,"19":1.6852614129599746,"20":1.3329619251624172,"21":0.3030734012683811,"22":0.0756347131647462,"23":-0.15267225944329788,"24":-0.10074322658874502,"25":-0.07734189127721004,"26":-0.06967043559194823,"27":-0.21506990928396996,"28":-0.3359134052052961,"29":-0.012973505308716177,"30":-0.014878180953438791,"31":0.13139643147577368}},{"sx":4,"sy":4,"depth":2,"w":{"0":0.6886414941335831,"1":0.3632397468062041,"2":-0.21719248197142432,"3":-0.5071680508649339,"4":0.038712898747642416,"5":0.4124042571865246,"6":3.4402602319123194,"7":1.0705121099124346,"8":0.09589459815386939,"9":1.086558879828,"10":0.09311162120708678,"11":0.9103751307419049,"12":-0.5271731767192172,"13":0.23798311343085202,"14":0.032941337484044736,"15":0.1331090662987232,"16":0.5695651186655951,"17":0.3412315760598427,"18":0.4848052545418207,"19":-2.8242069684609787,"20":0.10391996808029569,"21":0.272050983272479,"22":0.0756827721881854,"23":0.20923151548960764,"24":0.22438505411606405,"25":0.3557192316550884,"26":-0.08207086351141032,"27":0.017783377834119162,"28":0.09098967967473748,"29":-3.111664306541049,"30":0.7085391185690129,"31":0.6767759399855373}},{"sx":4,"sy":4,"depth":2,"w":{"0":0.04725860954243634,"1":0.199859426587578,"2":-0.03813824770789014,"3":-1.3461376092613802,"4":-0.1346622875795388,"5":0.5873881062041532,"6":-0.03779982385329645,"7":-0.31397356477401483,"8":-0.1784603985864891,"9":-0.23352715048243847,"10":-0.0983397411090002,"11":-0.11838495247373036,"12":-0.3363906075407111,"13":1.9213820041095335,"14":-0.360407032284127,"15":-0.24145879906405382,"16":1.9952844088302573,"17":0.6752426873567056,"18":-0.28777650211585726,"19":-0.03736425073557528,"20":0.061054003339529164,"21":0.28712535601045003,"22":-0.05442124839265612,"23":1.3439205877978666,"24":0.15872360818532946,"25":-0.6617731936167356,"26":0.7690841015632672,"27":-0.21110632192673273,"28":0.13007913669822876,"29":0.26588758320014805,"30":-0.0491856704131108,"31":0.21518254047105337}},{"sx":4,"sy":4,"depth":2,"w":{"0":0.6092245580523824,"1":1.2265263955119865,"2":-0.41721427615824225,"3":-0.5721943737103874,"4":-0.6463375416404288,"5":-0.6648134381448068,"6":3.498610279583982,"7":-0.2904898738086048,"8":2.2091443808531985,"9":-1.2273122315782012,"10":-0.3767289516735739,"11":-1.0036770754114197,"12":-0.40344253990607165,"13":-0.13612143116965275,"14":-0.012633536546184449,"15":0.24631653590529626,"16":0.06271681270435016,"17":0.5414920058988361,"18":0.06919015152368764,"19":0.06275927531999521,"20":0.611294568720787,"21":0.09907704653633273,"22":0.7557233454085852,"23":-0.18758467516261218,"24":-2.5438091928131774,"25":0.40770313473163344,"26":-0.24583078784680534,"27":-0.15729776863325712,"28":-0.22386149796754204,"29":0.13922240363649405,"30":-1.5448970632773193,"31":1.6974102317671982}},{"sx":4,"sy":4,"depth":2,"w":{"0":-0.1697053658362153,"1":-0.7127592604317421,"2":-0.20541498472407277,"3":-0.4411674912474213,"4":-0.995884917273649,"5":-1.9960530683853164,"6":-0.7804880490734587,"7":-0.8063403402373368,"8":4.289527378409276,"9":0.44013827984030945,"10":0.2758022153282973,"11":-0.15019307070704543,"12":-0.4220496912625149,"13":-0.15114938928807084,"14":1.1996865293247208,"15":-1.0710743130267173,"16":1.0652046495030756,"17":0.2522850677143341,"18":-1.7735248011353495,"19":0.035535445689056054,"20":0.801253688890873,"21":0.4377882751853474,"22":0.2021677241517705,"23":-0.16142433929707245,"24":0.0016025613336451722,"25":0.021728444086242124,"26":0.25405825744728533,"27":-0.24079110076189275,"28":1.740095416387522,"29":-0.06263233562511092,"30":-0.0831523185614313,"31":0.0888460714323311}},{"sx":4,"sy":4,"depth":2,"w":{"0":0.3020475611881578,"1":0.16713867781423591,"2":0.10528622347886339,"3":-0.24439512012185374,"4":-0.4228657065062901,"5":-1.3536640243656712,"6":-0.312112862383671,"7":-0.44620970615052735,"8":-0.9855032088482226,"9":1.4184401076041888,"10":1.0986372898237597,"11":0.28095678016099435,"12":0.7347766038869716,"13":-0.2693034565301099,"14":0.09625843084064661,"15":0.05689293495267677,"16":0.10520680594190449,"17":-0.4426293120257881,"18":-0.21341415605604097,"19":-0.1416260259757829,"20":-0.07822269290369346,"21":-0.09372934687919399,"22":-0.08450091137384336,"23":-0.39774845523479196,"24":0.28835109827701344,"25":-0.17546592396386965,"26":0.25215966210398494,"27":0.1432805276252366,"28":0.22982283572849097,"29":0.5765226575702888,"30":-0.00552403503232273,"31":0.23876272295080306}},{"sx":4,"sy":4,"depth":2,"w":{"0":-0.3958036404231126,"1":-0.5733922215202083,"2":-0.5508022207933023,"3":-0.4837177540270694,"4":-0.25388520630025707,"5":-1.2666032060525274,"6":-0.6309675578730602,"7":2.564298859805222,"8":0.3741854851292171,"9":-0.2943883130031785,"10":-0.23295938627394508,"11":-0.23177546136844876,"12":-0.6711528369460841,"13":0.13352013126752313,"14":-0.03151572999108257,"15":-0.7680101167596651,"16":0.09755028397741033,"17":-0.0035211517370287945,"18":0.41441881533546215,"19":-0.018389356070956663,"20":-0.008454289469895999,"21":-0.14993801106400198,"22":0.05740314666108155,"23":-0.3977970036662014,"24":-0.032843239205482835,"25":0.19140613992738,"26":0.3312186539612547,"27":-0.07603730809672811,"28":-0.5484472504399492,"29":-0.4187954699677696,"30":1.537509317706775,"31":-0.23463427319824637}},{"sx":4,"sy":4,"depth":2,"w":{"0":0.16771167488501865,"1":0.7450480897748716,"2":0.6424411954465141,"3":0.5279070161921348,"4":0.06098229512328672,"5":-0.04921729192400691,"6":0.1030580961765137,"7":0.16207673456608265,"8":-0.1742912352116653,"9":-0.1453186024731412,"10":-0.5730249998680707,"11":-0.07737064337484822,"12":-0.5930980373809962,"13":-0.5701573720866038,"14":1.0569649384315134,"15":-0.3267413593868464,"16":-2.6665669153558773,"17":0.14042120179298218,"18":0.06703170216688317,"19":-0.18137458106224547,"20":0.16465723691426384,"21":0.15207411832905507,"22":2.5615862467213555,"23":-0.27937164344883003,"24":1.2421013509388112,"25":0.15084060735081486,"26":0.06134465592984884,"27":0.569734162242943,"28":0.3658009161092576,"29":-0.0033300253645559014,"30":0.10352881321230266,"31":0.7145885183666169}},{"sx":4,"sy":4,"depth":2,"w":{"0":-0.5276042310896103,"1":0.8664181231452508,"2":0.7031811969070834,"3":0.9057882254104257,"4":0.47521047319531917,"5":-0.4499446981453981,"6":-0.21205068201109267,"7":0.7675137831961586,"8":0.4004601885834336,"9":-0.706359473991556,"10":0.08891194355135976,"11":-0.1193827462008742,"12":-0.3767581378026316,"13":0.378452493077036,"14":-0.25033875014001317,"15":-0.34455499017303215,"16":-0.48568108964084333,"17":0.40650487820888015,"18":0.29815115641738804,"19":0.1472289165049963,"20":-0.03673956508406314,"21":-0.13438069881411552,"22":0.7737806340120966,"23":-0.5392227614591941,"24":-0.4959285462692628,"25":-0.19647840859529656,"26":-0.6495525799646596,"27":0.3159413859433895,"28":-0.2418472794851624,"29":0.23718612196778163,"30":-1.2053478436494087,"31":-0.7526850717560745}},{"sx":4,"sy":4,"depth":2,"w":{"0":0.18743173972769356,"1":-0.011678476975699723,"2":-0.24286233051070463,"3":-0.1854764202607418,"4":-0.6708678153859049,"5":-1.2266605148527516,"6":-0.09351295164336972,"7":0.12276852420505222,"8":-1.6195663221198526,"9":-0.3808026593513328,"10":0.5125992519510841,"11":-1.5719233003757689,"12":0.8477318908338557,"13":0.8155566151845107,"14":1.7095745747889926,"15":-1.9351620036803603,"16":-1.1592191448982507,"17":-0.6342488829251649,"18":-0.7765422673222531,"19":0.034561975067825754,"20":0.09632502847726569,"21":0.6584859419948067,"22":-0.41115380196874385,"23":-0.2009793854821739,"24":-0.9867094611483356,"25":0.7514725802826644,"26":0.07108077225977967,"27":-0.06624762819432109,"28":-0.9414806008627319,"29":-0.9376291133459305,"30":-0.09447509857643246,"31":-0.08579856338105286}},{"sx":4,"sy":4,"depth":2,"w":{"0":2.549316637298511,"1":-0.09978903492913842,"2":-0.08091498322914611,"3":-0.3087191951135137,"4":-0.14525115738550437,"5":-0.49431525913071217,"6":-0.22778053626670308,"7":6.958650123167764,"8":0.05670722414235259,"9":0.16189878321496587,"10":3.1586403442097866,"11":-0.22659224310752216,"12":0.09731738125352736,"13":-0.06158137958438286,"14":-0.10596406375322315,"15":0.05315028650765453,"16":0.3519930314946877,"17":0.1250852307391904,"18":-0.12239966889312777,"19":0.00986188336113894,"20":-3.7933345314508973,"21":0.09346600114249974,"22":0.4463630763632199,"23":0.42388453138623644,"24":0.10467887247092807,"25":0.07268825239854898,"26":0.2425017701262984,"27":-0.0911293743146507,"28":0.09219503106717288,"29":-0.032533693329884615,"30":-4.540102725724751,"31":0.37852470588730114}},{"sx":4,"sy":4,"depth":2,"w":{"0":-0.1359550494850799,"1":0.18020892436194022,"2":0.1686014749711688,"3":-0.11731201978324642,"4":-0.8028214331709483,"5":-0.5767427032824911,"6":0.5660718443793293,"7":-0.11933335612836092,"8":0.2930149420965675,"9":-0.5058782515954914,"10":0.13880045899531887,"11":0.017501348291835903,"12":0.041125796540071945,"13":-0.5728103896869088,"14":-1.710524158404631,"15":-0.6557653633485967,"16":2.377852861520671,"17":-1.065022508066222,"18":1.5273641096474997,"19":0.8491506027267378,"20":-1.7331879384344573,"21":0.18863408375642554,"22":0.282405667379405,"23":-0.09086557217502075,"24":0.010275718861630043,"25":-0.10063104762585579,"26":0.037306787379148415,"27":-0.1823697350601154,"28":0.3665262479638505,"29":0.407416132720348,"30":0.28492662224898757,"31":0.18312396031588754}},{"sx":4,"sy":4,"depth":2,"w":{"0":0.2536232492123168,"1":0.7271476929621637,"2":-0.4171753383166048,"3":2.861104077696908,"4":0.061307667997712964,"5":-0.10984198096874745,"6":-0.05490544041653733,"7":-0.11677562593337522,"8":-0.41488876495107413,"9":-0.31805071284230935,"10":-0.11001749679092618,"11":-0.08575204375513758,"12":-0.13935092616078715,"13":2.7415911712495995,"14":0.02852485244753303,"15":0.47707332761586446,"16":-2.2184824104887753,"17":-0.08549800852437806,"18":0.12058302976660787,"19":-0.039372258243245285,"20":0.23988761778585968,"21":-0.007515327389705556,"22":0.17299298217640469,"23":-0.7210617910307536,"24":1.2834227931499906,"25":-0.16696817026884397,"26":-2.5015460556407554,"27":0.2955428772596802,"28":0.3176868035083927,"29":0.37846507274118835,"30":0.24853435291727916,"31":-0.13761625534985816}},{"sx":4,"sy":4,"depth":2,"w":{"0":-0.2543861700673951,"1":-0.2683832795849935,"2":0.14821285970649473,"3":-0.7728069960349053,"4":-0.2401739720484442,"5":-0.2285598122254658,"6":-0.5409721612723943,"7":0.12561533640873768,"8":-0.2839958068168045,"9":-0.058723331300441196,"10":0.08588252726492435,"11":-0.18732589481460413,"12":-0.1482578691133923,"13":-0.3137701327723342,"14":0.5728439161402062,"15":0.42693986639186293,"16":0.3784518095916866,"17":-0.07629746743576374,"18":-0.1799036844033098,"19":0.4056939433620147,"20":0.2502014039286109,"21":-0.3533856660148817,"22":0.2184223383720091,"23":0.061497960157284516,"24":-0.24053110998379265,"25":-0.6942574989574847,"26":-0.1997493515641086,"27":-0.15487159526337535,"28":-0.3471991670238558,"29":0.011117968739890995,"30":0.03806142760892606,"31":0.4256273765675984}},{"sx":4,"sy":4,"depth":2,"w":{"0":1.0014454418895073,"1":0.3979488023784177,"2":-0.0912967712827242,"3":-0.44108196306202135,"4":-0.3625694431760705,"5":-0.6530433766418106,"6":-0.4357437388003005,"7":-0.5585384057251113,"8":-0.967249954916762,"9":-0.07899969626339429,"10":-1.1910429702302254,"11":-0.68974137534123,"12":-0.1623752332179926,"13":0.014984581706318823,"14":-0.7522300224167924,"15":-1.0438338062769916,"16":-0.10078078131236634,"17":-1.9139096534031281,"18":1.7919333497813112,"19":1.9310047097244494,"20":1.8575321005299865,"21":-1.8228717864823933,"22":0.08607762250276411,"23":-0.10262452859481205,"24":-1.4287146640312127,"25":-0.09674098123536433,"26":-0.09431954098854885,"27":-0.8038176447760451,"28":0.4299355283606066,"29":0.18879206597173828,"30":0.6193598540813849,"31":-0.927886858479392}},{"sx":4,"sy":4,"depth":2,"w":{"0":-0.7631343071454383,"1":0.07212140076143578,"2":-0.4424043175200581,"3":-0.767005880466327,"4":-0.18366671447366284,"5":-0.7465412538233754,"6":-0.8147729999340895,"7":-0.6353967578029672,"8":2.6713466330256743,"9":-1.2625364298853816,"10":-0.7365856759883609,"11":0.16163336717148377,"12":1.4335319559311686,"13":-0.5979569158699428,"14":-0.2851516887871755,"15":-0.31113670301128826,"16":-0.6391304545228292,"17":-0.012543671752131792,"18":-0.08666055620787336,"19":-0.07053039601713618,"20":0.16270317443937382,"21":0.4990330876186933,"22":-0.7357178208089716,"23":-0.4659359489271597,"24":-0.45789198127583225,"25":1.3305720099758163,"26":0.014849143579918858,"27":0.050846472187784646,"28":0.5555739325639137,"29":-0.7824694161146215,"30":0.8266128717340403,"31":-0.24728744465463037}},{"sx":4,"sy":4,"depth":2,"w":{"0":-0.27350804219749114,"1":0.4442472755754837,"2":-0.39391218939750944,"3":0.3651701151637496,"4":0.12929081306885612,"5":-1.2250901258672393,"6":0.4136503110036955,"7":0.5981815391250644,"8":-1.9709753186358119,"9":0.5437573907562037,"10":-0.33284664856054524,"11":0.8906693521212469,"12":0.2557123317756089,"13":0.4565582066351608,"14":1.1950659858079498,"15":-1.0972926741720972,"16":-0.37726176676966355,"17":0.46148500730637415,"18":-0.2667944890476588,"19":-0.5167155636298354,"20":-0.5699886521141698,"21":0.18308725219738475,"22":0.0038187347169298586,"23":0.890480557779352,"24":-0.4203922093620736,"25":0.7938311526886376,"26":-0.3724702263791231,"27":-0.07811888419269787,"28":2.7089062086428597,"29":-0.9075016633430721,"30":0.30628943129084657,"31":0.14388252142858593}},{"sx":4,"sy":4,"depth":2,"w":{"0":-0.2908842774945808,"1":0.20273535052750744,"2":0.05596199007987151,"3":0.24111655254167558,"4":1.3951016953624362,"5":0.28913191152277695,"6":0.13168995750528367,"7":0.7119385613358338,"8":0.5796203043589205,"9":-0.23163285401725056,"10":0.0435931592980409,"11":-0.11797492352826923,"12":0.04227411413349406,"13":-0.5418189889564313,"14":-0.09957832629944448,"15":-0.6070735691405007,"16":-0.029255395277355208,"17":0.32578641348305115,"18":0.19006644832551584,"19":-0.378881897029859,"20":-0.3815138920822865,"21":0.3451832375582541,"22":-1.2309111104202886,"23":-0.6543082731363034,"24":1.9529260758310616,"25":1.241415059652851,"26":-1.7780201428867006,"27":-0.48404801130175695,"28":-0.18559345317850123,"29":-0.20864691110076444,"30":-0.3922505164364499,"31":0.3029978602362788}},{"sx":4,"sy":4,"depth":2,"w":{"0":1.3176949283265906,"1":1.4952759993440692,"2":-0.6150645949992053,"3":0.45325841890303586,"4":0.24784999734200067,"5":1.5198090622297813,"6":-1.6927605063587308,"7":1.2193229683510296,"8":0.8088753009513551,"9":-1.4940171859870597,"10":0.24849995213197082,"11":-0.04980598835031959,"12":0.02546923080700459,"13":0.9512130236983277,"14":0.82819892157284,"15":1.5826268586903507,"16":-0.2791104992832262,"17":-0.12582816073370204,"18":-0.512592606915281,"19":0.2135522093518969,"20":-0.22890780577741873,"21":0.31769652358663897,"22":0.7049924319472249,"23":-0.24007877585321744,"24":0.1431066336986956,"25":0.12343416107120504,"26":-0.038674204831047554,"27":-0.008462681964782707,"28":-1.9653087024837894,"29":-1.383237623610867,"30":0.16647093583924955,"31":0.11089807522517577}}],"biases":{"sx":1,"sy":1,"depth":64,"w":{"0":-2.9904565284797395,"1":-3.9217936872012213,"2":1.615405340527395,"3":-3.211985071423248,"4":0.7040383223297306,"5":-0.5748213342877251,"6":-2.26367710938934,"7":-1.4463982723017481,"8":-0.9706320762987558,"9":-1.1184742014910487,"10":-1.1097944557060853,"11":-2.7685448838008817,"12":-1.335828023535824,"13":-2.103247556277794,"14":-2.0753445621719964,"15":-1.379921438977376,"16":-0.15996274149886647,"17":0.3237719113594447,"18":-1.1351304314075157,"19":-0.7175942617543905,"20":-2.6720400851899195,"21":-1.196157811496041,"22":-1.4293174134803257,"23":-2.9003995710085544,"24":-2.2565117027648176,"25":-2.149789095400631,"26":1.4357949860673564,"27":-3.5301237768340017,"28":-1.2192058021500916,"29":-2.2685151197029985,"30":-4.265159147733481,"31":-0.8655716781485033,"32":1.5530774154061968,"33":-1.596092311965325,"34":0.9852435226137908,"35":-2.9457783526519776,"36":-1.9810801202722457,"37":-1.0087218160807951,"38":-1.4508993707268794,"39":-2.041360175571091,"40":-3.892200506629844,"41":-0.34649870717055226,"42":-2.0432272150960213,"43":-4.180642177277587,"44":-4.062023407187101,"45":-2.8878505353897927,"46":-3.8632025658732982,"47":-2.5872162054343786,"48":-3.006756975960411,"49":-2.145938946274425,"50":-1.2076955411079606,"51":-0.6244679592982031,"52":-2.1205360833501112,"53":-0.8855741449581755,"54":0.349217610023407,"55":-6.213255830073655,"56":-2.7594667205714614,"57":-2.668318350535883,"58":-0.6654752959755789,"59":-1.882793977918842,"60":-0.48935841856772166,"61":-1.911838728471894,"62":-1.6163974158852101,"63":-2.8406622141777405}}},{"out_depth":64,"out_sx":4,"out_sy":3,"layer_type":"relu"},{"out_depth":50,"out_sx":1,"out_sy":1,"layer_type":"fc","num_inputs":768,"l1_decay_mul":0,"l2_decay_mul":1,"filters":[{"sx":1,"sy":1,"depth":768,"w":{"0":0.138097110409272,"1":0.21502115032287508,"2":-0.4186276920530956,"3":-0.021150875038948972,"4":0.409346813468003,"5":-0.06760879027711317,"6":0.5176835194048213,"7":0.190125876421472,"8":-0.1214195664788075,"9":0.05813391230503291,"10":-0.2322485876614117,"11":-0.10585511327992705,"12":-0.2158312965559522,"13":-0.08346240152317087,"14":-0.6012893347461358,"15":-0.4745032664753082,"16":-0.09301210783514842,"17":-0.9425885841716144,"18":-0.8711846531161214,"19":-0.06747655862431676,"20":-0.21918476724438737,"21":0.04044998405015169,"22":-0.021757864985096905,"23":0.2663308829633355,"24":-0.12815640751963087,"25":-0.5365742474875376,"26":-0.5450443610455712,"27":-0.13385451522652786,"28":-0.07176556874983446,"29":-0.5272344480277149,"30":-0.0718443164596262,"31":-0.06237038203788634,"32":-0.5214979457636433,"33":0.09385606630577395,"34":0.22993875625261817,"35":-0.0900591590843752,"36":-0.11854223590096886,"37":-0.8430841664899749,"38":-0.46631680453143676,"39":-0.029814213543362507,"40":-0.020643667952266312,"41":-0.23693273471349008,"42":-0.009043117979294732,"43":-0.0423147684752012,"44":-0.2648774919996683,"45":-0.15070254117478418,"46":0.07999015797651546,"47":-0.08961713953813105,"48":-0.025206390926092444,"49":0.12352638019488513,"50":0.02346890752994079,"51":-0.15847298036226218,"52":-0.2678388884793883,"53":0.03420147908781823,"54":-0.20307940442319958,"55":-0.19132611082808082,"56":-0.052665791770694005,"57":-0.41792237526512893,"58":-0.025408530586930936,"59":-0.1481855055625209,"60":-0.41458406684381266,"61":0.06294895029548446,"62":1.4165633826107753,"63":0.06918060929608084,"64":-0.10660019613517217,"65":-0.30685582008781986,"66":0.4872502558435445,"67":-0.10745513099394084,"68":-0.0672676241311663,"69":-0.03225439246045336,"70":-0.0767616791859896,"71":-0.11908522812341209,"72":-0.14828326537598038,"73":-0.09341206099648237,"74":-0.18290673873935465,"75":-0.3458873439478567,"76":-0.0011707444836163187,"77":-0.03221453681891755,"78":-0.10259375880985049,"79":0.2148708558235569,"80":-0.051393011544835644,"81":-0.3985073957089654,"82":0.0444959757992802,"83":-0.34932949026641646,"84":0.06820746931066228,"85":0.019442105940395346,"86":-0.014716523720055516,"87":-0.08668015955507768,"88":-0.5136202382234689,"89":-0.41547989811373615,"90":-0.36440951730661686,"91":0.24742497842806088,"92":-0.20666680175554453,"93":-0.17081459097995447,"94":-0.1052630043415757,"95":-0.1132907949784098,"96":0.19693793156251557,"97":-0.026273249961571665,"98":0.128582483654036,"99":-0.095939977201799,"100":-0.1305695165093217,"101":0.007129572006890916,"102":-0.8843687690749381,"103":-0.22111111279230883,"104":-0.23213779625721123,"105":0.3017420911992268,"106":-0.16965160034143173,"107":-0.21862098254135803,"108":0.0591610493710011,"109":-0.05073051805077128,"110":-0.18311705708679607,"111":-0.1872531321169458,"112":-0.05389020634123303,"113":0.09706413631479467,"114":0.001492946845876993,"115":0.03872282045040005,"116":-0.3681454224744581,"117":0.005826034802429077,"118":0.12107812798383998,"119":-0.2176817330990872,"120":0.07353521825303802,"121":-0.05412274490712869,"122":0.024159786022798672,"123":-0.17491551737342662,"124":-0.2339721856927597,"125":-0.10959949009393602,"126":-0.03939173336242851,"127":-0.16347800718118188,"128":0.24053680455471363,"129":0.0008706555694125756,"130":-0.40447293145386015,"131":-0.507041164194419,"132":-0.022948246489136043,"133":-0.03448063476141021,"134":-0.010847251540352564,"135":-0.0789977798245873,"136":-0.1756832315103375,"137":-0.01668308096270071,"138":0.052821385273155115,"139":0.026005980199508838,"140":-0.17532466670137686,"141":-0.10090861025029266,"142":-0.07701933553545143,"143":-0.007384492454368492,"144":0.03066561548825863,"145":-0.17692095328028523,"146":0.024294976650236427,"147":-0.09848761045375086,"148":0.8564277804774364,"149":-0.09025394574736734,"150":0.05647101097318392,"151":0.06756904054165419,"152":-0.2016868602699223,"153":0.25681176317917825,"154":0.0191198579008443,"155":-0.13733063279965962,"156":0.380081474528869,"157":-0.07194904997792094,"158":-0.05019564249094105,"159":-0.1547903117771469,"160":-0.31287646142107756,"161":0.07115818318059823,"162":0.6248580560753935,"163":-0.5204514969957774,"164":-0.18900521694182595,"165":0.1884952616112979,"166":-0.05282409790440174,"167":-0.18899919057639217,"168":-0.04380136468842832,"169":-0.05903564961065248,"170":-0.13444935043505604,"171":-0.2711078981625199,"172":-0.22302306574039105,"173":-0.5124457619439218,"174":-0.2085017935704706,"175":-0.20780602807085735,"176":-0.21698067162744264,"177":-0.518436388733872,"178":-0.040866705020909874,"179":-0.12383481439851585,"180":0.004429902501599902,"181":-0.11219148629860232,"182":-0.3353549995460366,"183":-0.059880811562126816,"184":-0.0640303119967802,"185":-0.050964812876119515,"186":-0.010967569421516329,"187":-0.13203122337899426,"188":0.12123915989831469,"189":-0.287773982962235,"190":-0.06632139955292855,"191":-0.1685096983036306,"192":0.03870213758935065,"193":-0.10385390136408908,"194":-0.29350254044194274,"195":0.06614167739117278,"196":0.10068418752054217,"197":0.038371939973669895,"198":-0.04859340064794393,"199":-0.037789839301190974,"200":-0.1263737824213149,"201":-0.03217006780830316,"202":-0.1367318493368177,"203":-0.3195148509968747,"204":-0.36533306498149337,"205":-0.024757232790145176,"206":0.01867998145025232,"207":0.023454344831564417,"208":0.18748620454802514,"209":-0.004395003769352055,"210":0.016837729620483757,"211":-0.17915414996986684,"212":-0.03941826459114594,"213":0.09288511422526559,"214":0.11387509602369154,"215":-0.11816908281184216,"216":-0.021965280336491325,"217":-0.31062057234123297,"218":0.31415368681545963,"219":-0.18694834767348853,"220":-0.0382985826897809,"221":-0.019780691837411598,"222":-0.020316372379015738,"223":0.09276143347508566,"224":-0.23300804604807876,"225":-0.03308666802414752,"226":-0.3854156340745885,"227":-0.03639476228573119,"228":0.03451198451985309,"229":0.004775613996422034,"230":0.06271950607640532,"231":-0.042292649682222384,"232":-0.21156270547170822,"233":-0.08130162475251673,"234":-0.08788980011610338,"235":-0.02415196385913586,"236":-0.30029263606187223,"237":-0.057977790349174524,"238":0.022635378938566573,"239":0.3320592110838954,"240":-0.10347938527343707,"241":0.05846287155314345,"242":-0.018537107975430622,"243":-0.028519999930208186,"244":0.006375320290708479,"245":-0.011811940533414096,"246":0.04207427698897884,"247":0.0460155813600299,"248":-0.14720084441339495,"249":0.059379215009151796,"250":-0.020293819498597997,"251":0.1430783887992237,"252":0.3279485730186914,"253":-0.08030597273775107,"254":-0.0844267250712929,"255":-0.019920023332230925,"256":0.09404372991989927,"257":-0.13233168411432875,"258":-0.33779272020351314,"259":-0.04454862808349304,"260":-0.14248650918324623,"261":-0.03004078846553537,"262":-0.03351381706397403,"263":0.6221506377728547,"264":-0.05312874175703531,"265":0.014320819044332059,"266":-0.0628820486309729,"267":-0.07117714287987933,"268":0.1944999994117129,"269":-0.15324253654218015,"270":-0.11617607204856434,"271":-0.05202197641881388,"272":0.012164138042243155,"273":-0.08664990093707431,"274":0.006723912556058431,"275":-0.13116192127575407,"276":0.058240820124716236,"277":0.06784856894024809,"278":-0.1982110121378497,"279":-0.03259028285014988,"280":0.06673347796451173,"281":-0.26958397165615333,"282":-0.4324521043200206,"283":-0.20815722496057185,"284":-0.27521047709021296,"285":0.21010598277009035,"286":-0.5864237107321666,"287":-0.00781625083831357,"288":-0.5280095657108995,"289":0.2718996791866369,"290":-0.5200713932330536,"291":-0.13470605745288441,"292":-0.10017093565382972,"293":0.2605983248290293,"294":0.12602480993428306,"295":-0.19423643035197927,"296":-0.21676981740666812,"297":0.04243972249079961,"298":-0.5994206686912873,"299":-0.19622114500783555,"300":-0.3880275808616261,"301":-0.5917371354917677,"302":-0.18590811688435452,"303":-0.10002627197902167,"304":-0.12214943663721906,"305":-0.041378867912371955,"306":-0.01363777827936135,"307":-0.028405450488674593,"308":-0.0024599033464246123,"309":-0.012276137735127321,"310":-0.40214006754906945,"311":-0.1257489508439567,"312":-0.06006389431398885,"313":0.10306756016909462,"314":0.05926838836839833,"315":0.2031798677721026,"316":0.032016853080287934,"317":-0.32150747209414693,"318":0.017408719751864206,"319":0.06868532513262357,"320":-0.22803043517261906,"321":0.04426833560566254,"322":-0.13997693268055922,"323":-0.04575541828960877,"324":-0.09897950650130015,"325":0.04276913857399147,"326":-0.006933629631751962,"327":-0.038565927245586135,"328":0.07588442068234001,"329":-0.22187394082747344,"330":-0.114705717883178,"331":-0.37909761223133753,"332":-0.22889682881445472,"333":0.02535016172354246,"334":-0.1517014901779899,"335":-0.013567322609662601,"336":-0.031055083452150047,"337":0.04408596357563217,"338":-0.18980700690447122,"339":-0.2784987961161999,"340":-0.006671953243879166,"341":0.10576380639834256,"342":0.0037532971598272895,"343":0.04032671452174397,"344":-0.037274364934817054,"345":0.005912987287715142,"346":0.5387186778245168,"347":-0.023852674261562713,"348":-0.45529968006814014,"349":-0.15602628662110288,"350":-0.3812105284241442,"351":-0.083532466529111,"352":0.5513307826628301,"353":-0.09289150492275444,"354":-0.2994209565585171,"355":0.05779744860180802,"356":0.10136680588409339,"357":-0.5159564111835266,"358":-0.030408913859330988,"359":-0.0470373123537599,"360":-0.02061028587980882,"361":-0.024674994987960816,"362":-0.055112820160179585,"363":-0.10458800035628868,"364":-0.2527265349242486,"365":-0.07536805802811569,"366":-0.006626311815888355,"367":-0.16720838329240548,"368":0.3713239004011032,"369":-0.15484922602389775,"370":0.10369339823527451,"371":0.22246080930402568,"372":-0.11551858014133014,"373":-0.16911632549292646,"374":-0.08797786871954483,"375":-0.3931783273085579,"376":-0.23508560274867174,"377":-0.19659207767573564,"378":-0.0644661460150168,"379":-0.032764991901711185,"380":-0.04097020426223709,"381":-0.038303679421578585,"382":0.0194568750758642,"383":-0.24279490003611354,"384":0.023073739991770485,"385":-0.7586858714541145,"386":-0.6240163296525877,"387":-0.2943774008544486,"388":-0.0840333556749425,"389":-0.07241647900460679,"390":-0.04498675424376857,"391":-0.008156464447811304,"392":0.3472951467562884,"393":-0.19074764051229412,"394":-0.08525143728371079,"395":-0.01907945506868707,"396":-0.03490778347946399,"397":-0.2560919422146216,"398":-0.482437047480064,"399":0.014589097540720406,"400":0.48946237292670114,"401":-0.11872944498109478,"402":-0.06494169649608098,"403":0.1406929681180502,"404":-0.28704105505315325,"405":-0.1004433584385338,"406":-0.08981375104803048,"407":-0.190778543974078,"408":1.098531544328323,"409":-0.021739535482321805,"410":-0.21364724945551103,"411":0.03433089285548162,"412":0.10497876859841442,"413":-0.11890491994038137,"414":-0.9446742828403012,"415":-0.23833650956531938,"416":0.20976498903830754,"417":0.01527294005129832,"418":-0.30649482256242955,"419":-0.13248768496913343,"420":-0.5902429216898599,"421":-0.1553935511103356,"422":-0.13323985380300973,"423":-0.26918053508341533,"424":-0.2667343040790566,"425":0.08749304791904332,"426":0.18273597692687085,"427":-0.3029258501644867,"428":-0.09503472675357322,"429":-0.09382794177723972,"430":-0.12858121769542843,"431":-0.10523612505113873,"432":-0.20160427782631285,"433":-0.25064454067664427,"434":-0.15092537063102027,"435":-0.5105841219408093,"436":-0.1379132117709379,"437":-0.2281955761489753,"438":-0.22175862663714174,"439":-0.14428442175187564,"440":-0.008116150263523513,"441":-0.2175556890463657,"442":-0.014959446526805876,"443":0.04853797004596736,"444":-0.17931723588470294,"445":-0.2470522324781476,"446":-0.22679532273177322,"447":-0.47672086996095775,"448":-0.04274836532208875,"449":-0.14797230278330115,"450":-0.024026547994512325,"451":0.16264369294764744,"452":-0.27921253276328223,"453":-0.002846781807060097,"454":-0.13264501074775328,"455":0.03769637372740604,"456":-0.24824393230446573,"457":-0.024940803606404372,"458":-0.09210892588441551,"459":-0.06746360251579489,"460":-0.03501218585930099,"461":-0.20358236173486272,"462":-0.2607818393778102,"463":-0.08409279631400157,"464":-0.12257868734620678,"465":-0.13774219405378627,"466":0.26347708428679295,"467":-0.2959092800661781,"468":-0.06341183500557691,"469":-0.1556002452807547,"470":0.04210578360433952,"471":-0.1343807130205709,"472":-0.09999328748297265,"473":-0.04818618939403911,"474":-0.23188418168461683,"475":-0.05746567352745015,"476":-0.013277942493193322,"477":-0.05041212299206868,"478":-0.06300079680311022,"479":-0.018747212304304237,"480":-0.9183144881506773,"481":0.14901945206811504,"482":-0.1946122999953415,"483":-0.024663378132644652,"484":-0.140242792456519,"485":0.8166041808407349,"486":-0.03191920022191519,"487":-0.11045888779240183,"488":-0.13607497494479495,"489":-0.6084971464409294,"490":0.8186010437467249,"491":0.04388343595161733,"492":0.0678163932061938,"493":-0.07819137655336211,"494":0.09500473261566524,"495":-0.06598372003458883,"496":0.0266012772282875,"497":-0.35705550474067865,"498":-0.02119152625807278,"499":0.05374159739719758,"500":-0.008115613141515477,"501":-0.08698991484265749,"502":0.07419817040479337,"503":-0.0067631137249574026,"504":0.00645796602482685,"505":0.2894553571121458,"506":-0.007284070440214399,"507":-0.054885180378607325,"508":0.12157149059611433,"509":0.03453493089376584,"510":-0.06373351744146022,"511":0.044215811531725026,"512":0.01691769871462439,"513":-0.4451380830059019,"514":-0.7397398450004392,"515":-0.36346216127244363,"516":-0.3395435906796298,"517":-0.05459586692277102,"518":-0.1606445311539801,"519":-0.04399445939664252,"520":0.19488280876023722,"521":0.1732638274143158,"522":-0.10422317152990739,"523":-0.3356445837658062,"524":0.0981808690240006,"525":0.02654079446666613,"526":0.6983315865590448,"527":0.03224028870769545,"528":-0.01771905541994285,"529":-0.03612015706128288,"530":-0.09801581106339438,"531":-0.2476356606906104,"532":-0.0641094091283643,"533":-0.07163705368344915,"534":0.5321468116211296,"535":-0.1551266076248641,"536":0.4012185902260299,"537":-0.01966203648414874,"538":-0.3771290713931062,"539":-0.2352553797521852,"540":0.03219200343210739,"541":-0.08986904118710695,"542":0.042466064328881566,"543":-0.010321064607558918,"544":0.02903296132029273,"545":-0.07438151125124717,"546":-0.04807183065091565,"547":-0.10319800822995362,"548":-0.2902400472179575,"549":-0.17741087018860843,"550":0.18916092046625346,"551":-0.20581075105422503,"552":-0.11412128750446168,"553":0.3602538825841625,"554":-0.5817486889949132,"555":-0.25009863254246195,"556":-0.017529622750790255,"557":-0.14165146704332282,"558":0.3365273951905568,"559":-0.12047364618972946,"560":-0.353087854475348,"561":0.6054155805623999,"562":-0.4316007437236949,"563":-0.642783564580794,"564":-0.2190020477013432,"565":-0.08996355949452828,"566":-0.09005249637099529,"567":-0.5179024023022164,"568":-0.027964505855333683,"569":-0.34451125818547573,"570":-0.05741805031615771,"571":-0.03089156750945506,"572":0.325643033949067,"573":0.15774434158062814,"574":-0.14778819713961455,"575":0.26410820123685164,"576":0.0028450604285514343,"577":-0.1369187130046831,"578":-0.3353528441519306,"579":0.011549364951393254,"580":-0.31798802998253495,"581":-0.05344617594629665,"582":-0.005690853188668608,"583":-0.024087259416888412,"584":-0.21252567620924037,"585":-0.07713966407310081,"586":-0.13488669047555857,"587":-0.2666730586007211,"588":-0.0989610135375998,"589":-0.38566169659423427,"590":0.12570742164349433,"591":-0.2523152220865048,"592":0.2444364838725401,"593":0.06531366911160558,"594":0.022207016829899912,"595":-0.21435873653760174,"596":-0.08477578476887239,"597":-0.09764638941660908,"598":-0.024021395843972632,"599":-0.03644377103052676,"600":-0.0658936997728828,"601":0.1397735539176717,"602":-0.747449429216885,"603":0.35756929646759367,"604":0.0445502266943827,"605":0.06533689297855881,"606":0.16207117074069446,"607":-0.0974797893954969,"608":0.2673925953774956,"609":-0.010935206790232013,"610":-0.12538959366346664,"611":-0.02513819251564032,"612":-0.33421792519200405,"613":0.00578393275006164,"614":0.14696177191612503,"615":-0.11458236991859527,"616":-0.009619773329140413,"617":0.018418146925635977,"618":-0.399045815753271,"619":-0.020436826621700887,"620":0.04641753906592897,"621":-0.14079632956422103,"622":-0.2876762153398154,"623":0.01593082175164124,"624":-0.023801419974995033,"625":-0.8007173246163625,"626":-0.21616596356451717,"627":-0.08755717367961759,"628":0.2065669140667059,"629":-0.15199991643934033,"630":0.21323257326705364,"631":-0.4752345669307638,"632":-0.1413196864872993,"633":0.19531370219822516,"634":0.0012547433539782352,"635":-0.1010564579165954,"636":-0.6282730850569347,"637":0.4251567230622625,"638":0.07617668672101488,"639":-0.06078454079325562,"640":-0.11313384109912836,"641":0.11914011707060645,"642":-0.05482562963445613,"643":-0.298054698329715,"644":-0.16958545221546248,"645":0.04940047334399754,"646":-0.028454624294768915,"647":0.00591047535091377,"648":-0.4827541522498267,"649":0.0734285140428334,"650":-0.09883599368384192,"651":0.07223560833510557,"652":-0.15817559618177954,"653":0.07490981425589302,"654":-0.06059246400356497,"655":0.3335373523343544,"656":-0.18794173497762828,"657":0.0755163870981713,"658":1.4796674159506908,"659":0.05631517654739385,"660":-0.2945958224661288,"661":0.039760197819931134,"662":-0.1620314111453634,"663":0.20573387302517324,"664":-0.20802397632719835,"665":0.4548148317344336,"666":-0.5373197777189448,"667":-0.12175081833360886,"668":-0.14839565496064114,"669":-0.11264094519498194,"670":-0.2074197595685221,"671":0.3928775538424267,"672":-0.3312584528326362,"673":0.1588729541780594,"674":-0.22497560569629138,"675":0.09789085698373637,"676":0.044250684721684135,"677":-0.14262715477445245,"678":-0.16536104886650488,"679":-0.15896903341401628,"680":-0.07330138613583422,"681":-0.2401763203406709,"682":-0.4443239940007647,"683":-0.18792163722678235,"684":-0.1709312409453268,"685":0.028975992310477542,"686":0.1741512238748118,"687":-0.0484169935471419,"688":0.09063174774468438,"689":0.07138007216640375,"690":-0.09091132580463744,"691":0.5253510947908103,"692":0.025357506581129657,"693":-0.04471050533803363,"694":0.20337159668372018,"695":0.10584704713761794,"696":-0.005073283263596869,"697":-0.24567688968860285,"698":-0.04998478932574723,"699":-0.016616527829549182,"700":-0.0867406366956511,"701":0.08656898349066731,"702":-0.24564390972114852,"703":0.1854974728556954,"704":-0.07915413034426971,"705":-0.8278795179463483,"706":-0.3741242816890085,"707":-0.005300051764763991,"708":-0.17132776667177954,"709":0.059818578151693606,"710":0.3309590454256944,"711":0.06612368504557259,"712":-0.038767320588191996,"713":-0.19068803018883965,"714":0.11264975276348745,"715":-0.1089611818760804,"716":0.002219378809100646,"717":0.012960994471941788,"718":0.010792409195226164,"719":-0.1306565932339528,"720":-0.10557687636539304,"721":0.10048034705566178,"722":-0.047567029339119916,"723":0.007212451524896539,"724":-0.022605897263535797,"725":-0.16610688565140608,"726":0.4045167691714564,"727":0.6705379254488381,"728":0.06303185867175287,"729":-0.3201897145284435,"730":-0.47960924527545207,"731":0.2925784543295101,"732":0.03995926288088479,"733":-0.08657046932807107,"734":0.05195288017167594,"735":-0.057349857559499035,"736":0.16609706227833612,"737":0.03155054077612542,"738":-0.5176456832527391,"739":0.04260639582039104,"740":-0.019761423744665343,"741":0.1673548373133868,"742":-0.16557732683536047,"743":-0.031068906600302894,"744":0.2619516353556362,"745":0.2826359589438587,"746":0.21457138155201566,"747":0.012443941382888419,"748":0.24616290396240684,"749":-0.14412548220609986,"750":-0.012616303261296287,"751":-0.09604164782374212,"752":-0.18833030180043875,"753":-0.1054094775216859,"754":0.044361480386730746,"755":0.07075769235557833,"756":0.2956774087898033,"757":-0.21328397699258267,"758":-0.027026605237676027,"759":0.0896679216332413,"760":0.027563813162641844,"761":-0.2148137671274658,"762":-0.02279117583260032,"763":-0.3932185898146796,"764":-0.053218070633665085,"765":-0.06533692612878496,"766":0.42022483402621774,"767":0.04088937948470767}},{"sx":1,"sy":1,"depth":768,"w":{"0":-0.23101849416807863,"1":-0.18214702565664637,"2":0.028610064365429407,"3":-0.19229488512836576,"4":0.3102291176071729,"5":-0.012124075977181235,"6":-0.11567228871242025,"7":0.04199235160000716,"8":0.1702354978926924,"9":-0.012186539056403567,"10":0.10427734021144255,"11":-0.007420017496067281,"12":-0.019970799233867426,"13":-0.057162360271814955,"14":0.025471961387991203,"15":-0.05474632719263004,"16":-0.22265340750012985,"17":0.08713408120267699,"18":0.20246156624037076,"19":0.05280611843028936,"20":0.06453880303107727,"21":-0.01625828158727681,"22":-0.07475117153173844,"23":-0.3184528051388783,"24":-0.12105615945645182,"25":0.05665724060672853,"26":-0.14439261267735382,"27":0.08462374301918345,"28":-0.07272254669518768,"29":-0.020431079124918403,"30":-0.13618468543769524,"31":-0.0368916128525551,"32":0.15247923196721586,"33":-0.001296883209034473,"34":-0.1941417674763857,"35":-0.10800352138976636,"36":0.000422257957077942,"37":0.43153912122200483,"38":0.02346813635378119,"39":0.010977568862874907,"40":0.0023764716664634836,"41":-0.17997168580661457,"42":0.06664057747571964,"43":0.09557237271416782,"44":-0.029412184682138066,"45":-0.06038276065196583,"46":0.01563690470949296,"47":-0.18261271813261473,"48":0.03624141978626822,"49":0.12670637140974095,"50":0.04700574963016935,"51":0.13248480066864826,"52":-0.055057603136488255,"53":0.02986498486637548,"54":0.3894150723023235,"55":-0.10692019785978772,"56":-0.10560630424379513,"57":0.1281191780564681,"58":-0.00827440154758156,"59":0.1015782800269673,"60":-0.11755471339738043,"61":0.0747385922087714,"62":-0.07077631750515592,"63":-0.028274855754962788,"64":-0.22598863348774775,"65":0.06405159155222315,"66":-0.04997505254845988,"67":0.11791051378403913,"68":0.08005195886377728,"69":-0.024380474289839284,"70":-0.2334398407870953,"71":0.0385512469763377,"72":-0.06560937625068981,"73":0.05418501530115182,"74":0.10983649596572223,"75":0.005104123805273596,"76":-0.0029248609282864985,"77":-0.07761706782522115,"78":-0.2753798570834349,"79":0.1021348606544615,"80":-0.13472357683311578,"81":-0.05701169866481398,"82":0.23818914211245826,"83":-0.07717770052370744,"84":-0.030240438785684054,"85":-0.042401441637369294,"86":0.03969391654440499,"87":-0.34313381932876913,"88":-0.08816545526914181,"89":0.2166953987738308,"90":-0.07552325989200155,"91":-0.030111677813088163,"92":0.1237938000282746,"93":-0.2927702726556949,"94":-0.21858923257258128,"95":0.07093078686512606,"96":0.02721725162423784,"97":-0.0590890839412755,"98":0.16949162895392633,"99":-0.17471915967077187,"100":-0.11861045395815874,"101":0.16624991218443594,"102":0.2634233711735994,"103":-0.09482368034778821,"104":0.08329657193192581,"105":-0.13068634004738175,"106":0.0010621977038241634,"107":-0.04948551298571842,"108":0.03236032398583376,"109":-0.3324709093268399,"110":-0.15086496051195641,"111":-0.1376129079274716,"112":-0.07893023384440127,"113":0.022541720931862432,"114":0.06254804156164827,"115":0.0012362290677440766,"116":0.18758993424165926,"117":0.18387983490513163,"118":0.13127692515623582,"119":0.006183580911531386,"120":0.005959366840207971,"121":0.0903473761421024,"122":-0.008761447470986488,"123":-0.19619840869218222,"124":-0.04241651099492349,"125":-0.10416331009545078,"126":-0.03701197926644333,"127":0.0431375752483291,"128":0.024859045313476366,"129":-0.036436720810121975,"130":-0.028744702551384137,"131":0.0170137957141638,"132":0.10701113924095865,"133":0.06348792557385012,"134":0.06738022910459696,"135":-0.01770045230315058,"136":0.062486383108563776,"137":0.07343344303186038,"138":-0.10078199756873418,"139":0.046157395768621635,"140":-0.0776355110056216,"141":-0.07684213777920997,"142":-0.05281644424836138,"143":0.016073307693123175,"144":0.04762760779394113,"145":-0.06595327339114328,"146":-0.02311200574610509,"147":-0.08066459840409447,"148":-0.08054661269550845,"149":0.0021014986337314473,"150":0.019078604804177106,"151":-0.05847789707186335,"152":0.00717818859772602,"153":-0.11376769504058376,"154":0.10944844648915433,"155":0.0472631039843615,"156":-0.15313038461030323,"157":0.08458150087738044,"158":-0.3031112347399563,"159":0.027174300683173547,"160":0.056714496260567154,"161":-0.03429654459473213,"162":0.16238906330919317,"163":-0.12211572306087412,"164":-0.08105659457066824,"165":0.1906812182786306,"166":0.022403893635178924,"167":-0.06734569289244842,"168":-0.39264931973496187,"169":0.1004844448271187,"170":0.19342109181632933,"171":-0.2716092144986394,"172":0.0199468453253131,"173":-0.1119451363679528,"174":-0.14343362096383006,"175":-0.046025257951084454,"176":0.27729133687464064,"177":0.1793710270421777,"178":0.0945005910633397,"179":0.0761114008981505,"180":-0.04794186504228518,"181":0.05502334425313981,"182":0.014509218188197889,"183":-0.2733011543595091,"184":0.08056464153037675,"185":0.07224497966322174,"186":-0.027490953626757783,"187":0.23161287390257942,"188":0.1415828534473886,"189":-0.07430832221549445,"190":-0.16020048680369528,"191":-0.1381576926091952,"192":-0.13875360153730307,"193":-0.1001957883223768,"194":0.15964688198462063,"195":-0.05642249736118592,"196":0.06314925324825799,"197":-0.034026020384560964,"198":-0.0041643265256260985,"199":-0.0643202598533134,"200":-0.04873567808788984,"201":0.03734501762106711,"202":-0.06910332734117715,"203":-0.1670834617169146,"204":0.15678733223123695,"205":0.013121174775541283,"206":-0.06409402275128293,"207":0.028598385928909127,"208":-0.2806828746783903,"209":0.09782123420402723,"210":0.015686182734499014,"211":0.07275577254999867,"212":0.002186486046761735,"213":-0.09113818473867558,"214":-0.000728586302401149,"215":0.01682551111598575,"216":-0.06385830941733377,"217":0.0036971122214725575,"218":-0.1321132899745177,"219":-0.10072814112164574,"220":-0.1883748012622847,"221":-0.12917028700970687,"222":0.031611703136142914,"223":0.05782920670327098,"224":0.023922814040087243,"225":-0.12097489943858249,"226":0.011241300939404512,"227":-0.1437333132329428,"228":0.1174397309998486,"229":-0.028017723359701135,"230":-0.04622148052627726,"231":-0.03316783855030994,"232":-0.26347882308469234,"233":0.18042938302432693,"234":0.06321213707376917,"235":0.0009270567112650317,"236":0.2939163579984355,"237":-0.366525580402115,"238":-0.002185917941332172,"239":-0.033013290220619294,"240":-0.05624845911790586,"241":0.33702190802951465,"242":-0.06841122005045834,"243":-0.05038229289225891,"244":0.01759021981895311,"245":-0.04951358720794425,"246":-0.10000828097892392,"247":-0.05171018143662598,"248":-0.15575814031290658,"249":-0.02642615692273441,"250":0.03249713099875451,"251":0.10406696268977533,"252":0.12735189175851416,"253":-0.002729732193800394,"254":-0.05408536307145746,"255":-0.03755923076084214,"256":-0.11545574994793616,"257":-0.21399679709703515,"258":0.12296543769639143,"259":0.07386290694118565,"260":0.07590250175364062,"261":-0.005420006840639789,"262":0.05586459236577352,"263":-0.014655972446718986,"264":-0.12101396058000945,"265":0.08589829734508109,"266":-0.15199398394869484,"267":-0.12636298620865055,"268":-0.003806348001381333,"269":0.01963952498130774,"270":-0.08302402267990494,"271":-0.02441306339155861,"272":0.18712660237766618,"273":0.10717603513934627,"274":0.23455336422232254,"275":0.23872296635426968,"276":-0.13689822164633036,"277":-0.2506086526564539,"278":0.08371698936209418,"279":0.07832405226588161,"280":-0.04142984023856301,"281":-0.041654150225533176,"282":-0.0455067219369696,"283":0.09910181298055232,"284":0.264051731156066,"285":-0.14181724674817672,"286":-0.035004970107024524,"287":0.0302758405281919,"288":0.07999550516087485,"289":-0.20820386391422338,"290":0.11888061468720909,"291":-0.18134069699401403,"292":0.0822493236220234,"293":-0.18154263467769494,"294":0.10244959137352404,"295":-0.12216267015866435,"296":-0.2997349234807093,"297":-0.22358770726989116,"298":0.06553605016018961,"299":-0.28333126888295085,"300":0.32169802967216476,"301":-0.07260913808114623,"302":-0.12122069865316391,"303":-0.07669374748265217,"304":0.1542512105860384,"305":0.15641206367415728,"306":0.09091147943431357,"307":0.27561911793941923,"308":0.06915868267039385,"309":0.08327804395909585,"310":-0.3665926199592164,"311":-0.2326651688139587,"312":0.1447363327567602,"313":-0.04600571532632622,"314":0.03490661535866534,"315":0.20178748342410893,"316":0.08802759005649699,"317":-0.04096144615984742,"318":0.022740538663803832,"319":-0.2575561173694576,"320":-0.2458126991591573,"321":-0.07819954574071693,"322":0.014540810833849338,"323":-0.09491464328062442,"324":0.3036493106655229,"325":-0.04315555039303834,"326":0.010280154243062244,"327":-0.11695694835784243,"328":-0.13187801314870415,"329":-0.04774295123680941,"330":-0.40983228089865237,"331":-0.02532817246252273,"332":0.014095144463031284,"333":-0.055319693351804665,"334":-0.05336192232670009,"335":0.018987611548401947,"336":0.07090618760207656,"337":0.16700714296050648,"338":-0.1517051519937158,"339":0.15822176092619805,"340":0.14043379324350705,"341":-0.11686086446529441,"342":0.044318498045814,"343":-0.08148763180237319,"344":0.17821354691248129,"345":-0.06286145363672825,"346":-0.20978395310096246,"347":-0.10316377676382893,"348":0.2065597680681876,"349":0.11987104491082153,"350":-0.14993943066143464,"351":0.13767077941746,"352":-0.05302116645695433,"353":0.01336400486773639,"354":0.014999164321272317,"355":-0.23608351339903755,"356":0.15222302664057047,"357":0.0981685446450884,"358":-0.018151414874206483,"359":-0.09379163031200542,"360":-0.1461051676472544,"361":0.0019824994061109578,"362":0.1309589513089823,"363":-0.22087056347483747,"364":-0.11463886924274048,"365":-0.09210613362297078,"366":-0.21153042909530095,"367":0.08333178586028389,"368":0.15555404925201544,"369":-0.08420169237076569,"370":-0.09197466072662792,"371":0.16207708663297093,"372":-0.08653303621055175,"373":0.05262595837752594,"374":-0.11883967845752016,"375":-0.12328976824459617,"376":-0.23041160727232374,"377":-0.1455690177989819,"378":0.09290503248321705,"379":-0.06979691392126243,"380":-0.0792656155283954,"381":-0.052409172096830055,"382":0.010547426222780956,"383":-0.20327080839739575,"384":0.16691352903963563,"385":-0.16532470934033555,"386":0.024175733783033344,"387":0.0790146341248614,"388":0.03202759013370409,"389":-0.004425626159172614,"390":0.005583963771757509,"391":-0.13930435561966475,"392":0.13085764801948344,"393":-0.14914581677758776,"394":-0.2002086242579338,"395":-0.039288624991357206,"396":0.2614972737591925,"397":0.02805829019819912,"398":-0.09091882521852178,"399":0.006177065053170058,"400":-0.013885104269875789,"401":0.08294653297450685,"402":-0.11183452586825643,"403":0.13482572959090258,"404":0.024220812535120255,"405":0.45552083041160235,"406":0.005263643290004459,"407":0.04790190791129918,"408":-0.02352090698685308,"409":0.03855406144688636,"410":0.13332769524780488,"411":-0.061672947267430375,"412":-0.0023596563707817806,"413":0.040039079964674165,"414":0.03664709981322766,"415":-0.15465710730755408,"416":0.08063076417847309,"417":-0.02566019184213651,"418":0.056778206912504355,"419":-0.13042839477881152,"420":-0.04317933856890849,"421":-0.15249445074975376,"422":-0.009031226779489147,"423":0.11795838927576947,"424":-0.05913711106460706,"425":0.07357900455662252,"426":0.11330552211421305,"427":-0.03583384662116229,"428":0.04485272886023713,"429":-0.17507512381353021,"430":-0.14317759745003486,"431":-0.04280969320514447,"432":-0.11236669283828883,"433":0.12599900524869345,"434":-0.08636236369859442,"435":0.09765859207424725,"436":0.05567411556309049,"437":-0.05059408832200248,"438":-0.05783440776651029,"439":-0.06826146949010886,"440":-0.05013427926902201,"441":-0.1587394536433342,"442":-0.0400995495880537,"443":-0.03284737768511815,"444":-0.10390851831128392,"445":-0.03931583148066817,"446":-0.010938404109229121,"447":0.05029030418875389,"448":-0.08487523659063093,"449":-0.09555090571782597,"450":0.05935239493913935,"451":-0.005622071868893531,"452":0.17599953657819298,"453":0.0097991062036386,"454":-0.048392757575040315,"455":0.03277070121878783,"456":0.2430486686474214,"457":-0.07128828118073632,"458":-0.07519994931046087,"459":-0.1366827604242281,"460":-0.07660274421304035,"461":-0.010917603703611585,"462":-0.1798377614622,"463":-0.05093741429476981,"464":-0.053008480504384496,"465":0.17729512241695275,"466":0.033042808513646084,"467":0.21357899935075697,"468":0.0307586992274183,"469":0.12832544837996884,"470":-0.029631012472854434,"471":0.06661871523854278,"472":-0.07141972369045364,"473":0.030699390342969302,"474":0.17694486757170189,"475":0.1849803789101666,"476":0.008166033339424129,"477":0.08245065242882955,"478":0.054653955635177054,"479":-0.045939850343466995,"480":-0.031198778712896974,"481":0.06699920969201813,"482":0.04643742734358212,"483":-0.031926803787696016,"484":-0.0681666005372034,"485":0.023842612509783645,"486":-0.07595003491173193,"487":0.08059048502580585,"488":-0.11575851206941468,"489":0.1949430820994831,"490":-0.1161378242581327,"491":0.04492139252054119,"492":-0.0687181419113566,"493":-0.008132684513069536,"494":0.02444963276506954,"495":0.011437256341457352,"496":-0.005566839887288352,"497":-0.05838782171110278,"498":-0.17132286624005702,"499":-0.026861876138542035,"500":-0.040023014212529406,"501":-0.09662969916398073,"502":0.1548350697337578,"503":-0.02989157007066311,"504":0.024786918543972438,"505":-0.41662730744674853,"506":-0.03271514503770159,"507":-0.03767932200729329,"508":0.18980669768941438,"509":-0.0632051819950612,"510":-0.018398843281273836,"511":-0.11111861221782164,"512":0.16784176716884835,"513":-0.06465910769655993,"514":0.0368117913265909,"515":0.04898351187381137,"516":-0.0019934045335895222,"517":0.0015139548241724047,"518":-0.09074573685008083,"519":-0.013460784564314281,"520":-0.06093128355100174,"521":-0.039433202648606766,"522":0.07912968334267612,"523":-0.02607135226929073,"524":0.008511622861329567,"525":-0.22422253826570726,"526":-0.042782067114915674,"527":0.009855421305145407,"528":0.015911069678316528,"529":0.12887335194764915,"530":-0.03616619517993898,"531":0.13883062947058222,"532":-0.12031161546992876,"533":-0.14868663100612656,"534":-0.1858231584517669,"535":0.15772449355986054,"536":0.23107464205072262,"537":0.016046764540162618,"538":0.23508718833012968,"539":0.11609251853942415,"540":-0.06034351559363007,"541":0.03341573929450313,"542":0.02010944420253026,"543":0.34234833144980753,"544":0.06246463426931937,"545":0.10547598371494295,"546":-0.26240771050138867,"547":-0.012081057629710852,"548":-0.21111859594556592,"549":0.21511252992756413,"550":-0.18377776345180136,"551":0.11287496403290177,"552":0.0463581303183556,"553":0.0732150293643572,"554":0.09790680374296909,"555":-0.12177790277035973,"556":0.08863983888723714,"557":-0.03035948781746346,"558":-0.20496399418490846,"559":0.08636202725540623,"560":-0.07735267571741788,"561":-0.3111728976117066,"562":-0.05701946923347569,"563":0.1966081494055003,"564":-0.15547521413624354,"565":0.07651452234124266,"566":-0.014297318488472106,"567":-0.36302875460809747,"568":-0.028750888344508365,"569":-0.14042435841560957,"570":0.038840224075980076,"571":-0.036569335124985926,"572":0.13454947340369577,"573":0.0619073761804954,"574":-0.16153049079378956,"575":-0.0009481828359122414,"576":-0.10842520505541428,"577":-0.08449421151962727,"578":0.029518705308025882,"579":0.1322544482720569,"580":0.12785214271183082,"581":0.043001102855708566,"582":-0.07227307540340325,"583":0.03026752383686173,"584":0.10838395186056927,"585":0.03582588806944687,"586":-0.1444846378794218,"587":0.15301850890196672,"588":0.056247956035824206,"589":-0.35321732071217643,"590":0.08507631930411373,"591":0.043205214633096775,"592":-0.05139173330157936,"593":-0.13802678467642673,"594":0.035185355573531495,"595":0.20503291400173468,"596":0.023469677650465287,"597":-0.5757137649100049,"598":-0.32157524337197524,"599":0.2956482868872368,"600":0.21934630460825377,"601":-0.00896667323722943,"602":0.3323237435657487,"603":0.12290209033617412,"604":-0.08726408394398145,"605":-0.008744656982090192,"606":0.03760880879847368,"607":0.06446296379727437,"608":0.3999696116759923,"609":0.24992656895610088,"610":-0.10528247546719187,"611":0.0005009094016190052,"612":-0.1529765524401564,"613":-0.05229160745130542,"614":0.03393747471816473,"615":-0.18072798920158792,"616":0.05703548247433478,"617":-0.18865541840977024,"618":-0.062325319311803566,"619":0.01912800166118584,"620":-0.027040716652247655,"621":-0.048182476841654796,"622":-0.14601025079265556,"623":-0.018566831605160653,"624":0.06900553711170357,"625":-0.16321403215159414,"626":-0.11525324281454598,"627":0.11049928147254959,"628":-0.03630079797696561,"629":0.010259915678676502,"630":0.09480230814471627,"631":-0.2711642204133904,"632":-0.01636941559446472,"633":-0.059476678034690846,"634":-0.002871419622381789,"635":-0.07419554290758103,"636":0.26246779643280366,"637":-0.22618995239729572,"638":0.05969185395452696,"639":0.13980236676633506,"640":-0.054817256721942854,"641":0.20618773165235119,"642":0.0021170411550201535,"643":0.0968673143266423,"644":0.0008450628940144615,"645":-0.018378681214522397,"646":-0.11603702274063821,"647":-0.04188552763976543,"648":0.0996030961802065,"649":0.06551269695929124,"650":0.09021233267175668,"651":-0.07580745927055708,"652":0.12359184673122885,"653":-0.11161885972486559,"654":-0.1084928643342492,"655":-0.14569940351156813,"656":0.12359418786402135,"657":0.0664370387137783,"658":-0.13471198237913068,"659":-0.023378304196574568,"660":-0.06837166202259316,"661":-0.37055812480197103,"662":-0.017612228416693663,"663":0.0940021218732639,"664":-0.08883417518575845,"665":-0.15378064030147937,"666":0.10237250926976636,"667":0.018819522096173706,"668":0.05076543555538759,"669":-0.0820729347743273,"670":0.005851944414775103,"671":-0.048145301282706804,"672":0.0041479829652396995,"673":-0.03121866521624702,"674":-0.05804687283888635,"675":-0.08779335692643216,"676":-0.0847181980950542,"677":0.07161361237404208,"678":-0.032061573858934385,"679":-0.006718988364891374,"680":-0.12771187494940098,"681":-0.1714926841731661,"682":-0.04417982612791896,"683":-0.14775250887208474,"684":-0.06193013603807982,"685":0.06408885592601214,"686":-0.08539361745131006,"687":0.16275493779359093,"688":-0.049660967828144234,"689":-0.20873734324162715,"690":0.09007636088427305,"691":0.1143419882752748,"692":-0.1392769276989548,"693":-0.16715822009568027,"694":0.13491132703112804,"695":-0.09437112895520611,"696":-0.004088006999039984,"697":-0.014237217781273731,"698":-0.0240522557653994,"699":-0.005972278719312802,"700":-0.14566506126954049,"701":-0.008677791217878317,"702":0.28319062553907975,"703":0.024373879296103372,"704":0.017612090305855796,"705":-0.1996189590275161,"706":0.060989960320982244,"707":-0.054865995022387225,"708":0.05561048987602924,"709":-0.03710722413395247,"710":-0.13715579132460426,"711":0.004535081518948355,"712":0.061903991086505,"713":0.09436168565565783,"714":0.008183007409588924,"715":-0.07420106918961906,"716":-0.02903666982511149,"717":-0.031263128216114475,"718":-0.07618091719995938,"719":-0.17387994929418718,"720":0.11773489546641412,"721":0.14944519496059402,"722":-0.1380136862154115,"723":-0.01872966632710207,"724":-0.11057861174995305,"725":-0.06621212589759053,"726":0.046268927600254584,"727":-0.050732164972081335,"728":0.0729029284453396,"729":-0.052709731305505304,"730":-0.15686528474941683,"731":-0.17334958831761002,"732":0.01384066965722296,"733":-0.46207415634587884,"734":0.061602437494586645,"735":0.005748058686442023,"736":-0.008885237552432056,"737":0.021143375088974077,"738":0.16999857562758972,"739":-0.0369116055293161,"740":0.02389552518652435,"741":0.12998016472985338,"742":0.04677251423076929,"743":0.012029491536269844,"744":-0.18810554798714882,"745":0.008702015519018997,"746":-0.1996413148821327,"747":-0.08162165650872884,"748":0.026904591090057692,"749":-0.15178027304626582,"750":-0.031997190535737886,"751":-0.03768723138831551,"752":0.12807298910133424,"753":0.022675229721289693,"754":0.003235639957474143,"755":-0.048599092605729866,"756":-0.4602998421801512,"757":-0.026724158284373443,"758":0.1488403917426798,"759":-0.0498586965935843,"760":-0.015283094820573835,"761":-0.15073400250654648,"762":0.03655517619615389,"763":0.0721426741129645,"764":0.07038147659206077,"765":0.05724040598284206,"766":-0.031070357980514062,"767":-0.14860905841002658}},{"sx":1,"sy":1,"depth":768,"w":{"0":0.07734954279902964,"1":-0.052969900316992904,"2":-0.15035044377957238,"3":0.30940426792923814,"4":0.10503571416019436,"5":-0.02613770495893815,"6":-0.3620390555304473,"7":0.547719298526766,"8":-0.1394104348576917,"9":-0.09247135327537251,"10":0.6009293572804383,"11":-0.09668258973439832,"12":-0.09788416750883439,"13":0.0696198013713549,"14":0.0007560148553239854,"15":-0.03642420734144045,"16":-0.033289007618271485,"17":-0.19241986525489163,"18":-0.7260675751853871,"19":-0.24165009623781206,"20":-0.36104698914042155,"21":0.027714955579335242,"22":0.2389076199076061,"23":-0.06781160232959148,"24":-0.2154443423119632,"25":0.5574880341777644,"26":0.0944858354801205,"27":-0.6521973100674108,"28":-0.2387308597352258,"29":0.01707381254277367,"30":0.3080024938030711,"31":0.1886477169284515,"32":0.158319384389644,"33":0.011619877234420116,"34":0.009764587617162068,"35":0.1579914127544829,"36":0.04472073633474092,"37":-0.5445860841865581,"38":-0.6464598874480977,"39":-0.026193034246397195,"40":0.18871439601666615,"41":-0.14662313665658464,"42":0.04294229813655515,"43":-0.06734494826647709,"44":0.5698406029296658,"45":-0.3270424867233194,"46":0.2163082333480772,"47":0.5008362391286157,"48":0.054073733396463056,"49":0.1005196210712678,"50":0.1723539760946163,"51":-0.04102161335092165,"52":1.1571823772998504,"53":-0.2554413745927555,"54":-0.5763122560397839,"55":0.07942638384501449,"56":0.11241061738647617,"57":-0.6198470834389158,"58":0.09526940060657507,"59":0.06855420848700287,"60":0.373251134164052,"61":0.13408921460250128,"62":-0.35943328121954765,"63":0.019492541845149036,"64":0.22434868427107346,"65":-0.8398809723644602,"66":0.012563103987363836,"67":-0.4248654066749939,"68":0.23023271913117374,"69":0.002883365639637539,"70":0.19177801600169347,"71":-0.043543348688194546,"72":-0.1436065004950488,"73":-0.09445842045039544,"74":-0.09607883512963435,"75":-0.02411642927756963,"76":-0.22399021123619342,"77":-0.042083810159076314,"78":-0.3710375801026437,"79":0.014929361946371242,"80":-0.09027905207729765,"81":0.25657645865671047,"82":-0.45773682288054435,"83":0.03487896849438428,"84":0.007454064931462699,"85":-0.02276734496366355,"86":-0.09120966634326384,"87":-0.019239044464946214,"88":-0.09278417734927479,"89":0.1512220872075638,"90":-0.07021597163223188,"91":-0.05307988537613666,"92":-0.11210980654758093,"93":-0.0868639887161239,"94":0.010160125030210677,"95":-0.1856767434382873,"96":0.2351697363923881,"97":0.032675687226763096,"98":0.04521448158517782,"99":-0.0867138318928786,"100":0.051253019491548375,"101":0.18676869262458914,"102":-0.4620794428086346,"103":-0.062287289853558324,"104":-0.3532346317402948,"105":0.043729203147119956,"106":-0.24905502314235067,"107":0.04743814603065389,"108":-0.1539388864109777,"109":0.48552136027437176,"110":-0.045037380694358045,"111":-0.05427039603077421,"112":0.34881154759182,"113":0.08915240157364408,"114":-0.07658243114134895,"115":-0.07920441183433857,"116":-0.23604929949104275,"117":-0.15696573306506567,"118":-0.5598691523604068,"119":-0.14201706771783543,"120":-0.2088125374572077,"121":0.07486470870774467,"122":0.05379193034292091,"123":0.7436195755796249,"124":0.01020240595401958,"125":-0.05311514771064415,"126":-0.11354721453144312,"127":-0.05504481640134291,"128":0.5744109026436544,"129":-0.17022232365353263,"130":-0.11485749905469182,"131":0.1229484292024657,"132":-0.1597425660302018,"133":-0.048147784145347455,"134":0.22699696574434589,"135":0.2107284111405251,"136":-0.0680467982746103,"137":0.10230163270060272,"138":-0.04696887290094719,"139":0.23410616610578017,"140":-0.5415203984166905,"141":-0.23853071891374625,"142":0.08429158831380144,"143":-0.024553004178166096,"144":-0.38496382918100464,"145":-0.2647464830754981,"146":-0.026550364910568617,"147":-0.4816950967115525,"148":0.0841667275941277,"149":0.20587472986422697,"150":-0.031400000907584866,"151":-0.24831769802396864,"152":-0.27473008990458225,"153":-0.14360535530497523,"154":-0.0607309783189547,"155":0.15663127844845331,"156":0.12539300092890823,"157":0.01133476445031587,"158":-0.1268725973506697,"159":-0.21131007785360864,"160":-0.39035735694741247,"161":-0.12261511091364623,"162":-0.3969634593000395,"163":0.8602880841743019,"164":-0.6301511947025025,"165":0.10494523049674082,"166":0.059016735609370125,"167":1.3588117755891003,"168":1.127532380733457,"169":-0.15804396904067625,"170":-0.3281986894519866,"171":1.7247944057724962,"172":-0.5921301389127399,"173":-0.8652748619673256,"174":0.7432959708147467,"175":-0.1886168230295909,"176":-1.1855467750539193,"177":0.3668342206969387,"178":-0.15785983074988838,"179":0.0646360199835763,"180":-0.09114823622287319,"181":0.12066893931043358,"182":0.009297640362128141,"183":0.13076660378762311,"184":-0.04569593262829671,