{"layers":[{"out_depth":2,"out_sx":7,"out_sy":6,"layer_type":"input"},{"sx":4,"sy":4,"stride":1,"in_depth":2,"out_depth":32,"out_sx":8,"out_sy":7,"layer_type":"conv","l1_decay_mul":0,"l2_decay_mul":1,"pad":2,"filters":[{"sx":4,"sy":4,"depth":2,"w":{"0":0.033070796884043865,"1":1.1403921650136926,"2":0.03611034383837905,"3":0.016708807727291018,"4":-0.7740740827207904,"5":0.34109602821591123,"6":0.22954752239555856,"7":0.3061639190538725,"8":-0.4126697747653827,"9":0.04688172823900622,"10":-0.2550392807937798,"11":0.25568822205004826,"12":-0.10421964744658638,"13":0.02523217903412057,"14":-0.34337709987663906,"15":0.3382610506328683,"16":0.22452896048678372,"17":-0.26215542973590783,"18":0.34554299687300294,"19":0.10193552667704972,"20":0.3173111229970877,"21":-0.3957261288192151,"22":-0.3296289192751227,"23":-0.3765315560180753,"24":-1.1372957800968664,"25":0.06386335237373206,"26":0.21756984310487756,"27":1.043240564807102,"28":0.43544152440842365,"29":-0.07192010138585585,"30":-0.2336250889270831,"31":-0.3097550125405421}},{"sx":4,"sy":4,"depth":2,"w":{"0":-0.2116235310850105,"1":0.3753812023404271,"2":0.58893924542944,"3":-0.2072237137376853,"4":-0.08048548270361693,"5":-0.2022637747252631,"6":-0.13322945115764218,"7":-0.06504125390532516,"8":-0.2228693889735716,"9":0.6096227066510598,"10":0.31697832490731287,"11":-0.018834395047858245,"12":0.12326959004638387,"13":0.7946417581074298,"14":0.3769061563159661,"15":-0.1848188326812184,"16":0.6426278805955634,"17":0.08137463504714772,"18":-0.05536397758924632,"19":-0.13830128846969536,"20":-0.06107674729104938,"21":0.33149543964470507,"22":-0.4807247684672431,"23":0.6660015172217613,"24":0.4623139403403134,"25":-0.7245372173607276,"26":-0.16201637622183301,"27":-0.10433702101489313,"28":-0.26771956706069666,"29":0.4913906139712313,"30":0.3515143261415308,"31":0.8402278030436607}},{"sx":4,"sy":4,"depth":2,"w":{"0":0.19060747481286747,"1":-0.08617011274530664,"2":0.08338500938592754,"3":-0.17062789345243598,"4":0.3664324077316749,"5":-0.09377332130829112,"6":0.30676581714220164,"7":-0.21938030124565555,"8":-0.4855278412113823,"9":-0.8973172838470479,"10":-0.4212709304566936,"11":0.07402063934193572,"12":0.23722486177981605,"13":-0.33244279048215414,"14":0.42794834775701457,"15":0.01393388973065323,"16":-0.13198396845841798,"17":0.6064075061902757,"18":-0.1662128681961894,"19":1.227336620589015,"20":-0.6397658805494776,"21":0.11486887566364719,"22":0.16887294281113063,"23":0.4583365099863772,"24":0.041278597731451754,"25":0.2873629888801925,"26":0.496583384174934,"27":0.5837269163004256,"28":0.12109701771772534,"29":0.1634083254167356,"30":-0.1406241910628643,"31":-0.27235994172786326}},{"sx":4,"sy":4,"depth":2,"w":{"0":-0.2135117460063385,"1":0.2500217557017982,"2":0.3045425529570265,"3":-0.304621268413162,"4":-0.2508460317660524,"5":-0.056008992752874215,"6":0.13052492130961846,"7":0.09289760093006649,"8":-0.31149888828939754,"9":0.07185545180381098,"10":-0.21289332630255273,"11":0.7635933616064153,"12":-0.2049056712136871,"13":-0.33168785564331194,"14":-0.31760720588038294,"15":-0.030071380471762384,"16":-0.0904978778105181,"17":-0.19201082760888452,"18":0.17304832532594855,"19":-0.049628894335889705,"20":0.0031016378495481735,"21":0.31482122627031994,"22":-0.8139247630554618,"23":-0.2146681248097781,"24":-0.5386118650320042,"25":1.1363573777677405,"26":-0.07405742172409623,"27":-0.6192671227470736,"28":0.28634345941585676,"29":0.017540108062043463,"30":-0.015265948131829474,"31":-0.30927218345846924}},{"sx":4,"sy":4,"depth":2,"w":{"0":0.3293187842302257,"1":0.29516384801787643,"2":-0.5969687336916533,"3":0.3167831087848957,"4":0.4621268499953363,"5":0.2600008341604464,"6":0.052983068802309366,"7":0.24714722641261447,"8":-0.5663474219202634,"9":0.11593769019373802,"10":0.14066068788772043,"11":0.17278505452156198,"12":-0.22774744232816643,"13":0.07694536276560893,"14":-0.8529511763107285,"15":-0.06428415190918849,"16":0.2595731853613831,"17":1.2738979002141682,"18":-0.13014389170566512,"19":0.149572593679588,"20":0.21165400486538774,"21":-0.049267005405599446,"22":0.4215148111994294,"23":0.2644112463325156,"24":0.6357435919264648,"25":0.601769683875949,"26":0.18240295354082983,"27":0.20989467574713683,"28":-0.334104546963084,"29":-0.3161621873298964,"30":0.13230216739002904,"31":0.7349155912956084}},{"sx":4,"sy":4,"depth":2,"w":{"0":1.1840953094551903,"1":0.8651142530263898,"2":0.5967740005004899,"3":0.07295484264656178,"4":-0.016013293729864788,"5":-0.27229244139090525,"6":0.24333935010226115,"7":-0.050127628734329445,"8":0.23331674785661385,"9":-0.3227527208607407,"10":-0.31679113313638585,"11":-0.036064641960719374,"12":-0.20858002687538094,"13":0.34392463766138803,"14":-0.3182174629455437,"15":-0.27893159978034504,"16":-0.7891628835732653,"17":0.42603820164581974,"18":0.4459647914121735,"19":0.24514222674995878,"20":-0.7092862387355354,"21":0.08562743194670998,"22":0.4356776001689224,"23":0.12023421203377124,"24":-0.15448274280537164,"25":0.7568187322475087,"26":0.760384321007187,"27":0.19372840227229512,"28":-0.5166495749833544,"29":-0.9522170599885894,"30":-0.9438599331078795,"31":-0.7297397521823633}},{"sx":4,"sy":4,"depth":2,"w":{"0":0.28580882411242875,"1":-0.5751337701162754,"2":-0.4596275233887124,"3":0.18875010026889746,"4":0.15066964295115076,"5":0.023694806116696835,"6":-0.14420394969446945,"7":0.15106055548880953,"8":-0.019075834321448753,"9":0.28148961912433157,"10":-0.746629574007492,"11":0.003976522340983782,"12":-0.07834851174548525,"13":-0.04733110667117128,"14":-0.0803314498881501,"15":-0.08676025294943794,"16":-0.27998422506336235,"17":0.10594921239325468,"18":-0.20022961823866883,"19":-0.49076917591320857,"20":1.1944079263583796,"21":1.2508163923332567,"22":-0.880963486766482,"23":-0.5290471582767002,"24":0.8853635332631595,"25":-0.46769603456768516,"26":-0.5393746348222451,"27":-0.3606035318416523,"28":-0.5776575294077846,"29":-0.4937070025518403,"30":-0.5632732763759065,"31":0.9087764200144612}},{"sx":4,"sy":4,"depth":2,"w":{"0":-0.17287105530174,"1":0.7727644775323812,"2":0.07082834005548172,"3":-0.3003371411300853,"4":-0.31940988618446425,"5":-0.4214613652892383,"6":-0.398639922097966,"7":0.33839835062344775,"8":0.27934528969954736,"9":-0.4182729952684191,"10":0.23639473232775324,"11":0.4711456762974055,"12":0.054529217961363036,"13":-0.6088274501319015,"14":0.6714585069829192,"15":0.5010624394200651,"16":-0.006562639540584174,"17":-0.8215768643707961,"18":0.18583940984429118,"19":-0.1669290118351748,"20":-0.011104545896565777,"21":-0.3662620748502601,"22":0.05569904211465842,"23":-0.02158927096774185,"24":0.5405365232855227,"25":-0.7315263067341619,"26":0.19768321801254873,"27":0.37823685431262144,"28":-0.3562302414651279,"29":0.621183009637974,"30":-0.24351840227671093,"31":-0.2829253274620905}},{"sx":4,"sy":4,"depth":2,"w":{"0":0.06435889213060858,"1":-0.10746902527270492,"2":-0.1499319227428602,"3":0.004934599304415812,"4":0.04471716794706648,"5":0.24720154178528023,"6":0.014444934359109044,"7":-0.11395158645678156,"8":-0.23786541968480646,"9":0.8817065808555692,"10":-0.25573817580601677,"11":-0.6449761161256579,"12":-0.3643023683638952,"13":0.855072889177288,"14":-0.0843307674578815,"15":-0.021487659554123434,"16":0.11663826313112187,"17":0.09109836519358885,"18":-0.025668760611592054,"19":-0.12810801258503188,"20":0.4290541283998104,"21":0.6792808091060532,"22":-0.3008756593714469,"23":-1.118054314388311,"24":0.41314052255468414,"25":-0.22860329008671204,"26":1.0249842745090352,"27":-0.23201818075417652,"28":0.24214464385197387,"29":-0.01843368354400355,"30":-0.04763211229879661,"31":-0.2741570496085298}},{"sx":4,"sy":4,"depth":2,"w":{"0":0.3438082385082805,"1":-0.007098791676644954,"2":0.2325956555143825,"3":0.0075498346572167,"4":0.2140796918494617,"5":-0.12143287366706718,"6":0.4007164365677403,"7":0.15201597337534625,"8":0.9219356472108522,"9":0.7131155957815363,"10":-0.023867906457079258,"11":-0.07009377928006941,"12":-0.00810387009953324,"13":-1.2879042433472407,"14":0.15300110756918914,"15":1.3983718689755888,"16":-1.2889703453149939,"17":0.2717902304573008,"18":1.6109773253460944,"19":0.0021326507018017108,"20":-0.44707648202856604,"21":-0.08339279869255635,"22":0.08138719189489507,"23":-1.1766548209216734,"24":0.40807149460139397,"25":0.6984994770913496,"26":-0.5966425001597178,"27":0.5763910664470479,"28":0.5576898850526805,"29":0.4162897324104399,"30":-0.49696000793018696,"31":0.13317174741109747}},{"sx":4,"sy":4,"depth":2,"w":{"0":0.17116216784310184,"1":-0.12616501635689575,"2":-0.26312333123688336,"3":0.08280216721020643,"4":-0.1368065322816223,"5":0.0727187055239233,"6":0.03659487271568757,"7":-0.29091431318752625,"8":0.7774134413129219,"9":-0.054146136725902815,"10":-0.2873272585348657,"11":-0.006074024795366496,"12":0.3438020890308094,"13":-0.7881831627625923,"14":0.4002142454910766,"15":-1.012463703543427,"16":-0.6400632537316283,"17":0.5496878231522578,"18":0.6498619539495939,"19":-0.047855753559483426,"20":0.2476997413870424,"21":-0.32503662911738646,"22":0.3550970249580115,"23":-0.4102954686352291,"24":-0.017754335645587448,"25":0.003920359117066647,"26":-0.3868048881392858,"27":-0.011181390064470676,"28":0.5258834003073094,"29":0.39540544288099333,"30":-1.0567977201243297,"31":0.4064252079397672}},{"sx":4,"sy":4,"depth":2,"w":{"0":0.22674473117809196,"1":-0.2927632435243205,"2":-0.4095425620664612,"3":0.10102550231019236,"4":0.564859488719572,"5":-0.4633396284638573,"6":-0.17748473577655288,"7":-0.13826131184616444,"8":-0.03956934977135191,"9":0.0044650301281358015,"10":-0.3523925681446071,"11":0.0029744242867687995,"12":0.17676939279911097,"13":-0.1306407075071864,"14":-0.24829244170273337,"15":0.08249054617464759,"16":0.28503021356331715,"17":-0.5778456298486485,"18":0.02221644144964708,"19":0.332221591008621,"20":0.10047212991999982,"21":0.9985254007646125,"22":0.08923863753321523,"23":-0.34100216496225694,"24":-1.1547332949311184,"25":-0.19823065924748923,"26":0.43137804679727787,"27":0.48614619474728166,"28":-0.41384504251354076,"29":-0.2887453093444005,"30":-0.41651156615216356,"31":0.5254669467644387}},{"sx":4,"sy":4,"depth":2,"w":{"0":-0.38637220294564123,"1":-0.6595840819829554,"2":-0.019404043100800197,"3":0.08354107983588048,"4":0.9297637652124031,"5":0.26472423607628687,"6":0.04821592063009406,"7":-0.5450906510722592,"8":0.06534082789492004,"9":0.1554126110129281,"10":-0.35731445467667616,"11":0.35934137966117874,"12":0.2064017335118827,"13":-0.10395528492023515,"14":-1.0664374351561277,"15":-0.05539381173360116,"16":0.18355849449795095,"17":1.6009210248366148,"18":-0.5649824266941673,"19":0.6423605933308346,"20":0.022794976443718248,"21":0.7612614209627745,"22":-0.41604032927037726,"23":-0.0926000256634,"24":0.2360348660045004,"25":-0.6647798925168944,"26":-0.3982816654347674,"27":0.42413546933173685,"28":-0.3795133677257259,"29":0.23655854519855893,"30":0.8406656565507322,"31":0.38218119924011557}},{"sx":4,"sy":4,"depth":2,"w":{"0":0.11414967830252248,"1":0.12838032787493917,"2":-1.0267324628553325,"3":0.46617438602629563,"4":0.31031584838219606,"5":0.23791609961327895,"6":-0.39387476830231605,"7":0.38430454556829424,"8":-0.4622202106573263,"9":0.42318587982872446,"10":-0.17992017146292597,"11":-0.041043388375411334,"12":0.5425540544834714,"13":-0.6000000097905801,"14":0.3843779901049664,"15":0.0776751035587214,"16":0.6054842963865034,"17":-0.6198026509101474,"18":0.7559682970652665,"19":-0.3705477845492599,"20":-0.3865154129830743,"21":-0.39588178560742493,"22":0.7301346186027241,"23":0.17555177498269847,"24":-0.53328082960394,"25":0.5772286867419364,"26":-0.7395945320656289,"27":0.5884441014962549,"28":0.07042185940203316,"29":0.4104256973524339,"30":-0.70439113100872,"31":-0.2053038893433872}},{"sx":4,"sy":4,"depth":2,"w":{"0":-0.21360223231360018,"1":0.5557505507476191,"2":0.024588287984336883,"3":-0.0819634225341218,"4":0.0056647874467117745,"5":-0.07075372476593289,"6":-0.043505957450111085,"7":0.1505476492998299,"8":0.2611755715775535,"9":-0.1541581391597288,"10":0.1264982881556671,"11":0.24308774375227332,"12":-0.02123810791554277,"13":0.6321991770652853,"14":-0.09026979848913036,"15":-0.4564689060792309,"16":0.7836141615011925,"17":-0.21270466284875053,"18":0.3243923960634058,"19":0.4500441745045648,"20":0.6469555143605455,"21":-0.0781773640332879,"22":-0.14301744486940468,"23":0.02840307045412372,"24":-0.5877204629775025,"25":-0.4730372132913576,"26":-0.459594795895539,"27":0.10247500838245013,"28":0.8830376212865997,"29":1.0108683102641165,"30":1.1577338575350615,"31":0.5243671595741164}},{"sx":4,"sy":4,"depth":2,"w":{"0":0.19753750169412296,"1":-0.47226374034405116,"2":0.26618705975593454,"3":-0.04743183801690535,"4":0.2224958646929677,"5":-0.21634554179703933,"6":0.020622370859916365,"7":0.12825318762714386,"8":0.194731734518253,"9":0.37908074349713816,"10":0.17636013547219062,"11":-0.7858018187314206,"12":0.7776476854781327,"13":0.4011007398817297,"14":-0.07878048034104126,"15":-0.008468627145928503,"16":0.11869365294248949,"17":0.3970249415182163,"18":-0.29277957420712186,"19":0.04091069638211081,"20":0.06375204942526339,"21":-0.29338663530931663,"22":-0.32415489524676483,"23":0.9132425035048377,"24":-0.04765531668876766,"25":1.040982591069034,"26":0.3606292690710824,"27":0.03715305454743937,"28":-0.06740231073836898,"29":-0.48234461760715763,"30":-0.08152524717984128,"31":-0.03519110610448529}},{"sx":4,"sy":4,"depth":2,"w":{"0":0.3886639432668724,"1":-0.0424686274879923,"2":-0.13510700367093198,"3":0.3821126358961665,"4":0.020488588855110502,"5":0.27078155774119983,"6":-1.1560743409328509,"7":1.2065498135179777,"8":0.3317553157009341,"9":-1.471605793317193,"10":0.8496983600474741,"11":0.31842632225382833,"12":0.10617122739746283,"13":-0.16137517673880952,"14":-0.001038495207020069,"15":0.016814447951016595,"16":0.3655573167368792,"17":0.4767620453821886,"18":0.4785755485771097,"19":-0.4131350148490531,"20":0.641182825085076,"21":0.7314511628866818,"22":0.20644357231460497,"23":0.08545846759339856,"24":0.2933515793558864,"25":0.08229884852889259,"26":0.3365030529053715,"27":0.13163558542047848,"28":0.005812076976839991,"29":0.40810308060342515,"30":-0.41716099765512976,"31":-0.13003588311762418}},{"sx":4,"sy":4,"depth":2,"w":{"0":0.3475206753918059,"1":-0.35469255129349725,"2":-1.1177197836629322,"3":-0.2073332347882336,"4":-0.006934762359915182,"5":-0.09958610557497291,"6":0.016868685338689456,"7":0.1856135776092046,"8":-0.006812010205066613,"9":0.1610955521685596,"10":-0.0011220622526740163,"11":0.3207719506958465,"12":1.371680735228176,"13":0.1120277152548172,"14":0.07476539105340933,"15":0.6196494900518492,"16":-0.5816262552073781,"17":-0.4139757168947917,"18":-0.7312426900694063,"19":-0.19204539013306715,"20":-0.11651939882715281,"21":-0.07228668348990379,"22":1.0917528152761269,"23":0.10926502285438987,"24":-0.6848037497250258,"25":1.1887618286780524,"26":0.02416814894994394,"27":-0.12321213312867897,"28":0.3619524988432697,"29":-0.05923422279459198,"30":-0.021281738712199547,"31":0.05084277958968144}},{"sx":4,"sy":4,"depth":2,"w":{"0":-0.007857094616760821,"1":0.06682061873657526,"2":-0.07846518207950559,"3":-0.038056400435891036,"4":-0.1411514413283195,"5":2.196881276959288,"6":-0.25609897739737975,"7":-0.11306517241054957,"8":-2.36767453167033,"9":-0.17499564279532062,"10":-0.08758260879325021,"11":-0.1343512069065883,"12":-0.1777809924773738,"13":-0.07448292254164605,"14":-0.1870188385750984,"15":0.21710688604631095,"16":-0.4872011270432805,"17":0.6916382737875542,"18":1.7856687176671227,"19":-0.3501014992600523,"20":-0.41219676398303884,"21":0.3373665194586973,"22":-0.0269444075459945,"23":-0.019789920634902012,"24":-0.13121457927828845,"25":0.21690959934902432,"26":-0.3514433689633343,"27":-0.03846135647664264,"28":0.017979122677748108,"29":-0.6933382259375459,"30":0.3927914114599178,"31":0.004683752201506412}},{"sx":4,"sy":4,"depth":2,"w":{"0":0.5277428431762269,"1":0.2556901590191446,"2":0.11546735034574765,"3":-0.049592023431049084,"4":-0.27396274254416847,"5":0.6624183522615966,"6":0.3199303067533674,"7":0.0683215079087284,"8":1.0710064733139328,"9":-0.19600933020851713,"10":-0.08112558291500628,"11":-0.5240069311857065,"12":0.0868815555136435,"13":0.18660202371676107,"14":0.21039706759873336,"15":1.1804117680426998,"16":-0.0651559905641766,"17":-0.7769735857110638,"18":0.8335786129029338,"19":0.34258923342807895,"20":-0.07413141110113103,"21":-0.8510939500578754,"22":-0.2506335293686188,"23":-0.16993434794780865,"24":-0.802478749990333,"25":0.15609495459338785,"26":0.06039264913056254,"27":-0.6780158391478909,"28":0.5406621397841085,"29":0.5325379649541065,"30":0.424054794540353,"31":-0.6070845454585471}},{"sx":4,"sy":4,"depth":2,"w":{"0":-0.0015327800785587525,"1":0.27286658677441716,"2":0.17897038442188182,"3":0.16312726120984075,"4":-0.2332746499572877,"5":0.19846889219970848,"6":0.11934970869224673,"7":-0.018103098767911226,"8":-0.24143857304977193,"9":-0.21535030434256364,"10":-0.20042128765053488,"11":-0.5971710402904666,"12":-0.4554144370359181,"13":0.5825610085678745,"14":-0.41923722367454946,"15":-0.28811857028483207,"16":-0.8719815760780611,"17":-0.8538116949352328,"18":0.5442888070546915,"19":0.5440409250410269,"20":0.5168077262185968,"21":-0.9844352325796951,"22":0.655698285412892,"23":0.21892775182519775,"24":-0.32849912060341524,"25":0.09114746884200146,"26":0.6602875189895638,"27":-0.125104170960696,"28":0.2583022104538277,"29":0.13027967116486744,"30":0.4006938887259899,"31":-0.36033496687301103}},{"sx":4,"sy":4,"depth":2,"w":{"0":-0.28307005180020767,"1":0.15528848519521024,"2":-0.10965512065283872,"3":-0.15357996708977276,"4":0.4058669281263183,"5":0.21560797755854494,"6":-0.34581462481930597,"7":0.056441261932056994,"8":0.6396424342277177,"9":0.12920806203388482,"10":0.06109099303453244,"11":-0.10775807906475408,"12":-0.8073049454035031,"13":-0.33665277692955875,"14":-0.4359987671164932,"15":0.30550887768381363,"16":-0.0963497499839803,"17":0.7127865399527226,"18":0.6812901369298058,"19":0.48961324818131235,"20":0.8529835129490801,"21":-0.06976954070545885,"22":-0.6587362509316709,"23":0.4668044885510999,"24":-0.2754968512194239,"25":-0.5872521401430555,"26":-0.08650331421386909,"27":0.4610944688438615,"28":0.33584945567640384,"29":-0.09313204345448324,"30":0.13347152902486312,"31":0.22586205604467763}},{"sx":4,"sy":4,"depth":2,"w":{"0":-0.056213043977026825,"1":-0.0877632764340122,"2":0.6566610031707681,"3":-0.020264962317732668,"4":-0.8100252979151108,"5":0.21669342916190018,"6":0.34965157491279075,"7":0.1418979227732679,"8":-0.4470211061031395,"9":-0.4482752067199221,"10":0.40553212073874645,"11":0.23400665605252013,"12":0.19459959517488767,"13":-0.029983532397426443,"14":-1.6301023730938011,"15":-0.4706332584486496,"16":0.5143337814001709,"17":-1.4718570838327223,"18":1.1557279667494194,"19":0.250299004488542,"20":0.26840431874593934,"21":0.2991093755737456,"22":0.17565086609693376,"23":0.10410337938308564,"24":0.08274602536792153,"25":0.14862907585767438,"26":0.257837625156731,"27":-0.5299765918691439,"28":0.5124563617771938,"29":0.22756627120404596,"30":0.1729472045497878,"31":0.4692446662274411}},{"sx":4,"sy":4,"depth":2,"w":{"0":1.1548841320674936,"1":0.14953367000719534,"2":0.0927388826045356,"3":-0.5925560055840728,"4":0.13333489359825842,"5":-0.24205154395002224,"6":-0.32752720976631416,"7":1.1794756132229292,"8":-0.40100479364915526,"9":0.018686647051444887,"10":0.11862647072186637,"11":-0.3318933078211158,"12":-0.380611161165131,"13":0.18610021146096353,"14":0.09628096788114898,"15":-0.3886569926558379,"16":-0.8153727354493041,"17":-0.0023841795698370015,"18":0.7092822935543333,"19":0.07183814296878134,"20":-0.4753704209340276,"21":-0.5622323002586559,"22":-0.01977315038336839,"23":0.8227897152336083,"24":0.6713581404214731,"25":-0.5076008247902091,"26":-0.251725530863653,"27":-0.0755737737362073,"28":0.5080704836335691,"29":-0.15034220464634054,"30":-0.8885909726120271,"31":-0.17028990456435922}},{"sx":4,"sy":4,"depth":2,"w":{"0":0.5468051937455882,"1":-0.542203247922051,"2":0.19386374141756754,"3":0.27855938023763105,"4":0.32701481663066817,"5":-0.0918246866905169,"6":0.00632242239660582,"7":-0.023493723009359185,"8":0.00535079033973575,"9":-0.01883154227412154,"10":-0.3667636456951263,"11":0.13955968986393938,"12":0.3859899149350897,"13":0.11406060627925471,"14":-0.6324834427951982,"15":0.4802433306374444,"16":0.066153821359556,"17":-1.2050012049524434,"18":1.3215547054462986,"19":0.0003275648254662205,"20":0.5076530832552969,"21":0.025305199747079364,"22":-0.01638718572330195,"23":0.13067132713509994,"24":-0.12257222149171754,"25":0.6868940121624413,"26":0.6378995819144501,"27":-0.36070434997753575,"28":-0.06006063157648785,"29":-0.07497533239446587,"30":1.1210559610453807,"31":-0.8352927277776582}},{"sx":4,"sy":4,"depth":2,"w":{"0":-0.40199440474556125,"1":-0.02202523624737713,"2":0.3366722190802813,"3":-0.04186679429351564,"4":-0.13303126335272333,"5":0.5633673109362031,"6":-0.18767820359617549,"7":-0.3959036307892043,"8":0.44451118648642335,"9":0.7853615100037863,"10":-0.7254187375937913,"11":-0.03730694763119805,"12":0.16802393330847187,"13":0.2569859266677146,"14":-0.28030586296989807,"15":-0.20158655259563693,"16":-0.40469490249529544,"17":-0.1361805464546303,"18":0.012163625780723423,"19":0.3260823865941224,"20":-0.6555790298121568,"21":1.0696644605758974,"22":-0.12254501774259059,"23":0.49528555795035956,"24":0.957918442554394,"25":0.5392007653832194,"26":0.14762480346232992,"27":-0.4328094189844141,"28":-0.2971786076708273,"29":0.12026425977959497,"30":-0.5775350626180873,"31":1.136115191151334}},{"sx":4,"sy":4,"depth":2,"w":{"0":-0.28269606197460134,"1":-0.3356804385635398,"2":0.3780340631163573,"3":-0.017942418823136397,"4":-0.16685375960433965,"5":0.10616037178858716,"6":-0.013973260506649912,"7":-0.2738423452690001,"8":-0.09358033570239235,"9":-0.18826486789547425,"10":-0.25106430853918227,"11":-0.44239748980467997,"12":-0.18434580006995466,"13":-0.10808434020903804,"14":-0.39096812661677827,"15":-0.2050567379755064,"16":0.19196375270776936,"17":0.6002454416568954,"18":-1.2701002609384848,"19":0.6693082353251402,"20":0.6403130740359732,"21":0.49853431446562924,"22":-1.007298729906993,"23":-0.22912536331148797,"24":0.4149901674179322,"25":-0.2600997438674974,"26":0.45537277780144464,"27":-0.12391556099978741,"28":-0.21823857022394694,"29":-0.4673679962912583,"30":0.7789582189878375,"31":-0.5199857114342114}},{"sx":4,"sy":4,"depth":2,"w":{"0":0.13413634442857922,"1":0.056255211361303376,"2":0.22901825748506852,"3":-0.2118329836836155,"4":-0.06354055765082134,"5":-0.009597283825013776,"6":-0.6114322512877788,"7":-0.34564983955504447,"8":0.04513476055756668,"9":-0.20779919558444618,"10":0.19022775791053353,"11":0.4592161064769387,"12":0.8195031983186764,"13":0.20624086470931086,"14":0.13144929110758477,"15":-0.21849338171013402,"16":-0.5576971071414389,"17":-0.5353071702834039,"18":-0.2561200390127576,"19":0.37239771182573805,"20":0.4840969993969011,"21":0.9967825838674014,"22":0.8051595549149102,"23":0.3979259023495393,"24":0.3574067241064051,"25":0.153721768566246,"26":0.0939062773812903,"27":0.4266472575458623,"28":-0.21482885961256357,"29":0.5592409400451474,"30":0.03447550779773445,"31":0.19724142384854948}},{"sx":4,"sy":4,"depth":2,"w":{"0":-0.12821302450234115,"1":0.051692129640421504,"2":0.03677965060674976,"3":0.5352637362036863,"4":0.46632379064893514,"5":-2.1866305698089668,"6":0.5345373445735311,"7":0.14058539502285397,"8":-1.6910413395223824,"9":0.8337371180500078,"10":-0.16615131832112215,"11":-0.06033241933782092,"12":0.1689790806889256,"13":0.5096099340917934,"14":0.6302287147766342,"15":-2.044716189772172,"16":0.49774416908315455,"17":0.5161434100454187,"18":-1.2013663177119391,"19":0.4903340126904683,"20":0.19216629919480144,"21":0.48324086982374226,"22":0.6520989816708013,"23":0.3248239225183918,"24":-0.11665390788503195,"25":0.32254000812267847,"26":0.06959642405568933,"27":0.0776101232109604,"28":-0.322750432877552,"29":0.04944678941231574,"30":-0.19245991403932033,"31":0.33319995441286443}},{"sx":4,"sy":4,"depth":2,"w":{"0":-0.319279875792355,"1":-0.9970450742390401,"2":1.2938100729023252,"3":0.052262992872360615,"4":0.039564953066385626,"5":0.04701333554853621,"6":0.015917566798415172,"7":0.15382314761134894,"8":0.4088720868472036,"9":-0.1846239950579655,"10":-0.15237022914536993,"11":-0.5907522924519246,"12":-0.18369174700851143,"13":-0.31624363228467417,"14":0.12033756707752899,"15":0.5514612251425222,"16":0.41713514210399866,"17":0.060262405422956744,"18":0.2300961359383175,"19":0.017649729022669255,"20":-0.2761379405080623,"21":1.2340860793551234,"22":-1.2666022426234975,"23":-0.11558009889642214,"24":1.3458708283584728,"25":-1.4853433114638073,"26":-0.013635504299715029,"27":0.02430064287814336,"28":0.2615931383399586,"29":0.3618700002553763,"30":-0.01273905773796667,"31":0.5243415679109112}},{"sx":4,"sy":4,"depth":2,"w":{"0":0.04485271895483997,"1":-0.6293334225071312,"2":-0.06180435999253799,"3":0.8346620118056183,"4":-0.33984202612416037,"5":0.07990948972415102,"6":-0.23845073322285323,"7":-0.020472300421291553,"8":-0.3917622768776044,"9":0.5140882266265029,"10":-0.13412640571996506,"11":-0.015769248790398,"12":-0.11743575971079051,"13":0.12151230839081888,"14":0.14096231554381528,"15":-0.12373325356466451,"16":0.23312337839961134,"17":-0.72327058001806,"18":0.22851811591962204,"19":-0.20858445489439534,"20":1.2976280868681325,"21":-1.0883710257884096,"22":-0.37644298317852143,"23":-0.2483576611666954,"24":-0.3881766625792202,"25":0.5357984811464964,"26":-0.32818603686327263,"27":-0.05941934348379635,"28":0.09793407363706214,"29":0.0054184482166601475,"30":-0.1700587066664326,"31":1.3957961922685667}},{"sx":4,"sy":4,"depth":2,"w":{"0":0.09444219220710597,"1":-0.16015225202699926,"2":-0.1406844656940108,"3":0.18173648785617827,"4":-0.37697598999847826,"5":0.12021381787316132,"6":-0.4483694022994066,"7":-0.08382644423355956,"8":0.07144809713932784,"9":-0.5226050860384251,"10":-0.10449290940235978,"11":-0.1132296890728384,"12":0.07605947329838819,"13":0.6598775790777774,"14":1.4296707046649744,"15":-0.1478495350441078,"16":-0.10377255965586257,"17":1.6950635530535307,"18":-0.40340598589612847,"19":-0.5653096637957595,"20":-0.1289459060327949,"21":-0.37259587580721537,"22":-0.3301100150498495,"23":-0.40830465152206863,"24":0.03886093895276419,"25":-0.5202501622157758,"26":0.08298908171054628,"27":0.5317714016826115,"28":0.4107323925267927,"29":1.2848392676535039,"30":0.42911559992503256,"31":0.06194462985098125}}],"biases":{"sx":1,"sy":1,"depth":32,"w":{"0":-0.05115345411747339,"1":-0.7430628696335719,"2":-0.29739894114689763,"3":0.30681707566996985,"4":-0.5340904757741396,"5":-0.07433663547596978,"6":0.18946230108156525,"7":0.005338496629622368,"8":0.015887146682188758,"9":-0.5896240530476641,"10":0.13317457105040278,"11":0.215081327147518,"12":-0.2455441310380013,"13":0.08897786846213457,"14":-0.7986941789570969,"15":-0.3129586850483692,"16":-0.7935141885193713,"17":-0.12003977503450236,"18":0.14301585617433007,"19":-0.37524723800049015,"20":-0.20561834646481236,"21":-0.18784623767022152,"22":-0.17629401873184783,"23":0.10345297962825725,"24":-0.15900866677253048,"25":-0.6575977818410246,"26":-0.04097145362944867,"27":-0.7029186071423474,"28":0.5913164186021963,"29":0.03476453055157015,"30":0.034668381494607776,"31":-0.5873086208426638}}},{"out_depth":32,"out_sx":8,"out_sy":7,"layer_type":"relu"},{"out_depth":60,"out_sx":1,"out_sy":1,"layer_type":"fc","num_inputs":1792,"l1_decay_mul":0,"l2_decay_mul":1,"filters":[{"sx":1,"sy":1,"depth":1792,"w":{"0":-0.009213614979696512,"1":0.06651049877266353,"2":0.011054650899280916,"3":0.04220638789383782,"4":0.0029059075984010385,"5":0.005943705266812181,"6":0.015797936867619336,"7":0.010408425698532443,"8":0.006248809698575539,"9":0.015549941667577788,"10":-0.07242176754964678,"11":-0.0006995077052501631,"12":0.025536264900484877,"13":-0.06224940369873163,"14":0.033527373506810884,"15":-0.008649520942589393,"16":0.04206688769795121,"17":-0.05322493107788401,"18":0.02276755081249921,"19":0.007488070681774674,"20":0.00009568408150877854,"21":0.01376556549780815,"22":-0.0436624664006198,"23":-0.021262870775650457,"24":-0.0025705181795903304,"25":0.017207079941507077,"26":0.010185012858985576,"27":-0.04326940259722785,"28":-0.053802254663899436,"29":-0.00227423734958101,"30":0.05060992841294084,"31":0.0322154359218491,"32":0.03203104539170843,"33":-0.03544965742668659,"34":0.04577969605217433,"35":0.0012939228158707025,"36":0.04654455964554106,"37":0.05137506872140103,"38":-0.13912503545057353,"39":0.04503870444858516,"40":-0.06958010701914148,"41":0.08078522204723809,"42":0.05909842436637635,"43":-0.0384181150543592,"44":0.1250321559963423,"45":0.06792954006969412,"46":-0.04006243539123575,"47":0.01225106466088567,"48":0.0024361465454430086,"49":0.02919864198531017,"50":0.13172495036508255,"51":-0.009250348996030775,"52":-0.09821688460135541,"53":-0.013362779968408718,"54":0.04956766505913708,"55":-0.0005314286815009923,"56":0.07174683948230808,"57":0.07779174655959825,"58":-0.006689258637823047,"59":0.031112379531376546,"60":-0.08649400600749156,"61":0.05059371636926155,"62":-0.09778459173878205,"63":-0.020570611702351204,"64":-0.0027487780247117243,"65":0.04191241255700165,"66":-0.02501338940805112,"67":0.05769978482298329,"68":0.034079283375098024,"69":-0.020189592637216085,"70":-0.03603091941041505,"71":0.04128355561690222,"72":0.05758138596732989,"73":-0.13822732956497302,"74":-0.030824410426550236,"75":-0.027072198798647324,"76":0.007605010247378891,"77":-0.035111545503001544,"78":-0.021258499778012058,"79":0.013912050081230943,"80":0.0015200834995697178,"81":0.07395716203618101,"82":-0.14458677752047583,"83":-0.0668591217961623,"84":-0.030204389326038892,"85":-0.020449344223434647,"86":-0.1060021225328226,"87":0.046737348075947,"88":-0.1226898683660083,"89":0.005915121896665223,"90":0.001771768853973288,"91":0.06803067181797708,"92":-0.034775457166093475,"93":0.012121553261362489,"94":-0.014151861396455101,"95":0.08548131398148218,"96":-0.011325735963387477,"97":-0.07730516679328021,"98":0.058492118251502856,"99":0.0026843099084498333,"100":-0.025383473087436322,"101":0.09812218442597553,"102":-0.017933555167551466,"103":-0.007325597223471382,"104":-0.08882799809075757,"105":0.19906825641910766,"106":0.023742475399879226,"107":-0.034693148583416995,"108":-0.036582060711124985,"109":-0.03742792635531446,"110":-0.04006520310026956,"111":0.07418950345692683,"112":-0.09127735931126489,"113":-0.02035634443005592,"114":0.02276933212313649,"115":-0.0540060267602408,"116":0.009480010296156343,"117":0.042316957638734366,"118":-0.057686363174847814,"119":0.028684552980399278,"120":-0.010301557336801614,"121":0.013811025621502208,"122":0.026922405381102833,"123":0.010136255395736938,"124":-0.008396109889515054,"125":-0.1221089088266074,"126":0.02425721375594802,"127":-0.12074946214734135,"128":-0.004301651261661526,"129":0.05564391218385432,"130":0.009608084902219443,"131":0.040040870052990826,"132":0.004301784773231479,"133":0.0023876672550348682,"134":0.2529248790032874,"135":-0.047144368919408035,"136":-0.005467962355936011,"137":-0.046982071774091846,"138":-0.019045162267336345,"139":-0.058851530824371605,"140":-0.025585557117010337,"141":-0.07622416732838985,"142":-0.00192245407516026,"143":0.09935403899092111,"144":-0.020340871104922425,"145":-0.031691111088682875,"146":0.0016986482165068481,"147":0.0995471495256298,"148":0.057943013761881726,"149":-0.06002315429570182,"150":-0.014854789732741633,"151":0.007159817290917028,"152":0.0030193389702721364,"153":0.33173470059154014,"154":-0.12550784767939768,"155":0.06266746480914073,"156":0.0018527583182243225,"157":0.2523638365921682,"158":-0.03847912731002429,"159":0.02326615475573726,"160":-0.019661628707757863,"161":0.034423072918899476,"162":0.044754957459356884,"163":-0.12662924555668326,"164":-0.041121796343586065,"165":-0.03934700309566533,"166":-0.09752421401974913,"167":0.08231825727630637,"168":-0.024255239930218237,"169":-0.03812382108617088,"170":0.04072913968881693,"171":-0.04222189534270785,"172":-0.02152881517956181,"173":-0.004850406616207496,"174":0.09443748645971174,"175":-0.013992917942450637,"176":-0.024746475061906106,"177":-0.0031577743204294515,"178":-0.03020498154582264,"179":0.04619993459045132,"180":0.045771466681597484,"181":0.017680404117710036,"182":-0.03720042731968283,"183":-0.01084850406655306,"184":-0.05506043461419487,"185":-0.006830949352931252,"186":-0.11796476950839709,"187":-0.04823277399330397,"188":0.022263455510879118,"189":-0.012965853753283543,"190":-0.04334588533369213,"191":-0.01478234702048528,"192":0.010783633413740805,"193":0.07284057824735397,"194":0.02230602536368354,"195":-0.017918369568252043,"196":0.05113682068879509,"197":0.08897263767706313,"198":-0.030043081983011758,"199":-0.026704971878746403,"200":-0.023508314343802465,"201":-0.1089023409876874,"202":0.03943736182836868,"203":-0.0005621257827303246,"204":0.14051448756868348,"205":-0.05067815819503365,"206":0.006983779346834708,"207":0.014997516385334555,"208":0.015113894322203843,"209":0.020744341609953476,"210":-0.045929909528455846,"211":-0.02091439504548342,"212":0.030882310545082493,"213":0.022559079665784944,"214":-0.007126218236180479,"215":-0.030300409906754415,"216":0.059941556011252076,"217":0.006291402247684533,"218":0.03310325369650958,"219":0.0006608151954359298,"220":0.0646481975365979,"221":-0.03000614013397255,"222":-0.040947994849696634,"223":0.12838312866785054,"224":-0.02878461524233224,"225":0.008481793501240118,"226":-0.038713023790537475,"227":0.09706826787369913,"228":-0.06764910469553788,"229":0.0457551206790639,"230":-0.08181753709052082,"231":-0.040625693484177494,"232":0.022815228161803272,"233":0.012715159186034988,"234":-0.02917133413600894,"235":-0.07420399951951279,"236":0.021761330220108503,"237":-0.005131736810705235,"238":-0.01683987627955936,"239":0.0533948799867602,"240":0.029945988022617807,"241":0.044456803110200706,"242":-0.010895142459891973,"243":-0.03770628582101338,"244":0.007049880435819284,"245":0.038068647353456206,"246":-0.03146105694811725,"247":-0.03723240189490162,"248":0.10141733952263964,"249":-0.02814289039806116,"250":-0.04244022773755076,"251":0.04834653267045156,"252":-0.07995948101356497,"253":-0.00213054146367771,"254":0.017872853489674028,"255":0.028585290480994535,"256":-0.06228323049107425,"257":-0.06565178372926402,"258":-0.04359670327095766,"259":0.03195784002690407,"260":0.008332362407279005,"261":0.025490662236429925,"262":0.10679967031261203,"263":-0.09389798584164835,"264":0.019483610776876294,"265":-0.021120143539581363,"266":-0.09230278032969877,"267":0.06154284452545877,"268":-0.02564534298038847,"269":-0.012258176904969704,"270":-0.0020547868455312447,"271":0.005516799090186494,"272":0.031140139763058686,"273":0.032855092876233664,"274":-0.027725737139801615,"275":0.04060278472516765,"276":0.088215484376017,"277":0.013339435572585937,"278":0.04026822805689889,"279":-0.07033456379172386,"280":0.020168458422523888,"281":0.016222533910054612,"282":-0.017432375778933768,"283":-0.10599758111201803,"284":-0.03857006533566405,"285":0.005934375642297587,"286":-0.044096057104270614,"287":-0.021005376847027395,"288":-0.010802261168583117,"289":0.21972230371965534,"290":-0.03613861187997213,"291":-0.009198984256537176,"292":0.07710241781993793,"293":0.02979918796425182,"294":-0.047397131436039075,"295":0.013696109921833097,"296":0.10919142803958884,"297":-0.09950876840791854,"298":-0.023958631212978754,"299":-0.061460341788883106,"300":0.06510838967250397,"301":-0.025143494410882237,"302":-0.012219416797971902,"303":-0.06609503228112822,"304":0.05769646669890342,"305":-0.12554330582625015,"306":0.05179051526849829,"307":-0.054008603049455726,"308":-0.06159717178513551,"309":0.058767525716610126,"310":-0.07082644817067905,"311":-0.04001495598187143,"312":-0.09804289718947383,"313":0.046292308296918466,"314":-0.0038224943454581023,"315":-0.05346606099359607,"316":0.054267458894553346,"317":0.06806292967211584,"318":-0.01693561330629916,"319":-0.03613170303818684,"320":0.05927331289067149,"321":-0.03651972172719954,"322":0.050553179788596116,"323":-0.043422398902851635,"324":-0.0022022931122822192,"325":0.07109984112643651,"326":-0.31054918492202965,"327":-0.08597969911356888,"328":0.02856294553639908,"329":0.08032707213505784,"330":-0.016352232293700183,"331":-0.00036557438166425805,"332":0.09264352541205588,"333":-0.05708706687060141,"334":0.22899476058503915,"335":0.0028126418537637653,"336":-0.05611290960270455,"337":-0.14996809831058097,"338":-0.11929918861755848,"339":-0.1597010134124771,"340":-0.15572997355850574,"341":0.14123272019298935,"342":0.059048630868164136,"343":-0.06959468154165792,"344":0.16071964842056757,"345":0.07285522425000926,"346":-0.011663349816457447,"347":0.023731977341012695,"348":0.07180719672538405,"349":-0.09010639726009444,"350":0.10261157172318557,"351":0.004031053847453626,"352":0.05812646770433399,"353":0.10257857859734121,"354":0.1344776235512708,"355":0.048366736408469536,"356":-0.0665231718279114,"357":-0.09286504549435873,"358":0.010633090053663315,"359":-0.052022877959523976,"360":0.013575197319418471,"361":0.16283956032628585,"362":-0.12141799634931905,"363":0.002666415796812591,"364":0.22029034169572045,"365":-0.10108931970987058,"366":0.1208195684515031,"367":-0.05805755247590354,"368":-0.02885870455283467,"369":-0.05764731289823494,"370":0.018874078731473964,"371":-0.15855911131581601,"372":-0.06851745422452633,"373":-0.03045201059586209,"374":-0.015308291941438127,"375":0.12921073259232246,"376":-0.11122862544750689,"377":-0.12643972192216676,"378":-0.008013471391721125,"379":0.023678282707492195,"380":0.13857634506463404,"381":0.03684436323021999,"382":0.08921936301681532,"383":0.23488669437675105,"384":0.024407688851205298,"385":0.07768726324536301,"386":0.15605676671221874,"387":-0.16537896699406315,"388":0.15260070948457186,"389":-0.07002260829744802,"390":0.08398464726446586,"391":0.08084361595227199,"392":-0.37320920902484556,"393":0.6316193610367051,"394":0.1086779292129007,"395":-0.1305170887012578,"396":-0.1428133088487892,"397":-0.17033414183393708,"398":0.04770745043323533,"399":0.18201697958423577,"400":-0.03159578860015437,"401":-0.004001908251112302,"402":0.1712269605858911,"403":-0.061857844775595916,"404":-0.10290504351805885,"405":-0.11875279100353059,"406":-0.17039693412751045,"407":-0.11137009085655449,"408":-0.09653932713868935,"409":-0.07114593980969842,"410":-0.049973877054712165,"411":-0.03802630791213025,"412":0.01663944333558226,"413":-0.16040883224870597,"414":-0.0040620789595203315,"415":-0.08217647972608276,"416":-0.008232235086291118,"417":0.008785328890807654,"418":0.017897849950608256,"419":0.0017995162050315305,"420":-0.029007421115842313,"421":0.14113133270365716,"422":0.2567797539285728,"423":-0.10676499644074672,"424":0.017605794199423,"425":-0.035551744486942295,"426":-0.03723516004227832,"427":-0.16610872372932425,"428":0.238739538359753,"429":0.028535960117597188,"430":0.08394095859910136,"431":0.08070545822196518,"432":0.02356137643223413,"433":-0.05282471271207201,"434":0.03327787292761577,"435":0.09225332654920174,"436":0.11783529675540122,"437":-0.030876986258924377,"438":0.0010707106492976032,"439":-0.09417552148365291,"440":0.042711622929945285,"441":0.13929572835760443,"442":0.1029283880977302,"443":0.08746469457334781,"444":-0.05595154368411854,"445":0.2510381414583906,"446":-0.026073612496356344,"447":0.05317021431671238,"448":-0.008540227622036843,"449":-0.00984705721448254,"450":-0.008163196214063733,"451":-0.03780510881361378,"452":0.01038961399321894,"453":-0.04943371884365386,"454":-0.032273800732767276,"455":-0.03453008219188375,"456":-0.00921029945312537,"457":0.03596572843148736,"458":-0.012151384076076606,"459":0.1256409825543776,"460":-0.03977980732258191,"461":-0.04509387866390197,"462":-0.006841707097376144,"463":-0.03915071238549558,"464":0.1027398991517163,"465":-0.06491659579664968,"466":0.02240132202725647,"467":-0.039108228765732174,"468":-0.015442842725421953,"469":-0.02951842650221911,"470":-0.05768146986288807,"471":-0.0781830183571109,"472":-0.14328931065198985,"473":0.059919849027010835,"474":0.017720503937314433,"475":-0.03526912925969563,"476":0.1510802083593679,"477":-0.12979786473685312,"478":-0.053232778496436386,"479":-0.027253470267658054,"480":0.01676198326582462,"481":0.015512989190705541,"482":-0.020003415926016285,"483":0.004772279116284615,"484":-0.026994807756619867,"485":-0.028738447473212973,"486":0.04513998855384101,"487":-0.0387789612060272,"488":-0.013365378635735647,"489":-0.1299949855172096,"490":-0.03971489639915914,"491":-0.03746425970583875,"492":0.18686641595660045,"493":-0.023070962445003694,"494":-0.014280041233570405,"495":-0.011900924966173345,"496":-0.005536888085797333,"497":0.030816743460630243,"498":0.0869276336201847,"499":-0.046633575246479125,"500":0.011413875059676625,"501":0.07691769017381238,"502":-0.011918780041783223,"503":0.02290708754072256,"504":0.09075840140825088,"505":-0.02895264369661177,"506":0.11032024193044773,"507":0.06338958721482034,"508":-0.044275009698606246,"509":-0.04529001527665092,"510":0.07917411171185161,"511":0.16430092059347043,"512":-0.037495058801808624,"513":0.03895904299139786,"514":-0.0444143449192664,"515":-0.06275674644942794,"516":-0.039246363953252025,"517":0.004253234965328883,"518":-0.024591361604374726,"519":-0.00878845582647733,"520":0.0368949841060062,"521":0.03250701014826586,"522":-0.23073097056238426,"523":0.015599957389249838,"524":-0.07153857737896294,"525":-0.03488921864974444,"526":0.13925864124818055,"527":0.016832390106337747,"528":0.1185605308605932,"529":-0.01359808456003773,"530":0.013987813593924816,"531":-0.07785991901327743,"532":-0.05206683477809175,"533":-0.020479862679236155,"534":-0.032466915392538445,"535":-0.042280055455401803,"536":-0.2596877810177299,"537":-0.047850461111697065,"538":-0.05275577115863911,"539":0.0008487644147568844,"540":-0.15758385228841432,"541":-0.09578185364348686,"542":-0.17223030013557702,"543":0.06324557525713116,"544":0.026312149323777047,"545":0.0032358474005693737,"546":-0.07876042706575975,"547":-0.10874695936994676,"548":0.07881521293190843,"549":-0.08790116728071792,"550":0.03818005274728045,"551":-0.2099733424113516,"552":0.03525070407667558,"553":-0.2572293047549239,"554":-0.017028399970079534,"555":-0.03751337850907503,"556":-0.016792565320222302,"557":-0.19841574903329415,"558":0.0593296033183951,"559":-0.0809381497349749,"560":-0.13103102598355543,"561":0.052932513952734093,"562":-0.06664088122699272,"563":0.11529310032140241,"564":0.12660559393098064,"565":-0.05388696127437443,"566":0.05249720055294797,"567":-0.12374028058608709,"568":-0.03582855199772808,"569":0.03705075199748614,"570":-0.17268999102807434,"571":-0.0432724053630489,"572":-0.17065962542035149,"573":-0.0048986022679064845,"574":0.04543087484587691,"575":0.31321112810521085,"576":0.0038971192785750073,"577":-0.025599239939514077,"578":-0.05029801615068273,"579":-0.3032412120961233,"580":0.1247861892777808,"581":0.08435997172270533,"582":-0.0035553817221932876,"583":0.06684062300793747,"584":0.20149068587863522,"585":-0.1270792593009942,"586":-0.05967218763590259,"587":-0.18874855793562323,"588":-0.041027430752851674,"589":0.13342043393893854,"590":0.051272260294047425,"591":-0.30007854168842385,"592":0.09756410575254533,"593":0.36063528764081204,"594":-0.01594859436383753,"595":0.006252429789029477,"596":-0.07515911364933138,"597":0.21757104370258712,"598":-0.013603868606430926,"599":-0.2307882411874514,"600":-0.13012893422675892,"601":0.010001496214513742,"602":0.05349395753480471,"603":0.18402274915823438,"604":0.048029647928580006,"605":0.2719164893726061,"606":-0.1034838705458888,"607":0.034741658612041114,"608":0.080611538899437,"609":-0.07113273117422887,"610":0.05814193242659699,"611":0.04415861045013099,"612":0.0027254915750235644,"613":0.062370436568903315,"614":-0.12734033129437572,"615":0.026156144052519655,"616":-0.017841375214745145,"617":0.09620336760857469,"618":0.014373190873562121,"619":0.08604192229469936,"620":-0.10881457653788694,"621":0.0112071321132121,"622":0.0005317938049493196,"623":-0.007592324236634171,"624":-0.21622185526105753,"625":-0.04066629183671844,"626":-0.01793280106872198,"627":-0.050153588886887805,"628":-0.1491758704126164,"629":0.12385131383976189,"630":0.023269711100191975,"631":-0.05076420037497564,"632":-0.13037431586529552,"633":0.2747873059337924,"634":-0.14863992639753099,"635":0.009776727616902783,"636":0.045173239202091965,"637":-0.15518291035426285,"638":-0.11487510392861064,"639":-0.03393812447355247,"640":0.025740125743548142,"641":0.12849602080222056,"642":-0.06160438174361251,"643":-0.03252373717781401,"644":0.12686410631626346,"645":-0.10057424075729755,"646":0.10125054903904537,"647":0.1692301693505953,"648":-0.07284709424720401,"649":0.27277485083311526,"650":-0.12698744357696076,"651":0.03744880225504448,"652":0.20114651138981524,"653":0.036714949194391666,"654":-0.08016733193614388,"655":0.11709748411003165,"656":-0.2590251345966375,"657":-0.12134243829867244,"658":-0.5784919930610368,"659":0.5300272683482004,"660":-0.21557298700313912,"661":0.20741909647849796,"662":-0.2597060974519988,"663":-0.06917647861182219,"664":0.0016342997900762298,"665":0.0553104024991084,"666":0.16730292725472137,"667":0.03626235480755685,"668":0.5976769122773675,"669":0.1134152650846516,"670":-0.20914297307564053,"671":-0.1438081356750299,"672":-0.03203260558879672,"673":0.12135849748318307,"674":0.08545195572092873,"675":0.03867955440745782,"676":-0.015102341167414955,"677":-0.03474566907138495,"678":0.08698502209325171,"679":0.004117635158099476,"680":0.014764187395098716,"681":0.31011354972714084,"682":0.17651813934782343,"683":-0.016829121600975154,"684":-0.05104495993711385,"685":-0.20257546263026655,"686":0.1847896007403249,"687":-0.07673621375741256,"688":-0.047789257971111936,"689":0.011888034063716382,"690":0.12298442612933337,"691":-0.002077346414465092,"692":-0.17526406590971244,"693":-0.047532695485251464,"694":-0.10320273817451603,"695":-0.03232831706271597,"696":-0.20150976096490678,"697":-0.0688963791253763,"698":-0.18991187730047077,"699":0.04606511181943514,"700":0.09393029747669808,"701":-0.02031125690189821,"702":0.07587493145665165,"703":-0.020131027094874764,"704":0.07455215149804714,"705":-0.011960130389624799,"706":0.029207172525453504,"707":0.09811927556269816,"708":-0.0332533041312118,"709":-0.027307840047956052,"710":-0.06314146466936553,"711":0.0875291570245431,"712":-0.011492626173900724,"713":-0.01576267527658773,"714":-0.03396396230443593,"715":-0.002591721567117245,"716":0.010205132601558252,"717":-0.04627610671618394,"718":-0.024075678022422352,"719":0.05984932842080174,"720":-0.03647392910020299,"721":0.04195813096912729,"722":0.0034654847453874154,"723":0.009164389114730349,"724":-0.013420186651135283,"725":0.0290923102274742,"726":0.030087136863235768,"727":-0.04965748726590592,"728":0.03659573840496256,"729":-0.08809252145897621,"730":-0.001919895022682359,"731":-0.018881548125216575,"732":0.031809629610741984,"733":-0.004490222874775858,"734":-0.039704603329775906,"735":-0.009186606509566137,"736":-0.00590390151292619,"737":-0.0010692756337831203,"738":0.04968723042042112,"739":0.033056123306398025,"740":-0.0411032949223305,"741":0.010009141126650347,"742":0.04063344465918403,"743":-0.0011134657337685252,"744":0.08768035647537249,"745":0.05487223090859606,"746":-0.060261146290481946,"747":-0.06439748734975931,"748":0.05876049584466911,"749":0.0953352979093119,"750":0.02940763945114593,"751":-0.013387695182713343,"752":0.0015034359852891597,"753":0.0003531258473908364,"754":-0.008443364815852292,"755":0.03213158102885598,"756":-0.01147823787292679,"757":-0.03945451218888157,"758":-0.031261778158474134,"759":-0.06435934675133054,"760":0.015138467699129089,"761":-0.03112995959009937,"762":0.053446909096459216,"763":-0.027120259775872183,"764":0.02370858004303188,"765":0.019572067794495582,"766":0.08708526161479178,"767":0.09921009487562744,"768":0.014431264242107156,"769":-0.05791741537948026,"770":-0.0886310254136903,"771":0.032286325339697344,"772":-0.040543553576122056,"773":-0.06403707710730082,"774":-0.2656866219063954,"775":-0.03023634988234914,"776":-0.1395508557143852,"777":0.031362931166597344,"778":0.025780739045175884,"779":-0.1293899559861452,"780":-0.08580625924662386,"781":-0.06282213738056572,"782":0.03360167132716119,"783":-0.014227484684097708,"784":-0.052262216568914055,"785":-0.05460350204009018,"786":-0.019193244683078994,"787":0.011578768808171784,"788":0.2070347070073702,"789":-0.08643211981909457,"790":0.00016606432433532707,"791":0.10484308364193394,"792":0.04525657705553209,"793":-0.12378885098233995,"794":-0.06806177945227991,"795":0.08914939103439341,"796":-0.021000852625741355,"797":-0.03582460021485749,"798":-0.15629541455378487,"799":0.03699965151886269,"800":0.03304915556139104,"801":-0.05020254575995116,"802":0.030596471598644308,"803":-0.035359692753995794,"804":0.08343469886956982,"805":-0.02324281169362805,"806":0.02141768452988951,"807":0.06858990404918434,"808":0.13099427640412126,"809":-0.029368742479949084,"810":-0.05733497946617426,"811":-0.007510913177108293,"812":-0.06857239188032048,"813":-0.09297081337783476,"814":-0.1687188954444802,"815":-0.0035511227159045634,"816":0.13601535975440332,"817":0.1734545378027203,"818":0.13001174831154647,"819":-0.08271026820767387,"820":-0.05029649118186241,"821":-0.040414919774510956,"822":0.024394418808971797,"823":-0.08760461104499015,"824":0.03130123993821138,"825":0.0016750331912040706,"826":-0.10039778524501239,"827":0.028283257863632214,"828":-0.10991401237310201,"829":-0.01365072539251789,"830":-0.01871122292843961,"831":-0.055229954150068754,"832":0.08826103477034004,"833":-0.021459054526645246,"834":0.05575977601952868,"835":0.10548576127101683,"836":-0.22934549327703688,"837":-0.18030147632361038,"838":0.04307539894583687,"839":-0.2226497711660731,"840":-0.025122824411250286,"841":-0.24753034996059373,"842":0.033554764289449604,"843":0.15537771661031335,"844":-0.34395407041435794,"845":0.039648547470420556,"846":0.03315627418959907,"847":0.0028274806079295538,"848":-0.18744505038450351,"849":0.17402490015373878,"850":-0.057944694910703705,"851":0.09271284846191893,"852":0.148811549965522,"853":-0.16272792222980403,"854":0.2576883049154628,"855":-0.014207275042475351,"856":0.18531169098867997,"857":0.0007742006675525312,"858":-0.10372275004842121,"859":-0.05119592005749978,"860":-0.31582104786804377,"861":-0.015035892203048642,"862":-0.08756663939479112,"863":0.2528662242265566,"864":-0.03975208065939146,"865":0.17948497521898837,"866":-0.047370650995230905,"867":-0.25929136247609635,"868":0.11005497563758553,"869":-0.05630184388900362,"870":-0.01576879543788679,"871":-0.17767776330243487,"872":-0.07058906201735426,"873":-0.07948462596258545,"874":0.04425437202491234,"875":0.06510713924163447,"876":-0.06321595252892108,"877":-0.1320310323776219,"878":0.08953622110381004,"879":-0.2166515548401392,"880":0.0856837791372316,"881":-0.10550252356938078,"882":0.027359851537547383,"883":0.0722572507204921,"884":-0.10317842205026467,"885":0.12311362117273623,"886":-0.007295209849013231,"887":-0.04593251921784652,"888":-0.1475544916353343,"889":-0.022810498035331916,"890":-0.045204599894768355,"891":0.027933949206851626,"892":-0.06806927580845681,"893":0.4427439100581404,"894":-0.040952043418742756,"895":0.011539683465508644,"896":0.05088882849694088,"897":-0.001903214651085914,"898":-0.036978372774154285,"899":-0.0015998349787037505,"900":-0.023868598189112907,"901":0.02204944317808066,"902":-0.17644447800372612,"903":0.009307445195899535,"904":-0.1562368107977357,"905":0.09125865740720154,"906":0.07902478700778685,"907":-0.086185708738051,"908":0.12550620694605777,"909":0.05370733176557058,"910":-0.2526492279880487,"911":-0.16809277055358995,"912":0.28352707044635495,"913":0.03899648765293116,"914":0.0494955085330632,"915":-0.06416843832067003,"916":-0.03189304752398725,"917":-0.05216617972360686,"918":0.07023197109607313,"919":0.48521290676294826,"920":-0.15391612389519124,"921":0.008433100867858749,"922":0.01446538291459358,"923":-0.0241439180340331,"924":-0.08784941952050644,"925":-0.017465889069197913,"926":-0.15825468333235196,"927":-0.10388123849074805,"928":-0.23956698712782554,"929":0.006814605297171957,"930":-0.007512291737215367,"931":-0.03152742049316528,"932":0.006562240154476941,"933":-0.0034923990214335747,"934":-0.025065104703478426,"935":-0.026916794418796658,"936":-0.08631299190109956,"937":-0.16754492497569956,"938":-0.06779251952018445,"939":-0.02242478337555104,"940":0.12155729373626725,"941":-0.17700520551282195,"942":-0.14694946772629852,"943":0.0261969053446147,"944":0.04072062399563424,"945":-0.06962836424021168,"946":-0.6130278378418182,"947":-0.1095123071988213,"948":-0.10555776056249612,"949":-0.0030770538881253963,"950":-0.18658703539230984,"951":0.016559470947076597,"952":-0.11334331212648907,"953":0.1401625278802906,"954":0.06604915350342679,"955":0.043941302498236294,"956":0.31230724004971633,"957":0.00438155294818025,"958":-0.1001168733088256,"959":-0.07484914134213608,"960":-0.09348674713948692,"961":-0.008426971966816863,"962":-0.018515865436199805,"963":0.021436623329128095,"964":-0.017881750553876655,"965":-0.07288285628659727,"966":0.15039481622712383,"967":-0.0706402892649546,"968":-0.10535193863790364,"969":0.23495902648816616,"970":0.051612044740313626,"971":-0.03711690445490802,"972":0.11116352469911286,"973":0.03305309760989212,"974":-0.030630628374800614,"975":-0.0363443629958072,"976":-0.14276856358453102,"977":-0.016390327938937715,"978":0.022470600860502718,"979":-0.028309945746959133,"980":-0.050661919105101004,"981":0.0027327722270915323,"982":-0.05064178517600649,"983":-0.06357880992046033,"984":-0.15550980456650004,"985":0.007812305698255976,"986":-0.025348684936532116,"987":0.05490942220625535,"988":-0.06723959531023126,"989":-0.11364729456318251,"990":0.09877972785666114,"991":-0.022448979535521357,"992":0.24452830192417896,"993":-0.05839557629173084,"994":-0.004879156604883108,"995":0.0031762502838232117,"996":-0.07493729912753008,"997":0.14106243288888562,"998":-0.1204971863710948,"999":-0.006268726334875427,"1000":0.05138382573993718,"1001":-0.0559165262621569,"1002":-0.09840445326542045,"1003":-0.037915784358410545,"1004":-0.06839004611626927,"1005":0.14230907515688124,"1006":0.054422677335584334,"1007":0.02787577205691928,"1008":-0.004656665370892202,"1009":0.011557162322379135,"1010":0.007312703868738947,"1011":0.04223618672940169,"1012":0.028836602269667076,"1013":0.018483853630880284,"1014":-0.0346297727323992,"1015":-0.1917055597851339,"1016":0.027890037395098873,"1017":-0.15769788855456435,"1018":-0.006211973921263783,"1019":-0.02042101368842215,"1020":0.10361304829530632,"1021":-0.06201271667911536,"1022":0.03246194388406421,"1023":0.022903289959344448,"1024":-0.05078104799574332,"1025":0.030545321760212806,"1026":0.03594118313928187,"1027":0.07841820356801911,"1028":0.029055746446820435,"1029":-0.0596081673586518,"1030":-0.006263856904042939,"1031":-0.008029324888999108,"1032":0.028143867277340914,"1033":0.059017900325999004,"1034":-0.06967947922117027,"1035":-0.029299138362612415,"1036":-0.025719259932850742,"1037":-0.010576002917457467,"1038":0.020509684468798674,"1039":-0.10060019340891178,"1040":0.03483506949566335,"1041":0.11514212756587817,"1042":-0.05307296341503094,"1043":0.038575474468082405,"1044":-0.013749882524996523,"1045":0.006603893505596641,"1046":-0.05931385119023115,"1047":-0.08325889026308916,"1048":-0.07362010776856114,"1049":-0.027617519980780596,"1050":0.014129077950621308,"1051":-0.008718812310389278,"1052":-0.012054313172639667,"1053":-0.0007813761984486362,"1054":0.022712669199892257,"1055":0.0652811483316913,"1056":0.0297661729118706,"1057":0.01637899163188787,"1058":-0.027340581136606354,"1059":-0.045697769411602376,"1060":-0.10750986975471322,"1061":0.05318811771998527,"1062":-0.11558144080732798,"1063":0.0293035102943334,"1064":-0.12360416400866174,"1065":-0.011709776281628713,"1066":0.024721236833027786,"1067":-0.06400925715823838,"1068":-0.1667521510083119,"1069":-0.016176576276909667,"1070":0.01633624186063599,"1071":0.0652755268082295,"1072":-0.16246958299784006,"1073":0.045633370314171154,"1074":0.028659920023197383,"1075":0.16740395936264382,"1076":0.12942600753459785,"1077":0.054687735731677144,"1078":-0.035767161120926295,"1079":-0.050013672779624985,"1080":0.03788443964357639,"1081":0.02092809099669651,"1082":-0.054462364486305835,"1083":0.06489087235642517,"1084":-0.03063055653098726,"1085":-0.06982094395830857,"1086":-0.018836677832454133,"1087":0.059516232637428924,"1088":-0.03788249033034446,"1089":-0.07821175200948843,"1090":-0.06485505068452888,"1091":0.021709910161714908,"1092":0.0898313929849512,"1093":0.14597268680495062,"1094":-0.02950852526807599,"1095":0.07468634645178514,"1096":-0.03180019961025737,"1097":0.028726685705704635,"1098":-0.02374525341741999,"1099":-0.0019091667994358703,"1100":-0.1473352327644525,"1101":0.04065250944398382,"1102":-0.15558679688225124,"1103":-0.04436954429239585,"1104":0.24170753904494413,"1105":0.02076972812219562,"1106":0.06526459083033699,"1107":-0.16558526688453956,"1108":-0.12383490027098516,"1109":0.0371229343986453,"1110":-0.10799806288006716,"1111":-0.08847324308117167,"1112":-0.13677152451130242,"1113":-0.048322705870843925,"1114":-0.06892362728223952,"1115":0.13870799953142446,"1116":0.07703654226631401,"1117":-0.03755311196884025,"1118":-0.031197968153697905,"1119":0.08678414036200771,"1120":0.07399847595052647,"1121":-0.026399925180310594,"1122":-0.09854682067996376,"1123":0.038511741294330826,"1124":-0.11969720863832801,"1125":-0.09539633460465856,"1126":0.06295764576274994,"1127":0.01821353571249448,"1128":0.11261823210504107,"1129":-0.17560494035630544,"1130":-0.14737683216806607,"1131":0.04536457851632901,"1132":-0.20867756359374362,"1133":-0.1638480273624695,"1134":-0.07861378187803854,"1135":0.019960778520453228,"1136":-0.1910328044432119,"1137":-0.08114073836310375,"1138":-0.2368927769465002,"1139":0.062308501878628145,"1140":0.08546210561516299,"1141":-0.1537557306020631,"1142":0.04223875895841287,"1143":-0.06558582007926142,"1144":0.2154287685876676,"1145":0.07245377167167454,"1146":-0.008831485808519392,"1147":-0.051486338325226894,"1148":-0.13392007082253565,"1149":-0.07904796378605843,"1150":0.007573058230763886,"1151":-0.12195455792506765,"1152":-0.08175635503255693,"1153":0.23267972944369875,"1154":-0.09088572105617587,"1155":0.001505586208693029,"1156":0.020145989320485634,"1157":0.02954506161041195,"1158":0.014804610984697446,"1159":0.06766871461232893,"1160":0.030175952243578386,"1161":-0.11516697537983903,"1162":-0.006732617354260879,"1163":-0.19184444189639593,"1164":0.18190633950510393,"1165":0.046491906600638164,"1166":0.10265687132500315,"1167":-0.242789889528023,"1168":0.00833086102715829,"1169":-0.016005824754958122,"1170":0.04069246460881774,"1171":0.045006272995123754,"1172":-0.12109213679064772,"1173":0.166884664195271,"1174":0.039544191416967266,"1175":-0.2359577136476281,"1176":-0.05657426674761504,"1177":-0.09739523357708937,"1178":0.12628671377231512,"1179":-0.08209740786251324,"1180":-0.11998658171801313,"1181":0.26594984806917343,"1182":-0.0022696870693925805,"1183":-0.05858644085458446,"1184":-0.0659991754874763,"1185":-0.02652776246876874,"1186":0.1010929351317006,"1187":0.0018689079837861942,"1188":-0.08095785453308973,"1189":0.31946681815565436,"1190":-0.26511447895508594,"1191":-0.07126587993907921,"1192":-0.11987726569193485,"1193":0.006501648517745569,"1194":-0.01655288467180702,"1195":0.12174900704167312,"1196":0.07467593297066523,"1197":0.03243868378291055,"1198":-0.12003327276520412,"1199":-0.08965424264988542,"1200":-0.1578122176028277,"1201":-0.01610432940697233,"1202":-0.00801901386700877,"1203":-0.04986523891982108,"1204":-0.07624269739148545,"1205":-0.06378414054488701,"1206":0.04916980545276769,"1207":0.005520821368980213,"1208":-0.06343127269873312,"1209":-0.005551848862599632,"1210":-0.09002268632148465,"1211":-0.09863080155505208,"1212":-0.002589225908567983,"1213":-0.054359854746446584,"1214":-0.11827604531075527,"1215":0.10241507899070337,"1216":0.019968228608415683,"1217":0.050524839202329024,"1218":0.03928936151862559,"1219":-0.008695113055092954,"1220":0.0789019145275034,"1221":-0.016905305479832496,"1222":-0.02665092528583045,"1223":0.06288819056317177,"1224":-0.003953420744787299,"1225":-0.20235035899440404,"1226":-0.08666334098170826,"1227":0.048283291420569745,"1228":0.11284881188030214,"1229":-0.12326100416379647,"1230":-0.01035401252399934,"1231":0.07334548892841901,"1232":-0.11232872703964805,"1233":-0.024332744284685053,"1234":-0.19874703448614456,"1235":-0.024968987117391775,"1236":-0.06471752927630008,"1237":-0.034954206927806,"1238":-0.21067592282116512,"1239":-0.008718733949558912,"1240":-0.2115511690876417,"1241":-0.13034333602185097,"1242":0.12333162884751424,"1243":-0.00273707801073112,"1244":0.15346738761993367,"1245":-0.12879200292447032,"1246":-0.07454158133237564,"1247":-0.0285695634279168,"1248":-0.06129784943397453,"1249":-0.01734274184501981,"1250":0.1304584254332538,"1251":0.02903836049020246,"1252":0.003960487765768987,"1253":0.15860293968379524,"1254":-0.05768096453125355,"1255":0.031722110639639485,"1256":-0.08950396005693737,"1257":0.1558075376828882,"1258":0.05520160188257479,"1259":0.04866370408046749,"1260":-0.07892256618204002,"1261":-0.028597883338144753,"1262":0.01242939076331092,"1263":0.06512385438346247,"1264":0.022003682483436156,"1265":-0.04396633878421365,"1266":0.05353310760469026,"1267":0.021251379914244816,"1268":-0.01783252055109076,"1269":-0.05713109456825549,"1270":-0.03251696809885807,"1271":0.054616614835251515,"1272":-0.09480359336774874,"1273":0.10606109718153894,"1274":-0.007875731432247682,"1275":0.016253803333392314,"1276":-0.10932698906857814,"1277":-0.11826580600995186,"1278":-0.08437776153316344,"1279":-0.0776578296687943,"1280":-0.12696403998300487,"1281":0.07354697320508974,"1282":0.026893288376694798,"1283":-0.03387231614827556,"1284":0.04470168402879345,"1285":-0.024632265631221388,"1286":0.03181102706491563,"1287":-0.141273585264947,"1288":0.07400823881464351,"1289":-0.0794390352844812,"1290":0.0242724264510289,"1291":0.022751773319249838,"1292":0.09475333669990349,"1293":-0.08697052766088287,"1294":0.2862443250818679,"1295":0.005011593795819521,"1296":0.10272732455002578,"1297":-0.06918027878901047,"1298":-0.14276397210864802,"1299":-0.0855511046344725,"1300":-0.0542770860455274,"1301":-0.147149665556745,"1302":0.09246637812921879,"1303":-0.009950715353518574,"1304":-0.06667520478128847,"1305":-0.0006973670549842148,"1306":0.04714825835316928,"1307":0.10487405906371869,"1308":0.1726379614304796,"1309":-0.01122015047606353,"1310":0.0628870680175856,"1311":0.13767499721790522,"1312":0.06215683422369232,"1313":-0.16406825014236695,"1314":0.10493871019649005,"1315":-0.04771921540737236,"1316":0.009124565348826613,"1317":0.011254003629807373,"1318":0.04119038249717363,"1319":0.09875514257220463,"1320":-0.11528766149252045,"1321":0.3234603314469276,"1322":0.17092965539414345,"1323":-0.14980220252677684,"1324":0.12353883600554585,"1325":-0.02211176262401172,"1326":-0.0010526420363635917,"1327":-0.04210270997422246,"1328":-0.044627168288991964,"1329":0.01600643675490877,"1330":0.07093995378992367,"1331":-0.07079958329795022,"1332":-0.10541044883021232,"1333":0.037847386075715445,"1334":-0.09839183249307175,"1335":0.04223657861179862,"1336":-0.06356234552282339,"1337":-0.0362172628541903,"1338":-0.010091394204678373,"1339":-0.03777002639073912,"1340":-0.25169643112058926,"1341":0.060152779318581935,"1342":0.12743320274672032,"1343":-0.02062434360447115,"1344":0.02822862058656781,"1345":-0.08857174075569954,"1346":-0.004340263959135801,"1347":-0.09753361721724732,"1348":-0.10649849823854318,"1349":0.33930505367334074,"1350":-0.18069430401329822,"1351":-0.11546485241440578,"1352":-0.03522598059654969,"1353":0.07673359306475536,"1354":-0.03001947539412238,"1355":-0.23097889789934029,"1356":0.03110935067334616,"1357":-0.08422081074242042,"1358":0.04228488693345405,"1359":0.13780524149760126,"1360":0.008170100453623663,"1361":-0.13796821035912007,"1362":-0.0415305786431641,"1363":0.18425371841612712,"1364":0.17966468671458835,"1365":-0.10588381118415884,"1366":-0.10175757269558741,"1367":-0.11091534829367426,"1368":0.1749267130507966,"1369":-0.17758512248710656,"1370":-0.0649072495501938,"1371":-0.19136071600593446,"1372":-0.0222450717506769,"1373":-0.224068808484242,"1374":-0.168944241849114,"1375":0.18034301810434708,"1376":-0.04495184897897314,"1377":-0.06651656888971968,"1378":-0.14914447016043308,"1379":-0.059313963454343775,"1380":0.057009455211845514,"1381":0.06088818691892218,"1382":-0.011331152724046148,"1383":-0.07188628332505688,"1384":-0.04035378559265201,"1385":-0.12875698695716692,"1386":-0.17190738361793836,"1387":-0.03267550769008217,"1388":-0.04720810173957901,"1389":-0.13689395793448011,"1390":0.14980360490595024,"1391":-0.013935129640693407,"1392":0.1218514177381634,"1393":0.013068344190142828,"1394":0.03306743980501821,"1395":-0.1661497301656491,"1396":-0.0434105674308506,"1397":0.05025412654946883,"1398":-0.042796435686699136,"1399":0.028398625800438608,"1400":-0.032668553876717084,"1401":-0.13765952965572886,"1402":-0.14384991727640395,"1403":-0.07755469792514162,"1404":-0.1435412465264837,"1405":0.007968460011756953,"1406":-0.015727079630202437,"1407":0.14419566942819392,"1408":0.2421718571839502,"1409":-0.012637158364946575,"1410":-0.14144810622272674,"1411":0.1243775732209033,"1412":0.013398718902480086,"1413":-0.03246068127796377,"1414":0.04692135588202356,"1415":-0.06301935565985604,"1416":0.05846405467724473,"1417":-0.23137029876518508,"1418":-0.0383969363500129,"1419":-0.028783712047802976,"1420":-0.05724946618974396,"1421":-0.16786644052086946,"1422":0.14423411147993717,"1423":0.06889145037368474,"1424":-0.0773659983703307,"1425":0.20258943036833837,"1426":-0.053029276445445785,"1427":-0.06491070070830621,"1428":0.1903615484583922,"1429":-0.08429006362619408,"1430":0.4203416334077851,"1431":-0.07502734162314052,"1432":0.08136355902165254,"1433":0.021713420110642576,"1434":-0.1548634089219411,"1435":0.012061459354892423,"1436":-0.2766469599988618,"1437":-0.0685538579812914,"1438":-0.0003169221071927799,"1439":0.025684027789179144,"1440":0.09243472972373776,"1441":-0.08073277021834643,"1442":-0.024877331912400272,"1443":-0.21345850962786744,"1444":0.18967640196615032,"1445":0.1558537817236176,"1446":0.037495510566892425,"1447":0.1094301099141644,"1448":0.2563509401782105,"1449":-0.1510611303833678,"1450":-0.04970126653733724,"1451":-0.056245700366494296,"1452":-0.17543381722038418,"1453":-0.026712586341515923,"1454":0.05555275917282378,"1455":-0.208638030094808,"1456":0.15217845583543008,"1457":-0.13572235130034976,"1458":-0.020209457286097472,"1459":-0.03990893607390519,"1460":0.016507922178413487,"1461":0.14909498109745034,"1462":-0.13291233241547465,"1463":-0.04641489333800578,"1464":-0.15943330514451007,"1465":0.047776599372628716,"1466":0.032377904922931376,"1467":0.02282103027551049,"1468":-0.07770389433938538,"1469":0.05250035626761121,"1470":-0.06372546812607321,"1471":0.02482720086732806,"1472":0.12547754823557686,"1473":0.04385372008180293,"1474":0.14892675769397826,"1475":-0.015608026326647968,"1476":0.053218164590467215,"1477":0.11589737463740422,"1478":-0.00169205941142356,"1479":-0.059157909360115855,"1480":0.022818502326138676,"1481":0.013713592140147918,"1482":0.061021004976110266,"1483":0.0926971600991297,"1484":0.04891354523016808,"1485":0.07374429794770479,"1486":-0.001892697827489395,"1487":0.0492714917958832,"1488":-0.10865396540485574,"1489":-0.12316558160652073,"1490":0.019694539089742315,"1491":0.05694988004484016,"1492":0.07980628444459666,"1493":0.007533946740536493,"1494":-0.041082090751628546,"1495":-0.13035511322954074,"1496":0.04287396211361431,"1497":0.1428597584704191,"1498":0.09217529333878571,"1499":-0.07675604385238924,"1500":-0.05822838471971141,"1501":-0.0218317822630775,"1502":0.0023651448654629964,"1503":-0.041023944485881765,"1504":0.030447838321422428,"1505":0.03400820198263812,"1506":-0.03714636761741035,"1507":0.07404768729558917,"1508":0.1870609680270435,"1509":-0.09972790546689318,"1510":0.005486448491469616,"1511":0.0027508456984551627,"1512":0.0496807164877894,"1513":-0.003384136282420369,"1514":-0.23126042597159255,"1515":-0.10721394678420733,"1516":0.0506554529254785,"1517":0.005013243879201745,"1518":0.02177205658232391,"1519":0.0652894644501795,"1520":-0.0187342411904604,"1521":0.03377888886654448,"1522":0.02538120776804092,"1523":-0.039962716954239794,"1524":0.0037715514148028923,"1525":-0.020219265909130032,"1526":-0.01636150180616189,"1527":0.023556125971141973,"1528":0.06378867346911474,"1529":-0.08539447211999536,"1530":0.05058008910686347,"1531":0.008869627706588742,"1532":0.13010229187160688,"1533":-0.02743645556597351,"1534":-0.006047248994103254,"1535":-0.01971321861868876,"1536":0.007436699384135076,"1537":0.008540257575646535,"1538":0.09622287395669486,"1539":-0.09448898441726201,"1540":0.05298895919598154,"1541":0.004983411343058328,"1542":-0.10527765008650496,"1543":-0.04651371103553569,"1544":0.02283475519516758,"1545":0.035265838636240235,"1546":-0.037993288413700955,"1547":0.022004242744495153,"1548":0.09248178716291793,"1549":-0.04070095120272242,"1550":-0.03178240332657562,"1551":-0.029981427683593652,"1552":0.005907740853762482,"1553":0.015879153551948133,"1554":0.030327316048475054,"1555":-0.025735883779476162,"1556":-0.07718096054097077,"1557":-0.10518048051573886,"1558":0.047834446174740954,"1559":-0.0680113861901491,"1560":0.015627629160905543,"1561":0.1449282866619028,"1562":-0.022501822803085027,"1563":0.2069540871684856,"1564":0.021791043315942258,"1565":0.015424885135838725,"1566":-0.26001822149738985,"1567":0.0324108012669309,"1568":-0.024014473935672628,"1569":0.033519042773409224,"1570":-0.008549522227938871,"1571":-0.012176088872913953,"1572":0.009349347545067981,"1573":0.026081558461289858,"1574":0.1089872380044015,"1575":-0.01564109060185352,"1576":-0.025912459592598854,"1577":0.1146326568470861,"1578":-0.02347227084507315,"1579":0.11975146190839195,"1580":0.10033804836899411,"1581":-0.03819976458835953,"1582":0.10927647772628102,"1583":0.09048551369046999,"1584":-0.17373809212876193,"1585":-0.09225144851156224,"1586":-0.4642408310507031,"1587":0.009864659808879525,"1588":-0.07829251542636298,"1589":0.0645355435444829,"1590":-0.08325179767629103,"1591":-0.005417444830374813,"1592":-0.06607705643622211,"1593":-0.06533486618988203,"1594":0.12274292711191293,"1595":0.05945733979771354,"1596":0.434891858783802,"1597":0.012833720861697213,"1598":-0.08596653791647109,"1599":-0.012179950365968417,"1600":-0.01865491091066391,"1601":-0.07298424761930782,"1602":0.03381091923794815,"1603":-0.0041206213314205955,"1604":0.18826547506582272,"1605":0.03641581869603537,"1606":0.0379179256710068,"1607":0.054956662637881196,"1608":0.043873651678026836,"1609":0.13324166637042661,"1610":0.12314586696878138,"1611":0.00586345864742611,"1612":0.07057250788341725,"1613":-0.1927288390974114,"1614":-0.03333060952672093,"1615":-0.047303655508049075,"1616":-0.06880722069423903,"1617":0.05433723856227261,"1618":0.10101458924215803,"1619":-0.05642019439173354,"1620":-0.10267811580931906,"1621":0.1989857728605217,"1622":-0.2355240578662362,"1623":-0.005745404129750864,"1624":-0.18810844309668315,"1625":0.03232372684948104,"1626":0.011633544690056454,"1627":0.0270593016920571,"1628":-0.20073562844402945,"1629":-0.13816155493070836,"1630":0.02292339335291128,"1631":-0.0828100176628232,"1632":-0.13773730484134508,"1633":-0.0902628385862053,"1634":-0.062084877430051054,"1635":-0.030972600368561972,"1636":0.08356440507165602,"1637":-0.08759640010574504,"1638":-0.20591783158735058,"1639":-0.0712907706499472,"1640":-0.193351698349985,"1641":-0.07258373706401286,"1642":-0.04502365427505482,"1643":-0.0590442814172531,"1644":0.009486044182908592,"1645":0.03765519443659854,"1646":-0.03524434691923968,"1647":0.04231796328119797,"1648":-0.031726972998844166,"1649":-0.03857521360832851,"1650":-0.029234985517272393,"1651":-0.004672278258144221,"1652":0.13567760799053472,"1653":-0.025395798672782084,"1654":0.009578953651638784,"1655":0.07549196141770179,"1656":0.11955701914345086,"1657":-0.059620998102338646,"1658":0.03433550528852093,"1659":0.10726749152856672,"1660":-0.07900165346269895,"1661":-0.08162847180800299,"1662":-0.046333922826109555,"1663":0.017943168400683572,"1664":0.011551639693805738,"1665":-0.019973986454675564,"1666":-0.11197707911626606,"1667":-0.0590740182968213,"1668":-0.018016023811708373,"1669":-0.08424156804917447,"1670":0.14812593521611706,"1671":0.11168445876310526,"1672":0.11086798911029672,"1673":-0.1512365890272102,"1674":-0.079007873035972,"1675":0.18150164480887274,"1676":-0.15541807001746225,"1677":-0.019140472692635784,"1678":0.06436604830899477,"1679":-0.026839825087161335,"1680":0.3894559638652654,"1681":0.020276805824075286,"1682":0.09251618021539187,"1683":-0.09172048369740114,"1684":-0.13086958298285714,"1685":0.22523625078617732,"1686":0.0009065032363851531,"1687":-0.03821488977488721,"1688":-0.058537658870644826,"1689":0.028267847279414185,"1690":-0.17279488581356356,"1691":0.24017801339092557,"1692":-0.09091986103085685,"1693":0.040899762077638485,"1694":-0.13414536569809013,"1695":0.03280083885484335,"1696":0.16594589502681173,"1697":0.06772631090166421,"1698":-0.026303650151207114,"1699":0.04587897298358971,"1700":-0.14118648781822726,"1701":-0.07983832023393567,"1702":-0.024735831175534722,"1703":0.03302974888307858,"1704":0.009204041710913054,"1705":-0.06921601615811383,"1706":-0.04360195691270832,"1707":0.008786196096131366,"1708":-0.2951242704907648,"1709":-0.03510307857448274,"1710":0.09425398093208402,"1711":-0.016433708949844614,"1712":-0.042385977555183925,"1713":0.10787058285976146,"1714":-0.04724564006974094,"1715":-0.049558894383812155,"1716":0.10248607631589922,"1717":0.007391493686506252,"1718":0.09053761939239117,"1719":-0.029507648798986864,"1720":-0.03883399491081109,"1721":0.006712972744732809,"1722":-0.06928170685652854,"1723":0.11215640779470545,"1724":-0.21637051924632403,"1725":0.031483606042465126,"1726":0.0727659440535681,"1727":-0.16253790363324327,"1728":0.010857201076767369,"1729":-0.056189714106420395,"1730":0.01294839548576741,"1731":-0.13174904148519473,"1732":0.18147183360343272,"1733":0.013542635048901073,"1734":-0.06830819610038784,"1735":-0.04318609950086291,"1736":0.05487294051332695,"1737":-0.08294907580605468,"1738":0.013831833716050419,"1739":0.03321135423101303,"1740":0.04943222190501095,"1741":0.1258792508379509,"1742":-0.07166213729596364,"1743":-0.01677377206032392,"1744":0.12037823915328236,"1745":-0.0336215562257967,"1746":0.05246453193211699,"1747":-0.08723246485702008,"1748":-0.029848749824335063,"1749":0.05743784241989687,"1750":-0.1360662444337842,"1751":-0.0401356223954704,"1752":-0.028243677903457578,"1753":-0.08100484027028351,"1754":-0.08310893788136478,"1755":-0.008717228613433686,"1756":0.11179107235886039,"1757":-0.059842600929188264,"1758":-0.10057231906402535,"1759":0.08642353546198737,"1760":0.05964434075779905,"1761":0.0984548648650666,"1762":-0.05426363431256911,"1763":-0.05367903790443658,"1764":0.018610345059938204,"1765":-0.12846658483161788,"1766":-0.0816288751988313,"1767":-0.07119681527124411,"1768":0.0207444209556348,"1769":0.04525543035219878,"1770":-0.04340194710215638,"1771":-0.08082116565747831,"1772":0.10172530272972269,"1773":0.0265934445984059,"1774":-0.0665287774376818,"1775":-0.008694982781215046,"1776":-0.02310224503454895,"1777":-0.037420744994349865,"1778":0.012473797689282366,"1779":-0.12376803773909986,"1780":0.009909632086954417,"1781":0.18432107634614786,"1782":0.035894118456268234,"1783":-0.13790371289466388,"1784":-0.137972221892613,"1785":0.11243457267273381,"1786":0.03749635547512674,"1787":-0.031410241731012006,"1788":0.018477719029336773,"1789":0.02842758437057632,"1790":-0.037910410348476906,"1791":0.062474333609454695}},{"sx":1,"sy":1,"depth":1792,"w":{"0":0.016644691822064957,"1":-0.00796479215176167,"2":-0.04036440292521608,"3":0.007655141242526942,"4":0.022614406321667342,"5":-0.0034940785278023217,"6":0.01990862221943129,"7":0.0071329749228194236,"8":0.021792588025305287,"9":0.044817284884345776,"10":-0.030019246804075892,"11":0.016082525867891276,"12":0.03793383591149476,"13":-0.04392583385014801,"14":0.025229521767450396,"15":-0.010378613114474047,"16":-0.0014540048667975555,"17":-0.019404187695067267,"18":0.020260508192002518,"19":-0.014477972373092984,"20":0.014684893601636337,"21":0.02374331880607651,"22":0.0027545802979328563,"23":-0.005220080351334704,"24":0.03296620060160215,"25":-0.05124784552858856,"26":0.028325780970338662,"27":-0.00019769788486502765,"28":-0.019101142681320453,"29":0.009578840832093774,"30":0.07663874912375139,"31":-0.01651761463421335,"32":-0.0022759293704984816,"33":-0.03111537377344873,"34":-0.015057913099193654,"35":0.00968953169295065,"36":-0.010285009835654654,"37":-0.008266561919297793,"38":-0.035946811414205394,"39":-0.006158883637459468,"40":-0.023528086531855237,"41":0.013324184013965491,"42":0.013404512125452007,"43":0.011793807265176369,"44":0.00484822514870145,"45":0.00010130479066869102,"46":-0.06434595226346873,"47":-0.0088080522665834,"48":0.029487410567606995,"49":0.004493822296821945,"50":0.04697092809385059,"51":0.0082143150474417,"52":0.041185311229074664,"53":-0.056050162524027156,"54":0.03350656691193085,"55":-0.01878407133926334,"56":-0.017411636873533656,"57":0.05913567782831762,"58":-0.013656813257139605,"59":0.013207394068866356,"60":-0.04797044985315326,"61":0.027078665554787308,"62":-0.0020541816348119382,"63":-0.040358263311210694,"64":-0.033460151491190485,"65":-0.0034464464938937173,"66":0.021407454679192202,"67":-0.027820786840351077,"68":0.01850624588428688,"69":0.008027086918655767,"70":0.03618944678445609,"71":-0.057853096699112115,"72":0.00329445970239407,"73":-0.06335330997321327,"74":-0.008098610227313861,"75":-0.010657930238271841,"76":0.06365578808392028,"77":-0.05476949644585053,"78":-0.0017300056527180766,"79":-0.030594576497547942,"80":0.05273645310493074,"81":-0.028994490919281673,"82":-0.025451523308139927,"83":-0.06454143699987326,"84":-0.03180086193374046,"85":0.020095041885326712,"86":-0.06410532481916341,"87":-0.018056970287863346,"88":-0.06524187013413806,"89":-0.004941287513021478,"90":0.020280656614088937,"91":-0.015604463407613367,"92":0.0528386103152473,"93":0.0034040385481845024,"94":-0.030424000363095487,"95":0.04701316031732227,"96":0.042084429695278584,"97":-0.07022022660705045,"98":0.014302556046798176,"99":0.04728214012792197,"100":-0.05882896518497809,"101":0.00025406486986119726,"102":0.015357697609175125,"103":0.02708173620172675,"104":-0.04548528449859594,"105":0.10992156100215965,"106":0.009831815430614788,"107":0.02858256086003197,"108":-0.027893333454942652,"109":-0.01291345416826807,"110":-0.03186870583428356,"111":0.03198168416682267,"112":-0.02809979102193707,"113":-0.050053688070480565,"114":0.020391459113184886,"115":-0.008713992768398966,"116":-0.010389653450623539,"117":0.028385937637979582,"118":-0.03307638684276094,"119":0.011516704688630733,"120":-0.08035908938791426,"121":-0.033967254684243046,"122":0.014911799430462296,"123":-0.012298072470937371,"124":-0.0814838217263967,"125":-0.07767577920112363,"126":-0.025809038474488087,"127":-0.007496570128886775,"128":0.017555298300287014,"129":0.010236001126642729,"130":0.019382818256507058,"131":-0.018082029863194612,"132":-0.007504107355192558,"133":0.048403389909604085,"134":0.04221136565941017,"135":-0.0340632086605851,"136":-0.02248443193013787,"137":-0.03312024505805536,"138":-0.00985188589061324,"139":-0.01982264830981997,"140":-0.0006340265907387546,"141":-0.03153266452455885,"142":-0.009467438104613002,"143":0.022673324796721725,"144":0.013672544833302696,"145":0.05209174466071001,"146":0.002860211469703486,"147":0.05206541395238807,"148":0.05087995778020999,"149":0.012307359128206746,"150":-0.0018571491593135276,"151":-0.030213389291591994,"152":-0.040494373763443274,"153":0.033556969370413324,"154":-0.07991746807263575,"155":-0.07157749723168623,"156":0.0038616406636140213,"157":-0.030636309696306964,"158":0.027149261122987947,"159":0.0004855778440127847,"160":0.03052035247112633,"161":-0.04084893100193881,"162":-0.026973443796970052,"163":-0.054138205956258276,"164":0.007886627820904346,"165":-0.05144290701412642,"166":-0.012066271026137696,"167":0.01893860283674467,"168":0.014384954837497129,"169":-0.01555016621611504,"170":0.025710384035238322,"171":0.041689065873239076,"172":-0.029504195607091336,"173":0.03757294694620029,"174":-0.012014614774952644,"175":-0.050223694848922876,"176":0.018785899279300085,"177":-0.005932573917838993,"178":-0.02294071144596739,"179":0.026192971846215777,"180":-0.004649075419192149,"181":0.019506434942789343,"182":-0.03357625267910046,"183":-0.023387609399161857,"184":-0.02573321011949993,"185":0.010960520582645239,"186":-0.07766512697208854,"187":-0.013748590619644355,"188":-0.055307072191661866,"189":-0.05123293763028286,"190":0.022620755775001323,"191":0.028781532771391647,"192":0.01204917623735174,"193":0.010284690778028757,"194":-0.012580783128168608,"195":0.01780417077591904,"196":-0.021606935177453348,"197":0.0534095358446732,"198":-0.04705039137485808,"199":-0.010265993247050197,"200":-0.04936050672912825,"201":-0.004559076796837794,"202":-0.003915289828611288,"203":0.008736403042283548,"204":0.012034380515420185,"205":0.004031437258107865,"206":0.011914656867566398,"207":0.011869417947638995,"208":-0.009169435476237485,"209":-0.04208198406828942,"210":-0.02590088844350329,"211":-0.01301409761803052,"212":0.04322390337545354,"213":-0.013366975295381014,"214":0.06599900543210961,"215":-0.003979145376281387,"216":0.057565400676206385,"217":-0.0038460316273770663,"218":-0.04292862330667903,"219":-0.00899493828958681,"220":0.020118256920986163,"221":-0.02858809848050992,"222":0.027757119165057555,"223":-0.028243996393479846,"224":0.0006400222368645901,"225":0.01250257708996322,"226":0.0193278745076885,"227":0.02500120410699105,"228":-0.013219446116322245,"229":0.028571908978342598,"230":-0.02870255102671278,"231":-0.01626769067554815,"232":0.014856404458297279,"233":-0.0188761109501704,"234":-0.054814176820802724,"235":-0.0015613779507157514,"236":0.006735636737987178,"237":-0.006553026053272156,"238":-0.012298279248231448,"239":-0.016681978718102917,"240":0.01203462252678338,"241":0.013079963402824062,"242":0.03753637166065762,"243":0.0004909545267783483,"244":0.013766047029602295,"245":0.0037518658577650834,"246":-0.008422570671734927,"247":-0.04704235894716299,"248":0.052239021200024806,"249":-0.0005355131606638962,"250":0.027433466583219043,"251":-0.002107639088416338,"252":-0.02022636385789575,"253":0.019667769556979745,"254":0.01172678705434376,"255":0.04073471466397072,"256":-0.02150262786802978,"257":0.025229514070158682,"258":-0.018802757948728537,"259":0.0003835740226095924,"260":-0.014426636063495488,"261":0.0016764921286104141,"262":0.036670939392777886,"263":-0.04878468612109658,"264":-0.00041979976687504334,"265":0.0007024447822392146,"266":-0.04113049034586631,"267":0.000682404436958768,"268":-0.09006251252676144,"269":-0.015377651135207785,"270":0.06420064045658393,"271":-0.0074951642318177,"272":0.03431555835087503,"273":-0.03506923984991917,"274":-0.008415725794714547,"275":0.041224497056830525,"276":0.06270342648488865,"277":0.021529626663971513,"278":0.05530065268487128,"279":0.045944872995800724,"280":-0.006407157888976214,"281":0.03959465635310963,"282":-0.055963748008736144,"283":-0.01580805533982888,"284":-0.03218176381401298,"285":-0.033639784259009355,"286":-0.015704865345665096,"287":0.04153851337360066,"288":-0.0007158587252980189,"289":0.06895661116563563,"290":-0.013355884070032548,"291":-0.019877148228710385,"292":0.007937706312680192,"293":-0.017327651068243827,"294":-0.016380332035103935,"295":0.011751697503393154,"296":0.053769103965520655,"297":-0.01082560041373102,"298":-0.04288717448139005,"299":0.001310612284181935,"300":-0.02150850032624499,"301":-0.026548833097586415,"302":-0.066984565902341,"303":0.007574228381625855,"304":0.03530720489006808,"305":-0.0769426124124053,"306":0.009831530806455189,"307":-0.02235462626228628,"308":-0.05161774359323817,"309":0.050503402681191606,"310":-0.02526765241331075,"311":-0.01801527516119766,"312":0.019911196277380843,"313":0.04031356953997977,"314":0.0487504972684008,"315":-0.02818921650006796,"316":-0.011374898795862145,"317":0.03175330930470074,"318":-0.019316002024736746,"319":-0.019635091707744665,"320":-0.009333390808644012,"321":-0.053662355848799345,"322":0.036380507134888676,"323":-0.04910307983656728,"324":-0.04595122781884543,"325":0.02902689001465683,"326":-0.12932532426512933,"327":-0.06015622612612696,"328":-0.058562046437920116,"329":0.013642331475840572,"330":-0.051288808723243304,"331":0.02312104247229564,"332":0.07638206540630776,"333":0.009861576454538211,"334":0.08804999092153878,"335":0.008000041173070028,"336":-0.03208868314002955,"337":-0.02572230962973534,"338":-0.03206672875191546,"339":-0.06780464253039623,"340":-0.09036645878099717,"341":0.046341428812804966,"342":0.0012891343029369422,"343":0.0035065722181576832,"344":0.05352331309569548,"345":0.10293028299629428,"346":0.0029350998345861303,"347":0.033104843956291874,"348":-0.030545366003109718,"349":-0.013784138439686839,"350":-0.026730023229318726,"351":-0.022410642305011923,"352":0.012433372765632554,"353":0.0303661121955412,"354":-0.0006805077419408665,"355":-0.01586628852885194,"356":-0.025833873176532646,"357":-0.005879166642594383,"358":0.00847804082380981,"359":-0.0568383472254798,"360":0.05903511971356101,"361":-0.04656681136337689,"362":-0.044720710554827,"363":0.00495279196587185,"364":0.08931230703915928,"365":-0.036129887948905585,"366":0.0870559367757186,"367":-0.03549918730823445,"368":-0.0156439947479764,"369":-0.04226123035463353,"370":-0.09194945251252903,"371":-0.08948597821807165,"372":-0.04096092848165518,"373":-0.013480098131592837,"374":0.001094713568570529,"375":0.08030098968970657,"376":-0.06609986730229457,"377":-0.03838230726990138,"378":0.05918956016998572,"379":-0.0426012393488065,"380":0.12402606198637596,"381":0.00109989990974609,"382":0.00880117849618148,"383":0.10394295691029372,"384":0.006442781577384786,"385":-0.05565413335398135,"386":0.09482851012265618,"387":-0.0064373074813391445,"388":0.042080325440396436,"389":-0.024496432578782458,"390":0.000920022563805323,"391":0.04204049104212605,"392":-0.09737149803320937,"393":0.2171159881168171,"394":0.05177296186942617,"395":-0.01661745934824995,"396":-0.03997598045061387,"397":-0.07170812382246664,"398":-0.03954723565258885,"399":0.0648710848975833,"400":-0.011288564993461246,"401":-0.027666293456502313,"402":0.048451959339086796,"403":-0.016404094911006525,"404":-0.09616215308408294,"405":-0.07364501160853591,"406":-0.08376401649122654,"407":-0.032033674153128876,"408":0.0032316547617218766,"409":-0.04738668838316974,"410":-0.041217177550090044,"411":-0.06579649574108733,"412":0.042872620102175914,"413":-0.07517224300972852,"414":-0.02275981583838568,"415":-0.03531476131619043,"416":-0.017556338457915873,"417":0.04803864768012201,"418":-0.007495942966582499,"419":-0.08064336871478847,"420":0.05816141161750133,"421":-0.007271589375949119,"422":0.06515957022327683,"423":-0.039028866618346966,"424":0.01101820983845805,"425":-0.028487323527240253,"426":-0.03264875929893608,"427":-0.1438067101031795,"428":0.04236783059771943,"429":-0.02495832023173495,"430":-0.02967056117854819,"431":-0.00905164858954033,"432":0.0313444527434576,"433":-0.03695391208202102,"434":-0.042393715189744975,"435":0.02396786474370608,"436":0.028724180115545145,"437":-0.02502310091307154,"438":0.038795849255224446,"439":-0.054081080675883665,"440":-0.04720394181562614,"441":0.09942401514379767,"442":0.05827127074298557,"443":0.03097053120853151,"444":-0.05190938683512484,"445":0.13954828147397022,"446":0.004284394946651341,"447":0.06591474570754742,"448":0.01595109935642567,"449":-0.050703881733433515,"450":-0.08913254345100761,"451":-0.052616887184035524,"452":-0.05385194969440658,"453":0.006026706905787334,"454":0.0013795076439993372,"455":0.027653889892872773,"456":-0.05668968678607845,"457":-0.05655838380360317,"458":0.04987449090240922,"459":0.02184141348736669,"460":-0.05266506176854359,"461":-0.03994522662684275,"462":-0.009348798676775728,"463":0.011695296159288642,"464":0.020296428657891778,"465":-0.010888236985331591,"466":0.0762787890435066,"467":-0.03960684799983581,"468":-0.00791992649348944,"469":-0.03685796262364162,"470":-0.05807232203638311,"471":-0.010313729776732389,"472":-0.009514663464016233,"473":0.019782034494002367,"474":0.013069577838306003,"475":0.011573239926788093,"476":-0.03416739746787393,"477":-0.07454557113406021,"478":-0.061088741151480615,"479":0.022536103962295526,"480":-0.002632862070700449,"481":0.0406963139047081,"482":0.0002232137544662726,"483":0.0313681026907575,"484":0.010966177198465361,"485":-0.003967941281678433,"486":-0.01606136688428642,"487":-0.029770907494343513,"488":-0.011663637877642309,"489":-0.04164603174523415,"490":-0.014756831864222343,"491":-0.054519742996245416,"492":0.002216622086562116,"493":0.004686792757203903,"494":-0.019897287223828157,"495":-0.014103559313354587,"496":-0.015021775131031976,"497":-0.008642396549384358,"498":0.015557442248143271,"499":-0.010322592312043766,"500":0.020606628018055295,"501":0.03016214373814816,"502":0.01942967494636852,"503":0.024969585397805544,"504":0.0032258692667383195,"505":0.005985086682507089,"506":0.0365164077417185,"507":-0.011929385897829317,"508":-0.0917761918294437,"509":-0.05266960761574529,"510":0.008071584007426138,"511":0.09786707153484214,"512":-0.043956476174044155,"513":0.01261175158438755,"514":0.021381585866714903,"515":-0.0018786184663191154,"516":0.03698721157289566,"517":-0.0005585501819644535,"518":0.00017434917525416567,"519":0.0000529004992929837,"520":0.0013067896307669493,"521":0.017070672639004934,"522":-0.07439917191591164,"523":0.006179469032494298,"524":0.017730703755925444,"525":0.024055960482947635,"526":0.028267008461337232,"527":0.05294600828276556,"528":0.019186993497843762,"529":-0.0026701356993991386,"530":-0.013980344311262195,"531":0.0022943763375192785,"532":-0.011407933282853635,"533":-0.04409510022761828,"534":-0.03878391708352585,"535":-0.047369064747257904,"536":-0.10128120695598382,"537":0.011457203428567193,"538":0.01831918592362156,"539":0.03860848898161442,"540":-0.10093256188503573,"541":-0.045697093134463684,"542":-0.030276243964085806,"543":0.01211021352694097,"544":0.054470961667950256,"545":0.02916910946248248,"546":-0.12109449090962103,"547":-0.00798040082098803,"548":-0.024569872097132205,"549":-0.009571967054597792,"550":0.00823721212994213,"551":-0.09018348298899331,"552":0.03245396577577549,"553":-0.07402574381029528,"554":-0.10467587556909085,"555":0.09368865011074314,"556":-0.012450992599166233,"557":-0.053083160422351075,"558":0.06546284141841571,"559":0.024363607514596968,"560":-0.04251089758563119,"561":-0.017910571482747904,"562":0.0898866826776124,"563":0.05305491634209522,"564":0.0998967681522698,"565":0.01784650483619558,"566":0.10193988845920533,"567":-0.13920246298071587,"568":0.06362099200962505,"569":0.0404928337034115,"570":-0.07600730575076446,"571":-0.035907599584442694,"572":-0.1243363117241863,"573":-0.01840622207284241,"574":0.018618770960407205,"575":0.04464101089567938,"576":0.06271896011984159,"577":-0.005313036602436422,"578":-0.016973886817315344,"579":-0.06693488368500912,"580":0.035434407931343476,"581":0.032627272414027096,"582":0.03465960431849853,"583":0.06830828169238354,"584":0.07095409437708981,"585":-0.09332822323399431,"586":-0.08195737876547551,"587":-0.05097677890576033,"588":-0.03562125917307124,"589":0.01764712036860907,"590":0.04548580353954272,"591":-0.16552911016549113,"592":0.013715059579110851,"593":0.07326735363775405,"594":0.021240725416204094,"595":-0.03523534740648487,"596":-0.08629396342722177,"597":0.018355301393905645,"598":-0.08690065035339439,"599":-0.07492810136414782,"600":-0.0542345125405497,"601":-0.006724470173572193,"602":0.016165348562507623,"603":-0.02060717716692576,"604":0.016782481296720855,"605":0.11086970018744163,"606":-0.023506368260280224,"607":0.05104904926664824,"608":0.005540307409257966,"609":-0.039750755404956005,"610":0.011150335094507488,"611":0.04783810264576744,"612":-0.0023196372822044064,"613":0.021611933839681987,"614":-0.012478292974816677,"615":-0.01421134044963518,"616":0.005533168601443597,"617":0.02423945671040736,"618":0.03608261357069904,"619":0.0028744100923333224,"620":-0.01950514240438756,"621":0.008849833088604256,"622":-0.0041955357812187705,"623":0.03539169778296911,"624":-0.1415571441369583,"625":-0.02717529490207731,"626":0.030444903120317345,"627":-0.006354434262451478,"628":0.05468362716827232,"629":0.05323222158501969,"630":0.0626668314143292,"631":-0.02635932444823081,"632":0.04324032158967442,"633":0.12168740079153585,"634":-0.03165200527425847,"635":-0.04232497655282041,"636":-0.06998266891381054,"637":-0.08500797259125109,"638":0.011916568166706002,"639":0.03814529571460888,"640":0.0010841282046637724,"641":0.048265895814718705,"642":-0.059433213421048806,"643":-0.030122123535070836,"644":0.0645080713321541,"645":-0.008009996980213024,"646":0.01647130949215544,"647":0.0189776291299739,"648":0.01411091666832218,"649":0.03680014376703127,"650":-0.10206084061520931,"651":0.01810137144059727,"652":0.03162159235972446,"653":0.020160675852103932,"654":-0.0460601075870906,"655":-0.013839974274356518,"656":-0.07580094242208077,"657":-0.08191158820115717,"658":-0.1766071172603096,"659":0.15802401776921077,"660":-0.10378026923711714,"661":0.13917631787575205,"662":-0.06252690650318496,"663":0.02563441242657654,"664":-0.012778832575317487,"665":-0.01065356363273222,"666":0.02833627404435659,"667":0.07252993626550662,"668":0.26085754459168875,"669":-0.014468254250649541,"670":-0.06356163158260479,"671":-0.1514896025551649,"672":0.03601866282605384,"673":0.056839581649460125,"674":0.07088081675785426,"675":0.04971631434866303,"676":-0.05567772280594107,"677":-0.00023306958583741208,"678":-0.022326289606092755,"679":0.008624117310533952,"680":-0.004761231879622026,"681":0.06178959227291655,"682":0.020415681210405556,"683":0.01758623987634046,"684":0.014249074938211292,"685":-0.01634255837096773,"686":0.09660837314055915,"687":-0.05184263832420319,"688":-0.07775406571925852,"689":0.015128092296056226,"690":0.038119860370540264,"691":-0.008488637346599373,"692":-0.0658537326686717,"693":-0.01710301261902759,"694":-0.030359147803409346,"695":-0.01774672802370784,"696":-0.09105413903226167,"697":-0.019023220273031202,"698":-0.011322026599138026,"699":-0.021403352637241725,"700":-0.01000527374207499,"701":-0.07817168346163982,"702":-0.016325544929097227,"703":-0.012900893575252535,"704":-0.0009276240382518062,"705":0.021354691254137304,"706":0.04645348346062642,"707":0.03688918941855991,"708":-0.011753389729989296,"709":-0.05838866302729658,"710":-0.009918676731997958,"711":0.0058523259956777636,"712":0.004745013626620441,"713":-0.040043158177237394,"714":-0.03932933181372385,"715":-0.011154372908268673,"716":-0.009768313158322495,"717":-0.02021052854845258,"718":-0.04720039227050596,"719":0.033977747103853574,"720":-0.007777698677489881,"721":-0.01686896456781516,"722":-0.04207156593200071,"723":-0.0029773923444974108,"724":-0.0010720446409312647,"725":-0.030427802339994325,"726":0.020500239200803103,"727":0.035335807870378856,"728":0.045798799898465636,"729":0.0023784027997296522,"730":0.021401649021725158,"731":-0.022878619131819454,"732":0.05667087167972718,"733":0.0036269105354728576,"734":0.006133018942280058,"735":0.049150785461448056,"736":0.01032109784422294,"737":-0.006361210341666928,"738":0.02283916286103594,"739":-0.017183495383004423,"740":0.006771851968138967,"741":0.019966365909509176,"742":0.0021444700648405013,"743":0.040161450017389494,"744":0.0027528593666370613,"745":-0.01466977483695866,"746":-0.03710804227365966,"747":-0.07932533268606005,"748":-0.02294147481101071,"749":0.01749464841647754,"750":-0.0022979759776524263,"751":-0.03807627905985148,"752":0.012670831523172157,"753":-0.008444115020072631,"754":0.02155731938234156,"755":0.0068386860114643495,"756":-0.005352825687144223,"757":-0.02270526213560644,"758":-0.011885455402001558,"759":0.03502327668715378,"760":0.026004684799607238,"761":0.013637918016638677,"762":0.03887759010600447,"763":0.024732374007693892,"764":0.01675775453420643,"765":-0.011674783254317771,"766":0.04116114261247505,"767":0.05844840416491396,"768":-0.00023674478405800528,"769":-0.0340742732628069,"770":-0.006815877499562505,"771":0.07734454242648621,"772":-0.030863031874571952,"773":0.002972658813867348,"774":-0.023970905789583403,"775":-0.02439852829080775,"776":-0.03575127546013604,"777":-0.009493634249304068,"778":0.026253104145728682,"779":-0.023196803400633823,"780":0.02348647003222795,"781":-0.021223600055172855,"782":0.03291526848674215,"783":0.030208409650339947,"784":-0.02835097461174115,"785":-0.031573579970624516,"786":-0.05771450655962967,"787":0.004753737617737944,"788":0.035669892017462713,"789":-0.004168746739647337,"790":0.0026610671496024173,"791":0.06571427740838588,"792":0.025017715261943876,"793":-0.057563302416690824,"794":0.030558255225838882,"795":0.022434838272652295,"796":0.05481037814448488,"797":0.02390135069458772,"798":-0.04198453767516311,"799":0.0090573932038132,"800":-0.012238199540966525,"801":0.01801093807368967,"802":0.03205705537103352,"803":-0.029689426626478332,"804":0.03375421385601,"805":-0.022994995951538182,"806":-0.005148505380565098,"807":0.08030667410551988,"808":0.03182108825976904,"809":-0.01989582841594672,"810":-0.00497851689603468,"811":-0.04522315764355589,"812":-0.025600985149737746,"813":-0.04266178633012638,"814":-0.007904285950688997,"815":-0.012946045523346954,"816":0.1329962052204793,"817":0.013485395164995266,"818":0.04838037401258368,"819":-0.005976607910379723,"820":-0.009605392900106542,"821":-0.06814768892021619,"822":0.004611713459846569,"823":0.025536441975425584,"824":-0.004016208864135129,"825":0.007560778490877385,"826":-0.022770668111224312,"827":0.10377997937599028,"828":-0.06156943291332289,"829":-0.005210093348213004,"830":-0.011826292243172592,"831":0.01472389689066623,"832":0.0315323864831175,"833":-0.05729041527688094,"834":0.020541086515987378,"835":0.003433302788385492,"836":-0.14719880344233577,"837":-0.06745052846320036,"838":-0.030221542965845206,"839":-0.08105268110944067,"840":-0.02571846987279294,"841":-0.04852222714770226,"842":0.09988262212601881,"843":0.015999424006418895,"844":-0.19080067378553925,"845":-0.021773669790991684,"846":0.07134376250094997,"847":-0.033681586688537005,"848":-0.094822094439247,"849":-0.008180494195694103,"850":-0.06830578958899731,"851":0.08918600377256053,"852":0.11101224968364391,"853":-0.031106395809746768,"854":0.15970788566124872,"855":0.0480343832372958,"856":0.06068203585278282,"857":0.013373437821442968,"858":-0.018550976368478453,"859":-0.017652703181434172,"860":-0.11328194248647656,"861":-0.02640643179917269,"862":-0.045936754414827835,"863":0.12609169676828327,"864":-0.04100388664710198,"865":0.0617169158484499,"866":-0.0254929803181014,"867":-0.04955042393567604,"868":0.10313719673099311,"869":-0.017088997638090297,"870":-0.06083486223671806,"871":-0.04819736661336281,"872":0.03432830797765422,"873":-0.051554716987190385,"874":0.043013442132974776,"875":-0.0021326814037482007,"876":0.03980877772687673,"877":-0.03660781824286492,"878":-0.014874117686486433,