{"layers":[{"out_depth":2,"out_sx":7,"out_sy":6,"layer_type":"input"},{"sx":4,"sy":4,"stride":1,"in_depth":2,"out_depth":32,"out_sx":4,"out_sy":3,"layer_type":"conv","l1_decay_mul":0,"l2_decay_mul":1,"pad":0,"filters":[{"sx":4,"sy":4,"depth":2,"w":{"0":-0.2757194712844248,"1":-0.3345715258925774,"2":-0.3557053928566708,"3":0.33194560208945345,"4":0.5355172908579816,"5":0.323714325710588,"6":1.2670193486370493,"7":0.07765401919423118,"8":-0.11325550661215544,"9":0.24018719566663896,"10":-0.304517441892821,"11":0.3752529575572221,"12":-0.20431502836895446,"13":0.317202024579756,"14":0.15539289775004553,"15":-0.2310396987850031,"16":0.012419849003146709,"17":-0.2212648369744543,"18":-0.15830411147544596,"19":-1.2258596103033905,"20":0.02607264488727788,"21":0.6485200917390257,"22":-0.03768459754447558,"23":0.03991450651726822,"24":1.4848265188014413,"25":0.2966398342003143,"26":-0.5501080424427123,"27":-0.3512863982161685,"28":0.497057818926937,"29":-0.5667243887523529,"30":0.3800330334967524,"31":0.42789049434611504}},{"sx":4,"sy":4,"depth":2,"w":{"0":-0.6918655957326117,"1":-0.5709031176772001,"2":-0.056994095101947834,"3":-0.21696046690945225,"4":-0.34117790732832887,"5":-0.5715076870888224,"6":1.0792188153818951,"7":-1.0380573184235757,"8":0.11095213975188122,"9":1.227646809706437,"10":-0.9136208486195617,"11":0.5700690505957213,"12":0.021041040456726494,"13":-0.09883536157974775,"14":-0.22132224994210312,"15":-0.07818879926442962,"16":-0.24799015351940953,"17":-0.1576835053566662,"18":-0.3253418019792014,"19":0.33064344614564517,"20":-0.11926949410570621,"21":0.435386461146845,"22":0.3468144473091926,"23":0.34712129139591613,"24":-0.4291678153271183,"25":-0.6820278194140454,"26":-0.0974293261218185,"27":0.6863283281931991,"28":0.08669883440002667,"29":-0.867665724077247,"30":0.08500838167759366,"31":0.9238731534510883}},{"sx":4,"sy":4,"depth":2,"w":{"0":1.1302426346882837,"1":0.16822787203637654,"2":0.13606859158605544,"3":-0.939361457011174,"4":0.13633742296393986,"5":0.11804050711490313,"6":-0.662161903892861,"7":1.2025569052542195,"8":0.3369413759518687,"9":-0.47266860560818197,"10":0.3123469408360168,"11":0.3550103229039093,"12":0.13889468250002382,"13":0.8748456791742164,"14":0.47305577790254905,"15":0.6297831451954968,"16":1.4723519083128669,"17":0.5386159599293799,"18":0.11536837517634357,"19":0.10583299150167254,"20":-0.24277728675453067,"21":-0.08500502466079195,"22":-0.05661360896434195,"23":0.39742809384213623,"24":-0.0957566091883376,"25":0.08103850899924774,"26":0.5954224866847109,"27":0.3319459073786302,"28":0.9476074812307255,"29":0.12695361112591347,"30":0.029829849780246265,"31":0.5250647976825905}},{"sx":4,"sy":4,"depth":2,"w":{"0":0.22203579591225342,"1":2.204913301817308,"2":0.10060663513474795,"3":-0.2264752739883832,"4":-0.11815175470760433,"5":0.34266687430126946,"6":-0.37498467226044785,"7":-0.15871337991903056,"8":0.27595919734005114,"9":0.4663589945073223,"10":0.09706351658513226,"11":0.7094632919413412,"12":-0.2181288536843781,"13":-0.21758296688692028,"14":0.05450040180392254,"15":0.2547548921509671,"16":-0.11496859171095161,"17":0.04569211988985452,"18":-0.36647030881964215,"19":0.12577195604549893,"20":-0.05177898701964215,"21":-2.1071649597197744,"22":0.27745373246883615,"23":-0.15174897426598208,"24":-2.703409185377069,"25":0.33028729416361036,"26":0.8138326547980288,"27":0.2910750037615068,"28":-0.6945583164177301,"29":0.4850684253416048,"30":0.10118891854141909,"31":-0.8854053041629749}},{"sx":4,"sy":4,"depth":2,"w":{"0":0.5910567551193676,"1":-0.2146842270109848,"2":-0.3128176408291009,"3":-0.05200044379252438,"4":-0.00354256714949136,"5":2.499073711782585,"6":-0.1301832996732085,"7":-0.0931708257051745,"8":2.63689110080192,"9":-0.23894431345550204,"10":-0.042408403840000185,"11":0.12746160004041632,"12":-0.23775466090487313,"13":0.047254228231559246,"14":-0.3085047362141899,"15":1.3842852269898633,"16":0.06843362203511448,"17":-0.3400444655455856,"18":0.33580093352360957,"19":-0.02842984426130735,"20":-0.2646702273943786,"21":0.1528616110739737,"22":0.09496448148011835,"23":-0.058581822796609666,"24":0.2856742329011631,"25":-0.23862699112852553,"26":0.07465479626849501,"27":0.015063387044437507,"28":-2.4685786522841844,"29":-0.3711953586122815,"30":-0.29003000664038586,"31":0.32507800427875977}},{"sx":4,"sy":4,"depth":2,"w":{"0":-1.488824084585245,"1":-0.03799956282241052,"2":-0.1018553786461673,"3":0.11517309196059357,"4":0.1700642231642484,"5":-0.5724937427312554,"6":0.5092938336508767,"7":0.8547912038694232,"8":0.39444380911355775,"9":0.6512534073316396,"10":0.4417846534689929,"11":0.36696393256006576,"12":-0.22229676083440228,"13":-0.292099165307232,"14":-0.31630919704351146,"15":0.17862693932054874,"16":0.17509972436736215,"17":-0.2981081126709831,"18":-0.24859249579524703,"19":0.1371865586068779,"20":0.8560156009495886,"21":0.4131783519242306,"22":0.4294057191689704,"23":0.27925625566955425,"24":-0.5097923674910022,"25":-0.08346011852808789,"26":-0.1853806362308803,"27":0.12409830149237604,"28":0.7675058469236825,"29":-0.4462724820150572,"30":-0.4758848034877903,"31":-0.26722137235828936}},{"sx":4,"sy":4,"depth":2,"w":{"0":0.18657108989453558,"1":-0.43333804931514697,"2":-0.12316148348267826,"3":0.03166490481359974,"4":-0.4294169986779138,"5":-0.6870911387469493,"6":-1.7082594573350465,"7":-0.746245555932177,"8":1.1309213326547878,"9":-2.2333304725611955,"10":1.157063104925163,"11":0.6364397293887907,"12":0.10932030268496094,"13":-0.5084320776213554,"14":0.13686848611192776,"15":0.4386495043219876,"16":-0.23924434192014501,"17":1.4013394446300678,"18":0.7526702619346858,"19":-0.8881928894879189,"20":0.04871500744794282,"21":0.5806899375424616,"22":0.38584324862072955,"23":0.2277081748911734,"24":0.09221580656319671,"25":0.31512791512247845,"26":0.018500140539876787,"27":-0.018489551972525123,"28":-0.14564875844301473,"29":0.04340266317455562,"30":0.19233951080940784,"31":-0.22372412536219302}},{"sx":4,"sy":4,"depth":2,"w":{"0":2.2314159234892963,"1":0.07699419751278289,"2":-0.7486810211186893,"3":-0.0037742481645834263,"4":-0.5229544372017635,"5":-0.22304243306531027,"6":-0.6241447411222767,"7":2.9167843337536823,"8":-0.26522383881468653,"9":-0.3502470294576341,"10":1.5059414095747203,"11":0.016002164090432522,"12":-0.457854332692265,"13":-0.16274501335954408,"14":-0.0839621561572349,"15":-0.09068019930932579,"16":-0.18647306621799922,"17":-0.04433439624332614,"18":-0.11208324103043919,"19":0.003985970172712595,"20":-2.0135505194036862,"21":-0.014181127359511117,"22":-0.32532446467861337,"23":-0.08059200255534511,"24":0.6403381627299276,"25":0.042701938552555115,"26":0.9797260063584506,"27":0.7739239745726121,"28":0.3568715652901686,"29":0.08830479431726715,"30":-1.7197111461455146,"31":-0.07652001157151476}},{"sx":4,"sy":4,"depth":2,"w":{"0":0.5989132364368298,"1":-0.13217700713099717,"2":0.11953306152227046,"3":-0.3075929918940603,"4":-0.3026303349789186,"5":0.040444568619392184,"6":1.0468484441456196,"7":-0.3126669259719021,"8":0.5214603975151946,"9":1.058149140285508,"10":0.5142857875498967,"11":0.0060327741168439,"12":-0.32878131804898336,"13":-0.36459230777731977,"14":-0.08986648192726403,"15":0.1257196133503349,"16":-0.4101563180705577,"17":-0.5295169409980625,"18":-0.2816447851928442,"19":-0.47535297653905045,"20":-0.7800387981424011,"21":-0.8276594038618207,"22":-0.6905747729785677,"23":-0.9468976010960568,"24":0.3623979547625426,"25":1.8987819162340576,"26":0.6475957737065334,"27":0.3515358188593485,"28":-0.21383699080418958,"29":-0.8051252904117003,"30":0.3489088190259325,"31":0.018000994002087396}},{"sx":4,"sy":4,"depth":2,"w":{"0":0.5023242590646512,"1":0.4987046664744464,"2":0.14079310350244464,"3":-1.3585463339970036,"4":0.4629350748276799,"5":0.7288968048862895,"6":-0.027538020343036096,"7":-0.3808424806723425,"8":-0.48314234095664377,"9":-0.15526629036546644,"10":0.1579706459857566,"11":0.07981174470650805,"12":0.5909410407926924,"13":-1.9970187115871068,"14":0.9909726372941738,"15":-0.09058144248549219,"16":-1.1332555180986892,"17":1.2874170973362382,"18":0.5640461785115514,"19":-0.056910993133317996,"20":-0.04032161537574799,"21":-0.08950994220228592,"22":0.7396070961347093,"23":-0.6013144813199494,"24":0.18092971976182848,"25":0.42644086170674855,"26":-0.3707352483910373,"27":0.18726152581107564,"28":0.23959187610959032,"29":0.44389189536477314,"30":0.07378188250157715,"31":-0.1240036177396483}},{"sx":4,"sy":4,"depth":2,"w":{"0":0.09418793540794672,"1":-0.4503950081709059,"2":1.0043277081986661,"3":-0.13450956302661798,"4":0.032878173320263646,"5":-0.18514600554066232,"6":0.4481750039694822,"7":-0.03444501963376827,"8":-0.3639375147780916,"9":-0.7016624746194489,"10":-0.17784423229067797,"11":0.7238759724699378,"12":-0.9853671077878714,"13":-0.010380452294152418,"14":-0.059766976505172625,"15":-0.424763832947529,"16":-0.34102853380512915,"17":0.7288335265392947,"18":-0.3546288649250902,"19":0.8968871408951032,"20":-0.40905012101610266,"21":0.21488511618657985,"22":-0.15089088550835608,"23":-0.27267313570206014,"24":0.7771294419239289,"25":-1.060882860469354,"26":0.14227451906793218,"27":0.6075402944357595,"28":0.06591137931232972,"29":1.5805566787469472,"30":-0.07135519508254187,"31":-0.042254829178064834}},{"sx":4,"sy":4,"depth":2,"w":{"0":0.1405725084890001,"1":-0.32721286932067045,"2":0.29644530023579607,"3":-0.18671191978629265,"4":-0.8738909031331649,"5":-0.31488483834701914,"6":-0.968612731006389,"7":-0.9950859794534317,"8":-2.395470124238489,"9":0.35266165782252273,"10":0.3274424910907087,"11":-0.2892199799741479,"12":-2.0428118379744764,"13":-0.2867776360636612,"14":-0.33986516657550037,"15":0.9129735159767011,"16":-0.493481335739914,"17":-0.632273510585104,"18":-0.4840247487097077,"19":-0.42444692961803565,"20":0.34273360681283355,"21":0.094410067301671,"22":-0.46450203946898794,"23":-0.37836928570109163,"24":0.18946354457905823,"25":-1.2441266957811723,"26":-0.1833526382747785,"27":-0.2558440962115063,"28":-0.3310416242252871,"29":-0.0038897002642053562,"30":-0.4984662813493381,"31":0.46349558389704837}},{"sx":4,"sy":4,"depth":2,"w":{"0":-0.525408129022248,"1":0.3046837950351628,"2":-0.28529321139542335,"3":-0.0030380324330565455,"4":0.05058278036738032,"5":-0.7987285166175487,"6":-0.6050730855468489,"7":-0.3196795690920164,"8":0.7314254949798056,"9":0.4191292540237894,"10":0.32398592347430627,"11":0.8992886334338781,"12":0.299074346163864,"13":0.34125821326656874,"14":0.17353062025519905,"15":0.15297606683521103,"16":-0.620173292771378,"17":-0.32132747973181175,"18":0.8211177135128114,"19":-0.013600174390072575,"20":-0.5391213824115918,"21":0.6098608169007254,"22":0.042941177533977644,"23":0.5633479578655092,"24":-0.07304680898095646,"25":0.6283526258337415,"26":-0.17989342825197868,"27":0.14288453681013935,"28":-0.3922615792515033,"29":0.809111268612307,"30":-0.46014946978545285,"31":-0.4562017964059537}},{"sx":4,"sy":4,"depth":2,"w":{"0":0.34059324922125567,"1":-0.08256762176892153,"2":0.1533082985244986,"3":0.8672810320526548,"4":-0.704612413265742,"5":1.0500199579324478,"6":0.09484390594043514,"7":0.2637956067554569,"8":-0.6559860160304299,"9":0.14333447290256685,"10":-0.3735479100779774,"11":0.07884818751505623,"12":0.3331163832475094,"13":0.5820218913537553,"14":-0.6914955941937765,"15":0.0065981300983130094,"16":0.2750171113161236,"17":-0.5126607129916357,"18":0.6868779878320443,"19":0.529337766945991,"20":0.4167144948592467,"21":-0.5398766714021775,"22":0.08443458733293803,"23":-0.3925867927476744,"24":0.1268989380187148,"25":0.6618474183173148,"26":-0.18273532905620088,"27":-0.5831780309694171,"28":0.6166821248766339,"29":0.5099640350975551,"30":0.14456620819138902,"31":-0.18409214584314654}},{"sx":4,"sy":4,"depth":2,"w":{"0":-0.138758090439618,"1":-0.47487076010471646,"2":0.10788102308647537,"3":-0.5269666498429673,"4":-0.08659793206468573,"5":-0.8458100946072076,"6":0.349304140309533,"7":0.2651145040144873,"8":0.05940664284555482,"9":0.04807712035180018,"10":-0.1931820352286172,"11":-0.006780391273248283,"12":-0.07810121885997272,"13":-0.07509821911648688,"14":1.2108294487108422,"15":-0.28203938306250975,"16":-0.28488327411665165,"17":0.12334848836462686,"18":-0.5438243956148169,"19":-0.09877341331109747,"20":0.22616619929137152,"21":0.013624526297301948,"22":-0.333118042103653,"23":0.13297117961622618,"24":-0.26254905359434383,"25":-0.8647839417909297,"26":0.40147961556450973,"27":-0.8023146799946039,"28":-0.35025653673293594,"29":-0.5069257744990291,"30":0.8426130158835374,"31":0.49103144140693183}},{"sx":4,"sy":4,"depth":2,"w":{"0":-0.06594205534835704,"1":-0.2017802350151832,"2":-0.1030844944418593,"3":0.17362945849723393,"4":0.071537250088728,"5":1.406897684456445,"6":0.25444570863194604,"7":0.030149364012891373,"8":0.7223109397067393,"9":-0.7553246376706793,"10":-0.3236755591535629,"11":-0.3147874827904126,"12":0.44417682169483164,"13":0.17073735717738225,"14":-0.03277592204925374,"15":-0.4909549156231648,"16":-0.6652821419004321,"17":0.6632914563530358,"18":-1.984809314939238,"19":0.9854517959980714,"20":0.23304247996800598,"21":0.19918646024406075,"22":-0.4639985434595432,"23":-0.0015499336856825857,"24":-0.5771716229824482,"25":0.48746656503961466,"26":0.4186610711591404,"27":0.3016182133667829,"28":-1.4475316763003279,"29":0.45840258566735703,"30":0.20582355843213965,"31":-0.20949230633500665}},{"sx":4,"sy":4,"depth":2,"w":{"0":-1.578880110142294,"1":0.22786557567660656,"2":0.8298997230352672,"3":0.04647982187939757,"4":-0.43333032036444996,"5":-0.4473348852580396,"6":-0.5297113770463124,"7":-0.5691530787831868,"8":0.8862249873001206,"9":0.4051016870984168,"10":-1.2829686199832553,"11":0.7553090198229313,"12":1.151156431038026,"13":0.1613682548166028,"14":-0.9160752814846422,"15":0.15330289558826282,"16":0.27685294037016367,"17":0.013278573265755897,"18":-0.044625651668079906,"19":0.16442415503283722,"20":-0.4128840915357746,"21":0.5016194704681152,"22":0.1607790360863423,"23":-0.014435423360089438,"24":0.5919530429298527,"25":1.6520931264945087,"26":-0.021025090741755296,"27":-0.35111947718591424,"28":0.4496851545961954,"29":0.2853841399330959,"30":0.0788241832127666,"31":0.25012956268233877}},{"sx":4,"sy":4,"depth":2,"w":{"0":-0.40737159267734185,"1":0.5267490562230341,"2":-0.00531367082009958,"3":-0.2866105909558592,"4":-0.20339001520164662,"5":-0.46453351379826896,"6":0.243010691718204,"7":0.3597705748732613,"8":-0.3710227282547468,"9":-0.7975837996214645,"10":0.2449143947150222,"11":0.3721501000784741,"12":0.1252747215086727,"13":-1.0707714060417934,"14":0.19050661018527026,"15":-0.6552282780337655,"16":-0.2676996577366269,"17":-0.09777621066504502,"18":-0.29008269770141887,"19":0.5504252768465957,"20":0.17221033913584805,"21":-0.21426689641681673,"22":0.5035736651679276,"23":-0.24047293104060094,"24":-0.34549217255589354,"25":0.8303685973356869,"26":-0.08080855650121878,"27":0.01512458511464492,"28":-0.2136321633797659,"29":0.9336254725339405,"30":-0.14344612814658717,"31":-0.3866146449191237}},{"sx":4,"sy":4,"depth":2,"w":{"0":0.7446462972362401,"1":-0.18829655681923868,"2":-0.19770734073675977,"3":-0.01475400311416405,"4":0.007243495736499242,"5":0.11557126023453268,"6":1.0704494588816889,"7":1.088599823396326,"8":-0.28682122339705907,"9":0.5526411755879403,"10":0.26374132249889004,"11":0.044480561161843596,"12":0.23016352919767447,"13":0.13838913100934383,"14":-0.20015747295173264,"15":0.18867612337185394,"16":0.11159567460147132,"17":0.003650443478957431,"18":0.18938339195568418,"19":-0.3565118162601864,"20":-0.5475894293438776,"21":0.3543491932305428,"22":0.35199122617521533,"23":-0.3730378324834303,"24":-0.17059465666031925,"25":0.28490506019124723,"26":0.15820458001202095,"27":0.06379613874839977,"28":-0.23322184337751645,"29":-0.4279595063146908,"30":-0.6461759840028841,"31":0.004769861187457914}},{"sx":4,"sy":4,"depth":2,"w":{"0":-0.05007124443340418,"1":0.1106720083521541,"2":0.16125251336912563,"3":-0.36207687061558447,"4":-0.7249330150906728,"5":-0.7233548226383616,"6":-0.9921840328795622,"7":-0.7747372015284767,"8":0.8192140065879832,"9":1.2616195149523501,"10":0.9291067057342581,"11":0.36557615009893996,"12":-0.14620885481160856,"13":-0.5202751165901932,"14":0.5757497383547644,"15":-0.36983445377386326,"16":-0.17543627127413372,"17":1.5911203382085417,"18":-0.731517059463827,"19":-0.16508225475670738,"20":0.31452197894499434,"21":0.5371337334914071,"22":-0.006285719474497341,"23":-0.067641693543862,"24":-0.012123764872087932,"25":-0.23297892468487877,"26":0.22924793785307257,"27":0.32715485120962984,"28":0.01730102780807476,"29":0.5166737999041944,"30":0.17391595682249897,"31":0.03652609057806138}},{"sx":4,"sy":4,"depth":2,"w":{"0":0.6057077218410145,"1":1.0371046803302397,"2":-0.5729692472865853,"3":0.522937729221279,"4":-0.31528120436472534,"5":-0.24369687013504682,"6":-0.06903665458482855,"7":0.2629158730667756,"8":-0.5059040077496657,"9":-0.028902551965126064,"10":0.15318928910286492,"11":0.30227621496378415,"12":-0.47094925478073046,"13":-0.7345522119578085,"14":0.12122324027628124,"15":-0.3125533656061636,"16":0.6299067977765608,"17":-1.1179131104547615,"18":0.6283676502728915,"19":0.488222451162923,"20":0.2779406707410745,"21":-0.7292933619268257,"22":-0.20022784234318788,"23":-0.042413380861952295,"24":-0.8837145936550372,"25":0.13682650976128974,"26":-0.6151788821313082,"27":0.008490644487066643,"28":0.18690289812563873,"29":0.17626558425175176,"30":-0.28773276480499543,"31":-0.0019833782907888653}},{"sx":4,"sy":4,"depth":2,"w":{"0":-0.06626780409892863,"1":0.07364108591148118,"2":-0.24888874163060046,"3":-0.0978863791235787,"4":-0.5253068873332388,"5":-0.27135866822392873,"6":0.19469803981402606,"7":1.498521516540357,"8":-0.007607463630981906,"9":0.007861167989600007,"10":-1.5692962892126254,"11":-0.6102833939036297,"12":0.570159970562407,"13":-0.6578529204514584,"14":0.3130962915933693,"15":-0.023195536445283178,"16":-0.27918100628234316,"17":-0.32028178432515275,"18":-0.19890988108335733,"19":-0.27098224060703086,"20":0.6703843235685634,"21":-0.11039636436282613,"22":0.07430155556047612,"23":-0.6034266745146192,"24":-0.25123418494232125,"25":-0.2578023176960206,"26":-0.30626609051601594,"27":-0.11347184409656512,"28":-0.36178240600374123,"29":-0.18719039070345664,"30":0.3420209858749261,"31":-0.6821945251975597}},{"sx":4,"sy":4,"depth":2,"w":{"0":0.4583048510616918,"1":-0.16029781919648464,"2":-0.2660237781110681,"3":0.46724023553075855,"4":0.6427221117522804,"5":0.09386176358714228,"6":-0.14754544566417696,"7":0.5571710882022309,"8":-0.0866713150379237,"9":0.15710288110406678,"10":0.16745828670866106,"11":-0.12064439556517911,"12":0.23349619157295978,"13":0.26743820574839994,"14":1.133190332651865,"15":0.21432822232548257,"16":0.8724401408533189,"17":0.6205053851787966,"18":0.18781745678866896,"19":0.0895388154047809,"20":-0.7174474564680672,"21":-0.16909796867134744,"22":-0.0022554879541745484,"23":-0.4689257667946794,"24":0.3169561277987426,"25":0.26475809691123986,"26":-0.3527800865899149,"27":-0.787719363706995,"28":-0.15663973206455517,"29":0.32100384547464517,"30":-0.3967705650849761,"31":0.19262423427267072}},{"sx":4,"sy":4,"depth":2,"w":{"0":0.06592869263923831,"1":0.43582744415362695,"2":-0.1308674445534604,"3":-0.17997881243093475,"4":-0.021800336969247044,"5":1.9600557752293262,"6":-0.42371059400198385,"7":-0.5066315161313267,"8":1.516549975729182,"9":-0.8977862022482278,"10":-0.18056890501065015,"11":-0.5052094814784727,"12":-0.06419676532113511,"13":-0.7034259224884782,"14":0.6872769582688398,"15":0.40806568802514315,"16":-0.2096493452227515,"17":0.7573288706652215,"18":-0.1736098443630284,"19":0.56003115062238,"20":-0.05023504280399585,"21":0.4680449863802656,"22":0.23021717634142838,"23":-0.2563969247999872,"24":0.45598966865699386,"25":0.38589744555907673,"26":-0.19619950263182362,"27":0.14841596557474773,"28":-1.944278869894188,"29":0.4296583406335182,"30":0.49701128518353616,"31":0.33653214758041095}},{"sx":4,"sy":4,"depth":2,"w":{"0":0.15777871852243056,"1":-0.0275289062807924,"2":-0.1514216543892363,"3":-0.2187095069602543,"4":0.12594257704130882,"5":0.3545633715768098,"6":0.7947059231317833,"7":0.16145660497629777,"8":0.31651146604335617,"9":-0.5960170593997033,"10":-0.3684456922359627,"11":-0.6022075445844419,"12":-0.5668999514138885,"13":-0.477517722044412,"14":-0.725366787818906,"15":-0.7325194354507827,"16":1.3575634083207468,"17":0.17892663887053692,"18":0.07853153124754722,"19":0.0631414899933576,"20":-0.8004663689334635,"21":-0.3575412123528142,"22":0.022254240604894317,"23":0.8269182375855842,"24":-0.36012406801800806,"25":-0.11949935848192972,"26":0.18856366971975488,"27":0.3729054716161783,"28":-0.35568591886522993,"29":0.38369155262517207,"30":0.08465863275856439,"31":0.7452130146930676}},{"sx":4,"sy":4,"depth":2,"w":{"0":0.5701000815363215,"1":2.1167412060471866,"2":0.443741858067291,"3":0.04905240000808645,"4":0.006342702035600372,"5":-0.48387045094838016,"6":-0.04619716592872454,"7":-0.23368559448756224,"8":-0.5768098118591597,"9":-0.6047938535473928,"10":-0.22479829478599386,"11":0.6921407261292148,"12":0.22637584474777156,"13":0.357897466757309,"14":0.42491175044010926,"15":-0.1353697746742542,"16":0.3981797810366943,"17":0.780253179972654,"18":0.08196931774653547,"19":0.14668966111633372,"20":-0.15097153690431314,"21":-2.0422521613560374,"22":-0.3489614998896142,"23":-0.11712249216506018,"24":-2.7956637084180658,"25":0.7140870418869789,"26":0.6234284951434921,"27":0.25544207390969187,"28":0.8190284393376143,"29":0.5044126443100998,"30":0.3584232863432407,"31":-1.0654837909545467}},{"sx":4,"sy":4,"depth":2,"w":{"0":0.12125266028975859,"1":0.16168449410561753,"2":-0.2224040033527988,"3":0.43221115334878857,"4":0.02903319662270772,"5":-0.19683019752098022,"6":2.623084515048458,"7":0.28284352148364605,"8":-0.8250971345356476,"9":1.6978965258552676,"10":-0.6360192249425647,"11":0.05671264126532406,"12":-0.35518343773534017,"13":0.1669241206990286,"14":-0.020992641063287926,"15":-0.4562390343454595,"16":0.8104127914303574,"17":0.6239418703207021,"18":0.6968965987183765,"19":-0.7616261955659709,"20":0.17358529407750722,"21":-0.17562382992476208,"22":-0.26549439209665704,"23":1.2671500090613932,"24":0.037423036083908755,"25":-0.14589324955509286,"26":0.7331540450176183,"27":-0.07009223479705985,"28":0.26539799146975895,"29":-1.3559471201416393,"30":0.21406606169828385,"31":0.1682054191377806}},{"sx":4,"sy":4,"depth":2,"w":{"0":0.5043881164811889,"1":0.4735002147015152,"2":0.23113437649242677,"3":-0.18107367350868508,"4":-0.7947434390398843,"5":0.0875888310637241,"6":-0.07088463380163194,"7":0.04940795931866262,"8":0.09079173442677205,"9":-0.8422581285227349,"10":-0.4591338450107034,"11":0.03825068735944089,"12":0.027710898568671757,"13":-0.6971479387460542,"14":0.6196779006749747,"15":-0.797095608683009,"16":-0.7517336917366668,"17":-1.2051282809449089,"18":-0.21561987146827946,"19":0.5593501524024731,"20":-0.010622341068314885,"21":1.1539900049267289,"22":-0.053229738332071994,"23":-0.8067704411796424,"24":0.3889364321460562,"25":0.1079896612240564,"26":-0.4924486716408752,"27":0.6203975025836528,"28":-0.2988305306043771,"29":-0.24595039247055864,"30":0.23804056240485513,"31":1.1389242319551638}},{"sx":4,"sy":4,"depth":2,"w":{"0":-0.3509114839479382,"1":0.3866070860896446,"2":0.03714429264202544,"3":-0.036987533544452875,"4":2.006794056148092,"5":0.06341269852920778,"6":0.37409387221668167,"7":0.3847321179530406,"8":-0.1295529071836376,"9":-0.38302010651126095,"10":-0.20133630372207323,"11":-0.03913798594101393,"12":-0.019680068848194107,"13":-0.36753698745476515,"14":-0.7458591819549606,"15":-0.009743814993769705,"16":-0.11676622950542201,"17":-2.324396235540067,"18":0.8128228744351406,"19":1.0327253669953538,"20":0.40642846030519353,"21":-0.476607187381373,"22":-0.012432534699202896,"23":0.7456389445037287,"24":0.48653020174058426,"25":-0.3256150977836782,"26":0.2844470403063859,"27":-1.2511991512849272,"28":0.060571398138115955,"29":0.8850677617252455,"30":0.1261920338447143,"31":0.22917684962685034}},{"sx":4,"sy":4,"depth":2,"w":{"0":0.7304059549408399,"1":-0.08788601564162297,"2":0.15052257091471344,"3":-0.5496050741063242,"4":0.5003090794890741,"5":-0.28986073096789894,"6":-0.6093212767457756,"7":-0.010063602655551441,"8":-0.2898436825920016,"9":-0.18147396179177247,"10":-0.025764275023659168,"11":0.022426728961870757,"12":0.2267867671487555,"13":-0.4096760441050434,"14":0.37777534402050683,"15":-0.5437515503606828,"16":-0.5281079292818168,"17":0.3514719160328378,"18":0.004839037718712547,"19":-0.5502391413284746,"20":0.1684282422712517,"21":0.39571793355941753,"22":0.12919095084433477,"23":0.24289871866192536,"24":-0.08189735796700826,"25":1.1853591076665828,"26":0.20909200901250555,"27":-0.2926092426383496,"28":-0.4874646624240075,"29":-0.25963737561129774,"30":0.0689068386673801,"31":0.3576112702850158}},{"sx":4,"sy":4,"depth":2,"w":{"0":0.46046088354121306,"1":-0.6827567052858196,"2":0.6411698275620547,"3":1.1860523756294787,"4":0.0831350926921412,"5":-0.014298616399725406,"6":-0.5655203120399022,"7":0.14924703454904406,"8":-0.03981379552353991,"9":0.3802130368613783,"10":-0.24763630031555436,"11":0.37053582982252736,"12":-0.1259032144167155,"13":-1.3109281074563288,"14":-0.6191425663902091,"15":0.0917462089561066,"16":1.0032821847961078,"17":-0.29875272134943526,"18":0.035886870869887476,"19":0.05420810374945011,"20":-0.111231721073643,"21":0.06378250399738149,"22":-0.6370665810615399,"23":0.37344423278024014,"24":1.1283002249463665,"25":-0.9893662543705348,"26":0.6012485906412791,"27":0.2408269803870118,"28":0.3699386905770088,"29":0.7497844901153591,"30":0.11074860260995542,"31":-0.4312592744283439}},{"sx":4,"sy":4,"depth":2,"w":{"0":0.08407686282197319,"1":-0.0017746142348020273,"2":-0.2125317130835251,"3":0.39758464391798737,"4":0.13779356966924972,"5":0.6806463073745057,"6":-1.3550993053093305,"7":-0.18508573965018651,"8":-0.18541567409219514,"9":0.8201527225674621,"10":-0.8321084541057014,"11":0.027902585019665038,"12":-0.001573998609475935,"13":0.18447977916621802,"14":0.5211520742908629,"15":-0.48844332840130583,"16":-0.13900209879231923,"17":-0.09646677229286642,"18":0.01553421175803321,"19":-0.3029362392651464,"20":0.18139827603704695,"21":-0.44285240979632934,"22":-0.6625521162935891,"23":-0.4875028362007317,"24":0.12352131662874694,"25":0.26507000980801576,"26":0.40030776099948057,"27":0.043569669113069774,"28":-0.2731897899407369,"29":-0.480475015304539,"30":0.2682186720039326,"31":-0.23590457156381495}}],"biases":{"sx":1,"sy":1,"depth":32,"w":{"0":-0.33749906823936293,"1":0.015153376074097039,"2":-1.6200477413390657,"3":-0.31363646456473343,"4":-2.499464486756333,"5":-0.223895560691455,"6":-0.342507428898365,"7":-1.88169890522959,"8":-0.5835824086571173,"9":-0.21788727967637564,"10":0.3450716204676101,"11":2.3181122524174658,"12":-0.5928514801932803,"13":-0.4819521454418578,"14":0.7249244232131304,"15":-0.10858842675470338,"16":-0.47687951902559883,"17":0.732610280057809,"18":-0.7015719116218847,"19":-0.6357299719197853,"20":0.019614518192471692,"21":0.8757206715069895,"22":-0.8564859408535435,"23":-0.6200097432421031,"24":-0.21248809363895982,"25":-0.24077584413957118,"26":-1.4648571375147204,"27":0.6634199135190703,"28":0.037275182876999206,"29":0.8301892704543147,"30":0.2775666047489976,"31":0.41233504728520703}}},{"out_depth":32,"out_sx":4,"out_sy":3,"layer_type":"relu"},{"out_depth":40,"out_sx":1,"out_sy":1,"layer_type":"fc","num_inputs":384,"l1_decay_mul":0,"l2_decay_mul":1,"filters":[{"sx":1,"sy":1,"depth":384,"w":{"0":-0.23471842385861155,"1":0.242331021990301,"2":0.08840529583108658,"3":-0.06805414301568495,"4":0.09643017089079119,"5":0.03728211306479468,"6":0.044268730549827884,"7":0.22270264925182714,"8":0.007602608953547153,"9":-0.17579429716382752,"10":-0.0003413916227896062,"11":-0.09664682577356239,"12":0.026146035922901205,"13":0.19520404459024082,"14":-0.17777678168851568,"15":-0.13576414167443288,"16":-0.22867532664133672,"17":-0.2083204208304911,"18":0.012532909589887179,"19":0.011949596477262452,"20":0.05816633043251504,"21":-0.14271703901854133,"22":0.09940941408729838,"23":0.1949170696251579,"24":-0.07231303847981556,"25":0.2157472686972035,"26":-0.07188644490184926,"27":0.008190735691095748,"28":0.11151714659020454,"29":-0.3478389857175766,"30":-0.00839084284163466,"31":0.08157748842644585,"32":-0.054837211044077905,"33":0.14820365722277645,"34":-0.09708982320314875,"35":-0.054775046429036855,"36":-0.22595114655008802,"37":-0.11309915238111987,"38":-0.10562870253745221,"39":-0.05315612021255022,"40":0.19365028455825609,"41":-0.10375672112940278,"42":-0.048899520904615495,"43":-0.05107402751632279,"44":-0.01609267703576068,"45":0.026973970691964496,"46":-0.021028401648853296,"47":0.017234683517036595,"48":0.11585659351309932,"49":-0.0100699196797333,"50":-0.10762441064058843,"51":0.05585229347031446,"52":0.04306388713753227,"53":-0.0703567045282522,"54":0.1470266237873499,"55":0.034753383936175816,"56":-0.16020100821829825,"57":-0.03334474652336639,"58":-0.06310434821746222,"59":-0.3702673770304226,"60":0.08573078507126365,"61":0.025413623243878858,"62":-0.006036069866708717,"63":0.30548689249882227,"64":-0.023732414917225216,"65":-0.028266357308614234,"66":-0.1414170320255463,"67":0.1116483706792517,"68":-0.1849503734467315,"69":-0.020133031569494964,"70":-0.3000772036760656,"71":0.03248120514409761,"72":-0.27327320054451165,"73":-0.009992979015660805,"74":0.005540682796260783,"75":0.009582987996006282,"76":0.01177075833501926,"77":-0.09677543454830305,"78":0.09702316442712328,"79":0.07937164310099262,"80":0.057176712424900675,"81":0.19783831632064788,"82":-0.10013571193009961,"83":-0.0017257216116159477,"84":0.004472395263280446,"85":-0.09756082596963124,"86":-0.08280807573892755,"87":-0.15727443144212022,"88":-0.01892864943370184,"89":-0.028734285071856755,"90":-0.07325715335140676,"91":0.08212198384161408,"92":-0.13781760100557028,"93":0.03946430978823206,"94":0.012548444369192936,"95":-0.11484393499816145,"96":-0.008590473841208866,"97":-0.1574201554878119,"98":-0.24478725926576764,"99":-0.11617626157869324,"100":0.13925114788125156,"101":0.12806021566119877,"102":-0.17051623134866395,"103":-0.033666164788389845,"104":0.0574043349126049,"105":0.06436775007806016,"106":0.09600881461696484,"107":0.055649235366509446,"108":-0.019568479467417414,"109":-0.08974293844022567,"110":0.06715785211598069,"111":-0.07429690936094421,"112":-0.010191509391967207,"113":0.13874362967351875,"114":0.013634622879899022,"115":0.04574608392611299,"116":-0.1151169387814345,"117":-0.13897984061918994,"118":0.033629916143585084,"119":0.17612498119488829,"120":0.10145890731066115,"121":-0.08570857743803886,"122":-0.10897971836924479,"123":-0.047804499940398516,"124":-0.2034389533603421,"125":-0.0026520061572096296,"126":0.20703526165535904,"127":-0.111424994328052,"128":0.048354725490905366,"129":-0.12615982369103867,"130":-0.11800263359245723,"131":0.12221092692715674,"132":-0.14353626287929844,"133":-0.07422175885088957,"134":0.12072939313531843,"135":-0.11541984835800773,"136":0.13139003429579568,"137":0.049983275172068846,"138":-0.03806323093338683,"139":-0.006784022867846676,"140":0.08818681665217083,"141":0.1581777204355808,"142":-0.09912487229572893,"143":-0.1657545945048049,"144":-0.06456685131603289,"145":0.2156136921399458,"146":0.026738827425345193,"147":0.17288415227448206,"148":0.26604243929413185,"149":0.14450295166330124,"150":-0.2316504759363127,"151":-0.2194161990072091,"152":-0.05882613080436829,"153":0.07042679274548949,"154":-0.22550121480667157,"155":0.04753802235198911,"156":0.21926130974837243,"157":-0.0204802727332503,"158":-0.2919438867377355,"159":0.057451231196714046,"160":0.2874977869224363,"161":0.4603955704334646,"162":0.0810480601021767,"163":-0.15005455951372984,"164":-0.17264117942990434,"165":0.17435492811459838,"166":0.4814686136430748,"167":-0.07079895626792457,"168":0.1576613830156964,"169":-0.04358300167465632,"170":-0.2800753396520806,"171":-0.16604771784387556,"172":-0.07533151115494353,"173":-0.049670604628998034,"174":0.09316492449999483,"175":0.0047819398927921655,"176":-0.014839310886958139,"177":-0.09966275178695369,"178":0.09226937618814783,"179":0.022396546331937797,"180":-0.1376803489343078,"181":0.12567330450694933,"182":0.11307200564348488,"183":-0.16967426547625494,"184":0.12448510729001691,"185":-0.15922839444712678,"186":0.33665051394507245,"187":-0.09996443876303962,"188":-0.10564226411651005,"189":0.0225939270122317,"190":-0.01792117424187958,"191":-0.1996134165701568,"192":-0.0629138549981114,"193":0.0963210939347356,"194":-0.3760748194793277,"195":-0.19346767142226853,"196":-0.31320311724460875,"197":0.015641035610932098,"198":-0.034297014296127956,"199":-0.08372760836285342,"200":-0.10534292322950718,"201":-0.010242997390416326,"202":-0.09090789343955621,"203":-0.20148051850673382,"204":0.003712168855559933,"205":0.06178077478420408,"206":0.17257554588823368,"207":-0.010131063196185985,"208":0.13931466616451776,"209":-0.0920023824944421,"210":-0.28759425611394107,"211":0.1312201748334818,"212":-0.02224527163286272,"213":-0.11955231738062685,"214":0.15154248460892183,"215":0.02552577860099402,"216":0.09077646368410573,"217":-0.1501190686271942,"218":-0.09545572158356476,"219":-0.22208106915177023,"220":0.38173469389781767,"221":0.06390175916523255,"222":0.15622442592721714,"223":0.009031634129175346,"224":-0.14666367768536823,"225":-0.03765740021585401,"226":-0.011385793204051944,"227":-0.12202410102559212,"228":-0.1351012945416394,"229":0.028361196165400223,"230":-0.04818771874707996,"231":0.07037500880105017,"232":-0.01930342026632668,"233":0.09040594196091727,"234":-0.12406328057057124,"235":-0.07059268633638757,"236":-0.014093328514220698,"237":-0.05629387868579747,"238":0.006405131784690037,"239":-0.10214081716933097,"240":0.13096533739380445,"241":0.0024415179771881484,"242":0.0029658013079306603,"243":0.07633633809483688,"244":0.005656347932664742,"245":0.09704688031786514,"246":-0.08871869581819306,"247":0.16829175523099943,"248":-0.05983896601524961,"249":-0.019513717640047026,"250":-0.0867018586556675,"251":0.06560816731897556,"252":-0.1848487425102399,"253":-0.0534005028856508,"254":0.15305517564288124,"255":-0.22480017971041263,"256":0.1549262875964846,"257":-0.29891951270718714,"258":-0.2628830089358729,"259":0.006025830924216856,"260":-0.13125798400107042,"261":-0.24114908162923177,"262":0.17734862319167874,"263":-0.22449088262671962,"264":0.05887572142023214,"265":0.43192000122953805,"266":-0.08201263645385053,"267":-0.1845552715840186,"268":0.10365571642685219,"269":0.20073699285340718,"270":-0.18734570047184787,"271":-0.05409365814547457,"272":-0.22109899648945294,"273":0.36018486821255746,"274":-0.003761105825118474,"275":-0.014164724919783177,"276":-0.08538107314478621,"277":-0.24663776764043668,"278":0.05598849879069525,"279":-0.023258287747666483,"280":-0.14250724320436256,"281":0.052036133386440676,"282":0.0224501272974383,"283":0.18846502374835444,"284":-0.12568687947934815,"285":0.11533353890694091,"286":-0.3009513638411517,"287":-0.018664251285052263,"288":-0.21110142958612402,"289":-0.08518117491494939,"290":-0.0515706422658131,"291":0.5894275867452495,"292":0.0675872413545569,"293":-0.025435306024085773,"294":-0.1481718707735378,"295":-0.4047299602565821,"296":-0.04036834766104512,"297":-0.03108409962561758,"298":0.017980578478418052,"299":-0.17915269296760622,"300":0.027560185961455173,"301":0.05521634531238706,"302":-0.21150698012860752,"303":0.03454322601554256,"304":-0.2776168112950118,"305":-0.04496330045516252,"306":0.08077041695629691,"307":0.3527826534349226,"308":0.238730365569164,"309":0.029029639730195362,"310":-0.024323313403304427,"311":-0.24241943852094636,"312":0.030787700104788603,"313":0.9372930564277077,"314":0.10224634305918963,"315":0.13421527446864984,"316":-0.06554895300059946,"317":-0.15096615312865638,"318":-0.28732320617283064,"319":-0.21459919098350505,"320":-0.01209271281312222,"321":0.2362709525481493,"322":-0.02437560444775732,"323":-0.09612522510469218,"324":-0.14167861073174853,"325":0.0009746159280421235,"326":0.3364463156965375,"327":-0.10433358687476828,"328":0.2435577711196466,"329":-0.06320671128305513,"330":-0.10755212365652585,"331":-0.34066412705505805,"332":0.11601897674595536,"333":0.04330029488177877,"334":0.09536483595226733,"335":-0.02275136938113402,"336":0.07178327693641978,"337":0.12401663310580954,"338":0.2313784438318804,"339":-0.10873516989817303,"340":-0.0964573767974575,"341":-0.021208433120159412,"342":0.045749880757625504,"343":0.06124130522432378,"344":-0.029935928796130794,"345":-0.0717988278622198,"346":0.46029547915935226,"347":-0.00011102364010038615,"348":-0.1674774693205096,"349":0.09052492593428163,"350":-0.2181576833466456,"351":-0.2977148788260053,"352":0.030406074950479603,"353":0.03421619293969859,"354":0.07566774274796716,"355":-0.0873153163072508,"356":-0.008786457868814138,"357":0.059193075041549345,"358":-0.0011450383759819994,"359":0.028587742595035822,"360":-0.047903229035392084,"361":-0.11868392973906712,"362":0.0187209580457291,"363":-0.22834993925104746,"364":0.1404003996622638,"365":-0.1734487029847898,"366":-0.045986523222144644,"367":0.03917031754220073,"368":-0.018729615880857114,"369":0.06905376056050708,"370":-0.11434804804076337,"371":-0.15452909482749988,"372":-0.12113589753729109,"373":0.04770253749086609,"374":-0.008902203512806463,"375":-0.018828504845970408,"376":-0.05233108237151551,"377":-0.12754238400758283,"378":0.004790206092378249,"379":-0.030496652961316453,"380":0.2853539218562506,"381":0.01824304865842056,"382":-0.0679572888646079,"383":-0.05392932464408856}},{"sx":1,"sy":1,"depth":384,"w":{"0":-0.09171362349250455,"1":0.036511327648770714,"2":0.2007392507608285,"3":-0.29802527674585494,"4":0.04194740391126555,"5":0.16742028971231215,"6":0.1464202506402699,"7":0.26556474452992523,"8":-0.01685149563544049,"9":-0.3228538346962598,"10":0.18743597343925691,"11":0.2568756116019032,"12":0.05404631021145382,"13":-0.1047573459044987,"14":-0.09246432858014,"15":-0.23080372043917755,"16":-0.2248769764623804,"17":-0.23635581666369582,"18":0.07773216360151479,"19":-0.07157749307261935,"20":0.09320739339073889,"21":-0.11439730151517874,"22":0.24176628574779793,"23":-0.03643302371399992,"24":-0.1620921223446432,"25":0.05053307583592793,"26":-0.018682942744642397,"27":-0.08902530971253247,"28":0.00028316744913360457,"29":-0.14293905388613629,"30":0.15058650990982597,"31":-0.011651373916210944,"32":-0.046012255308950825,"33":0.31128857273685445,"34":-0.19855772538700284,"35":-0.09067560555074108,"36":-0.08923904269918871,"37":0.08318271278527772,"38":-0.3234911853188929,"39":-0.30905883103764803,"40":0.19480308290960255,"41":-0.06258854712531163,"42":-0.026606135738709357,"43":-0.07450606434751786,"44":-0.024755595965133468,"45":-0.05676749608289988,"46":-0.16397340953973757,"47":-0.11481313107090572,"48":0.3925180547616332,"49":-0.072664517290666,"50":-0.24154639183420548,"51":0.06890402985420341,"52":-0.08362735831344886,"53":-0.18465333290952224,"54":-0.0636906175028523,"55":0.00006753735231091865,"56":-0.013497656424909526,"57":0.08414473327666185,"58":0.0019007565286401893,"59":0.020294236257241784,"60":0.03022415063940067,"61":-0.1349546696749557,"62":-0.02607206483371594,"63":0.1208443050537386,"64":0.0172924057758732,"65":-0.008823776198564635,"66":-0.13532471743008945,"67":-0.03836813393716883,"68":-0.18087254566021813,"69":-0.10153995321623853,"70":-0.6861935541269985,"71":-0.034613326673688556,"72":-0.07046040626287042,"73":-0.18479576157208488,"74":0.15838979577288786,"75":-0.06783236566025043,"76":0.05173747466462119,"77":-0.16762318392004577,"78":0.17356927115653314,"79":0.10658313623769135,"80":-0.22401297193334696,"81":0.24046912253786001,"82":-0.006955173505438765,"83":0.23895867971005394,"84":-0.05428425833050257,"85":-0.08761753776652732,"86":-0.03317530397663408,"87":-0.2783943424984087,"88":0.09102946854772553,"89":0.07059357573118996,"90":0.35989868518985335,"91":0.1512098935943828,"92":-0.3632210791581762,"93":0.17742280524023898,"94":-0.00326473615250227,"95":-0.17591998494838768,"96":-0.018316508125818254,"97":-0.038902754285072345,"98":-0.05801176807152797,"99":-0.045498487951385065,"100":-0.022226674034078936,"101":0.13182675162291557,"102":0.15335882159824976,"103":-0.007256585572743853,"104":0.011858429323999706,"105":0.45245737127022867,"106":0.01780746365447242,"107":-0.027281069682501106,"108":-0.1817974729415807,"109":-0.13713603716067138,"110":0.02796720621273307,"111":-0.3159041865329046,"112":0.08803671332847446,"113":0.1101763443420453,"114":0.0036357393991649054,"115":-0.07099146152708981,"116":-0.1419427710798804,"117":0.03948636737002519,"118":0.007582071251838516,"119":0.1383739796334804,"120":-0.05968879958646001,"121":-0.01478751809487684,"122":-0.14250597910906923,"123":0.29683524172713405,"124":-0.1961922053245104,"125":0.22219367047695257,"126":0.05103720023350589,"127":-0.1393333276551263,"128":0.0580139128216104,"129":0.07850409490471459,"130":-0.09401699937260274,"131":0.06289917061283264,"132":-0.15278954157604233,"133":-0.0791215908352668,"134":-0.2610144904381932,"135":0.09234496000063584,"136":0.03901974343170249,"137":-0.2610227605977047,"138":-0.1678301296210592,"139":-0.03262541112372106,"140":-0.21933416120133067,"141":0.22894191999641517,"142":-0.17251854675816336,"143":-0.007070435017187116,"144":-0.01575129923285892,"145":-0.051582686464991076,"146":0.0179401128540978,"147":0.06820522050131382,"148":0.22232263526329868,"149":0.016765875247698403,"150":-0.15865225822304613,"151":-0.06825279407060746,"152":0.24556149941666075,"153":0.04074614060623648,"154":-0.02814534761446602,"155":0.12013647224144956,"156":-0.14772560360842893,"157":-0.25696081014662253,"158":0.10049473050374963,"159":-0.05010526595937171,"160":0.053808382393012825,"161":-0.049126661878703765,"162":-0.06069417482962573,"163":-0.09541303749892896,"164":-0.0004060689737601534,"165":0.02189003822573755,"166":-0.020617337456459238,"167":-0.055532975645934055,"168":-0.12559557069141034,"169":-0.16088739847305092,"170":0.007060617917313125,"171":0.08452356903019594,"172":0.25072912108004863,"173":-0.1318589320804708,"174":-0.09422399053997542,"175":-0.0495992525407136,"176":-0.23651724083226103,"177":-0.10577398575532608,"178":-0.10817817318933949,"179":-0.0765213258613824,"180":-0.010549068706645695,"181":0.03817001225225126,"182":0.025848781541796942,"183":-0.05930314327658648,"184":0.24147239166756163,"185":-0.06327897895817379,"186":0.06819556196784769,"187":-0.05340693079732674,"188":0.008955478532702121,"189":-0.06724612632876577,"190":0.07996482145332791,"191":0.0038326434261280215,"192":-0.07886010139724117,"193":0.19028566857284485,"194":-0.495212540424886,"195":0.06964155265970538,"196":-0.362063311835379,"197":-0.043756999954546856,"198":-0.17359762491624173,"199":-0.22138700211842285,"200":-0.06087712339403907,"201":0.002953291967696784,"202":-0.066450503799433,"203":-0.07111255979440656,"204":0.17706939822916484,"205":0.03607540037245218,"206":-0.08734547655982117,"207":-0.09899263163424468,"208":0.38125648637786475,"209":-0.280912927526007,"210":-0.26459186996183987,"211":0.10432665128659482,"212":-0.16860979772882262,"213":-0.35671742960781655,"214":-0.15279369351397407,"215":0.007004503230146599,"216":0.21542082721257294,"217":-0.10136674244605982,"218":-0.12256244242377157,"219":-0.1927159528775147,"220":-0.03809510144859112,"221":-0.11089269066221832,"222":-0.09279675834291345,"223":0.06373552409356724,"224":0.042334149242362874,"225":0.08030341947708275,"226":0.09945963298382311,"227":0.10957635241045532,"228":-0.17342619894669647,"229":0.18450612797961208,"230":-0.10088715863457391,"231":0.15056920305645147,"232":0.12059080361897948,"233":-0.07342213219353384,"234":-0.05924738917140706,"235":0.09603020657336075,"236":0.10231158824366236,"237":-0.18207831749351205,"238":0.011771476056540978,"239":-0.06903681894166493,"240":-0.07304984883890377,"241":0.07120899992868153,"242":-0.0059376356421396975,"243":0.15121784939635216,"244":0.07626333586439395,"245":-0.1302284060515947,"246":0.0020222203562386834,"247":-0.12585792039000343,"248":-0.03145154440860036,"249":0.08687829445809742,"250":-0.01955250129377558,"251":-0.14574994376861805,"252":-0.11255915769540835,"253":0.023148469046720285,"254":0.05724588680582254,"255":-0.2367987662201633,"256":0.07834300521409908,"257":-0.3064882289234392,"258":0.040006289567025836,"259":0.05515175600932466,"260":0.02027226765651728,"261":-0.08130861468445488,"262":0.40963855965995544,"263":-0.08319434572611432,"264":0.12333554688015254,"265":0.21400867037628532,"266":-0.024331931666203597,"267":-0.5000491999108239,"268":0.27679545050683335,"269":0.14233369576180105,"270":-0.17415056029119805,"271":-0.021909192344080182,"272":-0.13705727059193437,"273":0.06579117342142544,"274":0.04836265834239942,"275":0.21792940004125813,"276":-0.1745670728413487,"277":-0.032653804606398565,"278":0.1347699379125794,"279":0.06630272171680424,"280":0.002917876385344423,"281":0.06376363676767394,"282":0.3209398685910657,"283":-0.015458664530216678,"284":0.09744065978723175,"285":0.0007006994617393067,"286":0.06709268673719844,"287":-0.011788530711103517,"288":-0.09071623297739297,"289":0.1256273399988224,"290":-0.21133268643222167,"291":-0.026462699852793942,"292":-0.0861606168186837,"293":-0.06288822972813223,"294":-0.23126835672211188,"295":-0.022484140247926616,"296":0.00681875699960627,"297":-0.3051964276355779,"298":0.19898149726292993,"299":-0.325583576623407,"300":0.15443689205662253,"301":0.1330429173500331,"302":-0.13401517762971332,"303":0.08442154691298281,"304":0.2236853429220141,"305":-0.05285523866261817,"306":0.09599568045002178,"307":0.28776416767582946,"308":-0.0027947885349944228,"309":0.030823769070971122,"310":0.018191555115759216,"311":-0.03599681018871951,"312":0.10376972593956267,"313":-0.14063798505281624,"314":0.055751119475260964,"315":0.3208641244908909,"316":0.11367420542060443,"317":0.011955516965434662,"318":0.04678299863164766,"319":-0.14659237573683723,"320":0.049695370501953814,"321":-0.0722216663595392,"322":-0.02696340709519637,"323":-0.07055105201675987,"324":-0.07384089063042831,"325":0.09213529021699615,"326":0.008061165219839572,"327":-0.03958804687594514,"328":0.21479509767336505,"329":-0.118412397227317,"330":0.03491358051693926,"331":0.005697385373448023,"332":0.15822049493263804,"333":0.07001608316108156,"334":-0.06905962397049142,"335":0.10218930861738225,"336":0.11121916681819428,"337":0.10328124688220315,"338":0.07398358013673241,"339":-0.049983243552874465,"340":0.15193180386906066,"341":0.24136580784370373,"342":0.034870088583085726,"343":0.09691619153839336,"344":-0.0035243249273960923,"345":0.07634224984656723,"346":0.040507945249497565,"347":0.058922739949247384,"348":-0.021511114026044807,"349":-0.030391009629915783,"350":-0.028550158748205653,"351":0.02635625925367681,"352":-0.0036544031986727823,"353":-0.016559866799208397,"354":0.09181729482369363,"355":-0.0035427618133355146,"356":0.08460143564034461,"357":-0.024758076940371344,"358":0.03678252025240988,"359":-0.07193949106523984,"360":0.024413057079582728,"361":0.019875080658167874,"362":-0.028436015332201133,"363":-0.07699160977151485,"364":0.10200543184712149,"365":0.12897043492941546,"366":-0.10907132339430985,"367":0.043633153066891105,"368":0.002821067997269067,"369":-0.06081065044810156,"370":-0.10054371175058335,"371":0.019324876013377533,"372":-0.12174576136922276,"373":-0.16609451524963606,"374":0.013806998373383481,"375":0.08097071609842366,"376":-0.001991997115606651,"377":0.0845855118542727,"378":-0.0067008140319370834,"379":-0.06764346044334389,"380":0.023960238581865325,"381":0.013029877840769274,"382":-0.08727551072407999,"383":0.11517038968634229}},{"sx":1,"sy":1,"depth":384,"w":{"0":-0.12353837611851903,"1":-0.0013501152006928602,"2":-0.14793439826463367,"3":-0.23239340983374573,"4":0.21451450551759432,"5":-0.11994100214002629,"6":0.3019542349273137,"7":-0.15936295568046813,"8":-0.2156465676392498,"9":-0.12463008289701082,"10":0.007442426552558439,"11":-0.4907143565192961,"12":0.0035282016903018026,"13":0.029467830290601738,"14":0.01347868531223283,"15":-0.14003406406458246,"16":-0.12102402860761623,"17":-0.2454809910834701,"18":-0.016956710191060508,"19":-0.21101232055099922,"20":0.07569711779419568,"21":-0.20240689308788143,"22":0.03151074898074098,"23":-0.21610667306066086,"24":-0.19094905921449326,"25":0.0897671807367465,"26":-0.13326487376451676,"27":-0.3115093783046625,"28":0.1107303504161808,"29":-0.26139477117548116,"30":0.22786368678305827,"31":-0.1524847104688854,"32":-0.14597152112433143,"33":-0.10743766592091465,"34":0.6366642401424469,"35":0.20866488028776972,"36":-0.2147221504291503,"37":-0.15474194478595898,"38":-0.1841854005246628,"39":-0.034118352434625895,"40":-0.05197418049299274,"41":0.03915395338751786,"42":-0.19027302754566258,"43":-0.37458704042014224,"44":-0.11583563752843092,"45":-0.1523133351029293,"46":-0.07206205082991973,"47":-0.1780227130891504,"48":-0.10778694300473222,"49":-0.1170610977319312,"50":-0.17436850307618607,"51":-0.13491539631562438,"52":-0.1332428098073309,"53":-0.17637248385409787,"54":-0.22844923960283184,"55":-0.07896591091869769,"56":0.618700216457853,"57":0.12730737070779274,"58":0.4183535897747286,"59":-0.2231626930287982,"60":-0.061402096786924126,"61":-0.09975702250529972,"62":0.06637715365092918,"63":-0.3329589793916927,"64":0.2833599044889523,"65":-0.2224694201906395,"66":-0.18753182944230481,"67":-0.021843833770799372,"68":-0.16414816109715796,"69":-0.0167165867233524,"70":0.0752704880924835,"71":-0.01916415634335158,"72":0.14160962298127033,"73":-0.16567147069492588,"74":0.174157062363251,"75":0.049788342645673715,"76":0.1896713367488517,"77":-0.000382676932292352,"78":-0.1637684763029787,"79":-0.021838350542051955,"80":0.16659787849690402,"81":-0.027458698196706786,"82":-0.0680061924211729,"83":0.02862281331288475,"84":-0.09508222177678576,"85":-0.0838385979638154,"86":-0.09726806450289759,"87":-0.22771385934220523,"88":-0.1159368178994492,"89":0.006890224416284986,"90":-0.28717467343053427,"91":-0.04653546020504356,"92":-0.22656586960495753,"93":0.0515002218105588,"94":0.3306687867939622,"95":-0.046740016576815466,"96":0.061487137094153266,"97":0.23295776635290785,"98":0.024421479253306372,"99":-0.07858625742713059,"100":0.08219635715497119,"101":-0.027733645385584888,"102":-0.12912178856652012,"103":0.011219925326178411,"104":-0.08136785145929464,"105":-0.16823746840432147,"106":-0.30431222244554823,"107":-0.2431008649574662,"108":-0.1040076356305776,"109":-0.1386613144381158,"110":0.1424735300244668,"111":-0.044138026953623226,"112":-0.00010205425460714791,"113":-0.22938672672263288,"114":-0.0030644130158485232,"115":-0.18183018317023897,"116":-0.011180862804828554,"117":-0.053902149611521885,"118":-0.07125225701137457,"119":-0.21063302309285648,"120":0.027172311929614217,"121":-0.21835779954161458,"122":0.0018398117049392084,"123":-0.20887072675137666,"124":-0.05164125951438692,"125":-0.21246059979894585,"126":-0.261059429502075,"127":0.026717613216312337,"128":-0.06596788663004306,"129":-0.03620403101615207,"130":0.17470490333095604,"131":-0.044577296918659054,"132":-0.1004864712458516,"133":0.10239338228165881,"134":-0.3316709048941056,"135":1.5128676307063325,"136":-0.1642914751738232,"137":-0.055901907923574766,"138":-0.17092928390235396,"139":-0.03155189586176097,"140":-0.001087056955585419,"141":-0.1410870771742504,"142":-0.23939149623726882,"143":-0.07275454657458728,"144":-0.03703311486629666,"145":0.13351346723778448,"146":0.38323461269854214,"147":0.2487948485225876,"148":0.158890023298377,"149":-0.5836840399284436,"150":-0.12099930930041874,"151":-0.2454898804524034,"152":0.005867797551125801,"153":-0.2633142047198405,"154":-0.18951320605994904,"155":-0.05769790902635625,"156":-0.1505301848417796,"157":-0.07369770640683034,"158":-0.1585465546484292,"159":-0.23323638145978806,"160":-0.1420665827392927,"161":-0.08387728779655078,"162":-0.10745042751380547,"163":0.09398167167099944,"164":0.982314968459653,"165":-0.19958728328081357,"166":0.5131252047645347,"167":-0.22427866792498077,"168":-0.10849660136564991,"169":-0.12078277777472293,"170":-0.16338131286272556,"171":-0.5017352374544913,"172":0.33817756458400944,"173":-0.26744196317088026,"174":-0.25597053354026406,"175":0.3443974537633977,"176":0.11269207414504512,"177":-0.13271114165396133,"178":-0.19369196164728583,"179":-0.00219347426847545,"180":-0.12227766808766405,"181":-0.17419490768634352,"182":-0.05756856468783576,"183":0.40259422737497447,"184":-0.013903440609775095,"185":-0.2739913172510106,"186":-0.1456491577619123,"187":-0.05451890907199914,"188":0.14410816895185405,"189":-0.04645273652209301,"190":-0.09921102641849769,"191":-0.059412471389687825,"192":-0.09885117726165402,"193":-0.09393938017841874,"194":0.2198184196105451,"195":-0.24397877109344865,"196":-0.052156272367592994,"197":-0.0386737080874445,"198":-0.10070225081993406,"199":-0.12799786479376515,"200":-0.12291851594549622,"201":0.07413010666095249,"202":-0.1580569680197852,"203":-0.19660364002671327,"204":-0.1558378130002222,"205":0.1669471785006007,"206":-0.29868223814720773,"207":-0.05310702707035277,"208":0.1029721827514426,"209":-0.0842610387101813,"210":-0.08538196115529836,"211":-0.08660815103136271,"212":-0.2225319883447592,"213":-0.15755038047128295,"214":0.13590924268296958,"215":0.04713041463842153,"216":-0.09214812791364925,"217":-0.06333161558213504,"218":-0.23071416320593666,"219":0.034382220585194995,"220":-0.03461321244941744,"221":-0.33808922278016945,"222":-0.5654699947046343,"223":-0.07070965578199825,"224":-0.20456879001917772,"225":-0.11302909444178243,"226":0.10595988698023484,"227":0.6175753360400114,"228":-0.21015734189864424,"229":-0.03676114088050661,"230":0.04847974806560401,"231":0.11750096291699763,"232":-0.11865093690624574,"233":0.039029074596784154,"234":-0.013079964838977791,"235":-0.12466816434246218,"236":0.0980809066488175,"237":-0.05632598338253582,"238":0.11360994192173579,"239":-0.12112126293712118,"240":-0.03235968357398114,"241":0.09138571419425508,"242":-0.08292148608201119,"243":-0.06580625664933618,"244":0.20971937725502204,"245":-0.06730041373865266,"246":-0.06503578765013103,"247":-0.04283416722020397,"248":0.004735968223309636,"249":0.6088729679434474,"250":0.00999373483283254,"251":-0.25713263473220116,"252":-0.1759164348733907,"253":-0.20115678354480696,"254":-0.09296806369631051,"255":-0.10662159712916251,"256":-0.20024141337564608,"257":0.19579981110613662,"258":-0.18817235969737192,"259":-0.21275190531068594,"260":-0.06668842297972548,"261":-0.012156931777554048,"262":-0.20389301826676068,"263":-0.12230581999932573,"264":-1.0362159843671717,"265":-0.35800290222957953,"266":0.46315399033615146,"267":0.10974944490902165,"268":-0.397572845412403,"269":-0.49556482663510587,"270":0.40042463458654454,"271":-0.3438536637238054,"272":-1.0488914397541986,"273":-0.7538229281017631,"274":-0.18173580252546714,"275":0.02341514172048493,"276":-0.014145782463436592,"277":-0.08453504714456613,"278":-0.07740376096098883,"279":-0.18505923383712997,"280":-0.1173614963202962,"281":-0.3561156302037805,"282":0.19433751464167948,"283":0.03855685210354627,"284":0.18407876700042558,"285":-0.8549905921122449,"286":0.5128640084180798,"287":-0.0701141012570201,"288":-0.14029133142547948,"289":-0.21740693502840036,"290":0.5972510476039893,"291":-0.224924891013551,"292":0.14121574738494214,"293":-0.33349005277478644,"294":-0.06463101606685578,"295":1.358168376309806,"296":0.1683028610556938,"297":-0.053857870986376545,"298":-0.06570974454185356,"299":-0.2779039964875467,"300":-0.028220996057872982,"301":0.0528147783980664,"302":-0.2665603225208681,"303":-0.32784057129526295,"304":-0.14176869926828786,"305":-0.05868243724523696,"306":0.49815848233051313,"307":-0.12826681152664554,"308":0.2381940372318655,"309":-0.407328095263635,"310":0.43642485149274723,"311":-0.28205594907103815,"312":-0.25072668925556507,"313":-0.15560669288659315,"314":-0.18433071643251678,"315":-0.1755395402882958,"316":-0.19921769482685292,"317":-0.023083429101920398,"318":-0.06688209878918414,"319":-0.19546318479464958,"320":-0.15203319673787724,"321":-0.10717729424108173,"322":-0.22292276754196927,"323":0.11306695795527694,"324":0.6474256764925539,"325":-0.18568588757606827,"326":-0.059452973990824665,"327":-0.1762209945757612,"328":-0.10250522873291001,"329":-0.07841531899894445,"330":0.08736754986492631,"331":-0.35946844753594237,"332":0.011995826459362084,"333":-0.1938007851261275,"334":-0.010238847216604029,"335":0.4450556650128066,"336":-0.2945192137524965,"337":-0.10173936861560715,"338":-0.18016840839460657,"339":0.09817473272921667,"340":-0.10904172543002116,"341":-0.2743494119231353,"342":-0.030048554431861267,"343":0.6072295673543869,"344":0.13625208794612934,"345":-0.11143571931364422,"346":-0.2619931921148078,"347":0.048973704660374644,"348":-0.25386756279858824,"349":0.0070172252714501724,"350":-0.14408558802080385,"351":0.2259664131804083,"352":-0.09009532146293128,"353":0.08390830603346654,"354":-0.16133610910807478,"355":-0.2526361278190763,"356":-0.049795887046379904,"357":0.0437468398526324,"358":0.051771801278136576,"359":0.07443223277832436,"360":0.12808811511784393,"361":0.0353744475795286,"362":-0.31630172946955964,"363":-0.3079892019413701,"364":-0.02458163533600313,"365":0.11017212864738145,"366":-0.07054126612871718,"367":-0.10046869977898716,"368":0.06094622758303329,"369":0.2028883333869206,"370":0.014995387430102806,"371":-0.03374856194392622,"372":0.23509904140119775,"373":0.07811344527049247,"374":-0.100034533870969,"375":-0.08142496940316067,"376":-0.1559270969529934,"377":-0.07379400070023456,"378":-0.12760768388776714,"379":0.12014443481099567,"380":-0.21446342469363366,"381":-0.005361505997890775,"382":0.0017035266006017874,"383":-0.2456920704472875}},{"sx":1,"sy":1,"depth":384,"w":{"0":-0.0620720668977606,"1":-0.07545396928535104,"2":0.46102946796738004,"3":-0.0447732754181495,"4":-0.047175638785850384,"5":-0.04769456392656366,"6":0.05988400241210348,"7":0.14283420978202932,"8":-0.19501438945733965,"9":0.1379552394506752,"10":-0.040869770981341036,"11":-0.279377766067797,"12":0.04264170930819088,"13":-0.01412357698464428,"14":-0.024797682877594054,"15":-0.2612560391665772,"16":-0.12670423041110343,"17":-0.0344977424563998,"18":-0.030715180004301228,"19":-0.07145326438427671,"20":-0.1680291995617316,"21":-0.08474548947883767,"22":-0.019380300947998953,"23":-0.05534464803618572,"24":0.2855409915000102,"25":0.008982748164049814,"26":0.29162647293779914,"27":-0.06127644404513577,"28":-0.04698952005357346,"29":0.01631780002312995,"30":-0.0349881955804075,"31":-0.0785103872728438,"32":0.0973911644296637,"33":-0.05085722728977431,"34":0.1624706012972699,"35":0.010195401482866536,"36":-0.02555937275624517,"37":0.045579808135156705,"38":0.040168484230812464,"39":-0.12250456895631186,"40":-0.006799425223834312,"41":-0.045819926124445035,"42":0.0860267997132773,"43":-0.17843717656301486,"44":0.1551316916377584,"45":0.11458435511191957,"46":0.04303282703909177,"47":0.04578321963340908,"48":0.0982033264309443,"49":-0.0004900506812747831,"50":0.005535185788642673,"51":0.11218524107677111,"52":-0.11974916512128889,"53":-0.09640609318988341,"54":0.013744820041254466,"55":-0.0834238958899158,"56":-0.04296069080524094,"57":0.018677156086908387,"58":-0.10010749394509776,"59":-0.01307441728457622,"60":-0.14384812153460205,"61":0.0039029263228673233,"62":0.3052640819851866,"63":-0.010114520605629026,"64":0.2555622273120478,"65":0.24376932994537948,"66":0.05976840195594666,"67":0.0998903084631424,"68":-0.06650504687875793,"69":0.025059564820478,"70":0.07406758930650281,"71":0.06638610878454176,"72":0.28449159082110675,"73":-0.08088019311893807,"74":-0.18499709835046887,"75":-0.29152867881552724,"76":-0.22942188537416203,"77":0.08587408427771934,"78":0.07753120339759971,"79":0.06800611024162574,"80":-0.10087286891043878,"81":-0.057047144824573924,"82":0.14775830599183942,"83":-0.08707024521309292,"84":-0.04842042533139041,"85":0.046981872598551556,"86":-0.0013670396305912914,"87":0.1262537027054246,"88":-0.09433042491280001,"89":-0.005911794496289343,"90":0.6090533912921706,"91":-0.011232690094809967,"92":-0.1264650577661285,"93":-0.24024946685232468,"94":-0.20430799015942427,"95":-0.2897055029341318,"96":0.19455163983939167,"97":-0.19005562322192546,"98":0.04846321038450676,"99":-0.04155357111602742,"100":-0.009371233035693455,"101":0.05293265401634355,"102":0.06576731047935577,"103":-0.053830031037499414,"104":0.044536152331797925,"105":0.009418183457922748,"106":-0.08379465983721773,"107":-0.2914474905445496,"108":-0.0006251434520747222,"109":-0.13744013652791787,"110":-0.07827793653315426,"111":-0.08556777574213431,"112":0.0008250914702976334,"113":-0.12580631181280996,"114":0.019628712391576215,"115":0.10424005412528463,"116":-0.051242822995850895,"117":-0.17979652414915828,"118":0.09453329561209084,"119":-0.21847104801573822,"120":0.1344851279115171,"121":-0.21001360136727945,"122":-0.0403975000970633,"123":-0.3901658392525597,"124":0.7365086748508023,"125":-0.04189128251933297,"126":-0.05155425446362963,"127":0.010001450058112357,"128":0.0955213413433883,"129":-0.058381397554068036,"130":-0.1473964232624444,"131":0.09787758733727962,"132":0.42573391677388794,"133":-0.2381012575219231,"134":0.20019455542936518,"135":-0.08113160602569894,"136":0.06327027397313723,"137":-0.10486403634024152,"138":-0.10608880067985792,"139":-0.4085658744944099,"140":0.3514872533364991,"141":-0.21683105522516635,"142":-0.16961208229757527,"143":0.2788672237887296,"144":0.02578425260490342,"145":-0.09544454606435644,"146":0.038908151028978606,"147":0.016408531577316806,"148":-0.04295068642244055,"149":-0.02741686560146492,"150":0.08124948194509041,"151":0.20043264217512854,"152":0.0315621422748417,"153":-0.1650989743529524,"154":-0.11257823334576675,"155":-0.017703953338696277,"156":-0.0035546661466049198,"157":-0.12061090841393564,"158":-0.07829936290633177,"159":0.04516559244353955,"160":0.21385208884103052,"161":0.10245916077274338,"162":-0.06408894377736096,"163":-0.21314994576085658,"164":-0.09499837818620024,"165":-0.0177173821184802,"166":-0.021015035931006787,"167":-0.11920621672437913,"168":-0.04489204211153748,"169":0.015239584353639878,"170":-0.04134455476627525,"171":0.07592504318576868,"172":-0.11195059375962561,"173":0.039754687770404244,"174":-0.2740716963847017,"175":-0.08217722802903969,"176":-0.018817468375301336,"177":-0.019764326857587354,"178":0.033548321955749034,"179":0.02617828763823444,"180":-0.1247590909864725,"181":-0.1282678604415862,"182":-0.05854844979730059,"183":0.025693453898000023,"184":-0.09256637056284646,"185":-0.06493056706400471,"186":-0.126069550438305,"187":0.08213483690983156,"188":-0.07569205413144706,"189":0.02050801518477509,"190":-0.2846234685795446,"191":-0.04415725598561768,"192":-0.31240045465483407,"193":-0.2642243696754271,"194":-0.3384180248225482,"195":0.43911500660829184,"196":-0.21213228463432077,"197":0.12323681598574773,"198":-0.032491784405991465,"199":-0.23588701958573,"200":-0.022344394975249805,"201":0.14762795814693827,"202":-0.290008775220383,"203":-0.3401356437425399,"204":0.04292948938086216,"205":0.0650909830990202,"206":-0.194821635778166,"207":-0.03519483953056147,"208":-0.10683122567429978,"209":0.10788095448549395,"210":-0.11634655959170824,"211":0.0624096492575558,"212":0.037199135418678746,"213":0.1256607614863672,"214":-0.23959427568815922,"215":-0.1445676775156264,"216":-0.08200724959127133,"217":0.4157133252332352,"218":0.040808511152907685,"219":-0.24438860356941983,"220":-0.06303290248763965,"221":-0.040538916172092335,"222":-0.15388459817894126,"223":0.03056747081876312,"224":0.09795606243880282,"225":0.14935107971318845,"226":0.10406984372578892,"227":-0.2614823764573217,"228":0.07690817333869522,"229":0.11962651380387368,"230":-0.024118362343645325,"231":-0.07366650518006572,"232":0.0996391524183466,"233":-0.1274922520715665,"234":-0.3090514398024833,"235":-0.22970140129260563,"236":-0.2669018006941453,"237":-0.0008903529220147637,"238":0.11944408208287698,"239":-0.12852772512888314,"240":-0.08370598663101993,"241":-0.19369867143539338,"242":0.14586834073516172,"243":-0.12667001443573322,"244":-0.08927719334552707,"245":0.004411437122317991,"246":0.03243847167083982,"247":-0.20008410214746636,"248":-0.016775874734932802,"249":-0.22931020367211835,"250":0.16071977924370298,"251":-0.07216296751186169,"252":-0.04653166433374088,"253":-0.05294162700621874,"254":-0.22381183718650927,"255":-0.03782423732131224,"256":-0.24482662329858212,"257":-0.1565881049586853,"258":0.16526534985761063,"259":-0.09404629860089352,"260":0.16908888320953938,"261":-0.3697495125123126,"262":0.06899310849854985,"263":0.5435474277530342,"264":0.16137258666641416,"265":-0.07478430036874946,"266":-0.05245259525929872,"267":0.02227112277095267,"268":-0.036856782456429545,"269":-0.058908445697114675,"270":-0.300232072815196,"271":-0.23510538475177686,"272":-0.020892531726006067,"273":-0.19854072321560745,"274":0.20443925523101752,"275":0.058109745149271246,"276":0.18746063853000763,"277":-0.348784120708724,"278":0.23762401477123032,"279":-0.0852986565543207,"280":-0.16265611822188158,"281":-0.014432815565211787,"282":-0.060447534038361755,"283":-0.020003929588840542,"284":-0.08502684876446946,"285":-0.09571535526715012,"286":0.007562569419642471,"287":-0.0560223927922243,"288":-0.20216281418030496,"289":0.028097908667500948,"290":-0.15520920496150273,"291":0.10202514716535971,"292":0.29629079907618394,"293":-0.21972319460358927,"294":-0.0812842535788337,"295":0.03962175650695094,"296":0.023896323044241736,"297":-0.2000747499570963,"298":-0.030804309538270108,"299":-0.20501663647175264,"300":-0.14443770956668647,"301":-0.07537297487723985,"302":-0.008301958933912489,"303":0.19248108870563935,"304":0.008880530386407761,"305":-0.10745471070867908,"306":-0.07164083771850241,"307":-0.011320156232624593,"308":-0.11966900456278437,"309":-0.14700419877496435,"310":-0.08780220973675289,"311":0.17234083874197273,"312":-0.0019417302772117035,"313":0.015301497472673859,"314":-0.12257316456926823,"315":0.1249607420406109,"316":-0.10443965912674419,"317":-0.023429411756094993,"318":-0.11280085857537867,"319":-0.041272482166650304,"320":-0.06026514563580654,"321":-0.057066395825601406,"322":-0.20059816184719936,"323":-0.0703295112230142,"324":0.03950828311997917,"325":-0.09615959693530857,"326":0.05711799015175852,"327":-0.06483491768080564,"328":0.005977603299691039,"329":0.23082263842556067,"330":-0.06539747044952458,"331":-0.007453724113290272,"332":-0.1705439328966307,"333":0.11853562547007078,"334":-0.0024003172737489587,"335":-0.23838023042298762,"336":-0.03389769353848158,"337":0.07796496430548763,"338":-0.02546496747968184,"339":0.05183918038038276,"340":0.06323797504144985,"341":0.14565968679373198,"342":0.10412456548772864,"343":0.15814221555148664,"344":-0.3449809107160539,"345":-0.13712922912143144,"346":-0.4122085617748794,"347":0.13084283123635068,"348":-0.2210411100537531,"349":0.006159863350582768,"350":-0.18239245806431784,"351":-0.055149834659597434,"352":-0.22833895577234942,"353":-0.21103050426794667,"354":-0.11126528466075125,"355":0.5284808546669011,"356":-0.14995280907641398,"357":0.0023497115784994835,"358":-0.0827454816321369,"359":-0.1273473969398836,"360":-0.10318732721047297,"361":-0.030074729705448583,"362":-0.2481704013548238,"363":-0.2858938661752357,"364":-0.2654697735133066,"365":-0.006433758686483026,"366":0.0008890241304985236,"367":0.09577442426534737,"368":-0.25983939018041374,"369":-0.00032195262422028757,"370":-0.08109922293708781,"371":-0.1468652717205887,"372":0.24956678186808173,"373":-0.06471208551212741,"374":-0.08116399142261733,"375":-0.13413244928199242,"376":0.08702726798918926,"377":0.5253249717723931,"378":0.02712847156444382,"379":-0.38096139019356945,"380":0.04369548422059836,"381":-0.18854415875979633,"382":-0.2388073016348283,"383":-0.04422748185510869}},{"sx":1,"sy":1,"depth":384,"w":{"0":0.07592302715264562,"1":0.016950872133538502,"2":-0.048164550366670486,"3":0.02249783505236239,"4":-0.0063291000932155,"5":-0.021272950256535375,"6":-0.007530825326670244,"7":-0.0000875784478072326,"8":0.23730412476568505,"9":0.1168322889089181,"10":0.01495551468441808,"11":-0.10119406002424754,"12":0.03813219595941263,"13":-0.04044656570416641,"14":0.0721098362773984,"15":0.08746726002660453,"16":0.2760858925418225,"17":0.016974126503190395,"18":0.08712727740271387,"19":0.07967134018783197,"20":-0.12665941886770385,"21":-0.12076687205029353,"22":-0.10092855403687558,"23":0.11826674514835868,"24":-0.16735619171961738,"25":-0.0675431843739931,"26":-0.1059747625010698,"27":-0.15415550421837232,"28":0.09045006877348148,"29":0.20675391671039747,"30":0.025100878941252062,"31":0.08947310152267689,"32":0.0008313735039868908,"33":-0.0324707461948631,"34":-0.11860666319371294,"35":-0.03568575034071787,"36":0.028688117281981212,"37":-0.07408578805510314,"38":-0.13995020420197843,"39":0.032127525523215364,"40":-0.2236248635421617,"41":-0.0024519338635637764,"42":0.1064179015676445,"43":0.11313795831109613,"44":0.06684567348545625,"45":-0.08466243833181235,"46":-0.13695005019802825,"47":-0.04798088171285103,"48":-0.07723068859343847,"49":0.06350619332128904,"50":-0.011826283651308979,"51":-0.07136050856530797,"52":0.07820664584663933,"53":-0.060127048349848305,"54":0.12497393979695469,"55":-0.05367806575297828,"56":-0.051746066276396045,"57":0.037513274186036845,"58":0.01138486737298449,"59":0.07625445159547556,"60":-0.006977354030128276,"61":-0.19095699171642566,"62":0.19373594066222796,"63":0.07842183848483267,"64":-0.08090971779426,"65":0.007126054084789383,"66":-0.022132879043466384,"67":-0.05727399646045164,"68":-0.05517186737474338,"69":-0.028708206257917413,"70":-0.08189468934879983,"71":-0.008232071433064063,"72":-0.01038423039230433,"73":0.05474524646676185,"74":0.07803248064752157,"75":0.09815363673618771,"76":-0.14287774062351274,"77":0.005739465806173979,"78":-0.0750299355475222,"79":-0.04295324359834165,"80":-0.02250349866573264,"81":0.1370475966198674,"82":-0.0782829215807055,"83":0.03571749981365931,"84":0.06243588593665833,"85":-0.02761536021650305,"86":-0.05581700511531129,"87":-0.03375524850774669,"88":-0.11086724922106912,"89":0.06418705104876911,"90":-0.1173957561715285,"91":-0.01504950750985553,"92":-0.13449979354271277,"93":-0.026878910743094585,"94":-0.08153403403319162,"95":0.1461541576749101,"96":-0.052588779769415346,"97":-0.13628990570230964,"98":0.03325623689604187,"99":0.04948451880659088,"100":-0.05888468086865884,"101":-0.09423902919619166,"102":0.00017322864098834843,"103":-0.0822472828814728,"104":0.014922462545954189,"105":-0.0604768769334741,"106":-0.14612535567722443,"107":-0.18240625325075047,"108":-0.008473825158413096,"109":0.06310695890909168,"110":-0.031214332792477352,"111":0.05143181615353191,"112":0.06445212698793412,"113":-0.1878916887858425,"114":0.08191796730846138,"115":0.06986856055197176,"116":0.0759287185179378,"117":0.1620867018845392,"118":-0.11354795280710421,"119":-0.09737935380553989,"120":-0.09317931586993217,"121":-0.038576607995456154,"122":-0.06187882321745877,"123":-0.09199305516756531,"124":0.081435286205684,"125":-0.1705618212435386,"126":-0.06858826356826889,"127":0.02914934890482312,"128":0.033380222285902116,"129":-0.10979102052115301,"130":-0.028125378518734305,"131":0.06112998205853887,"132":0.002693855291290431,"133":-0.07582222276483666,"134":0.1352043511818819,"135":-0.05460073980413381,"136":0.01864584232695654,"137":-0.047515676375297744,"138":-0.04007446546466454,"139":-0.17160843450548696,"140":0.05113735353438786,"141":-0.01982134249828224,"142":-0.12928383047111033,"143":0.04941584331896678,"144":-0.05691352142590923,"145":-0.1875616096259434,"146":0.03558701642239128,"147":-0.14672872997094571,"148":-0.07234776693386852,"149":0.019184429536692017,"150":0.13159974328541044,"151":-0.09398762961267257,"152":0.1633033136768566,"153":0.11074133776412523,"154":0.4487709823219267,"155":-0.0544993391594501,"156":-0.07361028582162049,"157":0.05671527521629514,"158":0.22074633258301746,"159":0.0414008023698787,"160":0.08968313357037502,"161":0.04272272920975435,"162":-0.024753166608490793,"163":-0.004605944572448695,"164":-0.054318126411123775,"165":0.030056222317262994,"166":-0.16347059330696104,"167":-0.008032947229401349,"168":0.0341934214183565,"169":0.022348927413719147,"170":-0.15226965305462356,"171":0.01663887913249013,"172":0.023963557770619807,"173":-0.008244520392336304,"174":0.03719224596298169,"175":0.04598968795306629,"176":-0.08801735405602103,"177":-0.04757984966091714,"178":-0.05883793345030877,"179":-0.0418972319245084,"180":0.15664976936737643,"181":-0.06527980937207577,"182":0.1552143035729328,"183":-0.03064738183807562,"184":0.08862827584640821,"185":0.05240502009089395,"186":-0.06324602584731451,"187":-0.03375738950512492,"188":0.0620098594812009,"189":-0.12023154982375998,"190":0.1456107995650886,"191":-0.04515383887910397,"192":-0.04650835180738979,"193":-0.014654321007585288,"194":-0.16825952987760653,"195":-0.08508862117602271,"196":-0.16594549538471137,"197":-0.05269516119630985,"198":-0.015279173372435534,"199":-0.03055001826760953,"200":-0.059799040267976326,"201":0.010876514559143246,"202":-0.08957745021150174,"203":-0.25047519497070253,"204":0.011743894446522631,"205":-0.017799125687976865,"206":0.03054720803163282,"207":-0.0650415118712086,"208":0.0558023778784912,"209":0.11351646368082302,"210":-0.03716561545997542,"211":-0.10758962168217086,"212":0.01906435108023507,"213":0.1107912728865289,"214":-0.029429601356054904,"215":-0.10690674393379429,"216":-0.003648132702891796,"217":0.046153460672263086,"218":-0.01267999274288192,"219":0.0588347657254136,"220":-0.050051858609154926,"221":0.1439059552117958,"222":-0.02927388835341447,"223":-0.0164039200536528,"224":0.04430650841772999,"225":-0.08348121416139923,"226":0.03393091694300913,"227":0.030304458812502346,"228":0.032847117542388976,"229":-0.07860375850175785,"230":0.0946853517672239,"231":0.07699272780802373,"232":-0.031069495683076213,"233":0.14035902015703713,"234":-0.08405682107687229,"235":0.07638643165237961,"236":-0.05673234801075955,"237":-0.08021190349020452,"238":0.13149207135421684,"239":-0.06728069441196678,"240":-0.13403307624898528,"241":0.10819726061716495,"242":0.023763260877802575,"243":-0.008983113980108504,"244":0.07646135503182507,"245":0.024306580359401062,"246":0.05448889201767495,"247":-0.10148333770519422,"248":-0.023168192370517298,"249":-0.06389660926699617,"250":-0.06627549124079568,"251":0.0946871464779618,"252":0.04309261286132697,"253":0.09765303972558606,"254":-0.04315972119864554,"255":-0.07334676918372017,"256":-0.06468309074247902,"257":0.16953935397546,"258":-0.0690587258259701,"259":0.017405981477300006,"260":-0.0058140168388083405,"261":0.06612562338817925,"262":-0.11066120533726367,"263":0.002453666093013757,"264":0.22030978465391113,"265":-0.012215804564074716,"266":-0.07019843746012921,"267":-0.19206752172562663,"268":0.022590016846896405,"269":-0.03536202146535425,"270":-0.020433593308202772,"271":-0.10877207052442092,"272":-0.00033893238475261585,"273":-0.12200481326682706,"274":-0.06293436276918953,"275":0.2543074537502991,"276":-0.004214371754052258,"277":-0.17273125230457767,"278":-0.017000204218187123,"279":0.06053954623404289,"280":-0.045527419492051094,"281":0.014099099554771316,"282":0.06020801228250918,"283":-0.16123382102609143,"284":-0.022280400913506773,"285":-0.16095437286470124,"286":-0.02464897471677621,"287":-0.07672972434216122,"288":0.09240941200301632,"289":-0.14236756545408968,"290":-0.06865045163523682,"291":-0.08368558955247933,"292":0.03161480810394774,"293":0.06186953178438269,"294":0.179486899334641,"295":-0.07281935255844194,"296":0.13538671236509986,"297":-0.0336171256930964,"298":0.04707208503364699,"299":-0.17139750104811405,"300":0.053754068944256314,"301":-0.06046724126002788,"302":-0.040310687461602476,"303":0.07228118036707856,"304":0.12439479868330518,"305":0.1141634181485239,"306":-0.061214745770323764,"307":-0.09173275442173282,"308":-0.03835301825720326,"309":-0.049347103946051005,"310":0.012933183878032191,"311":0.13190754184891273,"312":0.0960470401582835,"313":-0.09783959873105476,"314":0.04723083611043837,"315":-0.04000774786580384,"316":0.11576781126771225,"317":0.034592142927411765,"318":-0.07873587338955751,"319":-0.28963552443425095,"320":0.08491622711442919,"321":0.10592295492270193,"322":-0.010188169004956886,"323":-0.02224147459148295,"324":0.02075337997590688,"325":-0.049605746982584784,"326":-0.02809652732952232,"327":-0.09818593167916465,"328":0.05674000166895451,"329":0.10526504245712336,"330":0.036557126951381004,"331":-0.05582232086411283,"332":-0.04453685601544383,"333":-0.13470001466231354,"334":-0.06795009106077451,"335":-0.020542198891319034,"336":-0.07678060704033451,"337":-0.07398308964729661,"338":-0.06459353521718374,"339":0.10302639878204974,"340":-0.04551578258313222,"341":-0.2359712579617427,"342":-0.04587805934500066,"343":-0.020000543538676467,"344":0.03373574673797525,"345":0.014048082866437711,"346":-0.018591964685644044,"347":-0.042616545157594846,"348":0.0530808724629336,"349":0.05620863070076012,"350":-0.1635245611154799,"351":0.08660502422093735,"352":-0.06363551059332316,"353":-0.060388263528494364,"354":0.03461396583719107,"355":-0.09637485903183222,"356":-0.018334098880030087,"357":-0.02166745562810472,"358":0.051090522253924985,"359":-0.08195601150240424,"360":0.1683439070134169,"361":-0.05417568583436245,"362":0.11421332835114202,"363":0.09004366221655952,"364":-0.01373536877014516,"365":0.07531439133818627,"366":0.006262310373833486,"367":-0.11571765868472238,"368":0.03981543691962205,"369":-0.06148182642315754,"370":-0.05277723315928329,"371":0.043761030115600244,"372":-0.014888500131531661,"373":0.10937775332095523,"374":0.042016274239311896,"375":-0.11830924731816832,"376":-0.0576231232853432,"377":-0.03178962509931184,"378":-0.04659880702653778,"379":-0.09507237630658091,"380":0.011576262344911926,"381":-0.04447011292734734,"382":0.042504444611742395,"383":-0.17267662023198604}},{"sx":1,"sy":1,"depth":384,"w":{"0":-0.08961670596990982,"1":-0.04075633154423644,"2":-0.12608463292288877,"3":0.14972871234212196,"4":-0.04912955434225113,"5":-0.07850948742647133,"6":-0.25316760631315965,"7":-0.017945183697047052,"8":-0.052196806583257295,"9":-0.28636878143998284,"10":0.053351236008575866,"11":-0.30228610256404803,"12":-0.11996291162455695,"13":-0.08597741529178157,"14":-0.225530500472486,"15":0.3557883068970726,"16":0.004835602382786097,"17":-0.1609681711741571,"18":0.020041299151263018,"19":0.07289906766613058,"20":-0.08494423539417671,"21":-0.15756736378290456,"22":0.13680774172904978,"23":0.04357539227761585,"24":-0.10040475117634937,"25":0.05582268303428544,"26":0.02257737580808545,"27":-0.0966551123093343,"28":0.039490074636172996,"29":-0.4095371401498356,"30":-0.02114194351718282,"31":-0.07918604338732424,"32":-0.14132664123783922,"33":-0.14041411606453735,"34":0.2141911776503753,"35":-0.008437167440908059,"36":-0.12789109856811867,"37":-0.20551301722409254,"38":0.0610545818659746,"39":-0.1312915724595051,"40":0.024073352868846255,"41":0.3586242383142637,"42":0.14021782027060767,"43":-0.1719262573303291,"44":-0.14675673844833936,"45":-0.08812454364052359,"46":0.4059438446809047,"47":-0.0046579441421921546,"48":-0.2419699914344311,"49":-0.1060332928689268,"50":-0.08655165458755086,"51":0.41124797715053363,"52":0.004219351641208045,"53":-0.0014682133117421827,"54":0.20170347376508738,"55":0.22195754365492865,"56":0.19113765559475146,"57":0.06874584725311951,"58":0.12561488694549874,"59":-0.05537183187567671,"60":0.011812829502765288,"61":-0.06754766723162546,"62":-0.36625012804886226,"63":-0.11197503087229288,"64":0.010952779427277026,"65":-0.16241657173374555,"66":-0.04355210638950011,"67":-0.003093965635435223,"68":-0.054979315480368045,"69":-0.039636544033192236,"70":0.06631731314196769,"71":-0.13475122431912012,"72":-0.12181579731246399,"73":0.2004524153713133,"74":-0.1486200009830361,"75":-0.694976146768617,"76":-0.0093341308629811,"77":0.09810435426645797,"78":-0.26853630351143687,"79":-0.0034649150983574115,"80":-0.09584662574804027,"81":0.250478830080732,"82":0.08380448883366673,"83":-0.03531887731228791,"84":-0.11432147192707422,"85":0.2148427709805846,"86":-0.24457219031779615,"87":-0.2063370754800961,"88":-0.0315307438315238,"89":0.058008315421688425,"90":-0.10222196072252962,"91":-0.023890000177993025,"92":-0.07804920836562695,"93":-0.11776090166627674,"94":0.07860220185253007,"95":-0.1578018498249219,"96":-0.08483729593174981,"97":0.0691228447579845,"98":-0.10167459550042952,"99":-0.059046354528061624,"100":-0.1167411602885533,"101":0.2984610540759513,"102":-0.006746731955879693,"103":-0.023391803778865617,"104":0.020009384848254885,"105":0.028893777300711566,"106":-0.1821417562747746,"107":0.015199602804127082,"108":-0.22282405663266341,"109":0.11574628162650735,"110":-0.05106629458170081,"111":-0.07454477400555368,"112":-0.08856745467849185,"113":-0.02992499705803132,"114":0.03210536464659533,"115":0.02480728188032956,"116":-0.035689809530207,"117":-0.22428450050407459,"118":-0.11556394462135203,"119":-0.2015705936671862,"120":-0.0955010100207059,"121":-0.08694340604117654,"122":-0.022013051854268457,"123":-0.3618874508690904,"124":-0.16787218584409488,"125":-0.171542399925512,"126":0.037237379643609174,"127":0.008620378886841163,"128":-0.07318521793367357,"129":0.06800531301649305,"130":-0.1963108103468076,"131":0.4196614987585435,"132":-0.14908094434700425,"133":0.04054207295722545,"134":-0.2665340101099788,"135":0.3929141452221876,"136":-0.09473310862555366,"137":-0.01161379093081157,"138":-0.051124505424005984,"139":-0.16080125891319288,"140":0.30713349378885113,"141":-0.09537848862582216,"142":-0.07991517158936487,"143":-0.24584671209234166,"144":0.11460379913298938,"145":0.23817395842397415,"146":0.0392813711931826,"147":0.09506957740167726,"148":0.029160503912183982,"149":-0.3400237567243472,"150":-0.2045659270476882,"151":-0.19869384218249647,"152":-0.10160709875731062,"153":0.3339113961113447,"154":-0.09048416147880788,"155":0.08577919031053598,"156":-0.06085454514175573,"157":-0.07215026588063192,"158":-0.21480620626634397,"159":-0.09648961192209968,"160":0.37989678567600343,"161":0.45982738502625575,"162":-0.2689606691263977,"163":-0.0653785922078063,"164":0.19845237381472455,"165":0.23416599583870654,"166":0.009190276341591874,"167":-0.23372960028070308,"168":0.32746988406516825,"169":-0.348676255213917,"170":-0.2291230284686125,"171":-0.3621068159269684,"172":0.034000369469270375,"173":-0.1002153292070252,"174":-0.015839410651853222,"175":-0.08860623441300898,"176":0.0011446555909457288,"177":-0.1450155760089447,"178":0.055883167450707726,"179":-0.1496183959459427,"180":-0.20905056936672556,"181":-0.06135737830593901,"182":-0.19073923118330757,"183":-0.33329990530054504,"184":-0.010584563561826812,"185":-0.25802775811031864,"186":0.455952875498179,"187":-0.34888121505422215,"188":-0.19897715934951762,"189":-0.3464571869124941,"190":-0.2276078726907862,"191":-0.27025845523692416,"192":0.04227106897569959,"193":-0.07240475634445137,"194":0.05010102230257583,"195":-0.15328651757602046,"196":-0.21408569553682574,"197":-0.14456746355876696,"198":0.10437893836082825,"199":-0.24320921885763527,"200":-0.22822944244964394,"201":0.41182735067568316,"202":-0.06583564351384581,"203":-0.19776633560537266,"204":-0.03547834287182757,"205":0.0552255011929501,"206":0.37108050986927765,"207":0.03211544651430843,"208":-0.18178123517112982,"209":-0.06077426537205117,"210":-0.15408978101105283,"211":0.347547137065672,"212":-0.24185727207694885,"213":-0.1983805020979957,"214":0.3879471587521505,"215":0.24881607411933768,"216":-0.13968737665628297,"217":-0.029139180870671088,"218":-0.07654251903630324,"219":-0.31392931454270756,"220":0.3956473887527835,"221":0.1444887474028444,"222":-0.4018641944453151,"223":0.05346472330179158,"224":-0.08899802845944678,"225":-0.10281169107596892,"226":0.12566624748545305,"227":-0.03302584304348667,"228":-0.18384748131348586,"229":-0.17714452494925706,"230":-0.03534943460332353,"231":-0.1642966660073049,"232":-0.16665423367736978,"233":0.1518448134451892,"234":-0.18784014337189517,"235":-0.4999519966723686,"236":-0.14630632162147672,"237":0.12602179515618944,"238":-0.012725423437847222,"239":-0.09174986667310771,"240":0.1833996891783555,"241":-0.03879483345781302,"242":-0.04883682736636641,"243":0.0882407376446827,"244":-0.028884276934643686,"245":0.008289961211131331,"246":0.03802198782870302,"247":-0.05286062053233404,"248":-0.029062772889065246,"249":0.10397648434401538,"250":0.0009257874109236639,"251":-0.054664655449420854,"252":-0.1444568986449067,"253":-0.06529251234947865,"254":0.09097735143630005,"255":-0.2728454738053051,"256":0.02345471241745602,"257":-0.027808017845146995,"258":-0.4712371291146008,"259":-0.30626141349058084,"260":-0.20258319514380524,"261":-0.12240213059338043,"262":-0.12803840384833975,"263":-0.14582009798385775,"264":-0.28849542074787093,"265":0.18384675028081773,"266":0.01827932923846065,"267":-0.03214033549913315,"268":-0.03007085737299377,"269":0.06202857047205576,"270":-0.06971518243314327,"271":-0.16474368261353162,"272":-0.4056587008130826,"273":-0.13330549910067152,"274":-0.21523440004422126,"275":0.0020191844482126673,"276":-0.13482663976896464,"277":0.0935644640647344,"278":0.010993715983759228,"279":0.013380931002314217,"280":-0.2381781032031955,"281":-0.5017828299037772,"282":-0.23136882210360496,"283":-0.020061076742415574,"284":-0.10996927718861825,"285":-0.182058239673711,"286":-0.2425484879757535,"287":0.05777007424043485,"288":-0.23348410150966828,"289":0.02340242838319661,"290":0.1555713860775812,"291":1.1267234525331327,"292":-0.12923778598283314,"293":-0.04837936782266669,"294":-0.4733162302158758,"295":0.0857061778213496,"296":-0.14035088430018336,"297":0.007587233723989672,"298":-0.4626637474090828,"299":-0.36616774825609766,"300":-0.024203116678911812,"301":-0.05292911044583843,"302":-0.22700832810631646,"303":-0.27850808050321707,"304":-0.15978993213617151,"305":0.06378477446614109,"306":-0.031556461616748334,"307":-0.013091961546089685,"308":0.5030152197742461,"309":-0.2086227811534855,"310":0.15328964830723077,"311":-0.4110037103498044,"312":-0.1106121779743037,"313":1.3792048250019628,"314":-0.2400969204783524,"315":-0.17078142579371264,"316":-0.017728611476271566,"317":-0.18212588977904065,"318":-0.5400262896940462,"319":-0.03913327384045353,"320":0.3680166889784054,"321":0.34114458014324817,"322":0.06241559274599794,"323":-0.08148992750314825,"324":0.016258702540421915,"325":0.19923037513523503,"326":0.21628435482756767,"327":-0.13252478210886245,"328":0.19343123235890936,"329":-0.11204164421708382,"330":-0.22589872709889225,"331":-0.3217727274570642,"332":-0.04188616642717044,"333":-0.14028593657568875,"334":0.05536896282392226,"335":0.014052204791885597,"336":-0.05528821746873899,"337":-0.17114755852505567,"338":0.1591655512763734,"339":-0.13300560897541325,"340":-0.04816280652284102,"341":-0.14941790368790647,"342":-0.026310140448881504,"343":0.05636442624346235,"344":-0.013640600272886824,"345":-0.09297432223451883,"346":1.0274400695845731,"347":-0.16561839833093933,"348":-0.26543103167871035,"349":-0.28163789378862103,"350":-0.4085657905051779,"351":-0.48947553982837433,"352":-0.00920221115811969,"353":0.07317542267022728,"354":0.2403017944143585,"355":-0.1055448309718864,"356":-0.053512209092343874,"357":0.11013685112707225,"358":0.015327938142006675,"359":-0.1773003493393808,"360":-0.11341547586640627,"361":-0.08647858644819138,"362":-0.17143045092312287,"363":-0.6773961760293028,"364":0.10204197980015517,"365":-0.2068909120184695,"366":-0.10534247621749063,"367":-0.046540533303430186,"368":-0.003042243349494017,"369":0.02568635511373599,"370":-0.09682481903711276,"371":-0.0547832130171762,"372":-0.11626510676727239,"373":-0.17339347232568286,"374":0.053545448889072984,"375":-0.16106450221549742,"376":0.005018204794725208,"377":-0.12888213254385258,"378":0.00928253311723536,"379":-0.2883935511282791,"380":0.4893813794009513,"381":-0.008399748845177912,"382":0.1873399131846485,"383":-0.06879828971136528}},{"sx":1,"sy":1,"depth":384,"w":{"0":-0.045432321309262697,"1":-0.11840569030027799,"2":-0.20869898942596346,"3":-0.03932935281314908,"4":-0.0521097496421399,"5":-0.2250962540227028,"6":0.2537565561291879,"7":0.10410118184064905,"8":0.1323429109831584,"9":0.2406006244307835,"10":-0.6565253025117208,"11":-0.9210619759883927,"12":0.09249609315681274,"13":0.024268948844696794,"14":-0.02017240706380231,"15":0.11897524022326145,"16":-0.159970381436917,"17":0.2518429736103815,"18":0.010262599096702772,"19":-0.20063781047570595,"20":0.08300423579814808,"21":0.14333034006172712,"22":0.03170667584424253,"23":0.06887258568782621,"24":-0.12599635733990053,"25":-0.09174039113050853,"26":-0.21079042332486395,"27":0.10689503175820005,"28":-0.10646859244697114,"29":0.2004120971743317,"30":-0.3924661110947997,"31":-0.04897802047145063,"32":-0.07719229360505743,"33":-0.12520113907227168,"34":0.04752532494384086,"35":-0.07596082971082889,"36":-0.10930784956098227,"37":0.44038368400784333,"38":-0.21800705205140958,"39":0.7481956853649498,"40":-0.42851264316272775,"41":-0.15262637059154588,"42":-0.09385972386831937,"43":-0.35816158130909964,"44":0.12419481791449277,"45":-0.10896253008128198,"46":-0.09704085884061744,"47":-0.05298886167763267,"48":-0.14888067753843756,"49":0.06318918718071576,"50":0.22402334605879576,"51":-0.10852624222603686,"52":-0.11937542264565935,"53":-0.35818095059453847,"54":-0.005856551776331457,"55":-0.3561852583690401,"56":-0.11357886564080706,"57":-0.15900118122256493,"58":-0.15800226198575895,"59":-0.1364509389649003,"60":-0.05787391788970566,"61":-0.27284728644726786,"62":-0.07520086313824768,"63":-0.1691375542718283,"64":-0.09958097403276449,"65":-0.20546216426024114,"66":-0.08320598309327572,"67":0.1882517331899328,"68":1.1842414329161721,"69":-0.3374412794255373,"70":-0.0036984544172110113,"71":-0.0668964091679103,"72":0.02103222797083475,"73":-0.054569802500550754,"74":-0.18742095087166571,"75":-0.3217032467427208,"76":-0.17720786940297836,"77":-0.21628380560119218,"78":-0.09003693283948083,"79":0.5468845402771644,"80":-0.0728691769196225,"81":-0.291325957202377,"82":-0.030802951498962634,"83":-0.04100635823327289,"84":-0.04830047991408412,"85":-0.018988519633145098,"86":0.1725064977968823,"87":0.7283344241170758,"88":0.018052426958282148,"89":-0.001088898319321111,"90":-0.2509055834330156,"91":-0.1274220346786223,"92":0.10488268182373836,"93":-0.33676167750090147,"94":-0.1407798150870346,"95":-0.09895560502727598,"96":0.23287362173561732,"97":-0.046661067631456096,"98":0.4709143838463569,"99":-0.023217456320618626,"100":-0.06238658184338204,"101":-0.13564520287967893,"102":-0.053322708564220486,"103":-0.07450416322309643,"104":-0.0027004538328914513,"105":-0.026781306391375267,"106":0.018689200038304526,"107":-0.12024096758771662,"108":0.009765226208033249,"109":0.33010960800164957,"110":-0.21349304918063788,"111":0.034126370423437045,"112":-0.07867872731280118,"113":-0.26550913654302627,"114":0.07848692135543393,"115":-0.09265396540671972,"116":-0.21279509119745088,"117":-0.2633330340188168,"118":0.033503102750148915,"119":-0.2540683765215677,"120":-0.08483144149461627,"121":0.11989943965288244,"122":0.2765859625905002,"123":-0.1370891408270992,"124":-0.03503087885810466,"125":-0.26123085884915,"126":-0.5643821487024676,"127":-0.00906103773723358,"128":-0.04217788130854603,"129":-0.43501468123289583,"130":-0.2945184730208892,"131":-0.05970512890708829,"132":-0.1901143645018753,"133":-0.09413130154811945,"134":0.22869326936865897,"135":-0.11681949371769182,"136":-0.14166016084817798,"137":0.19673903972026732,"138":-0.06794093453340316,"139":-0.17998991209642937,"140":0.03576417737810326,"141":-0.028069014491488617,"142":0.20392864581871228,"143":-0.08146285827634438,"144":0.04947729593224484,"145":-0.197235112169842,"146":0.020491844267819637,"147":0.4426797338470979,"148":-0.3044505822479473,"149":-0.2305501430680237,"150":0.3896914056660542,"151":0.04547771497837798,"152":-0.13501908037215732,"153":-0.033786278420183904,"154":-0.09240007821267564,"155":-0.578353652185493,"156":0.6556396264626119,"157":0.21695204876668445,"158":-0.10638828860488939,"159":-0.0718728397572956,"160":-0.07564817353579176,"161":0.023006175811251892,"162":-0.1077683026516895,"163":-0.22196954574861705,"164":-0.052007162368227916,"165":0.0003629257329790192,"166":-0.3536272015424952,"167":0.07904677059419693,"168":-0.22145361191840882,"169":-0.0851126630199277,"170":0.08584729928533372,"171":-0.08359594292713234,"172":-0.06432794954499378,"173":-0.1608961814719018,"174":0.022255682742514053,"175":-0.1343503827246332,"176":-0.41595019639021497,"177":-0.28738897316845063,"178":-0.09462369916276413,"179":-0.060213065769026436,"180":-0.044065649733547554,"181":-0.1253553821704356,"182":-0.27760205988459685,"183":-0.2011274909324358,"184":-0.08074097963589347,"185":-0.28352177880270246,"186":0.11523418296773547,"187":-0.2120488778520051,"188":0.06793112781526321,"189":-0.42699313360969804,"190":0.18034883795409037,"191":-0.07360271407189074,"192":-0.1456016848558847,"193":-0.25212184551010297,"194":0.22677908230040994,"195":-0.07042891359441401,"196":0.23254267640630943,"197":0.03854558647269104,"198":-0.05540971300777645,"199":0.9067661764812225,"200":-0.08036148200928304,"201":-0.13112987405808477,"202":-0.020219729146195006,"203":-0.21645106768432182,"204":0.21347431557359312,"205":-0.006419127117393598,"206":-0.5310082833815839,"207":-0.1268829327817997,"208":-0.030872976134129912,"209":-0.013805099385637579,"210":0.36604125529939463,"211":-0.11197397661484801,"212":0.16427629426311333,"213":-0.1969467898937393,"214":0.22837800040834721,"215":-0.44413136264794356,"216":0.0009319031254362415,"217":-0.17936893362913486,"218":-0.04107368398612816,"219":-0.07923883056422898,"220":-0.11151734546135836,"221":-0.08167527321563103,"222":0.061610029479798205,"223":-0.12783094826607624,"224":-0.07497645577231057,"225":-0.04136093720065486,"226":-0.1950159120148229,"227":0.37338956051607414,"228":1.130993381037517,"229":-0.36404677881719055,"230":-0.16079723980377642,"231":-0.08581460208224424,"232":-0.05185027705183777,"233":-0.11999388587721421,"234":-0.0495821860360286,"235":-0.17811909502906131,"236":-0.04620954590918132,"237":-0.1790995642077941,"238":-0.13217230446241476,"239":0.6411464732280167,"240":-0.21289486400743055,"241":-0.19578111663755102,"242":-0.01723834949634525,"243":0.2351529135605763,"244":-0.13267118432468467,"245":-0.03481657669239904,"246":0.08392483238563182,"247":0.8956550972281425,"248":0.10766077316533518,"249":-0.04512229979106884,"250":-0.10200928333911567,"251":0.1976090207957309,"252":-0.004876749483994348,"253":0.04441801321836775,"254":-0.3381542102577305,"255":0.33346462739430754,"256":0.5395590049546793,"257":0.4340401677812096,"258":-0.055854295921615775,"259":-0.2665847981655116,"260":0.11405818583723153,"261":0.18742485930358896,"262":0.3292674939750094,"263":-0.26460495817059454,"264":0.4774082130828798,"265":-0.22172092911053004,"266":-0.5666255632695244,"267":-0.12174056755502473,"268":-0.17097129288986096,"269":-0.19727689039890361,"270":0.04766852248887167,"271":-0.3983834696210445,"272":-0.07197158731011698,"273":-0.591338367933009,"274":0.12681054599692868,"275":-0.2113773001655348,"276":-0.27040138106770906,"277":-0.022654699589824395,"278":0.06565144905292626,"279":-0.20480249327220656,"280":-0.3207226944127409,"281":-0.26945791857461615,"282":0.8242905546449726,"283":-0.4033618514857155,"284":-0.8462856167744182,"285":0.08623071790607487,"286":-0.12437744289888976,"287":-0.1653917480500277,"288":0.006455093507173342,"289":-0.15359118555021697,"290":-0.19489051270282765,"291":-0.2101459939412991,"292":-0.10002257228616807,"293":-0.017627742406099677,"294":-0.1756712852766224,"295":-0.3371072926083298,"296":0.08281916619227749,"297":-0.17580166669777889,"298":-0.6637102899303674,"299":-0.2569899541840733,"300":-0.044268454818025424,"301":0.04587179706266133,"302":-0.26431390963342344,"303":-0.3975817499358245,"304":0.22685227091245966,"305":-0.001638819313024253,"306":-0.14342467539690681,"307":-0.4531493651038538,"308":-0.03569552743976891,"309":-0.1239980770656481,"310":-0.2233164950371834,"311":-0.15232148428801598,"312":0.014083050969122829,"313":-0.10629269138834513,"314":-0.3167760334997432,"315":0.02561814271780072,"316":0.45033186595264446,"317":-0.3567882016927547,"318":-0.09637809758166806,"319":-0.02022589338142241,"320":-0.18535697580676405,"321":0.02857709801832252,"322":0.0626608490898229,"323":-0.07733143758550602,"324":-0.1627529059767237,"325":-0.11150196634688765,"326":-0.10346554247248028,"327":0.1738219709878606,"328":-0.23130308472600308,"329":-0.07615804335098904,"330":0.20066126076495575,"331":0.16557222055853543,"332":-0.1166489023118354,"333":-0.15433238478101138,"334":0.1991720486867992,"335":-0.07124188417769801,"336":-0.376525020236404,"337":-0.20714055913444926,"338":-0.13545224101078215,"339":0.2448471815384271,"340":0.0723349020368191,"341":-0.11788695356179762,"342":0.011209429768404883,"343":-0.11595413703993857,"344":-0.0716873320437088,"345":0.09521249051920003,"346":-0.006568260155264439,"347":-0.18468059318323332,"348":0.12305035816038107,"349":-0.219306570648533,"350":0.4465784853887364,"351":0.06337931654985315,"352":-0.06861306299623864,"353":-0.056314249059742374,"354":0.1465937922087402,"355":0.05928456364772084,"356":-0.03229087050101027,"357":-0.19310033856684375,"358":-0.03998785140103894,"359":0.3208041708499896,"360":0.0274997907752658,"361":-0.12130304010149348,"362":-0.03137077365183779,"363":-0.37276841880481465,"364":-0.002019077852711845,"365":-0.07091746407582494,"366":-0.05890198773073295,"367":-0.19945935243026922,"368":0.03143022197649696,"369":-0.2546069536450307,"370":0.030254771057445663,"371":-0.2568056015152978,"372":-0.06271742216269564,"373":-0.3727825718995886,"374":0.15527082375280218,"375":-0.12026889278922066,"376":0.09944868945751818,"377":0.06306047515404452,"378":0.0035677818381989867,"379":-0.14102678201746555,"380":-0.16632497667670681,"381":-0.2486392247179195,"382":-0.09230287551118786,"383":-0.09519070729666217}},{"sx":1,"sy":1,"depth":384,"w":{"0":0.3982348213695658,"1":-0.2590733697870385,"2":-0.23330141594078121,"3":0.6119080216263658,"4":-0.09259157547483018,"5":0.08440706430957043,"6":0.18108199463820712,"7":-0.06308099636365681,"8":0.8820743342134081,"9":-0.2932826503458312,"10":0.2825545449766379,"11":-0.305511967248834,"12":-0.10045053288236887,"13":-0.22748595357184828,"14":-0.1645510556688331,"15":0.44760242265828015,"16":-0.0053097690602956805,"17":0.0762043961994982,"18":-0.010740117126488365,"19":-0.0937854729514348,"20":-0.13178017596783667,"21":-0.22985153262558353,"22":0.10199632218714492,"23":-0.2616005667921661,"24":0.08836245991767133,"25":0.8911055264803522,"26":-0.10140567282485452,"27":-0.3402625046977219,"28":-0.09859209122501832,"29":0.08894036472472372,"30":0.07513770460515769,"31":0.4245199086861811,"32":0.749574287228751,"33":0.29710646690271403,"34":-0.13564976836931206,"35":0.15288017240661422,"36":0.2707303469197973,"37":0.25526385263196166,"38":0.578475459349457,"39":-0.10087769291537106,"40":0.2768275070534801,"41":-0.0426048999172087,"42":-0.4933701625059362,"43":-0.17289971957673905,"44":-0.0847996868881658,"45":-0.03347509150831856,"46":-0.14081828045950084,"47":-0.49659717042915463,"48":0.21587719218972642,"49":-0.12021105257552094,"50":0.18046534368571943,"51":-0.17521496723100344,"52":0.036981493035406314,"53":-0.1395962727483602,"54":-0.019021606732903165,"55":-0.07415336088894264,"56":0.007370743706410884,"57":-0.11020180497148602,"58":0.4910569580499879,