{"layers":[{"out_depth":2,"out_sx":7,"out_sy":6,"layer_type":"input"},{"sx":4,"sy":4,"stride":1,"in_depth":2,"out_depth":32,"out_sx":4,"out_sy":3,"layer_type":"conv","l1_decay_mul":0,"l2_decay_mul":1,"pad":0,"filters":[{"sx":4,"sy":4,"depth":2,"w":{"0":-0.8543732245898107,"1":0.19443319751787289,"2":-0.9778175851014416,"3":-1.1251617336824649,"4":1.1076919909515726,"5":0.5981869900353638,"6":0.8806578786033606,"7":-1.24815640992311,"8":-0.2997467958869307,"9":0.3102794138097612,"10":0.17755293832331553,"11":0.24631433629681787,"12":0.290705545451608,"13":-0.5191018218103711,"14":0.3043072101864592,"15":0.48316693243159087,"16":-0.7997865827287349,"17":-0.6850506526126262,"18":-0.6556553605362393,"19":-0.03297547039558532,"20":0.5286710795808365,"21":-0.24610522515258693,"22":0.3332285813286632,"23":-0.3130851867835096,"24":-0.5562186506934236,"25":1.601921437097437,"26":-1.1759231913777557,"27":-0.9004132129632433,"28":-0.288173567920876,"29":-0.2739558644218319,"30":-0.959381754215988,"31":-0.4389549160799053}},{"sx":4,"sy":4,"depth":2,"w":{"0":0.11477342002510886,"1":-0.28229788670052935,"2":0.7371693990159812,"3":0.7209080291431129,"4":0.24962628857895444,"5":-0.04154645412863837,"6":0.10300683193102901,"7":0.021396738661742166,"8":0.5505091333321698,"9":-0.5880588756087033,"10":-0.09172964834899414,"11":-1.005507409682633,"12":0.10329526688456986,"13":1.7464846313051108,"14":-0.2886216250892672,"15":-0.329922559270379,"16":1.0168736245499754,"17":-0.537375651711139,"18":-0.2645037664445682,"19":-0.3277592209688528,"20":-0.14481884441512682,"21":-0.058501285013602626,"22":0.4827112399350876,"23":2.430741653411072,"24":0.11183777627949415,"25":-0.3769077298789245,"26":-0.4868821745492229,"27":0.2533064877243952,"28":-0.2612107786655338,"29":-0.23106160892550323,"30":0.41348880388401427,"31":0.07259167124901542}},{"sx":4,"sy":4,"depth":2,"w":{"0":0.12136343016685121,"1":1.0866020447435887,"2":-0.7579050242544749,"3":1.3028669890256979,"4":0.19692958192956747,"5":0.9247278861655754,"6":-0.1376614313462278,"7":-0.33104489069988635,"8":-0.18385003988501045,"9":0.03991938396123703,"10":-0.3521798374071212,"11":-0.04247954731007013,"12":-0.016413111453580966,"13":1.3583800725297879,"14":0.1880258290197483,"15":0.5002444634572263,"16":-0.6575612307742987,"17":0.7183211042565991,"18":-0.23702908169630058,"19":0.04558364311155786,"20":0.23615212911386396,"21":-0.05959060743823794,"22":-0.3193201382285804,"23":1.3148444566226678,"24":0.4059956490824066,"25":-1.11426795556532,"26":-0.8810125714947316,"27":0.09059219523862315,"28":0.6551642881694448,"29":-0.17862621729447387,"30":-0.04006797548590461,"31":-0.2496216800008267}},{"sx":4,"sy":4,"depth":2,"w":{"0":-0.052293375175667074,"1":2.0405217835022347,"2":0.4924809821588978,"3":-0.3797745110482917,"4":-0.07537788070216223,"5":-0.24750013516272024,"6":0.11207230788878335,"7":0.5529300121136144,"8":-0.6719059402770919,"9":0.3140861130294648,"10":0.03516879995898569,"11":0.11921400526199612,"12":0.5334054184421452,"13":0.1703868227627921,"14":-0.13922625863796723,"15":-0.2754309123813993,"16":0.40471827550251943,"17":0.43977484320146154,"18":0.15319961036618523,"19":0.3421428061434359,"20":0.3723881086315987,"21":0.5486852789384122,"22":-0.8875730944649063,"23":0.22641070353324314,"24":-0.004247175567634071,"25":-1.3889700189931808,"26":0.9443876190712995,"27":0.6743032600419394,"28":0.34150134575319635,"29":0.6670004387430464,"30":0.9454075082605424,"31":1.0264300501199084}},{"sx":4,"sy":4,"depth":2,"w":{"0":1.309180169427904,"1":2.951116606767838,"2":0.8633245985325723,"3":0.5202211196814991,"4":0.12601370375201512,"5":0.06877959991741155,"6":-0.32254688121936337,"7":-1.0943714076101232,"8":0.3665314710973219,"9":-0.549762369437286,"10":0.15440307966550085,"11":1.819657833743013,"12":0.2960939150988968,"13":-0.39913152550791914,"14":-0.09329337995637464,"15":-0.34790672871053807,"16":0.07867157631994826,"17":0.05090356536304936,"18":-0.07057833620453786,"19":0.5333629869409354,"20":0.32637200564313384,"21":-2.8102581968667137,"22":0.14417011413805875,"23":0.666635465021918,"24":-3.6129290914575667,"25":2.1531406666260606,"26":-0.023017863921070587,"27":0.1651104973545574,"28":-0.2098335835971672,"29":-0.16486527203828885,"30":0.4523407638256878,"31":-1.7702881738205407}},{"sx":4,"sy":4,"depth":2,"w":{"0":0.33754163884798016,"1":-0.06944205131759522,"2":-0.6386220342759679,"3":1.094478979541951,"4":0.5647172202826822,"5":-1.4161630634460813,"6":-0.460079368781689,"7":0.30037399560341327,"8":-1.4401601999695013,"9":-0.24855936422761044,"10":-0.06609441980146166,"11":-0.06911329536454613,"12":0.0523362260977289,"13":0.8705152336366508,"14":1.231760994174993,"15":-0.2920999370496739,"16":1.1034211000130147,"17":1.2682578077739735,"18":-0.29491183749715827,"19":-0.17380455133538056,"20":-0.2757393239182152,"21":-0.21317295005005882,"22":-0.2797572263328362,"23":-1.1957928668523672,"24":0.2679017008142226,"25":0.6161695159302502,"26":-1.0007199727298177,"27":-0.9042420516606943,"28":2.079524548643114,"29":0.292798444191375,"30":-0.045557693209887826,"31":-0.2913382183691941}},{"sx":4,"sy":4,"depth":2,"w":{"0":-0.3383084982571569,"1":-0.5987802747473925,"2":-0.08429908454519353,"3":0.2868936554851844,"4":3.6500403813748736,"5":0.6156849885844099,"6":0.4034342243242267,"7":0.015915424611499078,"8":-0.5964963299302956,"9":-0.712148453589597,"10":-0.4923270220219356,"11":-0.20062424110501262,"12":0.05734377162477726,"13":0.21264628200300287,"14":-0.5458200154089952,"15":0.08952277570667112,"16":0.024809207346728555,"17":-2.0525250975715106,"18":-0.10755409140717231,"19":0.43289872537804525,"20":0.17946582535237912,"21":0.05085285338708989,"22":0.2980359018142778,"23":0.09258945658043556,"24":0.4349161490266996,"25":-0.43928006914425394,"26":-0.060233958834495914,"27":-2.200119222546709,"28":0.01958344450931364,"29":0.46672415888841035,"30":0.20271713247344275,"31":-0.650156031737565}},{"sx":4,"sy":4,"depth":2,"w":{"0":-0.38200878888450573,"1":-0.49102231322644035,"2":-0.09789165081340201,"3":-0.010609147582805189,"4":0.01497292874010458,"5":2.7105898435554,"6":-0.27912119004335784,"7":-0.6217187937237415,"8":-0.938943873557262,"9":1.1468166475247588,"10":-0.30048309708321314,"11":0.3453628129140067,"12":-0.2923434935545471,"13":0.7550077063529826,"14":-0.18423553338162602,"15":-0.3861115084722425,"16":0.006170355469103676,"17":-0.06343846203432266,"18":0.17455487444481269,"19":-0.00958522785111544,"20":0.4248602424261132,"21":-0.5414442222871001,"22":1.0830515346020924,"23":-1.4470767591579414,"24":0.26192726243644443,"25":0.5852075788392609,"26":1.0834652848686008,"27":-1.4133630029675686,"28":0.6029055030617658,"29":-0.03343714668468757,"30":-1.0313706024397054,"31":-0.28490423585049823}},{"sx":4,"sy":4,"depth":2,"w":{"0":1.4505088528307128,"1":-0.04064878420404216,"2":0.027595809653524588,"3":-1.8164573723400679,"4":-0.5221628115204527,"5":-0.4281887121564012,"6":-0.47495826070363506,"7":1.1266671206358918,"8":0.09120240585424212,"9":0.17602705510552175,"10":1.2404136650707007,"11":-0.33207605234833043,"12":-0.08144330720940866,"13":-0.4883440835271006,"14":0.026946596513508402,"15":-0.11802894567526817,"16":-0.04091880410968489,"17":-0.18076523306119222,"18":-0.1817625453444084,"19":-0.5336477018095536,"20":-0.8222866313637789,"21":0.37980450072506416,"22":-0.09105121417074824,"23":1.2686298249977255,"24":-0.5982593490299729,"25":0.15072260498351017,"26":2.2056686861180563,"27":0.13710569364898834,"28":-0.04622382335982704,"29":0.17594432777105282,"30":-1.178313082647816,"31":0.16697059097611208}},{"sx":4,"sy":4,"depth":2,"w":{"0":-0.3526190563725685,"1":0.9783200047639101,"2":0.07338872324690769,"3":-0.2579993237018263,"4":0.32064385478725943,"5":-0.6048370534542467,"6":-0.3418997373582916,"7":1.2453119030555935,"8":-0.6074498387666014,"9":-0.5162577068670038,"10":1.1016604737222453,"11":0.8157186813384681,"12":0.6344064972449832,"13":0.3628206475190808,"14":-0.19428582763213237,"15":-0.46866926469866066,"16":0.06660565523803,"17":0.09566617895778744,"18":0.0029353857301441235,"19":0.13236831954623804,"20":-0.27725290693513577,"21":-0.30639067118801033,"22":-0.046624156371778594,"23":0.7442849664662438,"24":1.944139701272485,"25":0.7772016903219026,"26":-0.5357093775632925,"27":-0.3159374733198435,"28":0.5383484330514144,"29":0.021649741444836727,"30":-1.6663716662658203,"31":1.5239442408748676}},{"sx":4,"sy":4,"depth":2,"w":{"0":-0.10209825351610277,"1":0.32929340621923553,"2":-0.4094972292100393,"3":-2.0496740144119854,"4":0.2528499928443265,"5":0.0240469994581998,"6":0.12121503481036702,"7":0.3121736075005445,"8":-0.13961772378228646,"9":-0.628265202860875,"10":0.11873328885986022,"11":-0.16940372112920543,"12":-0.5073034423457665,"13":-0.8274016722607211,"14":-0.35732210858460844,"15":-0.5885550109004447,"16":-1.301218152534813,"17":-0.15513978544644672,"18":-0.2789323962316294,"19":-0.3804000218875076,"20":-0.6219056998881667,"21":-1.0732242750593712,"22":-0.8446122429054093,"23":-0.4895856093483657,"24":-0.24798798832073174,"25":-3.029645252663211,"26":1.6703960530069606,"27":-0.489618404215355,"28":-0.40622495884037,"29":-1.948416640838362,"30":-0.35369878013734535,"31":-0.48898563468824247}},{"sx":4,"sy":4,"depth":2,"w":{"0":-0.25340474195868706,"1":0.1496565490349337,"2":-0.25931329858586877,"3":0.640213873382737,"4":1.194740116956157,"5":-1.4589398561737499,"6":0.024116512774958975,"7":0.14825343290365395,"8":-0.7345367811763731,"9":1.6981784991721744,"10":-0.4276552221356643,"11":0.008593616762757689,"12":-0.34475926990941214,"13":0.07510476392170279,"14":-1.5921866232426989,"15":-0.9000268529736047,"16":-0.06752670147070301,"17":1.831285507784284,"18":-0.07642027409377439,"19":0.368862399767747,"20":0.18093335908700167,"21":0.6138744571262688,"22":-0.07860986439129862,"23":0.5896243242868503,"24":-0.06537058208850112,"25":0.7656019435458776,"26":-0.4836247702657729,"27":-0.6820053867735092,"28":-0.8601190862960616,"29":-0.06086549259932022,"30":-0.11672939216224873,"31":-0.06000243990020413}},{"sx":4,"sy":4,"depth":2,"w":{"0":1.7232821229345041,"1":-0.9313016961169146,"2":0.43232304721942544,"3":0.9678276804964141,"4":-0.3274824829393511,"5":-0.02346564284230228,"6":-0.06882586940380887,"7":0.31489525944056634,"8":-0.05313173203196416,"9":0.2495187044702784,"10":0.47578603353899246,"11":0.2456314708661918,"12":0.19609806078204997,"13":-0.17503810113010138,"14":0.24514958328706243,"15":0.1896381985144093,"16":0.6312631074400348,"17":0.04116322320168551,"18":0.1314212237423534,"19":0.2581555099979774,"20":0.12464220405315615,"21":0.11040896696235114,"22":-0.4025087174232476,"23":0.33405560262781026,"24":0.17416768493413112,"25":-0.5376752180523882,"26":0.33762264239196144,"27":-0.1471015856688476,"28":0.3250888696412261,"29":0.2764165036375123,"30":1.651069708179748,"31":-0.33989975174311277}},{"sx":4,"sy":4,"depth":2,"w":{"0":-0.4199915809135157,"1":-0.8045901725452512,"2":-0.07561145094243985,"3":-0.5474294417308968,"4":-0.3770956680275805,"5":0.29890128775032765,"6":-0.7904610648447435,"7":0.4413022536653864,"8":-0.804227098632794,"9":2.1030414300763067,"10":-1.037528430103441,"11":-0.36749466556255356,"12":-0.08799982849634656,"13":-0.36199457204257107,"14":-0.031469975749200525,"15":-0.2420799192710752,"16":0.32101026621650575,"17":-0.9296917352527779,"18":0.3311917227925951,"19":0.5129326300141203,"20":0.35315475541712427,"21":-0.7932545861430512,"22":0.010065895528918229,"23":0.5839165587713246,"24":-0.9799867670112521,"25":-0.13037823864989456,"26":1.1834682868926525,"27":-0.3941034066649903,"28":-0.9535685479340436,"29":0.10693491421956194,"30":0.2225117082490402,"31":-0.30342460155451023}},{"sx":4,"sy":4,"depth":2,"w":{"0":-0.23189077797868032,"1":-0.19941763198410267,"2":0.18813810373351103,"3":-0.11642672280025167,"4":-0.28818793803437426,"5":-0.14572745916273924,"6":-0.17035150229665946,"7":-1.5555423039030203,"8":-2.2164528265996384,"9":1.0367798188215345,"10":0.9566749654803961,"11":0.16473823558515244,"12":-1.735831324962104,"13":-0.6046519174749367,"14":-0.06585443677761696,"15":0.12207040200539412,"16":0.7828621332601013,"17":0.44005586234472854,"18":-1.2170595399345214,"19":-0.15400086387536996,"20":0.9804144095212359,"21":0.25643740358288797,"22":-1.2005130588065218,"23":-0.08149662615822693,"24":-0.2979587361685973,"25":-1.0477186669108876,"26":0.4074179405688164,"27":0.27027657113406706,"28":0.4837768667389517,"29":-0.6657059690410458,"30":-0.36572823429560386,"31":0.3833623716697736}},{"sx":4,"sy":4,"depth":2,"w":{"0":0.5775315891185826,"1":-1.0410037826675405,"2":1.1239686338555326,"3":0.289128657576371,"4":0.9339273887241905,"5":-1.4776182975272698,"6":1.5661375916885294,"7":-0.05385401290463294,"8":-1.4275777041528392,"9":0.6911303690014146,"10":0.5558552992935529,"11":-0.6344274753054563,"12":1.0205477406346282,"13":-0.35720532165776636,"14":0.1294713658975527,"15":-0.4760882621757691,"16":0.6012393852825548,"17":0.5821302779386707,"18":-0.015998840829198828,"19":0.5846550785168712,"20":0.4177392798569158,"21":0.6646115224660564,"22":0.8371257766609018,"23":0.21490307351400953,"24":1.486589046148597,"25":-0.15868142404614224,"26":-0.13692140985000573,"27":0.11850073013718913,"28":-0.09532361919207319,"29":0.058143371420069916,"30":0.0894280273723522,"31":-1.0463273875917205}},{"sx":4,"sy":4,"depth":2,"w":{"0":-0.16293733125610763,"1":-0.4072552920833055,"2":0.5064366454958605,"3":-0.4288313015702288,"4":-0.23267449194575657,"5":-0.4356949782901492,"6":-1.5201011985176751,"7":1.0026143858728511,"8":-0.35681610998175295,"9":-0.19244181541431477,"10":-0.7563474441353857,"11":-0.2445301938516459,"12":-0.1054990316548118,"13":0.21767667923670786,"14":-0.7944931001890274,"15":-0.9536330962661148,"16":-1.37281856085387,"17":0.498906603624246,"18":0.3987936651672956,"19":-0.48509457729672467,"20":-1.1586273987985132,"21":0.5547262662719448,"22":-0.5636346147564835,"23":-0.45171562211607846,"24":-1.1158705572913858,"25":-0.4913281373642326,"26":0.07841229753546805,"27":0.6657455672271955,"28":-1.6090500901533094,"29":0.32662050474183985,"30":0.005472209519242158,"31":-0.44923388162542166}},{"sx":4,"sy":4,"depth":2,"w":{"0":0.09393817367059888,"1":0.4461453098169042,"2":-0.7900134542425256,"3":0.0023944519456382614,"4":0.017546575495001365,"5":0.0784967895486607,"6":0.3645390113456761,"7":0.17000842991821324,"8":0.2949970580280627,"9":-0.024328318264233713,"10":-0.22421875136914035,"11":-0.3066706538090665,"12":0.14071155051359382,"13":-0.39055701406594506,"14":0.11464542797259727,"15":-0.23394639249313479,"16":0.7243704296458632,"17":-0.05029042981484786,"18":-0.04206220724708479,"19":-0.8399423725851382,"20":-0.8291688879917921,"21":-2.2102924019410968,"22":-1.7078954637969221,"23":-1.7262340729997805,"24":1.7443376473746048,"25":1.9654879308796083,"26":1.1498050413788903,"27":0.15604007429658578,"28":-0.31555953599139724,"29":-0.8457328210803382,"30":-0.12200186023232112,"31":-0.13137108541916992}},{"sx":4,"sy":4,"depth":2,"w":{"0":0.535086532146426,"1":0.751141795205881,"2":0.46423582148368675,"3":1.0926543386079193,"4":-0.9281175150795126,"5":-0.515077353418622,"6":-0.19658937104385463,"7":0.3419015441360613,"8":0.06588022117816407,"9":-0.34471864282045334,"10":0.21424579135403143,"11":0.1752076361858178,"12":0.009706257689172857,"13":-0.8420006224272405,"14":-1.6567116275246656,"15":-0.3984716833939507,"16":1.02788233355275,"17":-1.3794506688606096,"18":1.3873329473666403,"19":0.9422343787182004,"20":0.3892565964716624,"21":-0.6235342798922542,"22":-0.018996395543153084,"23":-0.43124691107420515,"24":0.6276975841649054,"25":-0.5990128167572645,"26":0.22125542011431462,"27":0.13766384810380108,"28":0.14964937964714775,"29":0.7075530563743258,"30":0.2656022911525637,"31":0.8159956541776452}},{"sx":4,"sy":4,"depth":2,"w":{"0":-0.12859615955985024,"1":0.15844183285176752,"2":-0.09894252776065801,"3":-0.20545134608711157,"4":0.08748266585049931,"5":0.27206063874273395,"6":-1.2732657138043135,"7":0.15207703272235099,"8":-0.3793331765678955,"9":-2.3400254520874983,"10":-1.1118316006226021,"11":-1.0272921479458195,"12":-0.07431354658936287,"13":0.4969185212793396,"14":0.36979344576438516,"15":0.6283447770394827,"16":-0.22828476038226636,"17":-0.3731441891269888,"18":-0.5128395514247907,"19":-1.0206935325114408,"20":-0.23051045770867581,"21":-1.0426701786771047,"22":-0.46927198854405705,"23":-0.8309309923364326,"24":-0.9883074807439498,"25":0.391680036573578,"26":0.36896807449051056,"27":-0.5783323871606771,"28":-0.5368314949129591,"29":2.141814064207883,"30":-0.09760133628530161,"31":-0.6850160190785486}},{"sx":4,"sy":4,"depth":2,"w":{"0":-0.3257171868139134,"1":-0.05749426800268683,"2":-0.3334134784368943,"3":-0.6353574145979294,"4":-1.4786187290050565,"5":-0.6489355969225256,"6":-0.49493015875732105,"7":-0.5470477686867782,"8":1.218124181170234,"9":1.5989597063961312,"10":1.0430996557818228,"11":0.7944903227825904,"12":0.42346421898909276,"13":-0.35371874296244493,"14":-0.5423009861150363,"15":-0.21653898810457872,"16":0.2959629507228758,"17":-0.3929817394689269,"18":-0.017009650428907484,"19":-0.17116712023962122,"20":-0.05621317266492304,"21":0.04859193176475511,"22":-0.15346989134734412,"23":-0.22963870113281928,"24":-0.13232533734639118,"25":-0.27954673164087196,"26":-0.17858877194781703,"27":2.29858229126184,"28":0.3434034507829059,"29":0.9113375935482864,"30":0.7767647823949726,"31":-0.23873154411843678}},{"sx":4,"sy":4,"depth":2,"w":{"0":1.9393510311843847,"1":-0.5564561201731433,"2":-0.24794987836872356,"3":-0.1904141353032468,"4":-0.23616577288160476,"5":-1.2805160381055245,"6":-0.6161048158275659,"7":0.742901943720179,"8":-2.3755582060341696,"9":1.0017406529648523,"10":1.058932080712152,"11":1.244376055763367,"12":-2.1472801944056013,"13":0.22875289536914908,"14":0.06165401835902283,"15":0.000060121075757587814,"16":-0.35204778523012986,"17":0.016209943597665352,"18":-0.23228672439188197,"19":-0.33867260591846393,"20":-0.1565306732302471,"21":0.1194934019739596,"22":0.01451053382985913,"23":0.5234154402947173,"24":-0.48991995860289705,"25":-0.38084849759776124,"26":-0.28327117037335314,"27":-0.033161656430594245,"28":1.1354401202548343,"29":0.44191877599772467,"30":-1.152222881303753,"31":-0.44025113606431787}},{"sx":4,"sy":4,"depth":2,"w":{"0":-0.2449604160774079,"1":0.7219470567797477,"2":0.6548096179744596,"3":-0.6714803478437189,"4":0.8186923694551236,"5":0.6256259882505933,"6":0.6661856144219888,"7":0.1267595698654912,"8":0.15417026697258862,"9":0.3519763758580134,"10":0.40345575129741873,"11":-0.07486280202687473,"12":-0.8512643495025605,"13":0.5805350372045821,"14":-0.8641477121891417,"15":0.31848334513917576,"16":-1.741665579206329,"17":-0.7251362774121952,"18":-0.36164845666545536,"19":-0.549915268227846,"20":0.06113556249171188,"21":0.3238151322816338,"22":-0.9349427970603257,"23":1.637279627211028,"24":0.7005317555248533,"25":0.3760969208862834,"26":2.190087922649845,"27":-0.2621637258587125,"28":-0.252484874082272,"29":-0.18121257291984688,"30":-0.21037923126560665,"31":0.09012146783026646}},{"sx":4,"sy":4,"depth":2,"w":{"0":-0.16192268026965503,"1":-0.33989588965036865,"2":0.0007630786905586287,"3":-0.13672967634954583,"4":-0.8344832775565115,"5":-0.24778654814905454,"6":1.48334559064432,"7":-0.5741499481729294,"8":-1.1138875342300645,"9":-1.6416742890195821,"10":0.8158499092859286,"11":0.0797804091828075,"12":-0.13830333949399945,"13":-0.21006887131205026,"14":-0.7309544425046623,"15":0.2744272564889398,"16":-0.35029272424005325,"17":-0.5954501464839985,"18":0.13558004493680087,"19":0.034635619046681734,"20":0.08348604647050721,"21":-0.43619658629718894,"22":0.2830669998351307,"23":-0.01993295967223431,"24":-0.1096407975807019,"25":-0.14247165591631614,"26":0.13730499185160294,"27":0.30539337579873693,"28":-0.9420706085946184,"29":0.2463980906757411,"30":0.025117899296070202,"31":0.13032127262745183}},{"sx":4,"sy":4,"depth":2,"w":{"0":0.5492300551418481,"1":0.808523001980642,"2":-0.187979100228506,"3":-0.23969326615806402,"4":-0.09526322537574096,"5":1.9342733098402578,"6":-2.4558272452394383,"7":0.3348325674158455,"8":1.8497653699273888,"9":-1.9118496499137378,"10":0.3147410751664593,"11":0.06184979054921113,"12":-0.29223800424875396,"13":0.18799520451647134,"14":-0.09824614484488238,"15":1.2720928351135776,"16":0.5017812367200977,"17":0.9234061974822059,"18":-0.5685376937355897,"19":-0.45772390035650845,"20":0.636642976763515,"21":0.40763894356619673,"22":0.034122087046759834,"23":0.5662332910357099,"24":0.20382500014337204,"25":0.3741607232676568,"26":-0.0637880181138294,"27":0.22043983116578098,"28":-1.9982327328366176,"29":1.712462261646659,"30":-0.16787710376462808,"31":0.26339457277824635}},{"sx":4,"sy":4,"depth":2,"w":{"0":-0.48117697298126666,"1":-0.5389700485892186,"2":-0.1302822896245241,"3":-0.6467321661349987,"4":1.2899071085141185,"5":0.9478803826414481,"6":1.1440874885093721,"7":-0.34280262581417037,"8":0.44750542962732925,"9":-0.6541941122652962,"10":0.012832190511300799,"11":-0.5028188583423898,"12":0.07250687013525516,"13":0.2612466983797093,"14":-0.4043061657698933,"15":0.3481523629658985,"16":0.39757362309606287,"17":1.167294405116191,"18":-0.3520962965453057,"19":-0.1585653294447532,"20":-0.77602483707935,"21":0.09914202973810057,"22":0.09011119974505125,"23":-0.5390349209576613,"24":-0.42977043134716353,"25":-0.1448363424720706,"26":-0.36065524301004637,"27":0.29288941581637207,"28":0.7293651425132105,"29":1.5751599440476596,"30":-1.044824858902427,"31":0.6540486571594026}},{"sx":4,"sy":4,"depth":2,"w":{"0":0.7948304540759482,"1":-0.01178366956297083,"2":-0.26187999087121827,"3":0.5674263401636496,"4":-0.06001567564159263,"5":-0.44254184767999316,"6":-0.3617681422718058,"7":0.39486915863149424,"8":-0.30472381370131707,"9":-0.2974918613055415,"10":0.3840373762473723,"11":0.2913587526661407,"12":0.6291511441390126,"13":-1.2949837267003521,"14":0.6124768624406617,"15":-0.010759891879754457,"16":-1.9164490605551625,"17":-0.3993182748676827,"18":-0.20977923980800678,"19":-0.39052495374935686,"20":0.19465245635289982,"21":-0.13605845721473733,"22":1.183396223590461,"23":-2.2993882784834274,"24":0.6775410523418395,"25":2.1243316721566177,"26":-1.583878667196422,"27":0.1628319663547364,"28":0.5160033166575713,"29":-0.052037113398448846,"30":1.0567331278925458,"31":1.0061803006656274}},{"sx":4,"sy":4,"depth":2,"w":{"0":-1.0796096006292193,"1":0.7461505758207176,"2":0.33588129064486466,"3":0.11341044100614996,"4":-0.6033216308451952,"5":0.09397277494760123,"6":-0.5233395907814289,"7":-1.8737598812487255,"8":1.064929055834567,"9":2.135590668525285,"10":0.26140923648460523,"11":-0.029781877970022203,"12":0.24393429051887502,"13":-0.5200117587627726,"14":-0.02926759818759725,"15":1.0463080359083121,"16":-0.05453762069534925,"17":0.4942024119778337,"18":0.042233407457380794,"19":-0.7304754609969648,"20":0.6210237574237304,"21":0.8783978863158411,"22":-0.2807604394248082,"23":-0.5452530637864985,"24":-0.151081937097659,"25":1.0371286150909351,"26":0.013628334716669016,"27":-0.17971043977562506,"28":-0.08048156666341415,"29":0.6039687524705281,"30":-0.9445476975365437,"31":0.09188088701287048}},{"sx":4,"sy":4,"depth":2,"w":{"0":0.3800473972694159,"1":-0.1858198036822015,"2":-0.21985500742601408,"3":-0.18366148525377668,"4":-0.25425044665269536,"5":-1.1795779774393458,"6":1.0818528174897248,"7":0.8122734169298744,"8":0.7968775717777047,"9":1.6982390516898282,"10":-0.3738324129185665,"11":0.15529349255177102,"12":0.019089577273364813,"13":-0.163862805395831,"14":0.46874804851838,"15":1.2800419466540025,"16":0.3980569529876527,"17":-0.30333390216700606,"18":1.8289267521006087,"19":-0.03553738343562959,"20":0.023209437839714565,"21":0.07955582913189196,"22":0.09666674058311517,"23":0.06480735891472415,"24":-0.21372042646256648,"25":-0.23963800676529579,"26":-0.09805067596725088,"27":-0.26703718890758316,"28":-0.5246576091560551,"29":0.013193943216877146,"30":0.49179288767286095,"31":-0.30192274572891575}},{"sx":4,"sy":4,"depth":2,"w":{"0":0.3177710808669099,"1":-0.1415927974959972,"2":0.19350529189482277,"3":-1.631632547626967,"4":-0.40467515734659004,"5":0.09876524248590533,"6":0.33814684505901277,"7":-0.4896071821127972,"8":-0.6437564864883724,"9":0.28719711493280026,"10":-0.2891697519603725,"11":0.3745277884798518,"12":0.38051877520082755,"13":-2.3218317339422216,"14":1.1193702528009706,"15":0.38158102921159914,"16":-2.2618168226159847,"17":0.9344249422776395,"18":0.08079312652420079,"19":0.05325306577723344,"20":0.022591769577965156,"21":0.3714990414275629,"22":1.1294315811158548,"23":-1.9627539442748245,"24":-0.3376097161199772,"25":-0.7539034596431452,"26":-1.065751579265452,"27":0.8022832676043293,"28":-0.027921139904822364,"29":0.27781998709995626,"30":0.03772660082529899,"31":-0.5688689095444814}},{"sx":4,"sy":4,"depth":2,"w":{"0":-0.5961663531114113,"1":-0.3922289612560577,"2":0.1825811658003602,"3":0.8896415552506572,"4":-0.05993737475062031,"5":0.48141335650845607,"6":0.0021258451681281827,"7":0.40115387593020585,"8":2.4284685944397193,"9":-0.7755346253196278,"10":0.23832727178556687,"11":0.14105424541959902,"12":1.4197798631435576,"13":-0.5924966909781214,"14":0.0643446357200924,"15":0.06582006348503112,"16":0.619158862909868,"17":0.15277760467873858,"18":0.23859909887911576,"19":0.2743282768635447,"20":1.0959058685044816,"21":-0.1332593208522508,"22":0.2309932126673102,"23":-0.4999291052051654,"24":0.764193741391985,"25":-0.8044827159236844,"26":-0.29704394778077303,"27":-0.5612413415649341,"28":-0.5886491678256279,"29":-0.9328462688888278,"30":0.05646819825038442,"31":-0.8453378207580742}},{"sx":4,"sy":4,"depth":2,"w":{"0":-0.601631524958584,"1":-0.08113702963640393,"2":-0.24403633395168678,"3":-0.07542079465947643,"4":0.19178344444577594,"5":-0.8808822491708511,"6":-0.9021769829003103,"7":-0.9280830610252598,"8":-0.1882429569784673,"9":1.197253036079828,"10":-0.5956753174027635,"11":1.475318374824659,"12":0.4198219332921743,"13":0.3448157890520691,"14":0.8561990293255435,"15":-0.1986009379776834,"16":-0.7534142081647738,"17":-0.06271559190582286,"18":0.01219070903332951,"19":-0.1631364294345717,"20":-0.33860678977837616,"21":0.3114075328503284,"22":-0.14603235858971636,"23":-0.10815370331902661,"24":-0.41951629895170683,"25":-0.32175653923409964,"26":0.2493434201692153,"27":-0.3379314645481449,"28":0.8649489545146348,"29":-0.05735532272867467,"30":1.9746380611156147,"31":-0.2768767516333392}}],"biases":{"sx":1,"sy":1,"depth":32,"w":{"0":0.6037307615066084,"1":-1.2613083521176842,"2":-1.3631265152665397,"3":-1.6562433506337744,"4":-1.4058504887402654,"5":-0.5004352080996592,"6":0.03792020952479134,"7":-1.3264127104471042,"8":-0.6777466171608617,"9":-1.3465639122706137,"10":1.352792398807949,"11":-0.7512934141807962,"12":-1.3284407264981801,"13":0.29173273965655105,"14":0.1549102268155202,"15":-1.163138275302981,"16":0.9758711018600478,"17":-0.26864636452896146,"18":-1.0648072003761808,"19":1.2195383727962386,"20":-1.6320363858789257,"21":-0.14861343175413208,"22":-1.1468721229916108,"23":0.6352831113002373,"24":-1.3729733346061614,"25":-1.2201151634029346,"26":-0.36110129082758646,"27":-1.8136568687688794,"28":-2.052846983015549,"29":1.012395453031709,"30":-1.003927830523596,"31":-0.6086103595786702}}},{"out_depth":32,"out_sx":4,"out_sy":3,"layer_type":"relu"},{"out_depth":50,"out_sx":1,"out_sy":1,"layer_type":"fc","num_inputs":384,"l1_decay_mul":0,"l2_decay_mul":1,"filters":[{"sx":1,"sy":1,"depth":384,"w":{"0":-0.11778396386084397,"1":0.11249121462873764,"2":-0.0007461804305618188,"3":-0.5604745284410179,"4":-0.08672031748184529,"5":0.2952085490254623,"6":0.34992354707679246,"7":-0.1892695711158992,"8":0.16263920688221603,"9":-0.7551397924289336,"10":-0.6467831096492654,"11":-0.3012574983605471,"12":0.3652875939179807,"13":0.34656401241293816,"14":-0.21085979797988655,"15":0.8704151463738697,"16":-0.14080426942304164,"17":0.33431155005308655,"18":-0.5873958214717201,"19":0.7307964029289917,"20":-0.38533921091123924,"21":-0.11062246911697668,"22":0.1564568485444738,"23":-0.06011538402940981,"24":-0.1061252331677713,"25":0.3455005969292,"26":-0.3135971179978153,"27":0.1190935791565582,"28":-0.16485246520780666,"29":-0.5500482104653563,"30":0.2704636308990425,"31":-0.17585722136937038,"32":-0.49353213966127557,"33":0.2899861927401383,"34":-0.039679204653377285,"35":-0.19398891227036127,"36":0.1748020690540226,"37":-0.1332909450818763,"38":-0.09706274514444896,"39":-0.25357434586582883,"40":0.3180321659673054,"41":0.1050752668079135,"42":0.3283244811066199,"43":-0.5529617261476721,"44":-0.08710312562301153,"45":-0.5051994440626387,"46":-0.575423093318421,"47":-0.9106385741537014,"48":0.17258367240224468,"49":-0.28563067740481507,"50":0.00995783121426923,"51":0.03974318378689144,"52":-0.42485490176606555,"53":-0.5263770388325966,"54":-0.06611608460676752,"55":-0.2692567927691198,"56":0.8407329736360685,"57":-0.10516366128888592,"58":-0.251176442272871,"59":-0.5362475161156635,"60":-0.835694251703204,"61":-0.4879876107847866,"62":0.8096191508231395,"63":0.017789312802893323,"64":-0.48783972691777394,"65":0.09845066627361418,"66":-0.09119435539061149,"67":0.3736428539238507,"68":-0.13989513757002492,"69":-0.15104069127649206,"70":-1.0305743956941749,"71":-0.4070077156563328,"72":0.1254974523070845,"73":0.1180215936762885,"74":-0.3847225517472658,"75":-0.9977140808166927,"76":0.4177525183305481,"77":0.17168915069484542,"78":-0.011761118519711507,"79":-0.4834587431292044,"80":-0.35081404942939565,"81":-0.04662055292076119,"82":1.0326765880248887,"83":-0.2594332859027045,"84":0.1685235571309677,"85":-0.2092836935836189,"86":0.0012877302982244132,"87":0.11116501170764913,"88":-0.929666051454664,"89":0.0474079429619088,"90":0.001201854071124504,"91":-0.04359076470514312,"92":0.17581520777731252,"93":-0.4326540005224744,"94":-0.24456504480930177,"95":0.12126538525568657,"96":-0.16366813076295106,"97":-0.2712387909132549,"98":0.6246039910813705,"99":0.0047715502160511295,"100":-0.13848431319179996,"101":0.30413622261477835,"102":0.3402222280388475,"103":0.29784078199014247,"104":0.025339646192773648,"105":-0.0690192610107726,"106":-0.47730104429654874,"107":0.25982102130648516,"108":-0.03960917041096638,"109":-0.09614884904090414,"110":0.004718667812375305,"111":-0.44203259368895204,"112":0.12197852962490151,"113":0.0943036820573668,"114":-0.14869980672333394,"115":-0.26395303288353145,"116":0.041405353043691265,"117":-0.07784500711253038,"118":-0.031052119984262654,"119":-0.16413730461661308,"120":0.191687432953942,"121":0.305031120291028,"122":-0.2532659891060579,"123":-0.3600575519334455,"124":-0.010922155918135609,"125":-0.42089214260553665,"126":-0.050685597454258706,"127":-0.03547710435412196,"128":0.46983192332782636,"129":0.085860849839064,"130":-0.5040438749965384,"131":0.23139593931826097,"132":-0.09895205487465203,"133":-0.43588229874483964,"134":-0.014142651119734074,"135":-0.2869970417292594,"136":-0.022907155064591258,"137":-0.059531777471088725,"138":0.22306754670062415,"139":-0.247374598753009,"140":-0.45966195796422804,"141":0.06349320704488458,"142":-0.33600090284789025,"143":-0.045907161012244777,"144":0.3183140600926535,"145":-0.07249107197352253,"146":-0.15353195453470547,"147":0.07658692264032496,"148":-0.10203186709778651,"149":-0.16493024450312976,"150":0.03396108587361224,"151":0.12497773688187687,"152":-0.2504663919198889,"153":0.5730193239249967,"154":-0.32895359922142287,"155":-0.5491510366655197,"156":0.12300978840573872,"157":1.353873171130475,"158":-0.736911749004704,"159":-0.1357392344163808,"160":-0.14371910249290676,"161":0.3528724322622656,"162":-0.4223007027145174,"163":-0.38396715918233615,"164":0.6402552799277593,"165":0.24596536422405493,"166":0.0679631217252932,"167":-0.1628216395731981,"168":-0.2550221875583723,"169":-0.5673612747276194,"170":-0.3048258436334487,"171":0.13213320076435922,"172":0.5989889864622049,"173":0.1339964564740658,"174":-0.22122886312616297,"175":0.3322239742864409,"176":-0.4013694245624567,"177":0.006876605745806522,"178":0.018889817954406897,"179":-0.2791834858458708,"180":-0.10547293842192343,"181":-0.29188519027527626,"182":0.00984984841805848,"183":0.20104208088230516,"184":-0.5548061982590067,"185":0.06715428326694445,"186":0.036948503608304734,"187":-0.12246295754170822,"188":-0.04456157371610446,"189":-0.4636672412378278,"190":0.07134326234462332,"191":0.09994985599254243,"192":-0.20496194162513584,"193":0.09635864863760724,"194":-0.07126682786033636,"195":-0.27763977952623303,"196":-0.1155623355902406,"197":0.0115300958470006,"198":-0.11202099348723157,"199":-0.35996178436863635,"200":0.22807912649959827,"201":-0.25874676170676086,"202":-0.4390117759924967,"203":-0.08089241051077717,"204":-0.20089636070606043,"205":-0.7876787910654868,"206":-0.5265608888562819,"207":0.06678651929026147,"208":-0.1386135221507098,"209":-0.32216697939358346,"210":-0.0372021274147256,"211":1.0445284670542017,"212":-0.10835887419328598,"213":-0.6861967521822002,"214":0.06943470538679093,"215":-0.2887860307266134,"216":0.4126667269012733,"217":-0.058279619102585875,"218":0.14720203821755903,"219":-0.22962523512512686,"220":-0.24281461094711504,"221":0.08199959183464,"222":-0.17945783434184018,"223":-0.3122891320575893,"224":-0.1620292358369615,"225":0.031916062591931936,"226":-0.04019916527965807,"227":0.07022051092893523,"228":-0.10577783107100297,"229":-0.03811378733594081,"230":0.3772366694205025,"231":0.294355565162783,"232":-0.16698364887147005,"233":0.1300572176909918,"234":-0.7633186696842075,"235":-0.726630948247832,"236":0.1895166799009602,"237":-0.052294404262396184,"238":-0.386065878778738,"239":-0.18882365065266105,"240":0.017722037226995217,"241":-0.0385207655233786,"242":0.33094164287934014,"243":-0.07884649939784155,"244":0.527091864989622,"245":-0.20344902093629663,"246":0.19752398577069016,"247":-0.06970194184457182,"248":-0.3553706326644432,"249":-0.0021224147068474625,"250":0.13804502174763475,"251":0.3044657313157743,"252":-0.07082577650912998,"253":0.050927996970120994,"254":0.10174261277822341,"255":-0.40370130552322353,"256":-0.1608191008691372,"257":-0.012019881098938267,"258":0.22691376480739758,"259":-0.04155618635359397,"260":-0.5607651392936377,"261":1.0974058026711833,"262":-0.3703178560772781,"263":0.08631661027502334,"264":-0.06896851744445455,"265":0.3689569374015057,"266":-0.11384097166616586,"267":-0.38329677759049574,"268":0.012808400666234784,"269":-0.8138529891535728,"270":0.5721768807724313,"271":0.19322957193726326,"272":-1.04797666797593,"273":-0.2376666383517082,"274":-0.13804480237511574,"275":-0.3499288643047105,"276":0.3387202967389287,"277":0.4975641965916757,"278":-0.18768894775481587,"279":-0.5568980156128331,"280":0.41933887824429616,"281":0.35610897051644524,"282":-0.014571293294435024,"283":-0.013013105425571877,"284":-0.32975973386693386,"285":-0.11700585234011304,"286":-0.07909714160943102,"287":0.6036328197425949,"288":-0.08904255700352787,"289":-0.2502526545657181,"290":-0.5004394436334576,"291":0.1492490060284524,"292":-0.1461931797091773,"293":0.06425213485966622,"294":0.021553646410873394,"295":0.6148982102619008,"296":1.4196132879415542,"297":-0.24142280710313752,"298":0.7208447605998006,"299":-0.15493215396633303,"300":-0.0941094681248187,"301":0.4452323573866516,"302":0.25577785302786077,"303":-0.009178380516014674,"304":-0.2593885661242236,"305":0.20423946256030373,"306":-0.08542291316580228,"307":-0.38081314736480687,"308":-0.2209465808076367,"309":0.0656107715294111,"310":1.3321379128600581,"311":0.0590412139958968,"312":-0.33584301091080315,"313":0.31933707044555293,"314":0.18265426099756574,"315":0.028686663392702618,"316":0.09232070250545989,"317":-0.11038730246034943,"318":-0.074627438172359,"319":-0.04195352321720931,"320":-0.4030021580999641,"321":-0.13629730459703537,"322":0.23589918452430936,"323":-0.4090347987512699,"324":1.2423172881103501,"325":0.008665727165373277,"326":0.25745296247215754,"327":-0.2942510917621913,"328":-0.321767324887038,"329":0.5200089185049453,"330":-0.39306310611201617,"331":0.32478935861830155,"332":-0.09660073747504154,"333":-0.2749845158381491,"334":-0.11750977830915608,"335":0.4215447079146562,"336":0.36930521272651795,"337":0.5696485953825943,"338":-0.07350636526084309,"339":0.5436655764993318,"340":-0.23353439532555478,"341":-0.10892722949836266,"342":0.1922895418608826,"343":-0.23608401402508042,"344":-0.1380475208811676,"345":-0.19221769198455316,"346":-0.32722676206018486,"347":0.00746254270920458,"348":-0.028247250564041003,"349":-0.716829889259219,"350":0.1647294858125532,"351":-0.14510134588455037,"352":-0.0012428152226284172,"353":-0.07556407839746508,"354":-0.3971131972646325,"355":0.030131939359497203,"356":-0.025846621734714137,"357":-0.21768182484939924,"358":-0.0490114524313821,"359":0.2552653126635464,"360":-0.15965536252506635,"361":0.08920978285361837,"362":0.29250167147396416,"363":-0.26208990296178125,"364":-0.20808679095284266,"365":-0.17987560718332699,"366":0.07176791584616471,"367":-0.13551006522534412,"368":-0.1749287390792325,"369":0.34106576784711395,"370":-0.35409246345056916,"371":-0.31169741409952767,"372":-0.1661031207513155,"373":-0.01553430520387631,"374":0.011147037246345904,"375":-0.16712314052392896,"376":-0.09884861250296109,"377":-0.21387962884603876,"378":0.2150553214943321,"379":-0.1709394234268552,"380":-0.14738118851918222,"381":0.007202040419108387,"382":-0.2730639036571226,"383":-0.0255245488641971}},{"sx":1,"sy":1,"depth":384,"w":{"0":-0.04678938351083794,"1":0.0708325377179914,"2":0.023700315313864018,"3":-0.041791588618978984,"4":-0.1589645248320426,"5":-0.06304285348414553,"6":-0.10104680828135555,"7":0.06466060480058163,"8":-0.02535006402969585,"9":-0.3293716702465139,"10":-0.052574050891811885,"11":-0.08117743668934849,"12":-0.010649296369957165,"13":0.020391164695855397,"14":0.15728093987902178,"15":0.06397390845410314,"16":-0.01111327831702488,"17":-0.14129569167050063,"18":-0.08090451486193387,"19":0.1850419150413768,"20":-0.0030471880477467455,"21":-0.003592340022615364,"22":-0.05365796115639998,"23":-0.02583037077036155,"24":0.05430398914272249,"25":-0.037813232678128646,"26":-0.006298108364049378,"27":-0.017428114486797607,"28":-0.010818805616191498,"29":0.0821275287345862,"30":-0.027551239459578093,"31":-0.00007169224515640725,"32":-0.018417337851417286,"33":-0.07143528623613911,"34":0.03337243746133757,"35":-0.015286584172147503,"36":0.08577279011541172,"37":-0.051566386202159094,"38":-0.0014581408161717245,"39":0.0056677416214337365,"40":0.04366501028700786,"41":-0.08468637299759806,"42":0.17088477024841484,"43":0.02743936785160501,"44":-0.05681584419297185,"45":-0.08384455623912068,"46":-0.058461389952855346,"47":-0.13148101798514075,"48":0.08363840278925597,"49":-0.2495914595030522,"50":-0.06589049740320452,"51":0.06963273011783352,"52":-0.08422853776742799,"53":-0.10947795270628409,"54":0.03758000855127967,"55":-0.04089405635344181,"56":-0.01937863520744838,"57":-0.0408125912273526,"58":-0.004562649197400552,"59":-0.0949877140083748,"60":-0.11214492350784962,"61":-0.01809834084931014,"62":-0.0027952208835821863,"63":-0.05784322937052522,"64":-0.0016317128477757077,"65":-0.029476807536121592,"66":-0.07558284465496738,"67":-0.0143385688671227,"68":-0.12061761707120029,"69":-0.003979515573945333,"70":-0.2168988104826683,"71":0.07027091767353662,"72":0.0453871120798346,"73":0.16659123806082737,"74":-0.038333937802997896,"75":-0.1271465594269254,"76":0.023578978015345614,"77":-0.09212949308513663,"78":0.013498536806272653,"79":0.0330181320503774,"80":0.06706486407476966,"81":-0.03236109048738177,"82":-0.04923204543926219,"83":-0.09112600052580012,"84":-0.05392617783666814,"85":0.013593220406393334,"86":0.07250903832140213,"87":-0.014557706469417005,"88":0.04442803257995224,"89":-0.027732332245373435,"90":0.04073698098624029,"91":0.024238626484715874,"92":-0.03013239065314547,"93":-0.06416637302083848,"94":-0.09811140347669876,"95":-0.05309791132187346,"96":-0.13588621243915605,"97":0.03347811779650301,"98":0.08681002689603083,"99":-0.017040869906632866,"100":0.002163440889383082,"101":0.06635862310093549,"102":-0.06733738261797745,"103":-0.14118343947181017,"104":0.0114225414192719,"105":-0.03406272041785778,"106":-0.04914027169667519,"107":-0.04344179913031777,"108":0.01167401404174553,"109":0.054134234428116726,"110":0.03728240876779826,"111":-0.01816561169612277,"112":-0.011549539208996616,"113":-0.032223855698160685,"114":0.028782016513505492,"115":0.02522180127393015,"116":-0.004304817881908292,"117":-0.03887876031887502,"118":0.011314721729571776,"119":-0.08168493536420801,"120":0.06992308918564641,"121":-0.011376210793819343,"122":0.0074730632946017565,"123":-0.03640605358243928,"124":0.04602855858532452,"125":-0.08835229844807357,"126":0.017741855107687325,"127":0.05314532755758628,"128":0.22046365138325977,"129":-0.04184413636283688,"130":-0.006329567518741156,"131":-0.0769326050343776,"132":0.05267641055302349,"133":-0.2327742681887322,"134":-0.045448980633461825,"135":0.045693196132388585,"136":0.01932722520080546,"137":-0.024967901606409167,"138":-0.002324479030778971,"139":-0.04288097415124155,"140":-0.08701447948902584,"141":0.07948190363385575,"142":0.03733749375613151,"143":-0.005035231905638529,"144":-0.016552364095446283,"145":-0.029915165985214258,"146":-0.10391537388435572,"147":0.02579826993533233,"148":-0.005554800468072956,"149":-0.02276790692954966,"150":0.054993964823790695,"151":0.07444398769981588,"152":-0.07039924411801697,"153":0.1175752558716057,"154":0.11048447317172728,"155":-0.09222114245129293,"156":-0.09961931894973756,"157":0.4943550977265312,"158":-0.13375247158266013,"159":-0.11648238804709313,"160":-0.011635681344233203,"161":-0.02571949060359191,"162":0.03460163594013316,"163":-0.001843490970545687,"164":-0.10210480502786187,"165":0.05709684807902814,"166":0.10867193537448945,"167":0.020684774736949667,"168":-0.12136355328816495,"169":-0.15609891092639583,"170":-0.14349594786877418,"171":0.007750087192786569,"172":0.03452656853327737,"173":-0.05509291538890833,"174":-0.09375614999032844,"175":0.04524209012109055,"176":0.07308055470832056,"177":0.03457472138179445,"178":-0.12327685905576288,"179":-0.11316858099169294,"180":0.04235986373728318,"181":0.06410831680916944,"182":0.027654411445454496,"183":0.024368968446783462,"184":-0.0977929709919786,"185":0.05609845966714704,"186":-0.07532202776695346,"187":0.049097566049065344,"188":-0.09195725465029614,"189":-0.03917302814376658,"190":-0.06036715244785219,"191":-0.020741217718734266,"192":-0.13467838025082207,"193":-0.06859338200829748,"194":-0.05468448067077397,"195":0.08066931346482531,"196":0.03547999436670063,"197":0.11153399062575124,"198":-0.009715458754993926,"199":-0.010215468834037967,"200":-0.012731726538517322,"201":0.09762369034933413,"202":-0.008868806207088744,"203":0.04522529359878291,"204":-0.1022506842373353,"205":-0.11831788031120614,"206":-0.008031415702777229,"207":-0.035648590502975,"208":-0.10077815200893614,"209":-0.06376434610590134,"210":-0.0568111647323788,"211":-0.0036619262594929937,"212":-0.19211718465810532,"213":-0.05376397466485468,"214":-0.010575799690812914,"215":-0.026928340118233935,"216":-0.05147833871322677,"217":0.05089212713520319,"218":0.028518323392191933,"219":-0.1704736212795458,"220":0.05057825663812526,"221":-0.09312065374970288,"222":0.09503202555634455,"223":-0.16424188387060296,"224":0.1077937154710754,"225":0.02967228175594882,"226":-0.023049342360432306,"227":0.06316697984871572,"228":0.014399440004223583,"229":-0.10522108098617435,"230":0.09028308816133013,"231":0.40475024606617277,"232":-0.05261292157584347,"233":-0.08099777478826499,"234":-0.0369959006034271,"235":-0.033916150109915943,"236":0.0977540147138672,"237":0.05881086016479609,"238":0.10446908878376023,"239":0.015391511894259847,"240":-0.08432723228281153,"241":0.007754915698560495,"242":0.0672542177146664,"243":-0.08026958608133525,"244":-0.22785970969595562,"245":0.10071336267261913,"246":0.08918739893071205,"247":-0.0494433498934266,"248":0.0009886027388525877,"249":0.10894627060072333,"250":-0.027935030438332797,"251":-0.06822930006878346,"252":-0.049987146351963,"253":0.05959740090226464,"254":0.07468667044211631,"255":-0.11904065739100733,"256":0.013890801611348456,"257":0.11070865624512664,"258":-0.021293460797876897,"259":-0.1271995376797908,"260":-0.1289883033626824,"261":0.3158596692037331,"262":0.036882704340546586,"263":-0.09759140099880298,"264":-0.09885710240315308,"265":0.09499027766512419,"266":-0.05176878396128492,"267":-0.09867940105496859,"268":-0.09737618391720852,"269":-0.22577515764142303,"270":0.03904757445268459,"271":0.10189109788829638,"272":-0.015868387918310838,"273":-0.219816838835774,"274":-0.05763379853008417,"275":-0.0676442481883911,"276":-0.16767388694593366,"277":0.23723357040731383,"278":-0.09282911399218581,"279":0.09317002217772412,"280":0.16284586871494958,"281":-0.12623211438357473,"282":0.12197700493711111,"283":-0.13912692464808377,"284":-0.16380616808659615,"285":-0.09836016296375588,"286":-0.08940457217697101,"287":0.18803741016309586,"288":-0.10251403041802057,"289":-0.061006772579428555,"290":-0.027290495266611255,"291":0.038487052788110356,"292":-0.11859965393157856,"293":-0.054157244546518955,"294":0.01872611643414871,"295":0.45335352229771064,"296":0.2321288928562254,"297":-0.05917136274066328,"298":0.147835221740341,"299":-0.004765761415726912,"300":0.05190627500084112,"301":0.23219278294285078,"302":0.15175202414640745,"303":0.10989094977402415,"304":0.05561155415011398,"305":0.090585203481163,"306":-0.055846020934687005,"307":-0.03919718800823182,"308":-0.09561551988918578,"309":0.16450800942651622,"310":0.32562601388448087,"311":-0.03634101610474423,"312":-0.021782477638960563,"313":-0.19425696902153541,"314":0.01329388644594372,"315":0.10010846738389265,"316":-0.0016650265035322743,"317":0.04764734686100593,"318":-0.08440806113626356,"319":-0.12724630786638688,"320":-0.11071823863012363,"321":0.017210093719931693,"322":0.1062468867706407,"323":-0.031900431206360616,"324":0.016884256527456183,"325":-0.11325348139111657,"326":-0.03849843626155807,"327":-0.06062045664242621,"328":-0.19877541824739597,"329":0.12106174906330153,"330":-0.020181265953013037,"331":-0.008437198659024253,"332":-0.05831648964749146,"333":-0.19784184606061878,"334":-0.018364620911152024,"335":-0.06193626432970223,"336":-0.07374389548680517,"337":0.016902675707800994,"338":0.11492672610762193,"339":-0.10172553322573595,"340":-0.053308664093023386,"341":0.04723458658325485,"342":-0.017186750037334563,"343":-0.0172343598499969,"344":-0.09502784296014662,"345":0.03610244468536897,"346":0.001648759236831963,"347":-0.013603235159353588,"348":-0.02425108416806322,"349":0.00891722065003358,"350":0.14184581328547774,"351":0.03291764100221706,"352":0.040788369471927884,"353":0.007697751320350861,"354":0.01611848726489195,"355":0.04215376008706841,"356":-0.054364221908011615,"357":-0.012453333915423881,"358":-0.09607142578316141,"359":-0.04505544332190477,"360":-0.030276957861967425,"361":0.13167252373189564,"362":-0.0849034664437362,"363":0.01442790398884567,"364":-0.05689941633391281,"365":-0.05461881049380717,"366":-0.05963706466100108,"367":-0.014589745509537032,"368":-0.014290573130891994,"369":-0.0531262436506896,"370":0.0025501069929895802,"371":0.015856695656735868,"372":-0.05312017612932735,"373":-0.0333191908486784,"374":-0.057530185753190966,"375":-0.05303830440048314,"376":0.08696102659921073,"377":-0.02436610190775118,"378":0.026984139382783618,"379":0.08564038809460489,"380":-0.02056956990104253,"381":-0.04241841418046971,"382":0.005765371523883912,"383":0.035854888092783976}},{"sx":1,"sy":1,"depth":384,"w":{"0":-0.11743943326405777,"1":-0.15771380144362582,"2":-0.03176049680014678,"3":0.02670559276753144,"4":-0.08569631022303968,"5":-0.06714248598833791,"6":-0.026116217808331406,"7":-0.09206195423453852,"8":-0.1687473082656243,"9":0.19081133375423434,"10":-0.1667269160229077,"11":0.18197258304628805,"12":-0.0786908158954093,"13":0.19794732235374074,"14":0.009846354630903874,"15":-0.07239749228835332,"16":-0.08801807347718221,"17":-0.25526488157577015,"18":0.23758856876696985,"19":-0.31983898231383806,"20":0.13891956695122729,"21":0.07128408345769167,"22":-0.06789471094983908,"23":-0.08424191032275737,"24":-0.00404797826395459,"25":-0.051801550287824384,"26":0.06718214533877641,"27":-0.02001709147167712,"28":-0.1494079714181446,"29":-0.23172544973900064,"30":-0.15149123524252778,"31":-0.005508409353812182,"32":-0.06856606517663363,"33":-0.09518814263137383,"34":-0.03928002350640013,"35":0.17934365087390006,"36":-0.09744961740913365,"37":0.3186918208148859,"38":-0.1338259969331201,"39":-0.0021831021193057204,"40":-0.08791352198421999,"41":-0.13039817015045624,"42":-0.17925033375534818,"43":-0.30606370782925874,"44":0.015279093110761163,"45":-0.17140370512604686,"46":-0.04367903225239121,"47":0.0011284039273634992,"48":0.004883666641293691,"49":-0.14677791645905522,"50":0.025693061454769402,"51":-0.17563203290570142,"52":0.07388150091135932,"53":-0.0636889032607545,"54":-0.32014175134228356,"55":-0.06340293144165676,"56":-0.10988818021257372,"57":-0.0868102167237165,"58":-0.05400825530370978,"59":0.016654360199811157,"60":-0.03968360261564028,"61":0.147637963513241,"62":-0.12140341595217113,"63":0.020275129396261745,"64":-0.037242702827129416,"65":-0.12169837323310914,"66":-0.0647442917903771,"67":0.009085963172468833,"68":-0.04112064152460502,"69":-0.15822176299834823,"70":0.011496103840568659,"71":0.17977147857797088,"72":-0.04566253680715123,"73":-0.04218350569294551,"74":-0.031097760333349305,"75":-0.10684677108696025,"76":-0.16313401937639527,"77":-0.1303530152724328,"78":-0.009359448932306565,"79":0.08090902791677507,"80":-0.1221676810325306,"81":-0.19741735910534652,"82":-0.1798855669416419,"83":-0.08561306758819733,"84":0.01717481164059229,"85":0.04241546745957107,"86":-0.1177637586872128,"87":-0.07806429851374588,"88":0.01478443510726975,"89":0.00011739766599756775,"90":0.16590126572734615,"91":-0.011595174320271401,"92":-0.08778140987053276,"93":0.05913735188470254,"94":0.13204026516994613,"95":0.10058514383188077,"96":0.1169548115351126,"97":-0.05088817333978087,"98":-0.09845614395208731,"99":-0.040879735320478845,"100":0.06658817421798864,"101":-0.17259483915645574,"102":-0.09628021413494153,"103":-0.07647209660881513,"104":-0.011269957783639817,"105":-0.031877251453198724,"106":-0.13041346887955363,"107":-0.17658312440256574,"108":-0.1122287044713038,"109":-0.1125120816818834,"110":0.16914055480344936,"111":-0.011740838827911947,"112":-0.2948069982593103,"113":-0.016384428735304088,"114":0.026628197383987546,"115":-0.21027769744952435,"116":0.07971505538427615,"117":-0.016673104121832823,"118":-0.04700098507551574,"119":0.10922463148836092,"120":0.019676577724606716,"121":-0.006531225203580642,"122":-0.008789841498743393,"123":0.08663321845241942,"124":-0.10218383143402697,"125":-0.24435922567624668,"126":0.10822886451307051,"127":0.013622420609187587,"128":-0.12325783991558938,"129":0.038540817868131676,"130":0.05767965739334235,"131":-0.012866026831564903,"132":0.191895415498637,"133":-0.16846957987172623,"134":-0.1427248766034266,"135":-0.08244666364265005,"136":-0.062364265369213974,"137":-0.2652426684650003,"138":-0.05970332766214241,"139":0.06980985595576032,"140":0.07084146371805622,"141":-0.2619156254855707,"142":-0.007181953036782762,"143":-0.3065782115922795,"144":-0.09863050526011027,"145":0.0786766040851126,"146":-0.15152663169672403,"147":-0.05490119173389516,"148":-0.004428520521915835,"149":0.0924556329705123,"150":0.016778132860398757,"151":-0.08697168333784165,"152":-0.05994889932096105,"153":-0.06623706489833191,"154":-0.09146560860613526,"155":0.15341945715473124,"156":-0.18206540441032906,"157":-0.07745123260564696,"158":-0.22662618421556877,"159":0.18583451925037012,"160":0.014857370840243382,"161":-0.12432107161332419,"162":0.11094696645088536,"163":-0.06603870408215126,"164":-0.10122295805887886,"165":-0.39584467044793265,"166":-0.12039625327934371,"167":0.01913389816116757,"168":-0.13041033661907142,"169":-0.1389155328193179,"170":-0.008140515594018509,"171":0.4710464218866963,"172":0.018692131757313574,"173":0.14226983090917406,"174":0.02670733084904733,"175":0.3309235130809222,"176":0.003624061729037023,"177":-0.08726615453411643,"178":-0.06647035549410747,"179":-0.0559891260797633,"180":-0.10225549071314921,"181":-0.07116796658709212,"182":0.025118290236162195,"183":-0.05533057728144034,"184":-0.18006101364586644,"185":-0.14928355128971912,"186":0.0326184768331964,"187":-0.21331786459362292,"188":0.21318534712949413,"189":-0.10475420244071196,"190":-0.12743254891158184,"191":-0.13042292500895122,"192":0.006407479310828919,"193":-0.026453593622470264,"194":0.010863973436495847,"195":-0.05214538972179364,"196":-0.11291368240196825,"197":0.38441226859160327,"198":0.5114446140459104,"199":0.0013493401512567893,"200":0.005191569696317314,"201":0.05530502062954022,"202":-0.03672367063299573,"203":-0.38003887771985706,"204":0.0020545104433362985,"205":-0.11444874859932166,"206":-0.026582016772471434,"207":-0.057382880214591335,"208":-0.13358009661938808,"209":-0.11741222172304892,"210":-0.11381292889604475,"211":-0.08389378897208952,"212":-0.2859869133941799,"213":-0.1190098067736392,"214":-0.05368875179552003,"215":-0.09337562009522066,"216":-0.13919102635387248,"217":-0.3425007622009191,"218":-0.15617995781172408,"219":-0.06170445758172878,"220":-0.1269400537535617,"221":-0.09276744182498971,"222":-0.04211206677847512,"223":0.04808707696804956,"224":-0.20588857641531996,"225":0.04897893050136284,"226":-0.017518543346783738,"227":0.07719508486340386,"228":-0.1330961979231063,"229":-0.06795129750598827,"230":-0.25867110742755967,"231":0.09260249741846281,"232":-0.11620221958566376,"233":0.025393181734014683,"234":-0.22326514048080925,"235":-0.08955875847878185,"236":0.1013317513689979,"237":-0.17868613447605905,"238":-0.2292003312435793,"239":0.20153591254885592,"240":-0.1386590661064204,"241":-0.0501244982663276,"242":0.02245682582973723,"243":-0.2516176477606304,"244":-0.05601736993175739,"245":-0.09268217046230436,"246":-0.19569139924682258,"247":-0.02069081674900315,"248":-0.14730669150415965,"249":-0.08322070029025795,"250":-0.019922918520666202,"251":0.03508444348358377,"252":0.03797025855112112,"253":-0.06287781066396801,"254":0.1935572360473878,"255":0.020274374702446304,"256":-0.09964360735106699,"257":-0.09888934704185988,"258":0.43208612284504333,"259":-0.3009752562327018,"260":-0.23964189047540227,"261":0.26203450770924586,"262":-0.006310564687125083,"263":0.021498477073669028,"264":-0.07503161107233619,"265":0.11236531418430175,"266":-0.1803320361750023,"267":0.24455559344919034,"268":-0.15956262830971232,"269":-0.06126899525690971,"270":-0.2694273299483022,"271":-0.13509198698952882,"272":-0.050812776415981926,"273":-0.132694984647294,"274":-0.22696048390750406,"275":-0.2353365969422404,"276":-0.33567416971204245,"277":-0.08163475979392079,"278":-0.26138871716734186,"279":-0.10930367866705211,"280":-0.14542784570254416,"281":-0.0626904942700021,"282":0.28690503055830985,"283":0.003491720128734935,"284":0.005592644478340384,"285":-0.027292945774218987,"286":0.003876050401942502,"287":-0.09636708490154074,"288":-0.057848356410924076,"289":0.020749554730833886,"290":0.10278660436141092,"291":0.2587427503572071,"292":1.1988655548016205,"293":0.04089288953883255,"294":-0.10147139001467256,"295":-0.30257056908287167,"296":-0.07821847854325936,"297":-0.3734853212820486,"298":0.1136380814432505,"299":-0.03748609112040059,"300":-0.1189656305208186,"301":0.018803962921896417,"302":0.03189674904137167,"303":-0.16644133008913453,"304":0.031045567816390778,"305":-0.3472432096279278,"306":0.08684675333042272,"307":-0.07605382533845233,"308":0.15811135049486325,"309":-0.16299958764362082,"310":-0.34725467813266214,"311":-0.1281628279369232,"312":-0.20207185346296705,"313":0.03231250490122554,"314":-0.29270315126822144,"315":-0.23505289797416426,"316":0.0052769057706654405,"317":0.03674761932142111,"318":-0.26946947926309783,"319":0.09605899366879453,"320":0.014841055208533419,"321":-0.06004463989365155,"322":-0.0002635384919974144,"323":0.1145330054322495,"324":-0.02287148049959331,"325":0.1640304033461354,"326":-0.15008099894900004,"327":0.02848967244109142,"328":-0.022493780676492044,"329":-0.19647689401138727,"330":-0.09286157221491308,"331":-0.1927397941799795,"332":0.07653840132059037,"333":-0.3285576300049709,"334":-0.1171555199349403,"335":0.25096083987311335,"336":-0.35012265946854165,"337":-0.019144847546815707,"338":-0.1818578408592091,"339":-0.023247988354522645,"340":-0.07050268423966835,"341":-0.1635477993197719,"342":0.08436777898117945,"343":-0.27154573904151075,"344":-0.05718698904969299,"345":0.01185553830168573,"346":-0.10131055492507329,"347":-0.024201146028397083,"348":0.29416055473465136,"349":0.030019848658835644,"350":-0.2898892094755789,"351":-0.09220806610843515,"352":0.12148706752834738,"353":-0.08170168438334811,"354":0.0565087797924113,"355":-0.03327289038379182,"356":0.004524073222104766,"357":-0.0342168701889484,"358":0.7641737918161612,"359":0.042746446626954156,"360":0.028361868149846408,"361":0.16776993071770918,"362":-0.24776801388477246,"363":0.11447058748701597,"364":-0.09102045608014794,"365":-0.05018109566251384,"366":-0.09460985741632247,"367":0.24239237206902406,"368":-0.16631863222152624,"369":-0.028047427337444877,"370":0.0023385660873322233,"371":0.05153389697341022,"372":0.014410352761014952,"373":-0.07709516712040122,"374":0.21380513187958045,"375":-0.16932240525924597,"376":-0.22413114999134617,"377":0.0350643733688814,"378":-0.09412459274965139,"379":-0.006754347263091846,"380":-0.015544180672190436,"381":-0.21008351393912492,"382":0.06228430616880383,"383":0.05456685830236151}},{"sx":1,"sy":1,"depth":384,"w":{"0":0.08982848278945942,"1":0.08088077193953454,"2":-0.03275163310844157,"3":-0.06566216221920693,"4":-0.08995064916861864,"5":-0.11196358343938849,"6":0.002616075494958028,"7":-0.08021060178496815,"8":0.04174783363764933,"9":-0.1021658078859155,"10":-0.002853168728022982,"11":-0.06304415614947396,"12":0.005423727127399373,"13":0.07567778038949459,"14":0.10933918755509633,"15":-0.08982382528765344,"16":-0.06194098358653465,"17":-0.1732245634855627,"18":-0.08587080319059351,"19":0.10570319289672486,"20":-0.1042071575727639,"21":-0.1721526992145553,"22":-0.03746242052513737,"23":0.0975206067696705,"24":-0.09032874887861932,"25":-0.09626294745346146,"26":-0.04828585346590321,"27":-0.04461627544385135,"28":0.08298698984367561,"29":0.11397589223203033,"30":-0.048330028436967716,"31":0.010700969448417436,"32":0.08539074594374475,"33":0.0959375282009738,"34":0.04144960050089698,"35":-0.10071550351451321,"36":-0.13405580115348423,"37":-0.04271620023851579,"38":0.06459182781596665,"39":-0.05471625119115021,"40":0.23041090639725742,"41":0.013853895957020256,"42":0.24193919700914207,"43":-0.1151147155707504,"44":0.12544731843136409,"45":-0.10920542326595364,"46":0.014453623458370656,"47":0.03101760057200409,"48":-0.07847491278171172,"49":-0.0011055181418233914,"50":0.05181890257371094,"51":0.021084814975540607,"52":-0.033848884879379676,"53":0.03647919518708392,"54":-0.21181351862227063,"55":-0.03916636414148487,"56":-0.1346087143687774,"57":-0.04151804977661295,"58":0.062073877059182374,"59":-0.11920727213592922,"60":-0.2346960111390561,"61":0.23951292203174243,"62":-0.06672171725607454,"63":0.09240457604210395,"64":0.010686238637282925,"65":0.012228393913140451,"66":-0.015963912942473804,"67":-0.07202316376708297,"68":-0.13044889014535288,"69":-0.02787148859029971,"70":-0.12600867615611705,"71":0.044453135643593295,"72":0.02531985141810113,"73":0.031247110315569936,"74":0.02522935741075618,"75":-0.14771328134825018,"76":-0.017107949435554833,"77":0.0015161075540436725,"78":0.001530424153286633,"79":0.014281039072105182,"80":0.037902103754014545,"81":0.025660841724997357,"82":0.13443287739832585,"83":0.049584428259476995,"84":-0.09603029538312281,"85":-0.029243224948317877,"86":-0.003235261070950085,"87":-0.026521909734170956,"88":-0.014153701994694394,"89":-0.1440051561781401,"90":0.06783745265174117,"91":-0.003676192554906096,"92":-0.21184121685244575,"93":0.021801623127488793,"94":0.14135734357471322,"95":0.11422743766653878,"96":-0.05054387705587131,"97":-0.19229862425672453,"98":-0.08142144293960518,"99":-0.02882349847565052,"100":0.03486408874124949,"101":-0.0675266257906064,"102":0.003328925892861382,"103":-0.07780417969758854,"104":-0.0640561437387124,"105":-0.001156755972264489,"106":0.013557251820364708,"107":-0.014768060041278237,"108":-0.008706546331633393,"109":0.04536194098901778,"110":-0.003190539874624545,"111":-0.07993528101808532,"112":-0.062048628809184526,"113":-0.013208791456726016,"114":0.03594208398513246,"115":-0.07777193992282712,"116":0.09349791273315683,"117":-0.06152388243798733,"118":-0.005977581163927594,"119":0.00584811011036849,"120":0.0015531007907263988,"121":-0.05267400934372042,"122":-0.055526721179247104,"123":-0.10289305880496619,"124":-0.03696302810478291,"125":0.049970282360642757,"126":-0.08148540062665822,"127":0.06471804407730514,"128":0.12873395058782441,"129":0.08579183352332019,"130":-0.11955193000086997,"131":-0.08231380958435913,"132":0.058768691212612384,"133":-0.13187180961448003,"134":0.09727348383288988,"135":-0.05904298529955534,"136":0.06834464898761068,"137":-0.014354669303986474,"138":0.16792918881848912,"139":-0.07565812530824494,"140":-0.10445610825715806,"141":-0.12541497641742572,"142":0.1615938912106197,"143":-0.1052668194783447,"144":0.19546040616723037,"145":-0.012531754524488584,"146":-0.04266660742427121,"147":-0.040030029233324785,"148":-0.03551519698958083,"149":-0.10989739008226135,"150":0.045430158470538225,"151":0.08066617751880627,"152":-0.1863457416209733,"153":-0.08946021781206517,"154":0.04394062464514902,"155":-0.19513398771830576,"156":-0.049025923948740564,"157":0.01079788014282279,"158":-0.1893467631933705,"159":-0.021433092231332974,"160":0.012221699049938152,"161":0.04866591857083723,"162":-0.008043448426611368,"163":-0.03529008667834248,"164":-0.040645693492579134,"165":-0.01874090783144485,"166":-0.018653290898286448,"167":-0.04609375469346208,"168":0.019823364721747658,"169":0.30974892787912583,"170":0.07322172600406687,"171":-0.03669723387367719,"172":-0.17716032071750792,"173":0.005538684697663762,"174":0.13043067644063497,"175":0.0488786928991095,"176":0.006629089384713526,"177":0.05887320193689667,"178":-0.0323705047779317,"179":-0.023002705444054975,"180":-0.0030823151637286495,"181":0.007317255571755437,"182":0.014442633317488227,"183":0.10253326791620349,"184":-0.01579768221199941,"185":0.12317413884974111,"186":-0.01054162214827737,"187":0.04826916713000059,"188":-0.011662180478961117,"189":-0.052788275067568766,"190":0.06512965586874073,"191":-0.03683118157048742,"192":0.028670694058233036,"193":0.013149827985946482,"194":-0.05765691485311572,"195":-0.05486455901809107,"196":0.012796968444571165,"197":-0.02992116441368283,"198":-0.027811403396641076,"199":-0.04477052293004734,"200":-0.08495232323691304,"201":-0.18398348430274927,"202":0.12815536120233037,"203":0.009442358961818713,"204":-0.03723882788389763,"205":0.0011457321560777375,"206":0.02543641805416246,"207":-0.024845846618553238,"208":0.05972586324613761,"209":-0.030699859321064914,"210":-0.006742202201121384,"211":0.09741158087649529,"212":0.043001830590083986,"213":-0.17385831006268868,"214":-0.05689503876964667,"215":-0.025493410123489775,"216":0.09634618809564743,"217":0.004652445757835252,"218":-0.10106041071273013,"219":-0.09570132238978066,"220":-0.08428125806595768,"221":-0.005540825270347682,"222":-0.036926506937266554,"223":-0.01133498659516936,"224":-0.05249957348579131,"225":0.13555268404890525,"226":-0.11326675560427883,"227":-0.03617879714566184,"228":0.1770624440421498,"229":-0.10923353837103271,"230":-0.25024887128321466,"231":-0.05260026671780607,"232":-0.07855401465211385,"233":0.025906850919213277,"234":-0.04614041123714923,"235":-0.036797657724649505,"236":0.029230645222827988,"237":-0.04509692150230992,"238":-0.01762595757810382,"239":0.03842161081490328,"240":0.04923370353318762,"241":-0.025640376264450634,"242":0.0190470222866876,"243":-0.06160084744275658,"244":0.2069639092757548,"245":-0.20556493854974955,"246":0.045046405627484354,"247":0.059247114372285255,"248":-0.11825410066320793,"249":-0.06919988155480158,"250":-0.10767167952947387,"251":-0.08859789829019078,"252":0.019951921457723704,"253":-0.0008878722343234534,"254":-0.1164642232186523,"255":-0.06128050004869772,"256":0.04275908084676138,"257":0.04141991855384424,"258":-0.15665391961134081,"259":-0.2290279821673361,"260":-0.3589609990778351,"261":0.0964202538252509,"262":0.034393969007373494,"263":0.14488065457250668,"264":0.06014802664797446,"265":-0.05925579959003837,"266":0.03277197525585631,"267":-0.07306524279055575,"268":-0.0417317891158051,"269":-0.05546726988708189,"270":0.055892417716682304,"271":-0.030331885813588567,"272":-0.11393928622076355,"273":-0.0528307274202973,"274":0.07786000539862074,"275":-0.04967369741296998,"276":-0.1828832519508194,"277":0.10966095096512428,"278":-0.06669590845981836,"279":0.010074510400787084,"280":0.02205359712636429,"281":0.016304098767397496,"282":-0.0642569648900447,"283":-0.055966640065960936,"284":-0.009588177085447323,"285":-0.029787965911693106,"286":0.01642051151216296,"287":0.06083277862186732,"288":0.08872213868860333,"289":0.21212827828764574,"290":-0.1388131658536236,"291":0.15978652419306344,"292":-0.12318601778227138,"293":0.1138286568181915,"294":0.08192777503941438,"295":-0.13213389915699206,"296":0.39003950353398625,"297":-0.03772484885852343,"298":0.11009564168216089,"299":-0.035217788903900274,"300":0.19351290785534295,"301":0.1672445991690326,"302":0.08157212533253243,"303":0.02878940054492867,"304":-0.004519344035800061,"305":-0.12233370765881482,"306":0.09458561438828533,"307":-0.08119681115874142,"308":-0.018002176443773228,"309":0.008080252086454506,"310":0.006656994258084895,"311":0.20127504738467472,"312":0.10016845105584839,"313":0.2466760598863393,"314":-0.13750827249999711,"315":-0.003808732770028131,"316":0.053261463528392367,"317":-0.12017432769570749,"318":0.11631916572214218,"319":0.040791533173546037,"320":0.023689446468983938,"321":-0.0026473005976551784,"322":-0.05548716000714558,"323":-0.07871626854731043,"324":-0.10021027535443668,"325":0.02500696842509649,"326":0.09513529101122545,"327":-0.09469638767390282,"328":-0.0825012903507844,"329":0.06555285919542736,"330":-0.04608257456752273,"331":0.030880655714320436,"332":0.0788097891317771,"333":-0.0022022368991435866,"334":0.018770684794899885,"335":0.1515686102831441,"336":-0.022943862572554596,"337":-0.06160763535479296,"338":-0.0027052784026729442,"339":-0.08236004336194082,"340":-0.05383441215045482,"341":0.022488628108364692,"342":0.13281588987845513,"343":-0.028681286813782084,"344":0.04419923680895983,"345":0.02378203337241039,"346":0.00951793298574237,"347":0.01262086812195017,"348":-0.05169036474379311,"349":-0.009652766177824111,"350":-0.07113738940746457,"351":-0.021260959500695818,"352":-0.08904950055732543,"353":0.0020749598424792937,"354":-0.15684135629051255,"355":-0.17614273239751677,"356":0.048245097237389914,"357":-0.18936399639868226,"358":-0.07389958747370547,"359":-0.05336158193576794,"360":0.09988614098093605,"361":-0.00031580302329375676,"362":0.11856720388907263,"363":-0.011456765227063882,"364":0.020034172686349393,"365":0.05468973934861202,"366":0.019449184510350364,"367":0.041727739190497944,"368":0.018397550854337554,"369":0.10335099899447181,"370":-0.0061290441660859975,"371":-0.03755143797232428,"372":-0.051640122432433315,"373":-0.08877602772753454,"374":0.19122762359304607,"375":-0.157636537519654,"376":-0.1381095122055806,"377":0.08703760637818099,"378":-0.01574321407621313,"379":-0.09481087670998162,"380":0.028566055232752643,"381":0.05384785117661197,"382":0.03027602212280108,"383":0.07131829116731053}},{"sx":1,"sy":1,"depth":384,"w":{"0":-0.12442516267009326,"1":-0.2501337519572755,"2":-0.10520789265826345,"3":0.050966620907720375,"4":0.015839062325581934,"5":-0.11888385817023643,"6":0.05447175921740389,"7":-0.14371484565497125,"8":-0.4118064334965216,"9":-0.04348890679211608,"10":-0.32221544473829716,"11":0.2538825528249337,"12":0.010288225652758751,"13":0.1733596709284215,"14":-0.0441292910709112,"15":-0.3653993159779335,"16":-0.0029866862916433762,"17":-0.2877475864444873,"18":0.42313447349908934,"19":-0.26821887919550513,"20":0.03191826555814476,"21":0.11295427420168644,"22":-0.21186483531375894,"23":-0.2672188886916866,"24":-0.06210415773480544,"25":-0.04738434171175538,"26":-0.16447263375611132,"27":-0.066536263487203,"28":-0.11967054692329884,"29":-0.23641282212126194,"30":-0.11717490568010361,"31":-0.02440485478607154,"32":-0.16048703341602286,"33":-0.21868985368645258,"34":0.025487854973445433,"35":0.3438883112422653,"36":-0.05255610988235843,"37":0.3939213090676116,"38":-0.1945506922716785,"39":-0.09740686817551364,"40":-0.21025040084755756,"41":-0.2750057206931475,"42":-0.3957805133064501,"43":-0.4317555020654117,"44":-0.04316140463199779,"45":-0.25550248829962713,"46":0.08275657138135359,"47":-0.06759570015679224,"48":0.08431053046052013,"49":-0.16118183305653638,"50":-0.04470434133386298,"51":-0.15462952298624397,"52":0.11816324716249463,"53":-0.016665483603524482,"54":-0.4340427401333406,"55":-0.15714225188770403,"56":-0.08447067074127866,"57":-0.021200331272630966,"58":-0.23796268515839158,"59":-0.031191706622470002,"60":-0.04250204423975888,"61":0.3301525639291679,"62":-0.2634083515805916,"63":-0.03899989376961609,"64":0.15336031427870592,"65":-0.2502086635458022,"66":-0.12838505697181568,"67":0.02540033926791785,"68":0.06539460947670679,"69":-0.20882686910810921,"70":-0.03605390015102414,"71":0.1587143408858655,"72":-0.011552731759667268,"73":-0.08520660510923113,"74":-0.17075399937388974,"75":-0.20535688468153596,"76":-0.17307203748181435,"77":-0.2346784814566701,"78":-0.07293154329531451,"79":0.2626747404561933,"80":-0.24119031340826871,"81":-0.232971461836537,"82":-0.2847153696043821,"83":-0.0441872314954516,"84":0.006467926065892493,"85":-0.07278127510021266,"86":-0.23010160932717666,"87":-0.03235101827225126,"88":-0.1143747972571277,"89":0.07694792384017736,"90":0.3998781651001545,"91":-0.07228605585918862,"92":-0.11010141258294709,"93":0.15792612745439907,"94":0.22220553767934648,"95":-0.12537602622744898,"96":0.2058024533185052,"97":-0.054402201690889565,"98":0.12468607173940453,"99":-0.03586235815346248,"100":0.008025227104300483,"101":-0.35310167537255405,"102":-0.11086731773893142,"103":0.05797999184009437,"104":-0.20012812098646263,"105":0.011544125104972235,"106":-0.18437642920771322,"107":-0.15192364118504756,"108":-0.07445645210560574,"109":-0.2596541712338923,"110":0.38338897349369844,"111":0.010620858018997105,"112":-0.549384099289025,"113":-0.009444350458994442,"114":-0.06749178050418476,"115":-0.2661231884780506,"116":0.08588543323828622,"117":0.10559747580036762,"118":0.016131744052536715,"119":0.1980201265226392,"120":0.0016773378098182746,"121":-0.038530329488464105,"122":-0.03358929896837902,"123":0.12193168542183458,"124":-0.07536055095258498,"125":-0.4659368430599485,"126":0.1548159122531993,"127":-0.028935968374257548,"128":-0.16849990061198566,"129":0.02558329783624757,"130":-0.08863549485087799,"131":0.027050620148652862,"132":0.2598996566491919,"133":-0.3809271874390807,"134":-0.2373152329622154,"135":-0.08888167365109387,"136":-0.15365451350195333,"137":-0.4761389157670975,"138":-0.19887735353604802,"139":0.09018346074220263,"140":0.13435559165142416,"141":-0.2837460714549992,"142":-0.30068680366460776,"143":-0.38161908659801613,"144":-0.06114034042516738,"145":0.09167859501293668,"146":-0.1317314279168448,"147":-0.08778670910922012,"148":-0.04473505585279118,"149":0.1756944426913521,"150":-0.12697864210575338,"151":-0.18759876553559923,"152":-0.28185087569548845,"153":-0.07692426540855345,"154":-0.13702267633057919,"155":-0.10353228261671275,"156":-0.3058958003679055,"157":0.014743997560027837,"158":-0.4518867575863861,"159":0.29477773266698065,"160":0.1162257908730126,"161":-0.0610613858632517,"162":-0.007440062265890152,"163":-0.06954737424022477,"164":0.001403549006109269,"165":-0.4785611342200561,"166":-0.20975368148244786,"167":-0.03809569552891289,"168":-0.00120915437321171,"169":-0.24285529494890112,"170":-0.08907722078172411,"171":0.6102634600686452,"172":-0.14328147842192265,"173":0.2767352901795737,"174":0.10162551035512911,"175":0.36751976267234987,"176":-0.21640124288116327,"177":-0.050021141174702764,"178":-0.06956933998451417,"179":-0.13628360990385743,"180":0.17457328791318272,"181":-0.21113945789140118,"182":0.1210630074852424,"183":-0.14381111493297066,"184":-0.20400284810697253,"185":-0.14925143748690758,"186":0.06262704402656541,"187":-0.1974302473155231,"188":0.2593851286950833,"189":-0.04817776004270727,"190":-0.2536535790447511,"191":-0.1731937886108603,"192":0.08455560140735309,"193":-0.030709177685755058,"194":0.07887644414168646,"195":-0.0791287283069253,"196":-0.253404426787766,"197":0.6784194460030777,"198":0.8353438411968419,"199":-0.10221884188796335,"200":-0.07944009108780463,"201":0.00007435881316355394,"202":-0.19231479322977296,"203":-0.5471446404997651,"204":0.024095301015953616,"205":-0.2595516590686111,"206":-0.1078236275196147,"207":-0.03897248385302681,"208":-0.11407206638066554,"209":-0.06070642745147598,"210":-0.07167086402225042,"211":-0.12946018981469481,"212":-0.2994700833685051,"213":-0.2107151720036778,"214":-0.07132788950833621,"215":-0.26119966636054925,"216":-0.1340068815387109,"217":-0.4383286283453053,"218":-0.07047945133753578,"219":-0.1587079716103153,"220":-0.314616234482236,"221":0.042816891225566416,"222":-0.1709814747071599,"223":0.12482330423238196,"224":-0.37447078995411465,"225":-0.013261691379713503,"226":-0.10116657848323608,"227":-0.05238712059501549,"228":-0.30165553237637227,"229":-0.04086215010661155,"230":-0.35266258679406937,"231":-0.03981038931496218,"232":0.0009581076661201542,"233":-0.0006921451758995355,"234":-0.4154489933016715,"235":-0.062134167643131864,"236":0.10857911917690007,"237":-0.11394793548734193,"238":-0.40821232167152344,"239":0.12105099887100422,"240":-0.20093134030844279,"241":-0.1722919314563268,"242":0.22031056293065662,"243":-0.3937535724289885,"244":-0.00038177942703326975,"245":-0.0044985429018293,"246":-0.22497921831853537,"247":-0.1207368843209432,"248":-0.13509108179304732,"249":-0.10507692545214471,"250":-0.02755943561067394,"251":0.030334894316017307,"252":-0.040911024330416684,"253":0.006779055247918426,"254":0.37446640342660664,"255":0.15799747033697337,"256":-0.35202102767460103,"257":-0.14637718738286504,"258":0.6689703577564861,"259":-0.4071513192303512,"260":-0.45590608226784285,"261":0.4491767862804963,"262":0.026678948516204757,"263":-0.12898071303045835,"264":-0.2791305635608043,"265":0.13722535090347782,"266":-0.3337373159568217,"267":0.14131558524604013,"268":-0.1410325805636867,"269":-0.28006434198710617,"270":-0.3402232540497034,"271":-0.27967682546400285,"272":-0.10641811372384342,"273":-0.2368018162868106,"274":-0.2103873073259327,"275":-0.18323574294823317,"276":-0.43048423980225775,"277":-0.06581347845566096,"278":-0.6620642394270577,"279":-0.09331407380494129,"280":-0.2368237917741924,"281":-0.15441709730527323,"282":0.033681903540731965,"283":-0.07532893622241382,"284":-0.170359486179804,"285":-0.1131665032545466,"286":-0.09854523807762613,"287":-0.12573648734136061,"288":-0.05693867000775471,"289":-0.09179095399337299,"290":-0.034548989232465445,"291":0.5007499845587624,"292":1.715268156758731,"293":-0.04634211589415846,"294":-0.28282171584976296,"295":-0.4809690109861873,"296":-0.11560741064956197,"297":-0.5793174222781188,"298":0.0754879419754122,"299":-0.053568771009176966,"300":-0.261217132595073,"301":-0.14449769301538914,"302":-0.01922603804042761,"303":-0.2622485428643611,"304":0.06935124414494041,"305":-0.5359268102440564,"306":0.009618982904765715,"307":0.03674524684805037,"308":0.09553469643167496,"309":-0.2751086377186109,"310":-0.6252206104479209,"311":-0.08234085434061496,"312":-0.24548960221640984,"313":0.002113940801329861,"314":-0.32395803950529245,"315":-0.23618161792471462,"316":-0.04863892149243682,"317":0.2388756985107785,"318":-0.28304650065907716,"319":0.2651353847876951,"320":-0.05180835311262413,"321":0.010970006775287956,"322":0.07857744600595325,"323":-0.015646053504333495,"324":-0.11512315736857458,"325":0.0770860934914746,"326":-0.37469767214032057,"327":-0.14233833496365478,"328":-0.3737951799277236,"329":-0.1960217951914448,"330":-0.21865910408948366,"331":-0.04357875201959993,"332":-0.09906185049837637,"333":-0.39308232344514077,"334":-0.1140047471442776,"335":0.27024743466484763,"336":-0.592805461542003,"337":0.03658876375344382,"338":-0.25202923345885736,"339":-0.27296421992223585,"340":-0.016528280634787364,"341":-0.2223268143240105,"342":-0.016163417516483616,"343":-0.4197418130482724,"344":-0.18633413510924712,"345":-0.056792260516549,"346":-0.21958284805075926,"347":-0.08315285651694465,"348":0.44095925954402765,"349":-0.05755487383610809,"350":-0.332010177919626,"351":-0.11605496220219742,"352":0.2647128820695732,"353":0.06065570651382716,"354":-0.10710480705030903,"355":0.051158086749726425,"356":-0.13331667377302367,"357":-0.2145509585450183,"358":1.475154599932684,"359":-0.1502212150971427,"360":-0.047206731950048895,"361":0.3202586721808115,"362":-0.4617224175375462,"363":0.13739716068286703,"364":-0.2539903994080322,"365":-0.2812343441408374,"366":-0.10223659497243599,"367":0.22112680214613462,"368":-0.20525806816983377,"369":-0.02151411572172725,"370":-0.09074314523816233,"371":-0.1166652966627901,"372":0.014414538279132756,"373":-0.15906272729690482,"374":0.32208978867652777,"375":-0.23618133727851007,"376":-0.35276282719298774,"377":0.10793431995872954,"378":0.005777102065242719,"379":0.13642659448134384,"380":-0.04765521069977619,"381":-0.5519275796447897,"382":0.04922624556528776,"383":-0.04511458734984842}},{"sx":1,"sy":1,"depth":384,"w":{"0":-0.19375678129113302,"1":-0.06070982522961911,"2":0.06621818431993534,"3":0.1549223553936953,"4":-0.1557598651328766,"5":-0.020275298488571517,"6":0.009478358085418758,"7":0.17752297290027785,"8":-0.26349307607183475,"9":-0.2685424045027057,"10":-0.06229098152254062,"11":0.10171370950347786,"12":-0.27225339531589815,"13":-0.08206715613728888,"14":-0.19522431645336039,"15":-0.134406292633502,"16":-0.08626168490640772,"17":-0.09407486376631026,"18":-0.12562526740121796,"19":0.021524152413549977,"20":-0.1503826449061787,"21":-0.4337541268773166,"22":0.12821848947248707,"23":-0.22325308944135822,"24":-0.048077695480043606,"25":0.018030035922597106,"26":-0.24968913331725892,"27":0.07760964839754182,"28":-0.09237886046862773,"29":-0.19516050357599868,"30":0.09822900923624829,"31":-0.008271267661945983,"32":-0.23571923893582353,"33":-0.08168787411542372,"34":0.08275611143162885,"35":0.09630432037268574,"36":-0.04212803660334737,"37":0.05144286620058377,"38":-0.0019442003133704274,"39":-0.31954405456810225,"40":0.14402756409472228,"41":0.17020023612562404,"42":-0.11951529870151911,"43":-0.03477669989315963,"44":0.020806067498779845,"45":0.1252041948443692,"46":0.06751159198686377,"47":0.27185537868500403,"48":-0.1176136585227991,"49":-0.16681361561681174,"50":0.07554932108786348,"51":-0.12116967322769925,"52":-0.10635550491157338,"53":0.1791099449845723,"54":-0.02610167616321329,"55":-0.12489136790156267,"56":-0.25192186225111196,"57":-0.08328403690505727,"58":0.12947099337264328,"59":0.011394187688451126,"60":0.6226800767394199,"61":-0.04112192787863798,"62":-0.4337518040464392,"63":0.04962596188221637,"64":0.2237626105497389,"65":0.3574238135930172,"66":-0.11860853936158011,"67":0.10492367103135555,"68":-0.025913107309420886,"69":-0.3438694880715623,"70":0.02082271779841802,"71":0.11041165783435672,"72":0.029074375569678446,"73":-0.00828451346602728,"74":0.035472340957650804,"75":-0.07543758924553023,"76":-0.11001056749882938,"77":-0.041158179693940096,"78":-0.05894045645919011,"79":-0.23391537671071522,"80":0.03422788757420498,"81":-0.10056428799602898,"82":-0.19675146464047763,"83":-0.05294683412652016,"84":-0.023657703568004004,"85":-0.0008161365890443962,"86":-0.29178326613345174,"87":-0.02820128333544702,"88":-0.05450464944001086,"89":0.05956331711065403,"90":0.37351330028661034,"91":-0.04561086793876936,"92":0.11903342935229684,"93":0.4670229085945451,"94":-0.08240399056892969,"95":0.047380472896181955,"96":-0.0814146620125037,"97":-0.08078260384520157,"98":-0.08978506723470249,"99":-0.1546237896062422,"100":-0.03049179151223231,"101":-0.1763344472862375,"102":-0.032510546759617856,"103":-0.04272245370862585,"104":-0.028282197378131563,"105":-0.19437259052028566,"106":0.047495875289231285,"107":-0.11949145132996478,"108":0.03398905591078859,"109":-0.202718039307576,"110":-0.3210199518574067,"111":-0.03895561981673247,"112":-0.31437726357830076,"113":-0.04784892491804562,"114":-0.17000166663573146,"115":0.13414440997036828,"116":-0.12069258543310026,"117":0.05781671171207213,"118":0.09420379067997074,"119":0.026362151064023898,"120":-0.14667669295304947,"121":0.010745095284725921,"122":-0.043347147211304886,"123":-0.05338776428270064,"124":-0.08436704708642884,"125":-0.16516478893976178,"126":0.07753788794481915,"127":0.021231610693486995,"128":-0.20512390945107917,"129":0.09901457528621904,"130":0.1350968910704928,"131":0.08528969681967616,"132":-0.36865016228551717,"133":0.07027742313224997,"134":-0.002095968576432599,"135":-0.09272227709758542,"136":-0.0233090356478299,"137":-0.02303589035517612,"138":0.02849901555372533,"139":-0.06911765930813708,"140":0.010698509246199294,"141":0.005417311666984601,"142":0.015632554167364174,"143":-0.33312582168083293,"144":-0.05426208717765177,"145":-0.03794209687587469,"146":-0.1378915423537121,"147":-0.1201583008803082,"148":0.17971630804348038,"149":-0.021706936093837618,"150":0.03869353325634336,"151":0.030308332529172498,"152":-0.14355903311403165,"153":0.08210237868881745,"154":-0.1521387916771755,"155":-0.18800205149451285,"156":-0.19920730279738763,"157":-0.09930294037823838,"158":-0.1003295220024952,"159":0.04306801019802934,"160":-0.14316370414258367,"161":-0.08379828557630443,"162":-0.14720978174177438,"163":-0.0916093147245691,"164":-0.2150294050782662,"165":0.006277571151402069,"166":0.00644717924429745,"167":-0.18150171352593397,"168":0.28296003891518273,"169":0.27564325837573006,"170":-0.19259115409553612,"171":0.05178486482708203,"172":-0.37582194463069535,"173":-0.12785004551321702,"174":-0.19480901446458465,"175":-0.22621030952832782,"176":0.03114817691032627,"177":0.019474753596565763,"178":-0.009893677173081044,"179":0.0022259836749140664,"180":-0.0979126999105026,"181":0.031050389978765122,"182":0.19556137749208113,"183":-0.10041638228160309,"184":-0.07030189096952251,"185":0.023228377813887705,"186":-0.11995778336963382,"187":-0.018661494656490498,"188":-0.060269035411641365,"189":-0.30693427392867256,"190":0.0018806612794606142,"191":0.2120420109504067,"192":0.21527533849467514,"193":-0.08544590802260074,"194":-0.023773054662706104,"195":0.04589825645720419,"196":-0.05676628913608165,"197":0.3681324577945135,"198":0.030287695249599494,"199":-0.2676836429541806,"200":0.03945114397971275,"201":-0.023053418749853817,"202":-0.012989732188174336,"203":0.07094389190058022,"204":-0.2116236502531112,"205":0.12289278241156279,"206":0.1158979778736684,"207":0.18459715068932073,"208":0.04887105778314662,"209":0.04819707229759866,"210":-0.10020563334827576,"211":-0.18832985096148064,"212":-0.13323959755892031,"213":0.3210999452488384,"214":0.07360358705109861,"215":-0.0653922334403802,"216":0.2559158786243406,"217":0.0015509555059724522,"218":0.14042560426440084,"219":-0.008346515661886513,"220":-0.33948584390040776,"221":0.10912025214292097,"222":-0.2573462556352691,"223":0.02715307644296472,"224":-0.23782144297870952,"225":-0.029182306290645034,"226":0.1568987996805434,"227":-0.08368051411894542,"228":0.03609317540783316,"229":0.1316660745128495,"230":0.03790467989474951,"231":-0.13915814052915698,"232":0.3208951114854449,"233":-0.11700181273950731,"234":0.48475588853103574,"235":-0.08219113421050335,"236":-0.09517892773111195,"237":0.052376024740680475,"238":-0.05603007853781935,"239":-0.011253427801493025,"240":-0.10719381144199129,"241":-0.14133130013920303,"242":0.03498311542278187,"243":-0.105050699272098,"244":0.025851192682396225,"245":0.019655851392138844,"246":0.23783768088231727,"247":0.02920674884265093,"248":-0.23111088580753916,"249":-0.11118740659106234,"250":-0.025527085650794562,"251":0.016849186714441106,"252":-0.12337889905672647,"253":0.05478429624438734,"254":-0.04969946329029833,"255":-0.07917126308772084,"256":-0.16110422783622214,"257":0.028017225034697384,"258":-0.04512226272031223,"259":0.0660586167194383,"260":-0.09081688057296029,"261":-0.17027709035774033,"262":0.010868681996740273,"263":-0.2656202777392983,"264":0.013659018500374688,"265":-0.10024653591994648,"266":-0.1385232696251116,"267":-0.1846809593524781,"268":-0.18347995814817966,"269":-0.13986776905744566,"270":-0.012221484516654087,"271":-0.1252973071791945,"272":0.02521054501123448,"273":-0.050235715480703984,"274":0.13370718502920817,"275":-0.2037180747517292,"276":0.9074484032760283,"277":0.022284869512930475,"278":0.05229485533010333,"279":0.1330249128344378,"280":0.005976745399977645,"281":-0.28068061299173597,"282":-0.034368611079087806,"283":0.13213973670739756,"284":-0.2216000144429631,"285":0.03057139820045448,"286":-0.16164094572143167,"287":-0.3557054459689124,"288":0.8224660003623943,"289":-0.2275766943273557,"290":-0.033174151695604705,"291":-0.044463671284323526,"292":0.3483869540612147,"293":-0.05631299443010395,"294":-0.2012796206001564,"295":-0.042782695739119386,"296":-0.15410181273875365,"297":0.12287786595895327,"298":-0.5199179224321815,"299":0.18147972138169238,"300":-0.02605928935046494,"301":-0.039946753347604814,"302":-0.1435860862986289,"303":-0.13123524891232904,"304":-0.046243090238895786,"305":0.38777491638236994,"306":-0.10101323688851357,"307":0.09388473140092708,"308":-0.18907379391917473,"309":-0.12717413165490649,"310":-0.07760761791636826,"311":0.08631944770185582,"312":0.012879083831549693,"313":0.302197520046465,"314":0.41284645770614165,"315":0.16937707333301275,"316":-0.03848332444389341,"317":-0.10858786991321867,"318":-0.2658986400397093,"319":0.15113961959409772,"320":-0.0804529882200234,"321":-0.12113635516711822,"322":0.039760911592930874,"323":-0.05295345795952847,"324":-0.08470474799849097,"325":0.21440029749233705,"326":0.01122063796310197,"327":-0.15862095167276025,"328":0.09861042791090593,"329":0.1732182311302869,"330":-0.14118526737090048,"331":-0.14669267406348094,"332":-0.07972577388769152,"333":-0.20465353372503328,"334":-0.016424546758560934,"335":-0.22370450438546563,"336":-0.4895574051500096,"337":-0.2127792201574261,"338":-0.21965392590047556,"339":-0.1057812824777326,"340":0.036030205164801286,"341":-0.08073278441357731,"342":-0.3394272569222308,"343":-0.1916353643226451,"344":0.1646044022697088,"345":-0.03213968630352622,"346":-0.2224261571792887,"347":-0.036439116511730936,"348":-0.01599345384672483,"349":-0.1792217310493882,"350":0.18894171254709016,"351":0.2733241440522462,"352":-0.3591519672043098,"353":0.0662028817998713,"354":-0.03161622143218083,"355":-0.01680635731151687,"356":0.01161105867777277,"357":0.38202546538531784,"358":-0.2803885555014259,"359":-0.2652900170743496,"360":0.22639435331047128,"361":0.06358876266878626,"362":0.0024362470759925017,"363":-0.08851821079450903,"364":0.07514180785914656,"365":0.042006805778565054,"366":-0.007713930839060837,"367":-0.027883342682140527,"368":-0.3251794742386651,"369":-0.11522585101396027,"370":-0.07973400461591808,"371":-0.11513211585006666,"372":-0.08845753616259,"373":0.029948632281148618,"374":0.005273569709490053,"375":-0.13192822773955432,"376":0.04962666522650759,"377":-0.13194052708643406,"378":-0.01708355458180258,"379":-0.0025930965849672986,"380":0.033519914358761754,"381":-0.289466135178472,"382":-0.09726557161607659,"383":-0.013499027973833308}},{"sx":1,"sy":1,"depth":384,"w":{"0":-0.39915735069884173,"1":-0.4913933726295483,"2":-0.27737216913715357,"3":0.30134460116193207,"4":-0.06666661588381655,"5":0.45120752891092514,"6":-0.20823174004201817,"7":-0.017768375883296227,"8":0.13655172916423955,"9":-0.22850181669683242,"10":0.044639458473857606,"11":0.6404120503849353,"12":-0.23264732928701648,"13":-0.13648747798509947,"14":-0.13058594415403788,"15":-0.08253823100425202,"16":-0.38057059108155405,"17":-0.47324912991269685,"18":0.14339838386125997,"19":-0.12649151926844623,"20":-0.2097067641297987,"21":-0.22657853262845115,"22":-0.03552520216973497,"23":-0.2992015975328352,"24":-0.026461866387819704,"25":-0.18866710829589425,"26":-0.28707262539744705,"27":-0.09444160362517301,"28":0.8532652692610724,"29":-0.08665225228921247,"30":-0.27991816753280396,"31":0.11434783910952795,"32":-0.0857724263058805,"33":0.9324351940607198,"34":-0.23338500052622893,"35":0.4668254544124035,"36":0.16364604808130548,"37":-0.17122364361608222,"38":-0.23416993471301062,"39":-0.2098264908190393,"40":0.4742284990795241,"41":0.3447924675664306,"42":-0.39936556192637396,"43":-0.19193347521647328,"44":-0.009868969460941908,"45":0.22810171191876316,"46":-0.10785995438733813,"47":-0.04198672619963563,"48":-0.15008601248820008,"49":0.23645352792220894,"50":0.10448716301443543,"51":-0.3411669265078913,"52":-0.06242171607029631,"53":-0.041686058307086646,"54":-0.5490782793321054,"55":-0.07816994868296552,"56":-0.1809044877650183,"57":-0.15606791665986905,"58":0.6026542027180051,"59":-0.292213285349065,"60":-0.1747981341113773,"61":0.23290302523241685,"62":-0.25920034586015556,"63":-0.04109755217464439,"64":-0.21986145805371665,"65":0.0008724616022519817,"66":-0.25492162535994434,"67":-0.18998264915936874,"68":-0.05257883590838698,"69":-0.15134292729144666,"70":-0.026287995045749614,"71":-0.17831236024868208,"72":-0.01655711780968525,"73":-0.9111332349642113,"74":-0.13441512418980503,"75":-0.18901781490634395,"76":0.3730788412009052,"77":0.014218983147059334,"78":-0.19265441515351361,"79":0.5193058289296307,"80":-0.29387386069716903,"81":-0.2882591765673471,"82":-0.41391223545835487,"83":0.053127370735350815,"84":0.012522277229654507,"85":0.05045778451997973,"86":-0.06620883740778127,"87":-0.043799505287279106,"88":-0.4953761507869126,"89":-0.05509185330915216,"90":-0.22010709847297896,"91":-0.16387517589272452,"92":0.06704187577791676,"93":-0.12740166850826926,"94":0.18499539026248044,"95":0.13116155938382826,"96":-0.2647410159001084,"97":-0.01897075289121962,"98":-0.08445336096308496,"99":-0.10352028548652341,"100":-0.10488567979114871,"101":-0.5468647709863385,"102":-0.03617648538101934,"103":-0.004203144053523335,"104":-0.08253469642484752,"105":-0.443914864854923,"106":-0.06162753760583855,"107":0.1707877793176375,"108":0.036778039922931625,"109":0.16566766640854258,"110":0.13009465723211078,"111":-0.2808259651088348,"112":-0.2910918553470245,"113":-0.0329275099327053,"114":-0.13415103542870305,"115":-0.16510120857571908,"116":-0.249795023886982,"117":-0.28962171013963706,"118":0.026438117207712906,"119":-0.10973074893345758,"120":-0.020595114512684323,"121":0.08458209210423265,"122":-0.18320392798917817,"123":-0.11062557597372025,"124":-0.4471909663755822,"125":0.1401244982695348,"126":-0.0732676765935662,"127":-0.12883701624599547,"128":0.677681788285462,"129":-0.18632143839055065,"130":-0.07442891647953574,"131":-0.12058693523839047,"132":-0.20913020673128332,"133":-0.534071568168491,"134":-0.12090451360750701,"135":-0.20630684993245907,"136":0.44055170490819456,"137":0.288757249928817,"138":0.04002039172250317,"139":-0.13407472714076896,"140":-0.32415556758816383,"141":-0.3927909329039259,"142":0.013799608180526047,"143":-0.2492502869869684,"144":0.1555024844245691,"145":-0.05886573469000032,"146":0.12450074842164104,"147":-0.11199979339060716,"148":0.3635448602792819,"149":0.11239116879341142,"150":0.15273122197133096,"151":-0.07645229098538472,"152":-0.529156922795133,"153":-0.010344009994581007,"154":-0.0380402563358575,"155":0.4910111261049349,"156":-0.4793713018634885,"157":-0.2277979649889908,"158":-0.334298064727158,"159":-0.04325830292093227,"160":0.0202343234373837,"161":0.02548241693735044,"162":-0.1757538073635423,"163":-0.04310233934779792,"164":-0.12528758918138716,"165":-0.13279059386560166,"166":-0.10382942879524815,"167":-0.26747725039141446,"168":-0.10573734729977759,"169":-0.15864044492225773,"170":-0.058313320290906336,"171":0.3619173171843321,"172":-0.18781310546697602,"173":-0.1845775500855134,"174":-0.028222588466142864,"175":0.5193606187680058,"176":-0.22894876986272478,"177":-0.09459781950857796,"178":-0.24554809941300065,"179":-0.20633842246553882,"180":0.15885021596163787,"181":-0.18347664259698127,"182":0.26470763923483065,"183":-0.14871561258024044,"184":1.1730324195186184,"185":-0.26251659435520824,"186":-0.1882137201234794,"187":0.3764361930343432,"188":0.9300108188762775,"189":-0.5647332549835,"190":0.9381700922286582,"191":-0.1071610945390067,"192":-0.22833853100244064,"193":0.2957314371797676,"194":0.08546724856938849,"195":-0.06709653009401763,"196":-0.3754749434060195,"197":0.29637963831810654,"198":0.08984932965964332,"199":-0.03007081133348321,"200":-0.08072582658091831,"201":-0.09372776472489948,"202":-0.2318515654393694,"203":-0.012465236794184417,"204":-0.29600815808870284,"205":0.00965263059108037,"206":0.0778564199225033,"207":-0.050024760685886065,"208":-0.24080098440699982,"209":-0.1083521250950932,"210":-0.05461214078065722,"211":-0.20184961659569625,"212":-0.17605016761536596,"213":-0.007370109320322125,"214":-0.37843452272770106,"215":-0.11130072356370274,"216":-0.1317993109975685,"217":-0.24527354253395306,"218":0.38459048795293427,"219":-0.12098396727656752,"220":-0.12611210666769984,"221":0.12206207208460715,"222":-0.10089966002716433,"223":-0.11186370011259607,"224":-0.12071040965767343,"225":0.005512848839886073,"226":-0.23155463668815635,"227":-0.005825931043163125,"228":1.006728838347947,"229":-0.04232457438228287,"230":-0.334802674308402,"231":-0.018114428465675427,"232":-0.15329426634249624,"233":-0.17751848748256577,"234":-0.05253398907796153,"235":-0.08965346380224011,"236":-0.02189342289065535,"237":0.07632608209357224,"238":-0.26911066577336373,"239":-0.0847242818271925,"240":-0.17465485629963554,"241":-0.27101978257980613,"242":-0.02672872983859007,"243":-0.14602625603374697,"244":-0.21337826060549417,"245":-0.335044183166591,"246":-0.14816956980653437,"247":-0.03440065436291803,"248":-0.23465530937746715,"249":-0.07322404590475481,"250":0.1113083971831757,"251":-0.19015832246244999,"252":0.09425125197575437,"253":-0.1075419007482114,"254":-0.45541197169298503,"255":0.18787272572707853,"256":-0.9539539871690772,"257":0.043632854674558325,"258":0.13372612644202406,"259":0.6335194987161015,"260":-1.6537406567430528,"261":-0.10126972379904085,"262":0.07729413365148391,"263":-0.22219599385771735,"264":-0.24742602134125144,"265":-0.6353484934865579,"266":0.09824331575274463,"267":-0.4151979282909788,"268":0.2725562609443028,"269":0.034893915491737065,"270":0.006197469329823888,"271":0.014375613370144072,"272":0.25278942456160275,"273":-0.787440300228792,"274":0.6351741894122688,"275":-0.6309864964274701,"276":-0.1114385143223516,"277":-0.04873309458632717,"278":-0.11228528796690589,"279":0.3485023361605299,"280":-0.1575228540056327,"281":-0.021126938518820453,"282":-1.5205896811694,"283":-0.8984881824760832,"284":0.14575622909946875,"285":0.20726872881488925,"286":0.28560752029529374,"287":-0.0651395490864873,"288":-0.299335567331832,"289":-0.30573785427559946,"290":-0.033613744018948684,"291":0.09796444922581177,"292":-0.045086503663117984,"293":0.15641292581293764,"294":-0.39064360059724396,"295":-0.47369455874020727,"296":1.0809611455576686,"297":0.0923202586057795,"298":-0.166188912846492,"299":0.021161551598657256,"300":0.18593520597376376,"301":-0.1207655168278072,"302":-0.37465184618303077,"303":-0.0668021677580994,"304":-0.08425325534938752,"305":-0.1408866131029041,"306":0.054704850404374034,"307":-0.0582612058677481,"308":0.030925990229648495,"309":0.707486382744362,"310":-0.3336749339572772,"311":-0.3800741138295724,"312":0.13393540038756974,"313":0.1574838657242266,"314":-0.15050765348438416,"315":0.17164114665614133,"316":0.22854600612019121,"317":-0.12091539291570833,"318":-0.1965882800593592,"319":0.1815071751672232,"320":-0.25738677323344344,"321":0.24901306175372417,"322":-0.062353187284587046,"323":0.03007124457052184,"324":-0.3857131494307435,"325":0.1269782690776435,"326":-0.08003118709124166,"327":-0.40742625069084665,"328":-0.0271150489392484,"329":-0.05354907646833244,"330":-0.2724332296177363,"331":-0.1256773598053971,"332":-0.18739297690268325,"333":-0.05776941519059232,"334":-0.09559389026671838,"335":0.08058035554651077,"336":-0.4248281845090187,"337":-0.1217511906457102,"338":-0.37137659061706696,"339":-0.23818941919025635,"340":-0.05916490561849798,"341":-0.12923482652185667,"342":-0.14801789691651943,"343":-0.3864406502665672,"344":0.8430786394485601,"345":-0.007761912180569393,"346":-0.297011140755804,"347":-0.08768398872150716,"348":-0.36537933723149457,"349":-0.25890667994348926,"350":0.236503379240287,"351":0.05877506709356715,"352":-0.38858503315930604,"353":-0.23046123810004726,"354":-0.23748800821116894,"355":-0.013173585167041162,"356":-0.16566485075798645,"357":-0.18356386222356524,"358":-0.19902529328150279,"359":-0.07464469716982815,"360":0.0815016024794313,"361":-0.20868350605143007,"362":-0.2832831153283331,"363":-0.1087207283010589,"364":-0.20420639802007168,"365":-0.11578130799740254,"366":-0.15852197155729925,"367":0.047867016304915466,"368":-0.27236621467146316,"369":0.030049031117570568,"370":-0.11175110876483695,"371":-0.20535248905058337,"372":0.033276304281622635,"373":-0.33394733665712173,"374":-0.18732848556010803,"375":0.0991767850100062,"376":-0.14327533253907887,"377":-0.2125741106560087,"378":0.5463974821043521,"379":0.06553840586598046,"380":-0.06330739754703008,"381":-0.10386591616427368,"382":0.08069287960225373,"383":0.09921134242504213}},{"sx":1,"sy":1,"depth":384,"w":{"0":-0.22171792732577766,"1":-0.5381935121808887,"2":0.006328836456770099,"3":0.11841415915605107,"4":0.17255941568010022,"5":0.2300041328744476,"6":0.0879531740087696,"7":-0.13320738401003585,"8":-0.10354856373372617,"9":-0.06224554229459511,"10":0.3231789503683366,"11":0.2536737478104349,"12":0.08520250807513853,"13":-0.3188608923666095,"14":-0.0007633631552550208,"15":-0.1384970302191391,"16":-0.10268700833573592,"17":0.4455114736804188,"18":-0.07415771559370136,"19":0.08509985742016561,"20":0.05118391175909732,"21":0.27968643769019097,"22":0.28653995522066417,"23":-0.014315691510525365,"24":0.04734273868731838,"25":-0.043217555512125784,"26":-0.15660996687548348,"27":-0.03428444326115426,"28":0.11430880635582871,"29":-0.1439236972398351,"30":-0.08706009665230648,"31":-0.1490974844502027,"32":0.1541664513332701,"33":-0.03941513000759271,"34":-0.04072481621999861,"35":-0.04148813995589609,"36":-0.0663900023049338,"37":-0.2049497633098884,"38":-0.059080247549468175,"39":-0.10621099744674771,"40":-0.014674530056662399,"41":-0.05256742595671795,"42":-0.32364416917822925,"43":0.23933888257500865,"44":-0.07502979438090042,"45":0.23334471485669972,"46":-0.07192993659349618,"47":-0.03779823600044185,"48":-0.4450327498350809,"49":0.594551951822122,"50":0.024173722945217482,"51":-0.0013180600184633825,"52":-0.005272297182249346,"53":-0.23603891427993437,"54":-0.19544663753274952,"55":0.037005250054468156,"56":-0.3072255100321102,"57":-0.1143605456266554,"58":0.10959023722665734,"59":0.4882551903053935,"60":-0.0862533957863175,"61":0.049089257139680965,"62":-0.10683308385600997,