{"layers":[{"out_depth":2,"out_sx":7,"out_sy":6,"layer_type":"input"},{"sx":4,"sy":4,"stride":1,"in_depth":2,"out_depth":32,"out_sx":8,"out_sy":7,"layer_type":"conv","l1_decay_mul":0,"l2_decay_mul":1,"pad":2,"filters":[{"sx":4,"sy":4,"depth":2,"w":{"0":-0.052558873258535456,"1":1.209600528548923,"2":-0.0007361615705674819,"3":-0.04824779990311204,"4":-0.8334179358445584,"5":0.3861820071911235,"6":0.25480378451529695,"7":0.23206042254182993,"8":-0.4555034526296377,"9":0.10345768500306744,"10":-0.2864740222608559,"11":0.22464830484863874,"12":-0.06073313970014705,"13":0.06401002605865873,"14":-0.41145990103680297,"15":0.3536421466826897,"16":0.2850408863473916,"17":-0.3291985497808247,"18":0.36389249657508543,"19":0.08173185703455377,"20":0.39100584903422686,"21":-0.40216196761159917,"22":-0.3381530464050737,"23":-0.3962715610205391,"24":-1.2415384186728533,"25":0.027980938059588498,"26":0.29685635123372717,"27":1.1729709286621852,"28":0.5191968434492258,"29":-0.11935974365914774,"30":-0.2396587443221307,"31":-0.4391896436450958}},{"sx":4,"sy":4,"depth":2,"w":{"0":-0.189414329516768,"1":0.5047570222304407,"2":0.6712458944575861,"3":-0.3230839227054204,"4":-0.06414472433803142,"5":-0.22321904664842895,"6":-0.06948055823562871,"7":-0.02657392276848251,"8":-0.1913695730365692,"9":0.7172724627817502,"10":0.3554058468447888,"11":-0.004475328511356515,"12":0.12540134919396562,"13":0.8132976541847879,"14":0.392319330560763,"15":-0.17086491792971104,"16":0.6996165676546385,"17":0.0852817456081204,"18":-0.05008267944945858,"19":-0.17845257860219416,"20":-0.0792513269010229,"21":0.32996166508847435,"22":-0.49994033560867746,"23":0.6839327004341768,"24":0.46553143765505434,"25":-0.8184521323840889,"26":-0.23694005018253073,"27":-0.12935485319419815,"28":-0.31591554056646226,"29":0.5816933961067394,"30":0.2616210825061666,"31":0.9736367258995025}},{"sx":4,"sy":4,"depth":2,"w":{"0":0.17015870385886406,"1":-0.12143615503563504,"2":0.08550475955728576,"3":-0.13401790990362275,"4":0.40687852265093594,"5":-0.09863000266421612,"6":0.32828996875458616,"7":-0.20843414723680362,"8":-0.5191676205953173,"9":-0.967152842800921,"10":-0.44981816221178345,"11":0.06408311666070463,"12":0.17778196603553964,"13":-0.3791015035631411,"14":0.5140639827112047,"15":0.054133336617389435,"16":-0.1635664691692325,"17":0.7902376213820678,"18":-0.30591795368353086,"19":1.4286635643584353,"20":-0.699590309184681,"21":0.019650367276948077,"22":0.1689554629234842,"23":0.4785608665775429,"24":0.038933084024767035,"25":0.30596277459739807,"26":0.54673124383684,"27":0.646049939916013,"28":0.19075077339214774,"29":0.19203999244943307,"30":-0.14266834873301798,"31":-0.23541062637937682}},{"sx":4,"sy":4,"depth":2,"w":{"0":-0.2611037912385255,"1":0.2987673160991322,"2":0.3052350946141454,"3":-0.42944121008308084,"4":-0.27004640888342124,"5":-0.02556116328625464,"6":0.12521301723844708,"7":0.14052914874566347,"8":-0.3686227302755941,"9":0.024054323291694893,"10":-0.30535489875459465,"11":0.7524925501134205,"12":-0.23550048593025463,"13":-0.3254186223634398,"14":-0.30479397253580903,"15":-0.013119548557946753,"16":-0.09435159919162403,"17":-0.20390568481137175,"18":0.15771984773788675,"19":-0.020513056314233582,"20":0.028038523855253423,"21":0.36200012013717076,"22":-0.8596202274993198,"23":-0.24372164912842098,"24":-0.6491263552075087,"25":1.2634177237634867,"26":-0.1316498056109059,"27":-0.6586758434738718,"28":0.3675852410188507,"29":-0.009127855625466015,"30":-0.0012736872397952723,"31":-0.36139632693325463}},{"sx":4,"sy":4,"depth":2,"w":{"0":0.349256716332075,"1":0.3220209264776462,"2":-0.6550691464473697,"3":0.38127867725188397,"4":0.5573904953635004,"5":0.2186158762654373,"6":0.040518690398011085,"7":0.27397960888278333,"8":-0.6682780578171383,"9":0.17760565698012556,"10":0.1525440809899694,"11":0.20563072783999173,"12":-0.3033795315607478,"13":0.009391252180473555,"14":-0.9020193674360848,"15":-0.11770231602231239,"16":0.16496776982220068,"17":1.427533829127422,"18":-0.10501940046560553,"19":0.14609870647808804,"20":0.19186457128358872,"21":-0.035974674170003364,"22":0.47624736842803894,"23":0.23992118367757678,"24":0.6767641345114542,"25":0.7008354202829677,"26":0.22328843440772334,"27":0.25810277069284454,"28":-0.280155067706825,"29":-0.3757994570045212,"30":0.21345739285390042,"31":0.8073864213280058}},{"sx":4,"sy":4,"depth":2,"w":{"0":1.3298274339349754,"1":0.900096330983931,"2":0.7256839990046339,"3":0.20892456728278952,"4":-0.0667779032075795,"5":-0.2717514849895936,"6":0.208782306278505,"7":-0.03336855818725901,"8":0.21474610330069693,"9":-0.4272007016203191,"10":-0.3468029709025225,"11":-0.0879162281798201,"12":-0.29909114259772246,"13":0.33114181022293127,"14":-0.3502543554288258,"15":-0.29472949329530357,"16":-0.8653722199860989,"17":0.4729900551304273,"18":0.4713042210072871,"19":0.32584643654201917,"20":-0.8091402981391919,"21":0.028871809502310473,"22":0.35997925249328216,"23":0.07506978926506852,"24":-0.16879380718234252,"25":0.8602640757047925,"26":0.7393910029388882,"27":0.15791333073110372,"28":-0.4692406375293241,"29":-1.0919376222241777,"30":-1.081580968714469,"31":-0.9492102561606852}},{"sx":4,"sy":4,"depth":2,"w":{"0":0.28580387232349974,"1":-0.5642834843652687,"2":-0.5358778356481844,"3":0.14326963823832836,"4":0.22496030577670328,"5":-0.001160798330435546,"6":-0.16370290067482535,"7":0.24420520524873626,"8":0.023597533642343273,"9":0.27232759882339563,"10":-0.7351635178329802,"11":0.006909515766283636,"12":-0.09228179449354662,"13":-0.07551996286241393,"14":-0.11658332614597744,"15":-0.07604450410661327,"16":-0.2750830470960881,"17":0.11691600554354696,"18":-0.20073856867089518,"19":-0.6447202514846696,"20":1.2790242717063123,"21":1.3154098110787529,"22":-0.9311771082962765,"23":-0.5495235429654959,"24":0.9750596826246599,"25":-0.44759194053745116,"26":-0.6259087880078289,"27":-0.3882435101095376,"28":-0.56187511330702,"29":-0.5870215342766011,"30":-0.6504290870367323,"31":1.027659292185637}},{"sx":4,"sy":4,"depth":2,"w":{"0":-0.2000391655459859,"1":0.835396157296969,"2":0.05669452601440092,"3":-0.36745115773089904,"4":-0.3255951604521869,"5":-0.5059288823492056,"6":-0.44601022876548624,"7":0.35769799183880696,"8":0.34416991089621424,"9":-0.49799627120148887,"10":0.1756219494449799,"11":0.5702023209702903,"12":0.05590124772882479,"13":-0.643393157254923,"14":0.732099476463429,"15":0.5693786500851863,"16":-0.013155023206397966,"17":-0.8556481424979896,"18":0.23652125008906294,"19":-0.08872680193409248,"20":-0.04712111277181569,"21":-0.4512579048028147,"22":0.08315324497469233,"23":-0.12259488208545315,"24":0.5151064001173511,"25":-0.8115321540117219,"26":0.2816448247455887,"27":0.4733717214760936,"28":-0.4301944408175033,"29":0.7109165655781444,"30":-0.26967074673596914,"31":-0.24443179135760493}},{"sx":4,"sy":4,"depth":2,"w":{"0":0.041780717677567636,"1":-0.038116358496419374,"2":-0.14199641904074076,"3":-0.02225611644810721,"4":-0.02450855626589023,"5":0.2570508856008206,"6":0.039698499634084325,"7":-0.16108445394849194,"8":-0.3013923698966207,"9":0.9191535326661818,"10":-0.32855890463067267,"11":-0.6186200823246253,"12":-0.40069657232639244,"13":0.987881181437864,"14":-0.07292809637666409,"15":-0.026232598157863128,"16":0.1599419054415976,"17":0.1392340395466042,"18":-0.010730717857402362,"19":-0.17335657134615368,"20":0.454753743765982,"21":0.7828896844537646,"22":-0.3114950971330615,"23":-1.1838388901646524,"24":0.4926557992801336,"25":-0.3309965786897076,"26":1.0597399002995078,"27":-0.21561330611066357,"28":0.22412824686082414,"29":-0.018960936608643054,"30":-0.10487444552777726,"31":-0.34740826738320746}},{"sx":4,"sy":4,"depth":2,"w":{"0":0.5468015804448595,"1":0.05482041525745724,"2":0.23884615088560526,"3":-0.012471953548500905,"4":0.2312456318811871,"5":-0.10407296808898046,"6":0.5847379862340272,"7":0.18790394817474496,"8":1.041315537380504,"9":0.8186241565300532,"10":0.020916880702999036,"11":-0.015570260486927128,"12":0.040390949908342154,"13":-1.3953595257539657,"14":0.13845915774595144,"15":1.4935656134311261,"16":-1.4382198025370863,"17":0.40856481593955396,"18":1.755577304583691,"19":0.10374698847006959,"20":-0.40285552125278784,"21":-0.07410119835089395,"22":0.07232539564291643,"23":-1.125391641020473,"24":0.36275021989387146,"25":0.7322835709573452,"26":-0.49666260816948643,"27":0.6572508696522602,"28":0.5292935559729722,"29":0.4830664008723873,"30":-0.4504208484660429,"31":0.16180733718979928}},{"sx":4,"sy":4,"depth":2,"w":{"0":0.17875033329485715,"1":-0.10987149084122746,"2":-0.19819688737041388,"3":0.15288065426910455,"4":-0.06111463067950937,"5":0.07056986865331792,"6":0.021071250101421732,"7":-0.2673886028288865,"8":0.8367656767789017,"9":-0.05113654479418445,"10":-0.33145779413484433,"11":0.027998612021057384,"12":0.38384387468924497,"13":-0.9324455495139803,"14":0.3931657516872337,"15":-0.9702324388251735,"16":-0.7135011000956429,"17":0.5717311743327526,"18":0.7664136408369066,"19":0.0347936608076072,"20":0.2962400785670572,"21":-0.437659873665672,"22":0.3583028937471371,"23":-0.4099289857083752,"24":-0.057429819428892935,"25":0.07209945113034016,"26":-0.3422061688020062,"27":0.030055889824927143,"28":0.5359432494004418,"29":0.4561278454879379,"30":-1.1396867459828226,"31":0.49723574426905803}},{"sx":4,"sy":4,"depth":2,"w":{"0":0.312888031144727,"1":-0.2504906909164281,"2":-0.5001815471489494,"3":0.160034168523811,"4":0.6150593403143685,"5":-0.47913155873596003,"6":-0.2091402717295634,"7":-0.17273806275067488,"8":-0.09757761212499719,"9":-0.000508746420822117,"10":-0.35535868064721604,"11":-0.0035779520807094818,"12":0.2046205741797264,"13":-0.12406162466316348,"14":-0.2924814849806771,"15":0.056608321635389446,"16":0.42817704621466135,"17":-0.6634113158116506,"18":0.05386477727370135,"19":0.39066433377812165,"20":0.1845794800889992,"21":1.0759760121700976,"22":0.07745956657966387,"23":-0.38740601412288006,"24":-1.1975488099204403,"25":-0.16829358987112447,"26":0.4353145169816402,"27":0.57646154048557,"28":-0.4132356478972791,"29":-0.33162839131239796,"30":-0.43097976925147125,"31":0.6324040065732943}},{"sx":4,"sy":4,"depth":2,"w":{"0":-0.37425421848429596,"1":-0.7257427855924394,"2":-0.10754603458434739,"3":0.03334356621211779,"4":0.992863904522816,"5":0.2828416235632497,"6":0.04699324871818715,"7":-0.6399511574544526,"8":0.054182089824799766,"9":0.13389401525382633,"10":-0.2971255172013887,"11":0.37538991217773543,"12":0.25612749384591393,"13":-0.044011148920814834,"14":-1.1442864970181066,"15":-0.1579439931442766,"16":0.2017257013240023,"17":1.762335135163986,"18":-0.5753422692795052,"19":0.7788244920921913,"20":0.05534067202720234,"21":0.8681758993424594,"22":-0.44321596305704736,"23":-0.20104398930676054,"24":0.23646988210519868,"25":-0.7294895386618404,"26":-0.4440685712955078,"27":0.5653451078959943,"28":-0.39115407281113196,"29":0.3954535716837595,"30":0.8591439991515023,"31":0.4017792459014725}},{"sx":4,"sy":4,"depth":2,"w":{"0":0.11965963758953906,"1":0.11417870369709464,"2":-1.1180341056475829,"3":0.46061617868469873,"4":0.30399163019175307,"5":0.3078621102336244,"6":-0.424770111674493,"7":0.3853161427845891,"8":-0.4368915623437945,"9":0.5381339541420911,"10":-0.19656764266887364,"11":-0.10463837422110557,"12":0.5547605216614386,"13":-0.6255791400784765,"14":0.41031379866113826,"15":0.14328448441441205,"16":0.672563396946624,"17":-0.5851070000477901,"18":0.872902909249975,"19":-0.4084965551734055,"20":-0.506157388085558,"21":-0.4463866153004416,"22":0.9117314786232197,"23":0.2418053231923466,"24":-0.5630326557923412,"25":0.5416402343501738,"26":-0.7740891816246486,"27":0.6979591541771618,"28":0.033320138547166284,"29":0.5739139618313311,"30":-0.6472101315167167,"31":-0.23296448776556816}},{"sx":4,"sy":4,"depth":2,"w":{"0":-0.26575239001896905,"1":0.6199899794348626,"2":-0.0018995586359760923,"3":-0.14535410688941505,"4":0.04081440008683453,"5":-0.060042214552893824,"6":-0.07408859751662467,"7":0.08935671128392847,"8":0.29235612812614337,"9":-0.14730631642674308,"10":0.16176426930066537,"11":0.39207904987190223,"12":-0.049082434142985666,"13":0.6632262511289991,"14":-0.06409323851278595,"15":-0.4451226352128401,"16":0.9168287341669463,"17":-0.2201841271320476,"18":0.3718895042179244,"19":0.49394103862705935,"20":0.7138348735684289,"21":-0.011976564960290242,"22":-0.18387223414723114,"23":0.015634945330287225,"24":-0.542596139894015,"25":-0.5432711152929881,"26":-0.5343235187949459,"27":0.0875500392892142,"28":1.0278571788829909,"29":1.1598805130920988,"30":1.291582983487645,"31":0.47529353093971405}},{"sx":4,"sy":4,"depth":2,"w":{"0":0.1839424693396583,"1":-0.5438413222946602,"2":0.32163601182273094,"3":-0.015551341705049997,"4":0.20910753801728135,"5":-0.21884933238425444,"6":0.03404823922907063,"7":0.10009930456020126,"8":0.22827713669447244,"9":0.49628109118326147,"10":0.2431455398434525,"11":-0.8396088114478628,"12":0.8281025288906237,"13":0.360621954303065,"14":-0.06653984182839603,"15":-0.1158731786995637,"16":0.08980542038441208,"17":0.4004803672787716,"18":-0.3248104088735932,"19":0.06166775949755786,"20":0.022726149560333687,"21":-0.3284895217045762,"22":-0.42339531277254017,"23":1.027472734458162,"24":-0.0631396453279409,"25":1.2846784171610457,"26":0.41492474354496034,"27":0.023241385780900865,"28":-0.1612680261478435,"29":-0.4740397999941841,"30":-0.10368293112378749,"31":-0.022142505891896813}},{"sx":4,"sy":4,"depth":2,"w":{"0":0.36006870153066406,"1":-0.09577919898837309,"2":-0.20743250855032982,"3":0.4127594872353998,"4":0.08849509609043142,"5":0.33932432218233805,"6":-1.2429311193937511,"7":1.3514934149339655,"8":0.45660034703538804,"9":-1.6428178606447106,"10":0.8923989622166577,"11":0.2910580354084975,"12":0.0917733665864121,"13":-0.1009601363268095,"14":0.0736116108019374,"15":0.07796365035059852,"16":0.32864078646802486,"17":0.5443396613561697,"18":0.4926968864155092,"19":-0.3112448699038027,"20":0.6415346613166573,"21":0.7930884504433312,"22":0.24288057803713867,"23":0.09685124534460121,"24":0.28623118456251,"25":0.132588274353371,"26":0.383667081332481,"27":0.1687209218261213,"28":0.0701712172851635,"29":0.37967581929257016,"30":-0.4851695306141332,"31":-0.1344642801363286}},{"sx":4,"sy":4,"depth":2,"w":{"0":0.3379917187616428,"1":-0.34593028607342585,"2":-1.1089111662446578,"3":-0.2584320703082651,"4":-0.02989754776845063,"5":-0.031099112330218646,"6":0.06301200536424563,"7":0.21224298927573573,"8":-0.018286725740694603,"9":0.14780191308895257,"10":-0.05839054864473151,"11":0.39022879064594257,"12":1.488220849080602,"13":0.20462964165535952,"14":0.10586806519228757,"15":0.7307387878796796,"16":-0.5096672121265576,"17":-0.39901923696544206,"18":-0.721050519574332,"19":-0.21285078227916288,"20":-0.17310071643786662,"21":-0.08592364369688707,"22":1.2059665057892186,"23":0.15702419323189662,"24":-0.853649728374382,"25":1.3629639909716025,"26":-0.0047782805657656776,"27":-0.2156042164525859,"28":0.3717959647424,"29":0.020941276661790267,"30":0.016350967198439512,"31":0.011574930349819691}},{"sx":4,"sy":4,"depth":2,"w":{"0":-0.11809082359916732,"1":-0.011764376123243728,"2":-0.19154550612391638,"3":-0.1186361747653799,"4":-0.0863918606028283,"5":2.5204497355339215,"6":-0.34021604482423334,"7":-0.14011151075424508,"8":-2.463911131020237,"9":-0.22153290030125222,"10":-0.1937866541136091,"11":-0.21588943852679993,"12":-0.16900507908518386,"13":-0.005345160170023989,"14":-0.25878199883048325,"15":0.3601648549131726,"16":-0.5105412039308118,"17":0.8282888885112405,"18":1.7862372257730152,"19":-0.4217131415077496,"20":-0.5007738616464131,"21":0.30169342386845616,"22":-0.05637774969912013,"23":-0.08283843551203973,"24":-0.16303422171712487,"25":0.2481089791981152,"26":-0.38801271490774497,"27":0.0065901407451117704,"28":-0.002041856764405424,"29":-0.7744930463711732,"30":0.5754715030356355,"31":0.057755367010259226}},{"sx":4,"sy":4,"depth":2,"w":{"0":0.48829342242317403,"1":0.32664622818314715,"2":0.13205223935673716,"3":0.014766072950660111,"4":-0.25209457453674783,"5":0.738423878598597,"6":0.3283441084692417,"7":0.1096274607069088,"8":1.110116028557232,"9":-0.1730008240291819,"10":0.003725312362209726,"11":-0.46450155676935967,"12":0.1609712045482627,"13":0.20654823593919086,"14":0.27021356800919966,"15":1.1398714587268661,"16":-0.08224663539459233,"17":-0.9001003512358037,"18":0.9212376762993266,"19":0.47111368768314194,"20":-0.08487429466332774,"21":-0.8891796559776739,"22":-0.33724140041913725,"23":-0.16493999192723088,"24":-0.8563602924009052,"25":0.15474522199021096,"26":0.08681476830648414,"27":-0.7400930130378658,"28":0.5926022059275533,"29":0.6521513497037235,"30":0.4738790137193985,"31":-0.6680691206079117}},{"sx":4,"sy":4,"depth":2,"w":{"0":0.015025484281115945,"1":0.30080935236612927,"2":0.19979019442636967,"3":0.20727326412038308,"4":-0.22574040390283667,"5":0.27357942897771276,"6":0.1619095840241888,"7":0.023873010159923328,"8":-0.24408717138351152,"9":-0.16216092748976166,"10":-0.17546306120253363,"11":-0.6532797501267429,"12":-0.4305449949559591,"13":0.6344912385568195,"14":-0.5543790200549648,"15":-0.2527464215232599,"16":-0.8918626072910942,"17":-0.9224021350272986,"18":0.7042192883651748,"19":0.6137236672024983,"20":0.5609126585943363,"21":-1.0538850759728868,"22":0.6997670686813933,"23":0.19752782791546858,"24":-0.2244970682477105,"25":0.09043378617557761,"26":0.6411351092582906,"27":-0.06366558075003563,"28":0.3430257719010445,"29":0.11412401849960525,"30":0.44760626144627225,"31":-0.401975206924433}},{"sx":4,"sy":4,"depth":2,"w":{"0":-0.23173208021967476,"1":0.19306595568895452,"2":-0.11425628489380932,"3":-0.12086589972610683,"4":0.4939789052513053,"5":0.1730507296149602,"6":-0.3713552808804168,"7":0.007930879800610016,"8":0.6966669632069961,"9":0.15179422171151052,"10":0.06690954213464266,"11":-0.1204731909990953,"12":-0.839796901589914,"13":-0.32220364640885424,"14":-0.5368161875345175,"15":0.22875301553140526,"16":-0.1607284311857071,"17":0.7958871546579671,"18":0.8019149262107992,"19":0.5612176706374526,"20":0.9896301686980157,"21":-0.1379090313140163,"22":-0.7265259914171552,"23":0.5025936415874824,"24":-0.21276468883414446,"25":-0.6076907084504162,"26":-0.06526985525348065,"27":0.4493245760477319,"28":0.3238769878483132,"29":-0.13841456391196116,"30":0.05896452244496981,"31":0.18952243918939993}},{"sx":4,"sy":4,"depth":2,"w":{"0":0.020623677816055223,"1":-0.14014886466794715,"2":0.7478037950695947,"3":0.03301751819589669,"4":-0.8514217954143047,"5":0.3528766023794479,"6":0.33142046202017533,"7":0.17377574605105048,"8":-0.4628695556356214,"9":-0.5726598296539138,"10":0.4604033107201482,"11":0.29472697373964624,"12":0.21000800906491376,"13":-0.0515849784053548,"14":-1.709181428521564,"15":-0.5037790589383117,"16":0.4688457507140963,"17":-1.6749829122856954,"18":1.309834872666661,"19":0.36072948358326284,"20":0.2494381040661545,"21":0.32269931842556815,"22":0.1990521217398014,"23":0.1842143174954715,"24":0.03915182591268088,"25":0.28908869557298134,"26":0.2167752668748185,"27":-0.5302988065588475,"28":0.5208485277748888,"29":0.24135192698491512,"30":0.11280293072770989,"31":0.6458297465301663}},{"sx":4,"sy":4,"depth":2,"w":{"0":1.3285003052712399,"1":0.15088188751644419,"2":0.06491379137225162,"3":-0.6293898072548454,"4":0.14321276830214438,"5":-0.2008753969262262,"6":-0.31036618363354174,"7":1.211038661118596,"8":-0.40954982223059183,"9":0.11726952437367999,"10":0.15618173280574352,"11":-0.2635348670940179,"12":-0.415061729203033,"13":0.23938344662504799,"14":0.07307014571221362,"15":-0.4359443011292539,"16":-0.9008807497710626,"17":-0.07580755173419064,"18":0.8455471021141411,"19":0.10381531302822611,"20":-0.6148274752971833,"21":-0.5572858595249482,"22":0.017218596345961148,"23":0.9448228083743241,"24":0.7355627901000684,"25":-0.5137768134883399,"26":-0.25931110771726634,"27":-0.04736729654968103,"28":0.6324877770543216,"29":-0.1840359593954923,"30":-0.9503466476240143,"31":-0.29602353308997426}},{"sx":4,"sy":4,"depth":2,"w":{"0":0.5782411819929435,"1":-0.5760160068622792,"2":0.1837566017079009,"3":0.3460399623785711,"4":0.48721820601261473,"5":-0.10259070848785848,"6":-0.08158690437360257,"7":-0.014232101519318264,"8":0.04303114628819254,"9":-0.0005995079704426961,"10":-0.41428884648095743,"11":0.20148258053076593,"12":0.41932035057573036,"13":0.10196648806798261,"14":-0.7401642648925669,"15":0.5823218907075407,"16":-0.03569179526320805,"17":-1.399475485492531,"18":1.5134519941953455,"19":-0.01790935622230745,"20":0.4761721584254581,"21":0.06428709866877595,"22":0.012704339581448109,"23":0.11029230202369007,"24":-0.05887056859801888,"25":0.7615452911545051,"26":0.594637017978898,"27":-0.3349111105388259,"28":-0.19278685683009344,"29":-0.055259031324008466,"30":1.2081403869368414,"31":-0.9023146218828093}},{"sx":4,"sy":4,"depth":2,"w":{"0":-0.45806058185142984,"1":-0.0012690692413585513,"2":0.26816999514617706,"3":-0.010090075355461777,"4":-0.1643296161057751,"5":0.616894241818227,"6":-0.2659696076243673,"7":-0.41915713585672293,"8":0.4982508130536344,"9":0.8423716205578221,"10":-0.7605412313628929,"11":-0.04531798805462704,"12":0.18436621476774037,"13":0.215702620873477,"14":-0.2822725833200827,"15":-0.21607677618256024,"16":-0.4379796741056541,"17":-0.18086636335636816,"18":0.020682469206945286,"19":0.3866584751278351,"20":-0.7315177258919335,"21":1.0799208884617946,"22":-0.16796593156258185,"23":0.6539873017626051,"24":1.0368485235446132,"25":0.654022751287843,"26":0.1328657264806097,"27":-0.4730801734867106,"28":-0.3265800238746272,"29":0.15573253607840357,"30":-0.6142432458095576,"31":1.1154746401937878}},{"sx":4,"sy":4,"depth":2,"w":{"0":-0.25182806780270917,"1":-0.2460924344488738,"2":0.37417413327567733,"3":-0.05700271048436604,"4":-0.12937479730514376,"5":0.09905905895693062,"6":-0.06571024917822857,"7":-0.3236989379874649,"8":-0.09351233408786477,"9":-0.21787966768198871,"10":-0.34878730554231896,"11":-0.556124995667593,"12":-0.17927551633131145,"13":-0.10126014573510594,"14":-0.4622841991306795,"15":-0.2554841913822341,"16":0.09847020031009024,"17":0.5453709741843734,"18":-1.4394284726620739,"19":0.8153257801633863,"20":0.6835085497386864,"21":0.573409993409995,"22":-1.1947813259776991,"23":-0.2736434593205328,"24":0.4428846167757614,"25":-0.2590163621476909,"26":0.4978715743451188,"27":-0.18853764653920937,"28":-0.216971602371416,"29":-0.49426066978818173,"30":0.8179015980436972,"31":-0.5273781798643444}},{"sx":4,"sy":4,"depth":2,"w":{"0":0.15112685166419537,"1":0.08967213370950247,"2":0.29703518889248787,"3":-0.19492841358165172,"4":0.04752733108469955,"5":-0.03266869205789878,"6":-0.6597109312835516,"7":-0.3045319073869853,"8":0.058433817847956995,"9":-0.23102928987003887,"10":0.35419390270342893,"11":0.41166514427909784,"12":0.9469692781617663,"13":0.3062566797229687,"14":0.1285543643633441,"15":-0.2623281258945226,"16":-0.5969629677573298,"17":-0.598692326186523,"18":-0.17744006176838115,"19":0.296854380365401,"20":0.535364324288561,"21":1.046332198664955,"22":0.7879517220256022,"23":0.3868844739614187,"24":0.45173230023234,"25":0.16921247645963636,"26":0.10295511586760814,"27":0.5678144984600998,"28":-0.20857417362288774,"29":0.6660459106547069,"30":0.03766247682494787,"31":0.26655177448616624}},{"sx":4,"sy":4,"depth":2,"w":{"0":-0.13002916531217584,"1":0.07286719763573062,"2":0.04417669321797886,"3":0.6312978546702362,"4":0.47576364883834116,"5":-2.3896571009413794,"6":0.6009226207076558,"7":0.14149261621662385,"8":-1.7728737335629674,"9":1.0496865519524559,"10":-0.22383254383724357,"11":0.013521671713356935,"12":0.2150170144001542,"13":0.5610048406441315,"14":0.6636527910970781,"15":-2.1908236205023495,"16":0.4946275716882279,"17":0.6491110602828336,"18":-1.0805007517086502,"19":0.5730416891598684,"20":0.21222708548169958,"21":0.5936146503067513,"22":0.6527278710646531,"23":0.4216093267071357,"24":-0.09934375238554728,"25":0.49173351261603515,"26":0.05498672479906494,"27":0.1615952984076791,"28":-0.3828833508729035,"29":0.02757213318586464,"30":-0.20084373513164963,"31":0.45267931345539025}},{"sx":4,"sy":4,"depth":2,"w":{"0":-0.38192658070233376,"1":-0.9709486937425125,"2":1.481624243002815,"3":0.04215407781532303,"4":0.08055279030836539,"5":0.045229403834769935,"6":0.027392838236316216,"7":0.20058227391627548,"8":0.38841109096166226,"9":-0.1751065633206642,"10":-0.16320407038749551,"11":-0.5990089863484165,"12":-0.062001564379011456,"13":-0.3698098606461767,"14":0.059092352178431694,"15":0.6136305464122676,"16":0.41783993786078505,"17":0.07981562542015315,"18":0.29380879356878975,"19":-0.03900441973390982,"20":-0.3819580482294632,"21":1.4252620100157558,"22":-1.2522252519839208,"23":-0.12412771690809343,"24":1.5672985588362158,"25":-1.6327741201324015,"26":-0.052237899924343044,"27":0.012057819714223688,"28":0.26416178313301386,"29":0.46492742317092295,"30":0.12964529516265721,"31":0.46804185194477227}},{"sx":4,"sy":4,"depth":2,"w":{"0":0.05056462593487541,"1":-0.6684999459946834,"2":-0.18655015823693877,"3":0.8876068831466082,"4":-0.41261608541468264,"5":0.04069801551388084,"6":-0.28899438119176185,"7":0.08951222218422662,"8":-0.4494877920217084,"9":0.6682977373368449,"10":-0.20462179633005345,"11":0.05791144300106701,"12":-0.19860593005498325,"13":0.03069546833273673,"14":0.1213808208205092,"15":-0.16041020467189473,"16":0.16700612256501646,"17":-0.8093554620215548,"18":0.22451885543430544,"19":-0.2014195876577913,"20":1.364878003919867,"21":-1.2090544434867658,"22":-0.3399578205689435,"23":-0.3308374187775601,"24":-0.4057980030123288,"25":0.5476860228698635,"26":-0.3883818547690011,"27":-0.17666804231768796,"28":0.08669695328273931,"29":0.0033426639291311553,"30":-0.20700377813988993,"31":1.5994257957161042}},{"sx":4,"sy":4,"depth":2,"w":{"0":0.05436825938226869,"1":-0.17474802400092604,"2":-0.1679872685092459,"3":0.2395825934369226,"4":-0.4818814745587919,"5":0.16569607909980663,"6":-0.4501956438998788,"7":-0.06553426598795248,"8":0.18001163657998118,"9":-0.5074283972819307,"10":-0.10472745048029884,"11":-0.05918945174143528,"12":0.08791883435960525,"13":0.736384385290105,"14":1.4906643714507146,"15":-0.18837251539360053,"16":-0.14141288038925812,"17":1.7742313495341142,"18":-0.4396051022889775,"19":-0.634405228258304,"20":-0.16360533484583747,"21":-0.4230237554486952,"22":-0.35827791266475373,"23":-0.455815666904675,"24":0.07249797816820601,"25":-0.6159195321595379,"26":0.14653310744382816,"27":0.40212113429199714,"28":0.4447303864944005,"29":1.3825423096478249,"30":0.4972649698400624,"31":0.14420336951457247}}],"biases":{"sx":1,"sy":1,"depth":32,"w":{"0":-0.006455995753892461,"1":-0.7023171568177717,"2":-0.31937240825782354,"3":0.4048067379942461,"4":-0.5812818133301488,"5":-0.027519143199464528,"6":0.1843923001815015,"7":0.02045164445968289,"8":0.019610020123307488,"9":-0.5468331668247508,"10":0.15905530570467072,"11":0.23206928878737837,"12":-0.23128274509102312,"13":0.04090496803367807,"14":-0.7887192073379307,"15":-0.24458803066528506,"16":-0.7714147043069324,"17":-0.10041762780999107,"18":0.1542341863287431,"19":-0.4155505123837473,"20":-0.22134677300330613,"21":-0.2082104859631026,"22":-0.10506351964180996,"23":0.13353903414091964,"24":-0.05678500534896818,"25":-0.6551250704798097,"26":-0.05706067558707404,"27":-0.7292021393123918,"28":0.7897334203504872,"29":0.12009077566069418,"30":0.13079840790105732,"31":-0.6351560123516563}}},{"out_depth":32,"out_sx":8,"out_sy":7,"layer_type":"relu"},{"out_depth":60,"out_sx":1,"out_sy":1,"layer_type":"fc","num_inputs":1792,"l1_decay_mul":0,"l2_decay_mul":1,"filters":[{"sx":1,"sy":1,"depth":1792,"w":{"0":-0.009454721588926865,"1":0.06893364082348365,"2":0.008709402450679936,"3":0.04259805559168352,"4":-0.005088897688374909,"5":0.00587512573219836,"6":0.005169304535571143,"7":0.002742450186093928,"8":-0.004797172447349001,"9":0.01537671097998844,"10":-0.07245767226577399,"11":-0.0029543937443014183,"12":0.034996577526304924,"13":-0.07341122631817525,"14":0.041627184058992045,"15":-0.009307568852934829,"16":0.042330935437511485,"17":-0.058911895201767144,"18":0.03244209579324033,"19":0.0067902366000029786,"20":-0.006241724908914755,"21":0.013661847760774594,"22":-0.04410536358461723,"23":-0.018915364411998023,"24":-0.0015013916803203657,"25":0.005181814672148666,"26":0.009742753282945908,"27":-0.045118477117812215,"28":-0.060216634728729956,"29":-0.00727474949659547,"30":0.06583582390856187,"31":0.028759351904845663,"32":0.02677424714805952,"33":-0.044307995692480964,"34":0.042772454411110564,"35":-0.01372925508959546,"36":0.044004920860592184,"37":0.05177936376758968,"38":-0.08164122127733596,"39":0.05749558661614237,"40":-0.07489282048098711,"41":0.07270997056636898,"42":0.11831470093139165,"43":-0.020949137943273195,"44":0.1026744150273961,"45":0.0681822777602418,"46":-0.07961254613391684,"47":0.016117364103487908,"48":-0.0013254514001804266,"49":0.042750487182053126,"50":0.13552683446844757,"51":-0.012230889088533006,"52":-0.10291905481409061,"53":-0.02583595314572772,"54":0.04976651704189506,"55":-0.00027957668650911905,"56":0.08621125541512561,"57":0.10131460803719439,"58":-0.006476878652190706,"59":0.009062358291870045,"60":-0.0709508613252534,"61":0.07971583492906552,"62":-0.018733732966065692,"63":-0.022613830077890588,"64":-0.0191162778743616,"65":0.029070332591158536,"66":-0.026231062596232084,"67":0.05675886688228542,"68":0.020273588392745016,"69":-0.013822499727645378,"70":-0.03135829528910329,"71":0.09355775949116911,"72":0.08323016726676265,"73":-0.1856892075681196,"74":-0.028809033438231713,"75":-0.04246872913063067,"76":0.004878327540541864,"77":-0.0010961369908414373,"78":-0.055796442180615864,"79":0.02442016446604559,"80":-0.0006591034476170325,"81":0.07106571474317155,"82":-0.1732057633751983,"83":-0.07221209129212156,"84":-0.03985883132980415,"85":-0.02489884259404598,"86":-0.11722586620229508,"87":0.04272642182754789,"88":-0.16557677631520196,"89":-0.011519670828706198,"90":0.025929534885804784,"91":0.05695999278008129,"92":-0.023068901733116997,"93":0.028387818326837816,"94":-0.003969797650334906,"95":0.0962392095019115,"96":0.026785842513475325,"97":-0.0794358586191668,"98":0.05429912010604769,"99":0.020557325898229745,"100":-0.045950371482112964,"101":0.08973421106929202,"102":-0.012628506767984472,"103":0.023698799134365355,"104":-0.08522179386889527,"105":0.19375776356568186,"106":0.01425975729348557,"107":-0.0021643104716698772,"108":-0.03633673773819529,"109":-0.0006947432535425942,"110":-0.03941027015114977,"111":0.06775945153502776,"112":-0.10508736808544188,"113":-0.0007128788563553328,"114":0.04306952915444697,"115":-0.04524506493201232,"116":0.012080532942714467,"117":0.04829572488339498,"118":-0.05108643753983788,"119":0.025334598731355545,"120":0.015550743851257372,"121":0.035889903242981365,"122":0.03410644927647053,"123":0.005470466910068692,"124":0.007936467941526162,"125":-0.13807068943468756,"126":0.007138357544135635,"127":-0.14234125966795363,"128":-0.009834487676274052,"129":0.04791877077762902,"130":-0.006664204789034007,"131":0.13810059994706225,"132":-0.039294437776127705,"133":0.02125677145861243,"134":0.23949878307088748,"135":-0.04837500844137688,"136":-0.02063895536121914,"137":-0.06691428526940564,"138":-0.0334448978622211,"139":-0.09986994275569637,"140":-0.04622138343374632,"141":-0.06204395826269304,"142":0.008717911760950905,"143":0.139134525945768,"144":-0.027402024367558054,"145":0.027700652347370465,"146":0.013410597567607237,"147":0.12027631097200109,"148":0.0601740487217829,"149":-0.05075574358269501,"150":-0.040904322684485954,"151":-0.012891484719452022,"152":0.06370502521192632,"153":0.2896546733584517,"154":-0.13857722090800478,"155":0.04477385566624619,"156":0.00726805207709884,"157":0.25873388164610917,"158":-0.04426120660251187,"159":0.018506364905126697,"160":-0.02648350138578531,"161":0.03478196729757959,"162":0.026348750132067316,"163":-0.14174623666562727,"164":-0.04326648265610134,"165":-0.05558250978940114,"166":-0.1375654590138213,"167":0.0629211801065017,"168":-0.04378390805038394,"169":-0.05018317782700025,"170":0.01974994139160828,"171":-0.04801325115549819,"172":-0.03776208147132293,"173":-0.030760453767874393,"174":0.06305416539847819,"175":-0.019071767619282958,"176":-0.026317837246265546,"177":-0.023725850001380833,"178":-0.024084212587729595,"179":0.010734811974791394,"180":0.027824960118129908,"181":0.022289983198131403,"182":-0.038494652581184396,"183":-0.03225836686794099,"184":-0.058266537125529885,"185":0.0000031570755477843323,"186":-0.1338016440828725,"187":-0.06372334006163752,"188":0.007924141235712508,"189":-0.07333989757305769,"190":-0.08030377170652585,"191":-0.04373291357788266,"192":-0.037457100308986975,"193":0.07242801747191105,"194":-0.014283787191912449,"195":0.0073843596117404075,"196":0.038115580032720836,"197":0.05563858070105928,"198":-0.029897842463578468,"199":-0.03636027359652156,"200":-0.017335340912649953,"201":-0.15232663193338286,"202":0.02647364161415399,"203":-0.02494141184854036,"204":0.12429124892706582,"205":-0.07293051250213238,"206":0.010537792610500444,"207":0.010191985346663475,"208":0.016150385772340046,"209":0.02246523959711135,"210":-0.08051053986729348,"211":-0.02726304769657687,"212":0.007604059166869236,"213":0.009890026297618478,"214":-0.016817995153860704,"215":-0.037100347839018104,"216":0.05117804854504562,"217":0.009832154267432105,"218":0.014638424298417232,"219":-0.003101690368998927,"220":0.060832760717446754,"221":-0.031156864899500602,"222":-0.03624794137905948,"223":0.11501498247865313,"224":-0.03295732067867306,"225":0.010405267127116265,"226":-0.044684140493713304,"227":0.06950215175267507,"228":-0.0936456384434012,"229":0.020345011232592386,"230":-0.06598637060057061,"231":-0.03053234784198393,"232":0.027702150249376056,"233":-0.0032324702525284086,"234":-0.030519704216309385,"235":-0.07173136076250368,"236":0.011794915014514306,"237":-0.0243078800870835,"238":-0.017136823349385998,"239":0.020106588146505577,"240":0.03166047691932002,"241":0.025513878593104333,"242":-0.022692722002509807,"243":-0.037684929930983546,"244":0.0070377032354783315,"245":0.03590716531006445,"246":-0.03926361499560832,"247":-0.022011263884733876,"248":0.08943143565713857,"249":-0.04036693282829916,"250":-0.04154785662214002,"251":0.048319150412763565,"252":-0.10121774786395822,"253":0.026379537383649815,"254":0.010747484391774352,"255":0.02005633135448369,"256":-0.07640574560524685,"257":-0.06988177107504326,"258":-0.05496006975006316,"259":0.03134125150877748,"260":0.01053436679624422,"261":0.028141936891573353,"262":0.07466517526641418,"263":-0.11702473831159492,"264":-0.0030840190297885405,"265":-0.03838586225324046,"266":-0.13425145699146732,"267":0.05039699912538884,"268":-0.03536789264934674,"269":-0.024859448536458897,"270":0.04454412235969761,"271":0.012772494933317438,"272":0.02767705337912304,"273":0.0328385886093277,"274":-0.042944421044302614,"275":0.05940149203286974,"276":0.11281978780840507,"277":0.018709396449918664,"278":0.04542849017167245,"279":-0.08342208180970521,"280":0.03112913052187975,"281":0.017964324934409314,"282":-0.03225004985520289,"283":-0.11391561486950331,"284":-0.031536573123914204,"285":-0.014926061382634281,"286":-0.049271728059830766,"287":-0.005253034305743881,"288":0.047108255246563854,"289":0.3187657153652316,"290":-0.04841216280025346,"291":-0.012528085001515876,"292":0.09679567663774831,"293":0.03591354209434576,"294":-0.02432261207858305,"295":0.0007015344586219509,"296":0.13542233862368655,"297":-0.05347953513066389,"298":-0.03165649132445177,"299":-0.08366103332007899,"300":0.06639165036466403,"301":-0.03411036405114295,"302":-0.011418168110465738,"303":-0.019999601849828838,"304":0.05813999124414789,"305":-0.14986645273276425,"306":0.048084185658520615,"307":-0.05664073843591888,"308":-0.08659275786233572,"309":0.10531671662373522,"310":-0.04749369163771771,"311":0.010635908904681112,"312":-0.10286238209082187,"313":0.13683094148127276,"314":0.031107274343383163,"315":-0.10253191157293136,"316":0.08473133637712438,"317":0.09847469489772456,"318":0.05007316743683048,"319":0.011805862517450794,"320":0.06896853539985741,"321":-0.08197062545040926,"322":0.05577081308495829,"323":-0.031498022586216166,"324":0.03757702193024777,"325":0.08145727548750592,"326":-0.30854248106230264,"327":-0.12988105182457696,"328":0.05665367893100329,"329":0.11408084468126796,"330":-0.020183621916007772,"331":0.03658064314692708,"332":0.17784850907717797,"333":-0.05754293554941346,"334":0.31166952211942023,"335":0.03316345513827553,"336":-0.06466064576985554,"337":-0.18281380035298675,"338":-0.11573383142946214,"339":-0.1575326569470283,"340":-0.13717266543672463,"341":0.14626600439868562,"342":0.06442503369370639,"343":-0.06397845159147222,"344":0.22465007872789847,"345":0.11893976500822402,"346":0.010147392294860558,"347":0.059271262260583914,"348":0.059869205700751056,"349":0.0026012821614585387,"350":0.1324609310311314,"351":-0.023824739528055045,"352":0.13480911642935406,"353":0.11687144294511818,"354":0.2231522758494242,"355":0.010388282757200369,"356":-0.07592074551319852,"357":-0.12239719847810959,"358":0.016545381964679265,"359":-0.10156102529228385,"360":0.0021223858210922485,"361":0.15335702486856123,"362":-0.08641171808798138,"363":0.044226458090001516,"364":0.3258485630511705,"365":-0.12333900383720967,"366":0.09198951204769627,"367":-0.051754313195074106,"368":-0.025277478783857183,"369":-0.08707751222028354,"370":-0.06648171336718113,"371":-0.239356882109239,"372":-0.03841887774282712,"373":-0.03137571072251039,"374":-0.06442732573264036,"375":0.19145298930846455,"376":-0.11962538637584991,"377":-0.17691208239797762,"378":-0.01124476689129798,"379":-0.025017333858330704,"380":0.19586045447840109,"381":0.026632221720274185,"382":0.034199338013391783,"383":0.282116588476371,"384":0.02368623051193944,"385":0.07609443802351837,"386":0.137089446615011,"387":-0.1413187293034524,"388":0.26210518791996473,"389":-0.05989328212974432,"390":0.03652617772387323,"391":0.1469152824309108,"392":-0.38647593352471993,"393":0.6380539586017638,"394":0.16078537934012727,"395":-0.18412204369350027,"396":-0.1579603182050664,"397":-0.23254431942702047,"398":0.0348817931077351,"399":0.253173398052396,"400":-0.04415729220703583,"401":-0.04905531628947341,"402":0.23587444694229145,"403":-0.05618263176819045,"404":-0.0791768353090971,"405":-0.16600717807944304,"406":-0.22511402593930677,"407":-0.08534107317220974,"408":-0.041154573550643905,"409":-0.05418324144661163,"410":-0.08673961702572364,"411":-0.0654233563178592,"412":0.06579912668712684,"413":-0.20443019701748555,"414":-0.028733939880825267,"415":-0.06696118863161683,"416":0.007383327252748071,"417":-0.00844549164991424,"418":-0.019958629037777578,"419":-0.012073984368690673,"420":-0.04290111686054255,"421":0.1454021078496806,"422":0.2644153879337976,"423":-0.07472664047039512,"424":0.03113868506824493,"425":-0.045838256557240914,"426":-0.023294783677159765,"427":-0.2089462511231462,"428":0.21900876673343403,"429":0.0459289161951269,"430":0.07309119882041304,"431":0.10388980409857773,"432":0.03539605393494747,"433":-0.033343634681357794,"434":0.012015368965951543,"435":0.10357315563591836,"436":0.12876824316761165,"437":-0.018660296329173324,"438":-0.0425799329065713,"439":-0.06805515987982987,"440":0.08112227305520651,"441":0.1238564068413851,"442":0.08869196046018117,"443":0.06718125875841176,"444":-0.09570506922270615,"445":0.3346777410497601,"446":-0.00345607753446431,"447":0.0884715287244609,"448":0.004847338774124839,"449":-0.010250250423077069,"450":-0.05700718505783206,"451":-0.045023730334648904,"452":-0.018736488137045367,"453":-0.05965510866291852,"454":-0.02283325366417049,"455":-0.02582311482121171,"456":0.0048286508103741075,"457":0.0006597307950798129,"458":-0.025724305100208556,"459":0.1438891287740158,"460":-0.049081223781458266,"461":-0.03875767233164687,"462":-0.007450243205041948,"463":-0.03515323086414237,"464":0.11620277146000714,"465":-0.0509267408726361,"466":0.013863482919393648,"467":-0.04462553999552155,"468":-0.034196213764009394,"469":-0.048908448519793604,"470":-0.0693837837203728,"471":-0.08639673202609696,"472":-0.1366541881381404,"473":0.045368120953062294,"474":0.01286660945747428,"475":-0.030476756021917868,"476":0.14351623783905418,"477":-0.12581313578513564,"478":-0.05535400915321201,"479":-0.01927184295385648,"480":0.01212974586963594,"481":0.019777610837965316,"482":-0.03671970291246083,"483":0.02372042549991981,"484":-0.07511361505298181,"485":-0.004858920865686009,"486":0.04026687543543875,"487":-0.04056539036423982,"488":-0.013492374149240096,"489":-0.1266238460828995,"490":-0.05570161894756464,"491":-0.03405646487874996,"492":0.13239073002768695,"493":-0.02287770885202756,"494":-0.012827309244669509,"495":-0.00952381140891794,"496":-0.01195054159136144,"497":0.05586148565669137,"498":0.07960004462281967,"499":-0.04905922965167939,"500":0.011403342403653517,"501":0.0631872003726971,"502":0.0012746773627535458,"503":0.032368412668721126,"504":0.10819302003413506,"505":-0.028190796459871534,"506":0.09425337928740979,"507":0.063350308404374,"508":-0.05672637762222089,"509":-0.04285384501565731,"510":0.09752621125894195,"511":0.13354204518121243,"512":-0.06667584080471735,"513":0.03384050458668502,"514":-0.04239175690478755,"515":-0.10079128663159627,"516":-0.035229539574386404,"517":0.0052965944832921216,"518":-0.032087933814819454,"519":0.005578343570787556,"520":0.05714405277188249,"521":-0.0071197150765565775,"522":-0.1959091206836912,"523":0.021579577173473828,"524":-0.06627702076365491,"525":-0.04425061150482074,"526":0.11708735985866577,"527":0.007733925992560671,"528":0.1467905709280386,"529":-0.014815009917241965,"530":0.00553377667899443,"531":-0.09984071990160684,"532":-0.08743470177756056,"533":-0.05669410208683826,"534":-0.057813319831619914,"535":-0.04557929860961247,"536":-0.24136681811889066,"537":-0.0657875773915488,"538":-0.05473992479228456,"539":0.007308095176629648,"540":-0.17349355906050906,"541":-0.11878593151651866,"542":-0.14729048117465868,"543":0.09035013467565284,"544":0.05199121950172176,"545":0.047469037128630355,"546":-0.11051244981182741,"547":-0.1297120365593231,"548":0.06507551178587302,"549":-0.127541599248585,"550":0.007145825893954471,"551":-0.20871585609225743,"552":0.02515713549418311,"553":-0.3199549506695864,"554":0.02049390679434635,"555":-0.05645858879971734,"556":-0.004656799178743761,"557":-0.1859798897176661,"558":0.05093891519040063,"559":-0.03840361983276967,"560":-0.13249097785941447,"561":0.11666154148970821,"562":-0.1215408775839485,"563":0.11987713786791675,"564":0.11620260633249374,"565":-0.037229346271353735,"566":0.04545075368302941,"567":-0.1604286361267819,"568":0.031970601830388586,"569":0.038092713646019086,"570":-0.16933159121765068,"571":-0.06176001684630378,"572":-0.18167244932877044,"573":0.026152751969926755,"574":0.05304090415462722,"575":0.316732729928706,"576":-0.00289482198313513,"577":-0.014734756843924916,"578":-0.07697500448194904,"579":-0.34827621333892367,"580":0.13628449954414812,"581":0.07327269153177443,"582":-0.054642483859273505,"583":0.05911270516018667,"584":0.3076679457503804,"585":-0.1570334717425224,"586":-0.03701053728730117,"587":-0.1503569182965912,"588":-0.02421871299306035,"589":0.11525960751981046,"590":0.05337506081955185,"591":-0.37069741790147603,"592":0.09325996589215088,"593":0.4416280866837955,"594":0.00010735721180065485,"595":-0.04739187039080476,"596":-0.1085178681802251,"597":0.24033048000984564,"598":-0.07325751360447684,"599":-0.2549945908383802,"600":-0.1406818378910756,"601":-0.039419562061893204,"602":0.042789349907596516,"603":0.2521845343894804,"604":0.11717990077432922,"605":0.2711270975568303,"606":-0.08967265044014175,"607":0.03329296206844825,"608":0.09105203056538975,"609":-0.056847835211790355,"610":0.049094201856839395,"611":0.08401416518253398,"612":0.00025362672871685396,"613":0.08284857244978437,"614":-0.10248732238279624,"615":0.07423060429088793,"616":0.012699968946173536,"617":0.09914529583332485,"618":0.011068813166839109,"619":0.09181194513349607,"620":-0.09758361155118539,"621":0.0423235827596709,"622":0.00009876081508089065,"623":-0.04137253369299306,"624":-0.2931949042212806,"625":-0.03135610882558975,"626":0.03937249151747226,"627":-0.07920294828851358,"628":-0.1751051063451113,"629":0.1445262671656162,"630":0.017062762177217576,"631":-0.06463814734023907,"632":-0.11517775589770733,"633":0.27980127232591334,"634":-0.18309426814678215,"635":-0.014373801441446336,"636":0.05835696686527135,"637":-0.1567954276253805,"638":-0.11276692621378645,"639":-0.03333652408225218,"640":0.017066036437189305,"641":0.13717232510116,"642":-0.1875424707039194,"643":-0.04738001137760581,"644":0.1911839740910736,"645":-0.08092432330570641,"646":0.07755465623829522,"647":0.25225337299040645,"648":-0.10864564269977109,"649":0.2854069888249646,"650":-0.04914254331633599,"651":0.09559978169152507,"652":0.13233882250315457,"653":0.04750470343350221,"654":-0.045644168800177874,"655":0.19519475182575288,"656":-0.2755473041271636,"657":-0.11252018299057018,"658":-0.5502981970356821,"659":0.5173965259827846,"660":-0.23316131596337716,"661":0.24581610353285285,"662":-0.27516599848216106,"663":-0.016807690665897282,"664":-0.007445860317294107,"665":0.12621869289546606,"666":0.17782996636221846,"667":0.011400587440729042,"668":0.8146542256219128,"669":0.1433249681143128,"670":-0.2253167594566128,"671":-0.19103188477792826,"672":-0.049229253113987535,"673":0.11125182066636588,"674":0.13757660583703027,"675":0.049042369367898235,"676":-0.058090767739133374,"677":-0.02869911752193397,"678":0.08793845078788268,"679":0.016024392540918874,"680":0.01492777216110093,"681":0.3211029595110169,"682":0.21150054611746494,"683":0.004691884017081583,"684":-0.08540713558714016,"685":-0.18158342467141242,"686":0.14963270866813447,"687":-0.06326385916418098,"688":-0.06233123850727398,"689":0.008348254674508698,"690":0.11613924447398964,"691":-0.025364612233783335,"692":-0.19637205917052789,"693":-0.0315135519105385,"694":-0.11979595976889891,"695":-0.03571554377120016,"696":-0.2547342111575923,"697":-0.09288273401322603,"698":-0.20034242530494503,"699":0.009152336938843788,"700":0.09536415422218529,"701":-0.01657703285653775,"702":0.08686881493992359,"703":-0.05351395150254548,"704":0.06358934717457916,"705":-0.01735319941052238,"706":0.0767444079856506,"707":0.06488021036854404,"708":-0.05378135053363419,"709":-0.04222947101954427,"710":-0.06923608331877924,"711":0.0770628075597829,"712":0.010988154002457708,"713":-0.023101523683546656,"714":-0.03375855570482596,"715":0.021920678048480205,"716":-0.00762469791333559,"717":-0.03133047832978092,"718":-0.03940440086674375,"719":0.07466943673067584,"720":-0.04227830728695026,"721":0.031122673074938708,"722":0.005021044010452332,"723":0.01788506270390667,"724":0.007310732073106855,"725":0.05377423427671883,"726":0.017071795644062766,"727":-0.05217969293454354,"728":0.043468440114238664,"729":-0.08710158015829945,"730":0.023657536967809062,"731":-0.018780693921169277,"732":0.042400101753837724,"733":-0.011804926942438069,"734":-0.027626193979934894,"735":0.005996377116531439,"736":-0.005977851091078481,"737":-0.006690212112612011,"738":0.0663465338235369,"739":0.040078716183150315,"740":-0.009390000160424152,"741":0.0033606714094991095,"742":0.042460719899676674,"743":0.0017836099925006587,"744":0.06761608107734042,"745":0.028932082950225906,"746":-0.06052765133407231,"747":-0.0725093079054332,"748":0.06720908798862187,"749":0.07822485367221844,"750":0.03548898294098771,"751":-0.020980458253657127,"752":0.0020694766670243344,"753":-0.003569636444746986,"754":0.020189297156616434,"755":0.05282276496632621,"756":-0.011911748232805821,"757":-0.05098517609130539,"758":-0.03019510805178399,"759":-0.07936670086947285,"760":0.002621417695879872,"761":-0.04809980118176473,"762":0.06555644244672026,"763":-0.02706327524276193,"764":0.04296030576393536,"765":0.041179466540936314,"766":0.0737971686596019,"767":0.10764034972225626,"768":0.01342819426876691,"769":-0.07648688827963349,"770":-0.10717510888770612,"771":0.021925662323963216,"772":-0.03864862147431282,"773":-0.04383687040297521,"774":-0.2918084448669177,"775":-0.03857117241233047,"776":-0.11033245732450098,"777":0.01929007995137707,"778":0.02277039020000365,"779":-0.15044087888506472,"780":-0.08962393440779017,"781":-0.03083523188574181,"782":0.0010408184312181612,"783":-0.020399639629293316,"784":-0.08216584047588608,"785":-0.04318704907480204,"786":-0.036235749624766264,"787":0.015588317582864311,"788":0.1754661515128755,"789":-0.09903003523256051,"790":-0.012352863041102566,"791":0.18117358223013205,"792":0.0065140410934724806,"793":-0.13391533271312217,"794":-0.08035430300124867,"795":0.06946605541717953,"796":0.005983197258188953,"797":-0.05281700190204579,"798":-0.17576233320065549,"799":0.05010870008499415,"800":-0.0018350833284727812,"801":-0.07629779545538254,"802":0.034784000251763064,"803":-0.021312108464108824,"804":0.07311049571669803,"805":-0.030043612852731577,"806":0.09626004086241938,"807":0.10557476334443706,"808":0.15082622753445485,"809":-0.06385788052349599,"810":-0.030765782027368276,"811":0.015917392084630968,"812":-0.026857749038611472,"813":-0.09513396632251594,"814":-0.16316868410318183,"815":-0.016247120383555344,"816":0.19027600201760703,"817":0.1963609025082472,"818":0.1265727594960947,"819":-0.11059415895085899,"820":-0.10823348449215532,"821":-0.033064687738626225,"822":0.033819124117574775,"823":-0.04397058789226398,"824":0.057178415781909034,"825":0.0025199347186323625,"826":-0.06603776197845422,"827":0.01908300863029782,"828":-0.1904578234587195,"829":0.02097251346881361,"830":0.009078852138593451,"831":-0.029704458986333376,"832":0.07497154110190092,"833":-0.008973984691050405,"834":0.07059705038985077,"835":0.08494936665860325,"836":-0.2934257616034274,"837":-0.18764807743037593,"838":0.050957098814868144,"839":-0.20990548737653,"840":0.02944773868739152,"841":-0.17515896968245342,"842":0.11471185435090946,"843":0.11338662539575087,"844":-0.38297599440895097,"845":-0.014578003618079696,"846":0.0592908615483935,"847":0.01140826724391094,"848":-0.20016720316335998,"849":0.16587142286739662,"850":0.06345145066040353,"851":0.10512647431568711,"852":0.15497697376185718,"853":-0.17988494315548056,"854":0.24751645201758182,"855":-0.014549274100277912,"856":0.22212989414858564,"857":0.00014045360008476575,"858":-0.06194884124689078,"859":-0.07390051195724215,"860":-0.42765489435497117,"861":0.016099812914119625,"862":-0.061053648513484444,"863":0.31187059252485777,"864":-0.05423197367181892,"865":0.22548223970170886,"866":-0.02425880305673284,"867":-0.3131798786037082,"868":0.10085534035148318,"869":-0.029689651029619853,"870":-0.022465458719588383,"871":-0.2425307950070702,"872":-0.04488897818398492,"873":-0.12548963472980534,"874":0.08002143284441936,"875":0.08902480845551393,"876":-0.12348551166078511,"877":-0.07775990356897218,"878":0.061399920958788205,"879":-0.2863714897932423,"880":0.041337854065332115,"881":-0.1199759039746143,"882":-0.048920832493470845,"883":0.04043545548067196,"884":-0.09518668505810526,"885":0.09242191039426477,"886":0.026537125189131316,"887":-0.08559792722819001,"888":-0.13655462153780945,"889":-0.02562881221218286,"890":-0.03619765083916591,"891":0.031405952830636526,"892":-0.03147284166629396,"893":0.4394937651524673,"894":-0.03477801231697322,"895":0.06850521462178542,"896":0.07622720324193467,"897":0.012645699132987067,"898":-0.038644671916143014,"899":-0.02736198036686332,"900":-0.0028241817201855026,"901":-0.030708519811224695,"902":-0.21538036696551024,"903":-0.030348743226887707,"904":-0.16097655095272279,"905":0.1727933683674128,"906":0.0915573399529688,"907":-0.08225188285277082,"908":0.08396645327472874,"909":0.034039077357926766,"910":-0.2831073299902063,"911":-0.16383668093935685,"912":0.257213453159766,"913":0.04747551351925609,"914":0.08998088436212864,"915":-0.07966846508431615,"916":-0.03653123996941322,"917":-0.05342048752110234,"918":0.10811579718303317,"919":0.4814151064739544,"920":-0.19607692889482156,"921":-0.005429773200886644,"922":0.0010453276491472802,"923":0.011906506770758664,"924":-0.12094242605599881,"925":-0.10519521033699036,"926":-0.1692713145998699,"927":-0.13242046405637803,"928":-0.29726842306483936,"929":0.02418013780820484,"930":-0.0018726208732575758,"931":-0.0733762859671268,"932":-0.0003702583112211917,"933":0.005633792818262441,"934":-0.004262051372343168,"935":-0.032524190899357396,"936":-0.0925889619673971,"937":-0.1471352879363244,"938":-0.07304301916492104,"939":-0.03297784282379819,"940":0.09241897536690383,"941":-0.17806127626955132,"942":-0.1731243486071513,"943":0.03865072756412667,"944":0.036994082981272255,"945":-0.07405567221628055,"946":-0.7226009658673392,"947":-0.13502876708953016,"948":-0.11396982751684097,"949":0.003722046613715568,"950":-0.21730180884380607,"951":-0.006912699216270946,"952":-0.1343485969618243,"953":0.14235744496345382,"954":0.07127618064037783,"955":0.07100680208475277,"956":0.3527568540495139,"957":0.03419713025220716,"958":-0.09334189646244656,"959":-0.08949137992975897,"960":-0.09642479141372626,"961":-0.015528696241299903,"962":-0.020652807466595573,"963":0.025884049367585704,"964":-0.036177732061167686,"965":-0.10061993433239183,"966":0.14282661207015065,"967":-0.04636750973226058,"968":-0.129476732593255,"969":0.26186410266583915,"970":0.06274155875103128,"971":-0.025633389912078624,"972":0.09816120610368846,"973":0.05723109111945011,"974":-0.025431401231442774,"975":-0.012672588068613681,"976":-0.13542658146307052,"977":-0.014087363783840597,"978":0.013322673545691206,"979":-0.038153429094471496,"980":-0.06115557262767782,"981":0.018473587798998103,"982":-0.051236259320485,"983":-0.06933913099896517,"984":-0.21565476397903036,"985":0.0027642843145631603,"986":-0.036552957634338225,"987":0.0543074116946939,"988":-0.09392033120269691,"989":-0.1275555309872659,"990":0.0889941641668916,"991":-0.026045505649679015,"992":0.23678305854407536,"993":-0.07386155268920333,"994":-0.003311702780413649,"995":0.010871411494463334,"996":-0.08732886492877028,"997":0.1264498875843832,"998":-0.1064010439705515,"999":-0.029791931122295116,"1000":0.06685746725207066,"1001":-0.07117762549284791,"1002":-0.08481042155479315,"1003":-0.02679585686806426,"1004":-0.052142565466276776,"1005":0.1525150881178675,"1006":0.05310801843444279,"1007":0.04187761744861369,"1008":-0.006707767907644998,"1009":0.006785632105872093,"1010":0.005401424364387739,"1011":0.05295374842585133,"1012":0.028938886933370087,"1013":0.01986849611379059,"1014":-0.03292932326874796,"1015":-0.20702871378949658,"1016":0.03571809497788937,"1017":-0.17755559671649088,"1018":-0.004312217794342635,"1019":-0.02045939524737931,"1020":0.1172902333962512,"1021":-0.06577322049642363,"1022":0.0624286662314422,"1023":0.026482696656538494,"1024":-0.05716310398264022,"1025":0.02767467668271521,"1026":0.03643711428693544,"1027":0.08286412642705908,"1028":0.03008538653014519,"1029":-0.06233363364240234,"1030":-0.012575415517460558,"1031":0.029932544598168232,"1032":0.020157474172683053,"1033":0.0331897315594793,"1034":-0.046135650387588906,"1035":-0.03522083761544395,"1036":-0.012012118708990379,"1037":-0.025034994489362604,"1038":0.016222981881377305,"1039":-0.10600770053660599,"1040":0.02834888723224673,"1041":0.06289099640936018,"1042":-0.0652249514367465,"1043":0.053538194392257356,"1044":-0.021478995213067283,"1045":-0.013001506657550083,"1046":-0.0576162502071495,"1047":-0.11172696589117967,"1048":-0.06519045869362151,"1049":-0.023602097773171966,"1050":0.019170374995949955,"1051":-0.025924047517331163,"1052":-0.03602831020030802,"1053":-0.010312041043660779,"1054":0.0581237839616177,"1055":0.05899626063992888,"1056":0.02380116981710249,"1057":-0.05009724312112179,"1058":-0.036642244188115,"1059":-0.0673748497459623,"1060":-0.12797803560249452,"1061":0.08368899887208034,"1062":-0.11904888687029497,"1063":0.06977753868215124,"1064":-0.12633047484527574,"1065":-0.015200886300225298,"1066":0.05264590962054967,"1067":-0.07350204953585289,"1068":-0.14285181372016598,"1069":0.019589821419239924,"1070":0.019080025272844907,"1071":0.059428493285037236,"1072":-0.11502589526696522,"1073":0.09923360086264958,"1074":0.027645005449831235,"1075":0.19136107691576507,"1076":0.12209395595798185,"1077":0.03955848894581242,"1078":-0.0891250905359382,"1079":0.013572064425609175,"1080":0.07967339359705355,"1081":0.008400365247964052,"1082":-0.05611059616792652,"1083":0.06432896844567422,"1084":-0.05228014607201667,"1085":-0.11308308126829836,"1086":-0.07845749645381628,"1087":0.02245282982681131,"1088":0.03353589495682249,"1089":-0.12002139851085727,"1090":-0.06611660117415766,"1091":0.06847278134142844,"1092":0.03943822717075829,"1093":0.1893536857993776,"1094":-0.027817975771731507,"1095":0.09409426513851495,"1096":-0.017718591442927104,"1097":0.06677492487269311,"1098":-0.026208533575326837,"1099":0.0381083194717877,"1100":-0.11099353397867402,"1101":0.007590105421825502,"1102":-0.2844004100148016,"1103":-0.0577977426587563,"1104":0.277747428964356,"1105":0.01552302684365779,"1106":0.16585761864993823,"1107":-0.24208649241786892,"1108":-0.08743257281497041,"1109":0.025482411683377216,"1110":-0.1184071502174277,"1111":-0.09690496804617206,"1112":-0.16446617015641785,"1113":-0.07939367430274905,"1114":-0.061801658592984185,"1115":0.08594134734203346,"1116":0.03145852417939877,"1117":-0.040813563425007686,"1118":-0.06930359481777373,"1119":0.021642828059249945,"1120":0.048777958840244995,"1121":-0.043213261757163265,"1122":-0.1080657418883846,"1123":0.02889681552671567,"1124":-0.13246148817148687,"1125":-0.029566953431452776,"1126":0.03832786857231308,"1127":-0.001554117908935255,"1128":0.13492618015648705,"1129":-0.2376817984950747,"1130":-0.11138452032288647,"1131":0.0403731332894292,"1132":-0.2156909323271163,"1133":-0.20442511480075803,"1134":-0.08388761810476417,"1135":0.050595168735121175,"1136":-0.18049476079146307,"1137":-0.08949772083922332,"1138":-0.21570515811620622,"1139":0.04034194911363685,"1140":0.0995092505455421,"1141":-0.1442578346672647,"1142":0.04249802029842348,"1143":-0.13566720262197512,"1144":0.2715755623413195,"1145":0.09160049217790754,"1146":-0.008272042254420907,"1147":-0.07541100308328634,"1148":-0.10441102987179597,"1149":-0.1034818054937277,"1150":0.03698589655132859,"1151":-0.13812976386027967,"1152":-0.05260120087508238,"1153":0.2776119442379057,"1154":-0.055963380195981995,"1155":-0.0086579673281215,"1156":0.01175959091671009,"1157":-0.07599812166043916,"1158":0.030426306604840768,"1159":0.09273541774419118,"1160":0.03573708706955267,"1161":-0.11937143781899504,"1162":0.06999113395520816,"1163":-0.17346711377728435,"1164":0.20703324049237876,"1165":0.07653931058153957,"1166":0.13290485032211352,"1167":-0.33686099563137534,"1168":-0.002092080478909235,"1169":-0.03456716091570425,"1170":0.10655918155495046,"1171":0.045784113015876135,"1172":-0.138117824146078,"1173":0.1562568352952392,"1174":0.06577319575716399,"1175":-0.1815669994056097,"1176":-0.09552717478492123,"1177":-0.10775802524456006,"1178":0.14053818003561075,"1179":-0.07981179024739539,"1180":-0.13964619242599416,"1181":0.37434304403075697,"1182":0.030408309485000742,"1183":-0.04469100584426001,"1184":-0.09800349246182609,"1185":-0.027459363478633883,"1186":0.10032233973723609,"1187":-0.029459012477531035,"1188":-0.09722405983745819,"1189":0.34431188779684857,"1190":-0.3169167619121178,"1191":-0.10883792953245364,"1192":-0.1178621965262026,"1193":0.022434252317248785,"1194":0.004792939266569374,"1195":0.1501755878065525,"1196":0.034243964340221346,"1197":0.07582150374144346,"1198":-0.09831638648389632,"1199":-0.07406014598386725,"1200":-0.1988963029651152,"1201":-0.022907700347027892,"1202":0.03974940805307769,"1203":-0.024577911671909078,"1204":-0.11127034802904118,"1205":-0.04451875690947057,"1206":0.01368658580793706,"1207":0.08924121080182672,"1208":-0.0513985839023604,"1209":-0.022150208579136948,"1210":-0.11234275574001192,"1211":-0.12633959350383894,"1212":0.018392182896549647,"1213":-0.07982411233101726,"1214":-0.11615387751994721,"1215":0.11327870001324541,"1216":0.02375849060886919,"1217":0.046061352163113654,"1218":0.02631501573965056,"1219":-0.015203427151609892,"1220":0.055519004061564854,"1221":-0.009565812831928092,"1222":-0.0405313296824971,"1223":0.055547355446294945,"1224":0.007904145042216013,"1225":-0.22025011821645754,"1226":-0.123628878356287,"1227":0.09152079610238033,"1228":0.08217421262035216,"1229":-0.13194147464564074,"1230":-0.01329453704560706,"1231":0.09360971108153864,"1232":-0.14274151386665535,"1233":-0.03888345888589164,"1234":-0.2486430205343478,"1235":-0.02982307149121759,"1236":-0.06468544058064593,"1237":-0.04632772047470959,"1238":-0.21068935434056524,"1239":-0.015624541679250972,"1240":-0.20414192810847062,"1241":-0.13159011316755354,"1242":0.12322443326284506,"1243":-0.0035023020695203,"1244":0.1794126891293004,"1245":-0.15147572212333177,"1246":-0.058092615815293625,"1247":-0.05511750540122417,"1248":-0.06614259305822671,"1249":-0.014594119296350539,"1250":0.132684967785464,"1251":0.04598603736671119,"1252":-0.015802549514853163,"1253":0.1925202597026718,"1254":-0.03726177499552248,"1255":0.06668120163624511,"1256":-0.07700084305158422,"1257":0.1507558371123088,"1258":0.07030887343474768,"1259":0.03970168028643663,"1260":-0.0700315870890564,"1261":-0.025494599985605836,"1262":0.011593128383388945,"1263":0.07664006291994761,"1264":0.03009936276669457,"1265":-0.009553517522061428,"1266":0.050216937471128625,"1267":0.017493304570242663,"1268":-0.01840259420797797,"1269":-0.039281386008111825,"1270":-0.038590287070486826,"1271":0.09985638204969134,"1272":-0.0903155330913382,"1273":0.08638250929003152,"1274":-0.011183100184563028,"1275":0.016480724090942974,"1276":-0.11646964551389581,"1277":-0.10533785100965945,"1278":-0.08083082688305297,"1279":-0.06500194797482317,"1280":-0.11823259156449564,"1281":0.05892165970387863,"1282":0.037148824358578664,"1283":0.00047102433300037316,"1284":0.030559971646119698,"1285":-0.02511176317229109,"1286":0.04005509387996369,"1287":-0.15345006907650025,"1288":0.09415274239588249,"1289":-0.053323001234999896,"1290":0.06810087578354361,"1291":0.031348995702684075,"1292":0.05522845383471418,"1293":-0.04642128485304037,"1294":0.34197553858872476,"1295":0.009519619989932324,"1296":0.11361645452040642,"1297":-0.04226312301089897,"1298":-0.13881887648284574,"1299":-0.020588054191149854,"1300":-0.062049303053672525,"1301":-0.15052737199140598,"1302":0.13514300091969034,"1303":0.060482660335531666,"1304":-0.12515131311313576,"1305":-0.012147541654761224,"1306":0.03406671199735031,"1307":0.09383481785578152,"1308":0.1704500888246048,"1309":0.039944748938638544,"1310":0.05323825476816065,"1311":0.1688324076393496,"1312":0.0709128718251302,"1313":-0.15001925747127381,"1314":0.15472897868952043,"1315":-0.07441755296138679,"1316":0.0393653573519822,"1317":0.08575392556063209,"1318":0.0295817038150527,"1319":0.13929381527595827,"1320":-0.025148977742296134,"1321":0.28105114387435126,"1322":0.12178788408439681,"1323":-0.08418569315308715,"1324":0.10575762340856373,"1325":-0.0662765298604458,"1326":-0.011064496010974983,"1327":-0.048926686117583724,"1328":-0.07030775616480593,"1329":0.010383885108193153,"1330":0.03289901242400096,"1331":-0.026517686696096145,"1332":-0.0426280355123552,"1333":-0.013444739359252758,"1334":-0.0849243037698359,"1335":-0.010633647560966308,"1336":-0.04103714258532028,"1337":-0.05749779044006001,"1338":-0.030810713131137844,"1339":-0.08562832855958524,"1340":-0.29669563330525006,"1341":0.039248161764638544,"1342":0.093563119122813,"1343":0.00509753746321884,"1344":-0.0375062726729093,"1345":-0.09367896926371874,"1346":0.010527901706032673,"1347":-0.07580289009053878,"1348":-0.10379288795960365,"1349":0.3258740706842888,"1350":-0.14723069945403872,"1351":-0.1573588721982737,"1352":-0.0008775912254253678,"1353":0.07866843416066968,"1354":-0.06916587959402602,"1355":-0.3441386917521543,"1356":-0.0746062611158943,"1357":-0.05503041750966237,"1358":-0.013749607340928494,"1359":0.14683682232265546,"1360":-0.05186032864822773,"1361":-0.20465835197862836,"1362":-0.028019589790380484,"1363":0.15842639709817405,"1364":0.19343727467736369,"1365":-0.12814257389341138,"1366":-0.13534017393007688,"1367":-0.055718851729623396,"1368":0.1680064050937406,"1369":-0.20701454562416835,"1370":-0.037898980226251024,"1371":-0.24373077701885937,"1372":-0.12060004716607256,"1373":-0.23820700197155006,"1374":-0.11929700343676475,"1375":0.20850034060022427,"1376":-0.02685354131345391,"1377":-0.08550346117845624,"1378":-0.19663660165945607,"1379":-0.02902596306208277,"1380":0.00371737092940311,"1381":0.10850476083127457,"1382":-0.047403072726529376,"1383":-0.11846268676810068,"1384":-0.0854342030141149,"1385":-0.18125222847833145,"1386":-0.1428115973274822,"1387":-0.03641712287445307,"1388":-0.08595600300039058,"1389":-0.11319978089302904,"1390":0.15538073380785283,"1391":0.011646810092709936,"1392":0.0951572245712578,"1393":-0.009495981254327787,"1394":0.08016610693774313,"1395":-0.24595855639961733,"1396":-0.04715046302804094,"1397":0.019135374077695073,"1398":-0.06846272674603252,"1399":0.05462581439874968,"1400":-0.06883616716022797,"1401":-0.11155370700207526,"1402":-0.18678853138357246,"1403":-0.13387989878355905,"1404":-0.26583000885251257,"1405":-0.0761622292461111,"1406":-0.04569033109842395,"1407":0.21004781550134097,"1408":0.2349841202593397,"1409":-0.0599979170849848,"1410":-0.2075979308319117,"1411":0.08773843882340633,"1412":-0.08449503659107298,"1413":-0.051753803101503695,"1414":0.0831007080523686,"1415":0.007489847273086463,"1416":0.007265595658088676,"1417":-0.18506262254999684,"1418":-0.02453490911348903,"1419":-0.03249420541603557,"1420":-0.0370184708046576,"1421":-0.1562264211943487,"1422":0.10712927759751216,"1423":0.10787805163905433,"1424":-0.08103754681197047,"1425":0.23242098939095832,"1426":-0.17043156281776792,"1427":-0.0708504271554992,"1428":0.17492465971672824,"1429":-0.12531783129636073,"1430":0.4457539093871664,"1431":-0.04431392521075428,"1432":0.05252845741532148,"1433":0.08038863857222814,"1434":-0.1254809482465562,"1435":0.006450575098009531,"1436":-0.27877474595594964,"1437":-0.07926415670280218,"1438":-0.007696909422038916,"1439":-0.06489955211738004,"1440":0.05898316478275367,"1441":-0.0856669207688547,"1442":-0.03989987052837068,"1443":-0.2463885165514004,"1444":0.18047645640068957,"1445":0.1429721613181539,"1446":0.06145326991350636,"1447":0.11829211102254912,"1448":0.26384092556048894,"1449":-0.14325208134066222,"1450":-0.0242478189833814,"1451":-0.08144276777246473,"1452":-0.20966923432528706,"1453":-0.07285465549619953,"1454":0.000010112812268065181,"1455":-0.18390323955852847,"1456":0.09644510259007318,"1457":-0.16118614508340015,"1458":-0.03460084790037625,"1459":-0.04103118060689188,"1460":0.025301743890694627,"1461":0.14947946165895204,"1462":-0.1572531397957779,"1463":-0.03750579814601605,"1464":-0.15792334802261926,"1465":0.06284338907417188,"1466":0.06334911972946969,"1467":0.02799377293591773,"1468":-0.0784138183982108,"1469":0.033640502296542474,"1470":-0.03313032560197573,"1471":0.0019307774462988248,"1472":0.11512318288911808,"1473":0.03661673851164407,"1474":0.12392546762345065,"1475":0.011711451546838579,"1476":0.005150381925817691,"1477":0.09467142862970988,"1478":-0.01615705174178554,"1479":-0.04044338281935475,"1480":0.02601530235800751,"1481":0.057683356604975526,"1482":0.09081078449981293,"1483":0.10176389594039861,"1484":0.06607492192433569,"1485":0.06368016630727084,"1486":-0.013589222874673675,"1487":0.04330648962791399,"1488":-0.12566183282743282,"1489":-0.10144223312426909,"1490":0.06075522287697174,"1491":0.06563635094028014,"1492":0.07061987578995946,"1493":0.0016779234164649433,"1494":-0.015175350753008006,"1495":-0.08641098439038808,"1496":0.06885174052012173,"1497":0.1344719737037555,"1498":0.09175208624865201,"1499":-0.08397612190697036,"1500":-0.05307388249877476,"1501":0.04274336054619741,"1502":0.002633043417910245,"1503":-0.0573189857840785,"1504":0.023322617748815375,"1505":0.022180606471658447,"1506":-0.03935349765409004,"1507":0.07137783528126546,"1508":0.17265300345261114,"1509":-0.08959805130401134,"1510":-0.015724169558548447,"1511":0.014848813878019425,"1512":0.05263569085629545,"1513":0.015167999115504958,"1514":-0.2310805093675372,"1515":-0.1045693766538681,"1516":0.06504512880783425,"1517":0.013947176332575927,"1518":0.02266621036858184,"1519":0.0466369527941266,"1520":-0.0244243036529871,"1521":0.06813861127297628,"1522":0.06847175693169964,"1523":-0.042441084732965734,"1524":0.004192021892470143,"1525":-0.01313015234129958,"1526":0.00884952617912563,"1527":0.010048425425658461,"1528":0.07071306477896457,"1529":-0.09034257744674003,"1530":0.057486353229696446,"1531":0.008933760984906136,"1532":0.1726569158150546,"1533":-0.03931546361816871,"1534":0.010180291362493538,"1535":0.005714685148285723,"1536":-0.0010289298119306905,"1537":-0.015447130034600397,"1538":0.08856168303246911,"1539":-0.07605826348010722,"1540":0.054428787534731744,"1541":0.004694425768186188,"1542":0.02855616414435156,"1543":-0.05129500453286536,"1544":0.08890807648670154,"1545":0.06112647577995898,"1546":-0.058081571867571534,"1547":0.05560770562879147,"1548":0.12921787509558616,"1549":-0.0873687561300496,"1550":-0.026132247996615048,"1551":-0.023176360118882224,"1552":0.06838975010776811,"1553":-0.03691646264476723,"1554":0.0035416006001924116,"1555":-0.040248783299333867,"1556":-0.04233944846517171,"1557":-0.0667158284271768,"1558":0.05939933946333985,"1559":-0.0625467821781758,"1560":0.04724274895945978,"1561":0.11626201808428757,"1562":0.04598732478908693,"1563":0.23483112847072485,"1564":0.044987899913047934,"1565":0.05060603693103159,"1566":-0.266096029885737,"1567":0.028309854588278883,"1568":-0.03485519364022775,"1569":0.02519376433433344,"1570":-0.03815053759916048,"1571":0.016520391296593606,"1572":0.009131644321059023,"1573":0.07957529858078803,"1574":0.11310256174858486,"1575":0.008142062987245579,"1576":0.004028041843458222,"1577":0.1867002029879143,"1578":0.08449448135331453,"1579":0.14436904895111677,"1580":0.08087944533034205,"1581":-0.02063226565965969,"1582":0.11578839571835244,"1583":0.08022281012676456,"1584":-0.16774496465923902,"1585":-0.07516254209761061,"1586":-0.37626556929025795,"1587":0.03900056140825391,"1588":-0.05999332230238137,"1589":0.11434587685322149,"1590":-0.04079508574753657,"1591":0.07041954374076263,"1592":0.006206474418842137,"1593":-0.06887160592344783,"1594":0.08634003845203367,"1595":0.05166366159636037,"1596":0.4223002796706557,"1597":0.016972848458606755,"1598":-0.07970058869461756,"1599":0.006204608250571445,"1600":-0.0190875974572405,"1601":-0.10664436314256445,"1602":0.05505124901784667,"1603":0.05175789899155027,"1604":0.21810658236651168,"1605":-0.043323338793744545,"1606":0.07022168422791895,"1607":0.023853579660468537,"1608":0.08464314438565827,"1609":0.10601240118727166,"1610":0.09346016987742078,"1611":0.007755974098881617,"1612":0.12618671596232645,"1613":-0.10583640334784543,"1614":-0.043527947353194624,"1615":-0.07190322919755296,"1616":-0.08895068304310517,"1617":0.021025825705288586,"1618":0.13924559550505536,"1619":-0.09420881337269407,"1620":-0.1106793010932043,"1621":0.20543993531312982,"1622":-0.18841232484623413,"1623":-0.11754298037118452,"1624":-0.15766483579747073,"1625":0.020439564741249604,"1626":0.046214978128248055,"1627":-0.040943280939133776,"1628":-0.14954158374021662,"1629":-0.11053678550171633,"1630":0.05233229578713854,"1631":-0.0947571937445709,"1632":-0.1412960104339165,"1633":-0.09175557325485886,"1634":-0.05787257018597825,"1635":-0.053721285399098186,"1636":0.0718825227153423,"1637":-0.038677286035225904,"1638":-0.2383985449666449,"1639":-0.07804473057841886,"1640":-0.2375943810406119,"1641":-0.08636212424648759,"1642":-0.03179553403829169,"1643":-0.11734238884386251,"1644":0.01329012166626114,"1645":0.05132535562576241,"1646":-0.07719415102268257,"1647":0.06739694248729393,"1648":-0.12348805812734852,"1649":-0.05290846540932048,"1650":-0.00047354348456323734,"1651":-0.013479253775888394,"1652":0.09951617524264345,"1653":-0.03616384334132656,"1654":-0.029678606090406363,"1655":0.07602856721691635,"1656":0.14564507933003495,"1657":-0.03718680468941296,"1658":0.04932184816090842,"1659":0.14912032412987986,"1660":-0.12399876324470199,"1661":-0.1036292841120972,"1662":-0.033344724595180536,"1663":0.007000346090574005,"1664":0.0030412012079176483,"1665":-0.03166051723688709,"1666":-0.13435877478758068,"1667":-0.07002637586020609,"1668":-0.021381198544264686,"1669":-0.07282406301061897,"1670":0.12805003420599861,"1671":0.15879118657097777,"1672":0.09284678835022238,"1673":-0.13570204100385522,"1674":-0.08537234944397369,"1675":0.18863280626183146,"1676":-0.10574498457394284,"1677":-0.04416828708459863,"1678":0.06780048464022898,"1679":-0.0655620092894936,"1680":0.4345175542181105,"1681":-0.007270805301646067,"1682":0.1145256229423489,"1683":-0.07556188907831614,"1684":-0.15479978258081958,"1685":0.191947302832932,"1686":-0.004636830097730646,"1687":-0.04321182488179159,"1688":-0.06832652020039,"1689":0.021611916730192568,"1690":-0.16915142795450547,"1691":0.2425603398324695,"1692":-0.149430575160044,"1693":0.08249371816476908,"1694":-0.1179085349124234,"1695":0.06409887521436175,"1696":0.14758685309444997,"1697":0.042120482669220784,"1698":-0.03910628765282583,"1699":0.07350127873104659,"1700":-0.15365167051062,"1701":-0.0733310927601173,"1702":0.0036072846398467907,"1703":0.014976652655568913,"1704":0.026968121627858513,"1705":-0.05701387228857486,"1706":-0.0496232587357288,"1707":-0.01370811340512436,"1708":-0.3287838746128839,"1709":-0.06449662520553395,"1710":0.0841952256158248,"1711":-0.022977827613307897,"1712":-0.05009965285440453,"1713":0.0734610106098814,"1714":0.016888052980492774,"1715":-0.029384681546404966,"1716":0.07025408490363955,"1717":-0.049960408250012384,"1718":0.0940052015765021,"1719":-0.006369419706844808,"1720":-0.03907755366789054,"1721":0.002051713797827459,"1722":-0.04749991672246664,"1723":0.07274167150735734,"1724":-0.18662156098938334,"1725":-0.008124809257809246,"1726":0.07149780695021929,"1727":-0.21198245545261257,"1728":-0.005278190696118657,"1729":-0.0642518352222567,"1730":0.012720322139782999,"1731":-0.141560339410253,"1732":0.1888089273692282,"1733":0.04004793395757925,"1734":-0.05875105602849966,"1735":-0.04892864390217197,"1736":0.05031291739881979,"1737":-0.09559048462555393,"1738":0.004610593553799357,"1739":0.05603868039672571,"1740":0.026025050698092835,"1741":0.12921482903781767,"1742":-0.08041440106305489,"1743":-0.028819275534882425,"1744":0.11305968356252234,"1745":-0.029852591731284246,"1746":0.006660075848389766,"1747":-0.10816264237257414,"1748":-0.02063016238102397,"1749":0.027758897179991388,"1750":-0.11063434805240732,"1751":-0.035748641773846575,"1752":-0.010325182732312008,"1753":-0.08206670976202712,"1754":-0.07928829625394274,"1755":-0.013190887556815429,"1756":0.162167875312753,"1757":-0.07726307408825238,"1758":-0.10200067155477878,"1759":0.11282927674084599,"1760":0.06960290799461735,"1761":0.09690738504829556,"1762":-0.050038898720126346,"1763":-0.041126057744059044,"1764":0.03632690120634253,"1765":-0.13897561721990362,"1766":-0.08355194989282362,"1767":-0.06925346030562088,"1768":0.031802335181978926,"1769":0.02978138502623827,"1770":-0.04313425430656126,"1771":-0.08485456824220253,"1772":0.07786774345634445,"1773":0.017372048907521087,"1774":-0.07584339705224664,"1775":-0.030219056529473806,"1776":-0.02217814540087812,"1777":-0.03741672034379285,"1778":0.05053696271437345,"1779":-0.10299247053410536,"1780":0.009938011501896707,"1781":0.17350228131089182,"1782":0.03245189457200329,"1783":-0.14653978021109879,"1784":-0.14432356622102646,"1785":0.11170322927071823,"1786":0.03224521666948102,"1787":-0.031392451761687236,"1788":0.05253924124526585,"1789":0.05911667854785166,"1790":-0.034602891039621206,"1791":0.05634040880137824}},{"sx":1,"sy":1,"depth":1792,"w":{"0":0.01775938415539968,"1":-0.0066125269531917726,"2":-0.041616034119570974,"3":0.01176016611081837,"4":0.018541147946576676,"5":-0.003545157363111674,"6":0.012499363471916282,"7":0.003629958888397289,"8":0.018245269326536646,"9":0.04530478338485816,"10":-0.026178816890744812,"11":0.015693224834965235,"12":0.04086919333441656,"13":-0.0468500142798423,"14":0.02738790862616724,"15":-0.013124608909861835,"16":-0.0014145583733661902,"17":-0.020374533143510534,"18":0.022898011804540413,"19":-0.014862613092528853,"20":0.01203611257124376,"21":0.02020104407022183,"22":0.0030413435360493986,"23":-0.007554895835396153,"24":0.0282611205287286,"25":-0.05438863342526275,"26":0.025630578246361432,"27":-0.00048549758608363046,"28":-0.021039804254401533,"29":0.009574183274362902,"30":0.07709150532622394,"31":-0.014330813231644892,"32":-0.0026029322017625187,"33":-0.029805938458527872,"34":-0.016665702560812148,"35":0.0010375189828927011,"36":-0.009093857087288975,"37":-0.008219172450664558,"38":-0.03908734037065489,"39":-0.003068980639974084,"40":-0.026570170417595202,"41":0.010768255408214179,"42":0.016418489976337842,"43":0.005773960019968385,"44":0.003576163899775018,"45":-0.0002887372553331808,"46":-0.06955034930856957,"47":-0.005169028288265602,"48":0.027965434595487098,"49":0.006712103343058642,"50":0.048183623516608876,"51":0.0006152026830001259,"52":0.041921762116599426,"53":-0.05760040334496242,"54":0.03463638401206272,"55":-0.019404578280853284,"56":-0.015317729539086137,"57":0.06328320112099761,"58":-0.010905472813753663,"59":0.00823037767520031,"60":-0.047522136889966815,"61":0.022380723195003182,"62":0.004441190408992896,"63":-0.044307255360509626,"64":-0.035608685679414234,"65":-0.004533704326632791,"66":0.016780981849964138,"67":-0.021087134986422597,"68":0.011380941970359047,"69":0.011921997994924475,"70":0.04755570305763063,"71":-0.055020702120384735,"72":0.013445430657460698,"73":-0.07431715954031999,"74":-0.0011441444317824422,"75":-0.01809677321157916,"76":0.06214992900051835,"77":-0.047047679192699886,"78":-0.0004262188164018834,"79":-0.028961945502090032,"80":0.05584324335219373,"81":-0.03145604816548903,"82":-0.03643568676247129,"83":-0.06853253635869354,"84":-0.042711729420185106,"85":0.014476165976400685,"86":-0.06227084125592939,"87":-0.015553490747461044,"88":-0.08256813538629054,"89":-0.008518783253567364,"90":0.01930279187406712,"91":-0.01618394609626931,"92":0.04818417586842415,"93":0.01519154747663683,"94":-0.026048993383683584,"95":0.054540423182566786,"96":0.04431862790399087,"97":-0.07259404407436326,"98":0.02433996957581445,"99":0.0446217629562688,"100":-0.06816857218148545,"101":0.013023774136093041,"102":0.007557951151709343,"103":0.035546233943596545,"104":-0.043169268783040414,"105":0.1086494865553187,"106":0.00430734748193972,"107":0.037820420137376645,"108":-0.03711598695655379,"109":0.0010872221702028261,"110":-0.030150064579659918,"111":0.034379708043322924,"112":-0.027846920686433727,"113":-0.049570832380925016,"114":0.014293276120253396,"115":-0.009093063562782661,"116":-0.0029009090087452295,"117":0.021674841408825068,"118":-0.030799746900945533,"119":0.01333011287050855,"120":-0.0734858395429879,"121":-0.03371192115818247,"122":0.01726386548525641,"123":-0.013528911590907328,"124":-0.07341252543924315,"125":-0.08828786520750848,"126":-0.021934854544192046,"127":-0.017427611014879867,"128":0.009375744662047382,"129":0.014849913313262764,"130":0.01426890350529746,"131":-0.0032160538554284455,"132":-0.0010797225474740745,"133":0.039188946563155004,"134":0.07441380624504976,"135":-0.04099173767570073,"136":-0.02583268318207688,"137":-0.04298738295397395,"138":-0.015659569813821137,"139":-0.03187018009411596,"140":-0.00188832161542634,"141":-0.03694458016079883,"142":-0.009676152697951856,"143":0.032531777409721484,"144":0.015125619886813296,"145":0.04958441981180775,"146":0.0026173991448570403,"147":0.05575508116795434,"148":0.045218238067830686,"149":0.013994767411230954,"150":-0.010272860540555429,"151":-0.04049364635119609,"152":-0.03246617085808778,"153":0.044764111544513506,"154":-0.09122819593196342,"155":-0.06709794880799407,"156":0.013157482929549208,"157":-0.01959058905626529,"158":0.023216493396671027,"159":0.007493032199381244,"160":0.02995662110887689,"161":-0.0419308896171105,"162":-0.024150216383120742,"163":-0.054898785835207874,"164":0.007946242186940877,"165":-0.06336382265316809,"166":-0.03346793443208533,"167":0.019641259686976345,"168":0.0019198844264919342,"169":-0.012760930973537365,"170":0.022593189189953615,"171":0.04432164605918198,"172":-0.03532751530685225,"173":0.03152363327496444,"174":-0.013784582435467579,"175":-0.05422006416057671,"176":0.021865399135941804,"177":-0.012638889556585363,"178":-0.018831711907401325,"179":0.022774497683082373,"180":-0.0027737450191828153,"181":0.02363400969401641,"182":-0.02511775068488413,"183":-0.030488135897165255,"184":-0.024500182003241933,"185":0.011174862667730722,"186":-0.0912411699279429,"187":-0.017950800449426433,"188":-0.06251264284654241,"189":-0.07272288312935994,"190":0.01502279979043023,"191":0.012533911121979808,"192":0.005516037217873743,"193":0.00976420292501061,"194":-0.016950344952220118,"195":0.026402067230546687,"196":-0.0162963819506245,"197":0.047896484180822485,"198":-0.05054498355105929,"199":-0.015453726528481222,"200":-0.053022456464439226,"201":-0.02389391006430361,"202":-0.007432184167807978,"203":0.001856491379025232,"204":0.020952485239820576,"205":0.004131183491476114,"206":0.014389368741012683,"207":0.015391322083924009,"208":-0.007410457301885564,"209":-0.03869118239506899,"210":-0.03100983769590928,"211":-0.013874442181702692,"212":0.036158415268467116,"213":-0.012587802199671507,"214":0.06782856752852873,"215":-0.012147162195121287,"216":0.0601725272271389,"217":-0.0038124030591106762,"218":-0.04948958329719638,"219":-0.009861225436939229,"220":0.026516585358403608,"221":-0.031252610533054524,"222":0.030871941266160968,"223":-0.020447640057353743,"224":-0.002279917334339045,"225":0.014038649922219173,"226":0.01873636831804736,"227":0.02922206232650534,"228":-0.01712413831133136,"229":0.02883331128721769,"230":-0.029843039124409138,"231":-0.014387068150806561,"232":0.016393365044374317,"233":-0.02334176983126164,"234":-0.056369071820998554,"235":-0.0021545603689889087,"236":-0.0009723396852963276,"237":-0.009065600857795954,"238":-0.012384772333454782,"239":-0.017413513553418334,"240":0.012962388633848253,"241":0.01706994187329705,"242":0.03769594873284398,"243":0.0004906764625071981,"244":0.013757780159814456,"245":0.000009577465186226076,"246":-0.010616545003428336,"247":-0.04620113920463321,"248":0.048685767512627216,"249":-0.008794174613811111,"250":0.02734678845114342,"251":-0.0021064453747527793,"252":-0.021685164614641966,"253":0.028555244197091344,"254":0.011482455949256311,"255":0.03327595292489538,"256":-0.03106857653596123,"257":0.026979211333047946,"258":-0.023520139354638307,"259":0.0031979082841142492,"260":-0.014463670774455236,"261":0.002558049203500507,"262":0.03358574700734496,"263":-0.0619137167315239,"264":-0.009102830540626166,"265":-0.01562691336241989,"266":-0.06369056602517509,"267":-0.0011908997885064997,"268":-0.09470817530080314,"269":-0.025613967882413973,"270":0.07347302658062396,"271":-0.010086114331950308,"272":0.03263857023473755,"273":-0.049945208034942304,"274":-0.018653980128110433,"275":0.03673422635657602,"276":0.06509309703955758,"277":0.02225011400132587,"278":0.0547264694527178,"279":0.03749585019833231,"280":-0.005926243568611715,"281":0.03998708795187775,"282":-0.062464289686409255,"283":-0.012912795965766869,"284":-0.027864740232069536,"285":-0.04605748497381549,"286":-0.01652669561823953,"287":0.045238751232835064,"288":0.007284229783493613,"289":0.08487049819527198,"290":-0.01605845291826032,"291":-0.024704689537235845,"292":0.00736458274965541,"293":-0.027604094867517297,"294":0.0004952592407325414,"295":0.006911349692529178,"296":0.045860606308485465,"297":0.008010640680254253,"298":-0.02987614815226208,"299":-0.01077766932755285,"300":-0.03132995159114655,"301":-0.019387792110714504,"302":-0.08886876059842184,"303":0.00946068070532628,"304":0.037564112180981275,"305":-0.06734071052850633,"306":0.01944968185636888,"307":-0.019606941018920916,"308":-0.055531932674811685,"309":0.06088766342804004,"310":-0.027081065219309957,"311":-0.0023835680090996624,"312":0.027548367603224454,"313":0.07070954160886114,"314":0.06669152501751437,"315":-0.041832053208206335,"316":-0.005738937124208168,"317":0.04757086234071959,"318":0.009544159234388857,"319":-0.014360988257911749,"320":-0.015381248062041202,"321":-0.06444111877169648,"322":0.02856895039937294,"323":-0.05954535307152955,"324":-0.03915925994284459,"325":0.030742832808527167,"326":-0.13536322283274738,"327":-0.08972768946822872,"328":-0.04544606186811803,"329":0.0025113414350343114,"330":-0.0660968673260154,"331":0.03595232494525526,"332":0.11427352201187913,"333":0.010699127292891847,"334":0.12294736198180296,"335":0.016565453567893802,"336":-0.0319321807948345,"337":-0.04029229266756602,"338":-0.02894407539995384,"339":-0.07686259415088113,"340":-0.08530207439358493,"341":0.05069808439228127,"342":-0.00806718762893063,"343":-0.010589297544294234,"344":0.07584206104528315,"345":0.10032346019038962,"346":0.029823909810924885,"347":0.0304764753328879,"348":-0.042013430502712064,"349":0.004957079246396242,"350":-0.0014536910893304836,"351":-0.03297558767780871,"352":0.0464095353786728,"353":0.038953208786428335,"354":0.013471672878262555,"355":-0.006276236416532618,"356":-0.05106847417146767,"357":-0.019662092654951693,"358":-0.00225192121690626,"359":-0.06752279736008618,"360":0.05312801009783393,"361":-0.02937224556392459,"362":-0.024802736458254006,"363":0.0067217595517324764,"364":0.11432916900336322,"365":-0.03663214990298339,"366":0.09063897025470345,"367":-0.04052757153387084,"368":-0.020234603275849146,"369":-0.05223850768857305,"370":-0.09822704290109119,"371":-0.09220994263030914,"372":-0.031979202727422155,"373":-0.0113330058262349,"374":0.003175083301199254,"375":0.11645791050798177,"376":-0.04246378731573159,"377":-0.05541899289243155,"378":0.05354243128949401,"379":-0.05146272280877629,"380":0.10541536761923744,"381":-0.005950937081165191,"382":-0.018774827964744178,"383":0.12324678574867691,"384":0.025742388155042876,"385":-0.04142758876583,"386":0.09012793562307599,"387":0.0019452762026596832,"388":0.06174185277639153,"389":-0.012265398810654955,"390":-0.02442210648016279,"391":0.07300684436515191,"392":-0.08282301486136466,"393":0.20733972515777338,"394":0.06779353836333578,"395":-0.03762542025842032,"396":-0.04634394829358152,"397":-0.08884626562535566,"398":-0.03932064695729978,"399":0.10012727215053153,"400":-0.015410498944021715,"401":-0.028964485558796164,"402":0.07362745308122708,"403":-0.024776582197758787,"404":-0.08853871399195276,"405":-0.08905880953295205,"406":-0.0994507853161152,"407":-0.023782291929616898,"408":0.012373699200385916,"409":-0.030092705923163134,"410":-0.050261756192257395,"411":-0.07253208195582372,"412":0.05404735020498037,"413":-0.07955221708617466,"414":-0.02944245370538335,"415":-0.044647786011372294,"416":-0.02180191874074365,"417":0.04499382925514999,"418":-0.008238548935122308,"419":-0.09197963779510991,"420":0.06398944528825326,"421":-0.00313974169854043,"422":0.09042241374819762,"423":-0.031352041031327646,"424":0.02671745116714493,"425":-0.03882967887851751,"426":-0.039869376606274064,"427":-0.15417779953370486,"428":0.037146870006433956,"429":-0.035777744303109864,"430":-0.038084166283219506,"431":-0.0011953942995424976,"432":0.04440111632348126,"433":-0.033540517264325456,"434":-0.05122078362531914,"435":0.03131738394432483,"436":0.02633419036849232,"437":-0.03716871502278653,"438":0.027741711293719464,"439":-0.041599730985445685,"440":-0.04307054456434925,"441":0.10482345059523351,"442":0.07782274687009645,"443":0.03253912450088958,"444":-0.05836930475545811,"445":0.18357653408109223,"446":0.00027237400473723597,"447":0.06248004610870259,"448":-0.0013144945041056884,"449":-0.04983927303506656,"450":-0.10248892403292612,"451":-0.05714740905024427,"452":-0.06155523663181403,"453":-0.0016317329777680294,"454":0.008995787708350855,"455":0.03631179454463394,"456":-0.045799842815820675,"457":-0.05687458613932066,"458":0.05226825045694893,"459":0.013203677670773975,"460":-0.04603357462307387,"461":-0.043401942837717755,"462":-0.008627034837433423,"463":0.015616945749034588,"464":0.0280888883967468,"465":-0.004306347522546789,"466":0.07239606454018443,"467":-0.040212901411798674,"468":-0.018340758005497657,"469":-0.043064253845331406,"470":-0.057261339726652115,"471":-0.0062279826579600345,"472":-0.015535058404270503,"473":0.022762399032336227,"474":0.02628188037474231,"475":0.012353298837440994,"476":-0.029317360653907366,"477":-0.047920006123079256,"478":-0.06257824603844764,"479":0.026646291496979432,"480":-0.0036400514520063885,"481":0.037641161328090506,"482":-0.00608132108240887,"483":0.02316381757804755,"484":-0.003699893428404887,"485":-0.004095137894321606,"486":-0.012675987731005539,"487":-0.027739596924698736,"488":-0.012141977410164945,"489":-0.05033779703031259,"490":-0.01638060510929931,"491":-0.0530173756918333,"492":0.003989702069854331,"493":0.004181033660918623,"494":-0.01893843035830115,"495":-0.022623517144068697,"496":-0.018225986840260073,"497":-0.009517391939634506,"498":0.023598585512004094,"499":-0.016244635306978127,"500":0.020594022624007297,"501":0.03326302688667078,"502":0.020481245859759235,"503":0.034164683537801194,"504":0.005410848309972384,"505":0.006855917460250359,"506":0.036742503722940446,"507":-0.011917684698805752,"508":-0.09547512951503696,"509":-0.04813433679988269,"510":0.010108927095409797,"511":0.10075588066460721,"512":-0.05158546168120464,"513":0.016544772785446613,"514":0.019798976714312716,"515":-0.012779053889421226,"516":0.04025707096038633,"517":-0.0005361692687752634,"518":-0.027757264398423527,"519":0.0023694333276487976,"520":-0.00010876768933081862,"521":-0.0006086978575576854,"522":-0.07043986879995204,"523":-0.00742330512149664,"524":0.021174200566908354,"525":0.022080180676584463,"526":0.004117600878161526,"527":0.053402753582796086,"528":0.021823605916478268,"529":-0.006386470182896117,"530":-0.02159678495399455,"531":-0.002875004122661228,"532":-0.028074036465051046,"533":-0.06758525961648369,"534":-0.05238877346012957,"535":-0.050068349499746215,"536":-0.11303000624643314,"537":-0.003251272628273417,"538":0.011102646927292209,"539":0.02993269885320647,"540":-0.11973681658992211,"541":-0.06979793086853525,"542":-0.037904834637939505,"543":0.020479279747943273,"544":0.061459249462668133,"545":0.042978277542307354,"546":-0.13698657507969542,"547":-0.02136368408756238,"548":-0.04076804409219001,"549":-0.015399020152066718,"550":0.002299639241671742,"551":-0.09445408027559017,"552":0.032111776169297564,"553":-0.10314823387241634,"554":-0.10835178005808702,"555":0.07652513380799242,"556":-0.021723022531552796,"557":-0.050291449302999496,"558":0.06883535262832509,"559":0.03890430935553157,"560":-0.04786653430521663,"561":-0.008249560008631338,"562":0.060810658153261185,"563":0.04048059503259693,"564":0.0891328582298763,"565":0.010009245423470285,"566":0.08762877110276068,"567":-0.18237974655268815,"568":0.08630468511574234,"569":0.04103200072904072,"570":-0.07670472878023789,"571":-0.05349248748093119,"572":-0.12686374839917314,"573":-0.01247798455071258,"574":0.009691877827126834,"575":0.056923118626347,"576":0.05010601871832655,"577":-0.00901744059371662,"578":-0.025106599711280264,"579":-0.08173951692516263,"580":0.028358737692149028,"581":0.03771597435910781,"582":0.02573282547420728,"583":0.054529817614510305,"584":0.08590414476324763,"585":-0.10909387337938412,"586":-0.07670891440567637,"587":-0.03716704136897205,"588":-0.022519260490153792,"589":0.018037865041916682,"590":0.04491763944931008,"591":-0.18170920360866286,"592":-0.006901698720603968,"593":0.1497597739591008,"594":0.04579834768125507,"595":-0.034661136186563,"596":-0.09028044201828835,"597":0.0271932212660489,"598":-0.10221086528869733,"599":-0.09031671181656667,"600":-0.07442921761693479,"601":-0.022101868263087437,"602":-0.001809770242814574,"603":0.012057460425945894,"604":0.025985537634448434,"605":0.1223540731688534,"606":-0.0036283339412301516,"607":0.023441812637489068,"608":-0.002765450465212803,"609":-0.04095282344615039,"610":0.01190414775502654,"611":0.044442250355434254,"612":0.0006862427417769056,"613":0.025725459540051402,"614":0.006949529218177424,"615":0.0038869930438475892,"616":0.018258821188205987,"617":0.02290037618258169,"618":0.04365721040155123,"619":0.011928027340443894,"620":-0.013772528124091446,"621":0.01897300361796961,"622":-0.0063550662401512135,"623":0.01778631793013606,"624":-0.14852093801328015,"625":-0.03392428284518691,"626":0.04377393306646493,"627":-0.012909331363068682,"628":0.06763928026339851,"629":0.05733048869843971,"630":0.0891055558039745,"631":-0.0437317779328603,"632":0.05269708771216237,"633":0.10357478860792765,"634":-0.033630375243504734,"635":-0.05759122213832919,"636":-0.057311169813183155,"637":-0.0872743930510988,"638":0.019947320716043278,"639":0.03937761197466366,"640":-0.0037164172335568866,"641":0.052483262272425994,"642":-0.09503055728930097,"643":-0.05662867783737893,"644":0.0763949356893727,"645":-0.0034447716501416776,"646":0.03759511914223252,"647":0.060315332436435894,"648":0.007616649942339626,"649":0.08884586852565514,"650":-0.05872520346690619,"651":0.03665727093156256,"652":0.0025735194835513195,"653":0.04267255620468699,"654":-0.04684504641439325,"655":0.0037504539288519857,"656":-0.09687125296201655,"657":-0.08130255103559275,"658":-0.16597903998714977,"659":0.18701558300371118,"660":-0.09858677262901966,"661":0.1708275519201084,"662":-0.04477849622289115,"663":0.031947474273000924,"664":0.014939942429705066,"665":0.0003555811051893154,"666":0.03868210343097766,"667":0.06376047012897702,"668":0.2959412254676022,"669":0.03367774576752808,"670":-0.07158577935134385,"671":-0.15550558452513383,"672":0.025622161623236203,"673":0.04538785058262204,"674":0.09380414475809264,"675":0.053696692329186176,"676":-0.05930179907054077,"677":0.011278591114226329,"678":-0.038285161041284876,"679":0.007666652271819096,"680":-0.009373759525647372,"681":0.0567854099182538,"682":0.012550871841267647,"683":0.013784640199767464,"684":0.0024715651155162656,"685":0.0008807106150962522,"686":0.08602097202799777,"687":-0.03880812285199153,"688":-0.08615084555479992,"689":0.015764757388770152,"690":0.04852989440836587,"691":-0.023763000848742565,"692":-0.06814987857405881,"693":-0.008204048999171572,"694":-0.03512587345275648,"695":-0.011738408892635626,"696":-0.10400832526723862,"697":-0.019164977355791306,"698":-0.01560469533125203,"699":-0.040578587437275944,"700":-0.013799448009946712,"701":-0.08880001506134012,"702":-0.0016964275240401565,"703":-0.04107499631892385,"704":0.011158303060408988,"705":0.01788824530821303,"706":0.04305140193277432,"707":0.03510282069295073,"708":-0.020271238549988406,"709":-0.0547308749186042,"710":-0.01208452367697288,"711":0.009820718542043028,"712":0.0040297839860163115,"713":-0.038491246555459276,"714":-0.03945525973964857,"715":0.0018243152330668585,"716":-0.023695774798387463,"717":-0.0024515923794686477,"718":-0.04550703419050654,"719":0.04092635031886919,"720":-0.0161165353021993,"721":-0.020891460797699882,"722":-0.04021402558264662,"723":-0.0003439904383634729,"724":0.0015160100913610046,"725":-0.034456635980054676,"726":0.022309579698931697,"727":0.0314106549671833,"728":0.051476724566253323,"729":0.00165767318239611,"730":0.015000443447062844,"731":-0.024702274486882603,"732":0.06394448181477792,"733":-0.003785020422328839,"734":0.017680081009151274,"735":0.05176695206335989,"736":0.01550775286979397,"737":-0.006073279903184713,"738":0.02470983807648762,"739":-0.012145356121009586,"740":-0.00028784214933487716,"741":0.015522346582192207,"742":0.0006818702598951523,"743":0.03386828441135082,"744":0.002069056126457693,"745":-0.01501475059898465,"746":-0.03595410208117671,"747":-0.07746584769196549,"748":-0.031837673419616914,"749":0.028134416764861263,"750":-0.0008705038728316359,"751":-0.048882089458662646,"752":0.013941075182877866,"753":-0.0058880294801423524,"754":0.02464615206411675,"755":0.016063229030143397,"756":-0.005173356879232882,"757":-0.02656674119907527,"758":-0.009412153350749082,"759":0.02217915487925951,"760":0.025437023333439196,"761":0.012220271612032237,"762":0.03791359469230999,"763":0.024731130311795108,"764":0.03174122989940598,"765":-0.011793200381557213,"766":0.04742778090815039,"767":0.05796310223526775,"768":0.002048766818262572,"769":-0.04443196978434421,"770":-0.015179576555143728,"771":0.07789552206632662,"772":-0.03380267731110223,"773":0.008043776069749747,"774":-0.03263979263529726,"775":-0.028200290976542305,"776":-0.022027357743425943,"777":-0.011334691886516477,"778":0.021055629129998893,"779":-0.02947164011385438,"780":0.018334311701219578,"781":-0.016303293558299712,"782":0.015713113567403812,"783":0.015132165035848365,"784":-0.03839085164056506,"785":-0.04054891863991615,"786":-0.05775329272940898,"787":0.010861845339656891,"788":0.01881851324909949,"789":-0.0070550998824305995,"790":-0.0031619147069109396,"791":0.09416609526240427,"792":0.005881498937636289,"793":-0.06382295905183966,"794":0.029706467702249998,"795":0.0038370336469251225,"796":0.048731771584353246,"797":0.021163122419020578,"798":-0.04479012505593796,"799":0.02439765944982011,"800":-0.022777445302271434,"801":0.007858605831973174,"802":0.024009064944812787,"803":-0.03117986137608612,"804":0.03159594766363337,"805":-0.026187100845705368,"806":0.019198219856408502,"807":0.08774070856800655,"808":0.038094228634838474,"809":-0.031159576207127303,"810":0.019240688267374007,"811":-0.039727783388186035,"812":-0.017395529045695832,"813":-0.047677282371590836,"814":-0.018947413959315467,"815":-0.010297030946199543,"816":0.13410632464126457,"817":0.019171000033896657,"818":0.036239541656055876,"819":-0.034130595746050624,"820":-0.005683892112282269,"821":-0.0861471208075696,"822":0.006655135467654015,"823":0.024051949144275258,"824":-0.006462586159237617,"825":0.0035684963080993186,"826":-0.002833090675620554,"827":0.09734218896559338,"828":-0.07019684346867007,"829":0.007232558047543752,"830":-0.02233813151083019,"831":0.015050287474322672,"832":0.010099638060740126,"833":-0.05365575440074316,"834":0.051776153454070446,"835":-0.014827375454406036,"836":-0.15079162279023223,"837":-0.070328924431339,"838":-0.021218875977316504,"839":-0.0670819717911499,"840":-0.018268979372831166,"841":-0.0256391540266094,"842":0.147917839534586,"843":-0.01099742737996704,"844":-0.2277898783974733,"845":-0.03417560523722874,"846":0.07748421550239588,"847":-0.02872187976830324,"848":-0.10139424624308792,"849":-0.010490674364641184,"850":-0.025195647463019128,"851":0.07632437416504068,"852":0.10882661329084647,"853":-0.046639892065703785,"854":0.14043255674221097,"855":0.045536101238297724,"856":0.05589298875124537,"857":0.020895158422726635,"858":-0.03373384991476765,"859":-0.014943952387104428,"860":-0.12791831808218687,"861":-0.03595699089199171,"862":-0.019719749427401047,"863":0.16027832304637651,"864":-0.038409302018198914,"865":0.0850241935084105,"866":-0.03737700952169961,"867":-0.05518296874376811,"868":0.08396826783696534,"869":-0.01884485289016875,"870":-0.059004450092522275,"871":-0.07612898136721066,"872":0.030733331710778324,"873":-0.07270601747239981,"874":0.061626776609412424,"875":-0.0003378184555632285,"876":0.01608586303772624,"877":0.0009667276061150706,"878":-0.02592431347099161,"879":-0.05906860689143856,"880":0.027120941770755483,"881":-0.014773915516860504,"882":-0.015581660675738528,"883":0.03926649214303345,