{"layers":[{"out_depth":2,"out_sx":7,"out_sy":6,"layer_type":"input"},{"sx":4,"sy":4,"stride":1,"in_depth":2,"out_depth":32,"out_sx":8,"out_sy":7,"layer_type":"conv","l1_decay_mul":0,"l2_decay_mul":1,"pad":2,"filters":[{"sx":4,"sy":4,"depth":2,"w":{"0":-0.10027410328894604,"1":-0.16515115934530147,"2":0.014818381984137938,"3":0.5891228406048137,"4":0.4793669275932501,"5":-0.5786614893888447,"6":-0.6955208724436722,"7":-0.04474206588283666,"8":0.2406007388527454,"9":-0.3183874028244655,"10":-0.20667614157473913,"11":-0.5595067011423311,"12":-0.18110782918840873,"13":-2.4914703151690207,"14":-0.14402708077749796,"15":-0.09578253717468731,"16":-2.6089431226594386,"17":0.058875365309915745,"18":-0.32866725050715256,"19":-0.23261137790677633,"20":-0.15947910539119822,"21":-0.5459344786260051,"22":-0.6574698649473496,"23":-2.4516473325043107,"24":1.6771559045976754,"25":2.3360144944767023,"26":-1.0894590537206437,"27":1.5841584070063364,"28":1.0679571712144986,"29":-0.822458196597495,"30":-0.04170234864928229,"31":0.30746973057385285}},{"sx":4,"sy":4,"depth":2,"w":{"0":0.05370432121952668,"1":-0.1617915426017445,"2":0.03199703356194249,"3":-1.0091088702651707,"4":0.3948550962726291,"5":0.16282069039541106,"6":-0.33579106514833207,"7":-0.024999095455107794,"8":-0.11003216868523598,"9":-0.44351559091747145,"10":-0.030247934628297734,"11":-0.15842067252206485,"12":-0.5552292017540855,"13":1.7788975752991485,"14":-0.7476336573518724,"15":-0.16336220010887167,"16":1.7723590323505143,"17":0.19022858175009685,"18":-0.023900896206573135,"19":-0.4688691741739722,"20":-0.10606861260734075,"21":-0.19009892695315947,"22":-0.6597997306001211,"23":2.8697990070371,"24":-0.5944532626149215,"25":0.0671134831929655,"26":1.594484608432358,"27":-0.03144516137920543,"28":-0.17062211196109345,"29":-0.06505705785130776,"30":-0.16625172629213947,"31":-0.05718317743348996}},{"sx":4,"sy":4,"depth":2,"w":{"0":0.05977303947579578,"1":0.471052706676987,"2":0.3970008690651622,"3":0.6385774062367524,"4":0.05160265109637878,"5":-0.17338784353446676,"6":-0.4682203206069158,"7":0.3978069223062488,"8":0.27978004086622393,"9":-0.3923297383192665,"10":0.056366418586571015,"11":0.2326453129794643,"12":-1.8671670261404851,"13":0.17492547335407305,"14":0.24075449098713353,"15":-0.0623895189894497,"16":-0.032011565873137394,"17":-0.16074872863213482,"18":-0.2462364359938766,"19":-0.5969941784167853,"20":-0.17699193397474422,"21":-0.3556637326775114,"22":-2.1874579342467233,"23":-0.7031037596505718,"24":1.1508903895896112,"25":-1.3755261778036536,"26":2.3140292170304453,"27":2.038082090852539,"28":1.456768208005601,"29":-0.9694363363164671,"30":-0.019379055459988012,"31":-0.40861232869882913}},{"sx":4,"sy":4,"depth":2,"w":{"0":1.910040614644072,"1":-1.0885771932617585,"2":3.3051308626764597,"3":2.211566090432738,"4":1.6055061373969224,"5":-0.7970351837912902,"6":0.13669924575468242,"7":-0.265123627834937,"8":-0.42444337047671843,"9":-0.2858360019554782,"10":0.018908549688221955,"11":-0.07992923630054911,"12":-0.17168746691579967,"13":-0.17043426271337322,"14":0.0006871806256442052,"15":-0.7349704426009616,"16":-0.3141427017300008,"17":-0.009206533007995947,"18":-0.3771847599005475,"19":-0.01165610515525337,"20":-0.3252854577113898,"21":-1.1398915706509172,"22":-0.1304675695525735,"23":-0.12706598544477787,"24":-1.751144844844418,"25":0.044877229372414236,"26":-0.01586030507876294,"27":-0.04905864756601636,"28":0.15852624210494265,"29":-0.36852962027667713,"30":-0.1666159851939555,"31":-3.690016374640896}},{"sx":4,"sy":4,"depth":2,"w":{"0":-0.1379206454266844,"1":1.9984594556800956,"2":-0.2792568227186362,"3":-0.04097260935821022,"4":0.07914024296838607,"5":-0.01630900779689334,"6":-0.6849342069753701,"7":-0.138618669127237,"8":-0.0665215625520421,"9":0.0340976788621344,"10":0.0713629620101383,"11":0.751003462947999,"12":0.2533465242398674,"13":0.29231877169459797,"14":-0.20429458884339596,"15":0.326951295248643,"16":0.2317593581943279,"17":-0.34446815334199904,"18":-0.3134367743534778,"19":-0.5179910874910437,"20":-0.10357033223549043,"21":-2.141808393059181,"22":-0.07259656891620589,"23":0.060805404944761644,"24":-2.520635493357946,"25":-0.11687953841457585,"26":-0.2726458424784728,"27":-0.9556906678306504,"28":0.5943216212535918,"29":1.238773864716481,"30":0.7677817003217691,"31":-1.6308051070411842}},{"sx":4,"sy":4,"depth":2,"w":{"0":-0.6335192179196566,"1":0.06639759789929495,"2":-0.19545386556833083,"3":0.22532162604571107,"4":-0.7873335830262566,"5":-0.376571687883201,"6":0.32549920565950025,"7":0.4946295685598408,"8":-0.24610483932505994,"9":-0.3544076283226518,"10":-0.12870552142077363,"11":0.6601205009085914,"12":-0.2691997812297649,"13":-2.1177590098183963,"14":-0.5543234835086586,"15":-0.6121469068459687,"16":-1.5346600927032916,"17":-1.26648763904012,"18":-0.28931113248744184,"19":-0.23244974975514193,"20":-0.06076764086791064,"21":-0.09412146707940898,"22":-0.27301383863998896,"23":-1.9665918131470774,"24":0.3527061968994481,"25":0.43290064819403695,"26":-1.0842606018262015,"27":2.848677227979754,"28":1.812113690928111,"29":0.7261330578817584,"30":-0.8158363959551868,"31":-0.6598384458977473}},{"sx":4,"sy":4,"depth":2,"w":{"0":-0.7913786175089215,"1":-0.6437173038540904,"2":-0.6610222123631279,"3":-0.20000188704864963,"4":0.9230191734771591,"5":0.5409190619810702,"6":0.15466901020526067,"7":-1.2206853454809967,"8":-0.774296411390505,"9":-0.15661789760014705,"10":-1.101918565816968,"11":-0.15289672338792246,"12":-0.24989915046919872,"13":0.03790569603692651,"14":-0.3467717683648468,"15":0.022148584441604523,"16":-0.9851202236005658,"17":0.8585929607384286,"18":1.1334480397540978,"19":0.6704550887921221,"20":-1.5488171488973268,"21":-0.2211502096006558,"22":-0.834405362450925,"23":-0.11581041728480769,"24":-0.4703807255550488,"25":-0.45072797004812587,"26":-0.392496147164768,"27":-0.20670233226890095,"28":-0.8936504533599595,"29":0.03183189601302232,"30":1.1715362503253859,"31":0.40784350006272346}},{"sx":4,"sy":4,"depth":2,"w":{"0":1.0249046358873741,"1":-0.037810408674524704,"2":0.2045222871302083,"3":-0.6902619478403931,"4":-0.35365198636382605,"5":-0.1743638575444415,"6":0.2171222393875925,"7":0.42732682055518734,"8":-0.36041764067880594,"9":0.39829446433250765,"10":-0.44913643657545677,"11":0.08537301366013869,"12":0.312468671416122,"13":-0.3339822079753778,"14":-0.09389729808337909,"15":-0.27485181426608146,"16":-0.18694346014000082,"17":-0.09105325841483598,"18":0.10237365441864367,"19":-1.319362952358833,"20":-0.17832312660436386,"21":-0.3300815734654366,"22":-0.1354176334409485,"23":-0.02385029980909967,"24":0.07813886549312374,"25":0.33121457375008995,"26":-0.7609898572021163,"27":-1.1278250847991316,"28":-1.668028201045074,"29":3.3701707234379996,"30":-1.748933919265342,"31":-1.3096527577083223}},{"sx":4,"sy":4,"depth":2,"w":{"0":0.015858501457071995,"1":-0.10139248743231431,"2":-0.12658313023589704,"3":-0.545442104787346,"4":-0.6874411514049007,"5":-0.45755634501268927,"6":0.5532653575692943,"7":-0.1873839588330151,"8":1.341968226250833,"9":-0.5550215284511409,"10":-0.8768228746590363,"11":0.33845560720942125,"12":0.2899074288060232,"13":-1.9121793157620635,"14":1.5465523436980435,"15":0.19723461755408048,"16":-1.845212690425256,"17":-0.6280461569256967,"18":0.11635822001819462,"19":0.2026663132087905,"20":-0.11681010162072629,"21":0.05048950564050305,"22":1.1688600115866445,"23":-0.2128392242723339,"24":1.0557331223820716,"25":-0.5590345462480816,"26":-0.135685404330536,"27":0.02162640231865306,"28":0.10997190919624661,"29":0.03888971009630717,"30":-0.18675531978364862,"31":-0.18998735610567663}},{"sx":4,"sy":4,"depth":2,"w":{"0":0.13932186011165512,"1":0.042592687425430015,"2":-0.10180081974526725,"3":1.2724858908409897,"4":0.12652336165473205,"5":0.08158510209972895,"6":0.3804941325574931,"7":-0.6530910760159223,"8":-0.16483007982222564,"9":0.204613812993896,"10":0.08267078193936134,"11":0.1171972779170909,"12":0.24043153710976642,"13":-1.8468973005620772,"14":0.47842305092147763,"15":0.05900461666151293,"16":-2.449463033995442,"17":1.0313882112827564,"18":0.14366225566408167,"19":0.2588870163040783,"20":-0.32164529305365736,"21":0.1804757673319648,"22":-0.020616123069237758,"23":-1.9252416825160512,"24":-0.20665609884694547,"25":1.228922959099173,"26":-1.2622776234520348,"27":0.4708945403293617,"28":0.5637826688911931,"29":0.6189704601228831,"30":-0.5437044162874647,"31":0.5073268216553551}},{"sx":4,"sy":4,"depth":2,"w":{"0":0.3746930475016075,"1":0.22195673432917803,"2":-0.35877890748903696,"3":0.09918589646741166,"4":-0.22951778701953085,"5":-2.617971109623237,"6":-0.16479776185241282,"7":0.18846697611799224,"8":-1.1164344959827883,"9":-0.024666202341189665,"10":-0.1774159144980037,"11":0.3369746893549136,"12":-0.31530840052775444,"13":0.016396186650209935,"14":-0.2606979513251854,"15":0.25172515986913424,"16":-0.10334462496240647,"17":-0.281830567512011,"18":-1.4208374197025826,"19":-0.2612862694422101,"20":0.13359030937603114,"21":0.10024466771943469,"22":-0.1472475468148181,"23":0.06523236191953032,"24":0.3489521454635196,"25":-0.39250870663791304,"26":-1.0325222868531208,"27":-1.3244158774189168,"28":3.4897280848532435,"29":-1.1456923284364786,"30":-1.0257904113576737,"31":-0.6610662471462485}},{"sx":4,"sy":4,"depth":2,"w":{"0":-0.4329166077430261,"1":-0.44806433586205385,"2":-0.3395211508857584,"3":0.02036114339867799,"4":-0.08733307060667643,"5":0.004437743762220002,"6":1.1185555114264227,"7":0.03241593395127554,"8":0.06940731713784704,"9":0.9024701073814081,"10":-0.21089466189842174,"11":-0.3984367481458015,"12":-0.28115100470984306,"13":-0.05614046250280427,"14":0.40994774689560437,"15":0.8554817240253683,"16":-0.03288241259241291,"17":1.0713976489176846,"18":-0.4085873282137022,"19":-0.3903156015707672,"20":-0.16577545084761022,"21":-0.09496628606230599,"22":-0.35181491468048315,"23":-0.5448004834207204,"24":0.4407964545715126,"25":0.9210502509013689,"26":0.8181282801425629,"27":0.22638879180651758,"28":0.5123797014972585,"29":-0.8807277378547809,"30":0.13406063608127178,"31":0.1438225901963924}},{"sx":4,"sy":4,"depth":2,"w":{"0":-0.9687977473848581,"1":0.768756658205282,"2":0.18196805737301291,"3":0.056878620762641566,"4":0.29550062241520997,"5":-0.16958154095051814,"6":0.13777527166947084,"7":-0.8267104211851307,"8":1.3194773950859267,"9":1.1804817871943705,"10":-0.9126131041348827,"11":0.19444174375942294,"12":-0.5916067026885599,"13":-0.028778957109844603,"14":0.3034578720202587,"15":0.16512213461058212,"16":0.0016353148440170868,"17":0.5502178499942637,"18":-0.15644069929307314,"19":-0.32819220675775307,"20":-0.4533976451018366,"21":-0.08507816586263009,"22":-0.09824802495247653,"23":-0.3887173717072919,"24":-0.2485518468099125,"25":-0.8232902339588981,"26":-0.08953584470476045,"27":-0.6788287635400555,"28":-0.22254258028010307,"29":-0.3672498502928864,"30":-0.692991334354965,"31":-0.1455145743486417}},{"sx":4,"sy":4,"depth":2,"w":{"0":1.889633350160128,"1":-1.2314939857896647,"2":1.3710604989436914,"3":0.038873402988938904,"4":-0.951774293678097,"5":-0.08901104869003738,"6":0.5437970482727253,"7":-0.04665686662076001,"8":0.29456580355235557,"9":-0.1715241680348879,"10":0.7093894048603537,"11":0.2866146425716062,"12":0.4300448164267978,"13":0.5065221654450844,"14":0.07202167940084418,"15":0.10146872736775935,"16":0.3813107750733559,"17":0.026856579097535544,"18":0.33678696681301046,"19":0.0011801583960486372,"20":0.23244850335108835,"21":0.04082164717768972,"22":0.028472547766819428,"23":-0.12297724081249412,"24":-0.4548044062002756,"25":0.05963793488963303,"26":-0.00988588842820084,"27":1.0459951790655528,"28":-0.22812587063571246,"29":-0.614465660893964,"30":-0.7635600013995685,"31":-1.8000546317206307}},{"sx":4,"sy":4,"depth":2,"w":{"0":-0.15139745696148738,"1":-0.049825659911599256,"2":-0.6411316100234121,"3":-1.134097950683595,"4":0.23308313735199432,"5":0.09322622070291119,"6":0.3502452728243655,"7":-0.10264862004481859,"8":-0.6277962989504625,"9":-0.32454158417549755,"10":0.299232781921545,"11":-0.07031719053712239,"12":-0.7027733577730242,"13":-0.3806966478104974,"14":-0.11086854685052272,"15":0.016466567091028558,"16":-1.1845871882028436,"17":-0.5802102378959597,"18":-0.7929862695381932,"19":0.13666688816633143,"20":0.23847305198656227,"21":-0.8181916663928708,"22":-1.3739331725363928,"23":0.6190434162848997,"24":0.3382766839714026,"25":-1.6605006228972587,"26":0.7660745180794442,"27":-0.041660658877038084,"28":-0.2128634173724447,"29":-0.30811541897797695,"30":-0.4477792402120758,"31":-0.5208241177171891}},{"sx":4,"sy":4,"depth":2,"w":{"0":1.2657176253460316,"1":1.8388494230772452,"2":0.13028256229866392,"3":-0.20087151382484894,"4":-0.2643600727589959,"5":0.18729320437834537,"6":-0.2931262856392514,"7":0.16678601863683465,"8":0.3453470142823067,"9":0.18572531734040157,"10":0.177536130277465,"11":-0.8087234059099255,"12":0.32614073928846726,"13":0.5864558174997309,"14":0.3722822194958134,"15":0.06599161425776257,"16":0.020358695231640238,"17":0.4936792632553047,"18":-0.22234311981373145,"19":-0.27391472730138944,"20":-0.1365453898240104,"21":0.6187020488660028,"22":0.06465244602031618,"23":0.04270337719390698,"24":-0.08101289297287925,"25":-0.04449260155366435,"26":-0.3182571213813629,"27":0.0027888962652825263,"28":-1.3851053778034585,"29":-1.8455355734437413,"30":-0.5567068472064174,"31":-0.01213732093393608}},{"sx":4,"sy":4,"depth":2,"w":{"0":0.025488783914260696,"1":-0.34788503911916446,"2":-0.19713257038267407,"3":-0.03506098135630812,"4":0.38381288303765543,"5":0.1580674725217117,"6":-0.34141815755750654,"7":-0.08349969276751285,"8":-0.3405971925357584,"9":-0.23248514776444487,"10":-0.36205527310993835,"11":-0.3365162255362626,"12":-0.009021796487236186,"13":-0.08986651435309646,"14":3.3228397208676004,"15":-0.19636215418719705,"16":-0.2662233164884883,"17":2.629512383210589,"18":-0.24234744055107413,"19":-0.1828197358195129,"20":-0.3083596708151655,"21":-0.3712076394358808,"22":0.11000846700781648,"23":-0.15894136054921187,"24":-0.15757218439938667,"25":-0.3518995719708961,"26":0.25744513307814476,"27":-1.2418488104214906,"28":0.17734743901762173,"29":0.32182239462756457,"30":0.41826420829750355,"31":0.12426974047955336}},{"sx":4,"sy":4,"depth":2,"w":{"0":-0.023810770158006714,"1":0.16337218205026235,"2":0.6085803254446738,"3":0.4753957241709416,"4":0.6554415709563204,"5":0.11706727909310159,"6":0.18641066459816102,"7":0.06301781432997487,"8":-0.22629875687950454,"9":-0.04234612639624028,"10":0.07231743079864404,"11":0.1550118274087697,"12":-0.8187857077696483,"13":-0.5217598455639475,"14":0.39242304289205704,"15":-0.010464667430113497,"16":0.3244022934736517,"17":-0.4436989149506428,"18":0.16851049459518738,"19":0.1948066610863804,"20":0.3238101160592805,"21":-0.08570601981171033,"22":-0.8923610534650008,"23":0.24388754053158554,"24":0.17618738179203738,"25":-0.6842252574783323,"26":0.9264620684820971,"27":1.337757878666879,"28":1.0269778550550537,"29":0.9031012668499351,"30":0.3243313931558036,"31":-0.04559856636265045}},{"sx":4,"sy":4,"depth":2,"w":{"0":0.14496095181994167,"1":0.9570953547016038,"2":-0.06802972738897488,"3":-0.2885309427790429,"4":0.3081055149117935,"5":-0.04586941744513802,"6":0.34307043390717423,"7":0.2823271015498704,"8":-0.3452084398572753,"9":-0.17707678274404345,"10":-0.28807477128922304,"11":-0.2854434207555602,"12":-0.1140496520716368,"13":-0.2897307995208766,"14":-0.06520932386616136,"15":-0.23088531113305302,"16":-0.486421431114024,"17":0.24942089134759007,"18":-0.544421780330428,"19":-0.3109723439798822,"20":-0.2549749111219748,"21":0.0048186166996529115,"22":-0.04539881187202729,"23":-0.17804289602723627,"24":0.26767132949979744,"25":0.048911146033941325,"26":0.29806448200177854,"27":-0.6739167230200335,"28":0.1540494249430191,"29":0.6373687166234808,"30":0.2320048374277944,"31":-0.21458935169818621}},{"sx":4,"sy":4,"depth":2,"w":{"0":0.00808488811217521,"1":0.12092709716379227,"2":0.13456186924167898,"3":-0.1224049663033397,"4":0.11902668361293808,"5":-0.009121940561210242,"6":-0.07692851451657934,"7":-0.12563490612036346,"8":-0.08943987001574918,"9":-0.21223635593172108,"10":0.07388638655312109,"11":-0.05634564622616767,"12":-0.254909466168143,"13":0.23394866694783156,"14":-0.2350431313790694,"15":-0.07594155543075685,"16":0.13408747861500717,"17":-0.13837534021440365,"18":-0.060982671375964616,"19":-0.2306434327107528,"20":-0.05023303941769551,"21":-0.2961420334475291,"22":-0.033393553904331665,"23":0.17882840520673288,"24":-0.25578126233221393,"25":-0.13615187904950968,"26":-0.021057325591066878,"27":-0.07151240395408778,"28":-0.06904299353509717,"29":-0.03247470497039718,"30":0.08508220318814089,"31":-0.17122120700217547}},{"sx":4,"sy":4,"depth":2,"w":{"0":-0.010098676437055873,"1":-0.15863542428937338,"2":-0.018797236802814615,"3":-1.841178789498006,"4":-0.3271356211465948,"5":0.47447665512568393,"6":0.19972210219461128,"7":-0.019938086597873574,"8":-0.7071164618865978,"9":-0.02943755006706081,"10":-0.1786362822380186,"11":-0.37354800230773616,"12":-0.7039022792308287,"13":3.7098265608395655,"14":-0.6996352071886262,"15":-0.18456184259480135,"16":-2.484012866209537,"17":0.2661901921458116,"18":0.040075159116103966,"19":0.09523232777207888,"20":-0.2623391318476264,"21":0.16931560992464437,"22":0.2578538715457403,"23":-0.21558092275926571,"24":0.3318942385672549,"25":-0.16161006204752362,"26":0.5789973138631578,"27":0.6382761760405655,"28":0.6858704638960689,"29":-0.2788744178589519,"30":0.03154683646197987,"31":0.04432847333694914}},{"sx":4,"sy":4,"depth":2,"w":{"0":0.13007956992685607,"1":-0.24348471089552867,"2":-0.6033916683101995,"3":0.6753177417806101,"4":-0.380224644284957,"5":-0.4677827851808443,"6":-1.2597332940322963,"7":-0.5030164186145802,"8":0.1984574326029281,"9":-0.9966810731226589,"10":1.12019273079446,"11":0.5062349875990428,"12":0.24487654451200422,"13":0.2640627095851032,"14":-0.32231917004681815,"15":0.04446595676368668,"16":-0.2079212362541371,"17":0.2181332180396212,"18":-0.33748772546877825,"19":-0.6085675984280596,"20":0.20896431220245826,"21":-0.17577926224806711,"22":-0.4772363800812072,"23":-0.31726386710205656,"24":-0.9666357821415331,"25":-1.227024807194433,"26":-0.7083269019117437,"27":0.6474384753876103,"28":0.8905660377319751,"29":1.899490362400615,"30":0.853641837462406,"31":0.6050886001020465}},{"sx":4,"sy":4,"depth":2,"w":{"0":0.21533186276194316,"1":-0.36581735942610505,"2":0.1087657798333689,"3":-0.17949738032639292,"4":-0.44230600188614894,"5":-0.38534021582571343,"6":1.8962269442587474,"7":-0.14718557980324745,"8":0.03199664753608447,"9":-1.0275663637605728,"10":0.052873967132497576,"11":-0.06651787817569908,"12":0.05371091013316897,"13":0.13131006438360668,"14":-0.10642062667480909,"15":0.2589685247588731,"16":-0.27832276800054434,"17":0.1810893020109995,"18":0.9880460673362226,"19":1.928460353809219,"20":-0.23994245544092963,"21":-0.399759558991458,"22":-1.393925418142019,"23":0.062184311268412416,"24":-0.4119869883784342,"25":0.04065820569245465,"26":-0.08978641289210973,"27":-0.2398040243266987,"28":-0.6651308584523606,"29":1.4124354348460206,"30":0.251100461319869,"31":-0.10520899093917338}},{"sx":4,"sy":4,"depth":2,"w":{"0":-0.46595466489273496,"1":0.08167500202512257,"2":-0.5460639208022591,"3":-0.16219775710423714,"4":-0.08515754475793666,"5":0.5481235905167335,"6":0.6820722931137542,"7":-0.16103663330559986,"8":-0.4529644316325974,"9":0.1076980506350631,"10":-0.6217783019562877,"11":0.08610950219836579,"12":-0.2970247878897155,"13":0.2709426107798459,"14":0.1592349457957162,"15":0.5296238663079449,"16":-0.252597196931097,"17":0.178200387621075,"18":-0.5151965114689876,"19":-0.18857871407213714,"20":-0.03310640672932293,"21":0.5526562251391645,"22":0.49709311157736713,"23":0.20859713539859387,"24":0.17770988258987974,"25":0.058315520584260476,"26":0.053699178301572704,"27":0.18506038097588198,"28":-0.5293917783946037,"29":-0.6089581801916202,"30":0.6951815994846458,"31":-0.09197277881225453}},{"sx":4,"sy":4,"depth":2,"w":{"0":-0.4441866101401577,"1":0.15203211892851098,"2":0.6347163287340452,"3":0.1331307551257929,"4":0.3641159684337949,"5":0.06636217806627395,"6":0.2951731753911723,"7":-0.042140831420600586,"8":-0.3240708172375796,"9":0.20403178474799089,"10":0.05429222186301869,"11":0.2254321416931717,"12":-0.5594171450566845,"13":1.1434070729999544,"14":0.7899088691624156,"15":-0.04208728266081893,"16":1.0399178631753736,"17":0.0002803027196799998,"18":-0.4037239165314538,"19":-0.08135091917189226,"20":-0.07862880470241308,"21":0.10813054659364635,"22":0.43382049031651765,"23":1.9755051472401948,"24":0.6669563016611264,"25":-0.43061144600899764,"26":0.562101824572933,"27":0.8094133186581943,"28":-0.09258935367759254,"29":-0.035220048172677335,"30":0.0026855364681221687,"31":0.3819422571953254}},{"sx":4,"sy":4,"depth":2,"w":{"0":-0.40317235886724145,"1":-0.4299660319359922,"2":-0.578883342016252,"3":0.6169825289203348,"4":0.36672035303206707,"5":0.07558745478770938,"6":0.1022928096010587,"7":0.12818374623505294,"8":-0.2617460656378051,"9":0.09293094602778167,"10":-0.19853316360429357,"11":0.10677535400921441,"12":-0.019198236727424246,"13":-0.17077666611064934,"14":-0.1255804386705273,"15":0.008695050372656594,"16":0.23015251686467295,"17":-0.19135839581706432,"18":0.38100560718547843,"19":-0.4490902277377853,"20":-0.5945986160436334,"21":0.15159751930407458,"22":-0.15485036463555263,"23":-0.039085827705226235,"24":-0.2827894500553316,"25":0.006048511765436547,"26":-0.3466047150045612,"27":-0.5129497160992309,"28":-0.2256642765678165,"29":1.0284343754495509,"30":0.15520522902937386,"31":0.21397237006745937}},{"sx":4,"sy":4,"depth":2,"w":{"0":-0.5092423127826367,"1":-0.07890066472486297,"2":-0.5252773054617762,"3":1.489591735702171,"4":-0.29727993052077906,"5":-0.7407182705159645,"6":-0.4727573113062448,"7":0.38290995450523346,"8":-0.46109542702045175,"9":-0.41126523075897253,"10":-0.13180644330488192,"11":-0.2662902676399188,"12":-0.40090916494762074,"13":0.7006821891448812,"14":-0.7900560907884536,"15":0.14568739461275224,"16":-1.5301964024039512,"17":-1.6101758286258145,"18":-0.13278692605216683,"19":-0.39005862540939873,"20":0.4503665067771249,"21":0.0024950512389058247,"22":-0.33158420548518,"23":0.29815255543917385,"24":0.5281323420865571,"25":1.206868678133269,"26":2.7084862987614686,"27":-0.10186142528846655,"28":0.7944315438086331,"29":0.5152927117660246,"30":-1.3279930268346942,"31":0.043294251256950814}},{"sx":4,"sy":4,"depth":2,"w":{"0":-0.41284026656239864,"1":0.3070269196715994,"2":0.019650248683589687,"3":-0.19789838468849769,"4":-0.1823146364386761,"5":1.6502008409858273,"6":-0.2457402491774574,"7":0.21615221073620375,"8":-1.6817833662041661,"9":0.19268316532930396,"10":0.005279968117227139,"11":-0.28920347952743897,"12":0.049655121092374764,"13":-0.5449780128173406,"14":0.07808700833469848,"15":1.5592257033016643,"16":-0.21837372898407745,"17":0.3041293603618756,"18":1.711753971970107,"19":-0.1393494043723679,"20":-0.20386853645408987,"21":-0.3215201487266638,"22":-0.02236665551136272,"23":-0.13120617338242369,"24":-0.5844471295277024,"25":-0.23352311449321975,"26":-0.5832597835748894,"27":0.22499515229753428,"28":0.8410500331314174,"29":0.6783088734702648,"30":-0.568759831155845,"31":0.292732027815309}},{"sx":4,"sy":4,"depth":2,"w":{"0":-0.2824743369495058,"1":-0.1189454061874548,"2":-0.1881168246825142,"3":-1.0884306463573181,"4":-0.21083543672084323,"5":-0.08580573618830527,"6":0.40967166318205184,"7":0.007456646715568877,"8":-0.07837351239772526,"9":0.09187819717281909,"10":-0.021600332864465506,"11":-0.039210799361100876,"12":0.058921146700163546,"13":-1.6172174422134575,"14":-0.20582934480084136,"15":-0.11457139243148197,"16":2.5960799578247644,"17":-0.5152759526655637,"18":-0.01813941535821953,"19":0.09132415999822902,"20":-0.08453682874665984,"21":-0.21242794668598253,"22":-0.3987835521349544,"23":2.7957293392696494,"24":-0.06897641946265284,"25":-0.29412059711697114,"26":3.5545362996098686,"27":-0.5471220327335201,"28":-0.3570271820618072,"29":-0.28719155793307494,"30":-0.41235280028014004,"31":-0.47685707539359756}},{"sx":4,"sy":4,"depth":2,"w":{"0":1.482256587883541,"1":-0.25809755956499286,"2":-0.17882274579854,"3":-0.8149340388671289,"4":-0.2471262817892127,"5":-0.018414136023337007,"6":0.5274952701737241,"7":-0.6720944934036138,"8":0.37592692893334223,"9":0.48636095547915803,"10":-0.15366659588009643,"11":-0.24126467648543193,"12":0.23313751361264254,"13":-0.4238790549748524,"14":-0.20191451411893335,"15":0.6116492700310143,"16":0.5665102405618587,"17":-0.06957461739176703,"18":0.1690363841675465,"19":-0.057593768331326185,"20":-0.09374638621589007,"21":-0.02382791636914512,"22":-0.48022855103399453,"23":0.554657793651577,"24":-0.2582587764030782,"25":0.9116634088670265,"26":1.011940632910773,"27":-0.8030938579634316,"28":0.3578288685652472,"29":-0.39796989087598994,"30":0.05183216638925962,"31":0.18766649209346603}},{"sx":4,"sy":4,"depth":2,"w":{"0":1.0059977541196397,"1":0.4860683351365156,"2":0.8665864811513044,"3":-0.1284125038219997,"4":-0.4326201935800014,"5":0.1634269659160689,"6":0.22788515944477988,"7":0.2534753619558406,"8":0.08552999998821186,"9":-0.03593366374944297,"10":-0.14354853502717516,"11":-0.1400052966508356,"12":-0.22708371853387366,"13":-0.09589584594722235,"14":0.01939770028220728,"15":-0.14405845989048882,"16":-0.2304977189928817,"17":-0.409235769207263,"18":-0.5184799062413937,"19":-0.24856642110841184,"20":-0.10013561445880671,"21":0.12204260291308816,"22":-0.44726470899901716,"23":0.7161886491103786,"24":-0.061163750385019706,"25":0.2038638325334843,"26":0.9078951858302616,"27":-0.1211505185988624,"28":0.11190432302466975,"29":-0.30386354601574983,"30":-0.48623506748281525,"31":-0.5216696485759776}},{"sx":4,"sy":4,"depth":2,"w":{"0":3.2432404392335163,"1":-0.8261494224163614,"2":-0.6431908135321713,"3":-0.1711812841895794,"4":0.49875481521532866,"5":0.08953919238192318,"6":0.5066655046587015,"7":-1.5179466867188252,"8":0.7322392501567591,"9":-0.027586110684831768,"10":-1.114846622959981,"11":0.037864120510340944,"12":1.0490267391880754,"13":-0.027601806980055425,"14":0.24603002920979106,"15":0.03749320668874069,"16":0.4074058933399687,"17":0.017985933204567286,"18":-0.3626500086635995,"19":-0.6303120548162798,"20":0.536710397153363,"21":-0.5986164687768144,"22":-0.1229443232097148,"23":-0.36194829791772265,"24":-0.7135773383795552,"25":-0.5359337806075392,"26":-0.591493178473517,"27":-0.31371509372700795,"28":-0.06681689281261112,"29":0.3147502431807771,"30":-0.6552031541128488,"31":0.403071477502799}}],"biases":{"sx":1,"sy":1,"depth":32,"w":{"0":-2.880899445591616,"1":-3.118676115903933,"2":-3.017432382111248,"3":-3.8225859266908184,"4":-0.5156309241043597,"5":-2.1848889015253703,"6":-0.4851874295008582,"7":-0.2684981783698028,"8":-0.734595613270409,"9":-0.5497628388051122,"10":-0.15276395304821555,"11":-0.9675315641951977,"12":-1.4846799829325945,"13":-1.7023931173210012,"14":0.537464666976465,"15":-1.2620108612774847,"16":-2.4650826661122447,"17":-2.2083111754204836,"18":-0.6458563847035297,"19":-0.32066233931820826,"20":-1.164966381625339,"21":-1.5433195510345907,"22":-0.954488858211016,"23":-0.49524200989398115,"24":-2.526293324981971,"25":-0.750992619779889,"26":-2.0657218563147395,"27":-0.9519878454049556,"28":-3.640520022821433,"29":-1.063604895385502,"30":-1.3201949014749286,"31":-1.197015858165927}}},{"out_depth":32,"out_sx":8,"out_sy":7,"layer_type":"relu"},{"out_depth":60,"out_sx":1,"out_sy":1,"layer_type":"fc","num_inputs":1792,"l1_decay_mul":0,"l2_decay_mul":1,"filters":[{"sx":1,"sy":1,"depth":1792,"w":{"0":0.009648349160799518,"1":-0.024315411867878035,"2":-0.018090358394803708,"3":-0.04059222192022102,"4":-0.029004574416152836,"5":-0.016659273866236658,"6":-0.04589985775287309,"7":0.017384488107500658,"8":-0.04270951486402811,"9":0.02835222069117214,"10":0.0173386990232108,"11":-0.007874400489618402,"12":-0.017397066986684275,"13":-0.02650209543531745,"14":-0.010743450256871187,"15":0.016763047799464883,"16":-0.021435321088031898,"17":-0.028717410718009078,"18":-0.0472574997939383,"19":0.03875560515850658,"20":0.009209335682709702,"21":-0.00864191801572605,"22":0.01225143237533676,"23":-0.002855844565887224,"24":-0.014696139607230048,"25":0.030897386697621477,"26":-0.01827266850981916,"27":0.0027031979230797316,"28":-0.019036046803429314,"29":-0.0328666701163472,"30":0.010165346269314033,"31":0.03846848671853483,"32":0.009698748705249453,"33":0.025516207023531003,"34":0.00962554864779721,"35":-0.0025006789575077663,"36":-0.029995243922403676,"37":0.0016126933712139614,"38":-0.045746925239993776,"39":0.02902258739805321,"40":-0.023558192364212534,"41":-0.05491382432753887,"42":-0.1940671211925316,"43":0.006572067052895574,"44":-0.04603687226398638,"45":0.010894800100398958,"46":-0.04012703169523464,"47":-0.006647472523105964,"48":-0.05571205500826251,"49":0.04732767818873278,"50":-0.010599651387178513,"51":0.0034975548277126475,"52":-0.024578877130569474,"53":0.04450066665261065,"54":-0.00677989713554301,"55":-0.05245944748756326,"56":0.02305245152136879,"57":0.010455983895037307,"58":0.01143985525249799,"59":-0.03345566012213202,"60":0.050296803778888,"61":-0.03169597833130488,"62":-0.051081383608306746,"63":0.0028068741842153387,"64":0.0286445157241972,"65":-0.08854142916167634,"66":-0.025744958288718516,"67":-0.017911458864520037,"68":0.017302834472412102,"69":0.021882573319944084,"70":-0.03744339916683962,"71":0.0615849601487754,"72":0.037987696664047464,"73":0.08919471807660466,"74":-0.0037869705664308004,"75":-0.00020997909691501454,"76":0.014181621551751093,"77":-0.003633660962286241,"78":-0.16610383351934138,"79":0.018801141177049147,"80":0.006047784968244546,"81":-0.025362627328309195,"82":0.02626889547189556,"83":0.00559720037954493,"84":-0.019856123936219622,"85":-0.03246360671050553,"86":-0.07844027605808537,"87":-0.001770104032915732,"88":-0.04666018167686711,"89":-0.0021489749540705223,"90":-0.08456792758830073,"91":0.11599464851833848,"92":-0.11515106212311378,"93":-0.010418949260067738,"94":0.025367407442587593,"95":0.0300101844889967,"96":-0.018336385749591348,"97":0.06993513536202123,"98":-0.01907535003519807,"99":-0.002181779659371782,"100":0.07469334712023822,"101":-0.056066083838617976,"102":-0.018626768427971372,"103":0.059353230392303474,"104":-0.017898330238125513,"105":-0.06691776148280178,"106":0.007065781949766686,"107":0.026976959079766712,"108":-0.0006470285737669946,"109":-0.03307961688893208,"110":-0.0641464626134206,"111":-0.016626774098942764,"112":0.028497769491811056,"113":0.011225649433934943,"114":0.029153506938181663,"115":0.014691528235645802,"116":-0.004997677778531091,"117":-0.020864066217720995,"118":0.005785691185723912,"119":0.0166233439029665,"120":0.008789793310627833,"121":0.01882520055399525,"122":0.01320420776155021,"123":-0.00021196727977191188,"124":0.0050731584639244695,"125":0.007011477072954884,"126":-0.021418903503046555,"127":0.0021063431785282244,"128":0.06958313385772122,"129":-0.004467846795962957,"130":-0.0030648924730410153,"131":-0.0033836297923869035,"132":-0.03139972915070755,"133":0.049684713552665634,"134":0.020988206029513595,"135":-0.1234187782461275,"136":0.01553514925053134,"137":0.0446599668357417,"138":-0.011131802210517232,"139":0.06723772479702948,"140":-0.01772056045745003,"141":0.014779176212985239,"142":0.04021126116176089,"143":0.03828011470183017,"144":0.001736310203403576,"145":-0.008053720108746247,"146":-0.017476975262177726,"147":-0.03447395580752793,"148":-0.02073966665120293,"149":0.017461156737366344,"150":-0.07873494295717733,"151":0.005393697828866964,"152":-0.020737862488728026,"153":0.0141645062011014,"154":0.03162490841898062,"155":0.03614894289808963,"156":0.07480555585967012,"157":-0.04425720982640314,"158":0.03205855990973332,"159":0.02427246661827349,"160":-0.013529029440619839,"161":0.00013645247542915296,"162":0.007157652678032536,"163":-0.0068879935920454554,"164":0.09094485117916593,"165":0.007391892749670907,"166":-0.013268708165923302,"167":-0.04078111981849637,"168":0.011730568610026438,"169":-0.050092363985366956,"170":0.06197335084753575,"171":-0.03954522226970917,"172":-0.005255498845171363,"173":-0.009814532252752752,"174":-0.06808656177547441,"175":0.0017869389855375889,"176":-0.056652579233068795,"177":0.04465567812701702,"178":-0.039201335414111256,"179":-0.02509671224607412,"180":0.00938100008699523,"181":0.03707275736852558,"182":0.0038523226801584994,"183":-0.00694145440745027,"184":-0.013437258139865689,"185":0.029418653525676255,"186":0.008181159673416457,"187":0.025698904140877787,"188":0.07256938501985022,"189":0.06406198560128851,"190":0.01542979480962867,"191":0.006733653566021156,"192":-0.05726919000790541,"193":-0.007396625839729307,"194":0.05288028481834503,"195":0.002616545682425248,"196":-0.01229871814484154,"197":-0.014644110446582448,"198":-0.06739711111787038,"199":0.022866957141582156,"200":-0.04176802745758383,"201":-0.0810532068253489,"202":0.024631261983405484,"203":0.030092290510182678,"204":0.007129948019104873,"205":0.010474246766567444,"206":0.013592036466696746,"207":0.006418834796726425,"208":0.035357467487427324,"209":0.011627182616609609,"210":-0.006622515229110865,"211":0.008004405604385515,"212":-0.021464068972213795,"213":-0.03799320591832668,"214":0.014475634782335864,"215":0.037103770906194794,"216":0.050543314624068164,"217":0.04536289630070226,"218":0.030015089326974234,"219":0.03020801411841324,"220":-0.005042719778998804,"221":0.02178827568747309,"222":0.008980223762387407,"223":0.018225255976195898,"224":0.06948080864706781,"225":0.033541187490352065,"226":-0.03424634790364922,"227":-0.030343490084278724,"228":0.009950375934544798,"229":0.001413548579667835,"230":0.022621686799870297,"231":-0.013036598287708218,"232":-0.020925738295142778,"233":-0.05169983129024049,"234":-0.008480579721664269,"235":0.006251829810918475,"236":-0.019895715996004804,"237":-0.030189817531282963,"238":-0.012640481117220423,"239":0.026853964479185085,"240":0.02206817033374163,"241":-0.0032769251191752547,"242":0.01633744802029721,"243":0.01585056834147859,"244":-0.003381279455006986,"245":0.014919434706816505,"246":0.04690989831201321,"247":-0.030156714623998302,"248":-0.05389863145870519,"249":-0.030133985336185946,"250":-0.01441007668668329,"251":0.018702868209694183,"252":0.012726996400884764,"253":-0.006619051168708129,"254":-0.0438469701525416,"255":-0.03974822607297373,"256":0.022254195932180237,"257":-0.022726675194711853,"258":-0.0006228024582189387,"259":0.010604623609542452,"260":-0.03590657047865739,"261":0.017921735974129487,"262":-0.019894005082125417,"263":0.02352178185390387,"264":0.000027197704899149295,"265":0.005008423944022751,"266":0.048807493379094284,"267":0.011127855390396093,"268":0.014478335230255315,"269":-0.01608708907458991,"270":0.020218358290190894,"271":0.003957175566223341,"272":0.044202520407441805,"273":-0.019195509471819385,"274":0.006544921279673588,"275":-0.028227212886271547,"276":0.018204174425309885,"277":-0.06270952242407796,"278":-0.01641528876856717,"279":-0.005857438596505127,"280":0.0003570468614959729,"281":-0.014131909215947385,"282":-0.027148004062826907,"283":0.028024319247075546,"284":0.0024537931746793566,"285":0.014977579815106022,"286":0.0000646082743549672,"287":0.005324790670888125,"288":-0.008709872943383427,"289":0.047906778629325956,"290":-0.0500976338217308,"291":0.022108221606804018,"292":-0.03507987603406529,"293":-0.003968255552820007,"294":0.041996559368137544,"295":0.041347657976484764,"296":0.039598686168266936,"297":0.057147767193575456,"298":-0.031273341147041285,"299":-0.023833661122875806,"300":-0.015101874869104187,"301":-0.014523946866239958,"302":-0.06778920235658771,"303":0.02774737233132636,"304":0.02066262536101342,"305":-0.12104160184390239,"306":-0.02213705074173622,"307":-0.04473287877648018,"308":0.02390827682416019,"309":-0.06271396498762516,"310":-0.04369861528086699,"311":-0.011505989109842872,"312":-0.026540465383910073,"313":0.041554750746571764,"314":0.001738563198110195,"315":-0.00518049401429249,"316":0.14361880082232886,"317":-0.014763765769896716,"318":-0.01395115419929918,"319":0.02131316214878822,"320":-0.08059867154237649,"321":-0.003354162803805185,"322":-0.02514967461799356,"323":0.013544105035951349,"324":-0.07210750645039103,"325":-0.08284724570871183,"326":-0.022824579032276464,"327":-0.0627820644920409,"328":-0.10531331148762703,"329":-0.042639536973444796,"330":0.0620493700216168,"331":-0.037975465034966446,"332":0.017296900056867046,"333":-0.04886032581535531,"334":0.03228130491547087,"335":-0.006894785778205096,"336":0.08288379842386251,"337":-0.0328514641616079,"338":0.003570177334325081,"339":0.01762650592346248,"340":0.02922146919384811,"341":0.05297832707611387,"342":0.0009370758699462415,"343":-0.03301154066980283,"344":-0.012563149979325216,"345":0.02137890116796478,"346":-0.061100654688671416,"347":-0.13435027226012441,"348":-0.024816754749815203,"349":0.03418211673654186,"350":0.039709707599155146,"351":-0.021214112201516557,"352":-0.06892224176396473,"353":-0.09178153887785437,"354":-0.07600647214089962,"355":0.005477946292745841,"356":-0.051752793252163476,"357":0.2597408684143285,"358":0.060983219461371474,"359":-0.06933152698592218,"360":0.10594298197099974,"361":0.05797542164361533,"362":-0.05727499929068408,"363":0.05269194086145402,"364":0.046876019200045235,"365":-0.007885675734709326,"366":-0.028248374482006514,"367":-0.031110911437338316,"368":0.002765711407755787,"369":0.05076768122739655,"370":0.012047976430540782,"371":-0.030941311421291303,"372":-0.2245342286533301,"373":0.05107554517510276,"374":0.004870333105720419,"375":0.020155594692155485,"376":-0.07649107907819175,"377":-0.011556514056361987,"378":0.01563556385435184,"379":0.06708873084255888,"380":-0.07712758942979113,"381":0.04136946942439156,"382":0.017640655005624294,"383":0.0032724561053068123,"384":-0.13488511320906119,"385":-0.012937301915238234,"386":-0.10859344054547121,"387":-0.044037794875660397,"388":0.05963185055081754,"389":-0.13623780648645367,"390":0.008583777112409102,"391":0.06401117217599281,"392":-0.0883528617085851,"393":-0.10529427250301523,"394":0.014095276119447673,"395":-0.0033410525187838676,"396":0.027473098896671024,"397":-0.008363411020741732,"398":-0.07506542155007193,"399":0.02416949792329172,"400":0.008104809229857164,"401":-0.12407377935988152,"402":-0.01949343611268634,"403":-0.023015980645838027,"404":0.11402138713955534,"405":-0.06758774097627022,"406":0.014843010257754058,"407":0.026635350723471327,"408":-0.05404177146738788,"409":-0.02519222251533384,"410":0.04076209546827066,"411":0.04870293803734042,"412":0.0005565342280292831,"413":-0.008769711227625918,"414":-0.05097049038881324,"415":0.010942189735224516,"416":0.12120714844189699,"417":0.030316780925486963,"418":0.08149889673076696,"419":-0.040734825884429525,"420":-0.0001655663418524208,"421":-0.028478424354932773,"422":-0.008698890814927616,"423":-0.0406350637817717,"424":0.04510754572438588,"425":-0.03720517385401898,"426":0.04159829831063508,"427":-0.11110337860439376,"428":0.0061400869214566925,"429":-0.017139562895895653,"430":0.04524352629449928,"431":0.009027520512565942,"432":0.003413187219587264,"433":0.057511911147184964,"434":0.0043684584381157585,"435":-0.049715229289113025,"436":-0.042205885588208154,"437":0.08133890383943305,"438":-0.01008676084152547,"439":-0.018031826802199103,"440":-0.013760409006327171,"441":0.0003189502357940248,"442":-0.07633789841576687,"443":-0.012675039984792684,"444":0.058066941954797884,"445":-0.005078504577162279,"446":0.03199411328252108,"447":-0.0004767284490105332,"448":0.010037828498169503,"449":-0.021743553297485993,"450":-0.015239961111402866,"451":-0.00801663530862844,"452":0.051162482438190104,"453":0.03574174646022589,"454":0.045416880317606094,"455":0.014762930292267345,"456":-0.036452700344200846,"457":-0.02427549176805152,"458":-0.005526699088603998,"459":-0.037700921830758176,"460":0.004663035520860471,"461":0.007187953062348087,"462":-0.036748048878997706,"463":0.004625731343260297,"464":0.007648895507653581,"465":-0.008678029471429493,"466":-0.04050805359618468,"467":0.018500039328235244,"468":-0.02386357235256269,"469":0.0023280816918227324,"470":0.04514855747958987,"471":-0.0052546321186233225,"472":-0.024866620348691842,"473":0.011681058672752471,"474":0.017059360879618405,"475":-0.0410346608316934,"476":-0.020413256940831716,"477":0.011104413237326138,"478":-0.02175633435410267,"479":-0.0011550746449210828,"480":-0.010614607998640982,"481":0.0037264789610394066,"482":0.04322810020123898,"483":-0.029550108013880676,"484":-0.016264495071864764,"485":-0.017969035382476226,"486":0.04041740695330535,"487":0.0012518839245537002,"488":-0.00126467120291444,"489":-0.04233844460607654,"490":0.012979296649847032,"491":-0.03621076280438121,"492":0.0006115439491545056,"493":-0.02794056296797102,"494":-0.054637137002349845,"495":-0.021163028964097965,"496":-0.015265752325685054,"497":-0.02691812863254131,"498":0.022156649861122025,"499":0.002834108505114027,"500":0.018013959520958717,"501":0.017998816302087935,"502":0.0029812044663111202,"503":0.028109845887760176,"504":-0.01444555713201271,"505":0.004136177992851337,"506":-0.004909146351043195,"507":-0.03453491876671682,"508":0.03327449290452262,"509":0.05086233404161483,"510":-0.0017756934066645415,"511":-0.0141277006210237,"512":0.02242649757306764,"513":-0.027998754356332853,"514":-0.023187188841991124,"515":-0.026594623775709442,"516":0.007612565529107846,"517":-0.01623936834786294,"518":0.010087857856460119,"519":-0.16014895532012355,"520":-0.07619561242343657,"521":0.0213802902429427,"522":0.0009633795855503596,"523":0.028437584356704553,"524":0.028097475498001935,"525":0.03476599523420378,"526":0.011949583484292951,"527":0.04773255286295031,"528":-0.09058310670801449,"529":-0.027411484629961257,"530":-0.021250457366393662,"531":-0.007038080526742045,"532":0.026174638283207204,"533":0.013886976530712301,"534":0.00628414393732408,"535":0.015303284881748008,"536":-0.04710105394530996,"537":-0.04662492291304468,"538":0.03443789836602295,"539":-0.011529994088161447,"540":-0.024919708525551806,"541":0.024034540809024816,"542":-0.053324480450759354,"543":0.011079228107138857,"544":-0.04608131112664937,"545":0.04640831422363023,"546":0.07266910740398917,"547":0.02540214621818722,"548":0.07094393995236305,"549":-0.03216619280122454,"550":0.048804749243275276,"551":0.017810494828798068,"552":-0.005293814138482209,"553":0.010461706947118286,"554":0.03846991742650902,"555":-0.0022039937474587577,"556":-0.014287179139474495,"557":-0.012080908161358431,"558":-0.006191874287289574,"559":0.0008523764278032922,"560":-0.0028217946373146723,"561":0.13140593248114554,"562":-0.02230943992008597,"563":-0.009380446857478322,"564":0.07537183028144369,"565":-0.046913086490430446,"566":0.025780533262402133,"567":-0.027226788636252486,"568":-0.02651354140455028,"569":-0.023810488534922042,"570":-0.017285409294995537,"571":0.14056748150958426,"572":-0.0033829675399902914,"573":-0.019223696524810985,"574":0.002000805037917387,"575":0.00432526404550092,"576":0.003112673749475662,"577":0.00017387967048979362,"578":-0.07742913106698464,"579":-0.01041320453696941,"580":-0.00027575088193020173,"581":-0.028885128982833845,"582":-0.03825287084491334,"583":-0.06191502469496451,"584":-0.06075232539651875,"585":-0.01479616727449081,"586":-0.06149909784940755,"587":-0.07053684878583613,"588":-0.009238760964415296,"589":0.023511148815710266,"590":-0.049581205929923475,"591":-0.018144665181089786,"592":0.04815985584210618,"593":-0.057362842527492644,"594":0.014469369108328,"595":0.019229951279546603,"596":-0.049319167123210245,"597":-0.04762170631686412,"598":-0.09776790009432981,"599":0.0764965029451147,"600":0.06626469045468981,"601":0.03665567790677142,"602":0.02354798150401788,"603":-0.003601258592574314,"604":-0.049234887937516014,"605":-0.0051724935603923465,"606":-0.01932819590871287,"607":-0.017020402858251706,"608":-0.041164048108475224,"609":-0.08814218750604588,"610":-0.037279617444713635,"611":-0.02806229179256506,"612":0.00018597161258911832,"613":-0.01801819532822714,"614":-0.024667423225436063,"615":0.012721625206407666,"616":-0.06498430570552771,"617":-0.10325035542212982,"618":0.018911842763984527,"619":-0.06545854067638009,"620":0.004907676956744566,"621":0.058757850270795324,"622":-0.08376137291433552,"623":0.04647302867236376,"624":-0.11072616928272719,"625":0.00445910132060786,"626":0.009940268657601573,"627":0.005173310212129478,"628":0.013352091645269456,"629":-0.020195377364511505,"630":-0.026802573871938833,"631":-0.036747508153379814,"632":-0.014582139081193083,"633":-0.0411444556564621,"634":0.017975904726329674,"635":-0.1035038246191318,"636":-0.01325475680217498,"637":-0.017449215011979703,"638":0.012421693964220985,"639":0.005552527665149769,"640":-0.006836361982410806,"641":-0.049207537674725216,"642":-0.009735310100727618,"643":0.01247766157995497,"644":0.029059394727760122,"645":0.039746983144223334,"646":0.14070342289380824,"647":-0.07247916438569003,"648":0.08390791896828668,"649":-0.004874035503577576,"650":0.010765033105761452,"651":-0.021760359496314594,"652":0.035375509838345316,"653":0.018635083577815296,"654":-0.05841933558635672,"655":0.026758168168448584,"656":-0.05438246175188687,"657":-0.0005470222314708659,"658":0.0183944559667495,"659":0.002267860355576329,"660":-0.013178145887886435,"661":0.0018370905711202737,"662":0.10607714958285182,"663":-0.016591677704280137,"664":-0.0007271435733151896,"665":0.007140315939688494,"666":-0.0895686857585404,"667":0.09675436317084826,"668":0.03382741022272829,"669":0.00025931260961629233,"670":-0.001070803019567799,"671":-0.002491033936070606,"672":-0.014548813443497314,"673":-0.02877174042908998,"674":-0.014266819677689535,"675":-0.012334008172286446,"676":0.0153570500686624,"677":0.01911719199141244,"678":-0.069546399067982,"679":0.01207956531591716,"680":-0.00010842230233494423,"681":0.009850630542351042,"682":-0.04497131601201324,"683":0.04317072817690144,"684":-0.07065775737751162,"685":0.05309051101603597,"686":-0.04484572906905745,"687":-0.0778012492795602,"688":0.022651695940158523,"689":-0.011624198892235984,"690":0.016977663219258816,"691":-0.010061644409780317,"692":-0.037845702585455304,"693":0.03803386229726723,"694":0.003310744877447621,"695":-0.01861088812831588,"696":0.024232302143939413,"697":0.019835070732052214,"698":0.02714339182818618,"699":0.03664071028504573,"700":0.022278456364371698,"701":0.013054951786435768,"702":-0.008625595035662702,"703":0.02055884252182877,"704":0.0032766778669444754,"705":-0.03144870912277319,"706":-0.029317630245211307,"707":-0.024488156297564734,"708":0.002108139552271656,"709":0.039877891854897256,"710":-0.010229249710678276,"711":0.014593404639089038,"712":-0.02921845472422801,"713":-0.013084066012104463,"714":0.015163709681749396,"715":-0.004951935598378492,"716":-0.02169333875538055,"717":0.0398459347264535,"718":-0.03214753332617099,"719":0.018154151986525244,"720":0.00561552387213088,"721":0.02206639696216823,"722":0.0033100993041816147,"723":-0.005034033320718699,"724":0.012359355984025221,"725":0.015813201553979944,"726":-0.00965794841285109,"727":-0.02402058678771601,"728":0.021243260145503356,"729":-0.012332680620278662,"730":-0.0015477222821316302,"731":0.029152141632828844,"732":0.019347401718386285,"733":-0.03790339892716628,"734":-0.00486788129102004,"735":-0.0035289328497349563,"736":0.03815784453507004,"737":0.03195741711710004,"738":-0.0036052498420930793,"739":-0.0301603945727924,"740":0.058161220521715,"741":-0.001594007832151872,"742":-0.00680794142032266,"743":0.016785765496764502,"744":-0.03688384943140669,"745":-0.024483977264827258,"746":-0.02672469291974117,"747":-0.038012173372472445,"748":0.05260204080436188,"749":0.00715881919898702,"750":-0.0027455724135057877,"751":-0.010591619133980969,"752":-0.02387290814449738,"753":0.029408666958819073,"754":-0.049177801444700374,"755":0.007769637546786402,"756":-0.008925151178793578,"757":-0.019145361677979356,"758":-0.0072000566497128285,"759":-0.016368393657185138,"760":0.017831630979586535,"761":-0.013804406439720435,"762":-0.025492264652976302,"763":-0.0364510811436227,"764":0.005618936542389003,"765":0.012753827548892259,"766":-0.0006732384735577617,"767":0.06483965231395065,"768":-0.01894608470545227,"769":-0.017894575867464613,"770":-0.039133129650189315,"771":-0.025612735690743012,"772":-0.011192462868493883,"773":-0.006166911903824272,"774":-0.02712790504729981,"775":0.04142033231879917,"776":-0.04567112395550919,"777":-0.011672480074261216,"778":-0.02689668280736245,"779":-0.0006204000048194519,"780":-0.004148392137468444,"781":0.00429179079747174,"782":-0.015062523786619325,"783":-0.04833203491225021,"784":0.061696808302879165,"785":0.001678768821223464,"786":0.03771397905352527,"787":-0.008278184296044573,"788":0.04569553876077037,"789":-0.02626288201685017,"790":-0.033828301714522446,"791":-0.0940004262465084,"792":-0.023965776398785034,"793":-0.008139249094616257,"794":0.019471207151484392,"795":0.03598595414026644,"796":0.012724712852082024,"797":-0.016128806152464936,"798":-0.005978072381215732,"799":-0.010654392457149418,"800":-0.020510227433674137,"801":-0.04475015737622115,"802":0.00873772752868074,"803":-0.0019935431921519224,"804":0.019903522658082647,"805":0.03536603065267451,"806":-0.05754485506809296,"807":-0.041618956227534386,"808":0.033032634135028785,"809":0.04980749205222685,"810":0.015252695366118459,"811":0.01982071319538932,"812":-0.029861072326879855,"813":0.006716545596465546,"814":-0.0023891249001448626,"815":0.04040387726744688,"816":0.05541056757017916,"817":0.006938752291305197,"818":-0.007393039833038731,"819":0.02011775957395532,"820":-0.016509727856621376,"821":0.007028270070456773,"822":-0.00886128917760458,"823":0.02269004212041004,"824":-0.024568797931402916,"825":-0.022314342005811352,"826":-0.009730884361880398,"827":0.0010154003450402393,"828":0.03579642710703588,"829":-0.004656124576921704,"830":-0.035382759513073646,"831":0.009166336330710281,"832":-0.05327233530768611,"833":-0.04418349925628902,"834":0.03580556530458844,"835":-0.023956142119706793,"836":-0.023385629661178884,"837":-0.03058816511091413,"838":0.03198710698523896,"839":0.028818435416379178,"840":-0.05643652711654809,"841":0.053569906797042925,"842":0.008897356126189497,"843":0.03399672674454078,"844":0.05845615949029678,"845":-0.10267309021302608,"846":0.026686190852003563,"847":-0.017193065241251446,"848":-0.08408977448132893,"849":0.054030895878250454,"850":0.011058058568345802,"851":-0.02350469922306846,"852":0.08195728827501297,"853":-0.016614928165662183,"854":0.08128926600347978,"855":-0.003591399552695863,"856":0.012560182071358096,"857":0.011325410352565244,"858":0.0245679583595638,"859":0.05078316869536655,"860":0.0091106568751417,"861":0.0032486218368653385,"862":-0.006249407669025915,"863":-0.011289383804288452,"864":0.016959657223148645,"865":-0.04412906461742771,"866":-0.018174175011664816,"867":-0.0018568006153162112,"868":0.0467801377869718,"869":-0.042796963949589824,"870":0.15067202221201606,"871":-0.08074953126264296,"872":0.04291584593886716,"873":-0.03954803350429652,"874":-0.015198789094348023,"875":0.04952442907104454,"876":-0.06253174057540092,"877":-0.07582513888105691,"878":0.0607361519653766,"879":-0.009765155028751478,"880":0.02000157855225386,"881":-0.02853499004257659,"882":0.02759321604391236,"883":0.013211776385962892,"884":0.02186231250827359,"885":-0.02024770411348932,"886":0.024916883548171242,"887":0.013588899248534446,"888":-0.011726215382006784,"889":0.0011118798793767672,"890":-0.038639870223266086,"891":0.023677195394434598,"892":0.08362035215365458,"893":-0.07163578798605104,"894":0.001961427306119582,"895":-0.18229032317226515,"896":-0.04331988077801704,"897":0.0405428230804381,"898":0.012282440000320319,"899":0.05010038851862222,"900":0.0638363862627394,"901":-0.01651441702160935,"902":0.011022265803264751,"903":-0.023989963670925273,"904":0.02941292987709512,"905":-0.03938969974032305,"906":0.17922366867187575,"907":-0.011411475171326504,"908":-0.10565235000893751,"909":0.002672753093545475,"910":-0.053483233240170125,"911":-0.038197757963041735,"912":-0.036174465509452094,"913":0.03141530974225069,"914":0.02437814184299724,"915":0.00009445921944438577,"916":0.04617731342592335,"917":-0.03477429807228361,"918":-0.03650142284884467,"919":-0.04421177271771586,"920":0.052989876875642654,"921":-0.03647454878296493,"922":0.003719797968685757,"923":-0.007818291342258987,"924":0.06382798600627429,"925":0.037778882661656965,"926":-0.002068722031629439,"927":0.04609702847323732,"928":-0.035656493721631356,"929":-0.023813215501193172,"930":-0.04314924172554707,"931":-0.05029526334190639,"932":0.08617658923952828,"933":0.01657047855757916,"934":-0.03369732965280018,"935":0.021980890904042708,"936":-0.03388620887734947,"937":-0.024482332830203648,"938":-0.050499834892499956,"939":0.04821031221355235,"940":0.10036398631116514,"941":-0.04558554323558667,"942":0.05012671910726111,"943":-0.0535327973334098,"944":-0.04804025323979156,"945":-0.005711753488388001,"946":0.030509183158878243,"947":-0.010967815757071458,"948":0.07228461998033466,"949":0.03271890248806905,"950":-0.0035170380743823654,"951":-0.009131433400162703,"952":-0.009980300326354358,"953":0.007457670488287381,"954":-0.019163926013602655,"955":0.02648742349968444,"956":-0.02894995626640912,"957":0.028172726004537234,"958":-0.025539290623595515,"959":-0.0021407506211205385,"960":-0.020206610424501045,"961":-0.030169563187582675,"962":0.03910042924010072,"963":0.08606064944637314,"964":-0.021175521887912444,"965":0.03650049650844704,"966":0.016569593853398942,"967":0.033800702772924476,"968":0.027314899646468688,"969":-0.0039026212786125274,"970":0.009731858831919989,"971":-0.01386041131840356,"972":0.01171266787649243,"973":0.029235253164391566,"974":-0.04079611227070679,"975":0.011065415127571848,"976":0.01357968187360033,"977":-0.002237830087451415,"978":0.022790644415270855,"979":-0.019830812297890306,"980":-0.005912905591144848,"981":-0.04009787622615618,"982":0.04001534394758752,"983":-0.00339086562727751,"984":0.007688353823603313,"985":-0.004095290848644997,"986":0.06822826898500678,"987":-0.02648650445530201,"988":0.003589481099052176,"989":-0.014820078255568282,"990":0.017678647528650466,"991":-0.025578821903645313,"992":0.05389776325886894,"993":-0.022039736532148677,"994":-0.009397046959670521,"995":0.0016781144279302822,"996":-0.022653150206531227,"997":0.01912383745468496,"998":0.0038249604333326255,"999":0.04492309729814866,"1000":-0.057076773225610715,"1001":0.08719021230468114,"1002":-0.009339958615652982,"1003":0.033290359187588145,"1004":-0.011572832076065622,"1005":-0.04309306173688255,"1006":-0.02654411217764772,"1007":0.03857915426919848,"1008":0.00279603218478789,"1009":0.003150078393133425,"1010":-0.04934380516274066,"1011":-0.010045632459487206,"1012":-0.01853365870443829,"1013":-0.002530234141565252,"1014":-0.00943353790142892,"1015":-0.0004097037191648659,"1016":-0.01193467432121032,"1017":-0.015078403111168249,"1018":0.014075984309965914,"1019":-0.029170530542926204,"1020":0.030644320210344703,"1021":0.01893030287014488,"1022":0.013044456433879663,"1023":0.03974289066026696,"1024":0.00599434653316614,"1025":-0.02664893879202113,"1026":-0.02080777416633995,"1027":-0.01711615829540075,"1028":-0.05920670869224218,"1029":-0.010485928091159575,"1030":0.02786516667942718,"1031":0.026360956456821325,"1032":0.03871232756093734,"1033":0.027306134251230192,"1034":0.05536755539691972,"1035":-0.003211683103668866,"1036":-0.023337430815240423,"1037":-0.001973157081600069,"1038":0.00805651055163761,"1039":-0.010025172027104508,"1040":-0.007714417784830618,"1041":-0.003219345909540879,"1042":-0.019020471503628445,"1043":-0.012185197711958176,"1044":-0.05150976486668105,"1045":0.00005735854545289973,"1046":0.06443216375631525,"1047":-0.04425493753128362,"1048":-0.044768894238316856,"1049":-0.009591762998471462,"1050":-0.011348290020638845,"1051":0.033048321263022554,"1052":-0.0034843002880446216,"1053":-0.0349213044875024,"1054":0.015084407064083111,"1055":0.0532507296089,"1056":0.013741836950940485,"1057":0.024976777410189353,"1058":0.028228780713946543,"1059":-0.08948685723193814,"1060":0.15525309492831382,"1061":-0.043333740206077075,"1062":-0.0820014876985374,"1063":-0.02936668870532167,"1064":0.026804522085173924,"1065":0.05961200156729717,"1066":-0.10366864075260065,"1067":-0.06708950591874284,"1068":-0.04000002683249258,"1069":-0.016780274719564097,"1070":0.011086243270770447,"1071":0.022816705428547062,"1072":-0.10255158192826704,"1073":-0.050023897128921656,"1074":-0.02125903655310008,"1075":-0.011370477720417174,"1076":0.06997264036100653,"1077":0.17712138055576246,"1078":0.007493393795704455,"1079":-0.04863312371244991,"1080":-0.02138705476867952,"1081":-0.03614164286334676,"1082":0.006465837370009466,"1083":-0.026699898448197285,"1084":0.03606745062570964,"1085":-0.04403923266125877,"1086":-0.008307101689101365,"1087":-0.013447594403934627,"1088":-0.026608789312453616,"1089":-0.003568187549175475,"1090":-0.047025142342629674,"1091":0.07284780542254167,"1092":-0.051548916751475694,"1093":0.12387845359870411,"1094":-0.007189182673254902,"1095":-0.006169196105050143,"1096":0.015078642894368912,"1097":-0.05460905687806734,"1098":-0.06191681311125903,"1099":-0.0373968585551486,"1100":-0.1196115396882614,"1101":0.0884975960151426,"1102":-0.023009386439637052,"1103":-0.11083630237732248,"1104":-0.02806261425064761,"1105":0.033477730415113184,"1106":-0.009220979763885952,"1107":0.024765862925033546,"1108":0.012753723890410563,"1109":-0.014226155349743886,"1110":-0.024936379020651673,"1111":-0.0011808877191130426,"1112":-0.004296192098051262,"1113":0.007258382699622662,"1114":-0.00678911023415894,"1115":0.02363151637933149,"1116":-0.07008930999123231,"1117":-0.0014448270402604296,"1118":-0.021047858329937066,"1119":0.10009787052415074,"1120":0.06864821145896526,"1121":-0.046467574828721,"1122":-0.1134953119293758,"1123":-0.018764535873579884,"1124":-0.15487019611521707,"1125":-0.06348015499965896,"1126":0.006322648165861287,"1127":0.11014049641884892,"1128":0.024580402614784693,"1129":-0.017292726581603413,"1130":-0.076328412215703,"1131":0.054274275907850694,"1132":0.037688711126642106,"1133":-0.06705802599038463,"1134":-0.09138704622993567,"1135":0.034682474161528705,"1136":0.03936099039490938,"1137":-0.06704557649948258,"1138":-0.01159074323319181,"1139":-0.005217522064685223,"1140":-0.031001826562164967,"1141":-0.08890496133173174,"1142":-0.004297589551110998,"1143":0.04679005298878743,"1144":-0.03932464696227202,"1145":0.00714658614937114,"1146":0.015309017349354517,"1147":-0.02542960029840807,"1148":-0.10764137557896498,"1149":-0.010864780416873412,"1150":0.023721855331325196,"1151":-0.01905656404400247,"1152":0.056849632806893424,"1153":0.027264402286448684,"1154":-0.0940118639484279,"1155":-0.012863024933163212,"1156":-0.0411239911552982,"1157":0.030912257632247073,"1158":-0.027546495155965068,"1159":0.046190484574145235,"1160":0.02210092006935117,"1161":0.032804360839116385,"1162":-0.07409848527575995,"1163":-0.038554348611421346,"1164":-0.030928770551293172,"1165":0.06500196079509987,"1166":-0.012877006152112994,"1167":-0.02943768335012643,"1168":-0.004464031637767893,"1169":-0.059898989483619276,"1170":-0.03203913646113284,"1171":-0.022725557879050944,"1172":-0.04179172966432673,"1173":0.00008085061022781377,"1174":0.03298667735859679,"1175":-0.019430459585496388,"1176":-0.010173547320282304,"1177":0.017677991129298843,"1178":-0.025084119760207264,"1179":0.013840475101883605,"1180":0.06589757877217868,"1181":0.004179316153959321,"1182":0.017684473628374227,"1183":-0.054635370262202804,"1184":-0.04605814535508568,"1185":-0.016216687870524327,"1186":-0.033375249961979714,"1187":0.07413950645712886,"1188":-0.040221674102379035,"1189":-0.04330895548430005,"1190":0.0038103964099111963,"1191":0.0450715611505494,"1192":-0.01912594650903308,"1193":0.008547980007268365,"1194":-0.03385788150328851,"1195":-0.0011325738425564953,"1196":0.02281697356862908,"1197":-0.08418908945960318,"1198":-0.056348061096789706,"1199":0.1859260873437257,"1200":0.01453143955249463,"1201":-0.02658789714066945,"1202":-0.01738159893024947,"1203":0.00001330625463167231,"1204":0.017485336287078445,"1205":-0.043708275983675035,"1206":0.017125961047960447,"1207":0.011721422555727213,"1208":-0.015454139975309346,"1209":0.012397816497607761,"1210":0.010434523949822454,"1211":0.11340363524267456,"1212":0.00359287138985831,"1213":0.015198189984322983,"1214":-0.06679912032371488,"1215":-0.06092298753579501,"1216":-0.09536891919692708,"1217":-0.017478668463824006,"1218":-0.04418156028768262,"1219":-0.08260435436043029,"1220":-0.002462885915924118,"1221":0.057353456523007114,"1222":0.0335394877736672,"1223":-0.054161316454108856,"1224":0.009883577161902775,"1225":0.0010881342885927763,"1226":-0.010888195430630168,"1227":-0.061456711445294646,"1228":0.001433865486682524,"1229":0.0762110582662734,"1230":-0.06050750553758809,"1231":-0.006656244686403571,"1232":-0.007749912893686299,"1233":-0.03162719112520883,"1234":0.010823973437384612,"1235":0.029140352686034404,"1236":0.00889128682366209,"1237":-0.01207811192285873,"1238":0.023034036599975546,"1239":0.014599777785362344,"1240":0.011426585488749395,"1241":-0.004598582479968729,"1242":-0.19780518036914368,"1243":-0.004884347006107243,"1244":0.07736441564765571,"1245":0.013892212858723047,"1246":-0.007038791800866927,"1247":0.046284075841884986,"1248":-0.06029689305762729,"1249":0.003988511006093065,"1250":-0.023867816206605736,"1251":-0.003589160452723934,"1252":0.0002664483560482904,"1253":0.00252260617355182,"1254":0.017908947886232717,"1255":0.02747943883036196,"1256":0.04807934802769466,"1257":-0.01376462379183375,"1258":-0.03635615743048328,"1259":0.022324399012617287,"1260":-0.02611092271127813,"1261":-0.008494640590854639,"1262":-0.0319369250512717,"1263":-0.051888283552585894,"1264":0.010832659148996695,"1265":0.006309702978343486,"1266":0.006844953940446493,"1267":0.028641404732078445,"1268":0.00029852840461093064,"1269":0.029900385105366366,"1270":0.004747375072928811,"1271":0.03915897207883307,"1272":0.002176160968052998,"1273":-0.054037127409609795,"1274":0.0009814594066089631,"1275":0.004639664807733433,"1276":0.023759110076467197,"1277":0.0370050067503188,"1278":-0.0012278805860894088,"1279":0.015645783035055948,"1280":0.02327391231545814,"1281":0.07183411801409473,"1282":-0.027802095175341206,"1283":0.02342151564174891,"1284":0.06988191158068958,"1285":0.04728795003127618,"1286":-0.08215194680769101,"1287":-0.0026368369898271222,"1288":0.006931760118499914,"1289":0.026796226594981636,"1290":-0.08845132609725198,"1291":-0.028735461437330283,"1292":-0.008922887118021432,"1293":-0.0026893663399483007,"1294":-0.054315934751452924,"1295":0.00016132015864772474,"1296":0.022318194475115467,"1297":-0.002362551094957598,"1298":0.06659285964848714,"1299":0.010913697455020655,"1300":0.0975638933568277,"1301":-0.004077950138247558,"1302":-0.05648200729103558,"1303":0.061717858493175154,"1304":0.09352082090826754,"1305":0.012098875301211908,"1306":-0.013647135455111955,"1307":0.007057812703730953,"1308":0.06505431638115755,"1309":-0.025540562866822956,"1310":-0.009744908618850035,"1311":-0.023307563881118556,"1312":-0.02363535534264895,"1313":-0.08505558535523415,"1314":0.02586187279746559,"1315":0.15333806151716545,"1316":0.0018892004528290104,"1317":-0.2181059289442591,"1318":-0.019889280091118695,"1319":0.002338374583558885,"1320":0.01637956903434812,"1321":-0.015149575668983624,"1322":-0.0667435007744515,"1323":-0.053368153979034647,"1324":0.004079706269418972,"1325":-0.004530022950548207,"1326":-0.006935708536141426,"1327":0.029263760906885254,"1328":0.032670722002712364,"1329":0.024145418814995715,"1330":-0.016958048167549755,"1331":-0.020119913126557965,"1332":0.04729542869915383,"1333":0.012834406162760095,"1334":-0.0891997340374659,"1335":0.0117638245251134,"1336":0.00832249966547831,"1337":-0.023444631997589935,"1338":-0.005840085254187956,"1339":-0.00498065652532165,"1340":-0.10685853506483135,"1341":0.02923642006287426,"1342":-0.018124008031386606,"1343":-0.037842734439527716,"1344":0.08572690427257255,"1345":0.047576079325768815,"1346":0.018058741547252392,"1347":-0.0482969578884242,"1348":-0.030068591593654027,"1349":-0.013371521020757018,"1350":-0.06105177614207524,"1351":-0.02501610278180733,"1352":-0.046223909657228196,"1353":0.028865460855924695,"1354":-0.07179282305714793,"1355":-0.057204640199078255,"1356":-0.016383276761363308,"1357":-0.06416195589029074,"1358":-0.026035612850196455,"1359":0.026798882846733933,"1360":0.04057899198938791,"1361":0.03488105543503851,"1362":-0.06258286666434713,"1363":-0.002356601677082413,"1364":-0.05757885821787799,"1365":0.007808872298660389,"1366":0.1153505925096762,"1367":-0.04333365638009585,"1368":0.07403473169157408,"1369":-0.061298430309922686,"1370":-0.028577911633827113,"1371":-0.036623131835220896,"1372":0.03653531292067737,"1373":-0.052443423255279814,"1374":-0.025810389590152822,"1375":-0.10437023221581784,"1376":0.03758191266196309,"1377":-0.13950341226859925,"1378":-0.054482071585502376,"1379":-0.06850797466217982,"1380":-0.07629317488774334,"1381":0.026824246163085458,"1382":-0.01674635059856955,"1383":-0.0586562614962174,"1384":-0.009790820284453812,"1385":0.051545914043943264,"1386":-0.025223228824360615,"1387":0.025794242024971877,"1388":0.028051197700018383,"1389":-0.0202196195830218,"1390":0.009114321185289771,"1391":0.059184344112903346,"1392":0.20941771643736684,"1393":-0.011991643607539619,"1394":-0.03205745318976044,"1395":0.029141696251330805,"1396":-0.042234888821801896,"1397":-0.023260243155737065,"1398":0.007163779632434992,"1399":0.02511631304590025,"1400":-0.08755021875544457,"1401":0.0069018998064352835,"1402":-0.13874069905033615,"1403":-0.028352552543111476,"1404":-0.14013979939639923,"1405":-0.010625945632133123,"1406":-0.0609055510948507,"1407":0.04069868769689947,"1408":-0.01892498425549205,"1409":-0.024810717279999114,"1410":0.0033058979004867758,"1411":-0.00548982079332133,"1412":0.04042680395802067,"1413":-0.07766936791177494,"1414":-0.027706435965131993,"1415":0.13940862761217931,"1416":-0.040061947053219894,"1417":-0.004587312817409238,"1418":0.07066108274109889,"1419":-0.018238637038174542,"1420":0.000049910909326411446,"1421":-0.08476793845499501,"1422":0.010650879123108995,"1423":-0.03995938642010047,"1424":-0.04767562002838125,"1425":0.014973247722486148,"1426":0.012494437113355902,"1427":0.007898313224190125,"1428":0.07006287272895097,"1429":-0.027178876135668276,"1430":-0.02958834139503074,"1431":0.01600014367156591,"1432":-0.028645429913431587,"1433":-0.0038863602169671644,"1434":0.0026530553876702805,"1435":-0.02533936697803187,"1436":-0.009206142576250777,"1437":0.011817816356439926,"1438":-0.034149134511920816,"1439":0.024240861227357326,"1440":-0.0865170419761208,"1441":-0.04281442981912707,"1442":-0.1472912678128321,"1443":-0.0516677419259746,"1444":0.021625409434158555,"1445":0.06096844411144939,"1446":-0.008150498260063959,"1447":-0.007325241365433406,"1448":0.014317784479139482,"1449":0.03552070278896334,"1450":0.08558066683312791,"1451":-0.026197885531569622,"1452":0.005057777178579709,"1453":-0.026884667666190926,"1454":0.03444741348562901,"1455":-0.02394480368987078,"1456":0.034833383308458,"1457":-0.14262295938579558,"1458":0.005869476829192591,"1459":-0.008115632615425302,"1460":-0.024496842069813125,"1461":-0.04890632718902126,"1462":-0.06490977532642266,"1463":-0.0411157022747179,"1464":-0.021610072771105035,"1465":0.01745322502840775,"1466":-0.04083283289978194,"1467":-0.031630938050427305,"1468":-0.06300155297630933,"1469":-0.058602820599185895,"1470":0.0017842323473114092,"1471":0.028130412254034416,"1472":-0.045717830886019654,"1473":-0.022258601536316355,"1474":-0.10304421049895869,"1475":0.0018975436082367574,"1476":-0.02826237884365981,"1477":0.009872563701022026,"1478":-0.06336076242523397,"1479":0.011023296867277793,"1480":0.015102865839727586,"1481":0.02767297670335129,"1482":-0.02352364986521527,"1483":-0.09740909718880417,"1484":-0.008640925374648523,"1485":0.0323213694306942,"1486":-0.07382701417375748,"1487":0.0007972279749155138,"1488":-0.03792623686518848,"1489":-0.04496238864069634,"1490":-0.015171247936322216,"1491":0.010623829174681378,"1492":-0.030714976770319997,"1493":-0.019963947102801093,"1494":-0.05468110293365361,"1495":-0.019717077638705307,"1496":-0.02043847056282182,"1497":-0.03201606627626425,"1498":-0.010122302328846564,"1499":-0.035398774730337215,"1500":0.03607854285989799,"1501":0.009043813019261852,"1502":-0.025441313753499152,"1503":-0.006367681735722739,"1504":-0.037584236394269964,"1505":0.004937902544907605,"1506":-0.000982414560129426,"1507":-0.019470107833927296,"1508":0.01721024330076921,"1509":0.03298887985617744,"1510":-0.013153034175255767,"1511":-0.015051309445247862,"1512":-0.05086278776331586,"1513":-0.010537220767611396,"1514":0.028277951755730668,"1515":-0.009701028180162628,"1516":0.03719317577559114,"1517":0.03428717675478224,"1518":0.000986350936965051,"1519":-0.015387214303560985,"1520":-0.007369926287617423,"1521":0.044433201671046654,"1522":0.007341156315754973,"1523":-0.03263659616253592,"1524":0.03657925542372403,"1525":0.0016723738848788531,"1526":-0.02209389439175161,"1527":0.004656001280539163,"1528":0.0315500331031965,"1529":-0.03913079472645019,"1530":-0.01608127501877698,"1531":0.008491510279011754,"1532":-0.0026670364984581595,"1533":0.0031260162513571284,"1534":-0.01870606701266481,"1535":-0.07459932576030685,"1536":-0.016937199560947063,"1537":-0.008330640016636732,"1538":0.04657729306005839,"1539":0.0313961312748984,"1540":0.022079939232139748,"1541":0.0013948698747386918,"1542":-0.0008521142002399383,"1543":0.004046533997125161,"1544":0.025399092317271204,"1545":0.0029370261138646704,"1546":-0.003645487057330026,"1547":0.019886760109683283,"1548":-0.04924669612381077,"1549":-0.021309767543557148,"1550":-0.048667740303196746,"1551":0.030203812604567885,"1552":-0.008848654752080657,"1553":0.000400762759716158,"1554":0.03045795923162773,"1555":0.012325649946254054,"1556":0.06152874829012011,"1557":-0.003912683194699849,"1558":-0.02917836133665314,"1559":0.03246396671636274,"1560":-0.013678014064342027,"1561":-0.022388280220729057,"1562":0.018965294333329306,"1563":0.15073799572246005,"1564":0.02713881503337426,"1565":0.012189356085987629,"1566":-0.04905784855349091,"1567":-0.033167303009483444,"1568":-0.02520860914542713,"1569":0.07591557098192148,"1570":0.015887483420147057,"1571":-0.03233081670085632,"1572":-0.01443023110240717,"1573":-0.004019089004019369,"1574":0.06525734529407304,"1575":0.009933658235851881,"1576":-0.04249791356206207,"1577":-0.047969709262785376,"1578":-0.01293453643807836,"1579":0.05936336851780076,"1580":-0.016576172172095165,"1581":0.001153834214598274,"1582":-0.018233760796709787,"1583":-0.007425552191487034,"1584":-0.03631005647154543,"1585":-0.00010637297882412724,"1586":-0.010990010881118797,"1587":-0.015390578234733105,"1588":0.016021535079521778,"1589":-0.0003059222563505174,"1590":0.09834254339748562,"1591":-0.030311591423874077,"1592":0.10331201996097035,"1593":-0.005559622952722252,"1594":0.022216261332996784,"1595":-0.0772857681159702,"1596":-0.03492561617948802,"1597":0.003764566372352246,"1598":0.006235843507364176,"1599":-0.03453150084419789,"1600":-0.00546117878390858,"1601":0.013636389662110362,"1602":0.011822032665280853,"1603":-0.03912745829183072,"1604":-0.03943133396918378,"1605":-0.015370144958789567,"1606":-0.05511628000807342,"1607":0.02356510947043517,"1608":-0.0168241316971619,"1609":-0.027708032690687046,"1610":0.03141315365505065,"1611":-0.010966484304059719,"1612":-0.01933309203304452,"1613":0.015675843430217835,"1614":-0.055310746620585646,"1615":0.009708429178406542,"1616":-0.04023782242352234,"1617":0.01821781044118661,"1618":-0.03376916817550779,"1619":-0.005874935372306807,"1620":0.09637048159131917,"1621":0.026684601754784893,"1622":-0.04085411659833402,"1623":-0.005474674617214346,"1624":-0.026995735171388032,"1625":-0.020748938916858292,"1626":-0.027048614989002226,"1627":-0.021683590265415373,"1628":0.053834013419001105,"1629":-0.05343099568663308,"1630":-0.029199248223071315,"1631":0.028396287957384005,"1632":-0.04046695535501736,"1633":-0.09842290997879925,"1634":-0.025673509093490032,"1635":-0.046473349255808975,"1636":-0.021299560911075613,"1637":-0.016601910838006016,"1638":-0.03852110586780673,"1639":0.0630714142361649,"1640":-0.0876642407007267,"1641":-0.03318121780239249,"1642":0.000784458045458698,"1643":0.02321554871177905,"1644":-0.011062992851782376,"1645":-0.030656960997304424,"1646":0.038813260733417836,"1647":-0.006911602410561705,"1648":-0.05668195049869804,"1649":0.007368879697146943,"1650":0.02202389059351396,"1651":-0.005434507961388681,"1652":0.03539001222720504,"1653":0.02790864176639334,"1654":-0.014130015730775332,"1655":0.0033804356111844956,"1656":0.031664123077714774,"1657":0.035539075562406125,"1658":0.044177886234346216,"1659":-0.1701978899569841,"1660":-0.06917875561398358,"1661":0.038250004515683333,"1662":0.029401276131976205,"1663":0.03303566135167581,"1664":-0.010220148245455425,"1665":-0.0026537666477439116,"1666":-0.0439402696022462,"1667":-0.053374923402760614,"1668":0.053715959448646884,"1669":0.020798487639312645,"1670":-0.0001593144855315851,"1671":-0.0002878006829664124,"1672":-0.01250516816994608,"1673":0.04692752800152699,"1674":-0.000971451510807415,"1675":0.008609195779522811,"1676":-0.04866093435213986,"1677":-0.014496076489138246,"1678":0.022624214143868983,"1679":-0.02733413388118877,"1680":0.053567049873656195,"1681":-0.04422315026072568,"1682":0.01791544358048335,"1683":-0.030118207340724495,"1684":0.11031974267276794,"1685":0.02507341574532005,"1686":0.05525954339701828,"1687":0.052642039101363,"1688":-0.02658069343700288,"1689":0.02834145561245431,"1690":-0.022774752474901298,"1691":0.03198100915757453,"1692":0.0890474292300252,"1693":-0.02851630094894225,"1694":-0.006108160577165661,"1695":-0.03184967012254267,"1696":0.02070060120040599,"1697":0.0065616812363128146,"1698":-0.016450645898178327,"1699":0.024680272064036984,"1700":0.004037406760048367,"1701":0.037159744780324834,"1702":0.09156112911649465,"1703":0.04816290442625905,"1704":0.010381274459608571,"1705":0.011416726470037612,"1706":-0.025656668374330713,"1707":0.0021098000083522306,"1708":-0.043421845652587276,"1709":0.011628026719936775,"1710":0.019646386227140822,"1711":-0.013824096299392529,"1712":-0.059718912756595154,"1713":-0.007972282360890457,"1714":0.021620271921252494,"1715":0.019438629978835113,"1716":0.06934856488999395,"1717":0.016373478004114584,"1718":-0.09676832837504411,"1719":-0.02152110346235491,"1720":-0.015031606574231787,"1721":0.012847479998515564,"1722":0.015039204319580909,"1723":-0.016705357708579407,"1724":-0.010638981528071072,"1725":-0.004238714619799664,"1726":-0.0009743539283691758,"1727":-0.009650984870882635,"1728":0.03255088230807206,"1729":0.023105970131460665,"1730":0.0077623832455260494,"1731":-0.00412567549711583,"1732":0.039504352471267,"1733":0.012952392922672792,"1734":0.05701268017036861,"1735":-0.01337531029231056,"1736":0.00003361395565055251,"1737":0.010144560110001543,"1738":0.0024021859087060915,"1739":-0.02369994821366569,"1740":-0.021236545414477087,"1741":0.04847094995041958,"1742":-0.058953474114184556,"1743":0.003206691759078478,"1744":0.054739108091710315,"1745":0.0023639153781743,"1746":0.017538928729236028,"1747":-0.0059413905886163895,"1748":0.013171374017259383,"1749":-0.05013752895083084,"1750":-0.0952801337765746,"1751":-0.0033706643573994844,"1752":0.0122327002160381,"1753":-0.014715493283881536,"1754":0.014597410947498989,"1755":0.02640381325211158,"1756":-0.019612715145805308,"1757":0.053272703493505796,"1758":0.008337323186366095,"1759":-0.022379421619765884,"1760":0.0032454450687466794,"1761":-0.04012937776286604,"1762":-0.025992908512971827,"1763":-0.021908353938640213,"1764":0.009470223231496796,"1765":-0.002755067126391862,"1766":0.000791124019621735,"1767":0.0014382487515270756,"1768":-0.0037029787853826187,"1769":-0.0032122072721923966,"1770":-0.011652709302576664,"1771":-0.00973960374970362,"1772":-0.07214379692148684,"1773":0.04683654206674153,"1774":-0.014952266190037857,"1775":0.05650049066154804,"1776":0.003701806486455728,"1777":0.0033379142205207293,"1778":-0.014487130473317272,"1779":-0.03376435689798185,"1780":-0.026337940724955766,"1781":-0.023355548504788343,"1782":0.01354252038494856,"1783":-0.01643176575482821,"1784":0.004930983786061998,"1785":0.006719579613196812,"1786":-0.015363424227189074,"1787":0.03437949272595338,"1788":0.0021684469453454535,"1789":0.05686085821693561,"1790":0.0005127979113940019,"1791":0.07855061405867939}},{"sx":1,"sy":1,"depth":1792,"w":{"0":0.018825639671358304,"1":-0.03733246665000622,"2":0.023792417209320106,"3":0.03631084871744664,"4":-0.14003752020091273,"5":-0.024444680629942817,"6":0.003757209714761013,"7":-0.2822709257782796,"8":0.0012693601293587483,"9":-0.023182069657343048,"10":0.0725450102436931,"11":0.02203120693999165,"12":0.008433171558714838,"13":-0.023022825638901196,"14":-0.00875006356496362,"15":0.010984363700070767,"16":0.026854769608903914,"17":-0.01637607485654033,"18":-0.009375281610370031,"19":-0.026617709056008566,"20":0.010593578867214399,"21":-0.06621997502103248,"22":-0.00836654785214325,"23":0.022571120127656257,"24":-0.02644584044150222,"25":0.0196246322609984,"26":-0.0006490794518236329,"27":0.00027165781485383547,"28":-0.01819699857628504,"29":-0.030423518860454125,"30":0.03571467035596213,"31":0.005329649781030058,"32":0.041403755681443756,"33":0.03469131197083623,"34":-0.06045401237811514,"35":0.006147171740775207,"36":0.05874604925780835,"37":-0.1405537659685061,"38":0.009463840778041075,"39":-0.036074160323452516,"40":-0.008911767818759408,"41":-0.021604026556384076,"42":0.020307827714846037,"43":-0.04946800529177024,"44":0.004976086882264305,"45":0.01272732741243437,"46":-0.012184512707741544,"47":0.0462500535304413,"48":-0.03307530374237427,"49":-0.056803612195189174,"50":-0.017535962296695632,"51":0.044399538719303376,"52":-0.027076323182303564,"53":0.010983459304219236,"54":0.03462011913294185,"55":0.00030963802892681655,"56":0.04554333783024904,"57":-0.019189067104119942,"58":-0.10886829602593188,"59":-0.07950359561325558,"60":0.04551968241458835,"61":0.014760974973833786,"62":-0.0027562395305999274,"63":0.009552520754847622,"64":-0.016828140525332925,"65":-0.050493172805214405,"66":0.02365554560131588,"67":0.015548026933224657,"68":-0.1297429233186547,"69":0.06908984389737055,"70":0.031548546981441224,"71":-0.13189112499658473,"72":-0.004431502070356068,"73":0.021666228828668983,"74":0.04389330619106691,"75":-0.039339340560726424,"76":-0.002453365482803261,"77":-0.020702702814263663,"78":0.02431988318499376,"79":-0.009624830711294542,"80":0.0011881275456855466,"81":0.11160193703604396,"82":-0.024456211492838432,"83":0.0067859643574016216,"84":0.019637290633416647,"85":0.08431945371480748,"86":-0.022126096781725155,"87":0.002784290004372956,"88":0.005587993952370941,"89":-0.007797780648084561,"90":-0.021102301773582043,"91":0.12055364746921621,"92":0.030890686525983375,"93":0.034717881642053465,"94":0.020432854550977625,"95":0.01088675783612557,"96":-0.14310225052234649,"97":-0.037316051522855824,"98":-0.09747460308366562,"99":0.01900178086629516,"100":-0.08310683322675635,"101":-0.049255417145428755,"102":-0.08021394427410383,"103":0.028991600334261125,"104":-0.026980196213484835,"105":-0.1012078631814812,"106":-0.025183353878851022,"107":-0.030855211221643402,"108":0.020536211230504028,"109":0.007555371582951364,"110":-0.07906628983858555,"111":0.0252564400284283,"112":0.03776570488011331,"113":0.038433207787814117,"114":-0.014902683854292265,"115":-0.021475676177018687,"116":0.020699361234029913,"117":-0.009811996641547277,"118":0.07413762082070512,"119":-0.039474431071236556,"120":0.00852633803861806,"121":-0.02555781273891782,"122":0.0892638203385463,"123":-0.00991005190463087,"124":-0.005050316517450739,"125":0.02979234784800127,"126":-0.04594868974318092,"127":-0.0069003838431421025,"128":0.046089390222421804,"129":-0.019352870656796636,"130":0.045095566918315025,"131":-0.039151085120508244,"132":-0.13661601230700177,"133":-0.08314631411856688,"134":-0.02489971871062342,"135":-0.08176382525244492,"136":-0.08244519700559938,"137":-0.09388473596412786,"138":-0.3152898392180782,"139":0.03981397532947152,"140":0.00026136235463263197,"141":-0.014790659277583388,"142":0.09358672589823527,"143":-0.010807618862870016,"144":-0.012216813967001533,"145":0.03447494800984797,"146":-0.002215275174165063,"147":0.03303908880009381,"148":-0.004624015215692511,"149":0.003131400550857382,"150":0.03324580378685235,"151":0.015006362844610531,"152":0.09352230108166731,"153":0.01642066028985312,"154":0.004088304040595702,"155":-0.0936068546414037,"156":0.062371081410243764,"157":-0.030848144983231695,"158":0.04101432392254476,"159":0.01424306971581032,"160":-0.06757016045218732,"161":-0.06165704420541703,"162":-0.03666911849852864,"163":0.034770045936542586,"164":-0.021751581406811764,"165":0.1072292926404471,"166":0.011889598393701665,"167":-0.041495647321428686,"168":-0.02364822138201529,"169":0.11193710260263766,"170":-0.08285094772467524,"171":-0.01805459029687058,"172":0.014345219105544106,"173":-0.0017775563677720119,"174":-0.08798231364808246,"175":-0.019636932532954503,"176":0.016429826414513894,"177":0.025104659617630903,"178":-0.022066660520711667,"179":-0.01112892359474636,"180":0.03718288876716769,"181":0.051014360023748935,"182":0.005254715872876208,"183":-0.015010058204503374,"184":-0.03474726226410641,"185":0.013649048456343932,"186":-0.10686068105365956,"187":0.094464171024205,"188":-0.13325515557635867,"189":-0.005833050990536734,"190":0.01098973482960612,"191":0.015506035333295223,"192":-0.08279995880649028,"193":0.03417703459160318,"194":-0.016876943822647403,"195":-0.019853904662307804,"196":-0.012034241525653354,"197":-0.030378840626427046,"198":0.03621371085918664,"199":0.019222424643068108,"200":-0.057832044589512244,"201":-0.03128301743096479,"202":-0.018685989233749662,"203":-0.04109562295237144,"204":-0.008255839326301946,"205":-0.007852106010299807,"206":-0.08816928943953346,"207":-0.018003980234361883,"208":0.04178271832244381,"209":0.034974671529464846,"210":-0.022821393348716596,"211":-0.009549874817984902,"212":-0.026635636543806487,"213":0.018099686344238346,"214":0.02119578839295613,"215":-0.0232507538829253,"216":0.0796680949923929,"217":-0.036426155201421916,"218":0.015537257437584957,"219":0.019347628478423605,"220":0.038658657840232126,"221":-0.02277663648871641,"222":-0.019240331988298276,"223":0.01527035498979736,"224":0.1700662755407199,"225":0.013661160265514644,"226":-0.005573434334966686,"227":0.0027905594582618475,"228":-0.006049330109667313,"229":-0.02889832038141404,"230":0.031130103526873936,"231":-0.05155975091937961,"232":-0.031180318769605996,"233":0.03863328214372216,"234":0.004132326873021612,"235":0.008149656304876731,"236":-0.0016424954616260908,"237":0.029819820464327584,"238":-0.06274318631927145,"239":-0.013271904787974383,"240":0.005314198347608649,"241":0.009564930854089451,"242":0.006930271124490963,"243":-0.034558858886745904,"244":0.03586158809857344,"245":0.021925228438907218,"246":0.03131388971336494,"247":-0.013335077036699583,"248":-0.0105165973710606,"249":-0.02485247574843471,"250":-0.009310177258204686,"251":-0.02178883717234278,"252":-0.03856851076607289,"253":-0.005431421647912606,"254":0.029312602720837952,"255":0.01496199135229456,"256":-0.035764907264548236,"257":-0.03890953040772813,"258":-0.0024223182876683,"259":-0.03274983710561309,"260":0.11037449598772706,"261":0.016931643509903525,"262":-0.01158050098899541,"263":-0.0346935401084194,"264":0.018501019779423544,"265":0.06959355327002456,"266":-0.00008071586498183848,"267":-0.041526979756294866,"268":-0.017336419038078844,"269":0.01632548074615023,"270":-0.02111078502879532,"271":-0.04601108611454656,"272":0.14410281508060943,"273":0.029668989450989468,"274":0.015316720199203038,"275":-0.018414306796857904,"276":0.06477535165576043,"277":0.08111072482049421,"278":-0.007393031019499211,"279":-0.06302954404928038,"280":0.03991251569749878,"281":-0.020763701662759423,"282":0.026949649181973137,"283":-0.016523109056408542,"284":-0.016822559695308246,"285":0.0020477540356201238,"286":-0.027228402219031545,"287":-0.024521420424551053,"288":-0.022969951851373915,"289":0.07650114348465596,"290":-0.07860487251540779,"291":-0.02141866102504264,"292":0.010508346810650939,"293":0.14553696814734132,"294":-0.0195641316365627,"295":0.0834011714563334,"296":0.12484050346941412,"297":0.015896215915648847,"298":-0.06230879911208154,"299":-0.0009502829630205785,"300":-0.05441574614511378,"301":-0.01762687283300171,"302":-0.0764750820386128,"303":0.016260054342755233,"304":-0.027387097987392812,"305":-0.006401802676389077,"306":0.008880836226748623,"307":-0.019542138864746525,"308":-0.0455942994781335,"309":0.003262425200094293,"310":0.009370258244355183,"311":0.002677948026534246,"312":-0.0776619142667923,"313":-0.043488853649772063,"314":0.03563718005907092,"315":0.11968102115765496,"316":0.22020041138849963,"317":-0.021064397605811032,"318":-0.015156938065589464,"319":-0.00025496361457404636,"320":-0.013844047504743566,"321":-0.023282104763293097,"322":0.056926623293996524,"323":0.025751911678386717,"324":0.044192787250855785,"325":-0.06261414383253763,"326":-0.079932853184877,"327":-0.1322705088126776,"328":-0.21577399969559521,"329":-0.21125421607956724,"330":-0.08167495320276004,"331":-0.029080535329242464,"332":-0.017309664664334104,"333":-0.009476828656131428,"334":-0.0019096907030255149,"335":-0.0073782428713523645,"336":-0.27227109142521494,"337":-0.02158631949608541,"338":-0.056594552748028784,"339":-0.014903522534029637,"340":0.1520820722952293,"341":0.14227527313984809,"342":-0.050806373299757415,"343":-0.007838874626385724,"344":-0.043397518323223895,"345":-0.009221677713087881,"346":0.09202203822524675,"347":0.01640261290262444,"348":-0.10691046016227654,"349":-0.036249263630870124,"350":-0.019816207421013882,"351":0.005499379698380885,"352":0.0954839737541785,"353":0.1993743772817961,"354":0.12902865198375274,"355":-0.02835387071112069,"356":-0.24113705826499707,"357":0.23251960953845077,"358":0.012566649221943496,"359":-0.25213554386090975,"360":-0.06669452546726404,"361":-0.018647374161070523,"362":0.07417457924789041,"363":0.07718558763295603,"364":-0.02887303972804141,"365":0.02235539284922683,"366":0.017033912927807374,"367":0.00772723116575028,"368":0.019283544930745494,"369":0.12465066348201813,"370":-0.03010673653760258,"371":0.015614497584674286,"372":-0.06165202309087039,"373":0.21185385578457014,"374":0.025226920231947992,"375":-0.028546640585545766,"376":0.09779960829084322,"377":0.048833659547363684,"378":0.024547055558996653,"379":-0.05417410277451911,"380":0.12878982546020024,"381":-0.018879887453869194,"382":-0.025098273885555165,"383":-0.010024675178120248,"384":-0.18866744096567437,"385":-0.04412796418323241,"386":-0.17661638257887705,"387":-0.03697092029582171,"388":0.24268429963312452,"389":0.11768485381271816,"390":-0.07310422198469885,"391":-0.05795451708947705,"392":-0.1858102414923798,"393":-0.1679321927349209,"394":-0.14154003585809688,"395":0.05834381403845993,"396":0.022934789757594328,"397":-0.029184874092461913,"398":-0.12893546963634284,"399":-0.0005724022285101689,"400":0.1549517442482573,"401":-0.005887326038025879,"402":-0.003468650395686719,"403":0.01293270217849636,"404":0.08803530824416762,"405":0.06341559069287421,"406":0.041534881314865615,"407":-0.053263263495919456,"408":-0.18382399448897468,"409":-0.04080742993905559,"410":0.164865472935905,"411":0.007472245985416076,"412":0.055531641653695646,"413":0.01865621897332437,"414":0.018991821963164113,"415":0.03481025030034338,"416":0.036972976833403295,"417":0.09011168613649767,"418":0.008875318512440215,"419":-0.08023165945842749,"420":-0.006698287021149435,"421":-0.09419031049659024,"422":-0.04195100088856371,"423":0.021668428579362062,"424":-0.06447210086183558,"425":-0.13777073758354433,"426":-0.2373506233246306,"427":0.12512498218877563,"428":0.07257518387166124,"429":-0.023582615447589998,"430":0.017961174879282553,"431":-0.05208110014131693,"432":0.016088696015979946,"433":0.021286403405497624,"434":0.013635126260323894,"435":-0.012914698804405251,"436":0.04870440006116577,"437":-0.013141672897388093,"438":-0.01772832112556053,"439":-0.014598581914306304,"440":0.07368549563484734,"441":-0.021185990428168842,"442":-0.04592323923761596,"443":0.036001001365463935,"444":0.08612832610782024,"445":-0.011514826119389386,"446":0.036058754415602905,"447":-0.013870742947924494,"448":0.12924243810365613,"449":0.08210579005362281,"450":-0.07251621534484101,"451":0.002111979198803927,"452":0.0030627777068173777,"453":0.09835666713070597,"454":0.08251048877315069,"455":0.03396575811942304,"456":0.02312305520258424,"457":0.1243131513735224,"458":0.021485642595305627,"459":-0.04217107749187807,"460":0.027296813619287617,"461":0.023738607295688965,"462":-0.09591285896181348,"463":-0.0032777651567130212,"464":-0.08949366517630832,"465":0.025168531565755246,"466":-0.004662590933628113,"467":0.034579516895135026,"468":-0.0100503469388583,"469":0.019540286953962097,"470":0.01386143596491628,"471":0.00002330417867948729,"472":0.019550416140225152,"473":0.0012765510892504322,"474":-0.04421025763116378,"475":0.02075010163238234,"476":0.3758243826504048,"477":0.04710773698271114,"478":0.005867371277210613,"479":-0.005360427902050289,"480":-0.024501960471837832,"481":0.000272790023073133,"482":-0.026978600365056407,"483":-0.020174341898047576,"484":0.0320379061201966,"485":0.005332474161686815,"486":-0.07251361528756302,"487":0.017321972069582053,"488":0.03396242610648511,"489":-0.01525688539256593,"490":-0.013044052210900783,"491":0.03408253086678571,"492":-0.014554894121517392,"493":0.019575297414401064,"494":0.030426614085131105,"495":0.030368654206774984,"496":-0.005776755720812075,"497":-0.01860913070928463,"498":-0.011609784212789015,"499":-0.028566061775687,"500":-0.02169539452404167,"501":0.0346230794605341,"502":-0.010452333590412767,"503":-0.013312933148308956,"504":0.04615120579935866,"505":0.010595316606155081,"506":-0.013328169464877875,"507":-0.010404734150524467,"508":-0.037336523330370366,"509":-0.0372378588084146,"510":0.0014513004791382917,"511":-0.03655611818910874,"512":0.004512326009060688,"513":0.08268953036900241,"514":0.004107507944910151,"515":-0.005457497389939036,"516":-0.044951100598243796,"517":-0.05930236678279183,"518":0.03928121220081628,"519":0.05662165104532239,"520":-0.0442799882676472,"521":-0.02375590492628026,"522":0.059011320775391826,"523":-0.011932102830380787,"524":-0.04143883590573938,"525":-0.0024626636480648808,"526":0.0246002746035855,"527":-0.02381809496182828,"528":0.014183502923935972,"529":0.017241621778692443,"530":0.02292029996825197,"531":-0.02341443417117163,"532":-0.226441969779561,"533":-0.08321726891374272,"534":0.05397105802542995,"535":0.13322512211622564,"536":0.03848347962326899,"537":0.0032717193841014904,"538":-0.004729628828399536,"539":0.0070190525370743264,"540":0.03171327433227757,"541":-0.02546039937673058,"542":-0.00850438995782414,"543":0.018048797443304156,"544":-0.01695403174393625,"545":-0.11271959382889157,"546":0.02005272006483031,"547":-0.0327347163829906,"548":0.08009841448861875,"549":-0.07990757367265257,"550":0.023004782436641433,"551":-0.17580556446694634,"552":-0.06274599917517697,"553":-0.01165663863271053,"554":-0.12165517217327414,"555":-0.016326400193933773,"556":-0.0017243802084294256,"557":0.00042429032194335166,"558":-0.03891003152493716,"559":0.001578957202317371,"560":0.019726621759597524,"561":0.0567272951590091,"562":0.008160822282767901,"563":0.0217777930223543,"564":0.05873987021091059,"565":-0.08224316915447037,"566":-0.04618066709734537,"567":-0.032320286431822845,"568":-0.01768186631127678,"569":0.0696942128210497,"570":-0.09559799142962369,"571":0.1472867011714849,"572":0.031107205063926023,"573":-0.024895566875066152,"574":-0.016005598821207646,"575":-0.021968842605113875,"576":0.039732518943798624,"577":0.13063771595481863,"578":0.10850799710031511,"579":-0.06290928180228647,"580":-0.06952717968606041,"581":0.06397104087867714,"582":-0.014484430014685669,"583":-0.39900386574479957,"584":0.027054681903649565,"585":-0.10477694312991978,"586":-0.07197839867570906,"587":-0.14297506887017652,"588":0.004469903456756513,"589":0.03424756288317487,"590":-0.18906454307597642,"591":0.013514744121634071,"592":0.154542078362484,"593":-0.06156540459754333,"594":0.023496486195811427,"595":0.023333119927019873,"596":-0.11400613429205612,"597":-0.04518165922776697,"598":0.09484231350527234,"599":0.03245650519909425,"600":0.00757860730654584,"601":-0.040909433963952566,"602":0.06076645878703853,"603":-0.004800920765263036,"604":-0.007365608177365045,"605":-0.007428662266462197,"606":0.012380962779139578,"607":0.018545520068688454,"608":-0.02340399468947179,"609":-0.08104245175302438,"610":-0.019085510674434997,"611":-0.03087635584667254,"612":0.02729990330093617,"613":-0.23826136829994252,"614":0.07027409635012571,"615":0.032951931137972845,"616":-0.25201265610329293,"617":0.06215444875429505,"618":-0.055656614487184744,"619":0.10437072876593838,"620":-0.0369462576484584,"621":0.11055868632297634,"622":-0.0036331239553385724,"623":-0.04012761922660512,"624":0.6339435782850125,"625":0.0048185632069557265,"626":-0.018220950878703773,"627":0.014447836590932739,"628":0.10453845336678243,"629":-0.023273058626164363,"630":0.08940599730417675,"631":-0.06048547045640353,"632":0.022556790894202455,"633":-0.008146405915858407,"634":0.17319737353122905,"635":-0.01850134480248693,"636":-0.07016867265341006,"637":0.030302185878075927,"638":0.0070360991662495025,"639":0.04834323207787445,"640":0.13292297887179205,"641":0.08537590519615192,"642":0.007093904837503448,"643":-0.12772417640160758,"644":-0.008912520813775957,"645":0.043593112534552954,"646":0.01204878928365721,"647":-0.05173023816963297,"648":0.09913369037455336,"649":-0.06511742492286597,"650":0.011995296136591933,"651":-0.022229112882273788,"652":-0.06164987661315577,"653":-0.01161698294237225,"654":0.16152770133733485,"655":0.0436409749849281,"656":-0.09783683882987791,"657":0.0032318357138321034,"658":-0.026833199410582678,"659":-0.01814064752174419,"660":-0.09857260140646308,"661":0.05855793081021563,"662":0.015467009996164965,"663":0.015345192501482514,"664":-0.09113188897490047,"665":-0.008361281964860263,"666":-0.039672700271334696,"667":0.11955650751848629,"668":-0.11367609482206655,"669":-0.05393135048905591,"670":0.026314323255655445,"671":-0.003996997411544154,"672":0.04530903393607021,"673":-0.02723104261334583,"674":-0.07492908627603959,"675":-0.08658623204677199,"676":0.010324904681947264,"677":-0.030598388963933104,"678":0.20854776626716998,"679":-0.03390665628430712,"680":-0.08517660971861095,"681":-0.028265437049693812,"682":0.04198740009099765,"683":0.09147234874928281,"684":-0.00981441039336181,"685":-0.04658596441329409,"686":0.011528933830183495,"687":-0.0578809550737733,"688":-0.0055664525382008575,"689":0.0441896467211316,"690":-0.029696692701097635,"691":0.007591068906733954,"692":0.024579427778478425,"693":-0.027356316037842686,"694":0.04066380776390987,"695":-0.01558652925829064,"696":0.023201625433720844,"697":0.05142541556451012,"698":0.015439483459634471,"699":0.011676189556814555,"700":0.05392668004466195,"701":-0.011839561226036159,"702":0.0017915865414058004,"703":-0.1127106672975843,"704":0.0463689494091729,"705":0.023113642809594947,"706":0.06196261736130849,"707":-0.05805108057540385,"708":-0.03151203418803742,"709":-0.049554298306758886,"710":-0.0733810992361407,"711":0.014247824764851218,"712":0.015629164275157464,"713":-0.03448588353796723,"714":-0.0027523231001060637,"715":-0.041805075841064854,"716":-0.07137794522638974,"717":-0.0101631763357564,"718":0.020239276549238048,"719":0.03669676088909351,"720":-0.018697730492279113,"721":0.014045658793765452,"722":-0.0005150895281734433,"723":0.02345418483324832,"724":0.002085876785006584,"725":-0.00931975630605446,"726":-0.09068222084747353,"727":-0.00564051977307417,"728":-0.014465008081823693,"729":-0.02546045260017912,"730":-0.025058274239007812,"731":-0.0995275165292853,"732":-0.027217579054119246,"733":-0.01707429945760302,"734":-0.02001041436895318,"735":-0.0037297716136452715,"736":0.009855550570248513,"737":0.00029628855530988447,"738":-0.0295347797952023,"739":0.05369276599579452,"740":-0.0030312360166760252,"741":-0.020998954828950245,"742":0.007973777000025743,"743":-0.029904400057047777,"744":0.0018741560228059723,"745":-0.01585248248454509,"746":0.0369216467941954,"747":0.06422516586277727,"748":0.013523905334179269,"749":-0.006735194425130788,"750":-0.014854353206768383,"751":0.03587853198323168,"752":-0.04096169199907497,"753":-0.01726460403977791,"754":-0.008285448446890633,"755":-0.0012412095796272276,"756":0.027028779702476267,"757":-0.022274714732697792,"758":0.01717220780960534,"759":-0.0008634178102160952,"760":-0.01389936531957342,"761":-0.003955392992750891,"762":-0.022594797522797007,"763":-0.039992558227522665,"764":0.08467943243084528,"765":-0.06105733995197266,"766":0.0054515825414162816,"767":-0.049314866311020146,"768":0.0223402695177208,"769":-0.00562365810874065,"770":0.027180761050802044,"771":-0.0282652818766334,"772":0.0021132795284676794,"773":0.0438008910513446,"774":0.00593172473830971,"775":-0.05036720694939432,"776":0.10846408515773306,"777":-0.05838821374618013,"778":-0.10230126112020337,"779":-0.0038461068082360174,"780":0.015525201105769772,"781":-0.012671324621176976,"782":-0.0743125506889563,"783":-0.0043670061373863615,"784":-0.07443924871216435,"785":0.04383856393837035,"786":0.004856610123026636,"787":-0.01141040996370712,"788":0.009730971623235805,"789":0.037867503509674896,"790":0.06518850006407759,"791":0.07893747736256576,"792":-0.07780212828762716,"793":-0.00426153409651489,"794":0.0011899457510774585,"795":0.07340306310452219,"796":-0.012641651160347671,"797":0.045160869731782065,"798":-0.01096464253077517,"799":0.0048277956560916595,"800":-0.03599516274122147,"801":-0.005189050707029776,"802":-0.058057780814756745,"803":-0.012770659414306716,"804":-0.02285202979533241,"805":-0.075975411495225,"806":-0.003302601903991666,"807":0.03297307841972352,"808":0.15973336346119849,"809":-0.012242965216794594,"810":0.01810319645269062,"811":0.019128062873757273,"812":0.017870464195250357,"813":0.08968778868553895,"814":-0.1268905796143636,"815":-0.0007040753688724997,"816":-0.0474683049262657,"817":-0.0016337437010375743,"818":-0.0033405075071063647,"819":0.03545794513372669,"820":-0.08654263536294497,"821":-0.015397985172449778,"822":-0.2119791861572224,"823":0.03094772818212793,"824":-0.002768109001936074,"825":0.016065935464473217,"826":-0.1513559594908484,"827":0.07566566406351787,"828":-0.03397528392435859,"829":-0.01887047205689435,"830":-0.021047074892737962,"831":-0.020428726955879748,"832":-0.09671520924079956,"833":0.05431025879525305,"834":-0.08790593664737864,"835":-0.028992012664669838,"836":0.062221485373618574,"837":-0.039817740349109634,"838":-0.12239884192346862,"839":-0.06400030106742259,"840":-0.09673579155571192,"841":-0.024171953180646126,"842":0.06544238285766397,"843":0.07953857793087539,"844":-0.04728714494208225,"845":0.029403934218581253,"846":-0.07182937350480992,"847":-0.19039420872487448,"848":-0.16608956700196567,"849":0.095841145776197,"850":0.00018984647795797785,"851":0.029477898860134983,"852":-0.006660555178569462,"853":0.03558473720766312,"854":0.10685968985896457,"855":-0.004181247311539532,"856":0.012156631889434501,