{"layers":[{"out_depth":2,"out_sx":7,"out_sy":6,"layer_type":"input"},{"sx":4,"sy":4,"stride":1,"in_depth":2,"out_depth":32,"out_sx":4,"out_sy":3,"layer_type":"conv","l1_decay_mul":0,"l2_decay_mul":1,"pad":0,"filters":[{"sx":4,"sy":4,"depth":2,"w":{"0":-0.3274316997307811,"1":-0.04792878446327513,"2":1.6214323535554922,"3":-0.035280037399591305,"4":-0.5104977961094119,"5":-0.21240675370236342,"6":-0.5575098357653575,"7":-0.1488219412161419,"8":-0.6035697745564538,"9":0.4091361899539419,"10":-1.050695290753847,"11":0.18492710548537364,"12":1.3447585815083558,"13":0.12548050332923055,"14":-0.9380211513068145,"15":0.10188971320330752,"16":0.2180114557718008,"17":-0.6161736145933974,"18":0.3904444911249423,"19":0.4251089073486903,"20":-0.799513068665648,"21":0.7639157704188233,"22":1.0503956314657887,"23":0.09206611129181701,"24":-0.5338110499061895,"25":0.4172324738130636,"26":0.14541879822019024,"27":0.4263066985720876,"28":0.21801058921752478,"29":0.2050247484614745,"30":-0.22544477537186175,"31":0.649357502548545}},{"sx":4,"sy":4,"depth":2,"w":{"0":-1.029504120105042,"1":1.0552829490775772,"2":1.7261168910537068,"3":-0.47340396839794485,"4":0.04331995183071857,"5":0.00847748194425718,"6":0.3601094371484847,"7":-0.19514404192582427,"8":0.32943031049914506,"9":-0.004558906817339973,"10":-0.1209208037462419,"11":-0.22108630650944336,"12":-0.4098722729017945,"13":-0.31332898643203955,"14":0.19181534483320958,"15":0.14100410924659337,"16":-0.06176229365393982,"17":0.6754831424252584,"18":0.6033360558241143,"19":0.38996112784484166,"20":0.012697184585895043,"21":-0.02130298735500106,"22":0.2594653114339945,"23":0.07025562149718687,"24":-0.16565114339061468,"25":0.33814904544403734,"26":0.6860821150232118,"27":-0.15403909687144982,"28":-0.17763622810512156,"29":0.6237317960063827,"30":-1.1314532315658719,"31":2.173545115652263}},{"sx":4,"sy":4,"depth":2,"w":{"0":-0.24055310800743065,"1":-0.032037928094336254,"2":-0.0340517984573682,"3":0.15545228300518743,"4":-0.11179611188675785,"5":-2.9832643272682704,"6":-0.1974134928094802,"7":0.49859582026729043,"8":-2.9692153397910404,"9":-0.38261807619622346,"10":-0.41681824512711274,"11":0.1307590262877685,"12":0.13373323366598716,"13":0.29259162057048166,"14":0.3535766884113913,"15":0.09437605179654313,"16":-0.26809895722967136,"17":-0.2838548095696359,"18":0.6762645846370351,"19":-0.26945433378831113,"20":-0.2573187191653155,"21":-0.3418708324470791,"22":-0.22640951105045867,"23":-0.011902027768832455,"24":-0.16142081334664368,"25":-0.18336442133707903,"26":-0.2418368304044992,"27":-0.3609206360845393,"28":4.2820428695585075,"29":-0.6790541489341977,"30":-0.15438134016185803,"31":-0.10295570231120177}},{"sx":4,"sy":4,"depth":2,"w":{"0":0.02552999948232189,"1":-0.2719815388699304,"2":-0.1783017551993799,"3":-0.3400605212729527,"4":-0.2148915960858502,"5":2.800540575108924,"6":-0.22257841888580432,"7":-0.6426632929865784,"8":2.222215902024907,"9":0.014098541428127121,"10":-0.03955863792339099,"11":-0.19334675100178284,"12":-0.20911185581147862,"13":-0.16381963600518593,"14":0.0897765468429911,"15":1.0731946724721513,"16":-0.024703335080772052,"17":-0.11137291992441971,"18":0.14328918936903226,"19":-0.29647579029742727,"20":-0.18636236632050257,"21":-0.17215368283185575,"22":0.1199282753713879,"23":0.22543777570669474,"24":0.37487197106611886,"25":0.2040314467855541,"26":0.08531071320426106,"27":-0.101629650628408,"28":-2.0272194566650192,"29":-0.3489339634289239,"30":0.1375699274090247,"31":0.04065003855659938}},{"sx":4,"sy":4,"depth":2,"w":{"0":0.3809900176994362,"1":-0.10858739650224726,"2":0.2528464080089728,"3":0.07751469858943238,"4":-0.17255804297711044,"5":1.8845393593594528,"6":-0.3724015664509793,"7":0.5347757825358984,"8":-1.025792756824237,"9":-0.308520697741993,"10":0.15257571345251822,"11":-0.13338666348340028,"12":-0.23452040439354452,"13":0.3585942362949094,"14":0.15599538285958792,"15":-0.14080559835935644,"16":0.005906103808076423,"17":0.22251187524770352,"18":0.14675229688260644,"19":0.2638307260098388,"20":0.0836317162620673,"21":0.12836972909479466,"22":-0.04433145120982904,"23":-0.1797938605292385,"24":0.4016086369912201,"25":0.25914246227483273,"26":0.03272110771234435,"27":-0.5266307052723666,"28":-0.01426522686074407,"29":-1.0252183934134365,"30":0.7941348399084572,"31":-0.023989802771162246}},{"sx":4,"sy":4,"depth":2,"w":{"0":0.963804536379881,"1":-0.016149857730831906,"2":0.43333576766654264,"3":-0.2707277078723472,"4":0.041336589868036185,"5":0.1500192095792123,"6":0.0729822201478082,"7":-0.11452204156937368,"8":0.138791854471427,"9":-0.3804642038160433,"10":0.29741756283476756,"11":0.04605762347831381,"12":0.5048524930591888,"13":-0.026118045870952265,"14":-0.02336833347144175,"15":0.4568777085841315,"16":0.039462969503321385,"17":0.030646688399471184,"18":0.07541898568466568,"19":0.2922004005564514,"20":0.10686405287307858,"21":-0.08030943018722683,"22":-1.1350441287243733,"23":0.4103382883506116,"24":-0.5941968414069029,"25":4.025071829912959,"26":0.44831755728840716,"27":0.2768889736495592,"28":-0.2696892869189121,"29":-0.0391889585222553,"30":0.2694236083658018,"31":-0.25589534484666565}},{"sx":4,"sy":4,"depth":2,"w":{"0":0.11973877972409323,"1":0.5461381538654605,"2":0.6682147680263366,"3":1.5026694103572813,"4":0.32460237425611765,"5":-0.13277878045414657,"6":0.22066034548440944,"7":-0.18826567116903412,"8":-0.25139681949982806,"9":-0.15186503221188832,"10":-0.14456217466986923,"11":0.3277666060231174,"12":-0.5622274777194648,"13":-1.2683785424119098,"14":0.4552148565047003,"15":0.1632893547892795,"16":-1.2779479910271252,"17":-0.07445115090081235,"18":-0.20654699982263883,"19":-0.6149728248061268,"20":0.2588634573033921,"21":0.7749867767998051,"22":1.0863715688272668,"23":-1.9820258890659028,"24":1.7926807462621999,"25":0.9465526622447029,"26":-0.8782161832425517,"27":0.5069234629594894,"28":0.006463612286553748,"29":-0.47108404817461,"30":0.3369099236439055,"31":0.08009615672238299}},{"sx":4,"sy":4,"depth":2,"w":{"0":0.8394095900068472,"1":0.07245737301023314,"2":0.30040090590183727,"3":-0.5876542448996829,"4":0.7015824718144784,"5":-0.7303867743096122,"6":0.5335162719805897,"7":-0.35041166226996584,"8":0.32885297919114537,"9":-0.29491595781261987,"10":-0.14000324164447805,"11":0.23878834937673454,"12":0.09317221285173334,"13":0.16469026627401614,"14":1.2739570558037574,"15":0.713023059572554,"16":0.28020242702078063,"17":-0.599280384181968,"18":1.1785308122060985,"19":-0.16813299432595524,"20":0.3496627771535274,"21":-0.14747661025889028,"22":0.022489385172856532,"23":-0.2795671495836688,"24":0.04749743356028839,"25":-0.2844107839472961,"26":-0.001362583116225045,"27":0.118285119209618,"28":-0.020641192678119053,"29":0.2370050319505698,"30":0.02858133708535142,"31":0.8845585753703982}},{"sx":4,"sy":4,"depth":2,"w":{"0":-0.5951823211286281,"1":0.5592200838349293,"2":0.10229505181748652,"3":0.5923949320197691,"4":0.5939292560808618,"5":-0.05298015509228543,"6":-0.42479847313077257,"7":-0.23455159379878987,"8":-0.4875182174156967,"9":-0.40177457041864967,"10":-0.20207794787127098,"11":0.2586839946986097,"12":0.07539358417979256,"13":0.2323027631146606,"14":-1.1103236772244023,"15":0.1926855391534137,"16":-0.6834537220322954,"17":-1.5598755650547222,"18":0.2756124318101156,"19":-0.09061700930035214,"20":0.2375088274848675,"21":-0.3035545556800513,"22":-0.14431980126251662,"23":-0.14091722687841163,"24":0.8357011361404035,"25":1.4795420022296317,"26":1.6077121862061532,"27":-0.5331627639492562,"28":0.9226786443856232,"29":0.7640438450570876,"30":-0.08262313697469667,"31":0.6514041775647571}},{"sx":4,"sy":4,"depth":2,"w":{"0":2.3541560535476536,"1":1.2080415860023397,"2":0.4047226049566549,"3":0.06934572317075366,"4":0.1875963238071487,"5":-0.38651385238970987,"6":0.931975141851924,"7":-1.1752250739096752,"8":0.8564994391535438,"9":0.6328927931672136,"10":-0.6832395017056433,"11":-0.3018361949998399,"12":0.9700291189794881,"13":-0.10267766373825274,"14":0.7032465217031453,"15":-0.4802798529918906,"16":0.5085914266288638,"17":0.4391534354993815,"18":-0.02218722093351041,"19":-0.05823559792116806,"20":-0.02606130888671392,"21":0.24233826807477804,"22":-0.163892425006965,"23":-0.41248278713328224,"24":-0.6681362557111691,"25":0.011601546263576906,"26":-0.26489380262341145,"27":-0.38346021713816975,"28":-0.3054894592138672,"29":-0.5273502372689277,"30":-0.2310569395459826,"31":1.0638866285764672}},{"sx":4,"sy":4,"depth":2,"w":{"0":-0.5670362511175536,"1":-0.49069889164405717,"2":-1.8774864242557983,"3":-0.5153726294434138,"4":0.46643282525567453,"5":-0.11595021930831562,"6":0.38530282492217177,"7":-0.2291386566795005,"8":1.185909519446142,"9":1.2859903687463201,"10":-0.43339854630594016,"11":0.06354609715726074,"12":0.6789508373702273,"13":-0.4008970543299126,"14":-0.47685026611436887,"15":-0.38191222289806914,"16":0.10501998986444283,"17":-0.1317990164120426,"18":-0.3800221581051204,"19":-0.464403933674182,"20":-0.45071396023964105,"21":-0.3823130562736388,"22":-0.5553098241430106,"23":-0.1370276419680031,"24":0.26839961565571546,"25":3.391795238340246,"26":-0.5134226386599423,"27":0.03831681161618911,"28":-0.027596873109889796,"29":-0.10800983163945956,"30":-0.3354035205552769,"31":-0.49237969967906986}},{"sx":4,"sy":4,"depth":2,"w":{"0":0.41778446721887674,"1":-0.47691955037544537,"2":-0.14583306153239797,"3":-0.3385023416315993,"4":-0.2790921125190699,"5":-0.38567540897775093,"6":0.573341580640237,"7":-0.11344875067121453,"8":0.4222747919154475,"9":-0.05255370358828284,"10":0.005422615049916329,"11":-0.5404552515403281,"12":-1.5426154379651478,"13":-1.5215013903990777,"14":-1.5912757883122786,"15":-1.4249254311585675,"16":2.321441364502511,"17":1.6200499435680054,"18":1.1699013484440146,"19":0.009741840501240207,"20":-0.7711249252745936,"21":-0.3397217341694783,"22":0.2475407264622446,"23":-0.1119771679193071,"24":-0.16962744328917478,"25":-0.19994273695100206,"26":-0.4458354087705342,"27":-0.3558309629280311,"28":0.12384831010185975,"29":0.3235358788638804,"30":-0.3059319017908784,"31":0.07297213512653523}},{"sx":4,"sy":4,"depth":2,"w":{"0":-0.39389379984064826,"1":-0.4941351077151823,"2":-0.2108639567546929,"3":-0.06710153759141528,"4":0.008366116706512602,"5":4.4940220577092225,"6":-0.0413547354030898,"7":-0.23604296968109256,"8":-2.1232688137371536,"9":0.49585605933265153,"10":-0.081828885480054,"11":0.12230449599983688,"12":-0.023697491121057342,"13":0.2626873231142388,"14":0.25362840770487544,"15":-1.2806468580640027,"16":0.07959652862905679,"17":0.14331191278058966,"18":0.2959391314742361,"19":0.2844640202805645,"20":0.06773208176224003,"21":-0.0017483503778611533,"22":0.0032389655811619717,"23":-0.15419423202358118,"24":0.1479870782602222,"25":-0.007625798831867707,"26":0.049888936309837345,"27":-0.004151530797844663,"28":1.0401173515128312,"29":-0.40537798261488506,"30":-0.492885117638525,"31":-0.05386087619020183}},{"sx":4,"sy":4,"depth":2,"w":{"0":-0.4711750530910028,"1":-0.11456693994666567,"2":-0.4163981613787091,"3":-0.013063397094895847,"4":0.4459301949248915,"5":-0.8633320133117289,"6":0.6817002273901971,"7":-0.17280811104744423,"8":0.16740998973099858,"9":-1.3077136571060295,"10":-0.08038333949415279,"11":-0.02211807317145739,"12":-0.08105703124182786,"13":-0.16669632911043744,"14":-0.39319732951504166,"15":-1.236622084588769,"16":-2.716266694703782,"17":1.1741300724594828,"18":1.2285562793714764,"19":1.2562792982142919,"20":-2.736285852295315,"21":-0.2874042320297199,"22":-0.024704124473888204,"23":-0.056713915467593266,"24":0.1191656368595261,"25":-0.36109022256298656,"26":-0.060406132120957794,"27":0.06797603631185933,"28":-0.23046306117537482,"29":-0.24335763569752508,"30":-0.10078689101772406,"31":-0.43711451305369986}},{"sx":4,"sy":4,"depth":2,"w":{"0":0.01914320042919824,"1":0.05562062856166206,"2":-0.22451800036403907,"3":-0.3660334859910059,"4":-0.18132768517409342,"5":-0.27477794709305026,"6":-0.06790158422527275,"7":-0.12682307738941018,"8":-0.07213617360073034,"9":-0.07512588129878443,"10":-0.05047784550610915,"11":0.11310052026177535,"12":0.3371476584298492,"13":-1.5078514419235776,"14":1.7735900973332062,"15":-0.8718405292738373,"16":-0.6903770969832778,"17":2.7596928053860146,"18":0.11264254145276982,"19":-0.4171915294268466,"20":0.07026585438751332,"21":0.20100156659732263,"22":-0.03917764012788054,"23":-0.18438400452987658,"24":-0.07630878179284116,"25":-0.0613001140803563,"26":0.02092063261229639,"27":1.038564101592106,"28":0.25882957860366046,"29":0.21050951990527206,"30":0.38317997566102163,"31":0.23483487611257145}},{"sx":4,"sy":4,"depth":2,"w":{"0":-0.35471946018542466,"1":-0.18434557015104627,"2":-0.1813268819594289,"3":-0.47168005635530286,"4":0.2559128421223766,"5":-0.6115907441096989,"6":-0.3237161309511772,"7":0.5714834801497046,"8":-1.1969028362257537,"9":0.011537365571264143,"10":-0.48851932893241606,"11":-0.2090021728245864,"12":-0.6004191366104242,"13":-0.6999748745625508,"14":-0.7399542451254474,"15":-0.721921594812204,"16":0.7761100187051819,"17":-3.131236174128461,"18":1.3260247228939295,"19":0.7218321730518711,"20":0.18747164249764658,"21":-1.5118622808348026,"22":0.3300283960031945,"23":0.16840854895317914,"24":-0.2995362190933689,"25":-0.5644010065167591,"26":-0.06865427884029753,"27":0.00485591723264568,"28":-0.6198482322170972,"29":0.4855940318090842,"30":-0.2903202505348964,"31":0.22243968016389207}},{"sx":4,"sy":4,"depth":2,"w":{"0":1.0154867153063711,"1":2.7136303408857234,"2":0.19858240880647876,"3":0.08033239344039665,"4":0.1414954724704988,"5":-0.03917682458397196,"6":-0.6689574932591067,"7":0.37130902413611416,"8":-0.23031860301898435,"9":0.22094259943080558,"10":0.07730572657680755,"11":-0.06388609542147952,"12":0.16453784470809898,"13":0.5950222182309491,"14":0.5555465224404195,"15":0.07262176175452535,"16":0.5100608660018766,"17":0.6225717052094188,"18":0.08620717784867148,"19":-0.06701293028805418,"20":0.01829747763877734,"21":0.1685530546327168,"22":0.7262210984282659,"23":0.37644255214097233,"24":2.7214541099524987,"25":-0.4215351142604483,"26":-0.14824657151429058,"27":-0.19582694351019864,"28":-0.20695544411229796,"29":-0.2334468719918843,"30":0.06356686227385382,"31":0.720116482492261}},{"sx":4,"sy":4,"depth":2,"w":{"0":0.027822554333793922,"1":-0.3208801252868306,"2":0.4240972230773541,"3":-0.4240491919805527,"4":-0.8010846105824383,"5":-0.09089665519487634,"6":0.08065694093717002,"7":0.36727246056828733,"8":0.17043621369822823,"9":0.18941697374231278,"10":-0.3592290838041201,"11":-0.8037870685236727,"12":-0.6808406908986375,"13":-0.18489394760170969,"14":-0.6727686432282107,"15":-0.8717000133106282,"16":-1.7671852686931102,"17":-0.14244718394571768,"18":-0.024690517127369006,"19":0.003322941032906456,"20":-1.3295682200527628,"21":-0.14900096333460544,"22":-0.3197488813987427,"23":-0.03965016316065217,"24":0.06118512629739752,"25":-0.7536301879735031,"26":-0.7768395314232969,"27":-1.927940308318152,"28":-0.6167579226360677,"29":0.24948162288556222,"30":-0.3719549844001901,"31":-0.6904912250749322}},{"sx":4,"sy":4,"depth":2,"w":{"0":0.4179716506094088,"1":0.9180783056650528,"2":0.4977303924001294,"3":-0.43866904413363955,"4":0.13120605048436565,"5":-0.2766906951922495,"6":-0.14128913235798587,"7":-0.10080299701725291,"8":-0.3797522809318328,"9":0.16031970457457467,"10":-0.6062055849462293,"11":-1.3066752877400323,"12":-0.3013877586431714,"13":-0.27260892012723886,"14":0.02935336391167406,"15":-0.31322993707539554,"16":-0.2958441005794057,"17":-0.43490016553414707,"18":0.061073634261170205,"19":-0.04507070239510356,"20":-0.11704424190645385,"21":1.4607665628374042,"22":0.27666696371766253,"23":0.46348251810058355,"24":-0.6899442261280965,"25":-0.2538600211260247,"26":0.4099915863586968,"27":-0.11368170921979841,"28":-0.20002463538182835,"29":-0.5647811621414215,"30":-0.10628332887555594,"31":-0.45132169848143516}},{"sx":4,"sy":4,"depth":2,"w":{"0":-0.4524436213236744,"1":-0.1790972064656976,"2":-0.17298960329610558,"3":-0.2749148563205324,"4":0.005550684722845367,"5":0.1250947146537064,"6":-1.8775779384173945,"7":-0.25292787069151107,"8":0.042229806518702624,"9":1.665451011860067,"10":0.22329106202854138,"11":-0.03800425721187188,"12":-0.08240322768162082,"13":-0.362583810155091,"14":-0.25327856371382573,"15":0.34105563764162555,"16":-0.10368672273686548,"17":0.4729168648318196,"18":-0.04896185201876174,"19":-1.8958552936196968,"20":0.07934248850844598,"21":0.32235385847492276,"22":0.06560391565177563,"23":-0.011937301772051915,"24":-0.011271798257479189,"25":0.1651932988510851,"26":0.13854855061645613,"27":0.1574167295140945,"28":0.2366834651995197,"29":3.5248935533688344,"30":-0.08247782840356553,"31":-0.3508362783224208}},{"sx":4,"sy":4,"depth":2,"w":{"0":-0.44802775008110773,"1":0.0714873762312583,"2":0.5640367735574934,"3":0.1839832308987852,"4":0.8642201012326738,"5":-1.8804467919874934,"6":0.6807667523946451,"7":0.3325065390727475,"8":-2.1685473067375565,"9":-0.019089673051512417,"10":0.23835456076572803,"11":0.019276256592584584,"12":-0.0025422696106205214,"13":0.017692939190684844,"14":0.8547970107605116,"15":-1.6525020202239238,"16":0.42284501522309,"17":0.8390122921260361,"18":-0.662601731427537,"19":0.4499630365140081,"20":0.36505837892681525,"21":0.2772750520162376,"22":0.3421188968633861,"23":0.5126202261636087,"24":-0.06580072940604612,"25":0.4918094224489712,"26":-0.12957849631596646,"27":0.055460022338283364,"28":-0.37972018308017025,"29":-0.00390549502798348,"30":-0.022925063297408458,"31":0.3483407522920325}},{"sx":4,"sy":4,"depth":2,"w":{"0":3.8254185851985736,"1":-0.1317157984945815,"2":-0.09049021319494428,"3":-0.2158795983784172,"4":-0.23690966585100962,"5":-0.31651843970249466,"6":-0.19576166084087243,"7":4.233318955800853,"8":0.004175826996602555,"9":-0.11593701365506336,"10":3.0805892577568543,"11":-0.19414454981045723,"12":-0.2348941809232377,"13":0.24588360143132745,"14":-0.06616545028027626,"15":0.07717262305963288,"16":-0.11570904076077713,"17":0.21207272398563087,"18":-0.14837919653287046,"19":-0.02374094042823811,"20":-1.9534122961609623,"21":0.16515023778130375,"22":0.13308164250794752,"23":0.2977611360478537,"24":0.25862856512403926,"25":0.17064363270069072,"26":0.023700614149840166,"27":0.08865724392097973,"28":-0.08078272299047007,"29":0.16017445124084775,"30":-2.4013029867621563,"31":-0.21843348185330397}},{"sx":4,"sy":4,"depth":2,"w":{"0":-0.11296561808872402,"1":0.018060237695955182,"2":0.05051556525333681,"3":-0.1326896671688379,"4":-0.6578735698739299,"5":0.03722193369757703,"6":3.2723938915899504,"7":-0.23847297335379197,"8":-0.18070443137201814,"9":-2.857551458798733,"10":-0.0019594698910661602,"11":-0.20255303396970886,"12":0.13812031719334325,"13":0.013208375701408568,"14":-0.41390729245453656,"15":0.21323803011101,"16":-0.06863503961599472,"17":0.17522634501379647,"18":-0.10367968543598875,"19":2.1350571449016864,"20":0.039640473899794894,"21":0.021815074424443033,"22":-0.05160957556218591,"23":-0.14003361621374458,"24":-0.13914723866102074,"25":0.10296066803268271,"26":0.06130693842846746,"27":0.13233325251542818,"28":0.034920908126465894,"29":0.4519060100688328,"30":-0.2725076991546164,"31":0.2483340502369488}},{"sx":4,"sy":4,"depth":2,"w":{"0":0.053735104010632966,"1":0.009398753641959424,"2":-0.03311876510731421,"3":-0.012972629031800928,"4":-0.2414444819479417,"5":0.31518236459518856,"6":3.23308924564706,"7":0.6371291514062,"8":-0.05553273202855046,"9":2.78662537515428,"10":0.3097407835370973,"11":0.7543492195246518,"12":0.11098487635852959,"13":-0.013606051946498785,"14":-0.04039010405042589,"15":0.1314038102970608,"16":-0.22768100503939076,"17":0.02647811909602019,"18":0.08134235930786976,"19":-1.1217597222024374,"20":0.1833429978737045,"21":0.23677813091319705,"22":-0.03836947523427587,"23":0.30027354136492046,"24":0.37254078195634416,"25":0.26195150206228063,"26":0.04752557353632705,"27":0.16848529025617306,"28":0.5778131453409932,"29":-3.5277662135878325,"30":0.37666927645846043,"31":0.052238559310194464}},{"sx":4,"sy":4,"depth":2,"w":{"0":1.4660944058873846,"1":-0.12527247012508733,"2":-0.06428197302763039,"3":-0.2266869841537406,"4":-0.6073744158003705,"5":-0.23006276643643872,"6":0.16120518512072368,"7":-0.9409790254653713,"8":0.824539666126191,"9":-0.6311683365756245,"10":0.029157561662845503,"11":0.19937146691716315,"12":0.9450710174507974,"13":-0.24527418857684824,"14":-0.8437006653236352,"15":-0.285923231049425,"16":1.0272254411496666,"17":-0.38729736244842367,"18":0.19288136135927386,"19":-0.06582927579949231,"20":-0.4815685468609969,"21":-0.02058039204535048,"22":0.6755999452128807,"23":-0.5531360478199218,"24":0.9782101737250378,"25":-0.2713426920141815,"26":-0.34541083838302283,"27":0.38158219401831256,"28":-0.4946574003068431,"29":0.36286409145275234,"30":-0.3031047773647025,"31":-0.47041326176638626}},{"sx":4,"sy":4,"depth":2,"w":{"0":0.9948972494699897,"1":1.204571023319025,"2":-1.0193820399128048,"3":0.46251847445761585,"4":0.19910795568699027,"5":-0.33243290080837,"6":0.16380896421089347,"7":-0.3414935784254031,"8":0.1520661570478655,"9":0.14497261884774512,"10":-0.041383019375650455,"11":0.010741875385343835,"12":-0.746125906758844,"13":1.4555845553398348,"14":-0.186194185249688,"15":-0.058378704699109774,"16":1.0562871727487277,"17":1.0644309171876771,"18":0.0813173741483654,"19":-0.05441063700028768,"20":0.4174348495575955,"21":0.4894358054573573,"22":-0.3916528949408,"23":-0.07342595757946548,"24":-0.5309220581767083,"25":0.026079974374437688,"26":-0.6035617128457225,"27":-0.12276284077170686,"28":0.13210512530137677,"29":0.4803369415206701,"30":0.35486100519915637,"31":-0.2718931397103431}},{"sx":4,"sy":4,"depth":2,"w":{"0":0.8010221733440263,"1":1.008120431887235,"2":-0.06584493909512999,"3":-0.030086923890150122,"4":0.25049494516899456,"5":-0.2893642001759758,"6":0.06826014633076166,"7":-0.05900680151521408,"8":1.2317983884707593,"9":0.34484047039330745,"10":-0.020692820545813236,"11":-0.06891599174727817,"12":-0.18804825052041332,"13":-0.1703580700503278,"14":0.7523673319676883,"15":-0.4187720160680717,"16":1.2057716665398734,"17":-0.128342291882142,"18":-0.19278548918395444,"19":0.4227334165901605,"20":0.3049447201356087,"21":-0.33915822908780935,"22":-0.8401931387623393,"23":0.40157412667854775,"24":0.18245392745590877,"25":-0.27378412661925033,"26":1.3789976288132983,"27":0.37414316667447745,"28":0.7286632721830035,"29":-0.3121238751588961,"30":0.5520889328698353,"31":0.6469559180786779}},{"sx":4,"sy":4,"depth":2,"w":{"0":0.9318465978812899,"1":-2.075151427769324,"2":1.4065145117052504,"3":0.3280562344904122,"4":0.35683727896693235,"5":-0.846460263284643,"6":-0.06737889616595422,"7":0.27364998833297904,"8":-0.046769436083266405,"9":0.32318277009321233,"10":0.1672582198098743,"11":-0.006766348188325351,"12":0.8355270288541081,"13":1.1072047348553957,"14":-0.00032044983009244557,"15":0.2644918891461376,"16":-0.03540882991709223,"17":0.769751882679942,"18":0.21874223094288026,"19":0.24821411405544364,"20":0.14468761447865813,"21":-1.0928644570621526,"22":-0.011257931045089173,"23":0.5924055546803328,"24":-0.4591604881912159,"25":0.19615331140882114,"26":0.8534845272502452,"27":0.28946065628181195,"28":-0.11309665859517905,"29":0.028436911355702647,"30":-0.030610152132151357,"31":-1.8227477590586671}},{"sx":4,"sy":4,"depth":2,"w":{"0":0.4297548127900787,"1":-0.21204354944144002,"2":0.21317957946224717,"3":-0.6483153479044883,"4":-0.10309693125209797,"5":0.15904233576329047,"6":-0.5129782069833136,"7":-0.4196775888979872,"8":-0.39080724066474726,"9":0.09690528313482666,"10":-0.20094333327719704,"11":0.2791445337526591,"12":-0.3821054776092582,"13":0.518150210516131,"14":-0.36675499787483573,"15":-0.1974248011839143,"16":-0.7372782493780693,"17":-0.8965787896614551,"18":-0.4874320846658192,"19":-0.642739485691531,"20":0.5097584528704482,"21":1.4342120920648591,"22":0.4349097424735696,"23":1.415457050785414,"24":-1.4372437034028842,"25":-1.7336054193243187,"26":-1.7074964212151034,"27":-0.23672954736818694,"28":0.006694827485768466,"29":0.5226529156680686,"30":-0.11077542114262375,"31":1.0828015420489643}},{"sx":4,"sy":4,"depth":2,"w":{"0":-0.04505557836179755,"1":-0.04190197031305367,"2":0.31749743233180144,"3":2.7792258255717255,"4":-0.06934034358651078,"5":-0.1699492510007943,"6":-0.1095183154585463,"7":-0.22851546083382843,"8":-0.13529864344206066,"9":-0.3474594853129698,"10":-0.10762957663563989,"11":0.2487508995300009,"12":0.3933139084383249,"13":2.4084298554978885,"14":0.3453289429192646,"15":-0.38140789809648934,"16":-0.48320406684384853,"17":0.048134560073977144,"18":0.31815706234490937,"19":-0.13494505171527726,"20":0.09782507542497344,"21":0.08268955738238076,"22":-0.04322630498110737,"23":-0.23387896919056475,"24":0.22426616080230227,"25":0.3212982658337813,"26":-2.6525372991461564,"27":0.23565164233654812,"28":0.1071226847472594,"29":0.2684831001088541,"30":0.17344731241705535,"31":-0.04825868499887657}},{"sx":4,"sy":4,"depth":2,"w":{"0":-1.415438625661859,"1":2.0209758272457092,"2":-0.08525723238821843,"3":0.7720787830918237,"4":-0.8462460432666419,"5":0.06462452994932759,"6":0.10592315016458653,"7":0.3054737218691771,"8":-0.17209154461693235,"9":1.049789586912323,"10":0.25257493305545853,"11":0.2735328078090238,"12":1.0313339851511654,"13":0.5673073429271399,"14":-0.0017478010409307937,"15":0.5438583797452314,"16":0.10998042489485281,"17":0.3260151173682351,"18":0.058008419920406,"19":0.3737891334458202,"20":0.32068742242658504,"21":0.38551034761734365,"22":-0.24541621005768183,"23":0.3356188799239837,"24":-0.5795064679589204,"25":0.5686439089491593,"26":0.19153800357547532,"27":-0.10204966204112792,"28":0.11674110956579614,"29":0.6049947456201459,"30":-0.8271155314428763,"31":0.4109163350064173}},{"sx":4,"sy":4,"depth":2,"w":{"0":1.123670736810426,"1":-0.5989149110107099,"2":-0.1788567367304412,"3":0.28590519205415715,"4":1.093314086660283,"5":-0.6101214811439994,"6":0.8338603625804386,"7":0.20720042584791953,"8":-1.417836203977795,"9":0.7031874773543131,"10":0.40856643418361566,"11":0.13701176665104728,"12":0.7386792703451341,"13":0.2974240886174869,"14":0.7521048860345421,"15":0.35114098793744997,"16":0.4097191403292506,"17":-0.08717398226370841,"18":0.6414454769500849,"19":-0.17611765789328596,"20":0.430544525270858,"21":0.42125040589971885,"22":0.153649914034355,"23":0.1262319753730518,"24":-0.13134289042926459,"25":-0.3204970538895321,"26":-0.22000063365306688,"27":-0.07558306526121238,"28":0.5604454934341043,"29":0.0032216309059568487,"30":-0.06315029610946855,"31":-0.5437024187497475}}],"biases":{"sx":1,"sy":1,"depth":32,"w":{"0":-0.8652692098108505,"1":-1.1464716464326485,"2":-0.1365032065774673,"3":-1.9989187540462825,"4":-0.9699502123517796,"5":-1.5750285818628391,"6":-1.229321512960113,"7":-1.356708398083653,"8":-1.93728013668168,"9":-2.0290050242200595,"10":-0.6451564497914306,"11":-1.2649281874481768,"12":-1.090834045964708,"13":0.1837905063974523,"14":-1.0692935576907576,"15":1.0401132828536703,"16":-2.882437400737705,"17":1.8179502844949191,"18":0.02053495869452057,"19":-0.4195564092285246,"20":-0.3872531667651587,"21":-5.327339164044602,"22":-0.31166872366337345,"23":-1.8529434788191335,"24":-0.3965991202293867,"25":-1.2189459445511897,"26":-1.8234180007306773,"27":-1.1019829431508605,"28":0.19214341684295008,"29":-2.128037770297338,"30":-1.6651336301896382,"31":-1.4902952256374724}}},{"out_depth":32,"out_sx":4,"out_sy":3,"layer_type":"relu"},{"out_depth":60,"out_sx":1,"out_sy":1,"layer_type":"fc","num_inputs":384,"l1_decay_mul":0,"l2_decay_mul":1,"filters":[{"sx":1,"sy":1,"depth":384,"w":{"0":0.1111997775629826,"1":0.24090566901576366,"2":-0.025737889109215366,"3":0.12226258685045396,"4":0.0015529800971703879,"5":-0.22963750053786156,"6":-0.21868337831346651,"7":-0.08746903927899388,"8":0.5479118389722459,"9":0.11315620966070547,"10":0.20110667755882164,"11":-0.07731464368320583,"12":0.05533130299075622,"13":0.024418284815720642,"14":0.18916143147463976,"15":-0.09181710678608658,"16":-0.041471162558036394,"17":-0.20723422456247165,"18":0.06608258504746034,"19":0.11170136865471864,"20":-0.09552553868953692,"21":0.050880931336512336,"22":-0.27553424802350535,"23":-0.18412959281930186,"24":-0.2738842668598185,"25":0.102125609859051,"26":0.046883616610560334,"27":-0.13034641857821663,"28":0.874597713109363,"29":0.16307863603304545,"30":0.40020099111645774,"31":-0.27052261451540566,"32":0.054674388419524225,"33":-0.2641852777608632,"34":-0.11897070548638637,"35":0.06277077511312038,"36":-0.23123092678702603,"37":0.3278568911867123,"38":0.16204209899113386,"39":0.13493148882781877,"40":0.24040463856010155,"41":0.02270922568876401,"42":-0.24756638712537576,"43":0.0031184804357350204,"44":-0.6956837243214186,"45":-0.23023668318646226,"46":-0.043272929947243695,"47":-0.15858045696044734,"48":0.2524675848743616,"49":-0.0730669189233329,"50":0.04879399397139797,"51":-0.004699233248171481,"52":-0.016319047493709694,"53":0.11811423351728934,"54":0.09831767905327847,"55":0.23179245657192127,"56":-0.04263163829526466,"57":0.06365271379185505,"58":-0.037771274123298,"59":-0.1757032740324895,"60":0.012225335489830905,"61":-0.09017559077397029,"62":0.11152367921372414,"63":0.005610300337067594,"64":-0.0883074312646696,"65":0.22902554564895847,"66":0.019166950604037804,"67":-0.18759159985201354,"68":0.014573351281669663,"69":-0.31423802426143815,"70":-0.08621268806618658,"71":0.14377878911990677,"72":-0.221985660426787,"73":0.009898887799808992,"74":0.048460612617936154,"75":-0.023757424576351712,"76":0.23698450891157308,"77":0.5212447439484496,"78":-0.00989964007471172,"79":-0.2589977092907225,"80":0.05689214264719577,"81":0.19432533611907354,"82":0.012538548923516524,"83":0.026185590800540684,"84":-0.3135151352812663,"85":0.19319939607796974,"86":0.1744981697276956,"87":0.03793952967260317,"88":-0.17673123712419692,"89":0.013603154296019722,"90":0.11679683055566234,"91":-0.14608033532523187,"92":0.06513202825805979,"93":0.3412257649271297,"94":0.0012789372690996115,"95":-0.047815931511868436,"96":0.17218485378272494,"97":-0.03886971378716706,"98":-0.09356663722353885,"99":0.18586946930863352,"100":-0.006145966870341598,"101":-0.1230669222830319,"102":-0.06589743890063451,"103":0.004308974319801729,"104":0.16911576622014848,"105":-0.07030540752386878,"106":-0.1822443185235011,"107":-0.0019013994565603958,"108":0.04599183288880553,"109":0.138151389817084,"110":-0.2224280547683143,"111":0.12316158932920872,"112":-0.28509949883150715,"113":0.021539517383219402,"114":-0.2762991306917859,"115":0.17202268974565982,"116":-0.06704617468646219,"117":0.12197361755567707,"118":-0.037197145858607006,"119":-0.05058387806031715,"120":0.04433609291536756,"121":-0.1261569172540214,"122":0.0848847949954561,"123":0.15885161342126408,"124":-0.05957962271971388,"125":0.11107963733049943,"126":0.060084696884043956,"127":0.09999897912159314,"128":-0.23116896268892068,"129":-0.2632221502226243,"130":-0.1744216328894627,"131":-0.07990121858550359,"132":-0.14875348986514028,"133":-0.37346664974582894,"134":0.021386392044284913,"135":0.12172205164935189,"136":-0.18290113770966493,"137":-0.06690205460477386,"138":0.031032451775975165,"139":1.0802541502698966,"140":-0.10534588389543774,"141":-0.24573688018108253,"142":-0.02398322924109294,"143":-0.37741740247939015,"144":-0.16258664892446026,"145":-0.02055867046447425,"146":-0.11032171400162358,"147":0.04259250000763165,"148":-0.45704856034773667,"149":-0.16776358381143544,"150":0.05603300518286601,"151":0.25300340776588415,"152":-0.2969033524542524,"153":0.23460177041944924,"154":0.15960575775313013,"155":-0.06274389069776687,"156":0.13159431302670446,"157":-0.09536924224265841,"158":-0.10591821809951275,"159":0.1185293065405655,"160":0.15070705511937327,"161":0.22481656581661155,"162":-0.1450153095517587,"163":-0.12094663246584948,"164":0.050979941377205365,"165":0.10121669875939934,"166":0.22857627792346577,"167":-0.09683550339541538,"168":0.33167708380766825,"169":-0.201702239116509,"170":0.00411663008550359,"171":-0.17338163383946828,"172":0.029671625218264587,"173":0.24067167182108834,"174":-0.01683870879491147,"175":-0.2612509388490383,"176":0.23832649052002786,"177":-0.056157693904321966,"178":0.0723678737506864,"179":-0.07949036978792069,"180":-0.14646926372064306,"181":0.6193339517126005,"182":-0.2690229321303273,"183":0.22678896028078177,"184":-0.13051556414561685,"185":-0.27823562863171897,"186":-0.004013092741747438,"187":-0.22656531069855523,"188":-0.10596862525749584,"189":0.2511998491027672,"190":-0.014975421562431647,"191":-0.2879558540485278,"192":0.11532696408737499,"193":-0.2417473321825334,"194":0.43095831965871195,"195":0.18834933221972733,"196":-0.18405847960980226,"197":0.1470712242371306,"198":0.020931165467359847,"199":-0.1868395924514612,"200":0.1097708475607357,"201":-0.16278294276793925,"202":-0.06167512392076124,"203":-0.01627039947232902,"204":-0.4749797477902247,"205":-0.09206279717824685,"206":0.050800029318509084,"207":0.1202816367605968,"208":0.18389878581464555,"209":-0.09162963217552589,"210":-0.13594800034770918,"211":0.027764399864024503,"212":0.08383988950386782,"213":-0.18420146558611522,"214":-0.07749733600747624,"215":0.13905273513836003,"216":-0.06091736122861597,"217":-0.00921149941802106,"218":0.1510493387147946,"219":-0.1634343096518771,"220":0.01661285084615413,"221":-0.0020599715369698166,"222":-0.102661279934038,"223":-0.12292361281684439,"224":0.08524583343840733,"225":0.08378169663147784,"226":-0.22140846367816838,"227":-0.11482112476502863,"228":-0.020599903014324766,"229":0.2440803204438927,"230":-0.0688187675239324,"231":0.04709739342016613,"232":-0.054691137912814713,"233":-0.06462777444919754,"234":0.2343149608043822,"235":-0.052761349377980306,"236":0.09606394125604502,"237":0.02504298901637981,"238":0.14090760537959612,"239":-0.09405496225683728,"240":-0.0034942682588858295,"241":0.06735936024063935,"242":-0.07208524646691936,"243":0.07272584345694603,"244":-0.1581823184029147,"245":0.13950622103125876,"246":0.10220772752257616,"247":-0.18497439943214694,"248":-0.2738605542872377,"249":0.17442088213545984,"250":0.11081450788011687,"251":0.001266061756268926,"252":-0.39896961751323473,"253":0.4390987221507805,"254":-0.07853426072565595,"255":-0.0918191241737137,"256":0.06472272341123946,"257":-0.018657410040999575,"258":-0.14831680100729153,"259":-0.12958178485057278,"260":0.01380527571799063,"261":0.1403677795920704,"262":-0.0038502855261098156,"263":-0.004269603721959845,"264":0.10165758356253317,"265":-0.26002043241265493,"266":-0.3084551276288431,"267":-0.16311020032774212,"268":-0.008485095530792424,"269":-0.10726956677066633,"270":-0.08161930817627265,"271":-0.015314980633233508,"272":-0.1488238832764902,"273":-0.30054025810526047,"274":0.035890820288520905,"275":0.1105974934630793,"276":-0.10943061263856653,"277":0.11360882265432494,"278":0.0053939567432359095,"279":-0.08981641743785079,"280":-0.0434436080131392,"281":-0.1543208589966926,"282":-0.023244380500131872,"283":-0.07055469566890113,"284":0.049035913100756195,"285":0.31846360163522336,"286":-0.12697933654177218,"287":-0.03481602504307793,"288":-0.17004628682293493,"289":-0.02814964412666252,"290":-0.1078277590151902,"291":-0.2038355452405963,"292":0.1530121372583426,"293":0.16691563334350704,"294":-0.19400984164340204,"295":0.10769227325638496,"296":0.061318567960914304,"297":0.2312246652000114,"298":0.23481895499677916,"299":0.23078238885928773,"300":-0.2894332216571865,"301":0.09521985017574412,"302":0.023211030974102407,"303":-0.32969733143877467,"304":-0.08067504213151168,"305":-0.05103138422157374,"306":-0.10281363131150544,"307":-0.03502016665966296,"308":-0.015054792346953533,"309":-0.13122977073005065,"310":0.19225219131558322,"311":0.16825869569378496,"312":-0.07090584854249467,"313":0.04847582718080607,"314":-0.08544214489175235,"315":-0.14209321983569007,"316":-0.2962720703348241,"317":-0.06876418570721302,"318":0.038857481346633416,"319":-0.01373241011116644,"320":0.10040660543476011,"321":0.18513666743342566,"322":-0.18808891197020147,"323":-0.048429192152008575,"324":-0.2410074610444587,"325":-0.08525217500044605,"326":-0.20612745367526253,"327":0.015015605960168099,"328":0.25011936079115427,"329":-0.21328466778084254,"330":-0.17732405430607814,"331":-0.09389378193513222,"332":-0.06932140023017566,"333":-0.026700130742487876,"334":0.2463331960002358,"335":0.08344226476636459,"336":0.16255776550247253,"337":0.021697256415055932,"338":-0.07408096286495039,"339":0.12510810163471095,"340":-0.03262734635575878,"341":0.37732301761439224,"342":0.05767718000469376,"343":0.08884418607944289,"344":-0.1396512403716774,"345":-0.07509831787204456,"346":-0.19355914548158096,"347":-0.1640167540979284,"348":0.14236081426593394,"349":0.15872598513303085,"350":0.32876972589462083,"351":0.11752519634115836,"352":-0.08454055632507546,"353":0.023237467632025534,"354":-0.6619894732753548,"355":0.02399592538383092,"356":-0.1342048776623771,"357":0.27257275979853157,"358":-0.07957576656673422,"359":0.04531503243840439,"360":-0.01702471559054454,"361":0.1768848938006833,"362":0.02032010179852606,"363":-0.1777257128345534,"364":-0.34717766907841924,"365":0.025613171667574923,"366":0.08712136535529234,"367":-0.1820300453926399,"368":-0.04889223259114223,"369":0.07564077952412798,"370":0.049485336484762256,"371":0.060970138892659564,"372":-0.022646711243975565,"373":-0.076150292954786,"374":0.08767737518587744,"375":0.006783355668471071,"376":0.20851639284496665,"377":0.0692047763187357,"378":-0.04778462560837022,"379":0.06468783766302817,"380":-0.040095820888887836,"381":0.08154842977726169,"382":0.11079011271162154,"383":0.045109643247590946}},{"sx":1,"sy":1,"depth":384,"w":{"0":0.006517946390582468,"1":-0.028278609159527526,"2":-0.18497466957880337,"3":0.050492773583687124,"4":0.1093897148491455,"5":0.011849525797426975,"6":0.005654066047961816,"7":-0.12645320665339427,"8":-0.0035140547344868177,"9":0.035724286642535893,"10":-0.04505633856822391,"11":0.019924054749869014,"12":-0.009084475470092345,"13":-0.07732453921545213,"14":0.10112557345466756,"15":0.008042858412482819,"16":-0.022627873646941847,"17":-0.13800892006665083,"18":0.10649405496660996,"19":-0.011906894562786756,"20":0.013818281681550984,"21":-0.02767436788476772,"22":-0.13525794339308522,"23":-0.03300721503997253,"24":0.12150193248944154,"25":0.005660966735989035,"26":-0.03469914298971741,"27":-0.10657906994100173,"28":-0.09104568699790652,"29":0.008178938064925752,"30":-0.015023316572452816,"31":-0.02650503933207009,"32":-0.08379135739321557,"33":-0.05577435626740456,"34":-0.03284514270516644,"35":-0.06713680704567683,"36":-0.03573840789135937,"37":0.01661017778397984,"38":-0.15457349474716592,"39":-0.10457260462677487,"40":-0.053507955570011596,"41":-0.02707641028179613,"42":-0.08775063143724451,"43":-0.08219177153849792,"44":0.04565976335856484,"45":0.14510599694883516,"46":0.032752163700976084,"47":0.038894306502279714,"48":-0.10385806706219806,"49":-0.08597866679749788,"50":0.055161657203866225,"51":-0.08460872460067216,"52":-0.05687881787879775,"53":-0.057125167925536034,"54":-0.0067582130293737,"55":0.004805770974250304,"56":-0.01021729607460921,"57":-0.06388907677545148,"58":-0.048713844034149266,"59":-0.007961460435351887,"60":-0.14680810031741162,"61":-0.03251198544220995,"62":-0.036914396053197816,"63":0.05551418751624,"64":-0.08673164273209849,"65":-0.03284915681057617,"66":-0.015669351869341302,"67":-0.07649835073532522,"68":-0.0819846657136706,"69":-0.010854425113587305,"70":0.019025087273830333,"71":-0.026382625406624668,"72":-0.08837571094551122,"73":0.039795678123037886,"74":0.036418063087987604,"75":0.03130089563220554,"76":0.009142948282367535,"77":0.0275951596036015,"78":-0.03641127546510334,"79":-0.0865471663996877,"80":-0.0806584339282877,"81":0.07805848453025968,"82":-0.0158912113109175,"83":-0.02681975821678706,"84":-0.0021362579056795152,"85":-0.1793552779940539,"86":0.07851739583910394,"87":-0.106093971875221,"88":0.0003929760647730184,"89":-0.020350221473937086,"90":-0.06749688630236522,"91":-0.04190614528273484,"92":-0.07703904224293813,"93":-0.009569497448808783,"94":-0.12123380989712891,"95":-0.03676205470374122,"96":0.04393300588590191,"97":-0.03306906276789864,"98":0.046229210156775224,"99":-0.21346792445061097,"100":0.023109298025761553,"101":0.047521519936612376,"102":-0.07091121064222901,"103":-0.013031392083276664,"104":0.057960469265721175,"105":0.04026466636620179,"106":0.09632188410379326,"107":-0.0008956593969083498,"108":-0.008842104573816142,"109":0.10555945735909046,"110":0.048044733839655004,"111":-0.0670393659653509,"112":-0.031675376080887586,"113":0.03292147128940256,"114":0.02984967864249586,"115":-0.0691466450716977,"116":0.06810343471587081,"117":0.04637567798669215,"118":-0.004834351696449562,"119":-0.016673609711145156,"120":-0.02411764134441029,"121":-0.06854317855756771,"122":0.08758445566519026,"123":-0.0267465040354339,"124":-0.06135359482600665,"125":-0.06875770906184683,"126":0.021553761213394262,"127":0.029505648815883828,"128":0.0009329193498111416,"129":-0.035071359348797564,"130":0.11254210838395842,"131":-0.1523451890564555,"132":-0.03816222313363671,"133":0.03503472590381198,"134":-0.037233931519520765,"135":-0.08303760573988075,"136":-0.0689793776162971,"137":-0.010596077958144537,"138":0.085875414260189,"139":-0.09436392616687214,"140":-0.11031810518748372,"141":0.0885801205307416,"142":0.09603879275123628,"143":-0.01686642893285919,"144":0.11937018754917256,"145":0.13028639679281598,"146":0.01451805809075389,"147":0.011264378004513331,"148":0.1033817022524438,"149":-0.06892112182565212,"150":-0.0904474082080688,"151":0.027234400779224715,"152":-0.030512424211986182,"153":-0.04264018236115832,"154":-0.020535179174420416,"155":0.012743444669096665,"156":-0.2079248795883175,"157":0.03886860556490623,"158":-0.016833424935690504,"159":0.015162078856330719,"160":-0.05224275351196378,"161":0.060999527158676146,"162":-0.10555553841332899,"163":-0.08003228998805872,"164":0.033815740063111464,"165":-0.04269016618110993,"166":0.0017994971590597495,"167":-0.04042482447064174,"168":-0.017185301814107917,"169":0.018265218194310363,"170":-0.0364126674029255,"171":-0.3191564823967262,"172":0.09255323621974003,"173":0.11708271617169533,"174":-0.023467975472520757,"175":0.14057693765309634,"176":-0.0469413811313371,"177":0.14543273666813306,"178":0.014654468255770435,"179":-0.06295702111669775,"180":0.04159031101931306,"181":-0.1412476907502725,"182":0.05271994224302639,"183":0.07892278851488697,"184":0.06611507697096541,"185":-0.028954347764863046,"186":-0.04981623313289241,"187":0.01790936253854452,"188":-0.056343445136379795,"189":-0.10456089632649189,"190":-0.0043565575115062155,"191":0.014749342310770049,"192":0.08165758995831875,"193":0.12441188708626787,"194":-0.01496777229109617,"195":-0.024395802354183958,"196":0.08341205831560361,"197":-0.03334746492149388,"198":0.006743143438647701,"199":-0.04841718349881539,"200":-0.03807586833950069,"201":0.11474243054182849,"202":0.024691153377448295,"203":-0.1063885351220846,"204":0.06877229944663006,"205":-0.02537801515173893,"206":0.0873157596913565,"207":-0.04386068273643943,"208":0.0017384612085769103,"209":0.04816072284663194,"210":0.04091123259916934,"211":-0.009820345977027179,"212":0.019336577872749474,"213":-0.08414135730953536,"214":-0.016561094333401777,"215":-0.07416105833142446,"216":-0.02996774274632189,"217":-0.004919851272152113,"218":-0.07464551330149825,"219":0.06176785030601001,"220":0.04364562373887622,"221":-0.030419886880889372,"222":-0.14814280127135507,"223":-0.0379132267772494,"224":-0.028652223452847538,"225":-0.11007000737457312,"226":-0.0018255641493224858,"227":-0.13279417355101816,"228":-0.06010293615966348,"229":0.023000807646866926,"230":-0.0819167606175236,"231":0.05830097083156193,"232":-0.007515892135303952,"233":0.10958006759581096,"234":-0.11415280409452483,"235":-0.0580528727776945,"236":-0.11648869537683497,"237":-0.08034127854988371,"238":-0.12475006621614229,"239":0.05628917492901805,"240":-0.01678543632897514,"241":0.18013588590636861,"242":0.05347723772666416,"243":0.24399166917774845,"244":0.026294566079046656,"245":-0.1784202885129714,"246":0.06760306302719804,"247":-0.0039421328385311,"248":0.04683843943604398,"249":-0.12203234075394787,"250":-0.024795015943886695,"251":0.004593322041565205,"252":0.05154972004884108,"253":-0.03207797434332599,"254":-0.10989012004202636,"255":-0.006353889355993619,"256":-0.12121168200998655,"257":-0.007922802390399029,"258":-0.008746453112125558,"259":-0.005057075068066574,"260":0.04855828018357473,"261":0.08297734801284533,"262":0.09599951334895086,"263":0.04378263196586556,"264":-0.046203601579395084,"265":0.07836091256609347,"266":0.008690258665543632,"267":-0.001937600662798131,"268":0.09111148672123691,"269":-0.05004624760861438,"270":0.04989249213240299,"271":0.07904734816317037,"272":0.11939279350037608,"273":0.023301415855816278,"274":-0.05897240557982963,"275":0.05879287834648556,"276":-0.0399837027375447,"277":-0.11688287038465704,"278":0.043409564940952085,"279":-0.018032270689511385,"280":0.17193457576848967,"281":0.08087429684673213,"282":-0.011613247860467888,"283":0.09145768700792369,"284":-0.001986087308127925,"285":0.1033754518803462,"286":-0.06505864186454295,"287":-0.050333270353991544,"288":0.03437768127171023,"289":-0.09836246613604434,"290":0.03620978539212973,"291":-0.025777195172453037,"292":-0.07242209593208657,"293":0.0265500929216047,"294":-0.07933708589920456,"295":0.010749283492458371,"296":0.013508122508582934,"297":-0.0770761401265234,"298":-0.12134669596054666,"299":-0.01376285866943843,"300":0.09758805996688283,"301":-0.00624504275436056,"302":-0.003452331785191343,"303":0.052453844101813946,"304":-0.10772115440972115,"305":-0.1355705475616891,"306":0.0521901543117063,"307":-0.281254749494804,"308":0.011867981227313069,"309":-0.02598615441757641,"310":-0.10249541064144906,"311":-0.013589363550959195,"312":-0.00041069122595115674,"313":0.04873095620720887,"314":-0.0031736257434336625,"315":0.07502767256478322,"316":-0.12577734661042186,"317":0.030984343855599186,"318":0.023990352219002902,"319":0.02091776288971066,"320":0.021985515125981688,"321":0.008618680462440513,"322":-0.0160015152455731,"323":-0.037329337511557016,"324":0.09871855114755425,"325":0.020875782159262207,"326":-0.016260904206580877,"327":0.026708700385192692,"328":-0.037773596645087934,"329":0.04127490737893869,"330":0.00611766123663088,"331":-0.0025567142281011815,"332":0.18056177546921548,"333":-0.040035857866476905,"334":-0.019577647389974407,"335":0.10906367671046863,"336":-0.007166101141440049,"337":-0.09904993483336343,"338":-0.0819530660343337,"339":0.08026335873326103,"340":0.014829586898281887,"341":-0.10848775300802947,"342":-0.1627855021036214,"343":0.1610158047819952,"344":-0.0031770415870810173,"345":0.026303312118285786,"346":0.05858061018860601,"347":-0.04990016491933848,"348":0.1636885078734368,"349":-0.030412840034226195,"350":-0.009640667985140378,"351":-0.03445595019250219,"352":-0.09180203181356983,"353":-0.05355913881525631,"354":0.06612914361571537,"355":-0.07240555396855622,"356":-0.04475925861783845,"357":-0.1612101944941502,"358":0.013136819643616678,"359":0.08340824206929597,"360":-0.05323086487927691,"361":-0.07674270286220305,"362":-0.11482892318749421,"363":-0.021603624634628008,"364":0.06576261441984275,"365":0.04393343188476562,"366":0.0628221702158184,"367":-0.03802765826801281,"368":0.06480406006252869,"369":-0.014419625977235295,"370":0.02612005977887735,"371":0.043984747636368685,"372":0.017854758712717796,"373":-0.001924011496859248,"374":-0.029994039963198015,"375":0.05894859149654187,"376":-0.011727480849986337,"377":-0.040617643908063376,"378":0.01352007952404529,"379":0.018637995299721263,"380":0.09023209802453791,"381":-0.012993408300687922,"382":0.035782061413208444,"383":-0.05066203067558841}},{"sx":1,"sy":1,"depth":384,"w":{"0":0.15201976594174052,"1":-0.0013557919475019747,"2":-0.09352163834871498,"3":0.1956633923857595,"4":-0.02326496685596419,"5":-0.17841207542586085,"6":-0.10425424580749929,"7":-0.15663772598093328,"8":0.02991533696060735,"9":-0.049397870560741894,"10":-0.14650449373903357,"11":-0.13330309217088965,"12":0.0036966933533527373,"13":0.12483704439662872,"14":-0.12807506505698607,"15":-0.01546327758275024,"16":-0.12288612153127755,"17":0.18565755583252652,"18":0.1469529072477271,"19":-0.12043019040189638,"20":-0.134901619003328,"21":-0.0009589542578416929,"22":0.1771372973354994,"23":-0.044023525205229244,"24":-0.11869574874543194,"25":0.1504482207904179,"26":-0.005068274023662725,"27":-0.41393772392933376,"28":0.33683632858741774,"29":-0.07070752817651664,"30":-0.1597871739639887,"31":0.06695333368604708,"32":0.2093607930847497,"33":0.06463249117974079,"34":-0.01661612025558933,"35":-0.014364230691123844,"36":-0.19625482566019883,"37":-0.1109443028479669,"38":-0.290972705501628,"39":-0.020403518954877704,"40":0.016703230351097744,"41":-0.04502016537258348,"42":0.4135486029781375,"43":-0.029346096685750046,"44":0.053496396235608805,"45":0.2661653858823301,"46":-0.05963178287108232,"47":-0.07628370201248671,"48":-0.2013694734826623,"49":0.014081107077879207,"50":0.2811183796239141,"51":0.12175167124297563,"52":-0.061296817240458865,"53":-0.35271444055309686,"54":-0.23620341236140827,"55":-0.17189642599232483,"56":-0.012130035673824948,"57":-0.04612292000995924,"58":-0.11991143082345623,"59":-0.23810847124695,"60":-0.12731574175110733,"61":0.045853493480040135,"62":0.23474564311138185,"63":0.04830921836173719,"64":-0.21794856246649108,"65":0.015633459712978675,"66":-0.14978421091246935,"67":-0.10025844009482292,"68":-0.10268894984772078,"69":-0.05586115757245364,"70":0.07850397015233304,"71":0.18913142421359494,"72":-0.08315009183727697,"73":-0.07067121917102488,"74":-0.14098906404304348,"75":0.3392200706325726,"76":-0.5044998669343366,"77":-0.6064208958161117,"78":-0.3028029283145065,"79":-0.6926277408913992,"80":-0.033369816709500115,"81":-0.28197877066221305,"82":-0.05532694425924858,"83":-0.07880960441937514,"84":0.3883203742864463,"85":-0.06994584639639324,"86":0.029785123408847734,"87":-0.12242947158109861,"88":0.0014603850259696713,"89":-0.04742994038673012,"90":-0.14863925212841025,"91":0.06140927474131988,"92":0.24748138571762357,"93":-0.0724880926048756,"94":0.04946183886983859,"95":0.043505660967267365,"96":-0.39298534472134705,"97":0.2946129236874133,"98":0.01150749217233369,"99":-0.08759232155102496,"100":-0.19279819535629034,"101":-0.26610816781572555,"102":0.07624427541939481,"103":0.06242935479458931,"104":-0.19975938893532832,"105":-0.09260446152783444,"106":-0.11050170322914042,"107":0.08643530850296441,"108":0.05142586199901357,"109":0.5846249318821076,"110":0.21764263258621913,"111":-0.5477745913591853,"112":0.13372313398817962,"113":0.10328644841794417,"114":0.17153616146705752,"115":0.21027200747969535,"116":-0.2277764187061818,"117":-0.03101855436155728,"118":0.09907883829424532,"119":0.024809253711891865,"120":-0.24460469239684698,"121":0.15920900453318942,"122":-0.06321912716287025,"123":-0.02017272532686791,"124":0.2869228208049722,"125":0.01531579883537069,"126":-0.23533483714416223,"127":0.041187399066822075,"128":0.009780743105112333,"129":-0.001108609205199213,"130":-0.20406819416064204,"131":-0.3648281553349752,"132":0.1975059906735488,"133":-0.0011238021280330244,"134":0.03208670909399318,"135":-0.37499697063896964,"136":0.08161447355914803,"137":-0.07995407181080137,"138":0.0328837063712258,"139":0.5707419537441794,"140":-0.01636135163521068,"141":-0.4728921933943646,"142":0.2585518926839238,"143":0.7316970229130663,"144":0.2005459809971266,"145":-0.3312541751272197,"146":0.0012949557802166792,"147":-0.31854634706476376,"148":0.14486845074167368,"149":-0.2012749599914991,"150":-0.12071467870133373,"151":-0.18040203943729485,"152":0.3952217727723275,"153":-0.11077049407593746,"154":-0.22275114415596267,"155":-0.03584530417307201,"156":-0.20924270614199628,"157":-0.19088431663560382,"158":0.26765168392395144,"159":0.07868980139961737,"160":-0.17880849146259034,"161":-0.09077648362540507,"162":-0.08964263076902074,"163":-0.07466681793346246,"164":0.05667160596366039,"165":-0.4544218334205263,"166":-0.2119021984556575,"167":-0.0724419856473173,"168":-0.13944507124849836,"169":-0.18366888449633542,"170":-0.19544091613329578,"171":0.8057643498199938,"172":-0.01915404305849316,"173":-0.08421214937724233,"174":-0.3964305730059082,"175":-0.15630431137535966,"176":0.20621784217704653,"177":-0.47155877903649746,"178":-0.05174869270883096,"179":0.04890360765233706,"180":-0.09312620522750875,"181":-0.24359716781673296,"182":0.054357262906442536,"183":-0.1089752129215563,"184":-0.12637129813963807,"185":0.39930618541367646,"186":0.04188954026927662,"187":-0.5155272756696807,"188":-0.12753213901801075,"189":-0.05962255945376121,"190":0.15017982135124708,"191":0.03662129718125268,"192":0.17776821085498073,"193":-0.1804199770319735,"194":-0.09079254674436277,"195":-0.04060458552476383,"196":-0.09678684067840396,"197":-0.3628665027809106,"198":-0.05969905839894708,"199":-0.1657879623883748,"200":0.09871578973165943,"201":-0.27360031459601025,"202":0.6541366220493403,"203":0.0966568925884979,"204":0.012427670795255088,"205":-0.017815956109841498,"206":-0.020032558290696695,"207":0.11447219935475235,"208":-0.05196128636077561,"209":-0.4296062379761743,"210":0.012799739805719627,"211":0.2613113474893224,"212":-0.06549283637728388,"213":1.2603534126980815,"214":-0.2988375345021818,"215":-0.051841417268917216,"216":-0.12548458615041044,"217":-0.2539720906539236,"218":-0.05788675306893909,"219":-0.04741377889132403,"220":-0.3927435975254746,"221":0.05526979232558662,"222":-0.03973815501609774,"223":-0.05896427719150024,"224":-0.05689378211395,"225":-0.05719576371607951,"226":0.6139257033483019,"227":0.5901040776256204,"228":-0.31253758459378667,"229":0.08945367037033522,"230":-0.13484705593615967,"231":-0.014150875477510226,"232":0.03841586260496151,"233":-0.18455109151894739,"234":-0.08885010804698676,"235":0.07316919185904419,"236":-1.4995319947301786,"237":-0.09219715372213418,"238":-0.2834092677975009,"239":0.05962342580137405,"240":-0.1964854297707684,"241":0.09243158513740331,"242":0.15216232912716746,"243":0.07834376723516735,"244":-0.026582494667917504,"245":-0.02953718794242765,"246":-0.1008356066295256,"247":0.21040167298700435,"248":0.015318411852825618,"249":-0.17083933243647037,"250":-0.3061530601407366,"251":0.030420737835531793,"252":-0.10470085508626405,"253":-0.09307356374490672,"254":-0.14821941378387254,"255":-0.057499257304117625,"256":-0.0510034384060835,"257":-0.13867895728786295,"258":-0.1324620872927706,"259":-0.15056148155253898,"260":0.30780390148284253,"261":0.14961916022990018,"262":0.020518973773993157,"263":-0.11047174770780886,"264":-0.02255521750331262,"265":-0.30399088034708555,"266":-0.10510410933796906,"267":-0.015157991009337384,"268":-0.11069347544603804,"269":-0.4560888307614192,"270":0.06227995748481382,"271":-0.11368456662383258,"272":-0.06289459410106121,"273":-0.28227543622811213,"274":0.03694198694212732,"275":-0.6247724612069485,"276":-0.060635561160965204,"277":-0.3119715829913902,"278":-1.0525399986259716,"279":0.894442219571859,"280":-0.26529599020075945,"281":-0.13576533788108064,"282":-0.12094334015416483,"283":0.003930175309585134,"284":0.059643787336247436,"285":-0.09886059582854345,"286":-0.050187993987881215,"287":-0.11991884378241834,"288":0.20269447863166662,"289":-0.17465255153452464,"290":-0.1267027943671075,"291":0.01807203211392305,"292":0.008209118320407684,"293":-0.05468701272125081,"294":0.01847900661186575,"295":0.030449703905830485,"296":0.4485469349784433,"297":0.026047226102735677,"298":0.037564132081038794,"299":-0.11760898334460469,"300":0.02610862344420213,"301":-0.19992756221367586,"302":-0.35405792645543344,"303":-0.23867252936115002,"304":-0.08498556836914267,"305":0.020599367949768743,"306":-0.10768378801338685,"307":0.1895784603889614,"308":-0.29972865382335223,"309":-0.19397663957522343,"310":-0.19921749225158408,"311":-0.014049294865760443,"312":0.07774276209339999,"313":-0.039436722445681055,"314":-0.11837809726372982,"315":-0.18897203262910392,"316":-0.22707505585430812,"317":-0.042373058271949766,"318":-0.020779135782260857,"319":-0.09544444178902153,"320":-0.0747531015971092,"321":-0.21010320969781693,"322":0.022381867702769793,"323":-0.10943823775810703,"324":-0.14522015205351768,"325":0.005990053809741596,"326":0.1371272522857289,"327":-0.11272072994147923,"328":-0.062166569589062415,"329":-0.21447077216813634,"330":-0.2997754244416892,"331":-0.32704043638442787,"332":-0.05449260003197771,"333":0.09180915925454143,"334":0.03134128693110333,"335":0.06199739017063493,"336":0.15766968758626704,"337":-0.08981332915483398,"338":-0.054064080757332954,"339":0.02639823545185338,"340":-0.02620032148149583,"341":-0.20294065470255626,"342":0.030718597999654644,"343":-0.00506667912908892,"344":0.051465962142636795,"345":0.23049492229997673,"346":0.24604706060535475,"347":-0.15497296760782134,"348":-0.18144781607649696,"349":0.0714792394881131,"350":-0.24633781918916664,"351":-0.24167085134970442,"352":0.23533858506502606,"353":0.19487698298082123,"354":0.015043474468450925,"355":0.09472634153018601,"356":-0.14847041811486386,"357":0.0579126579106788,"358":0.19057838226989254,"359":-0.17421349163516736,"360":0.17850523541628824,"361":0.10778061501378872,"362":-0.05110098126221195,"363":0.06821265754461012,"364":0.019611741763884562,"365":0.0760529829747126,"366":-0.14052976675006879,"367":-0.1751862979142673,"368":0.010104347418756682,"369":-0.22490464949025119,"370":0.14467565904658394,"371":0.20256837782669435,"372":-0.1337090384722303,"373":0.16722788328148952,"374":-0.13954816291502375,"375":-0.028113469584071522,"376":0.16618433232302662,"377":-0.07930425792630004,"378":-0.16519560751375995,"379":-0.16977962188599824,"380":-0.07794923977939795,"381":0.16239672132735128,"382":-0.09115774621996926,"383":-0.11373761496576051}},{"sx":1,"sy":1,"depth":384,"w":{"0":-0.16419016498000005,"1":-0.02394037978837965,"2":0.029230778748198863,"3":-0.07045100676085946,"4":0.05628344818977382,"5":0.025930158319871572,"6":-0.20086045618262338,"7":0.026655488745185717,"8":-0.11192393247289044,"9":-0.007624596622377612,"10":-0.16028023949916398,"11":-0.037465865326428587,"12":-0.12926078687122627,"13":0.03676831523758221,"14":-0.1108677330605483,"15":0.06592077771640226,"16":-0.07701523227878661,"17":0.13575723695553016,"18":-0.003254466472553767,"19":0.11819359120058517,"20":-0.059582605582423294,"21":0.05465983285074019,"22":-0.010679405540842082,"23":0.004676430568828504,"24":0.02586978873902872,"25":-0.053095283056318957,"26":-0.08132224844903967,"27":0.12499509925289613,"28":-0.10792767404994942,"29":0.20902321954114567,"30":-0.20222723549254826,"31":0.13707366787733852,"32":0.03403420545174282,"33":0.060506572568143034,"34":0.11743553598934713,"35":0.03993642788781975,"36":0.006910111312404724,"37":-0.13841515909900648,"38":-0.03278400130999218,"39":0.09042797391565743,"40":-0.10268140953691979,"41":-0.024918115127566066,"42":-0.11257078500019452,"43":-0.0846673003740649,"44":0.027789229258553573,"45":0.12429911451317847,"46":0.07015386113401302,"47":-0.04058665352083929,"48":0.030049513806726748,"49":-0.03111988747559063,"50":0.02305141555310078,"51":-0.2889729289320526,"52":-0.14231689800030048,"53":0.009370563120807304,"54":-0.20461611047753725,"55":-0.4722303426820254,"56":-0.0130542165571119,"57":0.01088544951244563,"58":0.0027473630123551604,"59":-0.015898369624736626,"60":-0.11266185206502274,"61":-0.02088747457823679,"62":0.0003958887643050161,"63":-0.07628152132994426,"64":0.04715033670867294,"65":-0.05557821580496779,"66":-0.06424244172779996,"67":-0.032904707476924595,"68":0.02051492949462161,"69":0.0849875098395259,"70":-0.010674764883649443,"71":-0.13587433415750932,"72":-0.013290106662692125,"73":0.0700311193611926,"74":0.003690987887168578,"75":0.1318249845783238,"76":0.041690149619613585,"77":-0.07381636228234931,"78":-0.079685394789838,"79":0.05296585119144127,"80":-0.02342049341910181,"81":0.07309358616837053,"82":-0.07182229106362167,"83":0.01455449139380003,"84":-0.08136957053270415,"85":0.00944439926623167,"86":0.07373806748022045,"87":-0.0028962341254377003,"88":0.06768585770839178,"89":0.08270116334137158,"90":-0.0291405329059997,"91":0.06303207075610047,"92":0.07795032758262956,"93":-0.06577268261366646,"94":0.028039521347318113,"95":-0.0989042909013123,"96":-0.1965427650165515,"97":-0.09262467304195836,"98":-0.06509526929689072,"99":-0.16635439438568017,"100":0.09125203648950132,"101":-0.02465994854918515,"102":-0.03383990261382041,"103":0.06959615321868373,"104":-0.02420583253928381,"105":-0.017862638853550657,"106":-0.013448014972605487,"107":0.1740814898988926,"108":0.23782482231348548,"109":-0.07707196295427324,"110":-0.044090132290313694,"111":0.04317121686415757,"112":0.02198811965542669,"113":0.13203201071401605,"114":-0.00047278350709003755,"115":-0.04990749452175238,"116":-0.1968264329039604,"117":-0.06979372473471729,"118":-0.04034536332503288,"119":-0.016254163409119272,"120":-0.0815199310442989,"121":0.09009753210127561,"122":-0.03187569498311585,"123":-0.11974155644237952,"124":0.0228798820203536,"125":0.02043435288270008,"126":-0.15330143385732906,"127":0.09157799851236179,"128":-0.025245141057299383,"129":0.3273814614441063,"130":-0.05290738153833411,"131":-0.0553515636629898,"132":0.10767780548166002,"133":-0.04264924620805921,"134":-0.0648198930210442,"135":0.11979226614332657,"136":-0.046939522166533174,"137":0.04615061665597138,"138":-0.10138476971942555,"139":-0.0028156433414229434,"140":0.24667808818914552,"141":0.09675440837090318,"142":0.02092538097318678,"143":0.07302300830583906,"144":-0.030865418087017402,"145":-0.03248641212503658,"146":0.033050627615683247,"147":-0.13053261355096205,"148":-0.13942482468821282,"149":-0.0663888305786651,"150":0.14437595882844415,"151":-0.02983671340204401,"152":0.11512121620358375,"153":0.01687803016316423,"154":-0.0765965531976546,"155":-0.02793831732014269,"156":-0.03488170388894507,"157":-0.1316132977291135,"158":-0.10571871679156679,"159":-0.028143665632973134,"160":-0.04087759271313833,"161":0.051696052929485536,"162":0.12848363325363274,"163":-0.03366670042756561,"164":-0.0017203114639840454,"165":0.03416068962654871,"166":-0.040909229064386245,"167":0.022928647717875575,"168":-0.05897443885318116,"169":0.18019429113284474,"170":-0.022826579013594226,"171":-0.010580106378712428,"172":0.0504778647396774,"173":0.07423345296169956,"174":0.03605206286159925,"175":0.06648137418203019,"176":-0.22519879872812484,"177":0.05828690741750923,"178":0.009394780304234924,"179":-0.10117457327035811,"180":0.013956559488493014,"181":0.040886375989744164,"182":-0.07887722833287766,"183":-0.08094152377747092,"184":0.27413461215135404,"185":-0.16980610138191066,"186":-0.07593949800194684,"187":0.18315682181003007,"188":0.07363118496106985,"189":0.12081019704149082,"190":-0.3249084273990811,"191":0.20394795002764476,"192":-0.021777845631833142,"193":-0.07138434187889402,"194":-0.21458723920698247,"195":0.024045263157275253,"196":0.039054078468961154,"197":-0.08717217679877422,"198":-0.004280972887663701,"199":-0.12081064835087822,"200":0.04019570443724827,"201":0.05392955579270098,"202":-0.20376499511326918,"203":-0.09595627285193542,"204":-0.05974704686799397,"205":-0.102210843644465,"206":0.0989711832393902,"207":0.08179233501848372,"208":0.2902754325390729,"209":0.0835980358634695,"210":0.04746936049928835,"211":0.37674416836819546,"212":-0.07846184925128027,"213":-0.03239600311568212,"214":-0.25142614737841745,"215":-0.10650261501242216,"216":0.005985418813947269,"217":0.06430281809721819,"218":-0.027091646829299904,"219":0.050902147838730365,"220":-0.05651598584088886,"221":-0.02290760896220811,"222":-0.07976251885792103,"223":-0.03321451442754346,"224":0.13248093908522493,"225":-0.04656886954138844,"226":0.053115763572053755,"227":-0.08357874568420075,"228":0.02399801259160501,"229":-0.084005027466029,"230":0.028391100903793026,"231":-0.06373565908484245,"232":0.025177293028004786,"233":0.05803347749468906,"234":-0.026430644455623358,"235":-0.06155034810301406,"236":-0.276126526691898,"237":0.013537895552330348,"238":-0.034012954441964637,"239":0.01206432701262774,"240":-0.02002235038904382,"241":-0.05019281360822449,"242":-0.08398650113753159,"243":-0.0559306284778244,"244":-0.04303205115273523,"245":-0.06958589354310882,"246":0.011926199836552602,"247":-0.02750269085564849,"248":0.15858170782947378,"249":-0.10340487829558626,"250":-0.060993097509465154,"251":0.0050185312359874576,"252":-0.02653222610773341,"253":0.006072995931276006,"254":0.12147332356373738,"255":-0.1213605068658368,"256":0.03446663026510461,"257":0.012750926856014519,"258":0.3265828235025604,"259":-0.028537854126966907,"260":-0.08705545032021546,"261":-0.016519961309343616,"262":-0.04931286229592341,"263":0.04782168488749031,"264":0.1546072232839318,"265":-0.052216649540843714,"266":-0.05285026377611359,"267":0.049044626041962545,"268":0.09768627604682004,"269":0.03708269532366263,"270":-0.006775880591392035,"271":0.13101453295803567,"272":-0.08142080640385697,"273":-0.025406029312011108,"274":-0.06797389957809595,"275":0.034925325824514256,"276":0.061615227256402755,"277":-0.21356079560403585,"278":0.037231741426341246,"279":-0.07845567552080457,"280":-0.0474470305672553,"281":-0.031932609889690926,"282":-0.10918996231839019,"283":-0.014159363605717975,"284":0.10906743032953219,"285":-0.0019514409690901428,"286":0.02440888681517337,"287":0.061629261008612934,"288":0.04995985159989695,"289":-0.09348571192975184,"290":-0.10686294780564888,"291":0.002754884998792474,"292":0.0866352360561346,"293":0.006488447454510244,"294":0.040153488243174836,"295":-0.023401530111735933,"296":-0.0790917654985296,"297":-0.14639361018414093,"298":0.13265162716670176,"299":0.05243116016638823,"300":-0.19500185423874272,"301":-0.041921072939156374,"302":-0.027648940427085496,"303":0.1908486111547053,"304":0.05858255939949624,"305":0.1165301168526808,"306":0.016198258975469264,"307":-0.03919153376426416,"308":-0.05442200082000924,"309":-0.021711242332878463,"310":0.08668781786932613,"311":-0.18592184823955832,"312":0.034261509501932,"313":-0.02152284038658981,"314":0.26107604852338245,"315":0.17656835282373073,"316":-0.039261404088047354,"317":-0.01990499714299148,"318":0.010963337752501412,"319":-0.004743886515177086,"320":0.09637876225953343,"321":0.2445299362137891,"322":-0.06417535501828954,"323":0.19696881681682116,"324":0.020319252086844073,"325":0.1382635384772003,"326":0.028572183749444195,"327":0.06913604421416128,"328":-0.04130729313230945,"329":-0.042636989203122845,"330":0.03736810105530063,"331":0.016568921525532576,"332":0.0262345458254274,"333":-0.13991786491020333,"334":-0.1438155080630828,"335":-0.003131028131279173,"336":-0.06533262439041382,"337":-0.03212913435614131,"338":-0.19870009964567206,"339":-0.09715075805886636,"340":0.008530222505426953,"341":-0.03671024932482729,"342":0.006946405651017389,"343":0.1340781702635752,"344":-0.05793852456628055,"345":-0.06784345816518851,"346":0.06982138755057558,"347":-0.07254123367369676,"348":0.2792407741754307,"349":-0.06581819267830902,"350":-0.07066604833164343,"351":0.03798449712462686,"352":0.017874365710725912,"353":-0.05178959343486451,"354":0.1512510118797753,"355":-0.010209079682477392,"356":0.09106056526078207,"357":-0.06132653399977266,"358":-0.06800262904657572,"359":-0.02060520447417899,"360":0.019699948469875522,"361":0.04640201299206532,"362":-0.042754943350511755,"363":0.073056394758584,"364":0.2412476643658166,"365":0.021476025721209976,"366":-0.025128013943438568,"367":0.10755681294274522,"368":0.0830508860938348,"369":0.22590561797444492,"370":-0.05985254826075444,"371":-0.3658901400911081,"372":0.013800335139058782,"373":0.004697128634878538,"374":0.20063276871842256,"375":-0.051589435669164053,"376":0.08268279647785537,"377":0.009187909959774993,"378":-0.008524018261362773,"379":-0.025876856943587732,"380":0.09041261338528858,"381":-0.05966399512468694,"382":-0.06875971041803255,"383":0.026331352458497208}},{"sx":1,"sy":1,"depth":384,"w":{"0":-0.2003588893215647,"1":0.7357291690832053,"2":-0.07678806605950582,"3":0.20758932008377837,"4":0.06975689452707,"5":0.2058308099397698,"6":0.42299612179255414,"7":0.06294455323685856,"8":-0.5182433846676162,"9":0.12687061841569366,"10":0.16114665086123287,"11":0.20006415984307332,"12":0.09702599079789367,"13":0.09504073334508435,"14":0.13008317583694845,"15":-0.662685499631806,"16":0.5168004081420885,"17":0.12899881609405675,"18":0.38729763137671114,"19":0.1679117537141378,"20":-0.06424505947074995,"21":-0.16215366416408394,"22":0.07568877339568038,"23":-0.1252449457033624,"24":-0.6146227446770806,"25":0.13840821722038568,"26":-0.050662827921632785,"27":0.19287752680219067,"28":0.2881283365532713,"29":-0.4950087789105422,"30":0.03751326419239826,"31":0.11233585823744487,"32":-0.5616639842161224,"33":-0.4026329622654928,"34":0.03834794877920493,"35":-0.12514142258569214,"36":0.17332418748443587,"37":-0.03801296629230764,"38":-0.4894497841652926,"39":-0.20471550711353464,"40":-0.23947373503343786,"41":0.03119242714611738,"42":0.3514083667199016,"43":0.18533950503754418,"44":0.06387544772762734,"45":-0.32469828783988036,"46":-0.3698051464237908,"47":-0.117395691326755,"48":-0.5642315941523712,"49":-0.03933443632091229,"50":0.010638324576941865,"51":0.16520199177830822,"52":-0.06001221887048208,"53":-0.13794078059209233,"54":0.2060489787548429,"55":0.12028235585553404,"56":-0.2808131082675786,"57":-0.017171005040142448,"58":-0.2439427405802774,"59":0.10036614181420107,"60":0.14379278148918961,"61":0.012882735509805352,"62":-0.4633298762831615,"63":0.29505357444516317,"64":0.018815442771377214,"65":-0.33506000167728783,"66":-0.03696848666038029,"67":-0.17197761398188727,"68":0.06357672058865545,"69":-0.11362001944456179,"70":0.19933810238732158,"71":0.03723923206750254,"72":-0.17736393308180348,"73":0.15344331081158388,"74":-0.23093383454355773,"75":0.14529889480953154,"76":-0.0760493387930781,"77":-0.6860243010220525,"78":-0.6026839154394763,"79":-0.7927119024170118,"80":0.08913809049068025,"81":-0.06761682207826401,"82":0.3397489854932184,"83":-0.7793324937821241,"84":-0.5896971657113145,"85":0.10683990412976102,"86":-0.7516998696859667,"87":-0.3631748693308196,"88":0.07833908156752876,"89":-0.04648294766637081,"90":0.32979957835011736,"91":0.37591413587996614,"92":0.16669845726753701,"93":-0.16566023869120378,"94":0.22304370723511535,"95":-0.010935304366291265,"96":0.01744196051811329,"97":-0.10905873074998382,"98":-0.21014018397513531,"99":-0.11893216973689297,"100":0.19074287247402785,"101":0.14757203434149066,"102":-0.1613543883886245,"103":-0.16492144130057382,"104":0.26359584920570345,"105":0.09798132353180745,"106":-0.06520424809484263,"107":0.6026453675628064,"108":-0.009920876610990996,"109":-0.6858603753138783,"110":-0.22747484374966404,"111":0.3391132326893222,"112":-0.01438402093270412,"113":-0.19421306089823534,"114":0.06915488028406157,"115":0.20165430947562082,"116":-0.391138307913919,"117":0.02662265324873609,"118":0.28096084702527613,"119":-0.062117677168107566,"120":0.23093906693971877,"121":0.058112188345118686,"122":0.2147842034272163,"123":-0.4641941525997606,"124":0.31988309486772837,"125":0.3130297010180205,"126":0.24964929775785874,"127":-0.33467616575462156,"128":0.024805324764810763,"129":-0.4215854491830999,"130":0.2743534752131824,"131":0.04959013973526209,"132":-0.5096241515864048,"133":0.2253738146001476,"134":0.14608830023213043,"135":0.3704880635999031,"136":0.18160534539614448,"137":-0.10845681374456566,"138":-0.2801954170873385,"139":0.2500185981596492,"140":-1.4835264849738985,"141":-0.4740774362136151,"142":-0.27091443490866746,"143":-0.36610943386747846,"144":0.2971883743287156,"145":-0.28722621185930597,"146":0.1517568262102921,"147":0.07073636918220694,"148":0.17986435263884892,"149":-0.40654629647103596,"150":0.2799057310294606,"151":-0.05494225213967159,"152":-0.3003410372052665,"153":-0.08537017653176883,"154":-0.3208457490651305,"155":0.11600149047020386,"156":0.3176123271491509,"157":0.097312125866752,"158":0.15126907329098033,"159":0.7735725896659823,"160":-0.22693797472574861,"161":0.30177498403065856,"162":-0.08865734128166633,"163":-0.3722604501400432,"164":-0.011068939001876764,"165":0.07793558742819359,"166":0.12738819086635272,"167":0.3357600656477204,"168":-0.017757552412437053,"169":0.0034103217434586033,"170":0.046869027174358105,"171":0.1316781019232347,"172":0.1584319751653481,"173":0.057461835207690395,"174":-0.08829054268556515,"175":-0.34293426940743216,"176":0.23150304168981425,"177":0.10351436723663926,"178":0.017026761251191274,"179":0.1214980451944716,"180":-0.08056293751510112,"181":-0.21246403180374368,"182":0.08940547122908699,"183":-0.1659436380610335,"184":-0.15545390895330596,"185":-0.04373949033631767,"186":-0.23526024185380665,"187":-0.12274444565222122,"188":0.07750441971810103,"189":-0.041670266485266595,"190":-0.22793581152460737,"191":-0.1610667195192327,"192":-0.33413720998515056,"193":-0.2659984358528201,"194":-0.230506117130246,"195":-0.4085394522188887,"196":0.19453350635195102,"197":0.3491739540605614,"198":-0.04963787155261326,"199":-0.042739116359314294,"200":-0.22836822936123582,"201":0.3940237149598782,"202":-0.1891929304334145,"203":0.33020553676221975,"204":-0.10443668224734279,"205":-0.12390949068490817,"206":-0.23508597976172607,"207":-0.10680295419174976,"208":-0.9222423681789154,"209":-0.3714560584372221,"210":-0.1328263233172365,"211":0.048902516494312306,"212":0.017368063516466112,"213":-0.30725254674771385,"214":0.012747076044577253,"215":-0.024124498893732638,"216":0.255318882017449,"217":-0.06812407230824716,"218":-0.09367175981506437,"219":0.3777457110068115,"220":-0.5326219661302226,"221":-0.011921404025734855,"222":-0.32235622210454906,"223":0.3532479383679679,"224":-0.28773782312633905,"225":-0.1317403494647073,"226":-0.5172435870944193,"227":-0.04579346741381205,"228":0.28503533773795936,"229":0.08244400276626832,"230":0.2500969886024695,"231":-0.024790285999928944,"232":0.1767495898509517,"233":0.5707867437464175,"234":-0.1492406525836798,"235":0.035194246852828855,"236":0.5586726212444385,"237":-0.19113003681615418,"238":0.1706369858305205,"239":0.14488675342811755,"240":0.03597340629533158,"241":0.2481947034795519,"242":-0.0025598112187577115,"243":-0.4780496957538264,"244":-0.2131470322046943,"245":-0.31673427053379405,"246":-0.3804944901129754,"247":0.44985221053863506,"248":0.1853220742734389,"249":-0.24061632215151815,"250":0.24733429614227062,"251":-0.3233891890323829,"252":-0.17740720432157114,"253":-0.14162171873458007,"254":-0.22142576357634455,"255":-0.05652923066098848,"256":0.012233054272857076,"257":0.44689701079721683,"258":-0.5154773010546991,"259":-0.06375731315335777,"260":0.6711848434392209,"261":0.1319008166985387,"262":0.16979769498212158,"263":-0.2583702361895252,"264":0.3658481961079166,"265":-0.6867222616064794,"266":0.02936024257066688,"267":-0.07064786700533114,"268":0.023753243691528248,"269":0.0010436314995118767,"270":-0.14662428256537705,"271":-0.22473660375118237,"272":0.5751062525936085,"273":0.0720420740162254,"274":0.12116446014270976,"275":0.17397623773203016,"276":-0.023815079024736598,"277":0.06277347363350522,"278":0.03733858741283514,"279":-0.2099887091031435,"280":-0.43923516849538463,"281":0.4266498013545299,"282":-0.3546568068187849,"283":-0.25743807208886793,"284":-0.3577490021688711,"285":0.11233011673440117,"286":0.1984499660594301,"287":-0.3844894589630448,"288":0.07372519251858874,"289":-0.08455209009993384,"290":1.3173244790611398,"291":-0.21900611278535553,"292":-0.128643456401366,"293":0.03846159805978668,"294":0.01892084940620683,"295":-0.25027624186392716,"296":0.17469371484171953,"297":0.14274641050908968,"298":-0.08149449946021983,"299":0.23893551093516877,"300":-0.07217101415487343,"301":-0.03609026991218402,"302":0.02004602503426727,"303":-0.2108366475521051,"304":0.36856251894476827,"305":-0.08767651481279672,"306":0.11437073124282256,"307":0.017283547350224672,"308":-0.08292575428992988,"309":-0.3321159069154918,"310":-0.07632434597030419,"311":0.06178023924626463,"312":0.028223536066669778,"313":0.009573920581651348,"314":-0.23973640730641746,"315":-0.32889011710720917,"316":0.1262680618018519,"317":0.06175507868073415,"318":-0.05815744622429727,"319":0.044626412321615155,"320":0.14768015840866427,"321":-0.2942069930687069,"322":-0.2783856522213174,"323":0.006491217438364547,"324":-0.08037570132667154,"325":-0.12334792799175204,"326":0.443426813842632,"327":-0.12306913460506404,"328":-0.4485844318906189,"329":0.1266274844986538,"330":0.23112639026982248,"331":-0.17063108610549013,"332":0.1570632588987649,"333":0.04541806782517026,"334":0.08485670110555267,"335":-0.07582439054415235,"336":0.06669089200140105,"337":0.008373143760860045,"338":0.5867679908024773,"339":0.14910106715336044,"340":0.015863842620770823,"341":0.011406984252522933,"342":0.008354707139292865,"343":-0.2224690864535491,"344":-0.08570473934429305,"345":-0.32611478946002154,"346":0.09156045088905236,"347":-0.4532368571922487,"348":0.4161514184231501,"349":0.06866735045501962,"350":0.19025093284479028,"351":-0.09627088453662405,"352":-0.03959161523849368,"353":0.04199684047758736,"354":0.08336867824737917,"355":0.20297498680159548,"356":0.12897143877541525,"357":0.3413807292682764,"358":0.19383752058175913,"359":0.013446898285174532,"360":0.04018079516223893,"361":0.0017533161657680373,"362":-0.17077054605338948,"363":0.17291819548888981,"364":0.3711263347113277,"365":0.0707919862788545,"366":-0.006008147438099912,"367":-0.0716039539484576,"368":-0.09635395022398988,"369":-0.05165727799128407,"370":0.07056460666804192,"371":0.39533868419715124,"372":-0.1633913575136864,"373":0.03417762937077993,"374":0.3415090134222983,"375":-0.04913846534488375,"376":-0.1659787154763581,"377":0.2809356449579333,"378":0.0596534234399005,"379":0.5128753476403578,"380":-0.10319869526362097,"381":-0.05950150939653754,"382":-0.19177238389607687,"383":-0.11350295686763338}},{"sx":1,"sy":1,"depth":384,"w":{"0":-0.24654096396191694,"1":-0.20658925160188432,"2":-0.14815811713676647,"3":-0.05196220101205868,"4":0.09825309531400662,"5":0.0011511752669231203,"6":-0.06530698451468443,"7":0.020752405599674575,"8":-0.08322870415998368,"9":-0.00918341909768831,"10":-0.26504533515392587,"11":0.3772008640840325,"12":-0.11269142040435164,"13":-0.06015705218783287,"14":-0.11066380328519274,"15":0.1654925701762703,"16":0.19217616820123032,"17":0.3935103365749335,"18":0.0009243306086882899,"19":-0.052279547595750826,"20":0.04686885422436038,"21":0.08466216774634043,"22":0.0448414365009418,"23":-0.05780312927845405,"24":-0.041476885451562306,"25":0.2964545791177431,"26":0.1929418991415804,"27":-0.03786171815001438,"28":0.4172768292501542,"29":0.2792168300473573,"30":0.2839947738316219,"31":0.22938988433222943,"32":0.06174674079941992,"33":0.38746623804181346,"34":-0.14997325882865964,"35":0.07184033449180448,"36":-0.15226713306346829,"37":-0.09845842876336304,"38":-0.22707568573117193,"39":-0.015809316769881714,"40":-0.00137592963458205,"41":0.012302042892784833,"42":0.3307529996224012,"43":0.01890074041505975,"44":-0.000994261688835891,"45":-0.03937989679894491,"46":-0.09343092510214591,"47":0.05560915225086826,"48":0.32386486017224203,"49":0.16423449449586422,"50":0.18963655452041914,"51":-0.15428793517882178,"52":0.18146204793195994,"53":0.3202910390970967,"54":0.024776202515731906,"55":-0.09071092188455576,"56":-0.18999955634492613,"57":0.1617981048043885,"58":0.09115638118476643,"59":-0.1698849238395094,"60":0.13141372518858288,"61":0.043014160742385274,"62":0.6131698242772672,"63":-0.09475168483276718,"64":0.015131277233642522,"65":-0.011976508887928046,"66":-0.10238696084441445,"67":0.39021091370950706,"68":-0.30566307363416306,"69":-0.11272430526491248,"70":0.23432056307669563,"71":0.006427357328747872,"72":-0.040650425556757346,"73":-0.06641645249891993,"74":0.04477451752030283,"75":0.08467219523208937,"76":-0.8872316927827999,"77":-0.1829654365718514,"78":0.20961406131777222,"79":-0.2572204722121473,"80":-0.25640667086147073,"81":-0.04170362103261871,"82":0.04682391451376278,"83":0.10525070792220916,"84":0.5396373949944344,"85":-0.07324511276627742,"86":0.34409212415280566,"87":-0.02934835676984361,"88":0.06335150290591418,"89":-0.16550858756830847,"90":-0.19629688906792764,"91":-0.10270012567384092,"92":0.005605393565435159,"93":0.1430446094644148,"94":0.1922355880005645,"95":0.24862063239113932,"96":-0.027257639887127216,"97":0.2331960816022346,"98":-0.1617782657280853,"99":0.10915628970000282,"100":-0.016219092254087866,"101":-0.11396663783065361,"102":-0.08077490000663519,"103":-0.013240398587015915,"104":-0.15900870998888242,"105":0.09222232218051389,"106":0.042929986684411024,"107":0.39709079719575785,"108":-0.058431330955674564,"109":-0.2553404153996765,"110":0.015057506317605725,"111":-0.6406915356236568,"112":0.10512842232238781,"113":0.08222569634035967,"114":0.011018395187634618,"115":-0.19516693749489275,"116":-0.14791884475302453,"117":0.0004058692097523251,"118":0.03777593695918585,"119":0.016371985327567222,"120":0.07304481498061724,"121":0.05965797295756395,"122":-0.08591061605475364,"123":0.18816683601035872,"124":0.08378834616525592,"125":0.5919644423161324,"126":-0.10895429439635451,"127":0.33865622880966845,"128":0.010465185785616947,"129":0.18189436669726475,"130":-0.3713728099068268,"131":-0.26003262338542327,"132":0.26689741865884875,"133":0.17173397588479,"134":0.024583891506492723,"135":-0.05448554621293311,"136":0.033154069530509984,"137":-0.04847992905804,"138":0.10613601672741388,"139":0.19887156699935687,"140":0.41682412993676093,"141":-0.09708872202234267,"142":-0.12369360388478606,"143":-0.2543957081435953,"144":0.03102347042578595,"145":-0.38591753763627695,"146":-0.1077102527526557,"147":0.16071406739844915,"148":-0.528975551544181,"149":0.32860078919368535,"150":-0.16533820641000954,"151":0.18009291885759743,"152":0.2521142159292668,"153":-0.15321262978541902,"154":0.2896629121396354,"155":0.06077689653382951,"156":0.2022423221807876,"157":-0.22555685263582526,"158":0.17671921597712686,"159":-0.35147011805702655,"160":-0.08210847487325594,"161":-0.15653520353031602,"162":0.31810115300654346,"163":0.07489739599708375,"164":-0.04341575951887889,"165":-0.1307380462344732,"166":-0.09313745773723744,"167":0.13865918534679483,"168":-0.20225314922150472,"169":-0.08506627265352645,"170":0.2595884748890169,"171":0.40304135095271154,"172":-0.2122222822926672,"173":-0.05078896104234851,"174":-0.09026703049228209,"175":0.049228305522211226,"176":0.15514248423055724,"177":0.15837541774349198,"178":-0.0687479777486683,"179":-0.10394520770563387,"180":-0.2031296750888571,"181":-0.13057677720022126,"182":0.0504123978555905,"183":-0.05476039446656364,"184":-0.111060898111477,"185":0.1731060082535467,"186":0.13242635875195702,"187":-0.20596828370362685,"188":-0.08971586566913471,"189":-0.19097494343549812,"190":0.18966580100190675,"191":0.10892062965505234,"192":0.1088561836369944,"193":0.14535196823201996,"194":-0.07405799876474742,"195":0.04719864105250401,"196":-0.18213865866801746,"197":0.03799295363241602,"198":-0.03477006186205735,"199":0.0673699965787805,"200":0.012458548010163526,"201":-0.24108002656903882,"202":0.22061659864894653,"203":-0.028470104950243404,"204":0.25662059644626123,"205":-0.11177348058762206,"206":-0.011784687477225856,"207":0.03475165622174581,"208":0.06052737613294029,"209":0.03268157938274219,"210":-0.010372052889707635,"211":0.14442808731439832,"212":-0.056358323817687905,"213":0.6254242007608228,"214":0.04434128901642021,"215":0.01904029637517017,"216":-0.14378331151129325,"217":0.022536719135403095,"218":-0.001839903064227616,"219":-0.17289701264983065,"220":-0.10790745876459604,"221":0.17943306471264242,"222":0.2570985302263941,"223":-0.08599172453956247,"224":0.011428179161940999,"225":0.10007679508504817,"226":0.8536727008091435,"227":-0.07561811963183016,"228":-0.007088222623451068,"229":0.06198961671882394,"230":-0.11554352826702978,"231":0.10665567458110509,"232":0.04893742101441073,"233":-0.14059994345029128,"234":-0.05692852848722818,"235":0.06196301720644774,"236":-0.18969774210181276,"237":-0.07824360970112622,"238":-0.2234806016123417,"239":-0.26022106043453735,"240":0.04022289350095908,"241":0.03444396057581209,"242":0.08881175531098845,"243":0.19981025887722698,"244":-0.09559394861594678,"245":0.06362178924269825,"246":0.04731960434546564,"247":0.11531704782744362,"248":0.01931395299780993,"249":-0.05908155034388738,"250":-0.07780564422463071,"251":0.10601421745895594,"252":-0.07011339248409779,"253":-0.059275390421501054,"254":0.019472819875045545,"255":-0.22185191172040597,"256":-0.030274858810992455,"257":-0.3644596333007637,"258":0.030836673195322867,"259":-0.05979105547398487,"260":-0.018240158091856133,"261":0.015539793306421353,"262":0.03153329708402843,"263":0.08331915491435737,"264":-0.07661568267274702,"265":0.6548812390448878,"266":-0.16755370817100884,"267":-0.10550609079855351,"268":-0.18013888313878743,"269":-0.4033600530542502,"270":0.09866351327185022,"271":-0.08760791403106588,"272":0.15557391483586405,"273":-0.06477661125375378,"274":0.04976198137357294,"275":-0.06566713038655886,"276":-0.0033693977896739748,"277":-0.00907577488233063,"278":-0.10137974036542884,"279":0.31787652362818203,"280":0.1641854486818526,"281":0.021790200789828292,"282":0.051544175225333944,"283":-0.14446226703541548,"284":0.20067774543924347,"285":0.08116995721610688,"286":-0.18180418898947906,"287":-0.018381337016360993,"288":-0.0700129161724864,"289":-0.04169335796496998,"290":-0.38135946264627624,"291":0.015092735631587462,"292":0.1490906779151362,"293":0.02021127029299325,"294":-0.06219417028733062,"295":0.08057936227583887,"296":0.23398989590033745,"297":-0.11281366723442504,"298":-0.1549425884476711,"299":-0.25876067534730607,"300":-0.11358844817898256,"301":0.03408413966279398,"302":0.0665286106333183,"303":-0.1915538011450417,"304":0.08147913527107803,"305":-0.03977227604947285,"306":-0.07967581256796204,"307":0.13842118662591393,"308":-0.24120405843813159,"309":0.21509127105230655,"310":-0.17192946603149023,"311":0.1400889821489835,"312":-0.011742651562061673,"313":-0.07988994478073885,"314":0.01377842142756648,"315":0.018988778649426104,"316":-0.1309407759822762,"317":-0.10046562487368747,"318":-0.11406347261268739,"319":-0.15140609728046295,"320":-0.12721381858282346,"321":-0.03261842332588749,"322":0.003365488603961811,"323":-0.16096095622654963,"324":-0.0035560207455475334,"325":0.34520308234778524,"326":-0.32968142886135016,"327":-0.18967876124979796,"328":0.23255180049568952,"329":0.015414949988068874,"330":0.41208062953117097,"331":-0.13409141458160576,"332":0.08499316077702339,"333":0.07781177033728708,"334":-0.09882240796362825,"335":-0.2089958883307298,"336":-0.08637878006351445,"337":0.02256434626278369,"338":-0.03894150528743937,"339":-0.07401294186959635,"340":-0.09322596248890092,"341":-0.09306885070783939,"342":-0.07511720008997094,"343":0.07710239044378588,"344":-0.09340192531029415,"345":0.11561063870585765,"346":0.2492064374847354,"347":-0.296203748845816,"348":0.2447346587369369,"349":-0.031529148290295364,"350":-0.057402011283059086,"351":-0.13465873156089345,"352":0.41363304479845014,"353":-0.29534428065477414,"354":-0.1998868747543841,"355":0.2200408317107887,"356":-0.03236377297277019,"357":0.1637307868101444,"358":0.10227607633547255,"359":0.04762791914554356,"360":0.09275137484747831,"361":0.1991463463233324,"362":0.026113601500669034,"363":0.028267203650638277,"364":-0.06730217266880198,"365":0.0026244456462800178,"366":-0.0008087778349214155,"367":0.21633629922885605,"368":0.08277122881144712,"369":-0.0234619617699314,"370":0.34210073610138075,"371":0.010043699054797087,"372":-0.0989557990546297,"373":0.14967992451796042,"374":-0.17416447638881358,"375":-0.009898495157496901,"376":0.07618111824736346,"377":-0.12574453889386905,"378":-0.00012954180849324127,"379":0.018342959347546185,"380":0.18463463158469462,"381":0.01663133700403169,"382":-0.19367025448972816,"383":-0.14646219372305874}},{"sx":1,"sy":1,"depth":384,"w":{"0":0.03839560051582417,"1":0.036491665442062254,"2":-0.10539568478175522,"3":-0.05568483924848683,"4":-0.01017609193138964,"5":0.05049568707941982,"6":-0.10092077104077633,"7":0.0016121748842699794,"8":0.0840775033479793,"9":0.07737718745559459,"10":0.05463348431979645,"11":-0.14530566838964953,"12":-0.029803921207190175,"13":-0.03306682441380075,"14":-0.01296612495491226,"15":-0.02143147970620188,"16":0.032295672261464896,"17":-0.12445894953931161,"18":-0.008188933569164085,"19":0.09777763000194101,"20":-0.0008120934146808698,"21":-0.06457625119807345,"22":-0.11397473251470248,"23":0.04598193136210892,"24":-0.0398527772247366,"25":0.12489811003984623,"26":-0.0024727396745600843,"27":-0.056303902116059165,"28":-0.10779939574551373,"29":-0.040731054861044544,"30":0.016009627867014993,"31":-0.07990515054397902,"32":0.037695002284618494,"33":-0.046702503152823864,"34":-0.019400105440817116,"35":-0.035767081687606915,"36":0.028883105106121396,"37":0.11243783956532812,"38":0.1619331475436624,"39":-0.10898516700962187,"40":0.10148780030324656,"41":0.06562377451114543,"42":0.1921776806659724,"43":-0.08221447097680874,"44":-0.07620620895437605,"45":0.041353055032712686,"46":-0.14387240992055364,"47":-0.026363923839126467,"48":-0.026479201285316046,"49":0.1403396540030143,"50":-0.09054811292527906,"51":-0.06431460108518224,"52":-0.19060793088349923,"53":0.009586920934917758,"54":-0.0012377712673564292,"55":0.05772046665494961,"56":-0.0011447823598577534,"57":-0.01257839975354152,"58":-0.0362622749666431,"59":-0.03964679605028974,"60":-0.002556280658063847,"61":-0.059566094790726394,"62":0.005527953973282407,"63":-0.044709341589685835,"64":-0.13591592768303057,"65":-0.07381420517734709,"66":0.07997473528940892,"67":0.056123156836181104,"68":0.0016934597008841702,"69":-0.021670841969631524,"70":-0.04840290963946865,"71":0.047373718225511854,"72":0.06020527443343572,"73":0.025487702197825722,"74":0.06191036251807782,"75":-0.03149024382831631,"76":-0.004020156510018981,"77":0.05947955479548617,"78":-0.04767790051919753,"79":-0.028094391732225152,"80":0.02875355542610021,"81":0.11383445896491776,"82":-0.06684191001565484,"83":0.04467636339956419,"84":-0.1418035659001356,"85":0.11969962240436564,"86":-0.0409051445682854,"87":0.03270630362655174,"88":0.03558799561057322,"89":0.04239356957155022,"90":0.008075088196333555,"91":-0.03671079701709001,"92":-0.07246520848529857,"93":0.10197531373197655,"94":0.10927530273612535,"95":-0.032621637955481654,"96":0.03793809651628049,"97":-0.04003478591752437,"98":-0.07763725005577767,"99":0.1890794542500974,"100":-0.05976914570248855,"101":-0.021570350752421665,"102":-0.03930949764998286,"103":-0.006043203311901216,"104":0.045453985862043085,"105":-0.06766331467700655,"106":0.021212101240575962,"107":-0.009040973767735713,"108":-0.06721719337231076,"109":0.06907399646830681,"110":-0.10097387082221224,"111":-0.07955344672171281,"112":-0.0028271808927904066,"113":0.1737393101356112,"114":0.10240189822684746,"115":-0.019152362988531256,"116":-0.09482318560369486,"117":-0.03489200893121775,"118":-0.08700121392130801,"119":-0.11582731642455084,"120":-0.08737388123137634,"121":0.0032900504128778466,"122":0.052699696355094784,"123":-0.09757375556022546,"124":0.029403587131898695,"125":-0.07750679308633263,"126":0.04332368133143892,"127":-0.046782289540778996,"128":-0.012807507452773773,"129":0.026449532952267155,"130":-0.1304160513801342,"131":0.019391176330024528,"132":0.03709449459315936,"133":-0.08544684618488765,"134":-0.057777949821245254,"135":0.03829455155377795,"136":-0.0979024690035123,"137":0.01105430703359112,"138":-0.03679601463380404,"139":0.1476213321213613,"140":0.08404200813181903,"141":-0.1041776391502281,"142":0.04729723755220674,"143":-0.09502721234655395,"144":-0.19559710773967387,"145":0.23552412238463188,"146":-0.021264148111267648,"147":-0.05190568828303473,"148":-0.2521887768780579,"149":-0.05613224944375386,"150":-0.10900719229242575,"151":0.014573390974923349,"152":-0.019149355948051155,"153":0.07051582907947113,"154":-0.04872797483478529,"155":-0.013230673531048091,"156":-0.07759869880352058,"157":0.036396282258789416,"158":0.08043266883137358,"159":-0.04781598481246082,"160":0.06289864659494734,"161":0.025180134896996165,"162":0.0016083633125973423,"163":-0.005056790328162502,"164":0.11855767222227756,"165":-0.06016322834864663,"166":-0.05868727826876956,"167":-0.07391616413266357,"168":0.03380067513365652,"169":0.04807415077539923,"170":0.004688919047246238,"171":0.311855532189,"172":-0.02881658780479534,"173":-0.17238765347697577,"174":0.036690506610177816,"175":-0.042268129104538185,"176":-0.017783798980581522,"177":-0.22656732278640204,"178":0.028712582385840565,"179":-0.012824120675918874,"180":0.07669193711577223,"181":-0.13157867031337475,"182":-0.06317259215873919,"183":0.038225568979099664,"184":0.0522206030098586,"185":0.07851070080112245,"186":-0.16801601531845006,"187":-0.03682869988656018,"188":0.023473937944985365,"189":-0.16158901493741848,"190":0.06001718499039102,"191":-0.07866053764926428,"192":-0.023963960935165583,"193":-0.018096443119336458,"194":0.0202662022889718,"195":-0.06800051806568397,"196":-0.05900441638306284,"197":-0.016755787918803184,"198":-0.1057449211443609,"199":-0.02381133299630993,"200":-0.00937749433830416,"201":0.011351571304463542,"202":0.011836248441326904,"203":0.2508376430404914,"204":-0.03425018767026415,"205":0.01844788862215861,"206":-0.15244527023035162,"207":0.09900660646282161,"208":0.04593206013308638,"209":0.06115949161544082,"210":-0.0030912904470364504,"211":-0.04392467646568307,"212":0.02929286774848596,"213":-0.020060732751009894,"214":0.05028639843868472,"215":0.14001126898058244,"216":-0.031507328360872035,"217":0.1360985482244201,"218":-0.05241223196721536,"219":-0.11213317556659495,"220":-0.0661948977856128,"221":0.09407250819063809,"222":0.007056647494072126,"223":0.022253052869731955,"224":-0.048844475987351935,"225":-0.0533992588696271,"226":0.08055107313220612,"227":0.026806380980382065,"228":0.032060874298699214,"229":0.02659427190691693,"230":-0.003333377661504851,"231":0.05815543493078465,"232":-0.021786897566404093,"233":-0.17761645706728404,"234":-0.12319169675102913,"235":-0.014502373601260263,"236":0.13549176754244113,"237":-0.021527017021152648,"238":0.015605213177703478,"239":0.08803167945014288,"240":0.012267483682277149,"241":0.06424684027381065,"242":0.004779937752710033,"243":-0.11386357781141522,"244":0.01743429239002869,"245":-0.09443132379520178,"246":-0.0313604604044168,"247":-0.010728539320518473,"248":-0.13409089716277764,"249":0.06271510498603819,"250":0.0024635693116268347,"251":-0.05742903477600621,"252":-0.04763943818845897,"253":0.016831160173476075,"254":-0.01146939609182436,"255":-0.04695898400847761,"256":-0.025880250732479394,"257":-0.016935964080147144,"258":-0.041053184582390614,"259":0.03999957251861187,"260":-0.06386875783443004,"261":0.05588401234663479,"262":-0.11658807258150111,"263":0.00935486059789779,"264":-0.03589232735455915,"265":-0.017358868852698727,"266":0.09489925391644807,"267":-0.02370347870438272,"268":-0.0024731829584317007,"269":-0.03474980773152693,"270":-0.06448262034725766,"271":-0.022284702112602205,"272":-0.050549541307371305,"273":-0.15601750604659062,"274":0.05684103191850578,"275":0.028951759618514792,"276":-0.09828405876769968,"277":0.1237718595345645,"278":-0.0026390372009290047,"279":0.14312457733000755,"280":-0.07426815766239654,"281":0.09136213324291896,"282":-0.057193381722809654,"283":0.15094606312967793,"284":-0.15543274270587495,"285":0.06630195989220947,"286":0.1736807261545701,"287":0.1129480690063889,"288":0.07358086613844479,"289":0.04492849453000409,"290":-0.05348081555651426,"291":0.025392281615570708,"292":0.0169352901813889,"293":-0.12088583849314015,"294":0.02400213193255344,"295":-0.05429817073796049,"296":0.015954513893249374,"297":-0.07071907960204148,"298":-0.0655683795846052,"299":-0.050373225098566746,"300":-0.21898494906187607,"301":0.06191347384099776,"302":-0.04635669118531966,"303":-0.135998962543416,"304":0.020983609400547238,"305":-0.09841271756528142,"306":-0.077687428885546,"307":0.19833122328369715,"308":0.03308402406059787,"309":-0.13387385633045143,"310":-0.3391506757897458,"311":0.2679985003468947,"312":-0.02334145463732112,"313":0.06871108853741895,"314":-0.06267645114121138,"315":0.029624844098576145,"316":-0.08003178437345727,"317":-0.012441539690810716,"318":-0.04564396254053914,"319":-0.13788229844698818,"320":0.008744983663205516,"321":-0.01194520563441604,"322":0.08225266266741847,"323":-0.016702742779291374,"324":-0.043253169269696405,"325":-0.007329674782963586,"326":0.0669870488800382,"327":-0.029763483951437995,"328":-0.07104586119344551,"329":0.060595756572266575,"330":0.02769535183290457,"331":-0.05615194528306723,"332":-0.15546128514013308,"333":-0.08796417495803655,"334":-0.08432845671455984,"335":-0.05741491043111799,"336":-0.02353354010500348,"337":-0.08971001412554135,"338":0.01762448013144713,"339":0.263217201094401,"340":-0.09817466681594872,"341":-0.13698950202049645,"342":-0.2544349883698083,"343":-0.008937186706549444,"344":-0.009333832777030126,"345":-0.012066045255358726,"346":0.05594146449360854,"347":0.04608559310018824,"348":0.0388221619476744,"349":-0.05409532122429804,"350":0.1051871618719761,"351":0.020795961150877847,"352":-0.00686926448696028,"353":-0.030876110802315383,"354":0.15550234245093725,"355":0.1307346065290541,"356":0.008971272949013785,"357":-0.17651053100542627,"358":0.1579468439681003,"359":-0.010591719077524916,"360":0.0019899152573251383,"361":-0.025853805345115697,"362":0.11674318233482732,"363":0.028539122031018483,"364":0.04871270499083985,"365":-0.025346872480947923,"366":-0.004359068790821004,"367":0.0461541032123439,"368":-0.01943696188706972,"369":-0.07415179813204263,"370":-0.05465090238217182,"371":0.16160874456971128,"372":-0.05230543633433646,"373":-0.04332771046098176,"374":-0.01881043885192445,"375":0.023064411585788057,"376":0.03625971196196205,"377":-0.144945721259615,"378":0.044679105082900156,"379":-0.09220680031415056,"380":-0.002791102392850074,"381":0.0246751712898208,"382":-0.011846516849023648,"383":-0.028372794539351962}},{"sx":1,"sy":1,"depth":384,"w":{"0":-0.019410718639090007,"1":-0.18954984385388654,"2":-0.13343642828536523,"3":-0.012913238440147811,"4":0.022191892230618133,"5":0.03924190861140919,"6":0.3141957252800354,"7":0.15708868038554702,"8":-0.20176932519808743,"9":0.03181967412740857,"10":0.11256327663994944,"11":-0.17329451383751324,"12":-0.004633686573281396,"13":0.06084945233897328,"14":-0.25749607852411316,"15":-0.03446801606753749,"16":0.054074628861463116,"17":0.2573423245712613,"18":0.04069807749886253,"19":-0.1456113457332004,"20":0.04145484354456074,"21":-0.07717673985660504,"22":-0.17438960138050236,"23":-0.01672157180408223,"24":-0.148063852517169,"25":0.015264451523167731,"26":-0.10620333631195737,"27":0.0750176049172381,"28":0.20784616256894012,"29":-0.11883534614152569,"30":-0.09571763579533991,"31":0.05804441277200954,"32":-0.05510939247444785,"33":-0.0029102334034080083,"34":0.04482871813603274,"35":0.07552748720569212,"36":-0.013681585464479755,"37":-0.21896021495767526,"38":-0.2633631081004119,"39":-0.09237423849030768,"40":0.0034352221099982257,"41":0.0006158213699793903,"42":-0.26083338997752015,"43":0.043493276050042495,"44":0.15141695364445013,"45":0.014670510824496224,"46":0.19004149109748808,"47":0.17378996618054224,"48":-0.08176783837213686,"49":-0.06155314289930936,"50":0.07617855788684418,"51":-0.016710274312141966,"52":0.11715511744609482,"53":0.03168240503429501,"54":0.1195476274884867,"55":-0.04190013672543364,"56":-0.10495488207947021,"57":-0.08509629139275193,