{"layers":[{"out_depth":2,"out_sx":7,"out_sy":6,"layer_type":"input"},{"sx":2,"sy":2,"stride":1,"in_depth":2,"out_depth":8,"out_sx":6,"out_sy":5,"layer_type":"conv","l1_decay_mul":0,"l2_decay_mul":1,"pad":0,"filters":[{"sx":2,"sy":2,"depth":2,"w":{"0":-0.3571600691192674,"1":0.32774294305311524,"2":0.7006905994250512,"3":0.09822188384284908,"4":0.04620071231912865,"5":1.066994903474261,"6":0.09411186386805792,"7":-0.09538468123011921}},{"sx":2,"sy":2,"depth":2,"w":{"0":0.04223173079740376,"1":1.3187555471500103,"2":-0.9162265313908594,"3":0.6393726333492834,"4":-0.7250958184946242,"5":0.5847936762136078,"6":0.6840717468424065,"7":0.4072290774505169}},{"sx":2,"sy":2,"depth":2,"w":{"0":-0.11715698094141659,"1":-0.019372119662416847,"2":0.007320274374270206,"3":1.466834839414753,"4":1.0484393728110608,"5":-0.018157751065272478,"6":0.0697841103139588,"7":-0.038144464116238154}},{"sx":2,"sy":2,"depth":2,"w":{"0":0.2678114914809189,"1":-0.3532470469510253,"2":-0.08700350156107997,"3":0.3319865049548851,"4":0.12665857648160628,"5":-0.33642408526923884,"6":-0.6922187890533521,"7":-0.5623637934514167}},{"sx":2,"sy":2,"depth":2,"w":{"0":-0.794880427685908,"1":0.9526062482074601,"2":0.7735787926160952,"3":-0.01744349883719447,"4":0.8365790536913903,"5":0.18151049796954125,"6":-0.24298364477919684,"7":0.7935452585213362}},{"sx":2,"sy":2,"depth":2,"w":{"0":1.8205924912463127,"1":1.2478132736416876,"2":0.1494452163224924,"3":-0.010411136564053156,"4":-0.10220193260212707,"5":0.22183239604488247,"6":-0.3938979620770757,"7":-0.12600477877343683}},{"sx":2,"sy":2,"depth":2,"w":{"0":0.0720289346016696,"1":0.07814815039117458,"2":0.7106396297549308,"3":-1.0646736170606736,"4":-0.06559396458292643,"5":-0.6305092107534852,"6":0.42107632813049023,"7":0.6001165077561769}},{"sx":2,"sy":2,"depth":2,"w":{"0":1.174180086330786,"1":0.24694130389324026,"2":0.5643749290723095,"3":0.5877184268195096,"4":0.35232321057331906,"5":-0.20951380998876062,"6":0.9668390587189641,"7":0.0537848928335553}}],"biases":{"sx":1,"sy":1,"depth":8,"w":{"0":-0.0860068528980244,"1":0.4098998773306945,"2":0.02951954261021208,"3":0.7327176118096318,"4":0.027194641469501298,"5":0.008033332575874874,"6":0.2773393221398285,"7":0.005103650501122404}}},{"out_depth":8,"out_sx":6,"out_sy":5,"layer_type":"relu"},{"sx":2,"sy":2,"stride":1,"in_depth":8,"out_depth":16,"out_sx":5,"out_sy":4,"layer_type":"conv","l1_decay_mul":0,"l2_decay_mul":1,"pad":0,"filters":[{"sx":2,"sy":2,"depth":8,"w":{"0":0.19407613403738974,"1":0.22355390453360804,"2":-0.8651106155019418,"3":0.48627970953907396,"4":-0.12132430728620386,"5":0.44166177188666983,"6":-0.43043889406562835,"7":0.3650931255828779,"8":0.231935407117979,"9":-0.8719075294741472,"10":-0.14225909786321245,"11":-0.2143318852108489,"12":0.3478680622075408,"13":-0.4357933954430635,"14":0.3153275986928738,"15":-0.37845200901980663,"16":0.7629325635297807,"17":-0.23259255279290572,"18":0.26130259745001044,"19":-0.3626217842271289,"20":0.7961108806670288,"21":-0.4670336946617286,"22":-0.32773350749941954,"23":-0.09314298848942683,"24":0.1827798372125786,"25":0.2932438702316891,"26":-0.01754967999360276,"27":0.010667707770180966,"28":-0.04889758582462618,"29":0.15359748015703872,"30":-0.20020449270838,"31":0.11139615544828595}},{"sx":2,"sy":2,"depth":8,"w":{"0":-0.004884519706292112,"1":0.15539375134996972,"2":0.47781838867736776,"3":0.11459288255169003,"4":-0.03888215256340513,"5":0.1573651565653014,"6":-0.5823290937122586,"7":0.04176146265862313,"8":0.0563472228226409,"9":0.36069188299143534,"10":0.39785948983242175,"11":0.04715669593747777,"12":0.03435574368369695,"13":-0.05602491425261532,"14":-0.2694487206709734,"15":0.14840006061721356,"16":-0.45264062387137605,"17":-0.14722296311879934,"18":0.06635154551449018,"19":-0.368182978463453,"20":0.025510092144729504,"21":0.11841116567657084,"22":0.2817730081996512,"23":0.3910706901661193,"24":0.24561267108377077,"25":0.09319867573012335,"26":0.4949097874623714,"27":-0.22651024921463148,"28":0.010814447130904015,"29":0.1380312363916744,"30":-0.4425762613670611,"31":-0.003909240241728753}},{"sx":2,"sy":2,"depth":8,"w":{"0":0.22992546187571578,"1":0.07429151377910435,"2":0.206588510103969,"3":-0.016341390402619865,"4":0.2983728100709025,"5":-0.3609592937011428,"6":-0.21400749505964345,"7":-0.09856601786176705,"8":0.5014097742733977,"9":-0.23159750504083554,"10":-0.21159256593362033,"11":0.20261500997083906,"12":0.5163899862962605,"13":0.08547858373485247,"14":-0.14498261028880097,"15":0.12782061376066958,"16":0.5022026796991478,"17":-0.020566326765923033,"18":0.7429405103950028,"19":-0.08062644728963336,"20":0.4565334739894884,"21":-0.2949681561454486,"22":-1.2019141974740872,"23":0.07627438973522876,"24":-0.08427337858436917,"25":0.08580972215600115,"26":-0.07522223176672047,"27":-0.33567505356962435,"28":0.1336781648912776,"29":-0.09564048398345625,"30":-0.2143186783174666,"31":-0.19637527800227583}},{"sx":2,"sy":2,"depth":8,"w":{"0":-0.03181292982619558,"1":-0.1620201573612596,"2":0.07485487937509111,"3":0.06280216367555727,"4":-0.09450184872173846,"5":0.2953909041631284,"6":-0.06838998200213814,"7":0.08666820975730531,"8":-0.08653050954864826,"9":0.09171996207724378,"10":-0.044946567412198934,"11":0.19069900001041323,"12":-0.19616509771429896,"13":0.040096809352464007,"14":-0.14676029911526262,"15":-0.0010445541201463842,"16":-0.20162835131336268,"17":-0.3890201583110808,"18":0.7324186181836115,"19":0.16215163516034553,"20":0.5166258847429879,"21":0.03187061958371665,"22":-0.2506034688237213,"23":0.3210191199107399,"24":0.22363944929927387,"25":-0.3140853583209923,"26":0.290051243682412,"27":0.24598411879101195,"28":-0.060068702176978954,"29":0.10454075367801588,"30":-0.04380096061781095,"31":-0.27963171315683316}},{"sx":2,"sy":2,"depth":8,"w":{"0":0.3677577095002612,"1":0.2516305482820056,"2":-0.01871419305337598,"3":-0.047958276460328304,"4":-0.28549610788366786,"5":0.48830018297849637,"6":-0.27134020707248496,"7":0.17855527977352484,"8":0.37363044670828416,"9":-0.008110161575387345,"10":-0.9754857269729058,"11":-0.11176596672454106,"12":0.12639704441843175,"13":0.4820646528173102,"14":0.4743099137053199,"15":-0.042315253477085285,"16":0.27167091219108996,"17":-0.02845202948861854,"18":-0.07239812986615513,"19":-0.184432469303027,"20":0.5255527112475962,"21":-0.4501913167827064,"22":-0.22933577998428847,"23":-0.631881181112819,"24":0.14425874753008847,"25":0.1546261883186394,"26":0.01162922500531302,"27":-0.2734890547177506,"28":0.07044924672084736,"29":0.3404184492286709,"30":0.24253088178480126,"31":0.25276487403202386}},{"sx":2,"sy":2,"depth":8,"w":{"0":-0.252250952867508,"1":0.1671471810405294,"2":0.04273491341281734,"3":-0.004050390386667092,"4":-0.2666663946084861,"5":-0.09263766333979333,"6":0.16763897853626958,"7":0.5648988810004587,"8":-0.37626557625735574,"9":-0.15133373779287487,"10":0.1053294258553446,"11":0.25882002459190806,"12":0.10102267371550294,"13":0.06884950424415147,"14":-0.20121542447540197,"15":-0.1562941702661658,"16":-0.23837412058284718,"17":-0.5464240796543692,"18":-0.15840694156761778,"19":-0.12721111622449197,"20":0.19353367669443658,"21":-0.4263365813272761,"22":0.7714358779188262,"23":-0.15366583914201484,"24":-0.18442608284598477,"25":0.5322386375039946,"26":-0.36913070643857127,"27":-0.019198138553326985,"28":-0.360472779393888,"29":0.1649145381013922,"30":0.014211595071524174,"31":0.0026764408694909523}},{"sx":2,"sy":2,"depth":8,"w":{"0":-0.6541454487393027,"1":-0.32524485262199243,"2":-0.04457909063327052,"3":1.0253661693797451,"4":-0.8480808509239047,"5":-0.8842295494073488,"6":0.32785336881551336,"7":-0.7553109145082655,"8":-0.06838725563921065,"9":0.015085183921022514,"10":0.1815292317818368,"11":0.3508856358024188,"12":0.08406440023128163,"13":-0.27474727537888677,"14":0.13870999710826848,"15":-0.007604541616579149,"16":-0.5774350432494738,"17":0.132575713399384,"18":-0.26686837347818126,"19":0.4253542431999801,"20":-0.3662395272132133,"21":-0.6660893567460321,"22":0.389066493761422,"23":-0.457873285101851,"24":0.16887667194611056,"25":0.5379245644773252,"26":0.13966811868270645,"27":0.4009329062116851,"28":0.10294995916377413,"29":-0.7504875057374503,"30":0.4985243324129903,"31":0.048556420926243044}},{"sx":2,"sy":2,"depth":8,"w":{"0":0.04590138462851106,"1":-0.058731519248026325,"2":0.08466596334117826,"3":0.120655866337661,"4":-0.07471117630803221,"5":-0.4255092928128106,"6":0.14812618446933037,"7":-0.3205788162193798,"8":-0.2590857625210544,"9":0.42573344531502905,"10":-0.030306988659137925,"11":-0.2818344873947416,"12":0.4370959604752348,"13":0.47733484819900174,"14":0.17674907265801715,"15":0.15071699027519242,"16":-0.5345814283292941,"17":-0.553688462313232,"18":0.5076690633277489,"19":0.0297594081599978,"20":0.3972580733066996,"21":-0.2778658766923976,"22":0.32402042996457087,"23":-0.27217572086790004,"24":-0.2827113732335905,"25":-0.049022898190909846,"26":0.5643236827216362,"27":0.39198303138428675,"28":-0.08189134486603611,"29":-0.1492684419096974,"30":-0.5840244056119499,"31":-0.11528555230911917}},{"sx":2,"sy":2,"depth":8,"w":{"0":0.6767061758180066,"1":0.07221542937435182,"2":-0.10940032476001413,"3":-0.5580557162817504,"4":0.6623952673971146,"5":-0.28707448888485804,"6":0.1868192704372713,"7":-0.04412470412187688,"8":-0.546949172631692,"9":0.29081059965276634,"10":-0.18026676354381835,"11":-0.05172671701624433,"12":-0.9844698860952776,"13":0.7009498980280852,"14":-0.5386184228590534,"15":0.3429454280829598,"16":-0.1787033607221104,"17":0.08637668222720013,"18":0.3449688828572878,"19":-0.0041784114774718415,"20":0.12409912765592751,"21":-0.2825358261107623,"22":0.3169041990418817,"23":0.15425599446282567,"24":0.5564633826343627,"25":-0.21274755070523357,"26":0.2412844922161856,"27":-0.5621644325545592,"28":0.2390299178979142,"29":-0.03491136964883419,"30":-0.4898507104500502,"31":0.2677838143739889}},{"sx":2,"sy":2,"depth":8,"w":{"0":-0.14491164105763019,"1":0.251692413201237,"2":-0.030967984142809005,"3":-0.0172860417344144,"4":-0.02040994094350284,"5":-0.10112646451014189,"6":0.6631535101462817,"7":0.3111468318018948,"8":0.03656274244573557,"9":-0.6845298640394748,"10":-0.17177734372882042,"11":-0.26187898750897143,"12":-0.07132967343920152,"13":0.12314558514590221,"14":-0.180340886207711,"15":-0.3084081529074867,"16":0.4351831908895295,"17":0.1977996152851973,"18":-0.25125298245038785,"19":-0.27763732453891155,"20":0.2228175045025117,"21":-0.19750212895390276,"22":0.14865684224038248,"23":0.2836645008623656,"24":-0.4721715887223527,"25":-0.010920650734848573,"26":-0.05906068371332257,"27":0.25736610125779397,"28":-0.2535551099301766,"29":0.7446514839291558,"30":0.44582038554159503,"31":0.43247711018257506}},{"sx":2,"sy":2,"depth":8,"w":{"0":0.007763813784884656,"1":0.29507669871262576,"2":-0.025005271632140252,"3":0.10776231480870756,"4":0.6511314722020665,"5":0.6900368774212887,"6":0.2760323431049972,"7":-0.05662621137929131,"8":-0.014653532182291564,"9":-0.26352913949430395,"10":-0.4854725446750728,"11":-0.42049484965270567,"12":-0.15620044135082525,"13":-0.021372636011469628,"14":0.4695846012589058,"15":-0.45005021181168087,"16":-0.2723823024890398,"17":-0.6473521229284948,"18":0.3373373336573859,"19":0.3751218100148698,"20":0.05695822281830961,"21":0.27260261689684395,"22":-0.1592986646870921,"23":0.43878158428284225,"24":0.10566916853964868,"25":0.21724880410103553,"26":-0.05319614646522463,"27":-0.008617101200213752,"28":-0.3701488283041489,"29":0.07916411583618164,"30":-0.08083560635354183,"31":0.2925511609617828}},{"sx":2,"sy":2,"depth":8,"w":{"0":0.5704615849390525,"1":-0.05463851270773912,"2":-0.3072505230963819,"3":-0.05486401572656723,"4":0.2884785499833637,"5":0.04457837906818241,"6":0.25797910860864187,"7":-0.3451105068292242,"8":0.2756694900481955,"9":-0.3767067921771987,"10":-0.21458127784920694,"11":-0.0648630870844271,"12":-0.012612916053262507,"13":-0.20301557570170273,"14":0.25656578621807347,"15":-0.09265653994007264,"16":0.5344388624850704,"17":0.5931004256959354,"18":0.22758068162681835,"19":0.04913126322897797,"20":0.24597972244137448,"21":0.2983552607781965,"22":-0.3792276481510664,"23":-0.3834523057052103,"24":0.3508084232402432,"25":0.3823396600845681,"26":-0.33518887486798105,"27":-0.2100081149848723,"28":0.5434703238503271,"29":-0.21815248199397175,"30":0.17630350776608203,"31":-0.399227415040785}},{"sx":2,"sy":2,"depth":8,"w":{"0":0.37742898352525217,"1":0.19842814892433827,"2":-0.40650226685463564,"3":-0.15006860028152394,"4":0.23081633143262417,"5":0.05661849156058314,"6":-0.045747814451423584,"7":-0.08416596472315821,"8":0.10005782642836021,"9":-0.1742324330760288,"10":0.16683925806201982,"11":0.015277476645104947,"12":-0.3481899663640908,"13":-0.1422862513031666,"14":-0.004184467155213642,"15":0.28828122655514343,"16":0.5340677070282139,"17":0.9106117077012638,"18":-0.6324457601557902,"19":0.08359147844301691,"20":-0.05846934268812497,"21":0.498022472317828,"22":0.04808945906971343,"23":-0.0019017352691950572,"24":0.31019563419798984,"25":-0.1473885636617598,"26":-0.797753942255773,"27":0.24289557959090885,"28":0.07686085826765424,"29":0.21569044121017306,"30":0.014719635272315602,"31":-0.0209434262599954}},{"sx":2,"sy":2,"depth":8,"w":{"0":0.4971205827663897,"1":-0.1466197570751231,"2":0.07689124643940434,"3":-0.053300826183012934,"4":0.1721868078392566,"5":0.42281583862165284,"6":-0.027209136262230208,"7":0.6605676030714361,"8":-0.3422539286175676,"9":0.17198623299766694,"10":-0.15085080038844156,"11":0.17328871125814826,"12":-0.8080981263547125,"13":0.1991501849358802,"14":0.09893522946058299,"15":0.544519119512599,"16":-0.04266201882071322,"17":-0.4612048374817866,"18":0.23304687913666,"19":-0.9378783743763803,"20":0.16412709514546198,"21":-0.43254857145954967,"22":0.0820926856981342,"23":0.11154701819405567,"24":-0.004576490774775849,"25":-0.07419635673622368,"26":0.33305080555865707,"27":-0.09997583576156172,"28":0.31241539776490096,"29":0.004862499731807452,"30":-0.32364153543235985,"31":0.42383531965585197}},{"sx":2,"sy":2,"depth":8,"w":{"0":0.389339053513142,"1":-0.2440044734283971,"2":-0.16367836173402583,"3":-0.12702548025068616,"4":-0.5326581156315504,"5":-0.3000705803460136,"6":0.012202188762355305,"7":0.1607236898564399,"8":-0.8196541891112388,"9":-0.2502357691571501,"10":-0.05425863610794363,"11":-0.1616067540514283,"12":0.1702655047219438,"13":0.3461005233911122,"14":0.4212185838196763,"15":0.26331349142571303,"16":0.31184409692219733,"17":-0.09123043412372596,"18":-0.3477326463862712,"19":-0.2881767161190552,"20":0.35862995126615616,"21":0.2726146486780298,"22":0.7420473000063259,"23":0.14617368142776613,"24":0.5335778746204615,"25":-0.40565294306239685,"26":0.4662427901920233,"27":0.4385790633554658,"28":-0.8469746349194707,"29":0.18755178600711395,"30":-0.18392219517562367,"31":0.20595702116134684}},{"sx":2,"sy":2,"depth":8,"w":{"0":-0.05471448853942189,"1":0.7358056188625981,"2":0.22041428461081786,"3":-0.27463012550353844,"4":0.4458988785722833,"5":-0.3928375282630847,"6":-0.17986876891783948,"7":-0.18135205351378078,"8":0.31802810742077614,"9":0.5741680648706655,"10":0.27146838553096425,"11":-0.2914525834275375,"12":-0.33601867226599713,"13":-0.19300114986865372,"14":-0.5885358472785344,"15":-0.38229977103564916,"16":-0.2737484937894545,"17":0.13454396583932376,"18":0.32085124150663275,"19":-0.413761146649788,"20":-0.23173333842614954,"21":-0.35354279307220043,"22":-0.2467912187841982,"23":0.2976927579206804,"24":0.15432520149424994,"25":0.027639093721303774,"26":0.17420496174438269,"27":-0.41802216598820446,"28":0.7483457080721182,"29":0.4501757917104214,"30":0.5381347902349644,"31":0.21359807055891927}}],"biases":{"sx":1,"sy":1,"depth":16,"w":{"0":-0.038851077123911254,"1":-0.023008257858962287,"2":0.03029995478868928,"3":0.07292536804400587,"4":0.03740155073136925,"5":0.13693765332900892,"6":0.5619534789365149,"7":0.06395552165778184,"8":-0.09879262597197747,"9":0.1768103442919426,"10":0.0851428488458677,"11":0.043976882358471685,"12":0.0874440230536923,"13":-0.05238181660823132,"14":0.19251901099668361,"15":0.09243964335286649}}},{"out_depth":16,"out_sx":5,"out_sy":4,"layer_type":"relu"},{"out_depth":50,"out_sx":1,"out_sy":1,"layer_type":"fc","num_inputs":320,"l1_decay_mul":0,"l2_decay_mul":1,"filters":[{"sx":1,"sy":1,"depth":320,"w":{"0":-0.14154942405813986,"1":-0.15579708092885566,"2":-0.1747519570422716,"3":-0.07697474974377506,"4":-0.35018117219755157,"5":0.08678417424141145,"6":0.07149608300765613,"7":0.06552054021198862,"8":0.008048420490210012,"9":0.002336394039759297,"10":-0.18397396976514574,"11":-0.14577746799069574,"12":0.12672994320880238,"13":0.0515346269694155,"14":0.33441399832646634,"15":-0.23239273319165432,"16":0.03103251495937286,"17":0.15090440777507388,"18":0.06631779123605781,"19":0.002256020327520438,"20":0.013369613471483674,"21":0.1847411153890213,"22":0.15977239795610484,"23":-0.1592821597151026,"24":-0.18391636920207713,"25":0.057661483524226335,"26":-0.08664054630228588,"27":-0.27314268738669223,"28":-0.20214148515662175,"29":0.053616199104924364,"30":-0.029691653300122536,"31":-0.04626936873953145,"32":-0.05654201862654652,"33":0.10690949544388054,"34":-0.06745759972233771,"35":-0.007237295531269452,"36":-0.16908264015869495,"37":0.178517752266767,"38":-0.17153579768827226,"39":0.042797640357348316,"40":0.17801174165941597,"41":-0.04820648759043714,"42":0.1696047023433227,"43":-0.07714164286698853,"44":0.010904591055444874,"45":0.14547034154790603,"46":0.10790106325700474,"47":0.17389403684940855,"48":0.2048242986470767,"49":0.10275001140791708,"50":0.13342947700306995,"51":0.01093979069313152,"52":0.30760441464265276,"53":0.07148221940857802,"54":-0.007765638017301552,"55":-0.3264373308187905,"56":-0.06387378515602929,"57":-0.08338221361034046,"58":-0.16124770599083696,"59":-0.10703750500653972,"60":-0.2906939627232832,"61":-0.0694177529555121,"62":-0.0668113330562768,"63":0.08161196469373437,"64":0.09703034580812393,"65":0.11589181781851786,"66":0.2420050000665383,"67":0.04721205833021411,"68":0.008250253574588855,"69":0.06782173809757622,"70":-0.05424055206997447,"71":0.18446754790893527,"72":0.08381003951091093,"73":0.0936492142299648,"74":0.2614057195719227,"75":0.2803077748199379,"76":0.22142691016086966,"77":-0.14107153897991398,"78":-0.08752215448888587,"79":0.34162506704393636,"80":0.27460917675131913,"81":-0.007950954114536925,"82":-0.05611267699600269,"83":0.004596500404345531,"84":0.2209552725969694,"85":0.12217514384390604,"86":-0.09140185810289,"87":0.13673888340982662,"88":0.08373725723333665,"89":-0.12218084554006323,"90":0.001432596214763946,"91":0.13853329926098523,"92":0.18482656253565516,"93":0.10084910434095906,"94":-0.16977607090453148,"95":-0.09599999759259337,"96":-0.0024735580554105566,"97":-0.08110165490489106,"98":0.053564242189430615,"99":0.06059882646049716,"100":0.01647656988396431,"101":-0.05162776155847687,"102":0.08273933013341588,"103":-0.03507389325429497,"104":0.12079414860814328,"105":-0.006692202088820171,"106":0.10815499057325681,"107":-0.01481871980263732,"108":-0.09936106902038488,"109":0.23303288978159598,"110":0.16599172934520023,"111":0.13912639296866333,"112":-0.0034307345028008877,"113":-0.009566531889158325,"114":0.05831724066629984,"115":0.0982543181544443,"116":0.02363764350516988,"117":-0.11759592168449332,"118":-0.1544097900603278,"119":-0.0018607528009714715,"120":0.10901481079569919,"121":0.04021029150264511,"122":0.09524822574715047,"123":0.021285532604449625,"124":0.06450049921346594,"125":-0.028880018073634713,"126":0.01197816822981996,"127":-0.025430647736078237,"128":-0.02120494701127433,"129":0.03522174637234288,"130":-0.05825594855603927,"131":0.036785389486573006,"132":-0.1354015105521664,"133":0.4142806730431522,"134":-0.2822789585022034,"135":0.004046381975796669,"136":0.04111530037234432,"137":-0.14474557672934987,"138":0.14745213181769143,"139":-0.06039907363341372,"140":0.009301199251593619,"141":-0.09182265991106721,"142":0.09847320853394495,"143":0.09386522234362854,"144":-0.06759929332570658,"145":0.11523022671062019,"146":0.08884377143018715,"147":0.11123223495907977,"148":0.0610077860203065,"149":-0.08598377719247789,"150":-0.3008241584286601,"151":0.023322677376533898,"152":-0.007600551878525842,"153":-0.05611120878244971,"154":0.05082626438858391,"155":-0.16125912431797812,"156":-0.03700335912681311,"157":0.11122235423752429,"158":-0.004099045104067995,"159":0.17212141496223735,"160":0.30675244297983245,"161":0.08789915940526155,"162":0.09051813118904235,"163":0.15384308024417467,"164":0.07615192372474236,"165":0.01750593690835693,"166":-0.13450850224533514,"167":-0.18818457641574882,"168":-0.11023567561830382,"169":0.14726068044617888,"170":-0.20072972097259983,"171":0.056750705001898105,"172":0.014794426055895588,"173":-0.3145241354534696,"174":0.4459635874684787,"175":0.21464588462688103,"176":-0.01701662488709158,"177":-0.0464059272363308,"178":0.1002976654273219,"179":-0.0518174101089793,"180":0.07519851256442603,"181":-0.035687353256231534,"182":-0.7908185953290654,"183":-0.03278455802281095,"184":0.03045066154963485,"185":-0.008656504818329563,"186":-0.3227385401173444,"187":0.1570201144837451,"188":0.22802051207010726,"189":-0.17860391444690657,"190":0.090282799888946,"191":-0.023190408804942345,"192":0.047786452309374304,"193":-0.011693000587081654,"194":-0.056385223267202675,"195":-0.058937920937125354,"196":0.09526337462055348,"197":0.008340704195264517,"198":0.21081255820818337,"199":-0.16731070239991636,"200":-0.05094027833012407,"201":-0.061912246301293855,"202":-0.19899023320641415,"203":0.06288478805833778,"204":-0.005172413478869513,"205":0.072993106841626,"206":0.05632520644394736,"207":-0.10839734291512852,"208":0.17816997320489966,"209":-0.003119383645247776,"210":0.00996289583853445,"211":-0.11627254431746037,"212":0.04514866266712441,"213":-0.026390577387557682,"214":-0.3695550449114123,"215":0.2514633812483435,"216":0.0058467489311439065,"217":0.21129636578777336,"218":0.17505501244625762,"219":-0.20218032609632544,"220":-0.033334168296374804,"221":0.018963013540351445,"222":0.11867265636431122,"223":0.31483234844968533,"224":0.10607271148854468,"225":0.1664182934615202,"226":0.02847818567709915,"227":0.10720520525107302,"228":-0.07740737258633182,"229":-0.07853630768022445,"230":-0.35420582712979876,"231":0.13457954400887664,"232":0.02061201993808624,"233":-0.016526672401113364,"234":0.04192275714762829,"235":-0.062086482813819725,"236":-0.04247682216618354,"237":0.07917384309173826,"238":0.06453407068459906,"239":0.1687911399670532,"240":-0.24243535383019507,"241":0.03937975784816632,"242":-0.1572573942347855,"243":0.05008172085409985,"244":0.1110504037264228,"245":0.11473388557863906,"246":0.14856230856965336,"247":-0.1038982610785785,"248":0.1489178668486279,"249":-0.3376843567757374,"250":-0.06980694324453861,"251":-0.10428468514300596,"252":0.1644002880089817,"253":-0.03120029975463759,"254":-0.26087179860769694,"255":-0.121833878405032,"256":0.420103283419676,"257":0.047673541010475017,"258":0.03495740166613157,"259":0.09657567673429478,"260":-0.029526941787359807,"261":-0.2058984245897218,"262":-0.7026116482472332,"263":-0.08556866588522942,"264":0.14151262520378477,"265":-0.14019309189290635,"266":0.1362548899902388,"267":0.1926741762139529,"268":0.09278629802206241,"269":0.011092377958700798,"270":0.1932741533685364,"271":0.11117140516995803,"272":0.1910081713817412,"273":-0.21148049232532998,"274":0.3509725437333235,"275":0.3087066128941736,"276":0.061947494320150696,"277":-0.06466021579463335,"278":0.0010473554556655956,"279":0.3474944757379216,"280":-0.17138275280751275,"281":-0.07360122674263565,"282":0.12448726765430852,"283":-0.055220474520378336,"284":0.06802559969092477,"285":-0.12884378899426385,"286":-0.0024484533388486984,"287":-0.1887909498143775,"288":-0.10479490262914037,"289":-0.19650598185935275,"290":-0.29684455275538346,"291":-0.2282873517691008,"292":-0.250929698199142,"293":0.06784353374029985,"294":0.0542763016923765,"295":0.20918016684324547,"296":-0.09539805392261008,"297":-0.04567464470810825,"298":0.16267778824929816,"299":-0.27625764424364635,"300":0.2701171582732738,"301":-0.07426201154095617,"302":0.14261764841394683,"303":-0.19253023793915336,"304":-0.08674626577229798,"305":-0.033021944815543706,"306":-0.06613758213592512,"307":-0.23594890661053808,"308":-0.16219526614987342,"309":-0.10094715603309458,"310":0.23577207556202806,"311":-0.01760442597195049,"312":-0.2951631055355313,"313":0.24091300243366914,"314":0.026218892715852586,"315":-0.462007789492765,"316":-0.13271082622543914,"317":0.13467885272180305,"318":0.07860624723044973,"319":0.07204399081829975}},{"sx":1,"sy":1,"depth":320,"w":{"0":0.12110630135803765,"1":0.18406030341670288,"2":-0.024372415708108025,"3":0.3040783516496457,"4":-0.4217303166472928,"5":0.3156692889587193,"6":-0.0765676642775012,"7":0.1885868468641999,"8":-0.11050887405419794,"9":0.038473196537154655,"10":0.3500894763040817,"11":-0.1850509023056431,"12":-0.28007613719398405,"13":0.05309486373207252,"14":0.17605787516019356,"15":-0.19641602699598262,"16":-0.18148971851411305,"17":0.11112771121517388,"18":0.1251997242959922,"19":-0.07778158641334257,"20":0.06742198412110781,"21":-0.008132390907954052,"22":-0.06186667459021328,"23":-0.13127532336704625,"24":0.03360864178912682,"25":0.08603454969448765,"26":0.13250542435215054,"27":0.003987907863089489,"28":-0.2594378673616754,"29":0.19895436988117593,"30":0.03085713029895488,"31":0.07317388958204556,"32":0.09323123480366095,"33":0.07103954553193603,"34":-0.08338803015158947,"35":0.01765455125328326,"36":0.13178110788732458,"37":0.20090772335123797,"38":-0.08137361610276388,"39":-0.1246620981540772,"40":0.018708016805392722,"41":0.17989670229703902,"42":0.09084296711134209,"43":0.16155874941972784,"44":0.10344653812623084,"45":-0.045070124352561455,"46":-0.0976694217369155,"47":0.09112328833610632,"48":0.1066820414507711,"49":-0.042331872020609555,"50":0.10878598424644374,"51":-0.21870521335172355,"52":-0.1263762884804803,"53":-0.017310509242336736,"54":0.01353195684206988,"55":-0.29874748536315393,"56":-0.25105997676445263,"57":-0.09179704582873864,"58":-0.018296297152592785,"59":-0.10026176508062806,"60":-0.1335039508197943,"61":-0.23174774203083798,"62":-0.2123559805772854,"63":0.022978862039965697,"64":-0.11220215315699054,"65":0.043825581408077866,"66":0.15297610217129667,"67":0.060437593680428316,"68":0.14183993094438638,"69":0.06614875992264259,"70":0.06473645937456292,"71":0.25346637092012536,"72":0.23331062955426682,"73":-0.16981252990509446,"74":0.057914261121160895,"75":0.029154728153508443,"76":-0.05702478099331917,"77":0.11102966765969216,"78":-0.02795757745264602,"79":0.10421509377240491,"80":-0.20322980200792712,"81":0.12749325659849262,"82":-0.15609950465541025,"83":0.04197816343854554,"84":-0.03250428985867114,"85":-0.038067656244316336,"86":-0.35195984659758367,"87":-0.16016097941337418,"88":0.011346095059303736,"89":-0.16433116492854208,"90":-0.11013932724794338,"91":-0.17886710939972797,"92":-0.0034412607815741967,"93":-0.027754219769159916,"94":0.05459586444013243,"95":-0.091842140385422,"96":0.06866766774488571,"97":0.010009847278655438,"98":0.06239200016343832,"99":-0.058946674996363635,"100":-0.012941778172343644,"101":-0.1471934617283159,"102":0.09138079347702661,"103":0.016644826437232942,"104":0.006252317827418433,"105":-0.06765864169855552,"106":-0.043330363183549686,"107":0.03489294429494546,"108":-0.0986267672689251,"109":0.13144006276742332,"110":0.09556141508228674,"111":0.10351654392669908,"112":-0.11182647750260186,"113":-0.1291811871990647,"114":0.14310098805806715,"115":0.01045896916422462,"116":0.013903770254544251,"117":-0.0056316983413645435,"118":0.011355955455166128,"119":-0.05164877564852106,"120":0.15198127906529774,"121":0.14675456779488122,"122":0.20167989761753294,"123":0.10842743776104564,"124":0.04687325778869211,"125":-0.06203378176511263,"126":-0.1895984071090682,"127":0.22010318313561075,"128":0.07465872421196701,"129":0.039660617105374676,"130":0.008107029111021317,"131":-0.20395575918209033,"132":-0.06154745030551756,"133":0.030057435019830575,"134":-0.35905281980029846,"135":0.05350637846255232,"136":-0.055399341123298015,"137":-0.09167737001913276,"138":-0.039254885726278575,"139":0.137592426508303,"140":0.06334474566517742,"141":-0.10741776219345033,"142":-0.01299380447412818,"143":-0.116124222588308,"144":0.06757721257420388,"145":0.06852826284025701,"146":0.044291356594988056,"147":-0.04508908403833132,"148":0.003684722913260993,"149":0.12830805529370068,"150":0.019905774755313414,"151":-0.057079969020722536,"152":-0.005632414361007159,"153":-0.0518137535395417,"154":-0.00956407033207823,"155":-0.0354088846635067,"156":-0.1968503759044728,"157":0.07849162718780439,"158":-0.15155608705937385,"159":0.13645704938582956,"160":0.20666613682024937,"161":0.03396496129265654,"162":-0.03678344682796975,"163":0.10688145893967718,"164":0.11161638745036263,"165":0.15777201694017928,"166":0.00872076773428237,"167":-0.016693867511519373,"168":-0.21642053872389283,"169":0.09467627849609493,"170":0.1102900677916902,"171":-0.15737112437002307,"172":-0.16570626099624064,"173":-0.03562284260820753,"174":0.08872690942167027,"175":0.0009097992457938351,"176":-0.10427183520122787,"177":0.1009263450030138,"178":-0.09131506785121551,"179":-0.041831537155959886,"180":0.01879019275660815,"181":-0.16114217611263168,"182":-0.2502804997075597,"183":-0.19418019704719258,"184":0.07956816949242042,"185":-0.2802286964283094,"186":-0.20139426300782115,"187":-0.03310399454429921,"188":0.07211687639031729,"189":-0.17932465624004892,"190":0.013883308900038605,"191":0.12144875611932279,"192":-0.0232151459634751,"193":0.14323329688464478,"194":0.006361177050609027,"195":-0.09054020357222359,"196":0.09410399266496272,"197":0.26225394498587806,"198":0.2765357238289123,"199":-0.016125609700401892,"200":-0.025058747379371173,"201":-0.018882403624474724,"202":0.1069498091030593,"203":-0.09473603834424334,"204":-0.1549004149694896,"205":0.04755766741178783,"206":0.06399769039078962,"207":0.1926221763763401,"208":0.28432731781688103,"209":0.047147505580933675,"210":-0.07730527617362958,"211":-0.06806045902399194,"212":-0.06438339947030905,"213":-0.03584444090270268,"214":-0.22877688635778817,"215":0.15550827379008905,"216":0.051529002669848174,"217":0.06511866681306741,"218":0.28514806051664127,"219":-0.038913910214735566,"220":0.03422055321985057,"221":0.020724794931573386,"222":-0.012890952619215367,"223":0.2241657866260069,"224":0.17078917965691084,"225":0.11736825300087325,"226":0.29876919574178673,"227":0.013544778443545808,"228":-0.115339590859905,"229":-0.1217519819949194,"230":-0.04723827461571565,"231":0.29471770732999764,"232":-0.003113230975906459,"233":0.28673806833496324,"234":-0.023981649125594157,"235":0.23589263594177146,"236":-0.06766829985601139,"237":-0.10398215730489978,"238":-0.05762540381777141,"239":0.3289123580990657,"240":-0.004288316109452744,"241":-0.12677553508572031,"242":0.2579054748137719,"243":-0.028329892489730866,"244":0.18123083778537027,"245":-0.004737812977602993,"246":-0.03372516063532589,"247":0.04784906096318921,"248":-0.04464563659479888,"249":-0.13528470754458372,"250":-0.11167513704756665,"251":0.0782990779883699,"252":-0.062092169511138086,"253":-0.03934968316255304,"254":0.0007622660149687563,"255":-0.05826648265560595,"256":0.22033471318543293,"257":0.05627227121958674,"258":0.13262271275115492,"259":0.14394784332493563,"260":-0.016548042976279792,"261":-0.1146164869520521,"262":-0.6023202289974274,"263":-0.01786726652819487,"264":0.006055765607005277,"265":0.09434480147927603,"266":0.09594282915083646,"267":0.09426917535269218,"268":-0.0394616442535607,"269":-0.021770734997428612,"270":-0.035014752997306116,"271":0.3887647325231129,"272":0.1757389046085123,"273":-0.1246873431676108,"274":0.12977725884614666,"275":0.19914741267673358,"276":0.0661079412983349,"277":0.06081175059962296,"278":0.08185318852680487,"279":0.3168415531424532,"280":0.06991822850531058,"281":-0.06392595688217266,"282":0.0027888424580420736,"283":0.03841812596107552,"284":0.17335485922817945,"285":0.004944401644875435,"286":0.13252973355479425,"287":-0.11614007175158118,"288":-0.09436542272908686,"289":0.01480537445050868,"290":-0.04292544244742984,"291":-0.28882286597498097,"292":-0.09090622781961835,"293":0.17756266926479847,"294":0.07924816105752013,"295":0.06305087723571151,"296":-0.01679806880945509,"297":-0.046877198384465635,"298":0.12028679413538833,"299":-0.08145567690029566,"300":0.3750212549483814,"301":-0.10007117808697436,"302":0.06008094955934142,"303":-0.07843855378576471,"304":-0.07446473368000414,"305":-0.024872774761711354,"306":-0.08751067689770484,"307":-0.2486483223457446,"308":0.04756360088891902,"309":-0.003992279947490176,"310":-0.07138560462655391,"311":-0.1860212627692018,"312":0.06475861247197238,"313":0.09645716034295646,"314":-0.02769610359946613,"315":-0.055679508488522995,"316":0.06736673621242517,"317":0.253776333446926,"318":0.13991701429070189,"319":-0.12277016751053156}},{"sx":1,"sy":1,"depth":320,"w":{"0":0.10331115739813626,"1":0.3320440438030127,"2":0.35142253889351016,"3":-0.031220612573811538,"4":0.5374950980354389,"5":-0.07063967230313355,"6":-0.17710590927814876,"7":-0.0081633981706176,"8":-0.057464105735214585,"9":-0.0927598189005526,"10":-0.0009566373944880971,"11":-0.13107573546220805,"12":-0.3395711627132194,"13":-0.10170108683681876,"14":-0.11934848770051694,"15":0.06599447003709416,"16":0.036675174937845674,"17":-0.12503508379720146,"18":0.20885681646361912,"19":0.23264599411188883,"20":0.28851397049879124,"21":-0.11440193568829549,"22":-0.04165994846169928,"23":0.0977204838821736,"24":0.464562524825078,"25":-0.15682278851717013,"26":0.5074464666717025,"27":0.36480005054780873,"28":0.2805179003170183,"29":0.15008643145416092,"30":-0.21616942360947067,"31":0.28688983505212934,"32":0.2624905082957411,"33":-0.21080350179989688,"34":0.06287654215241287,"35":-0.18163242432918777,"36":0.3391227078555342,"37":-0.12282446780663804,"38":0.24027993710121123,"39":0.013284781923230812,"40":-0.1707466027296441,"41":0.11568945383505433,"42":-0.17006205945253183,"43":0.02435152299528406,"44":0.22259939949271584,"45":-0.040285569197347666,"46":0.11076502979187797,"47":-0.10498259032377334,"48":-0.04494263643823549,"49":-0.1587901296426511,"50":0.1255462512642089,"51":-0.01774348025094486,"52":-0.5420094485056716,"53":-0.025909083442993176,"54":-0.0683002021569932,"55":-0.06668768919966948,"56":0.027817536104632595,"57":0.0952901282808405,"58":-0.03506484005403252,"59":0.14096620859497938,"60":0.16129026001820768,"61":0.03521227781686602,"62":0.1950967327026055,"63":-0.13935848546089702,"64":-0.16657932660516495,"65":-0.0948028294032467,"66":-0.057861203823069134,"67":0.0045100055039778535,"68":0.1495450958810088,"69":-0.052045731779760615,"70":0.0789457828216892,"71":-0.05625315702495013,"72":0.20004095080693585,"73":-0.097664116526758,"74":-0.21819675795241486,"75":-0.23015502534897414,"76":-0.06953149367682879,"77":0.42365607800751387,"78":0.20798862531700946,"79":-0.3835783030342653,"80":-0.2483242268728788,"81":0.011673483509252106,"82":-0.006129012008060833,"83":-0.09234321461163401,"84":-0.5896969064325086,"85":0.01624077880212681,"86":0.0077514748537957975,"87":-0.29399845637159766,"88":0.058512949547336615,"89":-0.1216244948262741,"90":0.013202200235770687,"91":0.042137582754628304,"92":0.030217937864200708,"93":-0.026032174729279704,"94":0.08809982078136701,"95":0.15535346676358724,"96":0.1735001600907896,"97":-0.01259403325996677,"98":0.067497804938586,"99":0.09273067915555083,"100":0.15107587164887357,"101":0.16710319738767435,"102":-0.11212943270634912,"103":0.10218114338627335,"104":-0.022472172436492997,"105":-0.029727181757454663,"106":-0.007899811162758787,"107":-0.17405694211653008,"108":-0.054047796097052576,"109":-0.20969074229122375,"110":-0.19372911674862958,"111":0.10961883898154774,"112":0.16725908944380133,"113":0.05405591412014534,"114":-0.14725532035598057,"115":-0.058951064045216904,"116":0.28711284258155356,"117":-0.24529408922716073,"118":0.07585003335254378,"119":0.20910208069203765,"120":0.001170939222869076,"121":-0.0600817915638581,"122":-0.05944921139731,"123":0.013272031771856374,"124":-0.045732490941534025,"125":0.04843221521043649,"126":-0.16013772930858303,"127":0.09408703431189125,"128":0.027192811588311504,"129":-0.05616725392742352,"130":0.17463278894446857,"131":-0.08249956320049007,"132":0.3838180874422899,"133":0.1257120914526568,"134":0.01338199619872087,"135":-0.07039311828515835,"136":-0.10435519635252963,"137":0.23180323960890292,"138":-0.17398578247572888,"139":0.020320836935027575,"140":-0.05958196501006225,"141":0.15663432339897085,"142":-0.035448710992159745,"143":-0.10532049432581132,"144":0.11623759706188913,"145":-0.1611185201042968,"146":-0.13093021213648953,"147":-0.11801437169269184,"148":-0.15662839875104057,"149":0.1783539296427093,"150":0.13433309699954885,"151":-0.1426113243288378,"152":0.0949199785344234,"153":0.10538994301398312,"154":0.011460716352795896,"155":0.21849328594846415,"156":0.051133058375044414,"157":-0.1138908652889932,"158":0.05971879997933783,"159":-0.036736222718793954,"160":-0.11830903168501775,"161":-0.005516132784574386,"162":-0.007781417597474745,"163":-0.10611583310723062,"164":-0.03538993212304939,"165":-0.09762981781964261,"166":0.027234434992802103,"167":0.15907217670833024,"168":0.12352018591832048,"169":0.06841128956979056,"170":-0.04047230507851056,"171":-0.15034150783933123,"172":0.022821358473586607,"173":0.34294317476710473,"174":-0.19372097788617648,"175":0.0035011133298699115,"176":0.010383914509895887,"177":0.004209962851028372,"178":-0.042209511557338,"179":0.11915048555859288,"180":-0.042378578655414015,"181":0.031134318765148758,"182":0.3837232841192932,"183":0.04597890033398474,"184":-0.05115857431358659,"185":-0.028390457818577654,"186":0.2087567425387229,"187":-0.17870535199453705,"188":-0.12507171736485215,"189":0.2057740241210826,"190":0.13155100572043274,"191":0.013834085318179633,"192":-0.05600104723173219,"193":0.17300823262196807,"194":0.1307986108603412,"195":0.15524758391296017,"196":-0.0005532722628668727,"197":-0.054369871064185595,"198":-0.11316229514352893,"199":0.11019175979636285,"200":0.09201863886577642,"201":-0.13669132951048335,"202":0.06160965456397413,"203":0.15518859462623077,"204":-0.08302247502423105,"205":0.11148566500025897,"206":-0.02452616817884518,"207":-0.000579641932767978,"208":-0.12939631153347217,"209":-0.1317206944792088,"210":0.16130891648164739,"211":0.13913368200656162,"212":0.13895927562160684,"213":-0.00528498199686833,"214":0.20684454674681393,"215":-0.04659276595254003,"216":0.09687488176675857,"217":0.020119347284064133,"218":-0.13250119622430356,"219":0.09695686975403206,"220":0.038982249006039325,"221":0.17850089120945614,"222":-0.014771282038538409,"223":0.2633311384952529,"224":0.27143600383188876,"225":0.02330311125339488,"226":0.08450086451299732,"227":-0.033207222340007184,"228":0.03218084231639958,"229":0.060146894045491894,"230":0.1933793862800561,"231":-0.24630691162216925,"232":-0.01051206282422104,"233":0.17855655452507593,"234":-0.0997869092205799,"235":0.060036014699441885,"236":0.25359867425734256,"237":0.000993740094982793,"238":0.22300877075157924,"239":-0.0822936899494986,"240":0.17713370117712302,"241":0.13100424216427367,"242":0.2220734606379116,"243":0.18826524768390238,"244":0.10069555361837687,"245":-0.0027205497983148995,"246":0.14580063085743705,"247":0.15091776641015678,"248":0.003493428541277954,"249":-0.004493414036838314,"250":0.10650878514733306,"251":-0.06397537974086782,"252":-0.27109656771013707,"253":0.3066516308548944,"254":0.1609622991210323,"255":0.09528086724661806,"256":0.016189767830642347,"257":-0.022915916928989272,"258":0.1781795327621774,"259":-0.19399535813089322,"260":0.04143921121007602,"261":-0.11489854458220333,"262":0.1655385483533027,"263":-0.25735943890047147,"264":-0.019207525786903008,"265":0.34011367197234627,"266":-0.001975122654038609,"267":-0.28267316718175306,"268":-0.07821622234425593,"269":0.15326345985026257,"270":0.02727762399317284,"271":0.11579771132045358,"272":-0.21347578071200451,"273":0.3855425527490851,"274":-0.19357936175391804,"275":-0.05379431829134778,"276":-0.3305239061662672,"277":0.03355210067837422,"278":-0.10038771046067684,"279":-0.2655771868004514,"280":0.04458420057132593,"281":-0.28493151518643206,"282":0.012699348435641081,"283":0.010369020997631108,"284":0.039109203795872016,"285":0.04802994115062373,"286":0.028631068982985917,"287":0.21181103406697235,"288":0.11223177928181914,"289":0.07328822100330477,"290":0.413424349605956,"291":0.14189372274630557,"292":0.24956259841625328,"293":-0.17095142699819676,"294":-0.21488534214028118,"295":-0.30484240234980675,"296":-0.0058995678390020255,"297":-0.09649084479713725,"298":-0.13981580903773555,"299":0.0984258259566556,"300":-0.3768445644256321,"301":0.38261188218206965,"302":-0.06981984017944992,"303":-0.11766022094243885,"304":0.0852609770561402,"305":-0.10273101584377994,"306":0.22131680980083843,"307":0.1899796022530704,"308":0.48907220521766814,"309":0.16839319308817305,"310":-0.07367157152520995,"311":-0.035323250891924965,"312":0.28830319508954727,"313":-0.05761079848499553,"314":0.18395653165550827,"315":0.2993305089546213,"316":0.13752581272474662,"317":0.09032327406624814,"318":-0.38577386674503317,"319":0.38136047025736913}},{"sx":1,"sy":1,"depth":320,"w":{"0":0.08058714583072177,"1":-0.11396933379998313,"2":-0.3308936618160374,"3":0.1366228741275396,"4":0.16245037153084918,"5":-0.11124172589240518,"6":0.032770441588722395,"7":0.14181340805302628,"8":0.5241926229909981,"9":-0.0037281988747753835,"10":-0.14269462321603593,"11":0.06809477579325987,"12":0.4132461975842957,"13":0.746323642506682,"14":0.4623922297664269,"15":-0.012297501755741479,"16":0.21384128374682088,"17":0.2410769086819607,"18":-0.11969373491472017,"19":0.01510625540502963,"20":-0.051662429655737814,"21":0.09926432403212818,"22":0.14221213013763756,"23":-0.11131109863514291,"24":-0.23256301189642314,"25":0.43275866992440704,"26":-0.06466738594303371,"27":-0.34376910186963333,"28":-0.110455880977042,"29":0.12949804838036863,"30":0.4775691649879002,"31":-0.2860028027579856,"32":-0.274920498698738,"33":0.2414075638275106,"34":0.04657981450750977,"35":0.08464986139931241,"36":-0.4102750506215777,"37":0.026230120675493244,"38":-0.011670978046330278,"39":-0.09253559870932132,"40":0.031998599577535966,"41":-0.1479435350324266,"42":0.32706747010328885,"43":-0.19323733759759923,"44":-0.15093772195093252,"45":0.018286956300870797,"46":0.14601272805637305,"47":0.11172664782273942,"48":0.04302742371852897,"49":0.16258161094535,"50":0.08843710579147997,"51":0.08185250750241428,"52":0.29578242697585877,"53":-0.09446029577305855,"54":0.06760679951674878,"55":-0.01691310803065639,"56":0.01064804916618185,"57":0.00928196412624199,"58":-0.12722335906829324,"59":-0.1432671882128387,"60":-0.14753147815686168,"61":-0.1255041036322646,"62":-0.03777984193692563,"63":0.06725433904513639,"64":0.23339477578755197,"65":0.12480517726588754,"66":0.20647220932843502,"67":0.12566028062231108,"68":0.010492401733631663,"69":0.1373883503369284,"70":-0.0418632382075787,"71":0.009867613521786563,"72":0.06068097215091019,"73":0.1697196066714725,"74":0.3425170899085302,"75":0.2705711250004474,"76":0.19352706469463193,"77":-0.11347633263385405,"78":-0.37148512664307115,"79":0.5605870710773433,"80":0.4207214959509574,"81":-0.05198923337300366,"82":0.2030076854689109,"83":0.035978804031938365,"84":0.4363146900468984,"85":0.13917943764938648,"86":0.102905945971307,"87":0.1667695156572209,"88":-0.03546617486527411,"89":0.3209758846222069,"90":0.16075684700237353,"91":0.2859703451462117,"92":0.041622013767857444,"93":-0.03944096435304748,"94":0.18530426325857163,"95":-0.05366109883594474,"96":0.02422917518297455,"97":-0.02615866207313641,"98":-0.05165328461340344,"99":0.07462672852818232,"100":0.0027122931508535178,"101":-0.2790702151681889,"102":0.15688127335994356,"103":0.17437962122477244,"104":0.23320478963364602,"105":0.18789242231873957,"106":0.08886361683071428,"107":0.12827361303942633,"108":0.2391530581250756,"109":0.29243225308350396,"110":0.16719966876783698,"111":-0.13988115715588928,"112":-0.065559262892286,"113":0.039457264769309434,"114":-0.003614798646497168,"115":0.16985569062391753,"116":0.05058287206559395,"117":-0.40279571821047816,"118":0.023882526106920782,"119":-0.10843375538739364,"120":0.06571256560880868,"121":0.10686036020534263,"122":0.20188632019727468,"123":-0.027839722463544617,"124":0.06290837396249237,"125":0.1155450532093505,"126":0.2093387229178754,"127":0.06654468304301056,"128":0.03616807576985224,"129":0.07206497081823271,"130":-0.07010058169130935,"131":0.13893241310460264,"132":-0.29960691900550923,"133":0.15115898841082398,"134":0.3449226946403289,"135":0.061478217077938366,"136":0.11065719877036069,"137":-0.11166830183767147,"138":0.45694112381774216,"139":-0.09523310258092024,"140":0.0660098753234854,"141":0.051579308266893616,"142":0.027095130627911895,"143":0.23056201904727147,"144":-0.02808740436833536,"145":0.25813162665407036,"146":0.11455979319775804,"147":0.11312864370411221,"148":0.1669739531436476,"149":-0.17503455016222697,"150":-0.00944910370065065,"151":0.23642802870779095,"152":0.1508747158106609,"153":-0.01020394758382719,"154":0.105356755568409,"155":-0.22131555461755534,"156":-0.04598701429460406,"157":0.1068597852782193,"158":0.13742888555594907,"159":0.13429288467114237,"160":0.17470493425501976,"161":0.13832114431826684,"162":-0.02161428465020988,"163":0.10401023542624498,"164":0.026345169349784064,"165":-0.017176212327048305,"166":0.2934113868552255,"167":0.05181368059425901,"168":0.023291170635393932,"169":-0.02997719090647433,"170":0.09525709589259428,"171":0.20134252151332116,"172":0.19458539872395486,"173":-0.009736447587650413,"174":-0.03959012810852078,"175":0.005201923049946385,"176":0.14748751340996924,"177":-0.009458646319783373,"178":0.06172005186878148,"179":-0.01827736941344989,"180":-0.03940493754123686,"181":-0.034188883018666634,"182":0.49607344819954113,"183":0.14701197162845325,"184":0.020034147441392553,"185":0.17841972737785436,"186":-0.019692947463730792,"187":0.07714613519363588,"188":0.11972351614636467,"189":-0.0877058317265187,"190":-0.04083604722439252,"191":0.11493145987540632,"192":0.27190200711612167,"193":0.0490853825487906,"194":-0.016897185208529064,"195":0.07605207802343922,"196":0.1927773008058576,"197":-0.2247212044948095,"198":0.1461825666270478,"199":-0.09310575532336657,"200":-0.052865130162472115,"201":0.21147796611412997,"202":0.07972727984022755,"203":0.12473843581358345,"204":0.09612686172461123,"205":-0.017043853011818322,"206":0.007907411003253852,"207":0.11530151260938222,"208":0.245407845418336,"209":-0.011235582224885302,"210":0.12219878496220335,"211":0.056022850049988075,"212":0.07792389949066288,"213":0.05900728807698461,"214":0.15203716670506162,"215":0.04795206922033259,"216":-0.09488583580253937,"217":0.2788337238505617,"218":0.10421603116105799,"219":-0.11611058168527734,"220":0.009485917030135403,"221":0.006222554481551908,"222":0.1298715287334753,"223":-0.020948426570155027,"224":-0.185935806598797,"225":0.1393223712277441,"226":0.017442878843789835,"227":0.03091325253426665,"228":-0.10763220260380121,"229":0.15100774793783686,"230":0.03140070248489586,"231":0.1733838948082058,"232":0.1417048773170686,"233":-0.11067741793962103,"234":0.1402470516291998,"235":-0.08416934946482424,"236":-0.12445345727005874,"237":0.08487113775065376,"238":0.1213912138092024,"239":0.16507267122757258,"240":0.010699812913557271,"241":-0.0713353362984689,"242":-0.15620883278860748,"243":-0.02493798533877971,"244":0.13513360373701105,"245":-0.021980039600768983,"246":0.16445450949275445,"247":0.1790444466520272,"248":0.06378610341964276,"249":0.06813124219253419,"250":0.2687468255195796,"251":0.018869478826057735,"252":0.10973379848207152,"253":-0.011826935100867183,"254":-0.23287401555638235,"255":0.04855680920572724,"256":-0.1660120891335167,"257":0.08484899129300112,"258":-0.07039984265999887,"259":0.14523015078304982,"260":0.016556919304448536,"261":0.18422790370748823,"262":0.5778055065713834,"263":0.026662175111683374,"264":0.13587163121729312,"265":-0.03820103636655767,"266":-0.02644092039476018,"267":0.2331328655423179,"268":0.1337589157634482,"269":0.07320402446769349,"270":-0.03963434107873098,"271":-0.06429732350731941,"272":0.292355995263864,"273":-0.13193550888744343,"274":0.29316836832072096,"275":0.17550205888831946,"276":0.3083305020108794,"277":0.06028174338223931,"278":0.1574266234211056,"279":-0.016895946715323257,"280":-0.023061640241193473,"281":-0.030293845353374156,"282":0.03657716961050323,"283":0.24179216747144897,"284":0.008103434327124374,"285":0.0365194510329066,"286":0.030920996126474656,"287":-0.07556136201498287,"288":0.1588699305907881,"289":-0.019536638571484348,"290":-0.17570302272064442,"291":0.3137350895671597,"292":0.07896471845705519,"293":-0.0838601869519362,"294":0.08828132345114063,"295":0.44297045840358334,"296":0.40884602141869436,"297":-0.09094435777623354,"298":0.08871951013907681,"299":0.06664366608321243,"300":0.22827226159582722,"301":0.28594180588077617,"302":0.32631836929662117,"303":0.0061641851345836775,"304":0.18257394277114614,"305":-0.04782506018011586,"306":0.045889544158445914,"307":-0.030465132611339898,"308":-0.11429132012612153,"309":-0.10429108652455213,"310":0.23476737789024457,"311":0.003308291537152645,"312":-0.45333904653789087,"313":0.5355917146695731,"314":0.0935586058288638,"315":-0.20802791592824713,"316":-0.07678886592405716,"317":0.01433186289050519,"318":0.4186019437670142,"319":-0.1951873322535449}},{"sx":1,"sy":1,"depth":320,"w":{"0":-0.16132514787829777,"1":0.24042071044382882,"2":-0.12571319818439097,"3":0.060847815910632055,"4":-0.6266434787613508,"5":0.10560451356056982,"6":-0.1537830872600294,"7":0.0051081874345003005,"8":0.10143852767195802,"9":-0.06476971496909456,"10":0.26395145284920013,"11":-0.03312608230701429,"12":0.06777328307299753,"13":-0.23492086147423424,"14":-0.07931056749791954,"15":0.14523781767482252,"16":0.003255189973270536,"17":0.04912194899832265,"18":0.2640292202294458,"19":-0.11350104119664531,"20":-0.02193979119885288,"21":-0.04113470323061225,"22":-0.1387400610706871,"23":-0.4682526244111168,"24":-0.1683313975644623,"25":-0.04667714586262968,"26":-0.12475169937236394,"27":-0.0017401020372925992,"28":-0.07580006607783657,"29":-0.1267501379652003,"30":-0.03489364397824466,"31":0.021659847208712234,"32":0.14001777753119096,"33":-0.06797162113405937,"34":-0.09869137760156264,"35":0.043416450334178576,"36":0.033132873705866886,"37":0.3197171654238417,"38":-0.08548947093069316,"39":0.20878190591750606,"40":0.043946951525945736,"41":0.20952012792398017,"42":0.2146589469886704,"43":0.16872233891835534,"44":0.06492526643440277,"45":-0.13252393210851535,"46":-0.19066701742756192,"47":0.06681612744138195,"48":0.05060355480180174,"49":-0.08500436557358709,"50":0.024358605611428476,"51":-0.11988469591879526,"52":0.31425872411529426,"53":0.22246826810548426,"54":0.21274623114535496,"55":-0.05739500961163818,"56":-0.08409597762880863,"57":-0.07948850138626187,"58":-0.018558613642897025,"59":0.15700986221728,"60":0.023855057146166855,"61":-0.06536624860652991,"62":-0.07187173091812267,"63":0.007009781691770832,"64":0.10915250415637179,"65":-0.05882226757702777,"66":-0.04430334535945783,"67":0.15234850929287336,"68":-0.03900740462538813,"69":-0.1471044792378952,"70":-0.05261419455497271,"71":0.31554254659748643,"72":0.044710332479239646,"73":0.03354282399545707,"74":0.09734100118381525,"75":0.1462576798976938,"76":0.05273596220730332,"77":-0.11714682107876592,"78":0.07393584889739432,"79":-0.2023219248417763,"80":-0.16502500042094237,"81":0.0947461299644231,"82":0.08027776846443135,"83":0.14202264132957804,"84":0.1021802233733368,"85":-0.48354887729834356,"86":-0.47394140540593444,"87":-0.18200310548700518,"88":0.10390747753704961,"89":-0.13020086196907296,"90":-0.17794505878012346,"91":-0.16140074519537553,"92":0.1114123681054752,"93":0.00009327260767505903,"94":0.05231730323957071,"95":0.0008308190133724961,"96":-0.07848520437299723,"97":-0.06732406782000086,"98":-0.09029539269561171,"99":0.02533966633997247,"100":-0.2106164638564103,"101":0.19835102325628085,"102":0.10003000474884781,"103":-0.07334807397856632,"104":0.005108610993733806,"105":0.04412133801940811,"106":0.10517617278251547,"107":-0.010409706979713601,"108":-0.012646672673904135,"109":0.13234696911364932,"110":0.12282417279147763,"111":0.1882322827400727,"112":0.011676516056047071,"113":-0.11993740772332101,"114":-0.023181599051732036,"115":-0.021015220356915967,"116":0.1434510712550116,"117":0.20025318813121157,"118":0.09943348083311515,"119":-0.15940475263628698,"120":0.07271715140013048,"121":0.007948459247064015,"122":-0.18278391880646863,"123":-0.001936916808821252,"124":-0.027590083244764786,"125":-0.045296063033547405,"126":0.05808968338459957,"127":0.06896594402503892,"128":0.022270735686794944,"129":-0.0805974691387419,"130":-0.0053453876652320145,"131":-0.1921686388752727,"132":0.11609679270874905,"133":0.4292672962171811,"134":-0.19221844531422352,"135":0.0869025117878652,"136":-0.09659286199718978,"137":-0.04548480745472098,"138":-0.14829496669279812,"139":0.16644312008867668,"140":-0.03335840347337636,"141":-0.12508346880795623,"142":0.10149554483917059,"143":-0.058907999887904725,"144":0.06722259182058936,"145":0.07812148849382305,"146":-0.01548345201679148,"147":0.06378223448034162,"148":-0.03755994663078576,"149":0.13127115965268002,"150":-0.00044435163156735717,"151":-0.2583791056034807,"152":0.03299592902556532,"153":0.1435495685744989,"154":0.08886878737216654,"155":-0.0026843100369646255,"156":0.033594072512823495,"157":0.12364796587019974,"158":0.10469601652069377,"159":-0.10258099872358928,"160":0.0455664191005052,"161":0.08133038896948953,"162":0.07234046839807179,"163":0.10632368284383775,"164":0.15194095775336264,"165":0.1534809756946318,"166":-0.057814187554954516,"167":0.17819263058573326,"168":-0.13971561107391167,"169":0.024998240176458887,"170":0.006281398147434092,"171":-0.30983767896867564,"172":0.046322869809223864,"173":-0.33255147370333293,"174":0.6629604742919882,"175":0.08426383837937537,"176":0.019894780568455294,"177":0.09275814173294805,"178":0.04732310240793836,"179":-0.028682103686710973,"180":0.05610794815487069,"181":-0.09883434147965305,"182":-0.5533115462880211,"183":-0.18466284862561763,"184":-0.018911847811295474,"185":0.07311362966078863,"186":0.15944955602561342,"187":0.06611950156818248,"188":0.03585546606804667,"189":-0.028938849745084986,"190":0.13864213199241016,"191":-0.03012817066630941,"192":0.0799777923205235,"193":-0.15905485334230243,"194":0.1170233997589091,"195":0.07155436486883915,"196":-0.09402961966680198,"197":0.07094222834104671,"198":-0.043256839630376846,"199":-0.02345752402282092,"200":0.15176593384333903,"201":-0.21301653349477429,"202":0.1450699152672044,"203":-0.08473633604989522,"204":-0.02404922596602385,"205":0.22516761141797417,"206":0.07601539964634475,"207":-0.09624246904738534,"208":0.19042551023735077,"209":-0.0016015225559348238,"210":0.1078823966715035,"211":0.06640767530948925,"212":-0.008659009501211757,"213":0.03494057521325281,"214":-0.11304826183981315,"215":0.04969188929977138,"216":0.03306967422257506,"217":0.12885298831109887,"218":-0.20034893084374109,"219":0.2546763531269566,"220":-0.01444160710928036,"221":0.05090545844673552,"222":0.08594979023288972,"223":-0.06319621054156141,"224":0.009869561925254499,"225":0.04642530930937237,"226":0.28736723700132544,"227":-0.010656598008876651,"228":0.11471968296705011,"229":-0.009306569153575658,"230":-0.17450509715844117,"231":0.11573005877266526,"232":0.10548247006698509,"233":0.1225228302160076,"234":0.12559119077076317,"235":0.20449047338089502,"236":0.1706135542489226,"237":0.028938436724005923,"238":-0.04665121361753438,"239":0.30926398637442115,"240":0.29586082920365375,"241":-0.20203024737209593,"242":0.10199452455060752,"243":-0.20460032119400876,"244":0.3074458157198599,"245":0.12013017824540785,"246":-0.04261032526831465,"247":0.02954483112035128,"248":-0.05280966271089104,"249":0.058732716717311596,"250":-0.23392462279286166,"251":-0.13491969241418056,"252":0.40667751244837186,"253":-0.13001096251168992,"254":0.28107553170938276,"255":-0.15237892413549217,"256":0.2762981206966408,"257":-0.05815581688657302,"258":0.050628925407180884,"259":0.12084838239283845,"260":0.0841214615963552,"261":-0.21009800413157412,"262":-0.6143361990430931,"263":0.0682534234414091,"264":0.07846518015548729,"265":-0.12453528182151832,"266":0.19739348175805224,"267":-0.10034917344517251,"268":0.09889190564048458,"269":-0.07190317607183033,"270":0.12026960281163883,"271":0.09714083705488775,"272":-0.05220233017418932,"273":0.041492905605753326,"274":0.1805909692557178,"275":0.04698098582682801,"276":0.06886211440905778,"277":-0.1927128082062609,"278":-0.057031781210284904,"279":0.12106988664814845,"280":-0.07313897257357814,"281":0.2360981552637767,"282":-0.027287649873093213,"283":-0.2438493927693009,"284":-0.03854961800502309,"285":-0.006851154779311057,"286":0.29608766693797384,"287":0.06614763356538791,"288":-0.25696910209639445,"289":0.07105796073193012,"290":-0.37286193884400864,"291":-0.0673755016899547,"292":-0.45606359136395,"293":0.29355909578168027,"294":0.21099590946067498,"295":-0.03181517978235606,"296":0.17754988019580795,"297":-0.1347179273699668,"298":-0.028221867745060962,"299":-0.12226307195737449,"300":0.11184746495941927,"301":-0.14214958713210066,"302":-0.16234208211463083,"303":0.1424771970647085,"304":0.07626722199930848,"305":0.17749265422238952,"306":0.11945303574682206,"307":-0.21361594002299183,"308":0.26553291936628864,"309":0.05362127775773894,"310":-0.015496994155330982,"311":-0.32263329655104933,"312":0.15822432843101303,"313":0.011953242145246628,"314":-0.26963281684363977,"315":0.24650992240666927,"316":0.13108470901064984,"317":0.07804221432961347,"318":0.044370995777325006,"319":0.18615086385637508}},{"sx":1,"sy":1,"depth":320,"w":{"0":-0.2833642531592998,"1":0.08948604932996095,"2":0.007559530340065474,"3":-0.512813021939636,"4":-0.08021225840564827,"5":0.015301183644734843,"6":0.03856476645112474,"7":-0.6452634024759593,"8":-0.005800273006246861,"9":0.03211758596307429,"10":-0.2346164930952065,"11":0.15407351899895655,"12":0.14977457514662196,"13":0.06573787315239187,"14":-0.12088980046109095,"15":0.2124782170759751,"16":0.00653554611374468,"17":-0.08207090528168659,"18":-0.1830904500510154,"19":-0.12750601192036648,"20":-0.04775308905909572,"21":0.05348842495085692,"22":0.0723316892548011,"23":-0.04064923817948116,"24":-0.2027396880039729,"25":0.09507347954307566,"26":-0.011391124037579938,"27":0.00570943882061129,"28":0.04939681773715359,"29":0.03377754581779664,"30":0.02014501708726973,"31":-0.16988867815460196,"32":-0.013861755567855603,"33":0.01550720013622626,"34":-0.15284619707765146,"35":0.17453322634886564,"36":0.05369232538732406,"37":0.22126190802096635,"38":0.17924531651585204,"39":0.07123134549838955,"40":0.0666913516448729,"41":-0.053812809722784335,"42":-0.05643556167073148,"43":-0.15321219679945708,"44":-0.2315015706785688,"45":0.08693898745012345,"46":0.06676517685343591,"47":-0.016483376188642263,"48":0.2896638600248549,"49":-0.0536671513874876,"50":0.16237207684255683,"51":-0.0595230051871561,"52":0.14198501570700428,"53":-0.17526059343991487,"54":-0.09672555485525244,"55":0.019139865217647392,"56":-0.20214765925917244,"57":0.16976117346886133,"58":-0.0034684576744673924,"59":0.12213925968010378,"60":0.10937942518495494,"61":-0.14019250205079123,"62":0.1311703376314494,"63":-0.15243338963159195,"64":-0.08244732222128462,"65":-0.18965053640134216,"66":0.13918547995802058,"67":0.001333434092857164,"68":-0.09246700117509338,"69":-0.024799154153288913,"70":-0.05652296882027863,"71":0.30554157329258647,"72":0.2621806193613046,"73":-0.014266546051892112,"74":0.06974872832888698,"75":0.06556156550570469,"76":-0.02288977736233722,"77":0.03276309119248113,"78":0.04102087911267288,"79":-0.08405201667496658,"80":0.19551288200294506,"81":-0.17214793841522463,"82":0.14102279793376518,"83":-0.18588533721296055,"84":0.19101596271864732,"85":0.11678478722738019,"86":0.0781991588060875,"87":0.11220930816074803,"88":-0.03775819512307206,"89":0.18349315465298907,"90":-0.04292420102786249,"91":0.057726979557167296,"92":-0.09368926878700982,"93":0.19667210783927871,"94":0.11109287551999122,"95":-0.03364229345843458,"96":0.17528397019353756,"97":-0.07194497725491439,"98":0.02281085302295892,"99":-0.16965103858217984,"100":-0.004718267818497479,"101":-0.10038888609072838,"102":0.1369086101083427,"103":-0.060324411632355864,"104":-0.020759198956655223,"105":0.1083557023515313,"106":0.16503846142117806,"107":0.01174323417219973,"108":-0.05151956968503725,"109":0.01780597755395928,"110":0.13719877377515338,"111":-0.13070129545760303,"112":-0.07711045954499053,"113":-0.0006136280964187293,"114":0.16781664758388293,"115":0.02204909525162065,"116":-0.09670477116832413,"117":0.016144489704331362,"118":-0.2203907719654827,"119":0.07284111741439324,"120":0.01677121436045896,"121":0.07567680663737102,"122":0.19463415444996668,"123":0.21326555111735412,"124":0.01643524991058001,"125":-0.2334612996503826,"126":-0.158396915753821,"127":0.14847852915667298,"128":-0.018454087406730855,"129":-0.06864099080284441,"130":-0.07967113205370002,"131":-0.038904494642639176,"132":0.13996631367379198,"133":-0.004499503093643112,"134":-0.33242164392334866,"135":-0.2558384027045455,"136":0.011132415573171312,"137":-0.01837150737210764,"138":-0.022244915590799073,"139":0.30100241637113134,"140":0.21104027437770204,"141":-0.26635683332210885,"142":0.04417172107166985,"143":-0.18065792895748717,"144":0.026435717461174957,"145":-0.05552082449833818,"146":-0.18559392661028448,"147":-0.0031404761122887635,"148":0.06693982624110009,"149":0.1899645669670874,"150":0.04401493260192107,"151":0.20949185067718185,"152":-0.03367033543297842,"153":-0.05682852093633787,"154":0.03946355056927184,"155":0.11886831669122601,"156":-0.20983709551473037,"157":0.03880635500257801,"158":-0.23746953232844537,"159":-0.13327142875867307,"160":-0.15475312702615193,"161":-0.10758403854042195,"162":0.049462899568480566,"163":-0.032524096710657695,"164":-0.0853149629471532,"165":-0.17825422659597337,"166":-0.14056102732503234,"167":0.15533762909204765,"168":-0.017690233342482223,"169":0.03267806267002537,"170":-0.12197891009411735,"171":0.10599404487190187,"172":0.11818095819829226,"173":-0.19301011838178997,"174":-0.09316829258991322,"175":-0.033035478359610355,"176":-0.006520414870151865,"177":0.03288752738773013,"178":-0.09357492219951026,"179":0.022392016689327637,"180":-0.0670861753151054,"181":0.22984540769096518,"182":-0.06483121115609015,"183":-0.10857329776048658,"184":0.0434737114785771,"185":-0.0864683455481011,"186":-0.12494764437231973,"187":-0.06390628160771121,"188":0.1544330558664438,"189":-0.011691049963378573,"190":-0.18178743537325948,"191":0.0023374101303330155,"192":-0.2109353600820244,"193":0.08725295977162524,"194":-0.15671395317515918,"195":-0.1345320173935636,"196":0.12200747636287801,"197":0.3230461723064296,"198":0.08945229198218557,"199":0.28330714074734586,"200":-0.06841194603495132,"201":0.0713430677751641,"202":-0.33762034573249533,"203":0.1772482640353549,"204":0.016608234666738806,"205":-0.037475075949002734,"206":0.03609624074115111,"207":0.12116496206391186,"208":0.1193277552996318,"209":-0.04929455459266802,"210":-0.3897996731319042,"211":0.013416375247112578,"212":0.018908675154415477,"213":0.014281782999781344,"214":-0.48132699655299105,"215":0.09456030923191802,"216":-0.1262422637777114,"217":0.10026647176540507,"218":0.23292055604746084,"219":0.08910577224426858,"220":0.14918608654918789,"221":-0.013648974931110697,"222":0.08305986405696442,"223":0.24694899067241466,"224":0.14745253027916724,"225":0.0674779713583993,"226":0.07677870650154958,"227":-0.09395804954089708,"228":0.007201948373377196,"229":0.052790195378811564,"230":0.06501513103590133,"231":0.15009680507042267,"232":-0.09179481573995353,"233":-0.06657110582433085,"234":-0.05227066325426262,"235":0.0870579688645601,"236":-0.14567464382186135,"237":-0.16489743565521753,"238":0.00533929908202785,"239":-0.04176613601771771,"240":0.08954632097320558,"241":0.06939466046713035,"242":-0.22611085582377674,"243":-0.04209719099559633,"244":0.05655518386650654,"245":0.22333979686757635,"246":-0.09264002898824947,"247":0.05995382367667042,"248":0.03404286338265944,"249":0.0907671983335507,"250":0.20550721754634294,"251":-0.20414896199839097,"252":-0.14596235072738187,"253":-0.15158769875636477,"254":0.1367104642030741,"255":-0.11446686364839115,"256":-0.03717217425130137,"257":0.00018640069576299198,"258":0.10435948604313387,"259":0.012410125576795963,"260":-0.1828418619696251,"261":-0.5585416432587579,"262":0.1243845558391982,"263":0.18286395496310726,"264":0.04087471385705344,"265":-0.6387267443729685,"266":-0.09619502114608948,"267":-0.0070069728394413595,"268":-0.3066875332010829,"269":-0.031006766687636377,"270":-0.2324533076544653,"271":0.1729776688190445,"272":0.1663007314561768,"273":0.04835174904925486,"274":-0.006779014958363361,"275":0.16673915507234524,"276":0.1788631650565083,"277":0.18730084458828306,"278":-0.10205185563329483,"279":0.27608444786522235,"280":0.10896462407399084,"281":0.05063893814510155,"282":0.2813433892843225,"283":-0.02130300567586528,"284":0.00126059809085031,"285":0.04395980160096932,"286":-0.15710949140775965,"287":0.08630158476163115,"288":0.05572330564755376,"289":-0.08312409279027085,"290":0.005014961438462426,"291":-0.05193257974290896,"292":-0.022951827436068075,"293":-0.2590583354447748,"294":-0.11882272596022375,"295":0.3696025736492277,"296":-0.02002322481959075,"297":0.057451623659234806,"298":0.20393276058119025,"299":0.1379172228292007,"300":0.026798130890219356,"301":0.08672027574487236,"302":0.18291108121025873,"303":0.013388348767087919,"304":-0.21078828074905484,"305":-0.0656788272059429,"306":0.1658987984005298,"307":0.025351909528908395,"308":-0.024379125251492478,"309":-0.12024255895970626,"310":-0.11434770941874599,"311":-0.017280056089093474,"312":0.12903141395498857,"313":-0.1476216233343882,"314":0.1558652592402167,"315":0.3056458753064796,"316":0.12478556418686723,"317":-0.12220094647931552,"318":-0.302707692645438,"319":0.29260505354975264}},{"sx":1,"sy":1,"depth":320,"w":{"0":0.3329748242335403,"1":-0.24056029940583012,"2":-0.07981989103137824,"3":0.21132667221405346,"4":0.2147170313905481,"5":0.0935750009647107,"6":0.06170851756800317,"7":-0.026955734525466728,"8":-0.05038428443375457,"9":0.05417922170297813,"10":0.03503896630750446,"11":-0.03431384729369581,"12":0.17636949665686671,"13":0.19279202953081517,"14":0.025372777123533332,"15":-0.2499605361993646,"16":-0.14385736174788255,"17":0.07309933056169958,"18":-0.21556348289414995,"19":0.008806307565260858,"20":-0.2500486035645839,"21":0.09749813817552544,"22":-0.06103284320675801,"23":0.18183165211444316,"24":0.16056294589079678,"25":-0.04773629597764726,"26":-0.21922016903540598,"27":-0.26359026401780306,"28":-0.05776675932782246,"29":0.38561639485641575,"30":0.3945445150209535,"31":-0.2748605990297493,"32":-0.16180496706951938,"33":0.033560897711532554,"34":0.1138441863967314,"35":0.3235160818019131,"36":-0.11338427637201487,"37":-0.13879428286349013,"38":-0.030758330689813117,"39":-0.4500014576498004,"40":0.02364688977541682,"41":0.08371097798420193,"42":-0.13003701257386963,"43":-0.18930078928515923,"44":-0.19836827678609142,"45":0.060149307541697866,"46":0.06567949411186062,"47":-0.04117713618274594,"48":-0.06420416411551026,"49":0.1424476122168452,"50":-0.3475188912736979,"51":-0.045629611007826816,"52":-0.27987352054624975,"53":-0.0315944221336714,"54":0.06991146040090365,"55":-0.1377381388015162,"56":0.038256804117702166,"57":-0.015478229551976922,"58":-0.10129014053032502,"59":-0.23931997700783253,"60":-0.004757907208696073,"61":0.035867034157428826,"62":-0.14512547707154833,"63":-0.039991114789895456,"64":0.14547628183852263,"65":0.24109214188746436,"66":0.17398155630808176,"67":0.03668550135149375,"68":0.07804252029942557,"69":0.12632745900905695,"70":0.09121405427403453,"71":-0.2193544634596058,"72":-0.19658586595773703,"73":-0.039967643333953605,"74":-0.04873370000090593,"75":-0.23058096643049616,"76":-0.33526828875546444,"77":-0.18664635736250124,"78":-0.07942401282173317,"79":0.21301174883063492,"80":0.23466103048707462,"81":-0.054948424880510584,"82":0.02509223792818014,"83":0.17568537765213124,"84":0.37244036111702794,"85":0.016435847263802903,"86":0.32270122114617555,"87":0.20896006481459034,"88":-0.09875488974068986,"89":0.200860611300109,"90":0.09469846692679286,"91":0.17173821679997106,"92":0.02739493989054658,"93":-0.020980218372998384,"94":0.20084567215882143,"95":-0.043479729197781626,"96":0.20461443627101408,"97":0.05102111395262251,"98":0.020506970664234913,"99":0.1414537582454171,"100":0.003749196976507124,"101":-0.23655631762896084,"102":-0.21136489200171685,"103":0.2832854438152617,"104":0.03974331777402236,"105":0.04527512653044189,"106":0.19015414543390086,"107":0.010379442075460075,"108":0.042809442690293825,"109":0.05741533205958063,"110":0.25634154693873246,"111":-0.3082501693825287,"112":-0.11851076260526093,"113":0.09990102441092111,"114":0.06126380423754957,"115":0.0905562287567757,"116":-0.12700172687787217,"117":-0.12887222227677977,"118":-0.052238374829813874,"119":-0.1519405321107955,"120":0.13019227526460206,"121":0.00021104170987520476,"122":0.16409555578341542,"123":-0.03369890886879918,"124":-0.02662584804348299,"125":0.2717619941470157,"126":0.0023122666213748703,"127":0.02145982985420994,"128":0.0571379954590262,"129":-0.038406901118773464,"130":0.035152285643028386,"131":0.1605477289003594,"132":-0.1731857697850039,"133":-0.593471873283358,"134":0.11087565186817767,"135":-0.1786684218597014,"136":0.05937369550923721,"137":0.03613910390514693,"138":0.15348693126528518,"139":-0.0170694621525094,"140":0.10592253981651405,"141":0.2019858469546258,"142":-0.06860200511445254,"143":-0.005774295995486513,"144":-0.08181033328320216,"145":0.11161805182572933,"146":0.26160106172153136,"147":0.06136824793613312,"148":0.10065502336869164,"149":-0.14718801016083144,"150":-0.07456146414169741,"151":0.15702658007792772,"152":-0.03962542780591457,"153":-0.09481302340241196,"154":-0.12193420636836567,"155":0.008006315077057203,"156":0.08246079513472791,"157":0.12210446905771166,"158":-0.0071133781343519845,"159":0.002924524514194138,"160":0.33834104742203547,"161":0.07535993507477694,"162":0.118755576063247,"163":-0.06611930042977557,"164":0.03157544224089274,"165":0.3878349922521352,"166":0.22696731373273918,"167":0.08540700325493805,"168":0.021758915956774594,"169":0.1344496631205464,"170":-0.07545864452682229,"171":0.17991479609098818,"172":-0.07184337401707329,"173":0.27718230463048915,"174":-0.5311745122598948,"175":-0.18541705867443026,"176":0.1530320901667431,"177":0.0632632113677544,"178":-0.06544700743398117,"179":0.1311007311977946,"180":-0.008038245585813798,"181":0.019381792335944538,"182":0.10146464657193051,"183":0.049511245468015025,"184":0.058689813101565895,"185":-0.0276088587996559,"186":-0.2806582689690018,"187":0.13362879400260091,"188":0.12743779656257137,"189":-0.09901044832185671,"190":-0.024597341921678614,"191":-0.025090182097962647,"192":0.04917524207911738,"193":0.012463887813351573,"194":0.1212306182376138,"195":0.040760533435153824,"196":0.23435132396713584,"197":0.006150668875989692,"198":-0.11855426420657102,"199":0.18575636732486434,"200":-0.1994528736619601,"201":0.15452563136673567,"202":0.08296090587461105,"203":-0.0013491355017664494,"204":0.05832763825345731,"205":-0.12271993561641599,"206":0.030475514774818958,"207":0.021448799673554116,"208":0.02095077467912123,"209":0.10229895178548781,"210":-0.05060628991365468,"211":0.024780183817427952,"212":0.11117179185424693,"213":0.08179722030975253,"214":0.16916769540523113,"215":-0.10586472889479265,"216":-0.011641071963730905,"217":-0.17438455501257763,"218":0.2450440399150758,"219":-0.2514075681972202,"220":0.1415890200705999,"221":-0.041586489753889476,"222":0.04784416693084576,"223":-0.1305779109385132,"224":-0.17967452122038644,"225":-0.007423896078770009,"226":-0.18146210766145793,"227":0.038653305248792916,"228":0.05377470615212119,"229":-0.19245129310395723,"230":-0.15047655537082893,"231":-0.030113787725601412,"232":0.020344956745693612,"233":-0.020465438236501095,"234":0.07096839890814952,"235":-0.30476524876146094,"236":-0.16974869015580046,"237":0.1868284973711874,"238":-0.035138709337462735,"239":-0.11601878056204624,"240":0.05058592014132771,"241":-0.1496799851510284,"242":0.2873198585449403,"243":0.18510394852588813,"244":0.09907827094064317,"245":-0.03161241849023852,"246":0.1443633909706601,"247":-0.06619958291432552,"248":0.08037303522535783,"249":0.11960844188376438,"250":0.08464425020353153,"251":0.28255489008104634,"252":-0.3839260112935813,"253":0.13059423115657973,"254":-0.20364423923420955,"255":-0.13511692513816656,"256":-0.1385887849794002,"257":0.22750063708785512,"258":-0.3043971246145493,"259":0.2576420182326242,"260":0.07677147273934931,"261":0.1638278080967637,"262":0.2435243570235338,"263":0.09531771183314654,"264":0.1677079224158475,"265":-0.05435718390674309,"266":-0.06941607983774994,"267":0.08987434188351313,"268":-0.30070872737573223,"269":0.07459294445891809,"270":-0.44696953936859724,"271":0.012497991521543862,"272":0.27392187801735424,"273":-0.13095660658885722,"274":-0.03885288492554264,"275":0.06331829027190802,"276":0.24975705681528795,"277":-0.020851384434730464,"278":0.06355547937443007,"279":0.05005229182691172,"280":0.2043208620819369,"281":0.04799611951578131,"282":-0.08480116845661564,"283":0.3044304822355608,"284":0.11598732949064107,"285":0.03830425355336267,"286":0.008065559298816995,"287":-0.07492583671852922,"288":0.11525023040118948,"289":-0.17306176570114049,"290":0.15739176843013877,"291":0.15305887089869422,"292":-0.02298630798544514,"293":-0.33940952950525743,"294":0.11400809158239689,"295":0.13815983931360873,"296":0.021847684188124574,"297":-0.12107248917551365,"298":-0.020021789501716406,"299":0.10584402700439444,"300":0.13134753750367553,"301":-0.09970794136899527,"302":-0.1013208107721853,"303":-0.05354349062940653,"304":-0.10205359052634062,"305":-0.27193118464985905,"306":-0.15453312776991635,"307":0.1093832757306129,"308":-0.4179844388528557,"309":-0.05250372040750167,"310":0.07053607029058369,"311":0.1086090048938508,"312":-0.05485522813588156,"313":0.02677445818514929,"314":-0.23607692926992258,"315":-0.18112515537561097,"316":-0.15926924953948737,"317":0.21445492039811687,"318":0.3752455859896648,"319":-0.5116627035351246}},{"sx":1,"sy":1,"depth":320,"w":{"0":0.1308268975118375,"1":-0.05299708657725808,"2":-0.025230133206757065,"3":0.047984732264613715,"4":0.41470379011846836,"5":-0.2282521448271505,"6":-0.010896072767812561,"7":0.0709383990695358,"8":-0.07917102872184793,"9":0.12297120608535839,"10":0.09234959312940687,"11":0.17809878359943349,"12":-0.02262175413322977,"13":0.07843387435698507,"14":0.053038677375361755,"15":0.023690793892206918,"16":0.11879516292629679,"17":0.02551746591453593,"18":0.06682206759432409,"19":-0.04981870263759414,"20":-0.19262482299453731,"21":-0.0657688413325312,"22":0.07041822735420113,"23":0.12117114932644603,"24":0.00860559334327205,"25":0.10703059893376453,"26":0.02191336990370164,"27":0.035520596715897974,"28":0.051016513442996694,"29":-0.044564474644891154,"30":-0.02583828578938885,"31":0.23336920265334216,"32":-0.13613025410863522,"33":-0.14348410382652116,"34":0.17198555435314675,"35":0.10728403847184603,"36":0.18289176671462934,"37":-0.10383452472883714,"38":0.019628261844249595,"39":-0.14094326091302634,"40":0.14087243585642972,"41":0.09505290881492899,"42":-0.1539881209668564,"43":-0.06753082271992743,"44":-0.08613690031551163,"45":0.022700571462360788,"46":0.0683317312830332,"47":0.007801504024605424,"48":-0.017083599366007042,"49":0.038876427829650013,"50":-0.19133336436444248,"51":0.054534497067675276,"52":0.11302724400533434,"53":0.06607121876922897,"54":0.2202587145045124,"55":0.15933539379436906,"56":0.02606252590810654,"57":0.036670358234203546,"58":0.018712950702410726,"59":-0.24828616246394614,"60":-0.029920753513609493,"61":0.15864390643801884,"62":0.023231916045007694,"63":-0.07248521774270036,"64":-0.045717432378803435,"65":-0.10360016887711232,"66":0.06381596654578614,"67":0.06558921589271029,"68":-0.21623436894686726,"69":0.11524816086477949,"70":0.07433460342807903,"71":-0.08316131660155561,"72":-0.16956168168338775,"73":-0.04097649805088532,"74":0.06451504775796196,"75":-0.044095150288365165,"76":-0.1807154516317535,"77":-0.2150098844795177,"78":-0.06170997725828619,"79":0.023888344156716094,"80":-0.2623702507064846,"81":0.10231980307098192,"82":-0.2624862134879014,"83":0.09211850695143645,"84":-0.3622760821330368,"85":0.01310752785813278,"86":-0.26166318639090885,"87":-0.30582555482135754,"88":0.04686956482025702,"89":-0.09640797387480915,"90":0.2754889941801952,"91":0.06622553067271092,"92":0.09951988058770991,"93":-0.01812175680030167,"94":-0.17632868421549844,"95":0.08559190914382858,"96":-0.11574784349512034,"97":-0.03762449350696253,"98":0.031218390361778786,"99":-0.021847203357035883,"100":0.06499393930442703,"101":0.18546082597430305,"102":0.15586174799701052,"103":-0.19400566863046198,"104":0.045424543534876315,"105":0.18870859065080203,"106":-0.08685890727928344,"107":-0.09700880114440895,"108":0.006865540203997765,"109":0.06490637528520271,"110":-0.00892556817513511,"111":0.051147647756863326,"112":-0.033604494971693315,"113":-0.18118097839594813,"114":-0.193936873094395,"115":-0.08093606525081765,"116":-0.13563575321396396,"117":0.16722886817635685,"118":0.052105181642519344,"119":0.0010266212841210434,"120":0.10446105328888979,"121":-0.020395943459188007,"122":0.024398022728397188,"123":0.009096653774561342,"124":0.07382104139060132,"125":0.14683077566875777,"126":0.0704711117361433,"127":-0.24554939052252717,"128":0.1289342859836467,"129":0.03989991979618616,"130":0.0804075345253793,"131":0.06800655262145529,"132":-0.008706662876130571,"133":0.2574657335153027,"134":0.14467737173103742,"135":-0.13483258780268145,"136":0.005980298058007157,"137":0.08939451856433318,"138":0.08265571600161695,"139":-0.09555101742921472,"140":-0.27754445545344797,"141":0.058533474288572265,"142":0.12611880444641446,"143":-0.07376353942707085,"144":0.008738151542250551,"145":-0.06524014569391111,"146":0.021074525963572087,"147":-0.012224878114493487,"148":0.06669202808693576,"149":-0.034761273553391286,"150":-0.10919924067675639,"151":0.01467622502205086,"152":-0.01008003151794021,"153":-0.03609560758011867,"154":0.03573964818656853,"155":0.15179103503016114,"156":-0.05483641841321212,"157":-0.011067199922055624,"158":-0.06682591379052796,"159":-0.13298974508576986,"160":0.046371784811755995,"161":0.0009029001612428785,"162":-0.007874976083395832,"163":0.10454278101741755,"164":0.006439891644766574,"165":0.3852234412861202,"166":-0.1993233778675651,"167":-0.05851436762032067,"168":0.04578062668727958,"169":-0.08320398654172918,"170":0.3498746741941875,"171":0.19158076836449905,"172":-0.008002555933846987,"173":0.18850977426367999,"174":-0.015587807440680215,"175":-0.009668520909610448,"176":0.07270524195096877,"177":-0.0747288767682003,"178":-0.020722317834561275,"179":-0.03441223576791713,"180":0.044702965610304575,"181":0.4646399651360014,"182":-0.19994883962007434,"183":-0.12115384558939392,"184":0.10440211421182154,"185":0.17585209174070054,"186":-0.0419065344098974,"187":0.04944264898111004,"188":-0.09696699318809192,"189":0.0999315012587852,"190":-0.007416779141950073,"191":-0.12669151406424214,"192":0.03993690849218495,"193":-0.03136347165003748,"194":0.1168487361398408,"195":0.1133333198997412,"196":-0.1927207921017981,"197":0.09650045903823024,"198":0.0810285852710852,"199":0.1692120808353971,"200":0.018604586257233168,"201":0.2568519882519932,"202":0.1019183307445037,"203":0.07341899280218771,"204":0.021060764995356338,"205":-0.025065082740928772,"206":0.17908984719529364,"207":0.04333652489969015,"208":-0.12247373288085231,"209":0.014194180969213205,"210":0.01554690325943721,"211":-0.011023749415380405,"212":-0.03770820562135897,"213":0.1909490147381227,"214":0.20066123232244792,"215":0.16867962090186542,"216":0.08485505541224722,"217":-0.07766590113617766,"218":-0.48975495879264064,"219":0.1522576720679159,"220":-0.01599366872896382,"221":0.08038392004796534,"222":0.179127914410797,"223":0.06484833633407612,"224":0.22868595009274387,"225":0.019157886038886865,"226":-0.1174853387805227,"227":0.021219236053634474,"228":0.0685637486543343,"229":0.06383309708219508,"230":-0.11091182228925152,"231":-0.2298729376938003,"232":-0.021486528019498276,"233":-0.013684247661882453,"234":-0.11495952941269139,"235":0.10892408521092638,"236":0.00336635396388994,"237":0.013655931816237107,"238":0.05278025508658865,"239":0.031684741697700414,"240":-0.06451925199007802,"241":-0.10194841378951006,"242":-0.40592902552068405,"243":-0.019870963211647674,"244":-0.28399185771811886,"245":-0.12057589274288497,"246":-0.07153390613740639,"247":-0.060927552441923626,"248":0.03670843113886795,"249":0.050396563868477184,"250":0.07484658305590744,"251":-0.06572591186737001,"252":0.09833336499403546,"253":-0.19302322916761697,"254":0.03333367225310739,"255":0.06448791149324105,"256":0.11861116504874464,"257":0.0019174502874948604,"258":-0.0007237317365990915,"259":0.14791872659193442,"260":-0.16929030579633655,"261":0.25149685553196155,"262":-0.33746936926899834,"263":0.013777923607954224,"264":-0.021089582761190558,"265":0.012305889760013252,"266":0.1354941731034755,"267":-0.006526982320251588,"268":-0.07735698986995772,"269":-0.009358104477539004,"270":0.1252261302020321,"271":-0.006677845710238459,"272":-0.036548746850432245,"273":0.02312772571237828,"274":-0.11769209075092725,"275":-0.019170483340070692,"276":0.00597042947783862,"277":0.2428658819208724,"278":0.12093627750665907,"279":0.06651256157542061,"280":0.07592236802805158,"281":-0.17621931961790682,"282":0.2211563026115726,"283":0.05476615711936404,"284":0.2576780460469463,"285":-0.09633042651671485,"286":0.061957424021490085,"287":-0.04418036147256013,"288":0.03345245153066472,"289":-0.11839559085267515,"290":0.0051916139538105855,"291":-0.393831626116107,"292":0.15133420290581456,"293":-0.38510849408008246,"294":-0.002993109585160642,"295":-0.3769561157396304,"296":-0.023726574051548776,"297":0.26690787163292423,"298":0.001135289246713931,"299":0.07068704818782434,"300":0.08944431326550606,"301":0.017015608943666743,"302":0.025059010669535437,"303":-0.028882467013040338,"304":-0.030175577965669696,"305":-0.0868900474988887,"306":-0.04584512322602523,"307":-0.13460782467085572,"308":-0.09740903222146527,"309":0.14131365922712463,"310":0.15417158562190478,"311":0.09997017784917706,"312":-0.05087241392115381,"313":0.05670450517652938,"314":0.17791167545613415,"315":-0.051323475469830605,"316":0.07248322540291345,"317":-0.0843326454790057,"318":-0.13317048287748093,"319":0.07511451259670855}},{"sx":1,"sy":1,"depth":320,"w":{"0":-0.01393883348091932,"1":-0.14366682481807028,"2":-0.044403987937812875,"3":0.05922693757459687,"4":0.06161864355791735,"5":0.053384574185090315,"6":0.08117448585441378,"7":-0.14075749342504776,"8":0.09161419426751555,"9":0.13759432196241983,"10":0.14671594491936235,"11":0.1223953437718261,"12":0.1343694628487485,"13":0.03456050772348906,"14":-0.3216064287378062,"15":0.1676403540768469,"16":0.10899623463835123,"17":0.03104720879686533,"18":-0.09086054545699981,"19":-0.02284342371943901,"20":0.1376999515412011,"21":0.0690899174519252,"22":0.03963413503491865,"23":0.10874712641792823,"24":-0.015607514903057645,"25":-0.13270471141203316,"26":-0.27058797723136463,"27":0.08752322793751183,"28":0.09230363033544009,"29":-0.15146662433378563,"30":0.08472158501737949,"31":-0.06430339156367255,"32":0.0436122619831887,"33":-0.14051768019086622,"34":0.04873870368411178,"35":-0.08113148575122273,"36":0.10112380412341364,"37":-0.08306611589280967,"38":0.0536043906116155,"39":0.04004709169466639,"40":-0.21761168863350944,"41":0.03908415073710794,"42":-0.07395228139902743,"43":0.1766325032603049,"44":-0.1513565214910333,"45":0.1281158167269388,"46":-0.009368618980032592,"47":-0.036168090594574195,"48":0.10853984932865388,"49":-0.031154600792533724,"50":0.047420452146447974,"51":-0.1453323162643697,"52":0.05830872872928149,"53":0.09321176568993784,"54":0.11584366698346993,"55":0.1423129635533846,"56":-0.024378481549570907,"57":0.11636578163989918,"58":0.14604444424506507,"59":-0.13097693620352133,"60":-0.21766823037730343,"61":-0.12112805982395042,"62":0.0768831314711503,"63":-0.34162253386564745,"64":-0.4850222192471561,"65":-0.15606422850702564,"66":0.0439581195889772,"67":0.036154724806474095,"68":-0.02984923387458445,"69":-0.8895388135209719,"70":0.2780107214042064,"71":-0.02979012531076,"72":0.11282193695058054,"73":-0.9296364423516635,"74":-0.0304637442866865,"75":0.11464213348744064,"76":-0.04282943201819537,"77":0.22223982731074438,"78":-0.8111165737128025,"79":0.07213231245526229,"80":0.0555360476962417,"81":0.24937277245200695,"82":-0.025506038180354164,"83":0.25513124924180897,"84":0.0995956123590692,"85":0.1811655829245568,"86":0.22047655518763445,"87":0.5370643136009736,"88":0.002266257895939287,"89":0.07094293148316087,"90":0.37395289394590575,"91":-0.18825422556447372,"92":-0.2713511662283128,"93":0.12897524583336928,"94":0.12145776832690876,"95":0.015157132854696435,"96":0.052597796065137085,"97":-0.07913995982290586,"98":0.10992029499468069,"99":0.04826367336713946,"100":-0.009533397292268295,"101":0.0027498372464070894,"102":-0.23495011147187952,"103":-0.06456986574126436,"104":0.07759181968671558,"105":0.108496018501851,"106":0.2743434014414493,"107":0.19180093701094922,"108":0.01974050528633451,"109":-0.20984391371821165,"110":0.037600774420803604,"111":0.34055213850232313,"112":-0.04314386370748851,"113":-0.08551196163487158,"114":0.01715320259510397,"115":-0.10504425662331181,"116":-0.1701307766033361,"117":-0.16122111493216162,"118":-0.27682194313833053,"119":-0.017745856830045075,"120":0.04837481500092072,"121":-0.019594011893677665,"122":-0.1846849263246971,"123":0.23350966297080267,"124":0.07030021299642904,"125":-0.1599252202028604,"126":0.19392686140852833,"127":-0.02509135176918136,"128":-0.17667227044990605,"129":0.11326019433741749,"130":-0.1102436135906484,"131":0.1261018996877811,"132":-0.20900566062306475,"133":0.006489867309600413,"134":0.11903148585926937,"135":-0.06445575430862374,"136":-0.0017408120728555768,"137":0.04319492009683207,"138":0.08070927759118236,"139":-0.28172007077717426,"140":-0.042927495279086764,"141":0.06187047473467977,"142":0.03203799826126216,"143":0.15750319373057933,"144":-0.019401099617900198,"145":0.09836269324858375,"146":0.16528952835999614,"147":-0.060729596820267594,"148":-0.08974252824146421,"149":0.14322948148589895,"150":0.22758720599346113,"151":-0.46148531149213046,"152":-0.7614246372472242,"153":-0.07041952304562954,"154":-0.0006548389604197643,"155":0.2288841971767604,"156":-0.1409664741539783,"157":-0.7010069507409233,"158":-0.06901221406496309,"159":0.1603279698142794,"160":0.1385491293579293,"161":0.010954437338883257,"162":-0.05364395889790091,"163":0.1456682069601737,"164":-0.08845367094205678,"165":0.26675893231309616,"166":-0.03958439123190312,"167":-0.062374979154859234,"168":-0.04220763146831337,"169":0.119361254647197,"170":0.10510114493606074,"171":-0.25252964115276444,"172":-0.010347555235358298,"173":0.027960862445627545,"174":-0.01295988621168607,"175":-0.1413970193096082,"176":-0.17370601887902357,"177":0.0008392567788132653,"178":0.05365277264159341,"179":-0.13634015567429858,"180":0.06502993512846358,"181":0.17859194951355714,"182":-0.023763582631428432,"183":0.06350705897079344,"184":-0.06324051686442039,"185":0.06724630043208128,"186":-0.08367616940799784,"187":-0.05705182821587659,"188":-0.06308649082060551,"189":-0.04082408781385717,"190":0.05615888420891383,"191":-0.04294520423163529,"192":-0.014103314504418563,"193":0.05592594264010513,"194":-0.1333642750052941,"195":-0.10591969909845685,"196":0.02282701189993316,"197":0.0134587802392081,"198":-0.4570329772462014,"199":0.05997144893640459,"200":0.03595321692154395,"201":0.11925828233429539,"202":0.14426446598035578,"203":-0.07932339051774966,"204":-0.042122313902531336,"205":-0.028860803004967038,"206":0.016281896440188574,"207":0.06976019040397945,"208":-0.04533392234005568,"209":0.07815008585503716,"210":-0.03571553255847699,"211":-0.1247331175655604,"212":-0.08816604839725307,"213":0.045650803235957105,"214":0.06493640138785745,"215":-0.05159479196044732,"216":-0.010705416967453595,"217":0.013524362138961354,"218":-0.17116838076817853,"219":-0.1010836314083024,"220":-0.12107261639092629,"221":0.028102474123641745,"222":-0.08681134572817115,"223":-0.08254508159780048,"224":-0.17361405514502573,"225":0.1261335568405438,"226":-0.15232529103722728,"227":-0.0014010331387563008,"228":0.027635999979280585,"229":0.16388054031479213,"230":0.06098625008693612,"231":0.08938568403813664,"232":0.01327049777366915,"233":-0.02064218095809982,"234":0.07028602739111389,"235":-0.07051058782655731,"236":0.0080736788800797,"237":0.04855962034462537,"238":0.06230254091363608,"239":-0.018460021493310236,"240":-0.059461974946978496,"241":-0.14266253796899953,"242":-0.10235451742490684,"243":-0.08591552552777997,"244":0.06599980576779901,"245":-0.19320119579224648,"246":-0.07031060334978553,"247":0.018325772568192216,"248":0.08807741034708635,"249":-0.31220933204236795,"250":0.29484372744056825,"251":-0.04830430397126171,"252":-0.12890863399020014,"253":-0.051903169208044636,"254":-0.12166688126836629,"255":-0.021235946698872344,"256":0.12546082185952276,"257":-0.016937191689002234,"258":-0.05492989930149622,"259":0.05730192233435469,"260":0.007386952241299457,"261":0.06111347491290458,"262":0.13202352238623172,"263":-0.004967585425029837,"264":0.03500896854438202,"265":0.05769560340800017,"266":-0.06490143026723011,"267":0.10876527850818078,"268":-0.03921475699771821,"269":0.13689188017621323,"270":0.05646550413123654,"271":0.25511864659477224,"272":0.06270374085025851,"273":0.018762377802349864,"274":0.17753420200969855,"275":0.2455422955606158,"276":0.022202615286675297,"277":0.02994609592349593,"278":-0.15935081592384662,"279":0.24258226469779384,"280":0.06637567693103974,"281":0.03427671745422534,"282":0.09072570882781741,"283":0.05643362354095808,"284":-0.18739605615703123,"285":0.13512434785073482,"286":0.012313071355043717,"287":0.05211601211961057,"288":-0.013708967400752359,"289":0.037419512318340876,"290":-0.16467313048999832,"291":-0.06091227100805054,"292":0.10872539017314628,"293":-0.22876948935958877,"294":0.07169565674412377,"295":0.19963367270324497,"296":0.03603064004216101,"297":-0.06576336211055059,"298":-0.23873278739110765,"299":-0.14055662372478606,"300":0.1471848425298808,"301":0.11473102242262223,"302":0.09663729143055313,"303":-0.23349293983883168,"304":0.07365424094340416,"305":-0.11835805904468377,"306":0.09756141379866179,"307":0.1110303929011035,"308":-0.09968732452728155,"309":0.08764716393648975,"310":0.03502813417554147,"311":0.2353738128698523,"312":-0.07802676693890606,"313":0.09698759757169345,"314":0.16140896703559257,"315":-0.2308215246229646,"316":-0.13091699045487756,"317":0.06539763504779231,"318":-0.1106447803270366,"319":0.05431250321515787}},{"sx":1,"sy":1,"depth":320,"w":{"0":-0.11224999970495296,"1":-0.18412701488477243,"2":-0.019362851522649514,"3":-0.4491605441899928,"4":0.14068560257374021,"5":-0.05160435989977011,"6":-0.018977301397815134,"7":-0.1331886622152183,"8":-0.02524930965766405,"9":0.18632841702177638,"10":-0.043166937888732694,"11":0.13614484787459563,"12":0.04884060804487014,"13":-0.11804741841705801,"14":0.12836768080014235,"15":0.0492076771272674,"16":-0.06378634648845431,"17":-0.022017242269626154,"18":-0.16458390694731134,"19":-0.11734885502345462,"20":-0.07319797314087514,"21":-0.1170469926708803,"22":0.06921578754736539,"23":0.09769484803944609,"24":-0.09068364981884987,"25":-0.00625027211819361,"26":0.01421988582281085,"27":0.1610397008525422,"28":0.09166561255363595,"29":-0.05125229513630295,"30":-0.03252775087326214,"31":0.19355074190115398,"32":0.02064143257773958,"33":-0.030337923462070412,"34":-0.13776558222089663,"35":-0.0007925074038530022,"36":0.03578456442073431,"37":0.17036009045783945,"38":-0.041012869784353895,"39":-0.11647033387794874,"40":0.007296540183591566,"41":0.13080063169650308,"42":-0.24753838813267592,"43":-0.006882443708243923,"44":-0.16710274932509012,"45":0.0563004653930086,"46":0.1600476131557841,"47":0.008472355329208765,"48":-0.13117974008694272,"49":-0.15498806969392454,"50":-0.20673857161751696,"51":0.04456680586691511,"52":0.03272288934295026,"53":-0.03316674005612878,"54":0.1100605516183791,"55":0.03908163392132246,"56":-0.0344357323259851,"57":0.007333207827333132,"58":-0.10774185634924585,"59":0.2190903680489815,"60":0.056620587053992595,"61":0.1348012279759363,"62":0.18866245372038504,"63":-0.00820611709459457,"64":0.020596348920919775,"65":0.04973837294730584,"66":-0.04797879274650996,"67":-0.005176418792696297,"68":0.07507574213888607,"69":0.18342937891787092,"70":-0.20296081529983162,"71":0.1810472001286039,"72":-0.0012480250262101081,"73":0.20403886296022355,"74":-0.11070026701626329,"75":-0.03695773862971559,"76":0.0213033183801993,"77":-0.12675900429511783,"78":0.4090047295011697,"79":0.08928797688774796,"80":0.02991977406430827,"81":-0.20012248730460347,"82":0.05192601848592762,"83":-0.03712462279446981,"84":0.05091053347599389,"85":0.24509055311522357,"86":0.004711873166295226,"87":0.10431238025658077,"88":0.1545983449341108,"89":0.13018540590856031,"90":-0.08901286724582654,"91":0.12313188863744612,"92":-0.009623711366433139,"93":0.24102866712613313,"94":-0.014168389319659644,"95":0.27735164921387595,"96":-0.07032764866256376,"97":0.06629831858087291,"98":-0.18471100070855584,"99":-0.02692434940935724,"100":0.08636703068756177,"101":0.06932139864523125,"102":-0.032123981186290104,"103":0.1859991195801443,"104":0.09740761834837794,"105":0.014424094696086753,"106":-0.15253417320177126,"107":-0.13274554621583587,"108":-0.037005205934952885,"109":0.019582220437178048,"110":0.1530542677427305,"111":0.127787988082918,"112":0.0566802549306499,"113":0.045568550597448194,"114":0.2691477933689111,"115":0.06543370697445672,"116":0.07809947586457515,"117":0.03106018601048131,"118":-0.22887381280374336,"119":0.13681786659562864,"120":0.07962029720284607,"121":0.025458091894454877,"122":0.03760386457142422,"123":0.058095543884957,"124":-0.17855859416413064,"125":-0.13798531475178685,"126":0.05194606762830362,"127":0.06891217690674278,"128":0.03164503767250786,"129":0.03530604093438778,"130":-0.03519613630754746,"131":-0.06916725951639227,"132":-0.09236324340311558,"133":-0.21591190981315728,"134":-0.012126830064608919,"135":-0.33773296930935465,"136":0.001717285049297307,"137":-0.10031772469185886,"138":-0.24255995561666369,"139":0.0896482867673851,"140":0.06027763823595987,"141":-0.14195425117469088,"142":0.19213109870425246,"143":0.10867788553270535,"144":0.030561533572695518,"145":0.08242186173234349,"146":0.015493470749304,"147":0.041288399781939544,"148":-0.0743801797466702,"149":-0.03151624009133702,"150":-0.07865614546996738,"151":0.01596234314842396,"152":0.1772231506134341,"153":0.10309514036167254,"154":0.14518488452676104,"155":0.06503944180611955,"156":-0.10587007964045506,"157":-0.11207992345785199,"158":0.14013706058077155,"159":0.16689946509171757,"160":-0.10523669023071235,"161":-0.21283245252019733,"162":-0.03593509944274789,"163":-0.17252255569099145,"164":-0.2295617157403043,"165":-0.03770350381370203,"166":-0.7642677282956073,"167":-0.09917153339900525,"168":0.1270783402481378,"169":0.07282641824321302,"170":-0.001915582468121955,"171":0.11304860323624576,"172":0.08177444425768748,"173":-0.07026569739519939,"174":0.09872472069156757,"175":-0.07980674134541718,"176":0.2613540852661373,"177":-0.07154115257631358,"178":0.016768219839820384,"179":0.09375565576742964,"180":0.06363828820914534,"181":0.09975928528633504,"182":-0.14516771801877798,"183":-0.17117214424629593,"184":-0.05532762496747683,"185":0.22885719180030345,"186":-0.15745076884340256,"187":0.03368960493723328,"188":0.0032403157624065486,"189":0.09702974410258669,"190":0.22857418504155178,"191":-0.09542614233376176,"192":0.03195268830620958,"193":0.1131372665137286,"194":0.15638601673184965,"195":0.09721566467281648,"196":-0.1004416675738432,"197":0.13921657963341902,"198":0.1034097967283528,"199":0.03935239330195944,"200":0.029024777915318756,"201":0.15093780140349813,"202":-0.34008067214017507,"203":-0.047348201639315225,"204":0.014839069843296249,"205":-0.07108885826193348,"206":0.29769616446503844,"207":-0.1270215876739367,"208":-0.0655768487564638,"209":0.07358605633880107,"210":-0.09090583305698248,"211":-0.020837072394667686,"212":-0.07973248848800248,"213":-0.07407110425544439,"214":-0.22324825928447087,"215":-0.15960612595140558,"216":-0.04651268025115055,"217":-0.04271040846080741,"218":-0.11962556306850332,"219":-0.015369579360774885,"220":0.1333803172271172,"221":-0.030037217249452037,"222":-0.01591096347618726,"223":-0.02948472365364675,"224":-0.0701649516228032,"225":0.03188718098673569,"226":-0.07706360821735983,"227":0.0949905277480903,"228":-0.02159151566149028,"229":-0.024768087057422283,"230":-0.14273496993968973,"231":-0.022655708103573584,"232":-0.09355216707219885,"233":-0.04565700930177956,"234":-0.11569078107462465,"235":-0.14391653636981142,"236":-0.08215542497580397,"237":0.025542223912268062,"238":-0.03753891092772509,"239":-0.04704235482464416,"240":-0.00045361918377181536,"241":0.008198038336467369,"242":-0.06702855867561072,"243":0.3357841308906631,"244":-0.273313062988497,"245":-0.026860263614200575,"246":-0.18666860876209856,"247":0.12604833357831194,"248":-0.0393825448193063,"249":-0.03586807250519848,"250":0.007744341540933824,"251":-0.06297933189627516,"252":0.08096081916413306,"253":-0.3216760203388418,"254":0.1430732916209441,"255":-0.0075947150750671115,"256":-0.11783619577078662,"257":-0.10717594921398203,"258":0.22000032156559876,"259":-0.017114310927986535,"260":-0.13873010496149354,"261":-0.021114086895438425,"262":-0.19149375741183977,"263":0.2675403030419408,"264":0.16115257907074398,"265":-0.1739567429077841,"266":0.2572638824383502,"267":-0.15597386335871713,"268":0.17635815237740715,"269":-0.1816784635821183,"270":0.0666243669170514,"271":-0.019585635276406218,"272":-0.09289618149764291,"273":0.023999005902746548,"274":-0.08991531468098381,"275":-0.304972268938965,"276":0.014318659445321616,"277":0.021947011781473583,"278":-0.085874914516734,"279":-0.23807995962246703,"280":0.0056826468831860655,"281":0.03641838759048272,"282":0.0033387695616758214,"283":-0.028420670818462522,"284":0.06073778035120082,"285":-0.05582932677026862,"286":0.003375580229811082,"287":-0.0370402841873943,"288":-0.10858175629159637,"289":-0.010009568407810353,"290":0.007264393473596102,"291":0.19245051270048408,"292":0.24781385963577568,"293":-0.1328081849179968,"294":0.11126222079815158,"295":-0.09228940695104501,"296":-0.005900390757872498,"297":0.052662140157683966,"298":0.008749796186580823,"299":-0.00432086914405916,"300":-0.23243302778304034,"301":0.17460514174066047,"302":-0.0703064759145157,"303":0.14954702735898043,"304":0.033398192637273665,"305":0.22327443331659677,"306":0.009460944414778417,"307":0.16776473987584548,"308":0.04358528036086464,"309":0.24876978982645276,"310":0.0036588332398979806,"311":0.18264572608504528,"312":0.012632332675522688,