{"layers":[{"out_depth":2,"out_sx":7,"out_sy":6,"layer_type":"input"},{"sx":4,"sy":4,"stride":1,"in_depth":2,"out_depth":32,"out_sx":8,"out_sy":7,"layer_type":"conv","l1_decay_mul":0,"l2_decay_mul":1,"pad":2,"filters":[{"sx":4,"sy":4,"depth":2,"w":{"0":-0.17248032520900997,"1":0.6560631466279687,"2":0.1098459998855734,"3":0.16230691234583527,"4":-0.08101981293271374,"5":-0.06388490204753747,"6":0.20442849074782604,"7":0.2232508106151274,"8":-0.2740319195968091,"9":-1.1533543507216626,"10":0.07539598882606338,"11":-1.3868103757943124,"12":0.11254963427401704,"13":-0.9174493608440998,"14":-0.03476346488898338,"15":0.12807311506538394,"16":-0.3175563556063993,"17":-0.6341001333479609,"18":-0.7169528255601061,"19":-1.790912146184009,"20":-1.5333841248265734,"21":4.55603583819628,"22":-1.5376850718653872,"23":-1.1331306406180426,"24":-3.304640941418413,"25":1.1316526259824924,"26":-0.812687361031854,"27":-0.5043799090689381,"28":-0.5394174948090816,"29":-2.598446227297542,"30":0.16423082571393902,"31":0.503155657653007}},{"sx":4,"sy":4,"depth":2,"w":{"0":0.19965180772137936,"1":-3.609900266712096,"2":0.17455090581192262,"3":-0.3127521393561462,"4":0.7354228172704748,"5":0.3188808901346553,"6":0.6158039936821641,"7":0.7649064220379842,"8":-0.3587399917410316,"9":-0.28783367019948436,"10":-0.06417996867712703,"11":-4.265170747926424,"12":-0.12073987783645544,"13":0.16321602850814204,"14":0.2926672597364905,"15":-0.15393683319513637,"16":-0.11262450317886484,"17":-0.43835841141243287,"18":0.15775309707703866,"19":-0.30731425274427765,"20":-0.406552184806993,"21":6.9883078464452275,"22":-0.5278246253092026,"23":-0.1779430976614512,"24":4.909950759175984,"25":-0.07416808926516742,"26":-0.45071753712769913,"27":-0.3822512084203551,"28":-0.24887959187140152,"29":0.25510528106352814,"30":-0.5541212694490923,"31":2.6663568865997576}},{"sx":4,"sy":4,"depth":2,"w":{"0":0.1811169001058912,"1":-0.6081588783700997,"2":-0.13533633240472348,"3":-0.20179656069453344,"4":0.6430943177042235,"5":-1.2661290372599514,"6":-1.7517937185471657,"7":-0.864962258835886,"8":3.3666124078361896,"9":-3.1861424550188424,"10":2.6997635160831246,"11":1.2326960839470709,"12":-0.6101440172337182,"13":0.09666097592885284,"14":0.35349230530700226,"15":-0.4949494095841969,"16":-0.008338263883176576,"17":-0.8887688459715036,"18":0.8937865417310824,"19":1.3062007002188618,"20":2.406485744990722,"21":-1.0059885904413237,"22":0.9827601911184066,"23":0.6289132885436622,"24":1.9985432454909546,"25":-0.7565498894009667,"26":0.011478928079610299,"27":0.27924111365861265,"28":0.3644679086527387,"29":-2.236242366944388,"30":-0.4316209706516458,"31":-0.5699123781610774}},{"sx":4,"sy":4,"depth":2,"w":{"0":-0.14549393144836764,"1":-0.34216878013045654,"2":0.32137351447688145,"3":-0.3985329195809211,"4":-2.130424393638034,"5":-0.2875533511671172,"6":1.257511215996717,"7":-0.08201200412238512,"8":-0.12207821007636749,"9":-0.7624240415343064,"10":-0.04834756580233442,"11":0.11141981612949585,"12":-0.2867351696036666,"13":-0.35183350756765497,"14":-3.775628065933822,"15":-0.7858689139759101,"16":2.941813560270529,"17":-1.545234775748386,"18":4.101703959939576,"19":2.101815046455611,"20":1.8260165707293758,"21":-0.7600248481128692,"22":0.30091819573042944,"23":-0.4430168439218575,"24":-0.17646636353818881,"25":-0.36041557764708804,"26":-0.10804639688289926,"27":-0.48769504898162025,"28":-0.6734095800875658,"29":0.03367088179281646,"30":0.1154273067023181,"31":-0.5122419598994435}},{"sx":4,"sy":4,"depth":2,"w":{"0":0.3149040246877726,"1":0.46254681353832766,"2":-0.5199326367011897,"3":-0.8181381215064558,"4":-1.1825579514217137,"5":1.0138268436814524,"6":1.77930952141147,"7":1.276809809803756,"8":1.3135615122281612,"9":0.7451908254243276,"10":0.12628628743037176,"11":0.21585012050186392,"12":0.011807465970937462,"13":0.6991982244821507,"14":1.0992529238929476,"15":1.5404756615809234,"16":0.7604759892557992,"17":-0.008228525992241331,"18":0.5362960636137912,"19":0.06289737916464684,"20":0.014293605004675839,"21":-0.4869129512127791,"22":0.9650572844062796,"23":0.4266914750170544,"24":-1.8299138285877223,"25":0.4218687728083187,"26":-0.12654795883855618,"27":-0.8971635782399928,"28":0.7751511869391763,"29":0.4359971541244579,"30":0.5263629766598541,"31":-0.7711253849746893}},{"sx":4,"sy":4,"depth":2,"w":{"0":-2.986842941285106,"1":-0.2322926445107346,"2":-2.5139354484922194,"3":0.37419005260255567,"4":0.48975476295185816,"5":0.8890621098532949,"6":-0.2793103651960082,"7":-0.3759446701966449,"8":-1.565683336420366,"9":-0.29514765527562536,"10":-0.6165718279251655,"11":0.10641212354709713,"12":-1.1430767607880779,"13":0.12677093013542245,"14":-1.2924515847097173,"15":-1.455141287544254,"16":2.4084446687734964,"17":3.2075530758234008,"18":0.2309426961878848,"19":0.5321645384194439,"20":-2.200713652845261,"21":0.4188104383560229,"22":-0.23726070909508898,"23":-0.12913640935436935,"24":0.0967623380236414,"25":0.0963542825361537,"26":-0.5288487173219018,"27":-1.715532690969919,"28":0.7631321046257917,"29":2.786256440401998,"30":0.06397586891303986,"31":1.869537799921729}},{"sx":4,"sy":4,"depth":2,"w":{"0":0.13181430395212945,"1":-0.001192992217485385,"2":1.074974744944488,"3":0.05009270512470654,"4":0.36678121592767854,"5":-1.875577818358448,"6":-0.4229820394966841,"7":0.029673141235036792,"8":-1.7507662552652383,"9":1.5662379697634348,"10":0.3586120090351126,"11":0.6608750719006428,"12":1.0937612622431168,"13":0.34067299266506684,"14":0.7069129063102716,"15":-1.0602253321161064,"16":0.5188377401731322,"17":-0.2788072572302998,"18":-2.074773166256454,"19":-1.054260391861514,"20":-1.2994944274747515,"21":1.5314531621714116,"22":0.8472545322242496,"23":0.9220686620976246,"24":-0.7794015275394252,"25":-0.5164409530466606,"26":-0.8447903580331775,"27":0.13356882648883805,"28":2.855654633437421,"29":-0.9586802990908967,"30":0.19511466655951473,"31":-0.47031720064547194}},{"sx":4,"sy":4,"depth":2,"w":{"0":-0.22127923882970368,"1":-0.11369691260401017,"2":-0.4228358485337845,"3":-0.3551215933807987,"4":-1.7736266727447738,"5":-0.014740289066353307,"6":0.052234609193314206,"7":-0.3550989162388015,"8":-0.4556830128513875,"9":0.27365543261233266,"10":-0.2436651935000286,"11":-0.0907084404633681,"12":-0.15595542660272366,"13":-0.0764235792964303,"14":4.517804477781466,"15":0.08514215951745403,"16":-0.16054167712221806,"17":3.8667273987694544,"18":-0.2509562494322579,"19":-0.14983696995075696,"20":0.12232875240869644,"21":-0.16845983326408454,"22":-0.18846180982604552,"23":-0.09519504620123598,"24":-0.48269182265931754,"25":0.497844591510451,"26":1.3397841483807111,"27":-3.7651425767118263,"28":1.40620632241722,"29":1.6301222949965317,"30":1.1219165876021515,"31":0.42545819446881056}},{"sx":4,"sy":4,"depth":2,"w":{"0":0.44506188822755993,"1":0.07499163680972144,"2":-1.3155190187584263,"3":-0.25413902366721935,"4":-0.36825729941996843,"5":-1.0368431795418833,"6":-0.5353802200293734,"7":-0.348394482451029,"8":-0.2990923664739416,"9":-1.3982530575407845,"10":-0.15382965046939745,"11":-0.32154284414383716,"12":-0.42378944165730364,"13":-0.13823809152944358,"14":-1.1299036472338067,"15":-0.7229734006728208,"16":-0.4116982626467491,"17":-1.06703431027957,"18":-0.25567551802834215,"19":-2.216299834389651,"20":-0.8460768641297935,"21":-0.12202925532550142,"22":-0.6312973631666537,"23":-0.7987105851149235,"24":-0.7866861536832068,"25":-3.5166500560242375,"26":1.9776485597239,"27":1.3540498816501059,"28":2.407150220103956,"29":-3.2535813217018448,"30":0.7313313124565354,"31":0.2598544704158328}},{"sx":4,"sy":4,"depth":2,"w":{"0":2.877222121154609,"1":0.3278715097183302,"2":-0.6405028640693993,"3":-0.769375219447972,"4":-0.389539889828824,"5":-0.2597360564524346,"6":1.490335368962425,"7":-0.9027831889407527,"8":2.6119667340540142,"9":-0.11324310348998749,"10":-0.2656843033335789,"11":0.019310935801072068,"12":0.07348276352190035,"13":-1.038025325796473,"14":0.802017313344114,"15":-0.11652575845407255,"16":2.859397793834359,"17":1.6661764713768168,"18":0.11062367833957096,"19":0.3879353601290087,"20":0.4086550697729351,"21":0.21644146347386295,"22":1.53251476414104,"23":0.0569740306285443,"24":-1.4177118796913084,"25":0.14298514255251368,"26":-0.32647164686910196,"27":0.7397157272475288,"28":-0.6043289557134566,"29":-0.11259473430586238,"30":0.08775722473726523,"31":0.2020614703078348}},{"sx":4,"sy":4,"depth":2,"w":{"0":1.3021047730833533,"1":1.0019137005954675,"2":-1.423648171052671,"3":-0.5767509527896154,"4":0.29592952151757995,"5":0.9501585715535685,"6":-0.773473890387212,"7":0.06621486755926552,"8":0.37276675087025224,"9":-0.807709919834231,"10":-0.10394177433916911,"11":-1.0948757957075166,"12":0.41753816757312723,"13":0.8529573245242428,"14":0.20384823109617053,"15":0.3658401206162159,"16":0.25126581666052944,"17":0.8001802926634373,"18":-1.1986108132858964,"19":-0.5329253648695854,"20":1.814477205215572,"21":-1.327993119026643,"22":0.6695111213230655,"23":0.665219580479322,"24":-0.08112993153757458,"25":-1.4161886946206592,"26":-0.7632559427284156,"27":-1.1003967599069504,"28":3.1787524949131662,"29":-0.8464306306758089,"30":0.00813887723033849,"31":0.3910275835610602}},{"sx":4,"sy":4,"depth":2,"w":{"0":1.2065866979829902,"1":0.9809775041426151,"2":-0.5380311025833978,"3":-1.3852435395296572,"4":-0.2387150250800053,"5":0.029843189043980763,"6":2.3136409000726945,"7":0.465545055578307,"8":-0.21421917362524157,"9":-1.5102092745017792,"10":-1.4549152275318897,"11":-0.4975494011395008,"12":-0.1278750725820128,"13":-0.42987835875670444,"14":-0.025306882623396323,"15":-0.4134408675754635,"16":-0.5024689036309252,"17":-0.5954428803245182,"18":-0.3229653054259566,"19":-0.6443992603170556,"20":-0.5403563729424931,"21":-0.03594319470194524,"22":-1.0075711449688556,"23":-0.5278748838852233,"24":-1.3501066885019097,"25":3.5543114363219455,"26":-1.282750852477944,"27":-1.331228653319491,"28":-1.2236405439821028,"29":3.575308017518373,"30":-0.7288641258640162,"31":-0.0645898772692538}},{"sx":4,"sy":4,"depth":2,"w":{"0":-0.25709637554004994,"1":-0.5350990650282039,"2":-0.83637364504468,"3":5.263072125205991,"4":-1.3494493578419113,"5":-0.5241384335552568,"6":-0.2789656078088984,"7":-0.06850929293510516,"8":-0.11094833997104132,"9":0.3427133625196441,"10":0.0856522842896425,"11":0.6339140867218417,"12":0.013671295823673126,"13":-2.4745222357551424,"14":0.31492795326784045,"15":0.4362699132936688,"16":0.6065576557794791,"17":0.20405991238874446,"18":0.4310251587161574,"19":0.45141744336095585,"20":-0.10172892900948644,"21":-0.3395997525544708,"22":-0.2589583905084954,"23":1.0397597576925373,"24":-0.08002500842313413,"25":-0.1586910294883092,"26":1.4742318128711573,"27":-0.5436981351555015,"28":-0.526007581842459,"29":-0.6485623987947122,"30":-0.8719683901228225,"31":-0.48112264900644464}},{"sx":4,"sy":4,"depth":2,"w":{"0":-2.5032959224584674,"1":-0.19815775635855534,"2":0.6328618272376213,"3":0.2762888824783177,"4":-0.6247536940544153,"5":-0.14858847124434596,"6":-0.38583083785752165,"7":-3.1646169662466797,"8":-0.16099040028610356,"9":0.4922217839821218,"10":-2.507189995035007,"11":3.2297037653004086,"12":2.5350606968165734,"13":1.215049767906955,"14":-2.2235131253121527,"15":0.3508660578848115,"16":-0.48848537980896867,"17":-0.5023129684629596,"18":0.19876544792720824,"19":0.6465193568092737,"20":-1.0491846501419446,"21":0.01672877779100864,"22":-0.7572827374449552,"23":1.0892640075417448,"24":-0.6086224188924542,"25":0.935655913185759,"26":-0.3712466255320524,"27":-0.7308034274178401,"28":0.6057032512831746,"29":0.2273562821946241,"30":0.07627918305843387,"31":0.3445978886065993}},{"sx":4,"sy":4,"depth":2,"w":{"0":-0.019914253558167425,"1":-0.22284584187814988,"2":0.18074425707437752,"3":0.36249764381607896,"4":-0.21645268496538278,"5":-1.1636422224787,"6":-1.03619170010978,"7":-0.8188407098742099,"8":2.5351016559790773,"9":2.1212024324074807,"10":1.7663999349055812,"11":1.830690568310486,"12":-2.468422002105804,"13":0.06631735892948964,"14":-0.015631801007539834,"15":0.6201681091971577,"16":0.1348886781154121,"17":0.3891904747373776,"18":-0.6746629146163783,"19":-0.13146789364540878,"20":-0.12266895404488544,"21":-0.08821016363648314,"22":0.1939921501282577,"23":-0.1395519376604182,"24":-0.4327725585900505,"25":0.2768786435393226,"26":0.08634564171559836,"27":0.5635334894177645,"28":0.01779830834180689,"29":0.6142888885261707,"30":0.04539857033574345,"31":0.1174404674223775}},{"sx":4,"sy":4,"depth":2,"w":{"0":0.20121025883073598,"1":-0.7962610203879458,"2":-0.21350732657191887,"3":1.1270097791385576,"4":0.520262977239475,"5":-0.4023637789205996,"6":-0.08515448700333889,"7":-0.5834515586957724,"8":0.3982919143927989,"9":0.23904752571318424,"10":0.6108679229535934,"11":0.411296651927651,"12":-0.3120918757342066,"13":-3.895940373228423,"14":0.8693926666475559,"15":0.11997574093590994,"16":-4.49229930027075,"17":-0.7209596673244165,"18":0.2655497196400521,"19":0.10741842392767119,"20":0.2525150196782322,"21":0.058460365401520206,"22":0.0012309869627992979,"23":-4.202769371245233,"24":2.7004636227693353,"25":3.1090745335220396,"26":-2.4700364113103666,"27":2.1843316406222417,"28":1.7854556347901505,"29":-0.10042174355329136,"30":1.2184609210030137,"31":-0.4053263228060367}},{"sx":4,"sy":4,"depth":2,"w":{"0":-0.38107641972176526,"1":0.08063348637161512,"2":0.3353638445268927,"3":-1.7322965432839466,"4":0.22030909663028203,"5":-0.43705363630329774,"6":0.5756460912014857,"7":-0.7339915738005761,"8":-1.0199232971085705,"9":-0.20517912309318018,"10":-0.38729697018376175,"11":0.6927265829391006,"12":-0.3566284941888223,"13":-0.4761650667782747,"14":-0.15454963571654146,"15":-1.1156788750671096,"16":1.846838834590326,"17":0.6655876252539834,"18":-0.04771706409401574,"19":0.03088146440402058,"20":-1.3780416971334521,"21":-1.5710350519070904,"22":-0.5797433969599572,"23":0.7875170415151893,"24":0.5082517749941706,"25":-0.005976545083659584,"26":1.4193333547042295,"27":-0.09629899204539578,"28":0.08891360288855056,"29":0.39954604810946653,"30":-0.49605736924768706,"31":-0.9593156120394447}},{"sx":4,"sy":4,"depth":2,"w":{"0":0.08821422018043892,"1":-0.3888102640672039,"2":0.11119221578958474,"3":0.4937770379908578,"4":-0.37829493445011225,"5":-0.6942218265330781,"6":-0.5838646994691236,"7":-0.34568656159797073,"8":-0.9319121986147966,"9":-0.03390255492605998,"10":-0.3819349046599383,"11":-0.028863597227951055,"12":-0.04956601290740806,"13":0.04254247910723576,"14":-0.9083761894956112,"15":-1.2421544199219532,"16":-2.6051837554468054,"17":1.0967458368561935,"18":1.4658239253245404,"19":4.1712930077087,"20":5.08909462771621,"21":1.3482189236548152,"22":1.1625996274582946,"23":-0.23722326320172335,"24":1.0161132942233557,"25":-0.03671616725655499,"26":0.005318110833876238,"27":0.02785442743508438,"28":-0.1810479261887688,"29":-0.3093428975816657,"30":0.43908986425369845,"31":0.33981148953104107}},{"sx":4,"sy":4,"depth":2,"w":{"0":0.29225905434293786,"1":6.801086825271668,"2":-0.32461979884448566,"3":-0.029164677900486904,"4":0.10639668348241602,"5":-0.5602178678032562,"6":0.013319571583944962,"7":-0.26961502343963156,"8":0.18768126335202362,"9":0.5953419932264731,"10":-0.09534378357546747,"11":3.0336315576692083,"12":-0.13344645978952077,"13":0.12177458814859152,"14":-0.08366636976632835,"15":0.21843817719049471,"16":0.27576630408118696,"17":0.6066078974023561,"18":0.055016868301410116,"19":0.015299089877484953,"20":0.14243991304761133,"21":-2.353822450624904,"22":0.18873029891847082,"23":0.09261402634152764,"24":-5.73032354881187,"25":0.3789898581404925,"26":0.39710881081443283,"27":-0.17155099975369978,"28":0.001297875007365054,"29":0.19426938889573744,"30":0.9256276197621055,"31":-1.022591018757939}},{"sx":4,"sy":4,"depth":2,"w":{"0":0.43302141813983575,"1":0.3741486677682276,"2":-0.5205169134475128,"3":-0.7993324099277689,"4":-1.6804833252879627,"5":-0.6287272531534014,"6":-0.3812969934069893,"7":-0.4998485977884246,"8":-0.5824352430881432,"9":-1.0973677325946136,"10":-0.517485262863579,"11":-0.8056378453960243,"12":-0.8119431639672172,"13":-1.0626064110666413,"14":3.966406849418721,"15":0.08249882682773571,"16":-0.9334682953592125,"17":2.0324939779479068,"18":-1.5561138517522783,"19":-0.7871036379982772,"20":-1.0259468427544107,"21":-0.15446255737570055,"22":0.5524343420165001,"23":-0.4051616376440699,"24":0.5140625227446879,"25":-0.733459485642697,"26":0.03271660640655165,"27":-2.348460093566536,"28":-0.582657873913491,"29":-0.8849153060340355,"30":0.02123537193910859,"31":-0.10381304575614107}},{"sx":4,"sy":4,"depth":2,"w":{"0":0.07003808637551687,"1":0.19377548813399098,"2":-0.3623140528577289,"3":-0.3550052363456834,"4":-0.16297868213978495,"5":-0.3139447418398361,"6":-0.41568918715479436,"7":-0.22874664534694172,"8":-1.7193208161125009,"9":-0.17433430375317155,"10":-0.22231925967429833,"11":-0.229368790764025,"12":-0.1990490869393459,"13":0.08966763653444926,"14":-0.14623996241516637,"15":-1.3539293759074842,"16":-1.8437292332604127,"17":-2.604625696945922,"18":4.796048891122657,"19":-0.8892401921342331,"20":-0.7167583685414658,"21":-0.49935068973326274,"22":0.14390811641299736,"23":0.393131929757509,"24":-0.8132925561517167,"25":-1.1346114748115168,"26":-1.3491256791370967,"27":-0.9556282941848822,"28":1.5076672967696447,"29":-0.8358292885611662,"30":-0.8372616956887118,"31":-0.31226493238839387}},{"sx":4,"sy":4,"depth":2,"w":{"0":3.0528031940744977,"1":-3.933187713142015,"2":2.4592386466982585,"3":1.399310632354689,"4":0.20222301110852034,"5":-0.4568423145852301,"6":0.15034515602609227,"7":1.3537747820886774,"8":0.4474840391556128,"9":-0.18721414936695305,"10":0.14981703435855093,"11":-0.2767835861083943,"12":0.21483415302170653,"13":-0.04429651083646241,"14":-0.06540593372134736,"15":0.25737023684358395,"16":0.08106436024822403,"17":-0.10055985232306083,"18":0.21132180910574028,"19":0.13315894943263967,"20":0.39576712084026044,"21":-0.9787316439669695,"22":0.8556109105096315,"23":0.407018623155854,"24":-1.8341301816755082,"25":0.3952440176535504,"26":0.18020162764683942,"27":1.9928248112796139,"28":0.489790648031128,"29":-0.36527231625037737,"30":-0.5595669029457532,"31":-4.330172295299757}},{"sx":4,"sy":4,"depth":2,"w":{"0":0.23865534394577076,"1":-0.07571541690881088,"2":0.30816758758728297,"3":-0.12017687292794774,"4":-0.4889205225294695,"5":-0.2591487359127939,"6":-0.16811965994771264,"7":-0.00315681909944305,"8":0.1508556433721591,"9":-0.5773513237824077,"10":-0.4818890307712862,"11":-0.3284669414437842,"12":0.1050043015430422,"13":0.787939297401472,"14":2.356710765115284,"15":1.0924914488532254,"16":1.2285091022711696,"17":-0.033617356741348976,"18":1.5161973552127856,"19":1.022365375802532,"20":-0.4775269100420489,"21":-0.30022401721369224,"22":-0.1132588727851451,"23":0.3834146255770319,"24":-0.2532575251107364,"25":-0.25469767563621165,"26":0.9852129013783586,"27":-0.1791794979582178,"28":0.25435842046666346,"29":0.27430444153740136,"30":0.3483510876150922,"31":1.0709679733608468}},{"sx":4,"sy":4,"depth":2,"w":{"0":-1.7485328111544751,"1":-4.620209220051243,"2":0.3314622981008597,"3":1.4245047934085893,"4":1.3501668404324993,"5":0.3870277742850163,"6":-0.5205404199218383,"7":-0.029040734927566543,"8":0.17953646621589064,"9":0.019127593805071112,"10":-0.08691703424220355,"11":0.16639611490983094,"12":-0.017097881685473125,"13":-0.11260551463374982,"14":0.06417338405827364,"15":0.02766524803465988,"16":0.026346936668331065,"17":-0.20115519223372572,"18":-0.34202046525608454,"19":-0.1641068508847423,"20":-0.23747289210828662,"21":-3.081578486484434,"22":0.3873030027974051,"23":0.048114986682563574,"24":-2.4348479529007303,"25":-0.113399557294774,"26":0.305498242822437,"27":-1.7130928195112543,"28":2.6127448600428664,"29":4.980922248323553,"30":2.9453426632636863,"31":-3.397482137412055}},{"sx":4,"sy":4,"depth":2,"w":{"0":-0.04869066352285261,"1":-1.2217512575565512,"2":-0.41491165437010724,"3":1.7148776800140315,"4":-0.1597883280990013,"5":-0.04027756370628391,"6":-0.6536518989828147,"7":-0.036517874497977276,"8":-0.38465057055824153,"9":-0.2977750133231754,"10":-0.3762816503857749,"11":0.08777759051561695,"12":-0.7584115717551088,"13":-0.6179804338912633,"14":-1.1032040618266683,"15":-0.5821032296078522,"16":-0.11515833014761542,"17":0.049026569667548495,"18":-0.039142030567853724,"19":0.030369333213891975,"20":0.24372232240375827,"21":0.04060027242386168,"22":-0.3984612621317131,"23":-0.16275214935165552,"24":4.3783229640314545,"25":-3.6090518242330822,"26":-2.115665036683741,"27":-0.6458702464400994,"28":0.33478777717401337,"29":-0.022535871264943656,"30":0.17063317458239138,"31":-0.15648475695275155}},{"sx":4,"sy":4,"depth":2,"w":{"0":2.14167457630127,"1":-0.5809334074815973,"2":2.2444233847041617,"3":0.6574319699174856,"4":0.4522030907253627,"5":-0.6164020833473042,"6":-0.28938485244284023,"7":-0.6478626246844633,"8":0.22543110941785724,"9":-0.6761700147173961,"10":0.17708301807798885,"11":0.38526257947417114,"12":0.07031856632301188,"13":0.0017198614848103807,"14":0.29757846603513427,"15":-0.4045992243724485,"16":0.21517235838193974,"17":-0.19027672601395246,"18":-0.18547579794534677,"19":0.2619574764246118,"20":-0.40168532295638104,"21":-1.5739956372587185,"22":-0.7859152130356543,"23":0.5817882070251628,"24":-2.2767156360963314,"25":-1.5126491776448405,"26":-0.3341100170514726,"27":-0.7293561206186733,"28":-0.2763716294585693,"29":-0.71130767629639,"30":0.13375268522585682,"31":5.76014635269785}},{"sx":4,"sy":4,"depth":2,"w":{"0":-0.4871472589607363,"1":0.6250041908461376,"2":2.832353094354776,"3":1.4547695053168779,"4":-0.19148283279941206,"5":-0.44827096903250646,"6":-0.297096063609575,"7":-0.453042745451482,"8":0.7420670848389423,"9":0.42276644846309075,"10":0.2588326751868275,"11":1.4344273463187238,"12":0.595509366276325,"13":-0.025413675977783136,"14":0.20529963827459724,"15":0.5840997697745154,"16":0.16250420034025326,"17":0.030061382644314964,"18":-0.39329455484591613,"19":-0.2505956974447129,"20":2.3048229839232803,"21":-0.7189127166830501,"22":-1.8821267227482712,"23":1.3066523270897519,"24":1.8870179631545292,"25":-2.9461950964979606,"26":0.32597010140475646,"27":-0.2818837101095549,"28":0.09333696435976652,"29":0.14875372121488228,"30":-0.4474878892690952,"31":0.5678982093434068}},{"sx":4,"sy":4,"depth":2,"w":{"0":-0.11434193298137624,"1":-0.3828631445803082,"2":-0.19284764028332788,"3":-0.4221216840379167,"4":-0.43957011176720506,"5":2.410264639230532,"6":-0.4721082764590282,"7":-0.27847278092668826,"8":6.094476244317307,"9":-0.28324144071507257,"10":0.07498963005775273,"11":-0.14848661360032478,"12":-0.32728361695035746,"13":-0.5337199640538134,"14":-0.3655100480892605,"15":5.323902935182236,"16":-0.22030360526181103,"17":-0.6088046156551642,"18":3.35125147468927,"19":-0.25369862046454306,"20":0.10857198861502122,"21":-0.4135579368127775,"22":0.06150881020497239,"23":-0.3341456578520533,"24":0.1261949121739503,"25":-0.21327705435085048,"26":0.08473206236617431,"27":0.49330854065652335,"28":-4.426310072433331,"29":0.3743115312141903,"30":0.7146187119354825,"31":-0.17197810578130088}},{"sx":4,"sy":4,"depth":2,"w":{"0":-0.338809288886701,"1":-0.26029026318694715,"2":-0.9401754056877444,"3":-0.43866523261351276,"4":-0.488299424888073,"5":0.15597706075685328,"6":-0.779812917523393,"7":-2.2255653081044153,"8":-0.851001182572073,"9":-0.6352061729874918,"10":4.506251110709932,"11":-0.55577900674504,"12":-0.3227611465833309,"13":0.24616963562339328,"14":-0.6490839130313117,"15":0.042120517449992845,"16":0.4365934166895224,"17":0.281241239475188,"18":0.5936320029358567,"19":0.6365055758093524,"20":-3.0107515544998464,"21":0.8044338157485963,"22":1.5568664472420195,"23":0.03840618192430123,"24":0.0710972677849263,"25":0.6866737594323781,"26":0.439603277554723,"27":0.0204527568096862,"28":-0.29699446041525784,"29":-0.32849837150914485,"30":2.0068728705535035,"31":0.08167647019373506}},{"sx":4,"sy":4,"depth":2,"w":{"0":0.3697613305920899,"1":-0.9242368727914866,"2":-0.46956218133600064,"3":0.1962485362565276,"4":0.358651895059219,"5":0.3923116579696748,"6":1.0242705176164315,"7":-0.19808152608443147,"8":-0.29945901170463124,"9":-0.40371632028421006,"10":-0.3279942590095808,"11":-1.4240193056655226,"12":-0.39441705572572505,"13":-0.23469356409728154,"14":0.42999141621531944,"15":-1.052856895176695,"16":-0.8428125818544471,"17":-1.5110420179250934,"18":-0.6373235422457075,"19":-0.2344659047026429,"20":-0.26006415314735115,"21":-1.0639024900671812,"22":-0.2659007772379088,"23":-0.5060181671152632,"24":-4.2261264018190134,"25":2.4113616558936806,"26":2.0751399144140317,"27":1.70693451331265,"28":-3.762265884369153,"29":-0.315125332579101,"30":0.29942369340129266,"31":-0.35331773225860813}},{"sx":4,"sy":4,"depth":2,"w":{"0":-0.2347881261227635,"1":0.011994716462709214,"2":-0.14797531492493682,"3":-0.35839480307852717,"4":0.9495796249452055,"5":-0.23598773321277347,"6":-0.17515076007948918,"7":0.26333353907703194,"8":-0.16379214667170136,"9":-0.348390281515765,"10":-0.06752156860368125,"11":-0.13609136697080873,"12":0.47974673598395917,"13":0.6362595283021534,"14":0.3828502626283253,"15":0.8306416920181748,"16":0.07028708192161089,"17":-0.20207676236567362,"18":-0.18263765344565142,"19":-0.10159107746224601,"20":-0.388444703690728,"21":-0.10319693689241745,"22":0.6093762542510653,"23":-0.4529088793858074,"24":-0.07902612960904036,"25":-0.01966836116124777,"26":-0.3137377028870424,"27":0.2634772737770436,"28":0.04707037133390907,"29":0.12678183061092085,"30":0.06267052631111092,"31":0.7686433003110205}},{"sx":4,"sy":4,"depth":2,"w":{"0":0.47039696206864473,"1":-1.008113094966685,"2":-0.030690549902301863,"3":-0.9693290585411098,"4":-0.3360445739092363,"5":0.5194698383258208,"6":0.13603802557590522,"7":0.05987215393473181,"8":0.19694913641454867,"9":0.19492965418783753,"10":0.007509105193212352,"11":-0.881635870565213,"12":0.5893659697354644,"13":-2.944324567179204,"14":-0.38893557409194646,"15":0.278033799217735,"16":-2.529253710084037,"17":3.3826754335915665,"18":1.3419821023973133,"19":0.4776948326354997,"20":-0.43675155903388185,"21":-0.1153349492077706,"22":-0.6378242354255111,"23":-0.43403966197350907,"24":-1.254633262106443,"25":2.5985837332965938,"26":1.0467921283111041,"27":-1.5866538580561926,"28":0.21792149114779594,"29":-0.04127501477535749,"30":-0.09049368736551291,"31":2.776407252918181}}],"biases":{"sx":1,"sy":1,"depth":32,"w":{"0":-0.5674116512783264,"1":-7.683871653962539,"2":-4.754449126159722,"3":-4.8133983526835875,"4":-4.421124445557469,"5":-3.388932761358923,"6":-1.1823422265638628,"7":-4.314802455618419,"8":-1.4438710061343802,"9":-3.376167736622671,"10":-2.95793342047903,"11":-1.757113378287226,"12":-2.575405706462259,"13":-4.570776177814507,"14":-3.628031494037068,"15":-4.0165228770263575,"16":-5.227302967693683,"17":-6.447580565329481,"18":-4.164820616572215,"19":-0.765694834130388,"20":-0.5193630341276079,"21":-2.263415747774217,"22":-2.706477591010986,"23":-5.865349051594688,"24":-1.6063250172616608,"25":-3.8637433709844657,"26":-2.123611645783276,"27":-8.590011231967114,"28":-2.520777995584661,"29":-1.1670104099512766,"30":-0.9465741336831186,"31":-3.4899516158892143}}},{"out_depth":32,"out_sx":8,"out_sy":7,"layer_type":"relu"},{"out_depth":60,"out_sx":1,"out_sy":1,"layer_type":"fc","num_inputs":1792,"l1_decay_mul":0,"l2_decay_mul":1,"filters":[{"sx":1,"sy":1,"depth":1792,"w":{"0":-0.07235436005621489,"1":-0.05455662500035183,"2":-0.020978293217428567,"3":0.004334808262192609,"4":-0.05077621490297031,"5":-0.023909030750335847,"6":-0.012200743705487016,"7":0.02189497920032739,"8":-0.15192590123745467,"9":-0.01628339782991162,"10":-0.020139131700685903,"11":-0.030240803646402678,"12":0.0220602814551999,"13":-0.04678687032769557,"14":-0.007176167771349989,"15":-0.010852335343872225,"16":-0.010202701875145477,"17":0.0024948066295720217,"18":0.008805562302846981,"19":-0.012296860653948626,"20":-0.1610481801643983,"21":-0.03680504133075052,"22":-0.006922015784714444,"23":0.06371767432134706,"24":-0.012259786398663663,"25":0.025234319387753713,"26":-0.02034460344841354,"27":0.006726789762536206,"28":-0.009478538153998867,"29":0.07653800403690803,"30":-0.029341613132837268,"31":0.03277359496255162,"32":0.08511242334239022,"33":0.019898659016080185,"34":0.011044688253534565,"35":0.20481049874955046,"36":0.016422243604774532,"37":-0.04944331871357079,"38":-0.002058101792852332,"39":0.023468368788539536,"40":-0.2022621971462173,"41":-0.03735167608420505,"42":-0.004052703057762814,"43":0.08802177019648721,"44":-0.07778099457463654,"45":-0.04769319387277795,"46":0.018100535207673765,"47":0.018861299032090363,"48":0.008163759492451276,"49":-0.04861079103760364,"50":-0.00020719067765507797,"51":-0.014499558252845832,"52":0.03715181749462362,"53":0.0017607666726294714,"54":-0.04661097394526338,"55":0.031644623122076,"56":-0.05293441037597558,"57":-0.14411923459853146,"58":-0.010681869579686655,"59":0.01864691282208688,"60":-0.006978333960436929,"61":-0.10760949343352369,"62":-0.044907120247919714,"63":-0.05576976435472672,"64":0.09115206115147613,"65":-0.16342741955618625,"66":-0.0007440860395752734,"67":0.21629561983488665,"68":0.009903157679728321,"69":-0.01787194403299092,"70":0.04578567486527474,"71":-0.020212701315148168,"72":-0.11820688618482039,"73":-0.026103712475559974,"74":0.03369504026686226,"75":0.08983987909077813,"76":0.14394074210934266,"77":0.040674088199381696,"78":-0.028814412838584706,"79":-0.15784851042751263,"80":-0.13500004504910737,"81":0.0014105596603598948,"82":0.0004682394316183434,"83":-0.01567866342436766,"84":0.010507319857006401,"85":0.00040601817985355746,"86":-0.02299986300928662,"87":0.2063497803397914,"88":-0.22122653695509858,"89":-0.15737955549406635,"90":-0.02535289585206847,"91":-0.03652677343953476,"92":-0.04604857046402941,"93":-0.008773103545477464,"94":-0.039368649351069734,"95":-0.04641042131782507,"96":0.23993889892782028,"97":-0.07598125559126098,"98":-0.001326142555999126,"99":0.011538095936319397,"100":-0.006041773004311146,"101":-0.12765819339466486,"102":-0.026240941704122084,"103":-0.13314703401588004,"104":0.27275922970060695,"105":0.03475121809017405,"106":-0.0010751594689903763,"107":0.12059032425153567,"108":-0.02694505633947065,"109":0.04116696577196317,"110":-0.006890428991300139,"111":-0.1724702875211064,"112":0.012827067813065727,"113":-0.03727099373264105,"114":0.0013207156619956134,"115":-0.02034734800721793,"116":-0.03571907365799313,"117":-0.00999651810138984,"118":-0.03296540589245992,"119":-0.11565282468294377,"120":0.14207164606862824,"121":-0.009350114897891115,"122":0.0203768787663671,"123":0.0011519305629412203,"124":-0.03264716539722603,"125":-0.22106502791157912,"126":-0.012800298808150385,"127":0.04709146733104693,"128":0.08317048868038227,"129":-0.076025658287666,"130":-0.029903867033350722,"131":0.001512793429448431,"132":0.014247468480249848,"133":-0.07136232995919774,"134":-0.03287145046659882,"135":-0.026052316319639304,"136":0.02455822778630043,"137":0.0009476465086045216,"138":0.036596414955874366,"139":-0.06292266881503242,"140":-0.08748332004514676,"141":0.050206738563189995,"142":-0.0006307620483131744,"143":-0.14457851677827888,"144":-0.05156534444312958,"145":0.03796275581995043,"146":-0.0027222269621520853,"147":0.0045909148054080985,"148":-0.0043285539545194875,"149":0.005101463488703103,"150":-0.033278153928379434,"151":-0.14179644633651584,"152":-0.005717763110925173,"153":0.09636908806214795,"154":0.006682037302261933,"155":0.0019263441435800307,"156":-0.007717072492588733,"157":-0.22963312749564116,"158":-0.01929217094621548,"159":-0.014956808809168097,"160":-0.0865106678610359,"161":-0.23135096623016696,"162":0.02567361047071679,"163":0.10058270113273614,"164":-0.00087222711849157,"165":0.03196884546545848,"166":0.03995062539071992,"167":0.04412235791444682,"168":-0.24355994279887158,"169":-0.01988115705970185,"170":0.08146097840447172,"171":0.15459644979272374,"172":0.02018158862815062,"173":-0.004288643180677573,"174":-0.006392658887562348,"175":-0.262573532073727,"176":-0.00521201859973972,"177":0.0738987401107992,"178":-0.006567912854858895,"179":0.06679274302830868,"180":0.1423911976022521,"181":-0.0703884017013324,"182":-0.025964570381585245,"183":-0.026645650047823873,"184":0.04157372374280639,"185":0.0074509589900882646,"186":0.0004283045347319149,"187":0.02225771706177645,"188":0.006532633459987588,"189":-0.2169146459467392,"190":-0.0367475142111003,"191":0.01102902499970382,"192":-0.016969412007021577,"193":-0.026822234520148956,"194":-0.010685077002190109,"195":0.02199045004956477,"196":-0.04724308836119292,"197":-0.04473689254976186,"198":-0.021667177788976456,"199":0.02268736344542272,"200":0.23024529067490285,"201":-0.015260058733896477,"202":0.013442745967796143,"203":0.24524377748864587,"204":0.10852004360435734,"205":0.021430639065078683,"206":0.012727004223580966,"207":-0.021803987850901946,"208":0.15938526538051104,"209":0.01821889799893083,"210":0.024580042131145476,"211":0.127200586104126,"212":-0.2350809678608863,"213":-0.02057849369158509,"214":-0.03678974984415036,"215":0.008271460525677041,"216":-0.3030913684238846,"217":0.024722795171589027,"218":-0.01436933434351262,"219":0.013142599712046834,"220":0.06668023741519379,"221":-0.2947290049911816,"222":-0.01645814198600523,"223":-0.01411718032119284,"224":-0.13174013381069663,"225":-0.004274037608514166,"226":-0.0038297132649326377,"227":0.007354359506547492,"228":-0.016954466366368093,"229":-0.019925518590734288,"230":-0.011958027337428876,"231":-0.004681034542169526,"232":0.013823644198267997,"233":-0.006042079110787286,"234":0.055687234849129824,"235":0.2369226768297132,"236":-0.05043939673896576,"237":-0.019331607988465612,"238":-0.023427855350282543,"239":-0.09105081081533838,"240":0.02509113178349083,"241":0.01891046970851345,"242":-0.0162267370228324,"243":0.0432425054584736,"244":-0.1344686056463344,"245":-0.008791507930917849,"246":0.0019099383338060962,"247":0.0022043231679939324,"248":-0.1016678781529962,"249":0.0228152073879078,"250":0.01289132397647265,"251":-0.026711800609781077,"252":-0.04277453039421,"253":-0.10130082470924302,"254":0.038329380850433345,"255":-0.034763274976554674,"256":-0.08989423490803428,"257":-0.0779739289033037,"258":0.0170677808104613,"259":-0.023680001849681356,"260":-0.01845679888768994,"261":-0.04960076516472,"262":0.20900662253991495,"263":0.036048159566020116,"264":-0.20084871488833714,"265":0.0019545372086829937,"266":-0.0965828703129213,"267":0.1197994788780251,"268":-0.01628274617861744,"269":-0.005023541391089978,"270":-0.013848849686788836,"271":-0.0484738450185628,"272":0.0033063712378088826,"273":-0.00339408085518648,"274":0.006075735765384592,"275":0.00818165512385238,"276":0.003969288295046403,"277":0.029265515522935524,"278":-0.056241660413109434,"279":-0.1551801305619856,"280":-0.02237978618588797,"281":-0.09799429454378318,"282":-0.031396239583106396,"283":0.032207718174255016,"284":-0.03462535778109742,"285":0.029836643605503532,"286":0.008863554258172491,"287":-0.007742825683717525,"288":0.031296100243839164,"289":0.06580553349444192,"290":-0.005217072845199601,"291":0.012461738373846223,"292":-0.0639591948456473,"293":-0.14894654392038464,"294":0.032848705342535124,"295":-0.007604492363670491,"296":-0.251427978877344,"297":0.033527260918891626,"298":0.04885004607494331,"299":0.052586181131488496,"300":-0.03925803759185695,"301":-0.1417379558264434,"302":0.04767765905292346,"303":-0.0734447517797792,"304":-0.03449172062976212,"305":0.09528787718770859,"306":-0.04608123500386539,"307":0.07100277758060117,"308":-0.40226884382714917,"309":-0.0013741810666549367,"310":-0.06474277106062651,"311":-0.1907119593055793,"312":0.004818039390094902,"313":-0.022470814390691773,"314":-0.04196686421924601,"315":-0.024174439116610335,"316":-0.009695618829519501,"317":0.054001870503646285,"318":-0.045523107989310085,"319":-0.019532729850092367,"320":0.1839676015044647,"321":-0.2499100576961816,"322":0.15648005871634824,"323":-0.07384346883152376,"324":0.0821872751204138,"325":-0.10819156767881033,"326":0.13818786739677089,"327":-0.11358859405858662,"328":0.00547038187841863,"329":-0.11524340113623954,"330":-0.09854440204016794,"331":0.13180518726751586,"332":-0.114038938683924,"333":0.045865581669800995,"334":-0.011101729086623255,"335":-0.3378700012037831,"336":-0.05721300067538027,"337":-0.07365230907809579,"338":-0.026025751800123113,"339":-0.05945984628376416,"340":0.05476634179200108,"341":0.09558867683312615,"342":-0.008438020662019109,"343":-0.29231541694585816,"344":-0.052947282969291444,"345":-0.00786246832725529,"346":-0.026673103192762955,"347":-0.07737480345563039,"348":0.1532736847729556,"349":-0.31309859406951873,"350":-0.0226516342533652,"351":-0.03546238255213195,"352":-0.23325163342618846,"353":-0.0865330629281345,"354":-0.012504294953952807,"355":-0.19873047684225853,"356":-0.016636282645007723,"357":-0.5042346141847776,"358":-0.09548672946456965,"359":0.07572461400703707,"360":-0.01816190608639058,"361":0.02816145815227405,"362":0.1326521633626391,"363":0.009023903680492742,"364":-0.03681806259698693,"365":-0.08017854819392796,"366":-0.07110907459640421,"367":-0.06389665234410077,"368":-0.06632589317194557,"369":-0.06708722445886989,"370":-0.022498546932739227,"371":0.063589847158051,"372":0.03852761627356541,"373":0.05306801363034601,"374":-0.14807558546132346,"375":0.06568559302931834,"376":0.053842904924403086,"377":-0.681777194071355,"378":0.013531792467561761,"379":-0.05901948577181782,"380":-0.08314571453074915,"381":-0.1798746553118367,"382":-0.03258197985369556,"383":0.037648896545367586,"384":0.21993141044712147,"385":-0.25046159373750676,"386":-0.05580748922833093,"387":0.19468060695689057,"388":-0.014424787970812984,"389":-0.09436131911167157,"390":-0.047333688212963514,"391":-0.2586004444802406,"392":-0.05349848184376262,"393":0.031572328555183965,"394":-0.06753026314616038,"395":0.1692759967988562,"396":-0.08779404504759554,"397":0.05378736529406541,"398":-0.06904249801424225,"399":0.02342406935226051,"400":-0.11448106168911729,"401":-0.09502411947712149,"402":-0.00015780825917217472,"403":0.043015176758641346,"404":0.10270439508124041,"405":-0.0310346624804012,"406":-0.008043230391451986,"407":-0.26466423087468394,"408":-0.000407580424302297,"409":-0.12430329004045194,"410":0.022446608294590355,"411":-0.06860945465886634,"412":-0.10982501452554456,"413":0.1006222744292327,"414":-0.025835615359058536,"415":-0.15753010698364017,"416":-0.0005946347590828491,"417":-0.34850971215539317,"418":0.016777702371358217,"419":0.059335204186026884,"420":-0.01910925562798668,"421":-0.11623077704415767,"422":0.10885380060395443,"423":-0.11644430731570672,"424":0.07884181620180457,"425":-0.04122342297388262,"426":0.06564779715950265,"427":-0.10669136101723865,"428":-0.13687355444666724,"429":0.019370128712454856,"430":0.004448136024620376,"431":-0.12891817796278562,"432":0.15225193875039167,"433":-0.016309622649816766,"434":-0.024666071313108495,"435":0.018180621321354257,"436":-0.15426757758318388,"437":-0.11136355655803769,"438":-0.006212355356469579,"439":0.34193855925236366,"440":0.004262042323871081,"441":0.0190838233076804,"442":0.06159451247334807,"443":-0.007236346045104556,"444":0.034917992627543824,"445":0.0188444013871522,"446":-0.00445758889424616,"447":-0.2126835063860258,"448":-0.18948839141774107,"449":-0.024371063853098784,"450":-0.028388862553318694,"451":-0.23299721321248762,"452":0.001113006251762751,"453":-0.012993359076820905,"454":-0.022608369388449265,"455":-0.00846746627299567,"456":0.11682837321462836,"457":-0.1084192166915121,"458":-0.003715512388331257,"459":-0.14454294151222621,"460":-0.2651158695460221,"461":0.05562418972662843,"462":0.102617221848838,"463":-0.17940078125882217,"464":-0.10850839084899737,"465":-0.02309782307021109,"466":0.0007016409869992205,"467":0.09052179799791923,"468":0.23070227710421617,"469":-0.023957298533750004,"470":0.029124221158939662,"471":-0.021291000821572894,"472":-0.20272111686685843,"473":0.0204738205846641,"474":0.02686110294531134,"475":0.017619918276132136,"476":-0.15385157844338723,"477":-0.5406569275473826,"478":-0.02509128472447376,"479":-0.07442284804702018,"480":-0.30007200611354534,"481":0.021061025626240664,"482":-0.02399035922618111,"483":-0.03481415789549151,"484":-0.04386528186328583,"485":-0.09761488725238512,"486":-0.011079150567669636,"487":0.005842056860248584,"488":0.003910807338115727,"489":-0.08329430833368251,"490":-0.026377641531710988,"491":-0.2363071036485537,"492":-0.1450326559137629,"493":0.03591382275786588,"494":-0.04100716818517679,"495":0.029502395874646856,"496":-0.008620043354597061,"497":0.007038524701321284,"498":-0.004241140719138465,"499":-0.040817038666515267,"500":0.01563217143613413,"501":-0.0006628916385331567,"502":0.014382013792799167,"503":0.0037845845390724712,"504":-0.4674235545882689,"505":-0.012019714158584336,"506":0.01593367037022625,"507":0.05197421298621029,"508":0.005679353796862375,"509":0.14991061707104433,"510":-0.0007462444381329277,"511":-0.09046225637769292,"512":0.16726892723470993,"513":-0.09630251088138435,"514":0.03548035717430551,"515":-0.1078857900194069,"516":-0.03619446078666893,"517":-0.10762798197777972,"518":-0.22443371559796457,"519":0.29098517867001317,"520":-0.07567940455030919,"521":0.012784262360613445,"522":0.08956526123676876,"523":-0.6206929580586187,"524":0.047227688502018986,"525":-0.06017111714184343,"526":0.05345471881459959,"527":-0.06048599906308755,"528":0.021252324266700918,"529":0.015078900217168602,"530":0.007232528780705367,"531":0.2649940035939911,"532":0.014961380926885967,"533":-0.001389549090354537,"534":0.08444582487391422,"535":-0.46267168648588497,"536":-0.03989986269631769,"537":0.4252931933537114,"538":-0.008958713702699083,"539":-0.012267773225643985,"540":0.10351200131699928,"541":-0.15221325860884294,"542":-0.006361285457698719,"543":-0.0029941764656801085,"544":-0.06916110815656472,"545":-0.0919449714208436,"546":-0.10913699255941192,"547":-0.15767102959652746,"548":0.023581352104419206,"549":1.727925078753252,"550":-0.09522558513880174,"551":0.699968218770304,"552":-1.1607309211794639,"553":-0.030392893206420007,"554":0.11980610828882403,"555":-0.10418297946879447,"556":-0.19351286818445898,"557":0.07462050368278651,"558":-0.1625150457646889,"559":-0.01429512554872585,"560":-0.04587894507508584,"561":-0.19756841288379098,"562":0.008445685397515404,"563":-0.15208387043540655,"564":-0.15122968445352186,"565":0.3765639810183149,"566":-0.07363467666992833,"567":-1.9194785156348326,"568":0.03697174793251756,"569":0.25662663524912555,"570":-0.05129395412992406,"571":-0.12039128822381664,"572":-0.2736424210331838,"573":-0.06533867442864165,"574":-0.03450039355254434,"575":0.058998224451423636,"576":0.03761424130537845,"577":-0.3572083411696821,"578":-0.18115623488440427,"579":-0.08773054316379021,"580":-0.15119483270648867,"581":-0.28942774940757315,"582":-0.6215338727568649,"583":-0.6207727752407052,"584":-1.527325006693409,"585":0.06967667282765666,"586":-0.49373679435587103,"587":-1.5142206018241695,"588":0.015096390934615204,"589":-0.257453322328701,"590":0.08430222488113495,"591":-0.133021554763848,"592":-0.22666187181803144,"593":-0.23413709879323746,"594":-0.006398690035395304,"595":-0.07622856624564149,"596":-0.4537627370774229,"597":-0.09426798402238797,"598":-0.13655414457875378,"599":-0.07741651677240378,"600":-0.5910715335345702,"601":0.0374586238509764,"602":-0.07526040231427084,"603":0.04604737046510533,"604":-0.16146074574146876,"605":0.3938143516099259,"606":-0.0005239514036007718,"607":-0.1329352598997999,"608":-0.07105365811563534,"609":0.10603880097823978,"610":-0.228003060407458,"611":0.07257109182027315,"612":-0.04118474557713532,"613":-0.013102689447864382,"614":0.20927767571009986,"615":-0.12058126303970805,"616":-0.541335696607414,"617":-0.08122621895526903,"618":0.05543512956883123,"619":-0.3002608832113003,"620":-0.4258767286688579,"621":-0.15992388973714003,"622":-0.009661923379847807,"623":2.1929049100050526,"624":-0.21955671342189992,"625":-0.04850552345940822,"626":-0.08625355972503011,"627":0.20540458925437927,"628":0.12695560472221615,"629":-0.1053974755896964,"630":-0.09353914399098966,"631":-0.016981594432260654,"632":-1.505531922577312,"633":0.023447206441876242,"634":-0.06617844325605589,"635":-0.31022574724420826,"636":0.1318421775655602,"637":-1.6328963326471848,"638":0.009665196409275524,"639":-0.22609913855331745,"640":-0.3389212863882002,"641":-0.5031270663130267,"642":-0.2336256167887603,"643":-0.42556307965202683,"644":0.004230323031711128,"645":-0.04372561950085815,"646":-0.14332345309724345,"647":-0.23585387214379253,"648":-0.042704296719651424,"649":0.0027920675803732764,"650":-0.19266997210527176,"651":0.4465527885559855,"652":-0.100547434500531,"653":-0.1789504244192542,"654":-0.08078578947983137,"655":-0.3266967348625686,"656":-0.08264365040877213,"657":-0.48147880147613986,"658":-0.053125041631741685,"659":-0.2544306272120042,"660":-0.030406820500976733,"661":0.12076140768585675,"662":0.20525999262825315,"663":0.019843803977783476,"664":-1.5435357113170494,"665":0.012786252661245496,"666":-0.08745713732760868,"667":-0.5561935151945726,"668":0.05469333980007293,"669":0.14871119998267074,"670":0.04040416258541692,"671":-0.10890223259186667,"672":0.06090683982911753,"673":-0.04202298693685486,"674":0.16705770434841746,"675":0.024371631293563057,"676":-0.057220524474357375,"677":-0.18936465970552763,"678":0.024330290192367286,"679":-0.04129426299969621,"680":-0.022130455357669842,"681":-0.09357660848292748,"682":0.0361948229566239,"683":0.06519157322598744,"684":0.16869652542601765,"685":-0.02912271970363563,"686":-0.16313610787774913,"687":-0.01291279217975554,"688":-0.042780511371708796,"689":-0.6871406617572281,"690":0.05381493221270466,"691":-0.016946293397479096,"692":0.16319426338175788,"693":0.05534744122159563,"694":-0.0466123249802956,"695":-0.0009705277212291287,"696":0.041068219801268235,"697":0.011025324399080725,"698":0.05726150270103452,"699":-0.1407811002873726,"700":-0.16549600534422748,"701":-0.04933099452573079,"702":0.02783199687588492,"703":-0.35181057485011974,"704":0.03530579913527275,"705":-0.0001610072301989656,"706":-0.37440776551363236,"707":-0.4459850804999486,"708":0.0004763391104053322,"709":-0.034965729457182515,"710":0.020113059275567634,"711":0.014476162334541218,"712":-0.050974044330543485,"713":-0.1461508920854623,"714":0.032825306983114616,"715":-0.11110915413037796,"716":-0.30800683287041153,"717":-0.12490130808805756,"718":-0.19539076586815615,"719":-0.12740819267437148,"720":-0.025036934129052286,"721":-0.051612561821858534,"722":-0.17417597877920232,"723":-0.04166862357664042,"724":0.21529085744179408,"725":-0.05372181996163807,"726":0.01730471463887214,"727":0.007198283734186222,"728":-0.27273120125362554,"729":0.0009062172790684984,"730":-0.10069775553207244,"731":-0.06725294193697888,"732":-0.01261250357493282,"733":-0.012951736830114618,"734":-0.0024393743869951245,"735":-0.14002188542242391,"736":-0.06019905228263226,"737":0.018074778976948824,"738":-0.01928848491688714,"739":-0.041795791086796985,"740":-0.03347745008030988,"741":0.000994639456109666,"742":0.07214515183763802,"743":0.0033987378987920184,"744":-0.08257642133495642,"745":-0.08388275707230002,"746":-0.003812432833080003,"747":-0.0817685090135946,"748":0.06952919410427444,"749":-0.007778615262585413,"750":-0.07465522687144796,"751":-0.013841151548276387,"752":-0.07455105592089203,"753":0.043493705463067994,"754":-0.04730387939093873,"755":-0.11852932557642519,"756":0.011750618132104587,"757":-0.11237979526253444,"758":0.011677885843813362,"759":-0.049895998693519204,"760":-0.08087598456301903,"761":0.05573403201892889,"762":0.013262487007450464,"763":0.006148260055156828,"764":0.00263183980456685,"765":-0.04560619997640535,"766":-0.05865327610176065,"767":0.02193430212352617,"768":-0.44166335688608355,"769":-0.1499209859525813,"770":-0.02996137318408817,"771":-0.04164504370726641,"772":-0.0013751537536736784,"773":-0.02400794326493336,"774":0.39477049790414276,"775":0.12334633468805731,"776":-0.1251355305174619,"777":-0.01596217971840357,"778":-0.46120491081112586,"779":-0.052146054360121756,"780":0.2730081109254985,"781":0.04657342947995224,"782":0.023211268612756204,"783":-0.15734576541187856,"784":-0.013419711360696331,"785":-0.02532800624421918,"786":-0.023790693939222302,"787":-0.13571387357021175,"788":0.08929820480272345,"789":-0.03239123597430759,"790":0.02131767089415384,"791":-0.05131764776921138,"792":0.023314222829443343,"793":-0.0038916804068521963,"794":-0.17645700145358154,"795":-0.0029536465605283714,"796":-0.009737067272238633,"797":-0.040872585253742086,"798":-0.10359068972771884,"799":0.013629262385831807,"800":-1.1026251021206894,"801":0.006330807934248596,"802":-0.05748135617051538,"803":-0.26497149011378857,"804":-0.11367882289721089,"805":-0.05995362138631329,"806":-0.05040105663610266,"807":-0.12089294669105839,"808":-0.08316255593298681,"809":0.029910732817731205,"810":-0.017655256667110583,"811":0.018116559540658564,"812":-0.1263750849530901,"813":-0.08481996149452174,"814":-0.046879541790428886,"815":-0.10462208380429114,"816":-0.030950487269654246,"817":0.8023234780713391,"818":-0.005184367603525079,"819":-0.08206789423590351,"820":0.6914470900506309,"821":0.007077072584701461,"822":0.0571901198931316,"823":-0.053526348136427315,"824":-0.07125084330304225,"825":0.03428124755951234,"826":-0.026762993309325966,"827":-0.07062471581694758,"828":-0.05277445560322185,"829":0.03609470339130682,"830":-0.11142324099361138,"831":0.11850301354283324,"832":0.27491261803076583,"833":0.4541012413060242,"834":-0.01774552893426142,"835":-0.4372427098990754,"836":0.06477917944520586,"837":-0.06005308475525077,"838":0.45264822272880795,"839":-0.43223716890489383,"840":-0.14681198291365588,"841":-0.0594688918397943,"842":-0.3242044598602438,"843":0.029977225616779863,"844":-0.011198058169243524,"845":-0.05722024868389346,"846":-0.09178338432500657,"847":0.01738449338699125,"848":0.36585567306427963,"849":-0.6346923924244249,"850":-0.3386781954983934,"851":-0.008087790529544371,"852":-0.47730451078379904,"853":0.025181739039742874,"854":0.019612860725577528,"855":-0.018186394496609106,"856":0.007421735895217065,"857":-0.15681156098271182,"858":-0.349111295108291,"859":-0.4432915744539326,"860":0.0019088127495153824,"861":-0.06250469290018372,"862":-0.03006454307187382,"863":-0.3420698103149719,"864":0.26753453805159655,"865":-0.026028171816424927,"866":0.15124476781123633,"867":-0.3768924697615358,"868":-0.2115208149248269,"869":0.5154563150821571,"870":-0.06876996460171038,"871":0.05560646822995404,"872":-0.1776880308126046,"873":0.43449960634139473,"874":0.02195858817087954,"875":-0.13647491282905824,"876":0.1815424823594361,"877":-0.2501979171636413,"878":-0.22177622732545166,"879":-0.20622058921657963,"880":0.7671464158691351,"881":-0.14919959787912115,"882":-0.20364616084098533,"883":0.12286816058982929,"884":-2.0135662136259085,"885":-0.347675787418616,"886":-0.14628310630135744,"887":-0.05900243186957697,"888":-0.03574049136113852,"889":0.0597093831053493,"890":0.05818435598757993,"891":-0.5803041184337698,"892":0.06633295137173618,"893":0.20100570174415106,"894":-0.024616091869485948,"895":-0.26942241733051286,"896":0.4958160498769542,"897":-0.18730137389619364,"898":-0.054160357626004095,"899":-0.10724085621426811,"900":-0.10443981601096629,"901":-0.2605722851942488,"902":-0.0788668328018864,"903":-0.18745411589029726,"904":0.07489686770681572,"905":-0.048476058680753546,"906":0.2837815528380337,"907":0.03257696728741973,"908":-1.163177367537642,"909":-0.3886191512815137,"910":-0.17952040345174083,"911":0.011764428698998136,"912":-0.1264909261394579,"913":0.009109427902039518,"914":0.09537135702082607,"915":0.16191613277478606,"916":-0.08210616167570821,"917":-0.03396560608795825,"918":-0.12435702849812719,"919":0.037763705867268044,"920":0.049606994187676036,"921":-0.07503957352304551,"922":-0.16275815908383398,"923":-0.41328705317151165,"924":0.031994602873233656,"925":-0.05927784515878088,"926":-0.06112166173044573,"927":0.11487468678712201,"928":-0.17940083740978655,"929":0.03193965038486064,"930":-0.2250077053519233,"931":-0.01140108060656171,"932":0.25928391414597723,"933":0.015111538895222643,"934":-0.05711550730143942,"935":-0.018226680171866308,"936":0.18281740795748358,"937":-0.11134315908851612,"938":0.059387670408152834,"939":-0.10901418240691346,"940":0.10618505224382632,"941":-0.36589550690254896,"942":-0.28787360059090195,"943":0.009778180116458157,"944":-0.006487788693286957,"945":0.004772616323467156,"946":-0.005000570824552802,"947":0.052655049214185144,"948":-0.22125936495383267,"949":0.3627101490116238,"950":-0.025971068986469774,"951":-0.10673237911364877,"952":0.00011191988458733048,"953":-0.05403873778491314,"954":-0.09070733229178046,"955":-0.011005639710483633,"956":0.1907772761361045,"957":0.06153866432097301,"958":-0.056481978635858215,"959":0.016055686544813402,"960":-0.11672739275442971,"961":0.00165800081274921,"962":-0.5611762623527602,"963":-0.06319246824359254,"964":0.021418522632941635,"965":-0.008739149293451194,"966":-0.060921388850526434,"967":-0.017807619088784987,"968":0.09808939379298226,"969":-0.13956945800137396,"970":-0.008498450681183175,"971":-0.1687148829044043,"972":0.35353800623212345,"973":0.02060587043317496,"974":-0.3158939579174057,"975":-0.029757447984210858,"976":-0.009294531506825496,"977":0.0443732939669098,"978":-0.23883453842224428,"979":0.061655822656993646,"980":-0.06582894313569042,"981":-0.15252771435829432,"982":-0.002786311883442275,"983":0.004190190044014342,"984":-0.06263281316880963,"985":-0.019885300647337487,"986":0.24607711724076015,"987":-0.011518194426895624,"988":0.13509238385882402,"989":-0.07250530637875786,"990":-0.04142508531122317,"991":0.07213853976296501,"992":0.039768890736792635,"993":0.043133353420962244,"994":0.044287553028369044,"995":-0.007890083587826143,"996":-0.03409221284377776,"997":0.010930400238318564,"998":-0.03379409943534235,"999":-0.005096624583911227,"1000":0.030634060298896315,"1001":0.06545798112686982,"1002":-0.013215322630634388,"1003":-0.12646788691354235,"1004":-0.028442862642511346,"1005":0.004016605462630026,"1006":-0.06848190126873449,"1007":-0.020271151294268257,"1008":0.03256098283022587,"1009":0.014549792826132196,"1010":-0.35964119619757495,"1011":0.15578243087287613,"1012":0.00031647176414655373,"1013":-0.16076387274687753,"1014":-0.011940840483900508,"1015":0.02954428068796549,"1016":0.05728792409709586,"1017":0.02576829013834682,"1018":0.056430729013911475,"1019":0.032199754876028476,"1020":0.01621608051384782,"1021":0.043441949228446936,"1022":-0.002657403084230134,"1023":-0.01762979048067244,"1024":-0.14662867297659357,"1025":-0.018585878755668254,"1026":0.05237428279923716,"1027":-0.22061679755009658,"1028":0.0793870404531359,"1029":-0.05487827860523858,"1030":-0.20492989828480637,"1031":0.36474301433457385,"1032":0.05768119866668416,"1033":-0.004634871779624531,"1034":-0.3641334100896717,"1035":-0.9872853437164102,"1036":-0.010662760743285343,"1037":-0.26811123973197293,"1038":0.044036896657448484,"1039":0.018535061315227617,"1040":-0.011960651417897029,"1041":0.023828377875332665,"1042":0.011999645392879055,"1043":0.5713197908942926,"1044":0.054055552144715295,"1045":-0.0029343998977275267,"1046":0.3561724128249846,"1047":-0.09180815945269923,"1048":0.016581571615389607,"1049":-0.3140799237077459,"1050":0.03312851711378266,"1051":0.003465619195357742,"1052":-0.022109230111125124,"1053":-0.03484387649928,"1054":0.11010209840609579,"1055":0.02255323601656032,"1056":-0.5033163796381155,"1057":-0.20828162033565095,"1058":-0.042969566572548724,"1059":0.11509270731513861,"1060":-0.07184359789628177,"1061":-0.11842025304927141,"1062":-0.034994578868508576,"1063":-0.4066762583445251,"1064":-0.0051177949321978234,"1065":0.01307908422934702,"1066":0.17346178935520126,"1067":-0.24483529144193497,"1068":-0.1479253033579464,"1069":-0.3545916369750376,"1070":-0.06215832456772613,"1071":-0.31843081037658094,"1072":-0.05682382548243709,"1073":0.044521570595691694,"1074":-0.020523262537502935,"1075":-1.5590359297389649,"1076":-0.18156030801182504,"1077":-0.20401714343504118,"1078":0.3143287981073426,"1079":0.029570767863376146,"1080":-0.012947512614734657,"1081":-0.12390618521923348,"1082":-0.08831681343287678,"1083":0.0003049383198400865,"1084":0.22234185979437546,"1085":-0.3517048448258482,"1086":0.06620516143948567,"1087":0.010951325884893611,"1088":0.0421018314523681,"1089":-0.13831618614703864,"1090":-0.1117318680342682,"1091":-0.02086452795244151,"1092":0.1030031981567158,"1093":0.12893257551828147,"1094":-0.14167623190666623,"1095":0.12214863200321546,"1096":0.06581059044795232,"1097":0.02966559342824672,"1098":-0.03683676489890827,"1099":-0.7173077624474725,"1100":-0.03891613975088336,"1101":-0.7190650454312545,"1102":-0.14675308308627266,"1103":-0.051364142282614225,"1104":-0.006009969983219638,"1105":0.07389442227126958,"1106":-0.4895329056709713,"1107":0.14622136804923677,"1108":-0.0750946586876351,"1109":-0.1081339153999719,"1110":-0.04306052882881529,"1111":-0.09664717478138904,"1112":0.08713363151036038,"1113":-0.027626909006372647,"1114":0.23480975052065411,"1115":-0.4319358162514447,"1116":-0.026879033218614873,"1117":-0.3954133460813023,"1118":-0.005761403295196118,"1119":0.00009542402393473428,"1120":0.07518281975018339,"1121":-0.010924756890341393,"1122":-0.16028211508408652,"1123":-0.03629825591187048,"1124":-0.1472469450470275,"1125":-0.15433254179177142,"1126":0.2041648198025654,"1127":-0.30925118993520184,"1128":-0.2268779127081554,"1129":-0.0052954130819862074,"1130":0.12581599019922848,"1131":-0.011672757270380547,"1132":0.08234477183424807,"1133":0.10141995361769802,"1134":1.0582258077491709,"1135":-0.33605856227141206,"1136":-0.1100151489901681,"1137":0.011169296180869558,"1138":0.025716273322743555,"1139":-0.03823079271950522,"1140":-0.11888772511222526,"1141":-0.16727999063314197,"1142":-0.07147777885658882,"1143":0.11773373648007507,"1144":-0.1145923430990704,"1145":-0.23233770846920485,"1146":0.18367427114570964,"1147":0.03251705314797956,"1148":-0.520672335517141,"1149":-0.22725915608218927,"1150":0.017304735852411962,"1151":-0.14618682995829452,"1152":-0.15347745949595198,"1153":0.16504662337316345,"1154":-0.17913140556468876,"1155":-0.24831855481811335,"1156":0.07711867278442472,"1157":-0.056856585773915905,"1158":-0.06377020598722612,"1159":-0.014633718319430474,"1160":0.0013899123492461837,"1161":-0.2915043553011721,"1162":-0.16723502121635145,"1163":0.30496064108213977,"1164":0.4176427234659527,"1165":-0.08510507718261759,"1166":-0.20664690637927707,"1167":-0.07003691395887067,"1168":-0.01792129285314487,"1169":-0.028782302523928733,"1170":-0.08332035406989456,"1171":0.08700893095247428,"1172":-0.0706689940650201,"1173":-0.03216720127491605,"1174":-0.05135839936414541,"1175":0.1527219071861291,"1176":-0.1231186956054693,"1177":0.0007597122596340851,"1178":0.014943218311895393,"1179":-0.3674054669829477,"1180":-0.09656164424228487,"1181":0.1635634010836016,"1182":0.04517453436299987,"1183":-0.1945386118640814,"1184":0.25071102181171534,"1185":-0.2890765102049684,"1186":-0.05341010433080338,"1187":0.15301887536256065,"1188":0.06143613821012004,"1189":-0.23997983533910802,"1190":0.06327389719153886,"1191":-0.037688983350902504,"1192":-0.19502414038240654,"1193":0.01800076556951192,"1194":0.26552723813900897,"1195":-0.15192998765018556,"1196":-0.8690254548450964,"1197":-0.005815066432966213,"1198":0.019101802219974616,"1199":0.09226025569097229,"1200":-0.04662342470365183,"1201":0.05388491498675852,"1202":-0.23805081282706003,"1203":-0.12916071035284607,"1204":0.08766265001251217,"1205":0.25291213245449506,"1206":-0.0076722276702344185,"1207":-0.279357217887509,"1208":-0.2328100236723243,"1209":-0.019259100434866075,"1210":-0.26720677288778083,"1211":-0.030156752260851176,"1212":0.00884107563538139,"1213":-0.4773987897676485,"1214":0.023827937124201632,"1215":-0.015306254641321081,"1216":0.0016325592976449666,"1217":0.005591869144887166,"1218":0.006130985406253577,"1219":0.0622303632045402,"1220":0.04166217002187634,"1221":-0.017133601075291886,"1222":-0.02774169763427185,"1223":0.020978934482848495,"1224":0.26541968120786774,"1225":-0.0652867740971875,"1226":-0.012781542667819569,"1227":0.023651525728975074,"1228":0.3001278486508793,"1229":-0.011822331315722428,"1230":-0.03745322804965548,"1231":-0.01502286204352694,"1232":-0.0086179718747895,"1233":0.0037251759161432123,"1234":-0.4951057617985047,"1235":-0.017605051710339742,"1236":0.2770179875384345,"1237":-0.08681904157423963,"1238":-0.002263630994910992,"1239":0.03464675778692582,"1240":-0.1819856329520061,"1241":-0.15239217143697506,"1242":-0.010934891993539057,"1243":0.16531992097809228,"1244":0.08946259626857991,"1245":-0.028269706062026494,"1246":-0.036929582950860504,"1247":-0.009702316553450305,"1248":-0.11195698560782963,"1249":-0.01378855217825334,"1250":0.01813679176804081,"1251":0.03638095058051445,"1252":0.009230121189056358,"1253":0.010880431896030133,"1254":-0.06265555315150083,"1255":-0.07417244779649397,"1256":-0.007081450583866603,"1257":-0.022902872343174542,"1258":0.031283020846462485,"1259":0.04140774131004046,"1260":0.08092304825218677,"1261":-0.020639018685042632,"1262":-0.04060789710637357,"1263":-0.360151796192888,"1264":-0.07859319384302152,"1265":-0.011536172581769399,"1266":0.35549543351577023,"1267":-0.3545818025235811,"1268":-0.008972604085497164,"1269":-0.011109275759484583,"1270":0.004001118001902841,"1271":0.010170800845829088,"1272":-0.05340109110246733,"1273":-0.004841555930363702,"1274":-0.017006349017062238,"1275":0.0014252037140611718,"1276":-0.00784656547127018,"1277":-0.14919486699463116,"1278":-0.010531196667752162,"1279":-0.03191907881567682,"1280":-0.4588183767830175,"1281":-0.23149757015974182,"1282":0.007873294371300663,"1283":0.3477461318054247,"1284":0.7516248514520557,"1285":-0.3756871148900496,"1286":-0.2844380979124802,"1287":-0.00818500236242271,"1288":-0.34919763511586704,"1289":0.013142179577614911,"1290":-0.14616496825235545,"1291":0.3444002080922614,"1292":-0.003039900507828718,"1293":-0.02732383753290722,"1294":-0.012085782061387204,"1295":-0.029756370145891928,"1296":-0.016511524553097012,"1297":-0.0316368888053117,"1298":-0.004591866805956853,"1299":-0.04235263494646777,"1300":-0.07594104595700052,"1301":-0.03825907221415365,"1302":-0.037812054318861095,"1303":0.1474558693309373,"1304":-0.047595099239765425,"1305":-0.6803550807750027,"1306":-0.015442732657990456,"1307":-0.02028566304910321,"1308":0.09282656090592838,"1309":0.30238432895090295,"1310":-0.06494749673861931,"1311":0.03594918687354044,"1312":0.15081057871645373,"1313":0.034332270003403616,"1314":-0.01793084501562488,"1315":-0.024044268093158905,"1316":0.1705499875061571,"1317":-0.3997178451023525,"1318":-0.3129150506059152,"1319":-0.0466686593677174,"1320":-0.2813893531292746,"1321":-0.00350147039805313,"1322":0.5031359103763858,"1323":-0.7480473723007766,"1324":0.33048031448604154,"1325":-0.2623119269649831,"1326":0.0203195874144864,"1327":-0.1625959931230926,"1328":-0.026655272575889018,"1329":-0.07332667924774561,"1330":-0.004447197464902407,"1331":0.05951094760491434,"1332":0.1239695075712228,"1333":-0.08099910933214122,"1334":-0.03039218193618133,"1335":-0.4316584587497437,"1336":-0.01891420491585901,"1337":-0.013861544793730068,"1338":0.10973441677606245,"1339":-0.024835080634059665,"1340":0.011358097656742179,"1341":-0.21715247801558482,"1342":-0.00663868974783607,"1343":-0.011359535593361725,"1344":0.4169546805725956,"1345":-0.3102427128813187,"1346":-0.02314746543986554,"1347":-0.11239413690004454,"1348":-0.15387543579581664,"1349":-0.38014451979699393,"1350":-0.15444538449264142,"1351":-0.16752159321310853,"1352":-0.21279056742607455,"1353":-0.03580686864984712,"1354":0.43867936016620257,"1355":0.13518072466141007,"1356":-0.6747562871346938,"1357":-0.023377677706733744,"1358":-0.1160949876506629,"1359":-0.061801004977238845,"1360":0.21742410521940547,"1361":0.06257613266890617,"1362":0.7427167344541904,"1363":0.13263721688154154,"1364":0.07008287639691099,"1365":-0.40371675062075635,"1366":-0.11203323874053518,"1367":-0.5665488771958301,"1368":0.1431029590131754,"1369":0.21064319599091344,"1370":0.15690627027541532,"1371":-0.10482369841941959,"1372":0.23398404855011234,"1373":0.06242732851238469,"1374":-0.058713113190352904,"1375":0.39210924968807703,"1376":-0.35688603877520325,"1377":-0.3463867087625397,"1378":0.07019239530317602,"1379":-0.13780821707971055,"1380":-0.021776309359594327,"1381":0.5120612804235951,"1382":0.18109112575424252,"1383":-0.045593775518781084,"1384":0.5762295271706982,"1385":-0.1129893672040685,"1386":1.0758393581404448,"1387":-0.6045464617729988,"1388":-0.23648427798643368,"1389":0.06393381831042484,"1390":-0.04686923871133722,"1391":0.28531266795243765,"1392":-0.09306565768094617,"1393":-0.10784490318332512,"1394":-0.08234643778978222,"1395":-0.20902770020993908,"1396":-0.0007113299795613511,"1397":-0.42405606985121974,"1398":-0.06688377445402857,"1399":-0.38785437212273144,"1400":0.09612659785223278,"1401":-0.37067726216811764,"1402":0.13964693036868567,"1403":-0.06029663761388802,"1404":0.15744836832494774,"1405":-0.12230236821026742,"1406":0.00737130109297033,"1407":-0.01245743992284279,"1408":-0.37021959853090397,"1409":-0.33887720798670956,"1410":-0.01811667656543187,"1411":-0.04371757456065994,"1412":-0.07596060247179688,"1413":1.3630725239627726,"1414":0.3084152420566997,"1415":0.10982710519671181,"1416":-0.5703754592477035,"1417":-0.11422895210774058,"1418":-0.558590797020234,"1419":-0.42342766855446495,"1420":0.34180028797015205,"1421":0.03185098452834564,"1422":0.07505492609093792,"1423":0.26974125833187923,"1424":-0.28956220325849547,"1425":-0.19677297913660804,"1426":-0.1433810244394043,"1427":-0.16041132752022036,"1428":-0.22093738958324705,"1429":-0.28661412413954906,"1430":0.034215144094855016,"1431":-1.0321287490714421,"1432":-0.33706184037674314,"1433":-0.611128614815302,"1434":-0.2509548138371938,"1435":-0.07586411898341286,"1436":-0.5670097242892987,"1437":-0.4136770307195119,"1438":-0.03366025457589619,"1439":0.24285699505214817,"1440":0.2102098616412661,"1441":-0.03364003944482307,"1442":-0.09604200661391883,"1443":-0.013628662578453674,"1444":-0.011762839795366133,"1445":-0.07605167110638374,"1446":-0.2904848226444059,"1447":-0.3818172379411619,"1448":-1.5020088805036271,"1449":0.12921896446645945,"1450":-0.45812735563455326,"1451":-1.9918592147641774,"1452":-0.5564650758749846,"1453":-0.1579125657356528,"1454":0.1512364345901407,"1455":-0.5790550645886271,"1456":-0.36265162667104556,"1457":-0.18811794263274298,"1458":0.06958417123727337,"1459":-0.04191378975755735,"1460":-0.4650270789470736,"1461":0.06982827039947614,"1462":-0.07140399524421548,"1463":-0.16234047857232786,"1464":0.6747003014878967,"1465":0.023567180319881056,"1466":0.14592858890514268,"1467":0.0037812023392215905,"1468":0.05497729305595224,"1469":0.8191812820271223,"1470":0.009568484094075904,"1471":-0.004112027029440279,"1472":-0.2844760752738107,"1473":0.00759495543310966,"1474":-0.21449338537944312,"1475":-0.1356699114726221,"1476":-0.03298188518314727,"1477":-0.06460472381515651,"1478":0.024396718018833866,"1479":-0.08191072998946305,"1480":-0.6392527549373562,"1481":-0.06635730467200751,"1482":-0.0022009826386964683,"1483":-0.7618641433558092,"1484":-0.7117800552147644,"1485":0.03302495165352926,"1486":0.07552760871263595,"1487":2.260934990702676,"1488":-0.23396676619261178,"1489":0.007962627132574517,"1490":-0.07404390549055058,"1491":0.08267219456969037,"1492":0.18706090438218173,"1493":-0.11728453591045766,"1494":-0.012250713203079272,"1495":-0.026610746410783735,"1496":-1.8415488575694818,"1497":0.027154370492150626,"1498":-0.05549222122995203,"1499":-0.04386528746100271,"1500":0.08770749491455285,"1501":-2.417621729000262,"1502":0.025489541401517248,"1503":0.021880435776027392,"1504":0.09472391342800507,"1505":0.006017379715554198,"1506":-0.07409670546984386,"1507":-0.0029556744604193564,"1508":-0.02117335972392388,"1509":0.02611172293984611,"1510":0.06180085819587621,"1511":-0.008751647212367014,"1512":-0.02869071625294589,"1513":0.3883110778542815,"1514":0.021678134284788864,"1515":0.5201474424054717,"1516":0.21113152143108113,"1517":-0.019497397294119184,"1518":-0.015536272212020088,"1519":-0.5950169142490548,"1520":-0.1924298178899242,"1521":0.030068036118544347,"1522":-0.12857696012626077,"1523":-0.49297571373751603,"1524":0.050184399684843534,"1525":0.062163136858977834,"1526":0.004323739744578244,"1527":0.009531511434517427,"1528":-2.565381889230104,"1529":0.028550734330074344,"1530":-0.004186397031929976,"1531":0.0018131347767094937,"1532":-0.0007349315460957948,"1533":0.40115980158534287,"1534":-0.022481814522310607,"1535":0.18202542698679866,"1536":0.15643622562752946,"1537":-0.05668880061484554,"1538":0.0005664495533855815,"1539":-0.0313330610088537,"1540":0.025652604517885206,"1541":-0.0008734345004428208,"1542":-0.15006707175948697,"1543":0.05814405185116114,"1544":0.03178473074538646,"1545":-0.021800811547942705,"1546":-0.28532638895881385,"1547":-0.020325121879684178,"1548":-0.10127333505437912,"1549":-0.020270010844182323,"1550":0.004716890485216185,"1551":0.0682424987636709,"1552":-0.018652683259356914,"1553":-0.19011808681909492,"1554":-0.023258295479088177,"1555":0.0864184002210585,"1556":-0.0382813628750602,"1557":0.017569999052581373,"1558":-0.03243493928908029,"1559":0.006850332735054213,"1560":0.032082251262616365,"1561":-0.030883693600226428,"1562":-0.061354067647589376,"1563":0.030918984632433283,"1564":-0.020490199749550207,"1565":-0.11692063320931016,"1566":-0.030289214680638228,"1567":0.027176004949020192,"1568":-0.5449892316489072,"1569":-0.12223515398925186,"1570":0.020759209800810464,"1571":-0.08407995132641437,"1572":0.01942033163799836,"1573":-0.039301554487036476,"1574":-0.12479174970186117,"1575":-0.0059064095063207245,"1576":-0.017037181087112687,"1577":0.0075865050759117494,"1578":-0.2618130831304626,"1579":0.06517845990205066,"1580":0.345367662291155,"1581":-0.18679189168284588,"1582":-0.008651605714280882,"1583":-0.07157442602095407,"1584":-0.0017968059198425034,"1585":-0.29693455672936553,"1586":-0.011913458679572681,"1587":-0.2755345707168881,"1588":0.38019614698922927,"1589":-0.010539749040952277,"1590":-0.06262879432235659,"1591":-0.027377017957933344,"1592":-0.026320616894260015,"1593":-0.040076183184750674,"1594":0.18468588583630233,"1595":-0.4650152344839551,"1596":-0.04828157039530006,"1597":0.2023208105598557,"1598":-0.010820694217265144,"1599":-0.05446833179671659,"1600":-0.5882022584934006,"1601":-0.045437915177396045,"1602":0.08411392550800872,"1603":-0.15170648580540325,"1604":-0.14988979167212657,"1605":-0.1372538727938821,"1606":0.0429731851022525,"1607":-0.20340920214616384,"1608":-0.08848342520839553,"1609":0.4380503517606479,"1610":0.07156292560458406,"1611":-0.009133716188260458,"1612":0.07555964434045344,"1613":-0.33769761187880726,"1614":-0.04780123116995908,"1615":-0.04646615031468548,"1616":0.2247362141588402,"1617":-0.3777011777770851,"1618":-0.08674998710460916,"1619":0.018053380805912757,"1620":0.5599316693086734,"1621":-0.043835975050451864,"1622":0.1844387046670143,"1623":-0.01708314120930397,"1624":0.0054224299294356095,"1625":0.0024741683304564535,"1626":0.011405036186082962,"1627":-0.3325742903584931,"1628":0.2970844048024524,"1629":-0.07047047177026874,"1630":0.031268765634856116,"1631":-0.011146519424273965,"1632":0.4257999689154514,"1633":0.04940086160620574,"1634":-0.19170537296657983,"1635":0.3310708523711574,"1636":-0.15524811775121758,"1637":-0.1729246072252424,"1638":-0.1013337125616433,"1639":-0.17600911740357025,"1640":-0.006853551279276721,"1641":-0.2553685116532356,"1642":0.014742798962108892,"1643":-0.03309389498930967,"1644":-0.1918208159507138,"1645":-0.08785041488675085,"1646":-0.0349421476168729,"1647":-0.05883501303151067,"1648":-0.3810080493067941,"1649":0.3185145632713449,"1650":-0.16663881447746923,"1651":-0.3152869625302512,"1652":-0.1799572495012278,"1653":0.03801480710669019,"1654":-0.047690516295761785,"1655":-0.008437520834827919,"1656":-0.006729319732038058,"1657":-0.013703426106880773,"1658":0.12497925935175333,"1659":-0.1755773014534428,"1660":0.40198100779322893,"1661":0.0035767836115355336,"1662":0.014428569143249574,"1663":-0.13577753131910542,"1664":-0.7937587771346908,"1665":-0.18244505932964353,"1666":-0.5204222842315847,"1667":-0.04231348502737351,"1668":-0.26460159366927777,"1669":0.038592412568112563,"1670":-0.5022684945429877,"1671":-0.15608383061757092,"1672":-0.05695462903939773,"1673":-0.25227159755175144,"1674":-0.2817236955373408,"1675":-0.02824961182782576,"1676":-0.18789442769333523,"1677":0.04854033722552648,"1678":0.020852991132236397,"1679":-0.1103487087452827,"1680":-0.21064895335103065,"1681":0.31682838652966644,"1682":0.08564613768259997,"1683":-0.500665866523955,"1684":0.15889093572902968,"1685":-0.04791184296847752,"1686":0.2797421049938468,"1687":-0.03681915984587324,"1688":0.055766846415412206,"1689":0.00832184444946055,"1690":-0.03252551804393705,"1691":-0.05385207504602034,"1692":-0.3515056046346031,"1693":-0.0694657352343739,"1694":-0.00944170268858223,"1695":0.7836551743228569,"1696":-0.11042568193414609,"1697":0.170281931700503,"1698":-0.4417404826691245,"1699":-1.1317973210399395,"1700":-0.07117323747260397,"1701":-0.03880033043483483,"1702":0.35089028811613376,"1703":0.031242069082737616,"1704":-0.12642818559326363,"1705":0.17273272000246875,"1706":-0.5781489317735118,"1707":0.01466221247282477,"1708":0.30073886180678766,"1709":-0.31920648181705946,"1710":0.033895960849206506,"1711":0.01391607801043434,"1712":-0.12467623402193062,"1713":-0.48224978229193033,"1714":-0.13001000015091826,"1715":0.084651381398744,"1716":-0.39164578640092595,"1717":-0.013084128423832851,"1718":-0.0554607455131664,"1719":-0.04915079394621549,"1720":-0.019206412882859968,"1721":-0.0004863947715216329,"1722":-0.2898651120273767,"1723":-0.5514649973523141,"1724":-0.16421894996043554,"1725":-0.060574709389759625,"1726":0.0011899823216833545,"1727":0.09941487563883251,"1728":-0.027880841270022726,"1729":-0.030135133977809033,"1730":-0.1351740490654314,"1731":-0.7132626093414813,"1732":-0.008682504493849004,"1733":0.9940163041827808,"1734":0.20467265204246646,"1735":-0.09040124859966135,"1736":-0.07697515368512085,"1737":0.37033297282256994,"1738":0.02934838971475619,"1739":-0.006829487844561431,"1740":0.03188648624532084,"1741":-0.04722397970210472,"1742":-0.11093246146953101,"1743":0.04155368691423817,"1744":1.2651526830228592,"1745":-0.07814385694242086,"1746":-0.07671544386067881,"1747":-0.05985881852145152,"1748":-3.8737105061749477,"1749":-0.05604062460362472,"1750":0.0050066621549009595,"1751":0.01280736145471177,"1752":-0.026384264821794946,"1753":0.07603027874588181,"1754":0.14677370566364714,"1755":-0.019142662764189192,"1756":-0.005432978576381351,"1757":0.01759182855538274,"1758":-0.010673104011538237,"1759":-0.21455577032176656,"1760":-0.006485499035130596,"1761":0.002775629677071874,"1762":-0.022224539390076237,"1763":-0.23599552875528595,"1764":-0.04074653709827324,"1765":-0.620408369365903,"1766":0.014381145249325145,"1767":0.11612837557551843,"1768":-0.03130948866999009,"1769":-0.316103925411411,"1770":0.006517933498960152,"1771":0.0211462292138455,"1772":-1.3199953985526645,"1773":0.0011413899874510326,"1774":-0.025591216058575166,"1775":0.007518747996579264,"1776":-0.24776610108389716,"1777":0.0004079441389042634,"1778":-0.26577008579717243,"1779":0.28516170807947017,"1780":0.02476454810758327,"1781":-0.015978670380917104,"1782":0.00885266981005133,"1783":-0.009957086436256563,"1784":-0.01099987612477308,"1785":0.007752635916104701,"1786":-0.030542592948245625,"1787":0.014648516592196225,"1788":-0.009415879182988567,"1789":0.050844695676084406,"1790":0.024165845901507728,"1791":0.41976005312619646}},{"sx":1,"sy":1,"depth":1792,"w":{"0":-0.12639628321767332,"1":0.17180218568754765,"2":-0.0027808925502370457,"3":0.025329948157689092,"4":0.030887080497448583,"5":0.06452031322726494,"6":0.1553796381033579,"7":-0.026554569796067313,"8":0.24486449307130043,"9":0.022491202686532086,"10":0.004508920381192501,"11":-0.09271147337533191,"12":0.040579821010794,"13":0.01909133145103426,"14":0.021968552509460105,"15":-0.03546682888684912,"16":0.013122017661592635,"17":0.0013025107232025434,"18":-0.027786134890358697,"19":0.045408275341941313,"20":0.13759489445318765,"21":0.04865302162266803,"22":0.010568952129755558,"23":-0.10384181827065919,"24":0.052570106394225435,"25":-0.17708840673067305,"26":0.00869397451179679,"27":-0.008524940353800185,"28":-0.0091853235028388,"29":-0.016678754136786544,"30":0.016950148865931523,"31":-0.0026150463665354303,"32":0.3286048342579834,"33":0.37136561055585066,"34":0.019677190051082608,"35":-0.10198015952990679,"36":0.009476845955179235,"37":0.17470025700657144,"38":0.08223980924401539,"39":-0.0008076399836453252,"40":0.08672920092053141,"41":0.012411660911164052,"42":0.0019038959022588248,"43":-0.29486802820682495,"44":0.07515153203087045,"45":0.16140066483794424,"46":0.02563515674983324,"47":-0.01597629108857135,"48":-0.03748903437578622,"49":-0.1299478841714222,"50":-0.006823597358790429,"51":0.038752946996285245,"52":0.32540649354452156,"53":-0.00801089995980175,"54":0.06620840235783898,"55":-0.0823544808843948,"56":0.03367388139315538,"57":0.320506725520177,"58":0.03766430687956618,"59":0.007226681438970973,"60":0.053250519215786156,"61":-0.21621810738636016,"62":0.03048347201724807,"63":-0.012420436331118426,"64":-0.028793295439237955,"65":0.42973080163430727,"66":-0.01336645232429884,"67":-0.1794962372878636,"68":-0.09662477016176962,"69":0.03476450939593051,"70":-0.014612949965653725,"71":0.08225592508753049,"72":-0.5080367228104732,"73":0.04277416879002088,"74":-0.07978813554139633,"75":0.37776340265387043,"76":0.08544818637856336,"77":0.03647031816754315,"78":-0.0032708348294945557,"79":0.2391993831464558,"80":0.1209360675857672,"81":0.05852761846744431,"82":0.003190290622481086,"83":-0.05414558853532962,"84":-0.5257632091850277,"85":0.016558236701765556,"86":-0.07865409911447813,"87":-0.45765786278018766,"88":0.12107384877209963,"89":0.08129003063911389,"90":0.02319930588828428,"91":-0.047439228560168474,"92":-0.07430516706699263,"93":0.061152953966300924,"94":-0.01621678063722388,"95":0.009479764534719201,"96":0.18860011599461385,"97":0.1418649545593333,"98":0.007327804043945385,"99":-0.2014217605358255,"100":0.0316145283608651,"101":-0.028243904255385484,"102":-0.09961044663637278,"103":0.41130876445029224,"104":-0.34848342536703786,"105":-0.03375191519292059,"106":-0.014113289730011724,"107":-0.2154216028555587,"108":-0.2480216850251323,"109":-0.16979446737349627,"110":0.05724571155757643,"111":0.21796521411801187,"112":-0.26011821107630534,"113":0.009887668677687856,"114":-0.023119260189346798,"115":-0.004727484566012176,"116":-0.016383349322003967,"117":-0.07715550461907268,"118":-0.03611399611700875,"119":-0.1727555156025502,"120":-0.2880625164109288,"121":-0.2972727205450183,"122":-0.0045853301259618975,"123":-0.012433200099908644,"124":0.06468913608465848,"125":-0.12031165524426128,"126":0.004477421247999695,"127":0.2706196897915103,"128":-0.2464475589350147,"129":-0.15465359992157376,"130":0.009586229346323203,"131":0.10059869328532255,"132":0.03734141764133788,"133":-0.2843964162467579,"134":-0.024192017966810624,"135":0.20317271427649727,"136":-0.2787667743175732,"137":0.029067390667957077,"138":0.05703987138444995,"139":0.4943993845972974,"140":-0.13364781218057023,"141":-0.03120773763152424,"142":-0.04743590756475871,"143":0.08214598030887128,"144":0.1072250196980729,"145":0.16994989850289766,"146":-0.017490676709668505,"147":0.047452952493065435,"148":0.14451685039124876,"149":0.033394352425350556,"150":-0.05493380751167716,"151":0.38842623008423666,"152":-0.5828773774675123,"153":-0.28239185310427856,"154":-0.07726239400698913,"155":-0.0019283680323782994,"156":0.06684188081138616,"157":0.10555779035849844,"158":0.010645873550800315,"159":0.04418496376644305,"160":0.2868068421238197,"161":0.13583473242410896,"162":-0.03803429536365323,"163":0.05908465569207274,"164":0.02371373797342258,"165":-0.19137627937981658,"166":0.0988240638975176,"167":0.06363505184095175,"168":0.171184217727296,"169":0.018207301355109375,"170":0.171392205280665,"171":0.05550256201422149,"172":-0.013081515733800566,"173":-0.11069730650291983,"174":0.003159471000372225,"175":-0.06724833723495989,"176":-0.03726126331000791,"177":-0.1924306042277073,"178":0.02275619693678753,"179":-0.01762034456917907,"180":-0.012979892684204788,"181":0.0073728134232423324,"182":0.010369190097735147,"183":-0.021433837044942755,"184":-0.15351593026867438,"185":0.0026963305011730287,"186":-0.013446049660261474,"187":-0.03797895311994041,"188":0.03857139888505936,"189":0.25125112634099606,"190":-0.0339305741012009,"191":-0.044591128937055316,"192":-0.06220959435139125,"193":0.014899607828345448,"194":0.024328684115183116,"195":0.14918715978774733,"196":-0.0065606428632521965,"197":-0.030413098243009286,"198":0.0028490942225033056,"199":-0.09074837884107637,"200":0.3230872911939745,"201":0.025509665432610747,"202":-0.041108202007155335,"203":-0.20438194989073127,"204":-0.07284827060458554,"205":-0.014623667659447512,"206":0.012494769763371025,"207":-0.1953563974775877,"208":0.03570506969876262,"209":-0.02893926658555241,"210":-0.0480588733580644,"211":-0.09353159733713524,"212":0.11458608325974655,"213":0.035820461409486914,"214":0.008169066130072922,"215":0.024863478429159137,"216":0.2521536378201326,"217":-0.022581491143607035,"218":-0.023057340497331692,"219":0.02977542432597994,"220":-0.030454331284690897,"221":0.12272939004530926,"222":-0.007018564003560469,"223":-0.18561375205785716,"224":-0.1762189140920783,"225":0.07506814984674971,"226":-0.014192367584843402,"227":-0.022030175295411736,"228":0.012245725669426227,"229":0.03677394633327014,"230":0.049124748342549325,"231":-0.1598953958845316,"232":-0.02376779431370369,"233":-0.05194909495183138,"234":0.020607940372608397,"235":-0.34866908286731263,"236":0.04878323513196123,"237":0.005538080143954821,"238":0.0015177715148442144,"239":-0.14409705199417464,"240":0.047224344426290414,"241":0.010417928050220873,"242":0.004669982787047383,"243":-0.01969813154097608,"244":-0.0012621504915136712,"245":-0.0024531974097311542,"246":-0.013321847122758197,"247":-0.003345553767730889,"248":0.5207244728252924,"249":-0.022091685792825565,"250":0.0043099195945024895,"251":0.01234039413700197,"252":-0.04429765223349319,"253":-0.31246893487083416,"254":-0.06797416732768786,"255":-0.07977288674992375,"256":0.047876175496997006,"257":-0.07300828788583011,"258":0.014022392490032386,"259":-0.013320727874501464,"260":0.07245514509259067,"261":-0.4613207821759177,"262":0.04220684055235488,"263":-0.5553751445885564,"264":0.2251700061382878,"265":-0.010082343262036922,"266":0.3712830909833714,"267":-0.014718921055293866,"268":-0.017747202934508474,"269":0.07179261792445846,"270":0.003278712052199033,"271":0.0933018969913665,"272":-0.014146328430684755,"273":-0.018967423600787927,"274":-0.03792345691805371,"275":-0.4175235375290176,"276":-0.1279939103800229,"277":0.013825695958551114,"278":-0.05291317777811034,"279":0.18876496976553864,"280":-0.03005117388512853,"281":-0.07521248061786534,"282":-0.005061069680231209,"283":0.007349717154210201,"284":0.2025150344400872,"285":-0.10955430547850192,"286":0.017377982854168965,"287":0.023343944240076388,"288":0.21701276349043236,"289":-0.06350065423362995,"290":0.0000736124306724891,"291":0.0003583113843264325,"292":0.022743980418974855,"293":0.0024964579940183734,"294":-0.10581357656759129,"295":-0.045767245870581647,"296":0.13715280001939567,"297":0.0190839080936914,"298":0.025287760062694797,"299":-0.02167619910863951,"300":-0.17162397162405155,"301":0.048985988523661546,"302":-0.00038426813852523176,"303":-0.2102488468599515,"304":-0.005661470074684227,"305":0.037413861381527296,"306":-0.015633090327979094,"307":-0.18858701367370678,"308":0.20351632489917737,"309":0.06612687505038072,"310":0.09796033739413082,"311":-0.12719245661418713,"312":0.03253935153908176,"313":0.43967352405833393,"314":0.019116422934295302,"315":0.027948808688958524,"316":0.07959711085694832,"317":0.3390473002661359,"318":-0.03586742108388501,"319":0.004440025009999194,"320":-0.3945747307727185,"321":-0.16692212058556297,"322":-0.016245141744212526,"323":0.2431197206335773,"324":-0.09220319995739767,"325":0.4529795424962038,"326":0.029688248667789238,"327":0.17989114656110278,"328":-0.17860642633210602,"329":0.02508327089184673,"330":-0.1729528943435128,"331":0.3170533426434007,"332":0.07544282355762551,"333":0.33690617087486624,"334":0.10128443993417956,"335":0.11712435895901036,"336":0.08140044881025478,"337":-0.11224330943028224,"338":0.060923652997615846,"339":0.000970223134862271,"340":0.22633749585602747,"341":-0.024439911501726287,"342":0.06864543647372585,"343":-0.3176278838802933,"344":-0.1398067450156296,"345":0.24665816199396348,"346":0.007713578878936649,"347":0.03728857512255006,"348":-0.3639262943455566,"349":-0.6440289796940945,"350":0.024083494829633696,"351":0.10281804314589055,"352":-0.1375974594930863,"353":-0.5443080616395594,"354":-0.19557601813935402,"355":-0.2683502515438975,"356":-0.07252768705316379,"357":-0.13195082732174981,"358":0.036965376801113864,"359":0.1210067492073644,"360":-0.23246164815229575,"361":-0.2838751647588894,"362":-0.33984305142543564,"363":-0.2011376915029398,"364":0.0691200118245744,"365":0.012742015180818283,"366":-0.09241715060337105,"367":-0.10633011627864325,"368":0.31614795382202227,"369":-0.1966530002958553,"370":-0.0300420118394759,"371":-0.20956916228606104,"372":-0.14994900323537017,"373":-0.049418820037535,"374":-0.10884729861347968,"375":-0.5717089968312342,"376":-0.4428183876513845,"377":-0.34342951160401347,"378":-0.08114001740418185,"379":-0.26998402194656934,"380":0.056245589494784455,"381":-0.48263164661044367,"382":0.009119735372009385,"383":0.051568114351159045,"384":0.3938027537689197,"385":-0.29175178710659605,"386":0.08997479498444298,"387":-0.2363161048695655,"388":-0.028098565984829706,"389":0.5443981318568056,"390":-0.06600599056742096,"391":0.045346904361300996,"392":-0.06519310515582426,"393":0.1312986157576596,"394":-0.1275890690525511,"395":-0.2928316519280384,"396":-0.38680963499393833,"397":0.18032365163496036,"398":-0.08795770575855667,"399":-0.31542383423931236,"400":-0.025480015941352557,"401":-0.12175335085723328,"402":0.028406944969297864,"403":-0.3285647841029135,"404":0.10394102754318824,"405":-0.1139853408903716,"406":-0.10791921498629388,"407":-0.031728722177474016,"408":-0.2787957875389044,"409":-0.244000130702697,"410":-0.02944955566438167,"411":-0.16264744707399406,"412":0.03920434872825112,"413":-0.4604615930159146,"414":-0.013254861891453017,"415":0.9659807056081672,"416":-0.3278033148323005,"417":-0.021314387668729947,"418":0.1640454865228261,"419":-0.0928076296051545,"420":0.0031136761220149326,"421":-0.4175189571523212,"422":-0.0036346463763844115,"423":-0.08150118820703972,"424":0.01496024706340131,"425":-0.09838597753734935,"426":0.17957690632181886,"427":-0.32161106028474423,"428":-0.15737848858884648,"429":-0.36601646128841464,"430":-0.10274764653401573,"431":0.02628014866335181,"432":-0.17603008698228728,"433":0.27549781919903027,"434":-0.03131990265645154,"435":-0.008561974736850496,"436":0.17542442078349357,"437":0.049548106697286855,"438":-0.02922066028945935,"439":0.13971286022744792,"440":-0.4675981270272556,"441":-0.003434468888292371,"442":-0.05793838568883204,"443":0.02250852942901152,"444":0.2932500429249656,"445":-0.3501932554007878,"446":-0.03437895029890654,"447":0.29387915772259654,"448":-0.12228112697399456,"449":0.0020747635510802364,"450":0.05141787230673394,"451":-0.30281324299646195,"452":-0.022129863691532536,"453":0.029439053189690492,"454":-0.0037514832553728664,"455":-0.11052287409254696,"456":0.18888919890216127,"457":0.2041482268466701,"458":0.007765648418471437,"459":-0.23857259458198984,"460":-0.034078746447304235,"461":-0.1343117901878475,"462":-0.0877009105440783,"463":0.0176751675406021,"464":-0.2483443587014601,"465":-0.08518620154337735,"466":0.02364130192094143,"467":-0.09475005781454417,"468":0.17695959340454342,"469":0.14387341319373295,"470":-0.02203005412730373,"471":-0.03079392305964479,"472":-0.23879601718132215,"473":0.011067778367161496,"474":-0.05071236615065187,"475":-0.0578492336655825,"476":0.2767747644974007,"477":0.2675580424681044,"478":0.026804099234577307,"479":0.14406634038239363,"480":-0.14318493711271107,"481":0.02927434856572328,"482":0.027765077282865747,"483":-0.07687520758772325,"484":-0.01435829421120729,"485":0.19187376139988058,"486":-0.010389706315269693,"487":-0.18555863604331366,"488":0.019187311424047945,"489":0.34771854877633324,"490":-0.011463765680367995,"491":-0.015914366126732336,"492":0.20226583444619728,"493":-0.003348474754601233,"494":0.057122873592082034,"495":0.2489872614693688,"496":0.015320456334668837,"497":0.0045826120691616935,"498":0.007790779286264979,"499":-0.0626288994481405,"500":-0.08990275021651649,"501":0.048457414643919255,"502":-0.0376252617036798,"503":-0.009915462124328221,"504":0.09607042919183248,"505":-0.007960486655505788,"506":-0.043552430982066494,"507":-0.007470127624743849,"508":-0.012478022097486951,"509":0.08286286599766673,"510":-0.017264217583522864,"511":-0.10176646091995976,"512":0.4589478808659618,"513":0.08719113410395231,"514":-0.05398710610830372,"515":-0.1302883592882576,"516":0.009831425250791764,"517":0.07827477812120422,"518":-0.08293498839172829,"519":0.07024971427618232,"520":-0.30024069364637085,"521":-0.017247799254264153,"522":0.3165177174566016,"523":0.08832646622611512,"524":-0.042955176360837365,"525":0.1788861780604065,"526":-0.03301482516965004,"527":0.01676515008751317,"528":-0.0007513664719323392,"529":0.0033315181169766154,"530":-0.01730959615419312,"531":0.1759874927010979,"532":-0.0007471003253786895,"533":0.03291506393674506,"534":0.11061863369394982,"535":-0.2572262088897243,"536":-0.033656776918748646,"537":-0.5767778013799896,"538":0.0192889965923727,"539":-0.003859254283156819,"540":0.05982808853115566,"541":-0.0278359359407887,"542":-0.0012523347951346581,"543":0.023698258181046893,"544":-0.25956842965127774,"545":-0.049575356569552836,"546":-0.013914588530546976,"547":0.06125669459028643,"548":0.13527677481260977,"549":0.049077304335022574,"550":-0.09013897608719554,"551":-0.006298927585660634,"552":-0.5046088705319999,"553":0.010564922338882184,"554":-0.14323820679480878,"555":-0.31693031001135213,"556":-0.08953570127898615,"557":0.28640786155273135,"558":0.0713069652061371,"559":-0.08090998314101135,"560":-0.01996010734962103,"561":0.09034114069595371,"562":0.03753930793236007,"563":-0.08032183939008114,"564":-0.08686388387423095,"565":0.12471374520309245,"566":-0.054041181437050334,"567":0.26526925222098124,"568":-0.06821920995660258,"569":-0.25112042696602804,"570":0.059180223002260696,"571":0.014496800786859044,"572":-0.001993851028296606,"573":0.13982727276669185,"574":-0.11048713248074575,"575":-0.025779715123837536,"576":0.06272297706244018,"577":-0.43779840280993326,"578":0.04201335467293108,"579":0.3183276366585566,"580":-0.057631860369721906,"581":-0.47123568123013887,"582":-0.2973624960252699,"583":-0.17969103498786587,"584":-0.42237294158030675,"585":-0.04699044834716458,"586":-0.0515533661167071,"587":-0.02597881899502413,"588":0.271999176065842,"589":-0.08435708645971345,"590":0.026113980657574375,"591":-0.3548681505013769,"592":-0.3523868474195576,"593":-0.07926144603886011,"594":0.22969332754854818,"595":0.09764568679861868,"596":-0.03421804429605829,"597":-0.05206342992059292,"598":-0.13454419772237777,"599":-0.22126729674600015,"600":-0.6785137296655538,"601":-0.013417306249241897,"602":-0.08762683462919563,"603":-0.03824534114496145,"604":-0.1003408009183693,"605":-0.1987541926394555,"606":0.007618586361342533,"607":-0.11851558493125706,"608":-0.13547889384865947,"609":-0.13942712737869,"610":0.2012726961234729,"611":0.17053884610869616,"612":-0.13424995453357436,"613":0.14281853208420248,"614":-0.04321953950646483,"615":-0.17511795653289267,"616":-0.15810947378392093,"617":-0.12319449706961215,"618":-0.16519957665908747,"619":-0.2645960527207369,"620":0.4553583741804493,"621":-0.079040853921008,"622":0.12573965047835634,"623":-0.2891650646813182,"624":0.09902755739025784,"625":0.832391071768018,"626":0.33257186987505477,"627":-0.09773753117331468,"628":0.05823698509342805,"629":-0.17632516674949084,"630":0.026500478802513428,"631":-0.09218884691778323,"632":0.1255495574642065,"633":-0.09131066882853187,"634":0.3596022847689905,"635":-0.07176674265735042,"636":-0.23065272811920887,"637":0.15289288902654616,"638":0.06418908488853853,"639":-0.23809638055914684,"640":-0.5074682514226867,"641":0.07498607621555081,"642":-0.09210518623936062,"643":-0.09964417493035631,"644":-0.03587315609267435,"645":0.250351078539206,"646":0.4923818169830573,"647":-0.020228091100459526,"648":-0.03824228251558449,"649":-0.16523007073201648,"650":-0.49633141021716204,"651":0.06918548100757035,"652":0.37828588304719973,"653":0.2309520485051979,"654":-0.10932526564423653,"655":0.17327103950004208,"656":0.3424674160449307,"657":-0.00910876904325795,"658":0.17124148615853715,"659":-0.21292389414269272,"660":-0.5586847012643086,"661":-0.1454833655182276,"662":0.06889482478236585,"663":-0.08387991553679695,"664":-0.29301152565360467,"665":-0.07235424385203633,"666":-0.17381330585529692,"667":-0.16930166769974436,"668":-0.1931464847148565,"669":-0.017574536372087068,"670":0.06045865054092837,"671":0.11750608099275102,"672":0.30587690882338653,"673":0.01065801781379739,"674":-0.36200592498434075,"675":0.42154061051222674,"676":-0.10871669289778259,"677":0.10720029425773529,"678":0.09104796669117035,"679":-0.044410898821193326,"680":-0.024654012983130885,"681":0.2696256165351203,"682":0.1567132360074119,"683":-0.11779613727907966,"684":-0.7343086056913622,"685":-0.05317220834347067,"686":0.18108658305915662,"687":-0.20452660953226523,"688":-0.0881678667514641,"689":-0.120834065845541,"690":0.1270623045254767,"691":-0.03441249934402821,"692":-0.147740930934119,"693":-0.05348003390356673,"694":-0.02777648246941949,"695":-0.16647083439712673,"696":-0.023129931225771904,"697":-0.004558183723677577,"698":-0.06030926441575816,"699":-0.17600586846505337,"700":-0.007218491359752595,"701":-0.06429934259997534,"702":0.008214413804799661,"703":-0.012475701413037782,"704":0.06754643800384857,"705":-0.03728292245514745,"706":-0.08996540398499166,"707":0.05505669829742339,"708":-0.010167534833639882,"709":-0.10781212025064948,"710":-0.03981065508653175,"711":0.0370589703653505,"712":-0.0594201166890045,"713":0.16476218137013127,"714":-0.015078137282457015,"715":-0.0781028363595904,"716":0.31635016132765686,"717":-0.3526266507035923,"718":0.09487493378672053,"719":0.0416857372455283,"720":0.025853043565850636,"721":0.020706939720691535,"722":-0.5733651648754969,"723":-0.10217148854060805,"724":-0.23291766831468524,"725":0.04023469935951365,"726":-0.04526783680672285,"727":0.07488172961190478,"728":-0.10349169469423468,"729":0.019900906267451644,"730":0.012341743016181926,"731":0.002464034164206211,"732":0.34991255378080777,"733":0.13755645059879124,"734":0.010207917354276789,"735":0.05469583712372,"736":0.04743452451043066,"737":-0.0288290974390619,"738":-0.0013683120100471016,"739":-0.019740748575867557,"740":-0.020039760089507856,"741":-0.06114354053520331,"742":0.025520107353824026,"743":0.0011379410071843134,"744":0.0028573896305520577,"745":0.4909141312436887,"746":0.05728653610415751,"747":0.11227184420858186,"748":0.45689058949019706,"749":-0.010786528636490168,"750":-0.030933994425634798,"751":0.05493028207334589,"752":0.005922847861478099,"753":-0.02816156681720872,"754":-0.0011028915691433602,"755":-0.014080849343972315,"756":-0.054412082222926886,"757":0.1789036275005542,"758":0.014031922053059134,"759":-0.024968018780280106,"760":-0.0875208798424413,"761":0.034218695809738756,"762":0.007294232002360627,"763":-0.015328162005332994,"764":-0.07227396744767035,"765":-0.03864101650792866,"766":0.007676575210493796,"767":0.0340767509063403,"768":-0.1649253594555596,"769":-0.015664925196287826,"770":-0.009277503650389806,"771":0.17573315843358864,"772":-0.024843172132945384,"773":-0.03837200076645918,"774":0.058389545481378445,"775":-0.04004133492819058,"776":-0.0643565322399761,"777":0.008005625483503545,"778":0.5169137027597835,"779":-0.14303566833575485,"780":-0.2346858355898818,"781":-0.22127520883668633,"782":0.01143181208398382,"783":-0.20094993936274957,"784":-0.027755255801015358,"785":-0.056038752705365555,"786":-0.028134738160588688,"787":-0.14144705121864687,"788":0.005150701814511634,"789":-0.01893166124403296,"790":0.021474985104000675,"791":0.0004866174072958476,"792":-0.039208526845685016,"793":-0.1366945188907308,"794":0.06742190309685248,"795":-0.03517102229088014,"796":0.005033648308463612,"797":-0.08610667132230543,"798":0.03500652227412679,"799":0.007160457857683812,"800":-0.18196416685532843,"801":-0.08535057197233259,"802":0.3832134300564408,"803":-0.2761435946132524,"804":-0.3673946307852193,"805":-0.06920958641694427,"806":-0.2180710436934582,"807":-0.10548129697305039,"808":-0.1492900752517917,"809":-0.003327796265588969,"810":-0.20919031287309608,"811":-0.43225859797420485,"812":-0.09432771723041801,"813":-0.2890334525324792,"814":0.026133157111055634,"815":-0.11964426318819456,"816":-0.07534937102327795,"817":0.5670439329230724,"818":0.010671843568818009,"819":-0.006234788734873342,"820":-0.30032534274171374,"821":0.058059800750057004,"822":-0.08998195356476968,"823":-0.11945833275938267,"824":0.019084320481739154,"825":0.04777388621070475,"826":0.11994305523202917,"827":-0.2754759195843605,"828":0.043858430776140836,"829":0.05379459109973775,"830":-0.023103140490230194,"831":0.008078202891734044,"832":-0.010680763118732289,"833":0.028273375171269412,"834":0.15249004353304155,"835":0.07172249361415876,"836":0.1954245111402204,"837":-0.2144539755424364,"838":-0.16617259103371407,"839":0.18493559076958307,"840":-0.03609377004447769,"841":0.0686593978096162,"842":0.16904424175260002,"843":-0.09470223222033315,"844":0.01507532504429728,"845":0.05656243961895818,"846":-0.1324781942521712,"847":-0.06308603500955058,"848":0.019455851922647927,"849":0.2769589374438956,"850":-0.07566405083390787,"851":-0.30737034653560946,"852":-0.3811907634465484,"853":0.02156045569415765,"854":0.255461807008952,"855":0.42640324541894364,"856":-0.19045347504577292,"857":-0.07459933826326381,"858":0.1373505949053145,"859":-0.2835736434355547,"860":-0.055183507325943355,"861":-0.12062541368681305,"862":-0.06471928294984103,"863":0.1464728695996492,"864":-0.46962854637029317,"865":0.0022271784058616947,"866":-0.08330287829628692,"867":-0.33391802135067933,"868":0.23541829867182135,"869":-0.2457883377709417,"870":-0.1325381623756339,"871":-0.3190966787508051,"872":-0.19351315051275203,"873":0.03762166690857704,"874":0.022927641336109923,"875":-0.08299357554064189,"876":0.12281631516259178,"877":-0.5204645828098124,"878":-0.030696476129606628,"879":-0.3971754173428462,"880":-0.07111090343193696,"881":0.10496726932871848,"882":-0.026921464087880504,"883":-0.047156565920577535,"884":-0.27062874554408056,"885":-0.04605478473346831,"886":0.1942581727630008,"887":-0.03485073455178661,"888":0.26648199439299286,"889":0.22598644282102523,"890":0.5514093623741546,"891":-0.19008649021963828,"892":0.1278642103565974,"893":-0.05748206357089783,"894":-0.044815082751810176,"895":-0.1918953121960689,"896":-0.014352052516878183,"897":0.18171914462677458,"898":-0.21341910226549368,"899":-0.051244287970107216,"900":-0.3254554628779572,"901":-0.16462944014659786,"902":0.00043759213902059044,